[[{"weights":[0.1823272928107332,0.36225580717489253,-0.11893378062687589,0.35002352921363644,0.17751257576610208,0.29451805666822073,0.26329977284365275,0.4407767381668165,0.2708058566603321,0.26444906941783275,-0.15553965361983207,0.3274125802195381,-0.16047633722456855,0.06513050864631921,0.43856941563557444,-0.4071701581715367,0.30056502020841064,0.11969961106305596,-0.5532065538624762,-0.488331638176591,-0.5165848043658461,-0.052374518917056884,0.3191167379464118,-0.16339332193973627,0.22658885935314962,0.4467628833836195,0.02690864168664607,-0.13525722350606814,0.15379771131634887,-0.11178154759437936,-0.35807829447840617,0.4732740651413958,0.46990856119622887,0.31741966515163594,0.09216590048686815,0.3301125471584174,-0.4314601856282164,0.4618303202935764,0.2423780416085748,-0.20864975188809382,-0.08658524766089058,0.3958777929139487,-0.15279780344342225,0.32627755697819466,0.2683102540298484,-0.02325851094555208,0.2791186950354781,0.08366169964058598,-0.26449863229600645,0.26645313361808654,0.30452778167451494,0.4993004923888252,-0.05138520423492973,0.4826152298164171,-0.32949399834100046,0.03853015168338235,-0.5074163058544743,0.30116950105775053,0.1902171280973343,0.28909174054147274,0.05340896806934202,-0.2914482675010882,0.4420261251589067,-0.07962672368801203,0.09243389505428122,0.056448807149560895,0.5093273250250523,-0.2997440358452126,-0.12964284192758593,-0.13255449980929188,0.20375638868897594,-0.1251039021509281,-0.231802670315033,-0.447916121314781,0.34163762994425634,0.05089892690954609,0.42523837257466424,0.19240404856359225,0.34922939120975766,0.034454903675981634,-0.3948897258447487,-0.13996095370255165,0.26593704475448104,-0.41069839525881763,-0.3396836487208005,-0.28301379809403326,0.31493780997345194,-0.3599670015937444,0.29792895651382667,0.2715273168754581,0.5449119071332947,0.40453355415020953,-0.25420046098734567,0.4995243050672192,0.4714019216009008,0.4035588666147716,-0.08260875922531101,0.3462964794410411,0.025669922609724578,0.13696735725783551,-0.4417560358235247,-0.2283681475752319,0.11584375913425489,0.1828519661770533,0.2944143233638962,-0.017695178208266743,0.18283720599099246,0.3538569461214315,-0.3685720621637716,-0.0951549778895738,0.4426718024412439,0.32174616108148224,-0.21724148519392616,0.07943792373209686,0.1773581055004725,-0.14242847881435325,0.027832611829095456,-0.18582892724826264,0.38190417084867,0.17142124955590562,0.13679541150176827,-0.4176640695889815,0.3397693763173155,-0.0664643784870334,-0.31198038460387356,0.46486519656193676,0.10810486411978036,-0.13654892153217912,-0.40237709388223897,0.11332132082547071,0.030115109926877943,-0.20967644452045614,0.33811050975400575,0.42069135986832296,-0.4447614057540544,-0.36492130415095786,-0.007197537465668155,-0.24079997256078445,0.4400484939028404,-0.4465079222983425,-0.09614872748157731,-0.5327973856829059,0.43669587214925176,0.12914572908991143,0.3597839684259855,0.5076536507283332,-0.3810301833925738,0.5326031756722116,0.16214504843601563,-0.06517673470848935,-0.19415914769023981,-0.059942208578590915,0.3766053324292096,-0.4339153731628238,-0.10922979160630221,0.07755634997906682,-0.13753024267528177,-0.008713851346995144,0.021433681405818496,0.47433041935709597,-0.18491112620084563,-0.258919042441475,-0.05615932332709974,0.19520404124166224,-0.16215407638290957,-0.49115263678524085,0.4308850609055684,0.08439306705064288,-0.2453633355626265,-0.028619226711368614,0.3216633078389483,0.3752256435542626,-0.40447225585522306,-0.02417053918565834,0.2974565640578818,0.3525524913444574,-0.3207922274651065,-0.4739499621120916,-0.20573745086137177,0.2648963884706663,-0.10107148970034362,0.11691207223763227,-0.4351204910759446,-0.14486210186276965,0.228879151816521,-0.4225805158784081,-0.3421548558736628,0.5016755471337333,-0.08903845081451849,0.056952333319264616,-0.19406940845992604,0.2938611047571202,0.36640933260158337,0.14465031376153448,-0.5315846608079189,-0.02073649707728033,-0.050199857855550416,-0.11728248108784285,-0.09823422514885237,-0.0936879277411183,0.12920313547930973,0.26463211983509194,-0.4470619377455972,0.4155003653165825,-0.09681498548343209,-0.0460910245048901,0.3934129641632258,-0.2944167392220545,0.343511595623435,-0.35832466771361304,0.1998271267901752,-0.40548062193484075,0.27980613792348613,-0.03330015746532211,0.09455189221886995,0.28399878026965486,-0.3988880878067023,0.19558987446678658,-0.36262083704203824,-0.3984473478103917,-0.17098177076162385,-0.4360824955643693,0.06235430039181536,-0.4708853945755685,0.00111473729784032,0.42226033923119516,-0.3444288700318722,0.0029110891185651676,-0.37452907701766797,0.34465264591130196,-0.3029250060868809,-0.035783272938220714,0.38761884597752594,0.09861922388572344,-0.2440392919719367,-0.2818698873259452,0.40326519961003787,0.03508034706709922,-0.10343221469106252,0.015054532204288575,0.011743994966121482,0.13176506242715078,-0.27928194766626346,-0.06677794626579169,-0.2883218816872479,0.37694308992978703,0.0409900873418535,0.20544712538443252,-0.09005617928295391,0.10363011799973182,-0.17508269727298856,-0.5232694822167195,0.20349486198385539,0.2344139460780722,-0.4173225912869427,0.15769998624908987,-0.42019485326246686,0.36948778277019906,-0.12395305424284608,0.488651508139239,-0.5109770946437117,0.12623382723113966,0.403096882030496,-0.1376320174315021,0.24524895117519654,-0.3006654511862878,-0.43199822665919496,-0.18134371502076235,-0.4310414373822571,0.27569564137338604,-0.2458836833190212,0.4437699467697784,-0.163388106791673,0.20197145486752058,0.4278202812456001,-0.06157336982588824,-0.23008044620423782,0.3277970348203609,-0.48622892752593244,-0.25876951441990487,-0.4090614898993375,-0.31786088194345086,-0.16648566627473488,-0.3289291977667394,0.19865660604365126,0.4393324817951304,-0.18948999668838895,0.16588544603737215,-0.05477909968003489,-0.04405030862794361,0.2285625504218533,-0.2742510856828957,-0.05518112912333701,0.10377761872889577,-0.46369781995788145,-0.5038239774898559,0.22550489373422417,-0.4142430894787416,-0.14336871095816053,-0.41543810977297585,-0.08893370639382164,0.11251376366668188,-0.4536254012338411,-0.022451471798766963,0.07788793084843293,-0.4688516549615949,0.27543313308839573,0.052489743092436925,0.39520506377680237,0.05351238840899665,0.1465839739926543,-0.1362800144037866,0.4883996517304399,-0.4980943417934789,-0.10846331154178111,-0.1463230385848298,0.030799644409888263,-0.18493144606109224,0.15961308597721574,0.3414740847483064,0.010393438623100595,0.2786981076633285,0.38685985088072194,0.015905167076912956,-0.3582668803701365,0.007071070464261413,0.3357935360210343,0.31147035790890465,0.4106700129501695,0.004531138732892222,0.15255633363681811,-0.30794367597427674,0.3581017284320865,-0.05103633337825991,0.3050234989839387,-0.20574830121319038,-0.425188633464785,0.13349220451587127,-0.386292049593806,-0.1878846426539509,0.01062907742582222,-0.05449438313444295,-0.3786005816847325,-0.4206576419927896,-0.4271129727713943,0.2922556564958995,0.3939605316437507,0.2792369998014096,-0.3393317024182367,-0.08019371227159607,-0.5116046272065626,0.13367401123759548,0.10913711247954531,-0.45703820185689226,-0.334292456546703,-0.14482962481089728,-0.2808100130407388,0.05510835010080649,-0.3041685523925736,0.3998711551421936,-0.011872168851693695,0.03480427053328437,-0.43244695943047023,0.35816580792555913,-0.04375830387194245,0.19172245349098266,0.3852059227565481,0.1785362695861713,-0.07850106891361341,-0.25728204381807923,-0.44072493499281945,0.17450690172084068,-0.11533562570440697,0.4420349009493403,0.13848203966190792,0.09318252209799344,-0.44014975566805115,-0.29843827939204515,0.033281578368168745,0.4062379061716489,-0.4210522464805171,-0.3980639427412402,-0.11184955174739628,-0.19951995775183556,-0.44290149332773454,-0.48301475621994194,-0.4084019655099056,-0.31736961730107,0.15067657249788297,0.18281832533576348,-0.24820189333036494,-0.30816143360147297,-0.019789402385582272,0.3378399195353813,0.12142924870244137,-0.02571735706268823,-0.1980002940443244,-0.30377747041821,-0.04916631856499367,0.4154656640449593,-0.36835159826779335,0.3743173252596839,0.17527995817562617,0.2682303537049233,-0.31722326709891413,0.1267871569277071,0.07617142172318256,-0.165633058863867,0.3701224847243823,0.08207863026871666,0.11889780656203419,-0.20529586613445946,0.14659818927625212,-0.472315679544896,-0.41295043070031007,0.3481479989680343,0.45115627038721096,0.16209947476060135,0.12280001069095009,-0.35618211228118124,-0.04114248000643485,0.31930315909309587,-0.21228643909251801,-0.479169174811412,-0.31538163970969035,0.44046251891044547,-0.2768634863363096,-0.4989960245360995,-0.44339217409174875,0.35508888007683564,-0.18582223993186833,0.2635102076772566,-0.03974379213384243,-0.22223336390959852,0.464509121935831,0.1822018013326727,-0.46521383708399433,-0.024346073311863836,-0.07882498601593117,-0.4055165594623016,0.17790383078116648,0.34120317746221906,-0.4011250523700498,-0.12981323883581977,-0.2865444469784716,-0.12670191186353308,0.45418820551685163,0.14025995572368335,0.11897947727294857,-0.2621417567614786,-0.456232503427907,-0.39526470833755006,0.30715157037311513,0.35191643442598936,-0.2671205054452822,-0.4759810345538641,-0.16290634680272761,0.17138625004995178,-0.03625502232375567,0.2394026800204298,-0.22507085968510882,0.4359729902176065,0.44018929535255275,0.47336353317626617,0.08031650419036432,-0.33171133319622453,0.4205523228541283,-0.24542339567962548,0.10993219131615249,0.4032481207491434,0.4469641169404842,-0.032208165718948384,0.19284773546405368,0.45991209255318133,-0.011938529689517332,0.07016384258597287,-0.13434321230876872,0.15463681675294585,-0.06898658620237616,-0.07498102085572425,0.24066976273895796,-0.23638302510913833,0.06277278348862582,0.3285146249816716,-0.37747088241103727,0.2953564885320212,0.013081301299522695,-0.07050216015826123,0.1747426530134268,-0.3983718879503339,-0.06202065429863913,0.23239707090424788,-0.1642481259802379,0.19344597807229658,0.41866555886706824,0.24126894992115971,0.008904214535789554,-0.10428914643604091,0.3483919233462021,-0.49857342554563505,-0.07547435221091679,-0.2751158957356392,-0.33263706898585504,-0.2583190457345628,0.014191040188448786,-0.3340418998345301,-0.2500584580601813,0.1833830996453687,-0.14236885160719773,-0.17062577944103463,-0.4284530492821775,-0.206181978682846,-0.12821979267218017,-0.004693037398215847,-0.24919816156887534,-0.17152690352452993,-0.40558481079408065,-0.20750074329198548,-0.12692609643107367,0.219681438496377,-0.4492710894032072,0.2382299865196922,0.2985416015473365,0.42018451400846946,-0.268954425145239,0.37448420607580946,0.1979601165734529,0.2638790248197957,0.0318156705931833,0.08434926923828773,-0.38517834297101067,-0.10646543602512071,0.39725634909864765,0.4392596536779578,0.08809081108732235,0.06847622457060035,-0.4319374814757273,-0.06732059297729875,0.2786423148043286,0.2397592928038191,0.34851831902325164,-0.3377421681732151,0.21226883483650408,-0.17110148332842026,-0.28740610249090603,-0.1339013486000467,-0.3087531228835483,0.024528748645672335,-0.026749426360816418,0.21802358867249352,-0.18466897237850036,-0.24512511703526832,-0.12622637413212198,0.08907844229668659,0.17901849272806783,-0.14868361441114353,-0.22666600517865426,-0.41761491574850507,0.2870139012940141,-0.49466681400050383,0.11427371752215484,0.28731137369352183,0.20188748423056851,-0.3253680304129622,0.2697468821651847,-0.15558248389016874,0.39290689573644505,0.04892046604302495,0.182146605901482,0.2069659933603345,0.2985227487306542,0.08507944754448184,0.24252179694590897,0.14918119179535577,0.39338007170731654,-0.06767835837213595,0.13702636177653796,0.24854803515674714,-0.17242359179076713,0.23613736346498215,0.3278049870930937,0.4234112008046121,0.1821840900523581,0.08881406465779199,-0.06892571117030495,-0.20266819911607165,-0.09488548858737926,-0.2615482257256113,0.18932424965560535,-0.21037082214260056,0.4500863557129527,-0.010091181553460714,0.16289609797741364,0.0159217488227219,-0.2378893293715092,0.26525858506952427,0.45374445002039454,0.3580727881043827,-0.12578125158947542,-0.45379359045181894,0.17979758369001078,-0.3980761002461212,0.3474938010890175,0.29295840782839,0.08484515259865454,-0.3908607477984472,-0.3548003306868386,0.2482807666691606,0.1022281074538377,-0.25724491421967,-0.18431214783908048,0.3188566300100744,0.4808594622432548,0.03749935558637206,0.3804985958926735,-0.5499446895076736,0.006069493219646105,0.052137868543117326,0.07235094908889617,0.35269385243513873,-0.41698614046770893,-0.18945483825944268,0.2761282976616831,-0.08029223334486801,-0.14844537974704733,0.46139642570221795,0.08576895879206252,0.18739904468253482,-0.49762840738139064,0.16243812794723456,0.3690390473531155,0.15937082905885258,0.19453553707277702,-0.4910359635154605,0.010726939784346615,0.09281971223556713,-0.23839679324861107,-0.2128912761353414,-0.19935872725005033,-0.020665616964579824,-0.15792534085541857,-0.2889837217936711,0.011291280788303671,-0.22148155557390997,-0.5241995245290264,0.24904336356587378,0.02403995652449025,-0.3808111477667241,-0.1947611732173231,0.03607237112094164,-0.03139208168369625,0.19649244919046024,-0.39084693637714973,0.03647660246900392,0.15657138416171665,-0.20315854535901084,-0.2889424282776427,-0.40812394998315643,-0.23945855150181763,0.2000145819578989,-0.3474433218410851,-0.4143806547123002,-0.49029587798336216,0.4514019481621306,0.15242604857298966,0.3118183413277431,0.2833620773608257,0.03655070789732978,0.14077891742788298,-0.13572240732129967,-0.09534759444013438,-0.2658345005110067,0.4128587324607733,-0.26843804239182667,-0.24870678086831338,0.2534436668877051,-0.20234843341325365,0.1378975719995521,-0.23352112699064684,-0.16899721354144406,0.3651960836153049,-0.3946560051189458,-0.0759553497322824,0.37363618245525704,0.44746043909118627,0.3686199949370816,-0.2652463089718906,-0.16303538004503768,-0.5082180816855082,-0.29390440953675023,0.40291551959107236,0.3824939021353194,0.4329551480999824,0.4616984426399897,0.10100813881309521,-0.5141746808004775,0.023819311167441203,0.033921230217240694,0.3571829960548194,-0.49717965049331747,0.43516360612649435,-0.4063707205454075,0.002082801206467422,-0.30968217119351565,-0.3137022027013569,-0.3391383310333402,-0.3717230831156685,-0.13242536167295282,0.366659138167827,-0.25057877559112657,-0.13544769981992327,-0.10345289732145459,-0.4791627598028546,-0.42067515418517076,-0.27842519310386443,0.11619425996743472,0.1469228099793054,0.05057512079579992,-0.35373777123668804,0.0831246642617813,-0.43839886742390005,0.09668330205409233,0.4000035399033467,0.05708988798913716,0.41939611185282755,-0.06328478671935325,0.3522445750559899,-0.11893495701440034,0.20680061953106002,-0.49543752303540667,-0.4875520008812647,0.36601311047811513,-0.2697406730504148,-0.12100705836348176,0.32367306006542573,-0.2773912200450938,-0.28169224057595404,-0.3802237000080962,-0.013505100405514534,-0.4701101150607059,-0.45619355656630456,-0.09783230537187766,-0.4046664768573736,-0.09928998333653515,0.2470272445230372,-0.11898261767216547,-0.5040161567114344,0.005441271478452972,-0.42246943575535867,-0.001123027427140523,-0.03607707277246145,0.02269374036593607,0.3390023953668664,-0.3282198144185595,0.1861329410815038,-0.4241425245820263,-0.042325456754451665,-0.25241688659541867,0.19783503349957596,0.42389966931582673,-0.4444248345425645,-0.16107694087468102,0.4479774960318077,0.24455439635797865,-0.2627731269916029,-0.19949997443246065,-0.30990091567035033,-0.15995188918385017,-0.40795677227687555,0.10420825645295617,-0.47930304168371207,-0.13180655206767278,-0.18834649008809892,0.262383308642718,-0.023895106104901212,0.3149191694758874,0.34376975028795687,0.056406003232682654,-0.22078303912650968,0.22806674638978938,-0.4999247098594535,-0.47755484448558255,-0.4748039806710512,-0.14858848192716767],"bias":0.20542994436026085},{"weights":[0.28085205139447544,0.40894919261713225,0.32399930342952366,0.22779263260283625,-0.02653856816017242,0.07323091023038615,-0.26885079569867193,0.028016162642785752,0.24978743334477263,-0.180639740677362,-0.3573651414569613,-0.039656470793665105,-0.10733788137942388,0.09642904242724246,0.09175846250988198,-0.44468618758346057,0.15873945738785605,0.37952789512612733,0.2926286002174962,-0.3079858584875248,-0.3823209074377013,-0.3595179035291181,-0.4545597705385307,0.1865903221115425,0.20551035798476983,-0.32682636903558676,-0.3368591527370396,-0.45044710104325836,0.012728343678347907,0.18534885674595766,-0.31961866856656546,0.417013342213013,0.1380110890672788,0.1259015280183243,0.11825255112804234,0.030959068993522958,-0.437455464079465,0.3579578499104916,0.16630329043220676,0.1672901922041826,-0.07770175848369518,-0.3970694878547218,-0.36406362173115386,-0.23948371313043917,-0.40700280704789205,0.2834929232768071,0.19059537051798953,-0.33499053283589364,0.40632814708951787,0.10777337525731359,0.21985123062375922,-0.28209399569274785,-0.13602367144345906,-0.5086080519191254,0.22734006316675906,-0.39935832520936476,0.0049052904827604545,0.2928136168236711,0.24195577574127078,-0.33144335011366793,0.16564306885474403,-0.21961347969252296,-0.07795225634356748,0.1518332172492687,-0.056617256746327976,-0.10516485691379471,0.032264556684724395,-0.39955387406219467,-0.1142053610078816,-0.10695472078590809,-0.3253854526916722,0.4704440135650947,0.2522247167787987,0.4859542223025857,0.13007567193092173,-0.09584683375353427,0.215695216940073,0.33716798826333466,0.3246996706461413,-0.5260181950204428,-0.49657277523913657,-0.2171149686243806,-0.208475507061967,0.330390966996395,-0.26007430510774504,0.23918278878610416,-0.01972371805312595,-0.2694864275247889,-0.321033057008931,0.11843524982459636,0.44292000442483354,-0.2702139934233182,-0.14612785831646907,0.10106158506515157,-0.22699420293961364,0.058869438737687935,-0.16571005443681294,0.5243838864719084,0.32663801991468827,0.3025432091364461,0.13299444047659895,-0.22974558899873213,0.07448150520108451,-0.2511392393453383,-0.21780753759372012,0.3211806468027029,0.4533957447884797,-0.13180562511251098,0.2359079521398117,-0.30860871843235677,0.29389129440797884,-0.10152100083889481,0.45511185340972543,0.29612674387618865,-0.18652443636100532,0.3052262316206371,-0.44540286989966904,0.40638908678674673,0.12122921228825705,-0.16832943601740555,0.15942884702754986,0.22791128223405982,-0.12825322806468295,-0.09737935071658547,-0.21217842726221453,0.4925096538193789,-0.0988895546912019,0.4871838122089431,0.5363731517398522,0.004572809517743611,-0.24836956940534852,0.054959907992758954,0.21643130025779778,0.4321702060185751,0.06098592580409211,0.23668054329886182,-0.2297683251939018,0.30379149067661343,0.09288822531136022,0.2932925569840464,0.20890084726419944,0.034811817689453656,-0.160857874926403,0.29013059488730786,-0.1365009549646935,-0.23096941469966553,-0.009184741387242144,-0.19797986966726092,-0.39154883566300475,0.3879153223804168,-0.176889824493297,0.2595647879540905,0.43536950486639503,0.03960454270146416,-0.2978817734725319,0.37617976846739193,0.38243891841319183,-0.2382234789261458,-0.4219404878740066,-0.07530095731434297,0.07284347113246278,0.1246844018727553,0.027268584044070055,0.44181542427985304,-0.08784506777228866,-0.19266420570036688,-0.01206844978581732,-0.4218608134262782,-0.21186407460403062,0.10651646108029265,0.136031830992591,-0.18431588075100583,-0.2309256189124347,-0.22216730872233975,-0.4314010743763452,0.3588811750534352,0.35124927970674585,0.038821255512621555,0.3255070075020841,-0.3682346201232473,-0.1476361135938131,-0.09284055480993601,0.4103781399946627,0.04970741056555982,-0.004476451552191969,0.34061035085346647,-0.30509370717216144,0.01206371983928643,-0.10089531224523149,-0.34268869144001773,0.5400907714839814,-0.28552969795986366,-0.0046917405942814,0.4385025766966742,-0.14350075409815738,-0.12370608766000482,-0.0346198572951792,-0.37210153475979063,0.0046567497343624475,0.34884367414945394,0.30678321900352107,0.2744557607929927,-0.4619996329302698,0.42848590735552927,0.24615008540709457,-0.44800909132348815,-0.10129188864013022,-0.43870566052170135,0.18742142042077295,-0.27817861516837733,-0.3761882105514705,-0.0074071153116453195,-0.449274960672672,-0.1348765453055305,0.3217414355816686,-0.35134468647857564,-0.1466708374592281,-0.24878737970024278,0.11327012155477681,0.14399732095526152,-0.09399629258500636,0.4738832516226708,-0.026324324826990594,-0.42927438051426553,-0.10610929303133415,-0.47312108345411813,-0.5322237520634825,0.26930015432839666,-0.41037703038953943,0.42366760110566865,0.43690618095907974,-0.4328201719868872,-0.2484325093362767,0.3408265838699729,-0.1863416893216609,-0.4133074313860778,0.38689753344377953,0.34254326991112216,0.3912238788698939,0.22890762254547337,-0.38106313539334774,-0.2944642735263362,0.04746755799497002,0.05593032913208459,0.4645217985413714,-0.13823295986931466,0.3412424302674925,-0.018559208112064757,0.13122857228353765,-0.07438139509642887,-0.31148410029486995,-0.04210241146765548,0.37565938841726865,0.010014873322841601,-0.4769210965082094,0.1491465550150001,0.2515527264222681,0.16464831873932942,0.16350048224223396,-0.4816589027828009,-0.20328305399582985,0.4197441030077687,0.3615209529704232,0.42964278234916775,0.16328369168428677,0.3011337245477544,-0.28854557453533736,0.21398790446971705,0.35807550511407277,-0.23288110907946188,-0.21578670877182418,-0.027391293056706657,0.305629595850666,-0.004660327159352203,0.4123723991999265,0.17151176477378702,-0.15179370614961132,0.04675032549124641,-0.34835080493066894,-0.26933270330474246,-0.03603464420598444,0.31246132211861033,-0.3816224608490786,-0.42571534774442515,-0.36958419960081623,-0.22062518728287847,-0.3586038470725223,-0.28956477854407775,0.044494002407021005,-0.08232929782116612,-0.515590578641749,0.392693375607926,-0.3523896430503824,-0.5444664263176188,0.07558058242734356,0.16199146644903495,0.4836221374211101,-0.16199544154158907,-0.4069150888523267,0.5479551012508213,0.4601011750141252,0.007052337958743117,0.1531551841757287,0.2924430578173263,-0.3451708008275071,0.07540807125058484,-0.5213253583453036,0.3767548735960447,-0.07701238174310913,-0.056768262514556134,-0.03118919292794083,-0.41487887732568285,0.27290234979178307,-0.13201050256986288,-0.517219298792458,0.3604791474708327,-0.08100252428772421,-0.31847190697961847,-0.06817366146075388,-0.03690347203241158,0.2692190507831082,-0.5172549570683842,-0.04999787692838289,-0.040398450462256916,0.03954839816225051,-0.28883501212525503,-0.3086842370541606,0.5006420107383637,-0.1650540676510611,0.4044604445367344,0.5105399822904253,-0.169030126133065,-0.11079038047850713,-0.4083400812213535,0.3401988309489633,0.42164348073299507,-0.4486053421965329,-0.29529458415515203,-0.3445274021699261,-0.30964892441320985,0.01786843935268191,-0.05184350645135882,-0.5549466131916982,0.26503720112352774,0.400096514854703,-0.4606003115385472,0.3586265709301326,-0.1420811324111994,0.317035858369465,0.0888225814050927,-0.3704565089549087,-0.494611839248499,-0.14705913254875727,0.05999942662651557,0.24410631701213445,0.3648942086184813,-0.03606319649413702,-0.1125017270325057,-0.27266396103113133,0.35129874539900213,-0.48292070929972575,0.38145479788672226,-0.0098239714096318,0.26229263250297224,0.40472160809435737,-0.010597110634271921,-0.24575742812565188,-0.3787306331048259,-0.5780684321078698,-0.3894733776112705,0.3168615676162721,-0.4013134491394577,-0.24707120687276626,-0.0671817674764943,-0.5062761252064362,-0.4664170816346546,-0.40191626564566446,-0.11883508581687308,-0.24666922519185286,0.03963118038645206,0.23770153681261857,-0.38495240915150397,0.1341243474792395,0.19693366430355513,-0.08251743683423102,-0.25181487866854213,-0.28096404628305227,-0.13451330371521067,-0.4577862080747126,-0.004483601628076661,-0.2835807685403128,-0.1988147799387802,-0.12527010760914803,-0.09549698129409853,0.2697857878767278,-0.49696114946340236,-0.1463423056525955,0.2411035329780596,0.042803790841098574,0.027365296966724583,-0.4862294259912164,0.0849148629751441,-0.29605481632319985,-0.46094518544698615,-0.3383816187339733,0.14730540693400454,-0.1450142381613787,0.45099203651408815,0.2919307635110504,0.15140085009751653,-0.4186491938241827,-0.33453764290370763,0.5019103289003457,0.1820157540053986,0.4714181602428068,-0.42321446363727466,-0.15895759376251326,0.44038955749410086,0.45252523942155803,0.20872539624122483,-0.149656556132366,-0.28679705064433747,0.13730176143257852,-0.09810327583335524,-0.5123096027559105,-0.14815671297400956,-0.22772539102928535,-0.26005722886371285,-0.21501617460981418,0.23686743805951443,-0.2488891642672777,-0.4370164693152179,0.14254078835269565,-0.04793564419128751,-0.1480738325241627,-0.13582258116606752,-0.3798209597374513,-0.4661108537346982,0.0898046771946407,0.13172228897242905,0.28401815777885353,0.12122932363282886,0.2722333974173174,0.06519203414287991,0.2449758886482373,0.2204956464159566,-0.18370320453547842,-0.05703453161673956,0.4459473378031706,-0.15780203362970188,-0.4618825751352609,0.22719358379195537,0.03726660453628035,-0.3221317347232969,-0.4416224490355005,-0.015693926251299777,-0.0031765430639544155,-0.13469504854558734,0.4532734267975088,0.1862226360543775,0.4642139846696843,0.3426199999677086,0.14228403120689748,-0.3340018550711083,-0.22105294500719155,-0.17408442723304995,0.4417090878340421,0.24938858606794292,-0.017207298590997285,-0.04948358871825924,-0.060391683767455684,-0.4293967933939516,-0.3180376407470376,0.3811767089892063,0.2079222036991697,0.14265072130464873,0.049273927659299284,-0.14039866718222213,-0.011100109288627558,-0.521857088522437,-0.12136962385411976,0.27159276718385816,-0.39498448985487383,-0.43303176647763025,0.0933042539497059,-0.3745994538492534,-0.14671894820897818,-0.005636176310033756,-0.10404020170755458,-0.14070866672625879,-0.1655591490927368,0.14646015527984396,0.04830276108873531,0.0852473841110791,-0.1672797594016303,-0.3955523998987286,-0.48766359354446875,0.41930707007446694,-0.14901417637516723,-0.42121607905580494,-0.15463120569348254,-0.39119671869815187,-0.48807116690464036,-0.0075306509886683675,0.09221298758379674,-0.41754185171391944,0.2971186404656816,0.027764108946844567,-0.2758008040465924,-0.46418870312046895,-0.10040128343626421,0.3450460607674896,0.34080568810699907,-0.3745419395857616,-0.06685046183563628,0.21241191324133166,0.126263293828449,0.14521666721719675,0.3459505519562025,-0.16992593122656036,0.41100223715776085,0.4222826624484362,-0.4826231734198166,0.3820656463153623,-0.11299800736887712,-0.005010645822637214,-0.3270267529180004,0.26771021289501973,0.098853688708525,-0.13199806748711193,0.27773718981130613,-0.4403331378474699,-0.21505401980314331,-0.23214071646809567,-0.009920693895459992,-0.48586449653005204,0.24678162475191423,-0.4616945862911097,0.10497283148416357,0.41600524526035876,-0.16354839667912804,-0.05602057917130362,-0.29813966618951604,-0.31867633707114595,-0.41282586651093317,0.3897129866622606,-0.23920842769244965,-0.10620423803189794,0.2511713324281084,0.24840135955078016,-0.5239749131093292,0.33076319147127936,-0.43577897940852695,-0.47344183110846744,0.3349136557000964,-0.10682745804640555,-0.028119863584472073,0.2894926166967045,-0.09995929852806475,-0.02672423727187243,-0.4723562376511184,-0.3039093623157448,0.42909795587142946,-0.06559843829084912,-0.24968485606453292,0.3630073399613097,0.2584054853782729,-0.3062058084572514,-0.0477954282240206,0.15138194609911138,-0.4068179727379419,0.13537606327116025,0.09989268098149229,0.2564390501917426,-0.05723733222722182,-0.43934028457115487,0.23665912751467247,-0.236346163468892,-0.13658900622859332,-0.5353771013657181,0.4598022765462427,-0.21180509161869765,0.23361094374444918,0.464891341469989,0.07274667366658402,0.003293897503272075,-0.05769133626793923,0.41346624039963537,0.3119811069814373,-0.4950932993011642,-0.41686780997330103,0.24813564462033413,0.2855389031792308,-0.21051438916606413,0.01915936878042105,-0.23215875896463822,0.048003401281825085,0.007907211178874404,0.3135736327241107,-0.31914819191470056,0.2130171234851464,0.22625693460430288,0.0727784602959929,-0.5021053930111863,0.15244727437327632,0.44142571382630813,-0.3040077896871432,-0.04871003793634274,0.19049224698607614,0.15493601468842227,-0.12292652948944603,-0.07874214203095692,0.17006721203395395,-0.22880324046779274,-0.4569192160731848,-0.22048288796105278,0.2818232469510107,0.040616210569846344,-0.0258450578438268,0.18383691907992314,-0.10106522449790861,0.3278926015983936,0.2787978413576959,-0.40800149488340726,-0.19031094250822925,0.041789088203455976,-0.2512353543910789,0.08513899270131191,-0.4258726032241365,-0.24159913496534433,0.2708844732683643,0.08808311833637092,-0.027936610949774874,-0.5112968894695238,0.08871933760492444,-0.5113279554387636,0.2357721373773365,-0.22966053717172977,0.08722119542778603,0.24235199746388972,0.16709666191894587,-0.19901877229809578,-0.02914845206835351,-0.0823565799059009,0.0029233254957744315,-0.31755842396972084,-0.410023462979814,0.3765151632945393,0.1986507464203403,-0.4589495035132803,-0.1735033974717196,0.07551325269552776,0.0536495505673289,-0.3405936511775173,-0.0906832957606629,0.3460592200051036,-0.05451997186939369,-0.4477141587569754,0.3249090059163495,-0.07519666258135822,0.08796375201428726,-0.08075247276363964,-0.05360656492372881,0.27401318519474704,-0.278369930188983,0.3880029057763136,0.1668912646061372,0.45973788990353104,-0.23973749536253852,-0.34562702945219725,0.20605899195766753,-0.48976856923108986,-0.4189755855034741,-0.011486853663586255,0.2415227555590923,0.06311690590242593,-0.38025303172868496,0.18682561478784784,-0.06900846358201769,0.14185162415475777,0.06018062884243453,-0.03219291520959937,0.17910948869124652,0.34938353338774897,0.4639014926963807,-0.33424232962175726,0.1620546543648147,0.3168375363909692,0.48540719128516463,-0.28230691848778194,-0.05300886153413793,0.0006058219188913611,-0.34175285260904936,0.4811107463984011,-0.07753805429251402,0.5004482312290408,-0.4597132012001575,0.3302873191559366,0.2689157566365539,-0.016234900105965757,0.1493392650768017,-0.40792373371246216,0.24969463838942813,0.17638842462884594,0.37535969132307684,-0.12083505526866209,0.3592391810072759,0.09497974123496147,0.11574980230366182,-0.43034606585964247,0.37876971528984327,0.03914460003552989,0.27206761567822857,-0.4455911353599789,-0.3469358883621732,0.43290007669512415,0.49475199577014656,0.20291587107032522,0.23240609546336832,-0.22230989563804007,-0.30818388110428324,0.03524664043550161,-0.105101350651261,-0.2668658397367086,0.30155716593006876,-0.4593560222089519,0.0989430288780913,0.4157212104007209,-0.3893794400212295,0.14842434296717066,0.3065916015192074,0.01771479577191529,0.15298090437045392,-0.31456265536065076,0.1582399449825943,-0.30664904431809775,0.34079226644507943,-0.21309339510322248,0.18982988349517488,0.20330808093692937,0.14624472101833288,0.004777618667994698,-0.032631002926623444,-0.36811392189302117,0.03112474269579943,-0.1136977868759488,0.21743598005883358,0.2610462936045899,0.3719466007239404,-0.1594298213640605,-0.36511175519188793,-0.24378107642129757,0.4028986252108186,-0.10656501172596534,0.0028276827593404987,-0.13445102638111153,0.3921709183328158,-0.4932305198412147,-0.20612696916900006,0.36993988837102587,-0.16474786898554364,0.48779720050433145,-0.1452003151839931,0.028380707677068597,0.3951810268041672,0.3533342709014336,0.2634588447520083,0.3890214706596275,0.034410860665802144,0.001215374142343562,0.40551354475256646,-0.4395632599953842,0.4180470956883158,-0.3387000740899761,0.10262696903775476,0.33940943130444506,0.23391168696632067,-0.3983975525532664,-0.061587092255835474,0.11932608253647696,0.2053702615766775,0.06704192467519514,0.21667050111339595,0.04294402675398162],"bias":-0.31074200884840836},{"weights":[-0.46196366620359686,0.15250740601257645,0.35884971676670435,0.3026397750908568,-0.13534700533953586,0.23996276451019102,0.12060722481007412,0.2100815058198231,-0.4884359550480416,0.3411960787175697,-0.41691196662577923,0.11932723213258094,-0.2792687383726116,-0.20963539235648773,-0.06846323042237612,0.24522207863272924,0.3833881962286837,0.45606308641134874,-0.4972223555556349,0.06926723538345463,-0.2856895239483742,-0.4967165893919585,-0.36792728143127934,-0.24434319682566194,-0.259025290381133,-0.09046423317912254,0.4496770098034323,-0.2762463741145009,-0.3069798175905165,0.41365226108044173,0.19180393069689045,0.22050117083404533,0.007671628961791953,-0.2180541411097921,-0.12767840028222166,0.32036508538495045,0.3521555966892128,-0.09507855514240096,0.45257479605819684,-0.04367605099812744,0.28523171481301335,0.08661002876184132,-0.5025881745547408,0.08415738828741791,0.3621549875639385,-0.013391168537294015,-0.10694859766008684,0.17067387552337407,0.13420368100186464,0.43936510163348963,-0.09495093655077695,0.3872622169793584,0.12789517565727349,0.37716480776920414,0.4453457162587301,0.4179534543193597,0.01618208307778551,0.40381212934518795,0.2652442872943616,-0.4170928378788818,0.2055017490865579,-0.18768368553299433,-0.3978095038573863,-0.4234936495003537,0.4253916107562255,0.05854175058338968,0.40241609373451226,0.366362638997892,0.4255050687014562,0.05392035370862971,-0.3212343458729103,-0.3443238401738365,-0.09532063128826103,-0.26356664187940737,0.2615052037846572,0.03552905676364141,-0.4627156962915618,-0.35179588788885474,0.027591058901998446,0.34565918920581906,0.3718386430650444,-0.4246396587127576,0.10535441740822668,0.39515301542775233,0.08201987541013608,0.2883852011878138,-0.11906193533137288,0.014168056015555165,0.17027569418887287,0.3682597685947946,0.2458313865784351,0.17188679466315102,-0.3027994787609371,0.05871414714902818,-0.039599532831563845,0.4083364373852194,-0.18565937063606958,0.27440649457018274,0.15018292582893905,-0.24195106515134948,-0.3818180869049027,0.16107963023714375,-0.39894694987795853,0.35278234959045346,-0.08316059312370766,0.06598255143296418,0.019449524418600702,-0.17608311881600955,-0.18109197683857917,-0.3820169771012996,-0.42121343072076334,-0.39472674988599715,0.1228256445343213,0.14338636021901302,0.46765904629015914,-0.1215947202984998,-0.4160682896211749,-0.24275874731264221,0.10019108529785602,0.34543451673893133,-0.018167433364331628,0.22731771827128108,-0.22520310492657059,-0.04667651762204849,0.19822174517872868,-0.22303172977422211,0.17434453532729777,0.07322904928936107,-0.26327410631689147,0.30520700922310795,0.20097241039857996,-0.4227623997794209,-0.34452432037429576,-0.1553280536213368,-0.2886175377489035,-0.2636688407437657,-0.2378665359177368,0.3761704095307494,0.3288057761673512,-0.4878422931329523,-0.15244916692921245,-0.08841057529098513,0.17198258347281378,0.11322414359312144,-0.14725799765484535,0.3931919291627849,-0.13003300601256756,-0.08325042245699134,0.46221428779306656,-0.2898128387266911,-0.26157877134281377,0.3159355588635692,-0.338716551249704,-0.46191459938779833,0.1106548960690308,0.4010762900264132,-0.40845189848787306,0.4682662843834277,-0.3422966698864939,0.45283980650607886,0.3783866825412269,0.13355952461570914,-0.23655748861292672,0.36653845171602284,0.37002638039927954,0.2753710393548202,-0.4306004979265489,0.05070433116388139,0.22395322048033253,-0.47842181798967803,0.16241489219969324,-0.4863017132663284,-0.017561855305690387,0.24817226909227758,0.48458551710149683,-0.14925753029944977,0.10328834107432087,0.012996602850118319,-0.05505228625520769,0.016559867660388795,0.45780173116611467,0.24698794207146924,0.4283512069809304,-0.09848772104615187,0.4868378051456364,-0.1007078284663899,-0.33313241206012073,-0.41890762677206067,-0.030652957958053905,0.3037774209133481,0.14311690813918854,0.22086897050484733,-0.1310773987166613,0.39195866167188353,-0.1704399776340697,0.258183102744568,-0.5314442681256846,0.18107417518914506,0.2646347210233414,0.41363711267927156,-0.19862350191559777,0.44733889418435013,-0.12016806252893059,-0.35705363872413676,0.3056696022571792,0.4126678215189289,-0.37736439545517486,-0.368913068173896,0.3540217309763405,0.015864553515545325,-0.24297747448365614,-0.17650204179582274,0.2567030235750331,-0.27467501797560917,0.29889771882823635,-0.014837460912388687,0.2615774968299566,-0.22111966503051755,0.1418622764036044,-0.025731618238921623,-0.16993078710510717,0.19992832285227605,-0.04116428808591188,-0.41047839097808775,-0.26195641719731705,-0.1469070943466402,-0.2813815588662036,-0.002495943868329185,0.37007672923682744,0.4496895391557552,-0.20280191390096802,-0.4059922201149866,-0.13073280196210163,0.048267178657729455,-0.2827539415392599,-0.4762294173792419,-0.29119570157121316,0.07511282923142437,-0.21710955435654716,-0.3589559539089952,-0.3568643714369207,-0.4521736910386502,0.11395935234967612,0.22991008185874945,0.4121682895601744,-0.12159754447966668,-0.3887582110518779,-0.04732063921501182,-0.5190391192975244,-0.3669040469902426,-0.09655880959103204,-0.17321853543584892,-0.4348174458821322,-0.22579565522856576,-0.1514909927311386,0.4320399063650104,0.24913446356826394,-0.36048833930139923,-0.34384002422063015,0.3211035250311492,-0.47854912417995304,-0.34693014385873705,-0.4966061843030285,-0.5003136918112137,0.044378495751948764,-0.29108322462884095,0.3194344964467723,0.35108561715088255,-0.29615906930446284,0.1834359756293569,0.18455807682981137,0.2673946519018613,-0.37524086279827285,0.15923268261354745,-0.2623053017094542,-0.4219260688192622,0.20210327620837068,-0.37952864099932293,-0.5433531166214316,0.004475267658863652,-0.12142989904199024,-0.41458790564350806,0.4788270082534281,-0.18485036827635934,-0.44653332546948876,-0.1508099522245222,-0.2346627987650469,-0.1515122948857271,0.4740604901291241,0.05847016061257602,0.1952989071711595,-0.44223892192944875,0.16942969763059174,0.12722203398472462,-0.17646029015614056,-0.3308324590296657,0.1476455374676048,-0.03858497196047719,-0.38520319851141205,-0.44414176874308947,-0.4349822592378816,0.1762092874016752,-0.19627229845569666,0.2413100713647769,-0.45119367364615715,0.35461347109778346,0.1215050624982642,-0.5073476444265934,0.13613760119958537,0.3469562290731795,0.21307062605344876,0.032884928811307654,0.43978500885194777,-0.08499282187260118,0.48540292358536086,-0.22729002133655074,-0.2878373029642833,-0.2669797264953058,-0.2761980628577443,-0.4459663508211969,0.01569400179148695,0.0675727939528392,0.34750812959629285,0.4445681620433937,-0.49692336694742417,-0.47853322796376263,0.29114494630604376,-0.019519319097591074,-0.11427370744419288,0.32091358838434986,0.05633946020575971,-0.5276884467926953,0.4485547214493606,0.43892517844935763,0.18350929800796223,0.40075790716976095,-0.49283650267245677,0.363692051377032,-0.35298539138980206,-0.031074763109745406,0.050734633773034075,0.2716529624120412,0.3902239322870011,0.21502339630671008,-0.38113769712456436,0.37925852486804523,-0.24734399338251228,0.2913303888171143,0.4141233012247795,-0.34069813563261364,-0.45320321279259423,0.1698960440404758,-0.4075531964644429,-0.09048789133400399,-0.3536148033959495,-0.014000326973333612,-0.37446222387321904,-0.003871021115088317,-0.024413401359866544,-0.2011211795913659,0.01233533821725927,0.1711287549953422,0.26088425002030236,-0.2164749081306951,0.04122021841358498,0.28397570568387276,-0.23087612411924716,-0.38035218261612164,-0.09783312320881346,-0.14297172362658622,0.37139874836207115,0.3876832958177324,-0.2934301536540721,-0.03864110805255984,0.13352237238944706,-0.14677440518645124,0.13212397437483292,0.2622164724654126,-0.31669694419185135,-0.49615486473242876,-0.3753930033666372,0.13865732401406283,-0.16915401384167827,0.04255227121991383,-0.0720100760269451,-0.1889773160844602,-0.2913939514655833,-0.38290354438218255,0.03900669039311671,0.2738016302263927,0.18708665601366556,-0.39233255446428744,-0.018994989431345935,-0.379958376932092,0.44256487268113404,0.005156109705325243,-0.3090918947305905,-0.24807827924513565,-0.17716779045122474,0.3744714076562057,0.1380682219373824,-0.4924904357633362,-0.017281422351925545,-0.4229122850070681,0.011088151804112543,-0.11352266923344514,0.3741707741694291,-0.2814895680217756,-0.1532630337462133,-0.15883870513685733,-0.41004144802329057,0.3811551009761789,0.035648571812252026,0.29313045546766553,-0.444071255934539,-0.3903132135539622,0.1632046618695771,-0.21979799353948273,-0.26501795807172274,0.300444167277024,-0.18363245504628775,-0.20716285562435802,-0.3273189996646136,-0.16724133389228882,-0.15623960861071576,0.4833348109168256,0.2671032863537175,-0.4954599564733498,0.029102573974836243,0.32569852366237045,-0.04222086252496999,-0.01057101619471973,0.4072770129189804,-0.49921956184522187,-0.24292309437036974,0.1781380549265651,-0.03205213423597842,0.3683580062159907,0.4279800889586977,0.17568655728290558,0.20538503311893563,-0.3977457144000545,0.48085662003828267,0.37987685404999555,0.4097673908505453,0.25137847766445276,0.0994080487018463,-0.2289912165530022,-0.5300237385505494,-0.18731349113559398,0.03804135142322356,0.04984925699493329,-0.2052834447934808,-0.49315584667984,-0.12118446387094704,0.24735303099148084,0.15475939895317475,0.0453677018567634,-0.07357854734589256,-0.3643602380562886,0.25187450622250945,-0.2836474531567685,0.40245556962605833,0.3763997493423659,-0.23741726703597402,-0.26005405450126406,0.3227999068318938,-0.19031452546603822,0.4832274023626763,0.20027337863414613,0.2164584324116676,0.22436594042776567,-0.2952526612058774,0.45839260295996676,-0.06744547186464243,-0.1410846301898521,-0.21039450239159604,-0.37376297424358984,-0.24340100475907375,0.1570017800272207,-0.3373880029449679,0.4549839915885251,-0.34080620402523865,-0.4412114657351713,0.33608411748866623,0.0005042087457636856,-0.027153127698452958,0.04318649823425441,-0.14101660671026786,-0.29716165871539585,0.3971054905217306,0.17956153089750423,-0.2108881104662964,-0.033408589221788625,0.16278252544058627,-0.2932410258006327,-0.4039716006054233,-0.09137374219138149,-0.4301617731943857,-0.16782886878242173,-0.04675577462054926,0.3750298392739524,-0.405182376739079,-0.3119318417507674,0.1332994623419332,-0.4447437263074308,-0.14495182304444743,0.4512436836061892,0.4148223642954679,0.24815734663667716,-0.14217539300413126,-0.20391479489786846,-0.2985581555456237,0.42953763543620516,-0.40864341576226615,0.15038420990688664,0.4639365706212301,-0.11409916978972781,-0.2111372440829704,0.35753917803193486,-0.1837646911500239,0.35450938767076123,-0.459791009251686,-0.20954769800966858,0.2784277874791671,-0.3981773088105211,-0.23715103401916754,-0.06359272727512956,-0.25547425244461053,0.1801310035645721,0.0009464000840399676,-0.09213149064104384,-0.2434000343990089,-0.4817316061036842,-0.5195431261963258,0.14748142386380733,0.2467237003438809,0.2895072326440783,0.17169950423565655,0.44921136672727746,-0.11092822819734734,0.1602001619483657,0.38813881454145593,0.35859873396363584,-0.1457446155732494,0.20781177443719256,-0.07158871076203625,0.4282414899215847,-0.37712403577359305,-0.34766424667296153,0.3103162702128887,-0.4329080538801175,-0.02927497972347072,-0.2828631607721448,0.4204498811080358,-0.41022002508345473,0.15585530239049888,0.14438495105391952,0.04438036831439917,0.3682144267729282,-0.34674576657834794,0.08490729466179375,0.45869607586493394,0.23664686037529825,0.4787917885353801,0.42833959923742,-0.11372717364897447,-0.3744536653853928,-0.3766892084715502,-0.2746133612330822,-0.050431570947660626,-0.20818475077674475,-0.3844431305314798,-0.39078255499814274,0.39770735032715443,0.1848445506466129,0.24345675996665234,0.15727053275758324,0.4799282657233228,-0.21618316759856548,-0.08950379240951002,-0.29204424466474077,-0.176321300171575,-0.4641279397223913,-0.10398164846231403,-0.4936139665151676,0.07210475012966822,0.05176340359723079,-0.37036826754768776,0.20341524453252993,-0.2562254176065685,0.1204979901394533,-0.0035421284722477924,-0.017371728881505948,0.3555896231350439,0.36432766053369925,-0.3468676587598188,0.4739256234875199,0.2163587670008824,0.27313729961405037,0.2091959320224688,0.08777317764603101,0.42371831260981563,0.4219106982980423,0.40137978030077454,0.22561470248609974,-0.1997855412841128,0.17469624526249178,0.13808092608089725,0.49190711519463837,-0.32573077170633113,-0.20377142018077302,-0.4458389488733478,-0.11698160683122309,0.3978109048296222,-0.4539079268964932,0.032853107608114135,0.3765430461100367,0.36186298607164197,-0.3002108616831173,0.05382870253813347,0.24970442284909383,0.36021598699132185,0.3744330083175588,0.37786613793188045,0.03527762022515314,-0.46793299839720376,-0.19116087738117618,-0.47404062715121426,0.15871029041674659,0.2861663737875869,-0.1130648046020149,-0.2910481743790181,-0.06384082770457608,0.1666036614654795,0.3052067675295413,-0.19611954002983709,0.038237544805264284,0.03061619967177625,-0.3918671838897246,0.3247424200483733,-0.32513580390633956,-0.20382386382364862,-0.46110634601094175,-0.11474575993225572,0.1517526905354644,-0.11069725391839456,0.2711407607916849,0.3405305450091515,-0.3500485444480612,-0.256515450524951,-0.22883042929747774,0.07241506893436139,0.3051138644143474,0.05554139879898647,0.28536613075556105,-0.11799895751187098,0.22089337495572936,-0.1565506796211392,-0.07176313520629037,-0.21358633015465148,0.4976395398814142,-0.37133553492348315,0.45385995981520083,0.42082151718511324,-0.3047604604446419,-0.2632502825438232,-0.4300128742389619,0.18049177586313622,-0.462266243896116,-0.32532347819454993,-0.4446271389729986,-0.16935962571321078,0.32629343204452,-0.05782126297956957,0.4565482651477128,0.09751537678092238,0.07068224737927273,0.16025297575663935,-0.3152842260528195,0.3639438054488419,0.2104915320855541,0.3937224813400527,0.4114701644682409,-0.3211196113276242,0.4207169285919262,0.43151429023332666,-0.4039978594515068,0.06650563444634723,0.35384233753109606,-0.32185087647095106,-0.4676150334365694,0.2740555954122373,-0.15103951266308296,-0.13058068542213686,0.08000209116124721,-0.1923307360121857,-0.29546613420062445,0.2896311283129804,0.28148947652567746,0.20308331240835262,0.05361962726420837,-0.1997469095630701,0.34770229509958445,-0.16347204919374983,-0.3249858345558192,-0.27956518889969156,-0.2040821723487564,0.012796832462097485,-0.08350011415928585,0.5183917604478344,-0.009245086807803372,0.5004180197125505,0.11712066532772443,-0.36261864785888304,-0.11161117038920151,-0.04344945052984267,-0.40296446344837017,0.1339028161425206,0.3362028771541887,-0.4800410612204781,0.3314440467284975,-0.5391679215392956,0.10669886561140898,0.10313883094490653,0.37195678888335754,0.2794238827500404,-0.5117947691825439,0.15501569168444781,-0.010653795071870805,0.22853867365464237,-0.042820478110747975,0.32267755402052406,0.406096655928624,0.24023597774393263,0.11807783950197684,-0.3299262628442643,-0.3486049474709102,0.29783560482387134,0.5144266365215345,0.07056129033053433,-0.18971616741638048,-0.15734955503089157,0.4696062486420872,0.47805383675456004,0.2373119653379937,0.4249581027769334,-0.5495208666522472,-0.45688390669341283,0.2887370371973582,-0.4588152051696588,0.14573726399189707,0.07019808261212566,0.1701575519616153,-0.4770017237838067,0.37095190047151366,0.32132168760913477,-0.31851618338011206,-0.5347861359694522,0.44329974257043947,-0.31593986867604285,-0.4214446207441693,0.17733946399054504,-0.1362252204557569,0.4056334680523622,0.325710057748139,0.33237811083998303,-0.19089624322054244,-0.08901854640713121,-0.1803276799347141,0.06761571258408318,-0.1357921082071903,0.2635960957950923,0.19876710667226113,-0.32795153147030637,-0.18036662267231096,0.315040534219717,0.29490488533546344,-0.45306852070305115,0.32012583713908194,0.1728223732002254,0.09514429927976209,-0.21856936704466742,0.16801118489123537],"bias":-0.263768334148629},{"weights":[-0.07656130819996468,0.17409737183711127,-0.4615460753553597,0.33040289157434005,0.4102493460660713,-0.4227817742729728,0.13505150909963717,-0.026332045675752987,0.10517043421970425,-0.5024829008776395,-0.2713211107197901,0.4104893442576477,0.07414902229500295,-0.2566539535045361,0.05573183742716451,-0.1628799402826021,-0.43118737553835124,-0.2604608206228411,0.1672106446777035,0.3711707175642359,0.35178857932996827,-0.37646562976947495,-0.4371698674606648,-0.21786268456503405,-0.49408885900416666,-0.16419325336098076,0.14497201120169745,-0.31173847895428075,-0.16197584409188437,0.3808732330581022,0.17564245289859098,0.24240915039085464,-0.3782891525870929,0.3378283645991219,0.3045596897833697,-0.05471812357933282,0.08803828542237192,-0.30755002578450125,0.23701418507506028,0.3569486882088818,0.2116151349956426,-0.10126689192915304,-0.21389019509138718,-0.1279959432913656,0.00661197154922221,-0.471742004413654,-0.43546674764212884,0.26671430660955936,-0.0788430111134433,-0.27953800852812244,-0.23307153498650915,-0.30630590781062705,-0.06801828827246137,0.3895924240970323,-0.42913288255871856,0.17244397873062234,0.24080780875441377,0.10709738683361236,-0.2473994696153873,-0.29107802455787896,-0.513422356755019,0.14985689261565283,-0.40928515895018275,0.4181600871041393,0.271693730482127,-0.5038421998105208,0.4578506502666384,-0.07294107499538491,-0.17476347861563285,0.03941864254218189,0.32628659720187914,0.011694723492433208,-0.3657446426702711,-0.16049257981892898,-0.28918148036447955,0.44044240002082985,0.46048263990197813,-0.1900939224291864,-0.482992340213708,0.3745662526872609,-0.07091279172524777,0.3984582571083798,0.018333622218704628,-0.12484808576346261,-0.20252584113417216,0.01823794895358182,0.08026327834185767,-0.15173522979381085,0.27248485585323434,-0.12953905112915332,-0.4821845763662973,0.059370781257254875,0.16037095038697569,0.13663510167019136,-0.14402816724207898,0.16745739048591116,-0.009081074331835165,-0.17282119079669778,-0.3689733612872576,0.41993389708436873,0.07837207921959327,-0.3630176800003295,-0.20451677412648805,0.3204695276591756,0.3825590011133446,-0.2140719861450157,-0.2249084462384485,-0.47186796100767414,-0.09362642100167157,-0.5068606565820372,0.4768079630600851,0.10154869713703582,0.42315239120697323,-0.009598723508621081,-0.4086580527479166,-0.4645410661706268,-0.2927514074079011,-0.23666210155006753,0.19120183545283206,0.1444466500842065,-0.15673245167257235,0.44433338716007104,0.09362118569564137,-0.26235388943084337,-0.033201031417439,0.08549200948631219,-0.29930325441471883,-0.5390189085890431,-0.5239648852523329,-0.13398258628743634,0.32202577915127784,0.17935475563833844,-0.10885616372575896,0.17402882955720217,0.09764874455347272,0.15062167982496175,0.4833774842084722,-0.49625267975313897,-0.2621375563583358,-0.3569574000517186,-0.4354086054580533,-0.4750229455845251,-0.008833452693921162,0.025928896093483835,-0.21183647790342927,0.1944539489014189,0.0337565651466122,-0.2981293252406099,-0.06760749718772932,-0.18947857052640146,-0.16032586968229032,0.032264622044802835,-0.012406222754092335,0.316076224542697,-0.243115240512267,-0.22692802523997896,0.3362042065176855,-0.28113046811734804,0.26120291083028224,-0.5154514879632559,-0.037887928297909164,0.4700136724254607,-0.418749196244191,-0.32566045682939104,0.0827791388415673,-0.22633912011714985,0.4178225855275036,0.1303637497749634,0.3777408326528628,0.10538954308494405,-0.3625535792081916,-0.3369889041896426,0.4261945710408877,0.3728802201922496,-0.21606249557827703,-0.23868706206094373,0.2838404125157469,-0.30526646813430286,-0.0884320827615493,0.02887879734290507,-0.03674809818518206,0.07631578925680843,-0.031237298761910916,0.043041453135233824,0.02643667365491005,0.028231488971111777,-0.005247105404028764,0.1259899811702287,-0.3054251790244747,0.4211374165047792,0.31675332446119386,0.4294616710636593,-0.024431577916145714,0.25129307485158836,0.20108306704752443,-0.08673075825308986,0.011366307333544143,-0.23883418886566568,-0.24637790177840538,0.04511357120458965,0.3810382901397542,-0.038709821780771515,0.4964886273493197,-0.49944599476488566,0.16598006943490254,0.21171755495215738,-0.2740221879649506,-0.21415282340012134,0.16537857933168557,-0.21511266061108233,-0.17556357940950382,-0.21655092478938348,0.04137452627573004,0.3399370480639785,0.2923807264459437,-0.36069463278188113,0.1621006169788078,0.49624754239425933,0.27358354782232264,0.5470240756377474,-0.2053731315229,0.533653178015148,-0.3506598108478531,-0.41991329379286524,-0.19185425569989303,0.15571573584118956,-0.0917155268171741,-0.2520545343266467,-0.3860387816222871,0.27603683867489903,0.46641328483570943,0.1829822316333538,-0.06402694987010889,0.36791203273576994,0.122003996050503,0.12416866540107892,0.19854470288917003,0.4396368403555902,-0.25992139385419855,0.37859403764197397,0.1316701853551929,-0.25512937391624735,0.3025572856358719,0.14162335151289504,-0.4683812254027839,0.17371108926477125,0.2739925504400369,-0.27801793694661964,0.2914409647952268,-0.18370436752810115,0.46718354260250466,0.15368786149827385,-0.17793078940274926,0.047784303147662126,-0.33232091857094154,-0.04231689225336127,-0.12534571482235574,-0.018162530884940128,0.12904488032913033,-0.39833650032250606,0.4779872333765106,-0.1603963986693379,0.2965815024344955,-0.38519615604470536,-0.5129058602829006,0.020192358984994576,0.27061848913492603,0.29125345515665085,-0.3799402613365717,0.20934845348122755,-0.4305124343050023,-0.13748478080866677,0.4316780231402834,-0.47771494351867894,-0.32822516360173254,-0.277475134026443,0.4241254559351263,0.35652658159704387,-0.2591476381493936,-0.36633095808650656,-0.03902050480277098,-0.29920335200450837,-0.1643581136161562,-0.38120579370529356,0.26881335730717887,-0.463774955222758,0.03529459706396362,0.03431497506387775,-0.14187332725677884,0.060339842649761784,0.09897082348202928,-0.1379956117527452,-0.4015406818484709,0.32379438585495773,-0.3353753992482466,0.030327116402322815,-0.3810828180186404,-0.3686977871541841,0.12405745771023972,0.1494175896150433,0.11986687037025599,-0.06052741846010815,-0.2829435014106846,0.019440733982288863,-0.3226183544053661,0.14811196432046192,0.22645853505997257,-0.4068323944225911,-0.16374309518251923,-0.3292973342958615,0.2523675007691048,-0.22058666398537927,0.2649533021421382,-0.19622363824719322,-0.005607294984936443,-0.11473747469488578,0.24455454965202075,-0.29702026817000554,0.06403352346304869,-0.2826243162579385,-0.30392551525378475,-0.44751823005477503,0.05352559800250669,0.2360713157745743,-0.11113300723134588,0.41332339978621424,-0.005479650232696259,-0.2363011030638959,-0.43721432881473055,0.33417502218399847,0.09706832735722158,0.5370412252644008,-0.1598178341581326,0.17012532733365693,0.24159412329768934,-0.4194756517912699,0.2738707017839044,0.35508380354092883,-0.2538071212265655,0.40670379043216087,0.20806883367821918,-0.2502949148975394,0.23143557069907084,-0.507418077419586,-0.48530519463606053,-0.1528082003817339,-0.026134978121688454,-0.4573266609056347,0.10703601806778967,-0.04879955499008921,0.3114496327305782,-0.5040372416126615,0.2464144863683749,-0.38877905291710363,0.2803692668952118,0.3247443157429546,-0.4540412708881122,0.46869890636915645,0.4040135595267045,0.11950217156688231,0.5605396077725572,-0.042283260311108566,0.22263011282542441,-0.06058705537711028,-0.2793332625494421,0.19262824479167273,0.3421736216412243,0.31733480628680977,0.31047428737844884,-0.3234759746542499,-0.31227958182699034,0.10523895089573343,-0.19903585098595927,-0.39558867046107105,0.01935462637091105,0.47377066107861626,-0.10410873366611487,-0.2996580015370236,-0.32115990130624505,-0.25503554646329235,-0.15218153403840587,-0.32173447208769146,-0.2546303529585576,-0.19232657506638523,0.43512943961054035,0.12835381297261697,0.047975332543510885,0.25171554724209627,-0.34810756562428635,0.5391034698852736,-0.050443466442438904,-0.2294928148073942,-0.31759236706463057,-0.38216862435323157,0.17771612570980014,-0.346344847416127,0.4297506736551354,0.21252855699599968,0.4680867127610149,0.2718588170704481,-0.3805565534306452,-0.08666536475732602,-0.4798227342608896,0.13978377724926183,0.3199471788744571,0.4852166576755146,0.06065909668538588,0.4820038297155262,0.10708746090983623,0.007564061217548685,0.016141167200502723,-0.472390961027644,0.017138707541936412,-0.3193205154671824,0.14008871572385756,0.33080558206523386,0.3375961016798961,-0.24589951062922452,0.09442016761311846,0.3200012298241095,0.043997806047893225,0.23780435782451567,0.030572769912068025,-0.04719373924324793,-0.38765649469751595,-0.12913820508765164,0.43605579815939965,0.19616167888826694,0.41984655348555144,0.49124425851705583,-0.19471669572159397,0.10811337254361254,0.2397043255494599,0.32911060688895827,0.5117068239583241,-0.19954706591064106,-0.13059872520440496,0.004489564189871494,-0.26092848058752816,-0.25857286930244566,-0.056528353001923104,-0.05312374625288045,-0.11505109886575393,-0.1486567708911104,-0.15390290594251843,-0.35721661114228825,-0.10625653416953577,0.43103590780721657,0.03935472045125601,0.14809788759969367,0.3272876735732369,-0.22809981520869213,0.4495961127982084,0.4034898503440264,-0.13970126861149013,0.3501131451957934,0.16960117138778222,-0.4354838734597245,-0.26023227908533053,0.15817818538845121,0.24167565124111387,0.15626368583828865,0.42159440080510774,0.42233440433650193,-0.32405948986927663,-0.2559375294107595,0.3756282757886021,-0.45478932578130976,-0.24113019017263734,0.16273555718352473,-0.15396715171856595,0.31288034349781724,-0.3652425540033682,0.37410337187920284,-0.32306714824351723,0.09659233851814081,0.09319987595845632,-0.3440131916895317,-0.2807918637806765,0.39464564698444166,0.2204064869514196,0.47505728061191493,-0.02804146907731965,0.46908176525426354,-0.18989005617764515,0.361572314720189,0.4665055143579042,0.3748032619080373,-0.26662192399942,0.4844913066507103,0.3696155163376845,-0.22182150318560134,-0.12087039184239526,-0.2576233647891027,0.40989954196053324,0.031525987664362765,0.44684327868692725,-0.2818797708956049,0.42117944012517594,0.35173401221050854,0.23200560935500905,0.03189389275549086,-0.3115498734695637,-0.13872849430186215,0.1495789549182014,-0.43120152429797826,0.10854201370948194,0.4334394130342887,-0.11487461761306439,-0.36095031193409693,-0.08247027212689524,-0.10017145574537907,0.2916946875426516,0.44659438977700733,-0.2620811763202637,0.23869019622270718,0.23785620727206255,0.12519850513647354,0.3124888034887487,0.31391155927456293,-0.4467229932033412,-0.2959640040329115,0.16581688750166002,0.06302838160043775,-0.20341106354807478,0.08482469618655,-0.16243593580409935,-0.47237161862806015,-0.5194208319803625,0.3423634642057714,-0.4677103034205226,-0.44597661686440127,-0.4404022756220946,-0.20354464008966416,0.4302481610445473,-0.2735036278451153,0.4036943337472074,-0.32328990360449583,0.05812526759375388,-0.20583237485305597,-0.006070493183601376,0.06548861689842862,-0.10173351459669101,0.25245207226922217,-0.006273593253547858,0.038501817620208434,0.0249260743219608,0.09599562211927223,0.2617660798659107,-0.4113716952855564,-0.4518453921707894,-0.03499299169779052,-0.5250587351608016,0.40893852010269255,-0.3479927686772973,0.022509379889496018,-0.0044330135710141175,-0.1595850731313134,-0.17998528518067186,0.4381732452401541,-0.2697833290278757,-0.1729991529554902,-0.1518951172837873,0.21271430518155124,-0.29544929053772717,0.07383050728335946,0.4057726127917463,-0.12119741452974185,0.42057198136601553,0.45769886049975345,0.4034430723061117,-0.5139122540591422,0.15195797788126308,0.3719100703633846,0.2322329142705489,0.09166228925185509,-0.08057691434978294,0.06047662246914156,-0.45029023434486987,0.223791360944698,-0.29501917416434736,-0.24297131399388877,-0.22519392062993687,-0.3626309087545642,-0.3548833611425812,-0.4656309134584907,0.008270628658325422,0.36704291003304934,-0.41003708387440235,-0.394691322481533,-0.2974355239627802,0.016604162958450547,-0.027792413395736598,0.024822154542381757,-0.26191459473051787,-0.28704190844275546,0.4802103669945087,-0.2647090054627232,0.004349812040674063,0.09196016688673125,-0.051172060155213736,-0.17918671644158773,0.17270120730133,0.22707101598005336,-0.09289234803252876,0.07540734341476425,0.090570623662673,0.3082981689739962,-0.4891068491343915,-0.3309054731948318,0.25329975234567137,0.018223517555633447,0.4835454850431168,-0.2196083175975869,0.09242442456702066,-0.42573581377083697,0.34134335077737366,0.4442502209534238,-0.43217317988698845,0.3335947191551705,-0.11225375293135666,-0.39120921340079695,0.4645792600239748,0.3890498811933388,-0.03922685265146108,-0.22084855861989378,-0.03596996088938826,0.1799383081994262,0.01549534002610112,0.02912426441006042,-0.38313144864313936,0.1474201612095702,-0.03628455948491327,0.46242343859119894,0.2669031622745109,-0.29013140024517386,0.1379472534071916,0.22337718493114458,0.28876511906529423,0.47696689428845007,-0.15323536510178262,0.029541535919074997,-0.4598124448554498,0.01813770926969959,0.3625316283143915,0.342860600401935,0.28274094019001045,-0.3607441645480466,0.31974803823774467,0.15729423702594766,-0.3400244406795217,0.18451473565336515,0.16644602883594617,-0.08158653521023591,0.27233522475543626,0.4759844013058945,0.452216630215589,-0.3306318237151936,-0.42631284201531133,-0.37495541416452993,0.10792009974874615,-0.040384086050336096,0.3413896495157697,-0.08497252439528431,0.22008877324561932,-0.06810137200081723,0.02432949469854993,0.45105271821437326,0.10290901100827798,0.41881542088358403,-0.47033327564179767,-0.2783612148184052,0.2135281364114247,0.330913887111253,0.21231742239408968,0.07514697760487378,0.14186334119488392,-0.4763280294846255,0.2461278158068974,-0.00960569839730743,0.390787120441864,0.19845822057647106,0.11645397946563009,0.2795029655986858,0.22436220098113538,0.04261813098507003,0.10437418081878763,0.2517042618770205,0.012060058832236159,0.18781688574634137,0.17474222358032615,-0.30577547336130617,-0.31500632543157114,-0.13101013888485802,-0.04570806361505144,0.4852207767228362,-0.020291983335061,-0.20065879329314726,-0.036960300207753226,-0.4809692394463145,-0.28265148543158203,0.25906293709374,0.10873064780254092,0.4209849790107614,-0.2658515648658939,-0.2181015527113331,-0.3922292693099187,0.47498741599418226,0.020764666513347504,0.36881931007874835,0.3327207774455724,0.39599127443022364,0.49623560084681234,0.20057784897663722,-0.4681332015699962,-0.369227851034438,0.39860172226745716,0.19572076662426416,0.033561234463767076,0.003471565533694611,-0.3120178140513815,0.10776147500927065,0.06566580619927634,-0.1175491468421109,-0.3985542855481134,-0.3939093500442373,0.45425585176802313,-0.3727075975306761,0.4725766942532786,0.4725604716394875,0.1421714050245852,0.37267541393296294,-0.17508270635821843,0.25580602329341356,0.0684999709015598,-0.0004802135116387783,-0.48194932394075374,0.22950319509306794,-0.4489206096223889,0.1625818795624534,0.4814755532711866,-0.06042617463355042,-0.24162893396785554,-0.09589565512505759,0.07874427849240624,0.08899222418267348,-0.256920758220895,0.02358855099597447,-0.15105088625564572,0.13576916476244774,0.10054537623259308,0.2710508960906416,-0.43851384606242316,0.4965106547954393,-0.0400809020548668,-0.005286064599830197,-0.47497908096576147,0.19716865898925895,-0.18284153270052547,-0.3515702079470063,0.4539905524551717,0.27831540711571057,-0.42040459080894865,-0.15326129757337864,-0.4091102706431627,0.015958421345216585,0.2934088511081667,-0.4654636051845887,0.09541454087300281,-0.03980660296547677,0.3558500859188006,-0.46124660119042177,0.11375070380116312,0.04118077231411703,0.17913629391189334,-0.3178656623176632,0.11820574834563184,0.4730345134222749,-0.19673513135386828,0.2467554959342639,0.07443294555862753,-0.36380070259046476,0.19275875563485154,-0.22007533737895624],"bias":0.3166841973838729},{"weights":[-0.009913923926370406,0.17776100836511016,-0.44652166084208605,-0.4856762888595488,0.48710099652289796,-0.22061289728346994,0.00853278239086674,0.44107942065635836,0.4071820250873031,0.40474115502270336,0.20012717395128515,0.42106806029168775,0.27260025690953577,-0.3571913715957279,0.3306008274270596,0.11826007534473913,-0.04043900394844345,-0.4494880209617179,-0.43558679141558476,-0.04884644550739997,0.39618320638155935,0.07113121695686503,-0.3772832776318295,-0.44381434036111717,-0.017337928179008835,0.2911540477190795,0.21319199293195687,-0.147855893244401,-0.3919266623830015,-0.3018173163379234,0.12154061296529267,0.13133826093028042,-0.4141235755355876,-0.3910155360208698,0.29682998378071607,0.14441609279944848,-0.088628380840039,0.38215673499555075,-0.10254844013348695,-0.05655321749044822,0.09703704653015548,0.512846597549371,-0.05314908099841001,0.054448918755112666,-0.30410304694239926,-0.35792606172204705,0.41373486694148537,0.32571063905754283,-0.24978908098978228,-0.21702170387874062,-0.25360051526155253,-0.05834524031508317,0.08737265527508849,-0.3409276371728514,0.01440749570473712,0.47478074075169807,0.022787104964866346,0.29663817418885646,0.4120909154920104,-0.3053271383152006,0.22433969485648123,0.41131350345795753,-0.14993571467806083,0.4266931946567408,-0.09016166484154761,0.44812343303579466,0.3959508140344811,-0.4504066273804658,-0.11436814584334216,-0.20734664419608098,0.39561513262219844,0.13163401218437712,0.4644728613682827,0.042655317075207116,0.2861790839495478,-0.04251165693519137,-0.24863358342881764,-0.3406066937061587,0.3624639213453121,0.06449715744849331,-0.2833390264965649,-0.33080845446476176,-0.1379684662724138,-0.09497055993142088,-0.31093138010939947,-0.3371751705776917,0.0815244350062742,-0.19670240360705307,0.4814911487339875,0.3670693362226641,0.5079115914202204,0.42778143825386583,0.24584943543990542,-0.0626329343001113,-0.32794086108019393,-0.06080277539472249,0.36259048972803193,-0.37061121178478995,0.3916741038725791,-0.3995674405496212,-0.24565151533519283,-0.001858374324488945,-0.31732043533947946,-0.09098683308442496,0.30434773805705967,0.059288411824785905,0.38466158643084475,-0.34345225029045995,-0.32947638364417353,0.03301317162656109,0.2555027414462718,0.10418770287832774,-0.2798900503694281,-0.030220937151539427,0.4828548570827009,-0.34888901229536484,0.03585712176430338,0.4462563287186942,0.5139059045671763,-0.08686772224383854,0.09441706347769495,0.4708379465073558,-0.07254113762820444,-0.3651247333302605,0.35886932498561147,-0.10940685133162276,0.306257630347705,0.1553734576598647,0.3778897487662175,-0.46217041875925896,-0.2078369495155396,-0.47078181684962395,0.3599241585200171,0.3883358076428926,0.3182060646829777,-0.3592318813032401,0.43645271373957856,0.2421672663797316,0.4527256399536043,0.06310210815605,0.27326966525946844,0.4273154369648897,0.2548944397413004,-0.24863306881281813,0.1473992698637231,-0.0042187856873234465,-0.4571060187144994,0.40875669544686394,0.2656980621546917,-0.02500268053746635,0.4453703714219053,0.0034971765634642664,0.378574292162281,-0.19023310262435628,-0.06432078727774594,-0.13662465078805122,-0.45567569936013547,0.17862240150252873,-0.41513615042088126,-0.24921662562997832,0.005439496730793306,-0.38103175551115454,0.4009379875807805,-0.2122196347345076,0.13930696238672766,0.374425820496812,-0.26038822023890745,-0.2830455718815726,0.35784739459205706,-0.4074918432797109,0.5132908480678953,-0.23056135527381072,0.3668485247007397,0.4650947373907571,0.34209517868971845,0.27565052013865027,0.33302417499882137,0.34417932607787377,-0.06115108943245679,0.37129475668358075,0.46305892822604544,-0.3726718454730091,-0.31903605341486624,-0.38654552790319713,0.44577448221446697,-0.11340994405822231,0.2065425873875414,-0.09493555178662026,-0.1274244421270737,-0.23339453070890823,-0.05347617402635023,0.47044815310960264,-0.17051274628751834,-0.3738605336247344,0.11389923123627838,0.013734203010325035,-0.40429630032593333,-0.3802429608446167,-0.1437479546726628,-0.46167981914752,0.31274767258990804,0.03291190104797385,0.43625591354986454,-0.2600135755715887,0.08142992211448452,-0.4614757459935126,0.11924700536665193,0.47168215804221486,-0.026877368157888184,0.25325356337603516,0.35125287667452704,-0.48898365436385394,-0.0708249633345534,-0.18716940642477775,-0.13345562414111703,-0.3947766120230044,-0.38915060254606715,-0.45942025900429256,-0.26200564574005725,0.5312178254765553,-0.06555609651868599,-0.29478903463755063,-0.4049474551394163,0.13659555102513107,-0.31120638968940156,0.36893948742308424,0.470171183680586,0.051646340680900786,-0.45073517950459513,-0.35535645925227666,-0.3573942360195566,0.23572933853026043,-0.3210100358485994,-0.23390708631294801,0.33398903701215393,0.36587159404887565,0.1716154241129974,-0.07088611382224215,-0.5117657040208144,-0.45209678476795273,-0.07848265957356926,-0.45731459818200076,-0.3974273730538992,-0.35376552812192097,-0.4580155340893319,0.12640563430634666,-0.17071943265177572,0.22072832191467504,0.38304081935058043,-0.14096823714276555,-0.2931668263899364,-0.11263992335045696,0.3567620614168146,-0.05782961558800314,-0.13746474895289662,0.502865584453727,0.4924290774996515,-0.36668803669649985,0.10027148213890565,0.3728483949236925,0.3557803996026536,0.17626308160560444,-0.007718302421750819,-0.12195860013725794,0.48097078657038955,0.08323343390181553,0.4652979925073636,-0.09536260740693511,0.2724245839056696,-0.37547636015579156,-0.23928565482277978,-0.2595116905838257,0.33686465782390174,-0.08977454854398235,0.2111032728120499,-0.00331273116388335,-0.21349948980189404,-0.09788288825417972,-0.19767692070770704,0.4866899425409262,-0.17537908555139,-0.3462639712622856,-0.40003287552826017,-0.3322693750139463,-0.3792869844763203,0.34337821482951464,0.3062554504357645,-0.4047109233205785,0.2957122623154728,-0.48431456475742674,-0.20516319261720886,0.2920689795980429,0.18977747064774453,0.3330825926903521,0.4763164983363406,0.018164183886888334,0.056567067728065655,0.16486665359099445,-0.220223984682307,-0.26240170102556604,0.4644584913683855,0.3462744742446763,0.007432676893833811,0.3458731806027245,0.23574946652152765,-0.38871548159854263,-0.3979924723015661,-0.3828292899269811,0.37841864373925993,-0.17596544368394032,-0.004442227457000126,-0.29053972758534585,-0.046298386943772994,-0.44326612428794476,-0.36939842439529363,-0.4433736578807277,-0.43295126970641024,0.0890506968033514,0.13426592380802077,0.09577614828861725,-0.03946107941713732,-0.2438364240847648,0.33415091655865936,-0.45425593025593175,0.2585060387203186,0.28402603913565283,-0.10969849035769705,-0.4274076880006967,0.32363042774548256,0.3779806243013058,-0.09500911769504003,-0.31261963391367387,-0.07590788863767715,0.1466375945087698,0.06013674777678746,0.19502828758415136,0.1445153276647893,0.40365982047351606,-0.16655588367244822,0.11983359544647743,-0.09452945804991987,-0.4321493481925872,-0.4200131672993469,0.40390658981543665,0.058450748416848934,0.4331735111308708,-0.32691418434489367,0.13579962883536062,-0.23521780923421187,0.07889952346734976,0.4978605201384004,-0.23899705181138123,-0.4770018400935339,0.1568928959588302,-0.10204680060103068,0.04243731525728422,-0.3463293192732412,0.008160396166378934,0.03260719671677496,0.16411076037497646,-0.2411813816394741,-0.1616252004935447,0.1823531232954378,0.4019098240534637,-0.0036274758114585685,0.29703740108480825,-0.42952394337005734,0.0930255467460295,0.44020553948969593,0.321401039470691,-0.39667532708359715,0.28812724173889115,-0.3840131012492906,-0.06734163598620467,0.03158216582095201,0.26867398218720656,0.04732876089304796,-0.31565562558071564,0.3847993939361868,-0.19350998151386634,-0.33202275983964696,0.26588110557250016,-0.052299844877856265,0.041785020298866514,-0.0578854307411114,0.4792542298337211,-0.005041226769428026,-0.2507747242805506,-0.16651300078383444,-0.4746060412615786,0.17067162132624075,0.4173706817940156,-0.20869197966438433,-0.4581418296772213,0.45578919870038587,0.42077137516593244,-0.04531944491451877,-0.26603670624545533,0.1658032500360553,0.40076909697443974,-0.22225797878626846,-0.16377416111957802,0.02359183133243352,-0.12717622957935476,0.2370703969543206,-0.3104393804505474,-0.2878523963965157,0.46868739936588893,-0.11054796673816558,-0.0110041696408271,0.26017875915272876,-0.06939974807495493,0.3077086129573755,0.30219120984992726,-0.10038722220032673,-0.16021229573015766,0.43085378313644035,-0.28333914021989137,-0.4864078353574143,-0.471348243631398,0.2684662556413759,0.3130854955942898,-0.1570821671490319,-0.035921294163699415,0.08101008468241593,-0.4751757069367073,-0.39647344363062464,-0.48691878812784695,-0.34931490509827606,-0.2422034751079866,-0.4173205106433385,0.2391302676449579,-0.4204067562266193,-0.39478233132012786,-0.22173183478310612,0.3597910772439951,-0.4265868219241399,0.49336299524914845,-0.19807648082263105,0.4637348309986783,0.23882652288277706,-0.15119171076588664,0.40185635228630223,0.3944548501731116,-0.3094914679920881,-0.10507447595465821,-0.3487791167290533,-0.1396811351543911,0.33979302513350174,-0.22690318805963566,-0.03377152286333246,-0.27555813279239144,-0.4428229079287365,-0.17787734503197938,-0.4427791670357838,-0.5219712878199255,0.336056031767154,0.1229799430239956,-0.48540843570116454,-0.42790154224089816,-0.03658796793434376,-0.2067043070290059,-0.21279633114879112,-0.36099516758986755,-0.06708461144287776,-0.4827427433419285,0.04327215307166844,-0.08154128642983273,-0.41534418488028824,-0.04081330437728928,-0.2647636631967979,0.13575068723813205,-0.030293570055940983,0.0002573606959926497,-0.34483788922931513,0.30661262252380544,-0.48161122705881443,0.3145155328209234,-0.13008970114201066,0.1922004992334404,0.14130313131142339,-0.2861874588391132,-0.5106920627910183,0.024996526582092518,-0.18526462172080502,0.3576467671127777,-0.4350007159929223,0.43783957746158453,-0.07893561312313654,0.37463745988539143,0.24455094470233252,-0.4749232753792561,-0.39950734006211885,-0.19831495446515032,0.3461066179398958,-0.350750303820293,-0.09471132098567878,-0.42259350543495244,0.40018440176198317,0.000932344215319885,-0.23761673402122324,0.3591492073237808,0.4576656731822802,-0.30162688934635906,-0.012569714062317959,-0.2735999910661434,0.43010310482978426,-0.40253697257972904,0.36298409774754503,0.11793407575598862,-0.4589376690313321,0.014616415821555736,-0.17907471373183256,0.19326994871097392,-0.43660206944841967,-0.35401456344223364,-0.3146346784993756,-0.2564135888698048,-0.2649600062587075,0.43558644393160584,-0.07490613925975223,-0.5208083307065352,0.06739551244854772,-0.3020426769293976,0.41782579319805235,-0.41715404507976434,-0.2795992883955435,-0.39357321599693046,0.2306906935973115,-0.2733450568303627,0.34306996470736717,0.3746082316457299,-0.22697618310209533,0.35663451821094544,-0.3452398290753545,0.2596615813705079,-0.2706533654853417,-0.28090281849387333,-0.41305251892389616,0.33046911679904556,-0.24237924279614517,0.2541965074840857,-0.2604367671760556,0.03389938896516607,0.3502068739909535,-0.18656630910129207,0.10443050400083058,-0.24131017605277635,0.42325440967519923,-0.24847257747892085,0.07190059352504832,-0.3954944065841345,0.0051480762873770715,-0.375850954928462,0.4205170408055932,-0.12082108906138053,-0.14305262116857104,-0.4713849208234689,-0.17882559742016746,-0.4580077387402312,0.1568752630009171,0.23116749256824218,-0.22886721356546189,0.3380051717340334,0.3778581185465201,0.07811727354544265,-0.136826098603316,0.3819136578282462,0.06306482793643033,0.20048574803253988,0.45978702043251396,0.5072232131673395,-0.22914940950101315,0.0010343539671128963,0.008805047036683505,-0.12430462207786121,0.2804494006729876,-0.18759770224948583,-0.21455323573474902,-0.4093083142807201,0.38741092812751,-0.3779533484250937,-0.08186825229442307,0.32697335816008577,-0.4796408911246606,-0.4008292087204248,-0.038118112246842834,0.06856066769374403,-0.41423019424169344,-0.18825213029224966,0.1521112766318587,-0.19975802151513322,0.3056574403508947,-0.3237037964124551,-0.1554089094248362,0.24345988599499524,-0.34922475106295314,0.20766956447262963,0.2513977820598199,-0.45003482810151385,0.43552703984297186,0.27310520597963467,-0.2794032386727021,-0.18534204515578445,-0.4384917092746973,0.2809731564653838,-0.08851840069027275,-0.35959947366509115,-0.3207201683331668,0.21117907939130323,-0.0059874247030525535,0.3220368007798824,0.5052486012717945,0.22314849169195203,-0.2689029069253495,-0.34356171238911504,-0.174307973427446,-0.36874911996610554,-0.3221898912713461,-0.24100593148443542,-0.29023048257615286,0.2745630217390161,0.11006248884704196,0.19260300519135393,0.21598395662825226,0.15877369669586675,-0.04191346293008645,0.33642819305986976,0.16010126031632127,-0.39789638936832045,0.06375548315083167,0.06008641699764194,0.02343094465328202,0.2036317593437869,0.12606596448869717,-0.30951538788238486,-0.4984789631990858,0.24513406916386166,-0.06424198719638516,0.4851942094213659,-0.4392574558488689,-0.3916968939864713,-0.44289296019530716,-0.2130557528590275,0.22041385159832255,0.16335450100688287,0.4220592305260406,0.03930536327972174,-0.14217516873290767,-0.013615433102407867,0.5103637754974636,-0.10716217554910994,-0.38431244561446487,0.2980688276972076,-0.09302732580277852,-0.446594162090653,0.5106358392990727,0.0878010660185006,0.418679431639652,-0.2552980031200887,0.3311048827002495,0.21441324191435912,-0.05551558798149741,-0.24018966288610358,-0.4968485679626089,0.3050538017882274,0.43389791652686166,-0.036607794998553,-0.09417909334177914,-0.3709961904069337,-0.39047453154247314,-0.4725047919709628,-0.13604717277948017,0.4352945942680833,0.38060613221273015,0.23877586394409167,0.5039885812151691,0.308800336354336,-0.018565123750113738,0.3841945148642919,0.20020599977990805,0.42783592750275123,0.22632307937175847,0.12970760380772312,-0.21097016991016743,0.13957546368768534,0.37710042132160126,0.4460964185921273,0.30397896269319136,-0.37076421753884414,-0.28356815922223966,-0.04572568559882406,0.2925351482850566,-0.02432320233906578,0.14576074488678972,0.5308195570113113,0.4002299190590227,-0.22118289494163285,-0.17939953554924942,0.475982839136795,-0.16979903137190827,-0.29166705582504315,-0.24476251160967552,0.45938162074187583,0.14864031263551597,0.17635571383744106,0.21332502603937584,0.3215930457282834,0.21065187072111285,0.04482017592204016,-0.07582021784082335,-0.128359272776428,-0.10936440873366335,0.15004986980937401,-0.3783851042810986,-0.23091336342009575,0.4584685779346925,-0.10696026671498242,0.23061775488642122,-0.4785967748085637,0.016893806857000527,0.12504424062787334,-0.20781486289096546,0.08658397833894224,0.2319623306403985,-0.1803546417648181,-0.2942513492180821,-0.1126125856668384,-0.15807601902955482,-0.004586970347421506,-0.06291704012349363,0.03495674277911565,0.5437331933752413,-0.3748477943650204,-0.24416888984661056,0.45504892265213787,-0.08129939942870941,0.3707198260426058,0.45589412945144225,0.3757455055924039,0.29698766856946346,0.009915184582973748,-0.10340580496334419,0.126956412000595,0.39458912908675947,0.4421531551387296,-0.4257261344928938,0.22827043356789994,-0.4028037793684039,0.024719065363335416,0.3194566232244443,-0.32102454579493966,-0.06598078178365786,-0.3147319773635777,-0.125245767818812,0.2522779285679776,-0.30504875735768516,0.2642517383055005,-0.4628495861885289,0.12024467494834862,0.09783859538822794,-0.22720735860115746,-0.13381063689858091,-0.12515624352829643,0.3172767963066314,0.4154656850212557,0.0013906663408384205,-0.0006260008884031871,0.36190131350370075,-0.14796241508920763,0.3855087583048437,0.2735337124949972,0.5078191606383016,-0.1550055577206943,-0.30456351660562453,0.4566536655442903,0.21193709854548431,-0.48200860634838955,-0.43323588350584996,-0.4475244092726292,-0.24742766237031735,-0.448928128323472,-0.4093262999668665,0.3035448273183292],"bias":0.16148851894345984},{"weights":[0.2194016995873673,-0.49402177737729924,-0.36672009638722314,-0.23791012393054253,0.22086256182688932,-0.16543516349114112,-0.0020795245027908694,-0.4520761738029735,-0.23168247939713166,0.31373383454044756,-0.2080379812274603,0.34518688197946185,0.2912028919945067,-0.2214217793370521,0.469359211104215,0.4841036308563046,-0.4252763388348656,-0.11115349565051817,-0.35143195879272543,-0.24887626915133443,-0.41869568463857537,0.06596292469594717,-0.4625682820237672,-0.2764905340097697,-0.09906654415094414,0.34331454914080944,0.2198600989898831,0.5043723349140506,0.3856533335951358,-0.08817416284180626,0.2716004565232349,0.17967452921003763,-0.2845017514396331,0.24501949732245043,0.029639738550856425,0.29035220170367737,0.4089994789031812,0.15085311411953,-0.1483788143839909,-0.46207475293361067,0.32420679972165617,0.4460527143236877,-0.16239961384818893,-0.14101341310957252,0.1305998711080148,-0.035761925091092224,-0.4243849708651319,0.41459438267087834,0.11992908495957208,0.2688231578084002,0.22397732396939452,-0.1311841631524442,0.2545916467928032,-0.3276253420893282,-0.47465697293981524,0.3935498392022864,0.3366599215178134,-0.4075980807442459,-0.32001660443892016,0.5036742883685547,0.28936261124853635,0.0340284356394594,0.14912311376683607,-0.01627893472003731,-0.4405951442518531,0.1308574960054916,-0.4208685784936959,0.4560803550470026,-0.3999414115986623,0.06231941819638099,0.292881781455001,0.05678091995981313,-0.3841720195749313,-0.2026639489619333,-0.258011999577938,-0.4067017635544759,-0.033157180667906384,0.21742297836107252,0.02810251792328972,0.15176764421728856,0.5115888776290397,0.27735287435489286,0.2081234547664122,-0.40278176879807337,-0.24838195974566823,-0.34505746846549834,-0.07179408095742627,0.5297766879965945,0.1784040533972384,0.4712877062496838,-0.14612765736685776,-0.3742092964638483,-0.1007943194470272,-0.17633030155260435,-0.42633235309594775,-0.42582600587804,0.009148230989857327,-0.4290175662079586,-0.3658651132711445,0.026209424082742634,-0.5021305226818112,0.053474749519455064,-0.4226199778614232,0.02946869350038322,-0.2074518790648539,-0.06049312748928882,0.309804507427203,-0.11799167855002869,0.5120929154593636,0.10777605877934482,0.3730080490286865,-0.3675933722859615,-0.11619806345087239,0.4683378058825751,0.04870563286872673,-0.16679709302187437,-0.2123223780092452,0.420766519021641,-0.2954479122245994,0.23910253279543123,-0.34677465000774027,-0.09458097152536381,0.09009133183558636,0.4220908653261733,0.058732909768699014,-0.32022331671274723,0.11360061800145604,-0.18582310012930844,-0.3182724946289565,0.497100502547417,-0.1663098882156273,-0.26100427885707206,-0.1884352201172844,0.3144440100503848,-0.1426286800657134,-0.370997582319582,0.02578901734672473,-0.46732058756529044,0.06784038066595503,-0.2536101330722417,0.13527071553499143,-0.2239896349267176,-0.23756590141440648,-0.2132099488714689,0.4308514189920849,0.13879486379173164,-0.30170905737252995,0.08330890188115754,-0.1786691817791567,0.05255492969913307,-0.05922393896952819,-0.05285969428219256,0.01278954757128315,0.17541935388796157,-0.3597718772173986,0.35708131763465595,-0.24195082657557487,0.1551496599075429,-0.22582383764974445,0.3926069527062013,0.4160350894424294,0.43555066452688623,0.07297834164993744,-0.4277055334094167,0.30467542386168445,0.07462252917235064,-0.06769324369483373,0.3177663612889749,-0.4819760875192022,0.029899691339948967,-0.07900902556348806,0.427717712463283,0.01865381654766983,-0.21088990711195915,-0.21817529887200113,0.09487331016538686,0.3702912536195392,0.5149031527084701,0.3753572567601861,-0.22487870241870794,-0.09723249572330023,-0.43454177011397493,0.35706763190845603,0.09771888149198549,0.5066535763809709,0.30734737342796636,-0.42204682001270566,-0.34396318101453843,-0.38129316539261576,0.21970734165152253,0.036385912747516735,0.041592179338469426,-0.05918303833062985,-0.4509006357867823,0.4505184129161582,-0.2868625296893334,0.2733562360310206,-0.37282972158616934,-0.2490531634225206,0.13361316965565592,0.047400630455380316,-0.5131112110991966,-0.4971525599534154,-0.28342902327213093,0.34479934420798103,0.24539863305624882,0.005612688830842209,0.4244915079286028,0.4042544790788111,-0.040255943339136506,0.29022836647380046,0.0016957577341980045,0.19566079529120714,0.20948384257895644,-0.11126221174078567,0.4602839794827343,0.4944902795430487,-0.03166740711249671,-0.4822727278329217,0.28017460476343115,0.4692698803170008,-0.017017600044475917,0.13657557483002333,-0.40489496181136897,-0.2589495933413219,-0.4060452852366499,-0.05381384781983459,-0.18809771996571725,0.03989111414607124,0.21764938811693343,-0.4163381042979706,0.017937424675034397,-0.22275242322230143,-0.29634796558043264,-0.311939011636011,0.47392385427588485,0.42053979197384206,0.16092383786082165,-0.4322174268113849,0.2355643124531714,0.13200621478148725,0.06269964122893269,0.15599705781171155,-0.014042411751169418,0.3146491793262729,0.1996739927084641,-0.04350394268193863,0.26256907663593093,0.4737170833527863,-0.3052468314295847,0.26418014312180066,-0.46703643562786873,0.19576221576576183,0.20420703488340125,-0.21979520872316252,-0.4392767074623032,0.08450665213666947,-0.5526281947761007,-0.35375813330311107,-0.5469795568875409,0.059031563247187835,-0.5089041946817854,-0.45087485565131996,-0.350416819859526,0.49820794187224193,-0.10177323242284042,0.46092576606996394,0.09302281857427817,0.4317192711606793,0.026594062339974644,-0.3787096256298488,-0.19962498279052157,0.46431594263004977,0.23328064522692873,-0.4417487000285649,0.07015082921813612,0.2353054839050823,0.2911442741889941,0.36343288516719263,0.44781988535463785,0.09753142636115869,0.2872373927664249,-0.3991264353783385,0.09455944053973758,0.08100819686612751,-0.5068842004654608,0.09003770634691559,0.38762847708092785,0.1371800571873786,0.20209031209326075,0.16911717733755124,-0.43142438432131647,-0.33888711597921733,0.4485728938677131,-0.26682110950310717,-0.017840605073413406,-0.21428422634269453,-0.14700382910121024,0.22113735757945968,-0.14598001584060238,-0.06249930882583458,0.29785588191213436,0.08788066413976163,0.4110558874069643,0.38241439054754256,0.009396514208028221,-0.4080489431636334,0.06581391645397763,-0.30481233153962123,-0.06123938169352334,-0.08035144875448087,0.32634513855302616,-0.5190891365598932,-0.014562889676824155,-0.44047781935387254,-0.5061059425257181,-0.3617350811140273,-0.37599836083676824,0.11696433107756508,-0.1638501373355979,0.2156307529540188,0.40062801972505446,0.036491570706393285,0.23496272871134438,-0.4953688578161903,0.2091615017858765,0.41998082668890807,0.1314204063330244,0.1807376783253444,0.210020707472797,-0.19750646256387105,0.1374776124762729,0.08135572345532177,-0.015502834804756293,0.26096657091811737,-0.49378974035304535,-0.05863304478727774,0.025738336229144163,-0.3534324813285225,-0.4308474596607168,-0.504305546387956,0.13680266039611083,-0.48125220191323864,-0.115678962623534,-0.5164246104742363,-0.2660577312660734,0.333032244422825,0.11847441860579384,-0.24468114759484882,0.049872409246346075,0.3858354587106247,-0.5063451948741957,0.29718479769923734,-0.3410693103911617,0.454345934572711,0.08249843993082345,-0.17858347572872763,-0.43848579732687776,0.41050695142951543,-0.05073372692813789,-0.48250829863341244,-0.5083753632985181,0.060478448887337825,0.0711571712466537,-0.17210204842176371,-0.045774187454717744,-0.30773073923127403,0.373077597681855,-0.3419152067750337,-0.1695543838478516,-0.0972811345404944,-0.25899540637300955,-0.1488306873855534,-0.3203594449099971,-0.49004714579983927,0.4228041970791057,-0.27373621251976993,-0.26951915611654464,0.34511617730115673,-0.04926573135374523,-0.18940550279744986,-0.03404978211305533,0.2221492844162701,0.33079247944257145,-0.0303960758857532,-0.31663155568391144,0.3379371258298705,0.28568892046183986,0.12510619418959856,-0.22234592023668015,-0.2165387241375747,0.15551790491451922,-0.29793356883470373,0.24694555336870885,0.2121334277105299,-0.010146534507794036,0.04933155864922842,0.40077677886728136,-0.5801971802043504,0.35378284687500267,-0.5748061483253463,0.3713986203762529,-0.231552061834369,-0.4574274516722944,0.26841710120564605,-0.10373917231423883,-0.0486919514082366,-0.02717454816319168,-0.29869042405159446,0.10435692644394717,-0.3710097885534176,0.2409286839616464,0.0031038852694348566,0.1947592682654596,-0.2245435342441633,0.3420421334215134,-0.0076665125412937575,0.2972758206571597,-0.13962791611326325,0.4771885053116715,0.05119152314279029,0.04972043374383798,0.3676294597396661,-0.23731128141300376,0.026935617259947593,-0.19725711953176606,0.2708432020855162,0.035552094233509614,0.030614281711375486,-0.317924804342553,-0.06544573219345665,0.28182193278023554,-0.5305702217816205,-0.2283216406731233,-0.12935235915865662,0.07564888042176438,0.24028463237115386,-0.2615283945260664,-0.3500788505865791,0.05890982002869521,-0.15467364143979861,-0.050852969700192555,-0.2639542118427188,-0.20217992305466262,-0.05096571123133605,-0.49673340939619853,-0.053651989984489286,-0.0031679859423096065,-0.06980999155847552,0.4688003451291742,-0.42327691355063574,-0.21642144409408326,0.3346538046434665,-0.5448119228511796,-0.02300013060700395,0.012010293976975667,0.2793946263779686,-0.3529217663251058,0.04880231495088324,-0.43361306834469954,-0.42610001776430323,-0.4735924342734368,-0.0020772498842566863,0.33822136982158857,-0.14720124657862532,0.21882425566216795,-0.08623283269617563,-0.15624966765715534,0.2554164051132897,0.09985826486303093,-0.44455285599827316,0.2639576256447253,0.1683944251138657,-0.07210816057308302,0.24051099698181033,-0.10079393465831965,0.248539771938247,0.17520547011699178,0.21907615141604517,0.13982727466555622,-0.3937814433794623,0.012111357714473088,-0.2550926328592853,-0.017188339891710324,0.09420885393943129,0.3311272894654325,-0.34106906160978445,0.24401839217965626,-0.3736018925286856,-0.27624123785215277,-0.17029472291443654,-0.2724916350175223,-0.301046002208853,-0.4247723384088825,-0.0009527407127812037,-0.05490115366921022,0.19378814103552308,0.2780054265600048,0.2732531818452145,0.15960691883081435,-0.3249178099817239,-0.29553017775169155,-0.2127588867520973,0.04060116394601872,-0.3333850338839626,-0.3406618569069023,-0.1098138735308999,0.2572095094988072,-0.21721299262095153,0.15305380012391792,0.14693874957032077,0.4365323967514882,-0.2402366200100638,0.37215933539988433,-0.21143332243070842,-0.26792791225192947,-0.1512270080894204,-0.28818351780775253,-0.24490019495180598,-0.4163524547346017,-0.1666434303487612,-0.3895085784134534,0.1413321166823972,0.05171601876806536,0.23356536112449997,-0.13929752742965815,-0.12771364819269868,-0.20456501436426133,-0.25691659414165186,0.3709526445856526,-0.20594031119006614,0.3606067021565283,-0.12280512675787408,0.3575053351718593,-0.2516520451022556,-0.06268718531874211,-0.18733367618664473,-0.004972876933837795,-0.024852946890134307,-0.03652175591576697,0.20698565435077196,-0.21064138446013764,0.3768862198074246,0.1823436171512882,-0.11198129906327402,0.313792520408769,0.0598501211421575,0.2503717347324117,-0.08617628416383225,0.39633892943686494,-0.42365278609518964,0.40647544836491095,0.1961629696616088,-0.28368481630419623,-0.07361992513192303,0.0972886392531488,0.16682898052400638,-0.4558193766434017,0.34415740014056123,0.19459017160592307,0.29632941356186876,-0.393360058000542,-0.16510808568114424,-0.3208168075104966,0.3692275874125353,0.2881697775021775,0.3535950601152443,0.08154353401135514,-0.34913853259255695,-0.4765036764741107,-0.4461190346072203,-0.29047758310964816,-0.33838870977490887,0.1903129382167865,0.34965345601314646,-0.0745332676743815,0.5220366086087669,0.16856120452615023,-0.3443773138431472,-0.3236713282946474,-0.41679272658057864,0.07201272866326501,-0.3483061334908558,-0.10732613868167633,0.06432721991444847,0.402278714022085,-0.30835447560483575,-0.04789604656850809,0.40508193904749823,0.11231772007919844,-0.46041962687196264,-0.1423447947520291,-0.26106081637944095,0.33137456432729107,0.23773198217935387,0.34398042926734146,-0.3484744821330516,-0.21132674533041587,-0.10369540187123642,-0.05633126630578973,0.12175428159317171,0.39965512164181316,-0.22938837471678478,-0.2659338693121708,0.08609949452890117,-0.09968849683075849,0.18610992037435747,-0.2740445039918227,0.1796100562707338,0.3928351069621052,0.0646024144083667,0.2302224926668767,-0.19223944045513897,-0.052030656367274594,-0.2209911191798629,-0.09110670837740581,-0.43380712143688566,-0.22520912052177955,0.49974623726129824,-0.48554088502717085,0.06328359203374703,0.39652136722689896,-0.1460811424300405,-0.4253460925164852,0.4899231464224385,-0.24437375336272502,0.19891397128661223,0.2514561052992913,0.30943870922424777,-0.3118263982467685,-0.24957896381858277,0.35234092391907196,-0.10769759074046258,-0.03831491376578626,0.12799413614054103,0.10911318337815079,0.3889988436807364,-0.3923925532108973,0.4794863983526366,0.060556857464844266,-0.4787494003801596,0.2336802483883763,0.09833736071212537,-0.38941375915881327,0.07518981209883065,-0.23719516017582276,-0.2830894041932577,0.32006474590303613,0.4633561062285366,-0.4883551898218111,0.20156760201203736,0.2213159178154005,-0.4365843938379618,-0.3941197100003356,-0.22743065529888437,0.5039014288813948,-0.10860175997635282,-0.21224133018602806,0.22064084448358165,-0.038776515082489325,0.26148555843877236,0.2100357857824272,-0.3662533302986958,-0.16655828786282514,0.17213665751320503,-0.14032728572518258,0.3860907664753391,0.23960557771216673,0.23796073836071244,-0.2992842150903447,0.4681956767850735,0.279071567824213,0.09471774179985049,0.488395743684418,0.23315466742469096,0.03403377134558983,0.1155940939682413,0.1526135257589971,-0.19334312032348333,0.36088632763077627,0.13614819829285618,-0.449658054642352,-0.3884409118869876,0.2824259651513557,0.14256259796470314,-0.2122141691833424,0.48928887363960494,0.42243327124906893,-0.12225934227011404,-0.2545518517370758,-0.009627271104621906,0.4211828811396659,-0.2963231063662501,0.21327634915116542,0.41208503535511315,0.2222447028573806,-0.3516270005327717,0.2021754539664108,-0.17918329943223427,-0.1758853100094712,-0.028080959486184928,0.20768023162528762,-0.061474387090446,-0.4136170938931002,-0.042571221286628734,0.020360470952785564,-0.45893418766655575,0.30269462275811426,-0.38049059340882274,0.3927881283491349,0.03268912226128092,-0.17172189903052676,-0.012393668434231057,0.08393348533145756,-0.3781308230936178,0.41231387798628777,0.37295363690543715,0.16633741133038638,-0.1514890949924515,-0.34855019220330136,0.38301511054431026,-0.26809423053905335,0.04378005560048748,0.07082701157050054,0.4980770755203011,0.36561717366666757,0.20997083081551632,-0.4309832504946885,-0.40588721158186825,-0.25410169291777523,-0.27469808662034906,0.0068914393047487576,0.038258285777615704,-0.14351868453961703,0.29204566999162374,-0.1377920256936712,0.15655110583315496,0.14979809699969052,0.5085370746340296,0.4563214645080052,-0.09767893477816385,-0.05633750631769798,-0.11231247691514096,0.1451587917489684,-0.37824713190290343,-0.15149191629981687,0.1605548988387194,0.20295921054032529,0.246821827821184,0.057004849344744875,0.25578547961882026,-0.1248205208008615,-0.15990014366568475,-0.16921112394906282,-0.08537884324941905,0.2270837960957073,-0.44828869344449446,0.086733495777728,-0.3071936354023185,0.31685937824853755,0.41169347889358177,-0.12952131139922293,0.4515562720470566,-0.1557592531973171,-0.4189694281516265,-0.36733925193043493,-0.3711140734980927,0.05571907318382745,-0.183479537049733,-0.10461767211284634,0.0639350134659743,-0.24719658901289712,-0.3712394540293256,0.48531023829307596,0.21978500842722024,0.3310870678213503,-0.10302849942973132,-0.3055282242067409,-0.08494233221069307,0.49301803713050685,0.0673968539147573,0.2447757488772721,-0.07375958748622793,0.40049938591011447],"bias":-0.10740076479666802},{"weights":[-0.3323418054890509,-0.3734986443300427,-0.007250245010771868,-0.3871877471776682,0.17710088144177996,-0.3155097135855534,-0.515971191722547,0.38367962384741783,0.16224352177209905,0.03699600622427079,0.15930903927194395,-0.11832438720989348,-0.2626959512532857,-0.17786478596454164,-0.1791280066993459,-0.04792979384269277,0.06952277796496173,0.46112150754382747,0.21420845855607118,0.40791663404540085,0.3537363689001302,0.02663715216934953,0.2960828950587825,0.262113387119525,0.008728499033518423,0.2974687872527382,0.25158817189719446,0.3452898673441087,0.3104355734920358,-0.37914099667581613,-0.12492543322522685,0.17190619292721226,-0.5013023314891117,0.18790005241402583,-0.14109674872077382,-0.21548432822709662,-0.20927084775001709,-0.27080481953716484,0.1821733982789386,-0.019353931113732077,0.36237474032579636,-0.3664769228268805,-0.2834496719945177,0.29124267064827963,0.2044021583889158,0.23802749280409566,0.4905966264546837,0.13705057861200048,0.22602603037642183,-0.3291414245529731,-0.11994875194393839,0.04621762063487158,0.34809614990598187,-0.12999405832031852,0.1780180910977603,-0.34443394068505134,-0.14438210400458698,0.15469750037404467,0.4620815536546119,0.20081211941635274,0.040803263790235855,0.21150673128894903,-0.43709342622416575,0.017068298933406136,-0.37280519827111264,0.5377703242504742,0.19916433725316482,0.4455163053077819,0.4016176838380602,-0.424551123777717,0.33683966021177864,-0.3173404083216304,0.3875351446967352,-0.12834426969863005,0.3925767220538393,-0.033273494592208006,0.2470642781684165,0.4503789665191166,0.3283939496380245,-0.36969163016613865,0.1690886013196952,-0.28542966021827654,-0.19553337680811875,0.01723497999752688,-0.5088167332764177,-0.015307168124660386,-0.29283260068159306,-0.36676680892690233,-0.49021263742729526,0.0254515938612271,0.26735762220956655,0.061180695787146126,0.4348417713907177,0.4940472468028823,0.25993574838791644,-0.29726086203828245,0.10788423381260598,0.11283069707512541,0.3934327923061057,0.1656340041189035,-0.10779589635495766,-0.1517970898765646,0.17177955286493043,-0.23768992322408214,0.11032524759197604,0.5085201495397046,-0.3043737957364556,0.056336117490430195,0.12160129657170164,-0.43116546326472244,0.18681313056990703,0.193449988038127,-0.19773803671408452,0.2301457878811426,-0.05818714120914784,0.010456294903573096,0.3108687223437216,0.17911958708114903,0.14135767892146925,-0.2064563104847078,-0.21732548069391444,-0.25194279822209015,0.5253306614007819,0.35857259334459424,-0.19885670882126455,0.11263330400299394,0.48540392809357163,-0.28934512219454817,-0.3805112442902796,-0.0682964526656204,0.3763991174698806,-0.1807986260325704,-0.306960893428539,0.015300000646978498,-0.4099739921969119,0.17445259020252926,0.10014387444492515,0.04746709409679573,-0.3506961994668623,0.10924473253783384,0.3150827569493377,-0.2975020856864916,-0.03100568408274897,0.4041033146493226,0.13015180105935226,-0.07006865105874872,-0.4349963016729837,0.27277250273557496,0.3898545833355005,-0.2822836403611129,0.3406254900220939,0.5317502548862666,-0.190034902473334,-0.35335132697984706,0.2915599273101092,-0.258536057938924,0.4097841972868685,-0.469106371408391,-0.3928925695544849,-0.3072878175887686,0.1108753144553936,0.4572617931233422,0.09937470165538376,-0.17818980240717455,0.08390320979027353,0.13164851329389954,0.26878913635553786,-0.009339105273397968,-0.3358692435981444,0.4358289859904767,0.21661552052928323,-0.39222876813311647,-0.02952988900845938,-0.29474961519675624,-0.02537948553432438,0.3225965634426442,-0.33367938355936116,0.17232181277617373,0.3945068408906168,-0.16241904919464106,-0.2739120807827641,-0.38644863732235263,-0.29296017249522904,-0.4523557967940242,-0.18013030547363926,0.029147421391554237,0.3994942082240149,-0.1397461488192533,-0.4041734430788491,-0.16493492675835775,-0.06129401921564427,0.2944765406802498,-0.2245953853699783,-0.03169059266029319,-0.14770155471342414,0.33914884992983857,-0.07339114089760418,-0.38412768739348746,-0.32565289634563943,0.3133650347789906,-0.004679663692983287,0.1066563398716685,0.009095539514317,0.23559738594260046,-0.3000723816247325,-0.13223986915549962,-0.3352024219134416,0.10817149052626497,-0.24553942165451492,-0.30242635027141807,-0.2686464138505464,0.013602660780986856,-0.0009383159461892894,-0.3692630093859037,-0.015339526042915932,0.3655367333177618,-0.0753039484793262,0.3084254955052774,0.19624039442773147,0.1419636140654841,0.1537291472702085,-0.34800813599544067,-0.015809059926472843,0.3705583040561568,-0.049873680059724854,-0.16215723026259415,0.17906626614273913,-0.2680872793932665,0.2953009498509373,0.49464157018475824,-0.16888699767242918,-0.27290354491669644,-0.31869668202712864,0.31436284144012167,0.5266805190687824,-0.10374985540883107,0.07551741448139718,0.07748473595372304,0.1193206827727532,-0.4406812654854295,-0.23337734248138106,0.28325241363759546,-0.015193677129204101,-0.4448339154609042,0.33555417771963164,