[[{"weights":[-0.23861887,-0.3936484,-0.008970397,0.47274256,0.27944195,-0.24852079,-0.25454426,0.03733664,-0.32566667,-0.33360672,0.32100654,0.38408458,0.44928336,0.14826255,0.4859082,-0.20080206,0.12964462,-0.45736492,0.4663974,0.41503155,0.2990769,0.23306344,-0.45417225,-0.14743032,-0.28011203,0.4316671,0.36056483,0.27942777,-0.4841714,-0.13080965,0.39876616,-0.19271113,-0.2013712,0.3629331,-0.49830526,0.1627549,0.45760792,-0.20353222,0.11892477,0.28958797,0.48160595,0.41887164,-0.1934931,-0.35983557,-0.24861416,0.46212506,-0.2158119,0.13200846,0.14477336,0.37201726,-0.46091753,0.28841966,-0.4279604,0.17473064,-0.3010738,0.3950292,0.28854394,0.28932703,0.31088185,-0.047106415,0.39078552,-0.3279546,0.4621988,0.44335854,-0.34094983,0.43888658,0.48306412,0.4308935,0.12220998,-0.21202655,0.032804966,0.108718395,0.44654787,0.33504552,0.059798967,-0.21513042,0.114789754,-0.23911318,-0.45256764,0.33050102,0.43943495,0.13178624,-0.3577459,-0.10963987,-0.25669605,0.0434845,-0.25733286,-0.15562887,0.08176949,0.23844504,-0.3429129,-0.19608259,0.010515397,-0.23974273,0.30502263,0.45916846,-0.46577573,-0.15046337,-0.37560517,0.09105799,0.05023101,0.04403457,0.0034008573,0.4321583,0.14362237,0.1554593,-0.11288665,0.4210093,0.4410531,0.20149828,0.20789105,-0.09709047,0.41471624,0.3237341,-0.1231655,0.15344949,0.034021422,-0.15210204,0.43227565,-0.106447294,-0.5146236,-0.49232253,0.28527626,-0.18789479,-0.20070128,-0.12060525,-0.6735699,-0.01558613,-0.1708686,0.34018758,0.11336359,-0.060931973,0.31130272,-0.13413876,-0.15651807,-0.0846071,-0.46889502,0.12546282,-0.42667955,-0.13560693,0.10578181,-0.24964179,-0.48562324,0.30973268,0.47182995,-0.06867569,0.1410768,-0.06464053,0.09083667,0.110057764,-0.58526516,-0.45471245,-0.35542437,-0.47671634,0.12832782,-0.00427327,-0.4524643,-0.169756,0.2817938,-0.33788458,-0.03964401,-0.4136898,-0.118221566,0.23453344,-0.07539966,-0.2530164,0.34205848,-0.101175085,-0.23489322,-0.00006569676,0.30679262,-0.29596186,0.2935304,0.19348057,-0.41759986,0.027599119,0.27714086,-0.24015196,-0.44247544,-0.51722807,-0.3937288,-0.19791993,-0.15418041,-0.2924604,0.18201123,-0.50180966,-0.2199504,-0.04449385,-0.3992964,-0.49452147,0.09274693,-0.359642,0.10417994,-0.15856542,0.13506714,0.3108799,0.25987327,0.116539225,-0.010043162,-0.3823712,0.16219354,-0.43868208,-0.12547536,0.2795271,-0.47203708,0.34885255,0.4868485,-0.30846056,-0.0462586,0.13727993,0.22595252,-0.38766375,-0.12405372,0.061159242,0.26564664,-0.2404063,-0.3925175,-0.17997481,-0.022301828,-0.05193066,0.3067168,0.1731033,0.16781725,-0.010128516,0.13382612,-0.19199486,-0.12606724,0.013194668,0.04040072,-0.174748,-0.016367985,-0.37982845,-0.24516937,0.58853406,0.100119926,0.083533145,0.58978856,-0.2551112,0.15325192,-0.2648165,-0.2980612,-0.55692303,0.2783967,-0.21099599,0.11126285,-0.24854758,-0.18578319,-0.15252586,-0.3156578,-0.51621693,-0.40347928,0.32728332,-0.48380542,0.34134024,0.27285182,-0.047815654,-0.4236197,0.31951892,-0.3365867,0.22138612,-0.039960857,0.53201705,-0.050665762,0.6341659,0.3734072,-0.27744082,-0.12069114,-0.43080106,-0.043922506,-0.28971305,-0.11151589,-0.47089028,0.36470947,-0.042101648,0.2369995,0.4383707,-0.55358154,-0.3308112,0.109117605,-0.4609276,0.35065532,0.18943034,-0.27978206,-0.38779354,-0.14038199,0.29190093,-0.08262053,0.6567285,0.74733496,-0.036644723,0.16191317,0.57228005,0.41967595,0.32247832,-0.16523398,0.080942504,-0.40734386,0.25707868,-0.2641987,0.13626553,0.4056617,0.41518423,0.2517337,0.47175065,0.36896425,0.21411404,-0.37034607,0.4274912,-0.39210087,0.2728138,0.24101017,0.36684284,0.39433455,0.052300565,0.20995457,0.18470588,0.30553675,-0.030698061,0.1432969,0.79429287,0.6583657,-0.232626,-0.36677048,-0.7408882,-0.47145206,0.105441384,0.3257414,0.40637946,-0.120899096,-0.123606436,0.04061949,0.39651656,-0.14688393,-0.3901866,-0.23543735,0.21739103,0.27635556,0.25276798,-0.11836911,-0.42588615,0.21597058,0.25877476,0.5599557,-0.09165716,0.6251044,0.49936604,0.7114111,0.23031779,0.1200928,-0.18646841,-0.6641471,0.12958482,0.5245088,0.2201839,0.38379928,0.33412096,-0.14383043,0.36377144,0.33560905,-0.14240454,0.082658686,-0.020929402,0.10278501,0.26905447,0.11986247,0.3983848,-0.34920338,0.07922207,0.48409516,-0.06889801,-0.08066811,0.12818998,0.67810255,0.16288666,0.50323963,-0.16412464,0.5696995,0.07498807,-0.4933853,-0.22327656,0.024683531,0.52998716,0.25628418,-0.24404617,0.52087766,0.4720464,0.2652214,0.56755763,-0.37266082,-0.15238765,-0.19710702,-0.19804052,0.25862467,0.09458715,-0.24355425,-0.44070292,-0.31510192,0.19971715,0.6298463,0.3387835,-0.13255031,0.5177383,-0.24561277,0.3054845,0.30576357,-0.18011685,-0.37415394,-0.20933183,-0.07162861,0.4534841,0.18273339,0.40373632,-0.32196364,0.4283306,0.44785017,0.4033894,-0.3449074,0.23032756,-0.04137042,-0.16949229,-0.34806538,0.42791712,0.10848062,0.3332067,0.46854603,0.06269682,0.41203132,0.025535611,0.36388707,0.40445575,0.0041996124,-0.2723221,0.1687195,-0.05883583,0.055878177,0.51920044,0.7108721,0.18157187,-0.22447559,0.38397768,0.17531379,-0.04044613,0.15263781,-0.05806415,0.31676543,-0.16769835,-0.117338315,0.1620128,-0.027424382,0.13401257,0.4806251,-0.19789088,-0.0734391,0.05194009,-0.36037964,-0.0883783,0.2770716,0.5836554,0.08064389,-0.108781315,0.4698063,-0.18299784,-0.17293353,0.43091622,-0.17761992,0.2307593,-0.3474832,-0.1701921,0.22693451,0.46468973,0.17200372,-0.041728556,0.012164071,-0.46585488,-0.2938754,-0.27970046,-0.189299,-0.04939484,0.21428095,0.13687707,-0.15087683,-0.49561447,-0.11854655,0.015883794,0.25677598,0.18683146,0.09502712,0.6684206,0.3787899,-0.53950334,-0.05112956,0.34214234,0.28265563,-0.14812578,-0.114223465,-0.38494265,0.30614838,0.03495526,-0.5396471,-0.19247334,0.15248927,0.2671044,0.058858395,-0.2984301,-0.101590075,-0.39146084,0.10572937,-0.22107564,-0.59052104,-0.43292716,0.15089068,0.12003924,-0.33488366,0.6795851,0.43109718,0.15864253,-0.092730105,0.3398592,-0.047238905,0.18541409,0.37933353,-0.4781073,-0.07180727,-0.49843156,0.35632393,0.2029849,-0.50124353,0.25331998,0.24066925,-0.12203179,0.23982896,-0.28765106,0.47029626,-0.009995823,-0.37598228,0.067581184,-0.21360673,0.062506124,-0.3068617,-0.64415175,-0.2838476,-0.41269633,0.32232597,0.38815916,-0.38673353,-0.2528019,-0.22863962,-0.49686524,0.21634664,0.14744747,0.38487434,0.16817021,-0.5319687,-0.36590227,0.12178446,0.3231812,-0.110820815,-0.19463773,0.4235984,-0.10929723,0.337016,-0.1808782,0.07593825,-0.43259484,0.12450128,-0.63552785,-0.72463834,0.054981075,-0.3465738,0.10871654,0.045651313,0.17180248,-0.08253625,0.32080978,0.024310088,-0.06721482,0.5082903,-0.31159562,-0.088076085,-0.30211997,-0.5485865,-0.5632237,-0.5218443,-0.07158592,-0.16401114,-0.3735565,0.07890814,-0.022111187,0.36223078,0.19452949,-0.35553312,-0.32180375,-0.52920043,-0.31364888,-0.69141805,-0.6687746,0.007971534,-0.6153613,-0.45119214,-0.2891027,0.2344302,-0.2382599,0.43618414,-0.24454434,0.034599997,-0.4192068,-0.17632563,0.112408146,-0.38104326,-0.112520635,-0.2430582,0.28901702,0.18385597,0.34952784,-0.08320842,-0.17108026,-0.2207906,-0.21712305,0.43979383,-0.25018525,0.36973447,0.08951421,0.06274547,0.1826546,-0.38481456,-0.6067543,0.05535354,0.24663714,0.18699434,0.23575729,-0.2936238,-0.38218066,0.3263514,-0.084627986,-0.4187018,0.105779625,-0.49857712,-0.3737414,-0.23885354,-0.372397,-0.47709733,-0.14208435,0.47994083,0.25077587,-0.40941238,-0.15986885,0.07613544,0.27186066,-0.45337635,-0.13833678,0.117196895,0.06401481,-0.051036246,-0.26617214,0.20450132,-0.40456054,0.11604445,-0.06698579,-0.28552434,0.15169415,0.10024808,-0.2212272,0.21885519,-0.39753565,-0.19711056,-0.3848245,-0.32221806,-0.00896024,0.03975533,-0.33908606,-0.27969116,0.17270754,0.2765342,0.21717797,0.0708429,-0.2757563,-0.033051968,-0.38419032,0.40761134,-0.020290852,0.097346105,-0.22131883,0.36784303,-0.010448669,-0.1785996,0.6053847,0.2658657,-0.30788746,0.22603612,-0.21200849,0.27148062,-0.297463,-0.07279737,0.35041142,-0.25928998,-0.31077754,0.28715217,-0.043835144,0.115013145,0.15252696,0.1877719,0.33940196,-0.3032323,-0.21833535,-0.15035972,-0.14027146,-0.004883036,-0.3389775,0.19311938,0.1915834,0.257872,-0.40932104,0.27011746,0.221262,0.23111257,-0.052789,0.4779749,0.130187,-0.2833538,-0.44104552,0.4577524,-0.17264543,0.21680658,0.08240956,0.046955623,-0.2711149,0.1311408,0.33507228,-0.2998817,-0.23456956,-0.42061853,-0.09412585,-0.3720113,0.020230494,-0.026578328,-0.46607172,0.3989411,-0.11694203,-0.054623134,-0.026059324,-0.1930799,-0.1323533,-0.20338984,0.31675416,0.24098387,0.4075933,-0.21357964,-0.079843156,0.34807557,-0.37299448,0.39952648,-0.009251829,0.38678133,-0.04474014,-0.2733698,0.33024347,0.30330944,0.006873877,0.13630615,-0.36161852,-0.46410322,0.3528037,-0.43786156,-0.21927527,-0.25727016,0.094565995,0.37444425,-0.18339558,-0.35710526,-0.4255762,0.35555178,0.42154467,-0.32223028,-0.33930033,0.13630025,-0.44598633,-0.29545254,0.084307946,-0.065152444,-0.29982084,-0.4348848,-0.38123477,0.16778933,0.37581778],"bias":-2.2462275},{"weights":[-0.15211372,0.08041891,-0.2329358,-0.234872,-0.5052894,0.33916995,-0.4544256,-0.41861144,-0.47542349,-0.30166772,0.45742926,0.3635083,-0.09535725,-0.0008755524,0.39320967,0.027014973,-0.5078512,0.13194726,0.24383841,-0.18512107,-0.10683302,-0.2859018,0.10442006,0.33860037,0.25137544,-0.033320937,0.24146403,0.3572465,0.19383095,-0.013434303,-0.20252563,0.40339634,-0.4541351,0.12312949,-0.035930816,-0.012043296,-0.02464098,0.20040533,0.43232813,0.20733356,-0.18292165,-0.11648027,0.18252471,0.07809002,0.45064732,-0.24495576,-0.20517008,0.40429845,0.14899835,0.3887604,-0.2989299,-0.032259386,-0.12355245,0.20322226,-0.24051084,0.098196425,0.009271598,-0.124240614,-0.23392393,0.24321528,-0.15441628,0.37280294,-0.3099188,0.24344106,0.4108322,0.23051794,0.39637852,0.2660253,0.16953097,-0.2275202,0.012531664,0.10555831,0.39897007,0.25327164,-0.24068679,0.1349147,0.045209553,0.2517097,-0.33130625,-0.11514787,-0.17087302,-0.42079356,0.2680535,0.30991694,0.022867003,-0.38842025,0.10092964,-0.15693897,0.1971873,-0.5103136,-0.43072796,-0.32266322,-0.20124498,0.23735742,0.24853857,0.33252144,0.32777402,0.03314065,0.13770738,0.48986718,0.4084371,-0.17565505,0.3835238,-0.25551486,-0.26549304,-0.12937492,-0.204189,0.15334608,0.13013978,0.36412063,-0.42570278,-0.4712768,0.10741996,-0.011935159,0.1799128,0.06132729,0.3232775,0.08008064,0.046742927,0.18955328,-0.06931557,-0.31061214,-0.18005902,-0.10031914,0.4826676,0.3911058,0.41756773,0.40239853,-0.27876428,0.13978544,0.35720992,-0.08723138,-0.52092344,-0.013528601,0.41164005,-0.20991193,0.15222189,-0.10895537,0.3977691,-0.35651782,0.062164616,0.22748508,-0.4664189,-0.37845346,-0.115782894,0.19969082,-0.088690124,0.11119636,0.08015683,0.53357357,0.40990743,-0.22050945,-0.107422575,0.12704554,0.42266154,0.10332684,0.45993838,-0.0754366,0.5407765,-0.059336867,-0.03486917,0.24501595,-0.1730578,0.08420409,0.4107192,0.29018998,0.09293828,-0.32593772,0.39074358,-0.39589855,0.017268619,0.16639559,-0.11774471,0.434071,-0.09861527,0.013455454,-0.057668652,0.21216203,-0.27402154,0.23427561,0.4445984,0.0412085,0.10292123,0.57853496,0.43508855,0.06334388,0.23175758,0.45054713,0.30311617,0.17601973,0.34931776,0.31533587,-0.46989933,-0.2871804,-0.24080575,-0.29290572,-0.2662938,-0.22557455,0.26451746,-0.2103511,0.11379956,0.2455089,-0.29287314,-0.3228709,-0.13879524,0.32179418,-0.2561601,0.5609237,-0.06738415,0.4656169,0.020767214,-0.26546192,0.2958141,0.2828306,-0.06382093,-0.27966544,-0.08642804,-0.052586384,-0.45058042,-0.06717948,-0.099430315,-0.40480533,0.39844224,-0.011715041,-0.1669393,-0.44112936,-0.5095326,0.42363513,-0.1289831,0.3239142,0.11564914,0.4413603,0.3687714,0.36167204,0.34547505,-0.11802405,0.08947267,0.026506573,0.19212565,-0.4072534,0.29913074,-0.5573213,-0.31604797,-0.3292735,0.49208343,-0.19816232,0.3776599,0.45568994,0.029965496,-0.2647578,0.34531847,-0.2408252,-0.14156777,-0.19357142,0.025236197,-0.054767594,-0.41414303,0.3141594,-0.1068941,0.06413496,0.09690811,0.55507094,0.06968726,0.2111952,0.30809408,-0.14992908,-0.2449792,-0.19676043,-0.5796659,-0.05329935,0.2573609,0.12161298,0.5844182,-0.31465757,0.16371131,0.21143077,-0.20790356,0.26571155,-0.14595926,0.29489955,0.21985523,0.18433899,0.24312426,0.43597618,-0.15905026,0.4372047,0.11989062,0.08422693,0.19910355,-0.21243677,0.20849714,0.24351753,0.41187057,-0.57409596,0.083796136,-0.79381347,-0.1309206,0.09049134,0.3320057,-0.34211284,-0.07059484,0.60417163,0.5457646,-0.25136718,-0.052857157,-0.074843824,0.03305168,-0.049954902,-0.15613715,-0.51932347,-0.04425322,0.4054681,-0.11786859,0.18759629,-0.08490914,-0.39334655,0.057947654,-0.04119071,0.022000752,0.039370578,0.3352942,0.08812281,0.00730929,-0.5104027,-0.12746108,-0.25504175,0.25632364,0.5009732,0.40013546,-0.07287254,0.32016614,-0.13514082,-0.29577085,0.1252727,-0.3897318,0.23229225,0.33272466,0.13361745,-0.26998472,0.30933622,-0.3658492,0.3147019,-0.6075705,-0.10906191,-0.45933756,-0.06304773,-0.32338908,0.34611595,-0.029272845,0.24801022,-0.62774885,-0.07898004,-0.2509477,-0.24693225,0.37156293,0.22422498,0.34641072,0.16239972,0.11080677,-0.104004964,0.04333535,-0.26502022,-0.334843,-0.4523547,-0.3136662,-0.06652385,-0.4479392,-0.51050127,0.15277764,-0.000026092326,-0.22602394,-0.30270904,-0.36714828,-0.5995979,0.3319805,0.3072327,0.0947183,-0.029687794,0.19888236,-0.0787316,-0.10952118,0.40904328,-0.075647846,-0.60840285,-0.45571882,0.1560788,-0.48658752,-0.49059373,-0.42494592,0.41768068,0.28027847,-0.017809903,0.26071128,0.0174208,0.03414198,0.021540418,0.115369335,-0.28518382,-0.43129328,-0.749587,-0.66790736,-0.6324148,-0.14957675,-0.07523312,0.49418902,-0.09921155,0.19854017,-0.1768995,0.14788744,0.3183413,0.1354371,0.065756716,-0.06268363,-0.26302463,0.44246447,0.43476707,-0.3060962,-0.32754192,-0.04646119,-0.18956447,-0.058328725,0.10014766,-0.1253331,-0.2443362,-0.038086113,-0.20977,0.21640794,-0.4819245,0.15314074,-0.554756,0.43434086,-0.0110751605,0.06673485,-0.040029675,0.63327974,-0.11188196,-0.00061305886,0.22555687,-0.33965287,-0.56936073,0.14649934,-0.45751104,0.37544402,0.22011738,-0.030359713,-0.023851307,0.302568,-0.013268922,0.020883868,-0.37477496,0.16562808,0.24288024,0.049210936,0.38752428,-0.2666747,-0.073764585,-0.06380497,0.4994935,0.2276611,0.0821973,0.91952884,0.49493334,0.22632478,-0.040137086,-0.13430159,0.297205,-0.18408325,-0.58398825,0.34774187,-0.16959608,0.033267524,0.40982708,0.51125294,-0.3231289,-0.51567596,0.4204743,-0.2634922,0.2140436,0.36375323,0.27949208,-0.48221615,0.1694573,0.24968767,-0.22000243,0.368803,0.32260993,0.6040381,0.380103,0.039414067,0.22044213,-0.28627324,0.13933708,-0.19350795,0.14880396,0.01569551,-0.5538817,0.23746122,0.058273986,-0.24297015,-0.13757114,-0.12919249,-0.12723583,-0.21659401,-0.30664697,-0.2997763,0.3744782,0.07037298,0.1816192,0.08779777,-0.42887732,-0.30869028,0.47223246,0.62506044,0.35705432,0.39331216,0.5576413,0.43015233,-0.2185375,-0.31522048,0.34086412,0.3678078,-0.04890576,0.4295073,0.2585739,-0.2296991,0.54296243,-0.10816364,0.32561013,0.112362735,0.13188735,-0.46691898,-0.4910889,0.05304335,0.07727177,0.23136587,-0.29235542,0.25232592,-0.18483528,-0.25936633,0.6682295,0.50744814,0.80336004,0.26943094,0.3967295,0.78404665,0.41095304,0.38907015,0.60339814,-0.23087737,0.07825246,-0.21816836,-0.08460412,0.26863897,-0.13734739,0.2889209,0.32545802,-0.39478257,0.041550506,0.46210167,-0.1895953,0.009223119,0.41309103,-0.11155021,0.029351668,-0.122365355,0.53423953,-0.28709427,0.10325753,0.22300752,0.07398796,0.6356158,0.4186723,-0.09550125,-0.4627653,0.23843054,-0.1474129,-0.090463005,0.35932237,0.5726941,0.13486376,-0.06639888,0.12968549,0.12241987,0.26800087,-0.027826367,0.23075017,-0.046752725,-0.08745336,-0.41765603,-0.41530675,0.3075378,-0.299435,-0.02432025,-0.43368164,-0.2825078,-0.20751137,0.6058893,0.23228213,-0.22126055,-0.31228,0.45431334,-0.038407534,-0.119487666,-0.109620035,0.12000667,0.15831125,-0.15146564,0.17485635,0.38601872,0.19160666,-0.061984092,0.16617082,0.17530245,0.1897059,0.46929452,0.15853097,0.31684837,-0.14226124,-0.4579862,-0.30546954,-0.2076876,0.39784926,0.04643462,0.14199181,0.4035828,-0.26934868,0.31901285,0.43981847,0.19317737,-0.319074,0.5203447,0.019600164,-0.4323716,0.1011591,0.5278008,-0.11140446,0.010039167,-0.17011994,0.11813318,0.27125818,-0.43654957,-0.34398976,-0.24548753,0.23423074,-0.091568,-0.44677714,0.29350993,-0.4283378,-0.49783817,-0.060409088,-0.31358677,-0.1911508,-0.21829152,-0.037076727,-0.08732047,0.4291616,0.28849578,-0.21363126,0.23221831,0.42496166,0.34071615,0.18240069,-0.17410888,-0.21946189,-0.42168742,0.13109106,-0.3992186,0.46660787,-0.024103174,-0.34047163,-0.13271295,0.20483886,0.46330377,-0.5017078,-0.4050351,-0.21081397,0.044588596,0.23546697,-0.5118212,0.038828846,0.21661276,-0.16094361,-0.34353566,-0.27415875,0.6040757,0.19499959,-0.22506021,0.43750802,0.2344434,0.13425818,-0.025972625,0.3292087,-0.4413232,-0.12413852,-0.39204252,-0.23319095,-0.122386,-0.4231264,0.2855275,0.14633296,0.16000675,0.43207678,0.11237497,-0.14633672,-0.5165437,0.25565568,-0.36196947,0.036455162,-0.15591618,0.37680155,0.32322267,0.11694839,-0.06484736,0.30616543,-0.47704872,-0.11859586,0.43662181,0.351484,-0.3574345,-0.12674516,-0.4402673,0.0487005,0.099468194,0.13860786,-0.3037942,0.4261233,-0.4521007,-0.19905962,0.27231786,0.07313665,0.11842746,-0.3302882,-0.36755866,-0.4217654,-0.32650697,0.13423498,0.17889103,0.37204215,-0.24377336,-0.15904349,0.11729926,-0.36719838,0.09656647,0.1167685,0.39202634,-0.28639174,-0.38157493,-0.38500747,0.3988965,-0.04913852,-0.017916447,-0.4371151,-0.4089575,-0.002353432,0.20357381,-0.41433325,-0.09607562,-0.054322116,-0.48411182,-0.19068624,-0.49997762,-0.3126774,-0.33343714,0.024554256,-0.25528485,0.11144526,0.43206915,-0.42203093,0.20464924,-0.5089651,-0.06932619,-0.26760334,-0.20246972,-0.013242875,0.2832207,0.0708184,0.08868361,0.0988963,-0.36300853,0.14102612,-0.34139958,-0.38275424,0.35047135,0.3642573],"bias":-2.091069},{"weights":[-0.06709061,-0.08367521,0.2599168,-0.4573224,0.061216615,-0.37826982,0.41904697,-0.46105996,0.22400944,-0.16880818,0.31482336,0.46363804,0.07430879,-0.45405608,0.012514951,0.102907576,0.33883473,0.034257337,0.2886605,0.44227275,0.16633944,-0.41506222,0.08002568,0.28752157,-0.23233895,-0.40987697,-0.067385904,-0.38427988,0.49712947,-0.3097662,-0.21281429,-0.2406104,0.36776778,0.4657138,-0.18938413,0.40975058,0.2516578,0.05740512,0.3552981,0.08287845,-0.14328519,-0.2668969,0.26028836,0.37690866,-0.32077032,-0.13855875,0.16932963,0.22595988,-0.326352,0.3058623,-0.11802279,-0.14301203,0.18769304,-0.22698636,-0.16449352,-0.18705435,0.11856323,0.48429152,-0.2650176,-0.078630544,0.28889441,-0.2842986,-0.47504994,-0.13813186,0.05639945,-0.11641065,-0.19729275,0.37518162,-0.4310002,0.2404252,-0.35873622,0.44789302,-0.08676859,0.3964876,-0.21702306,-0.44394594,-0.21448727,0.054712787,-0.07940473,0.19735935,0.2994187,0.43547398,-0.4712403,-0.45849815,0.11536925,-0.45844105,-0.36707297,0.3167375,0.44039232,-0.21036464,-0.31970152,0.08989369,-0.4808229,0.35613057,0.37529916,0.21811602,0.25095406,0.072591096,0.060429476,-0.5500016,-0.12934932,-0.15513803,0.344361,-0.4171783,-0.23647965,-0.25522125,-0.24131386,0.11525564,-0.23784111,-0.30636737,-0.25285992,-0.15328522,0.06354311,-0.3652893,-0.45038667,-0.2747482,-0.14265274,-0.2636516,-0.23927358,-0.23233642,0.006433331,0.35564086,-0.25923994,0.046325583,0.35108596,0.27816656,-0.3193736,0.29816774,-0.04571467,-0.49932066,-0.19900979,-0.15789741,0.16187245,0.01867624,-0.27698,0.3150415,0.11325084,-0.16978864,-0.2989936,0.16989784,0.1895297,0.29995605,0.3137773,0.4415661,0.43411267,-0.2324795,0.24147017,0.13546015,-0.4346245,0.25847223,-0.2339712,-0.10031973,-0.20998062,-0.287587,-0.38207403,-0.37406838,-0.039465502,-0.35596102,-0.30035526,-0.31122282,-0.36773345,-0.039617166,0.32682994,0.048851542,-0.19944848,0.054849807,-0.44981873,-0.40657148,-0.07439584,-0.29714826,-0.48090756,-0.3387904,0.1992624,-0.43293834,-0.2446281,0.18312028,-0.39422414,0.23234163,0.086861074,0.25802493,-0.11545438,-0.42065436,-0.31801978,-0.01903486,-0.64762586,0.24263196,-0.47086412,0.4563824,-0.33028218,-0.30253986,0.120241456,0.4851812,0.28175068,0.18485093,0.44416973,-0.053514354,-0.09737427,0.030531833,0.2504253,0.3939779,-0.054190814,-0.021606838,0.08004848,-0.37418142,0.33224827,0.05960954,0.04624032,-0.28124523,-0.3117039,-0.46900794,-0.47134483,-0.17355722,-0.2309495,-0.57276493,-0.06357332,0.42650387,0.42925996,0.52604795,-0.034986258,0.19554208,0.47837424,-0.23129006,0.44301108,-0.08564152,0.30208212,-0.1408926,0.17468749,0.29715845,-0.04562666,-0.020088311,-0.21763222,-0.1294389,0.004789265,0.5329528,0.05940145,0.0073299306,-0.48704317,0.36155123,-0.40414634,-0.41916156,-0.38532344,-0.11158577,0.5351937,-0.04121033,0.09860789,0.23515262,0.13799796,-0.20278901,0.4376802,0.43257105,-0.25275776,0.2563459,0.24960022,0.31543553,0.36427864,0.15316612,0.23258795,0.501339,-0.22166616,0.04811376,0.5064643,-0.28020343,-0.12437753,0.40581715,0.17925596,0.32770845,0.29641914,0.7696415,0.66056246,-0.13536847,0.29251155,-0.12521851,-0.2392762,0.2769869,-0.461622,-0.477906,0.4413808,0.040973015,-0.42718714,0.28438964,0.103584886,-0.29614297,-0.44291225,-0.3664887,0.33966237,-0.20688902,-0.11523953,0.24653468,-0.27304184,-0.17346485,-0.4833412,-0.25618157,-0.45675102,-0.31740722,0.06472924,0.23903172,-0.1488401,-0.06867901,-0.32622764,0.42380926,0.1892901,-0.5205958,0.2697647,0.34127685,-0.19932407,-0.4533464,0.22736958,0.46210402,0.20398395,-0.17601977,-0.15820295,0.013216098,0.51737916,0.3586177,0.06642573,0.50512695,0.33657122,-0.12796538,-0.0029475736,-0.48403794,0.16123876,0.308178,0.5894122,0.27538544,-0.0166828,0.15631987,-0.087912664,0.38408753,0.42757934,0.053589813,-0.23919679,-0.5665318,0.16120265,-0.15663789,-0.37485546,0.24323925,-0.3373079,0.23070033,0.11857232,-0.3697723,0.21804479,0.42484966,0.3645459,-0.3297462,-0.46674347,-0.24567902,-0.12142012,-0.6578429,0.12410569,-0.34426633,-0.1338737,0.0880246,0.44206214,-0.19454445,0.5261388,-0.029445251,-0.4889462,-0.38594463,0.1890414,-0.049818765,0.10670448,-0.13312624,0.50276464,0.083799176,-0.20514555,-0.02071592,0.46570173,0.40411296,-0.386491,0.102292866,0.09081532,-0.6403457,0.15576121,0.063698955,0.043884058,-0.34471324,-0.5021018,-0.40387338,-0.26725203,-0.21774408,0.35429874,-0.18918416,-0.24434587,-0.2471763,-0.1465961,0.22775197,-0.16907753,-0.25731948,0.16862305,0.085923925,0.08889053,-0.026703428,-0.33999208,-0.29280767,0.4410819,0.18473795,0.0776458,0.124378026,0.23822144,0.26168403,-0.38869205,-0.12037462,-0.4251062,-0.48819488,-0.70747703,-0.047414806,0.20629255,0.2971773,0.27807865,-0.26006147,-0.024944622,0.12714678,0.16835047,0.040937435,0.0926969,-0.45609516,0.24602018,0.49373043,0.37703392,0.057502173,-0.3760697,-0.44392326,0.42855307,-0.42973173,-0.050150737,0.17371118,-0.504677,-0.12953468,-0.7236767,-0.13532546,-0.7323777,-0.4711108,-0.10388926,-0.06876821,0.4291225,0.41218832,0.19809563,0.42497286,-0.2559563,-0.14858903,-0.0042362083,-0.21238197,-0.4035532,0.29768723,-0.069651395,0.23164073,0.37614304,-0.100995205,0.30449697,0.49347067,-0.10992124,-0.04182238,-0.040350597,-0.2519108,0.03460897,-0.23327215,-0.5516148,-0.79161364,-0.10807263,-0.39436725,0.3347931,-0.16229081,0.39835742,0.3022526,0.0249314,0.12365726,-0.12400578,-0.046424586,-0.40309948,-0.5711484,-0.4467926,0.33223912,0.32642752,0.41726837,-0.28917277,0.12293075,0.4027067,0.1556565,-0.48318347,0.25981534,-0.27576602,-0.487524,0.0951111,-0.098203704,-0.15058595,-0.14994487,-0.42437086,0.25817376,0.07573489,0.36094254,0.32605952,0.44027278,-0.026222335,-0.19174689,-0.4743909,0.4096191,-0.34933767,-0.017652884,0.0743355,-0.44367212,-0.11723199,0.38911846,0.23415919,0.089276046,-0.4324008,-0.424255,0.32212242,0.21943158,0.5000359,0.25528428,-0.080079235,-0.38823888,-0.270126,-0.701545,-0.26648968,-0.47516713,-0.07460551,0.628353,-0.032719154,-0.13901149,0.160209,-0.0136506725,-0.51765394,-0.60226256,0.3231941,-0.37636185,-0.30230072,0.36877048,-0.39599484,0.026226519,-0.37763244,-0.030887922,0.28833053,0.30155522,-0.014211589,0.10299058,0.3706471,-0.18653563,-0.058197036,-0.04724496,-0.43022493,0.08136412,-0.2916912,-0.011681748,-0.33936265,0.16873725,0.365895,0.058203723,-0.74251133,-0.5175984,0.16067238,-0.13699278,-0.30658078,0.33318624,0.43908358,0.090159155,-0.33172804,-0.43462053,-0.2160068,0.43401438,0.0708629,0.110674165,0.26537952,-0.26746172,-0.14659524,-0.4816557,-0.2790992,-0.057012625,0.27490753,0.048128843,-0.1654743,0.17624454,0.35649076,-0.18384117,0.06425493,0.1643466,0.16840327,0.027361425,-0.5501905,-0.3479481,-0.44832477,-0.029007409,0.09292891,-0.0018372341,0.32031703,-0.21249469,0.11815253,0.22883628,0.40843055,-0.12645862,-0.10573649,-0.39356673,0.48599288,-0.2619826,-0.35812542,0.27001822,-0.257429,-0.312434,-0.15730818,-0.5472559,0.14936242,-0.61438984,0.30455327,-0.4118558,-0.09881465,-0.35469392,0.42484146,-0.0449201,-0.47342223,0.06994888,-0.40865892,0.4208895,-0.32301357,-0.11077591,0.47340792,-0.14015265,-0.030406699,0.26541018,0.25762993,-0.35139692,0.117773294,-0.42015144,-0.015105831,-0.35161808,0.18783112,0.45771644,-0.15323906,0.5231863,0.22509049,0.31971997,-0.09671587,-0.06494206,-0.33635533,-0.32322046,0.39962327,-0.060084995,0.10968557,0.034021005,0.38667393,0.2170509,0.1385011,0.1354507,-0.37471613,0.31029978,0.06790217,-0.3944551,0.11983429,0.12638904,0.46718985,0.16653466,-0.07616921,0.46204388,0.024870487,0.28416917,-0.06536409,-0.02390218,-0.19309673,-0.2606347,-0.13895723,0.6077014,0.10701272,-0.31205523,0.18030861,0.18480657,-0.15908891,0.15961446,0.020779965,-0.047349002,-0.46249834,-0.33034337,-0.4064765,-0.38190022,-0.41011086,0.30360493,-0.33728743,-0.44767606,0.3848707,-0.04014418,0.16902559,0.3889532,0.4660633,-0.17221136,-0.14079976,-0.24078016,-0.16331337,0.5675608,-0.06747698,0.3988579,-0.20122589,0.1767849,0.12376169,0.24438365,0.14426813,0.45080274,0.06219167,0.4560677,-0.30809206,-0.2968937,0.07229576,-0.18242975,-0.15479727,0.3857145,-0.29842967,0.275257,-0.4424126,-0.23754588,-0.19835298,-0.23521985,-0.07330781,-0.36733815,0.5876928,0.379886,-0.21899682,0.09457865,-0.20300217,0.13304035,-0.0053187525,-0.02172687,0.042040776,0.39935285,-0.14965376,0.08431625,-0.31960264,-0.41881114,0.5057018,0.1979792,0.084826075,-0.40645447,-0.2919723,0.44689295,0.4585124,-0.40819302,-0.13355717,0.17728156,0.41411433,-0.1433781,-0.1836118,0.3319109,0.23065265,-0.25991654,-0.18045482,0.13774514,0.47063094,0.4836962,0.36288133,0.4253127,-0.1711066,-0.036956087,-0.16103293,-0.13622236,-0.10138737,0.17362678,0.30312324,0.24920984,0.23228602,-0.28386834,0.16153698,0.3673627,-0.36737242,0.41429862,-0.3718281,-0.21958564,0.24455245,-0.1528225,-0.17350467,0.05216259,-0.4621599,0.5176184,-0.032605864,-0.2818131,0.10992078,-0.09874252,0.47567287,0.16983666,0.3256526,0.03897468,0.35965323,-0.03410931,-0.34333178,0.2258075,-0.43422082,0.50341254,-0.045572706,0.038041934],"bias":-0.676848},{"weights":[0.49414286,-0.45809355,-0.25232187,0.13643406,0.1104623,-0.07956303,-0.4480044,-0.44531575,0.44187626,0.2735469,0.49109325,0.4493303,-0.11680073,0.17433032,-0.13977444,0.059664715,-0.006222493,0.0064841853,0.044072863,-0.27004912,-0.41845706,-0.087980755,-0.25752428,0.25160325,0.28983125,-0.02294235,0.29986295,-0.14025109,-0.057600405,0.47988018,0.03726029,0.4558328,0.43110532,-0.029508412,0.33056083,-0.015414023,0.14953502,-0.1896488,0.49031648,0.22620703,0.36424577,0.07279721,0.030740036,0.44270986,0.43458372,-0.22126807,-0.4839982,-0.034502268,0.021524016,-0.15954453,0.22421,-0.30580238,-0.14009671,0.10427534,0.45103547,0.15806313,-0.17291813,-0.418636,-0.12572168,0.2858371,-0.008135442,0.28513846,-0.21479093,-0.07451403,0.5116559,-0.13965213,0.3365865,0.4712135,0.4009189,-0.4601148,0.03250018,0.0769052,-0.2692447,0.2200726,-0.18289955,-0.1130908,-0.35946348,0.071279295,-0.27976847,-0.18313096,-0.3094224,-0.22126193,0.50369275,-0.33471063,0.2825589,0.31393036,0.04354095,0.29986727,0.20395657,-0.27264342,-0.21326423,-0.4151803,0.37509465,-0.16620947,0.29419032,-0.23894,0.04037671,-0.26383162,0.21959183,0.020845817,0.4324144,0.09558173,-0.10424677,0.013768577,0.4740694,0.41075242,-0.29690674,0.054616496,-0.3262103,0.07381712,0.37930468,0.38330862,0.19811077,-0.17433622,-0.004424165,-0.08673771,0.12553397,0.19537935,0.46505055,-0.021594318,0.34494635,-0.3840896,0.4470007,0.4829388,-0.3943177,-0.42926565,0.16860262,-0.09245331,-0.28115728,-0.15103632,-0.22599798,0.27888137,0.36707622,-0.19831662,0.27297643,0.49606568,-0.06400047,-0.20499998,0.17135292,0.32400057,0.14494188,-0.11265817,0.023011627,0.21910143,0.43186298,0.3724345,0.19718459,-0.4378345,0.29172462,0.24941568,-0.062278144,-0.021769214,0.24494648,-0.36411154,-0.06732853,-0.21607478,-0.20935614,-0.26895452,0.25159344,-0.29807505,0.3927294,0.016574847,0.21906585,-0.3650283,-0.2300792,0.19423752,0.13966058,-0.12305595,-0.39692953,-0.17061071,0.5052493,-0.39285824,0.11094014,-0.3603402,0.26859212,-0.22502598,-0.36703417,0.46165878,0.23357822,-0.34681502,0.37231952,-0.15952007,-0.40787187,0.36965075,-0.46740034,-0.38557568,-0.036822043,-0.4760711,-0.2143316,-0.12744574,-0.11318313,-0.22984338,0.20252895,-0.052714363,-0.38594455,-0.47999272,0.40050992,-0.025680246,0.238299,-0.46710274,0.043200586,0.36908624,-0.37494978,-0.4074194,0.48254463,-0.4622093,-0.23326124,0.36286333,-0.056785606,0.15727746,-0.08672378,0.34698182,-0.47942302,0.39069754,-0.35356098,-0.2788587,0.37252367,-0.4807266,0.44723776,0.29011652,0.4092605,0.0220965,-0.043785974,-0.21133727,0.48726124,0.38074747,-0.31322995,0.15654661,-0.21180259,0.38059086,0.32934576,-0.28773186,0.33971775,0.3582451,-0.36235127,0.23350157,0.40607142,0.46390414,0.30612817,-0.1583382,-0.029573187,0.40657532,0.37455618,0.46435392,-0.3040641,-0.28368732,0.453915,0.005556572,0.26260886,0.14936735,0.03423006,-0.22251266,-0.022971582,-0.43297672,-0.14879753,0.24417296,0.1028027,0.15572235,0.38617286,-0.09577139,0.3017175,-0.16120023,-0.21883692,0.144973,-0.43304285,0.39009994,0.3997902,0.09126785,-0.17203806,0.480813,0.2504688,-0.3886901,0.26358205,-0.035698656,0.087604105,-0.2274139,0.46233118,-0.39910185,-0.40056238,0.22707008,-0.33284596,-0.4054581,-0.020315336,-0.44259846,-0.45523235,-0.04062246,-0.023442201,-0.17869972,0.3722211,-0.21457967,-0.44854996,0.26407045,0.3231091,-0.1526546,-0.3740366,-0.31593868,-0.12093211,-0.10719471,-0.16235967,0.15607372,-0.28642273,0.24831569,-0.42226207,0.17276862,-0.3510928,0.4690655,0.30797753,0.2599798,0.2927046,-0.38369906,0.17625287,0.30990627,0.2868994,-0.012498995,0.001740146,0.32012033,-0.25874326,-0.4581192,0.49047616,0.18760958,0.32289264,-0.27129933,-0.3238129,0.47433382,0.121654615,0.012302956,0.25793344,0.026977794,-0.3595717,0.45735815,0.32716465,-0.018167177,0.4454241,-0.45029852,0.15477332,-0.22852679,0.25304237,0.4108017,-0.025091173,-0.3879445,-0.37892047,0.12762362,0.23199798,0.4202031,0.2709859,-0.060835123,-0.2819987,0.28101516,0.41530842,-0.47344062,0.18767272,0.28681397,0.19115107,-0.29417586,-0.07245842,-0.1815106,0.18140073,0.0787017,0.1467093,-0.39872324,-0.18628784,-0.14802009,0.47211897,0.12712204,0.3500844,0.23395483,0.399391,-0.019411847,-0.072935835,-0.15793,0.34136325,0.09235861,-0.17517847,0.35101503,0.45794845,0.12941311,-0.37916413,-0.028841378,0.22197483,0.37044904,-0.3345737,0.42843458,-0.33913723,-0.37753242,-0.41265514,0.35777864,0.4854841,0.391255,0.43593988,0.028287325,0.3142019,0.42293262,0.24260612,0.19299182,0.21421994,-0.32715535,0.35935807,-0.2203588,0.39316276,0.15387328,-0.06881971,-0.2511459,0.06750615,-0.43454936,-0.41206324,-0.14005956,0.33323804,0.45906895,0.27257866,0.4124587,0.34931028,0.37662545,0.2721981,-0.16811024,-0.3106684,-0.28738305,0.18827876,-0.05382756,-0.27988946,-0.19289698,-0.30886284,0.4024652,-0.031027742,-0.4794548,0.47973612,0.11805963,-0.30325815,-0.41872588,-0.2574557,0.3487803,0.43792862,0.31970993,0.007542014,-0.09268414,-0.47420397,0.38681108,0.41006935,-0.13042906,-0.07902481,0.15977195,-0.37768602,-0.3221916,-0.074199915,-0.12910861,0.02913397,-0.4285787,-0.12902898,0.4902701,-0.19086735,0.20429923,-0.26004466,-0.11504116,-0.16811572,0.3417474,0.2411423,0.2576328,0.09071985,-0.06872727,-0.3002103,-0.06508202,0.19671588,0.17171066,-0.08808983,0.028133094,-0.21680573,0.013425378,0.15757541,0.16247568,0.19565684,0.14351341,-0.10950494,0.1923978,0.17386371,-0.44937167,0.4424685,0.23056602,-0.13290088,0.23772849,0.016372638,-0.3098639,0.16933885,-0.31006166,-0.2162868,-0.102403685,-0.37523103,0.21659146,-0.18873268,-0.24950236,-0.26658154,-0.33518684,0.24217916,0.18991947,-0.022038214,-0.24112126,0.04997931,0.43334737,-0.3985661,-0.3080619,-0.41447088,-0.10008933,0.033860262,-0.46719098,-0.34314415,0.06824302,-0.4331041,-0.13431594,-0.4324141,0.0013923417,0.23126014,-0.30815718,0.26856428,0.43076813,-0.2292365,-0.40416217,-0.46444163,0.43290702,0.28465253,0.1644278,-0.2524598,0.049790245,0.42690274,0.101654224,-0.24681972,0.27178875,-0.29811373,-0.2723557,-0.37277275,0.026787605,0.30287054,-0.31026962,-0.13254908,-0.06958115,0.43210337,-0.039631333,0.4488375,-0.35304704,-0.22162493,-0.3357685,0.48756346,0.21857029,-0.32749215,0.3384991,0.27903873,0.05624869,0.29372445,0.3807268,0.098804235,0.3711388,-0.0432384,-0.27951217,-0.47112742,-0.21165639,-0.46697554,0.25089645,0.30195624,-0.07481726,-0.3615869,-0.10778933,-0.02259794,-0.41591775,0.021820024,0.1307375,0.093280844,-0.32266384,0.2763184,-0.32374138,0.105371594,-0.13119222,-0.21215552,-0.13202484,-0.2824,0.45237345,0.083151996,0.43178016,0.39726114,0.2963881,0.13778792,0.38217688,-0.19107245,0.2653419,0.31506172,-0.4147443,-0.05960084,-0.011603131,0.22165343,-0.07259361,0.19997731,0.2909965,0.24822955,-0.11891107,-0.003963413,0.3299867,-0.24613415,-0.2563326,-0.30374414,0.34614745,0.14942735,0.299569,-0.28926685,-0.43104383,0.4477033,-0.42643383,-0.22036381,0.080436006,-0.41927722,-0.3086541,0.39721408,-0.0016960214,-0.1550054,0.32626048,-0.20047514,-0.2786862,-0.13011713,-0.47412342,-0.2054054,-0.12635246,0.041976523,-0.45446607,-0.4704908,0.20881893,-0.4591593,-0.0023220803,0.26408195,0.4819303,-0.16985974,0.16985023,-0.41538763,0.35430935,0.29906777,0.11806979,-0.043946594,-0.4549476,0.3108376,-0.10120567,-0.4887377,-0.47304243,0.018950164,-0.21106735,-0.32733867,0.0044907434,-0.12363559,0.3652504,0.04135811,-0.08130709,-0.46203545,0.22367676,-0.032695018,0.049659647,-0.03853139,0.30546004,-0.21724787,0.32502234,-0.33787724,0.2608895,0.48626435,-0.17356089,0.32741022,0.08488671,-0.41500074,-0.0545584,-0.12015913,0.07276811,0.0199111,-0.12015416,0.12779574,-0.47871336,0.03869178,-0.21721292,0.29976344,0.37697604,-0.09315509,0.38801214,0.26246974,0.4517034,-0.31616992,-0.030072585,-0.43736807,-0.25362772,0.024518201,-0.19661891,0.01967169,-0.43349254,0.049015183,-0.13346277,0.34014323,-0.3715642,-0.1805228,0.34240484,0.0034502067,-0.38201892,-0.16615544,0.2647732,0.008427383,-0.45666847,0.41098022,-0.31088996,0.11822,0.10629117,-0.38114822,0.34402034,-0.33348826,0.08173024,0.5124843,0.2800359,-0.12228418,0.10968548,0.2303245,0.4126728,0.25950965,-0.019061062,0.09417022,-0.4329103,-0.17412843,0.2932541,0.13214326,0.12916239,0.24724069,0.02443974,0.39689404,0.48363942,-0.0036242171,0.025143202,-0.43631163,-0.033052158,0.28267387,-0.29570177,0.34201315,-0.40416518,0.28206536,-0.14231901,0.036071412,-0.33774772,0.42696574,0.06885706,0.20381224,0.17821266,-0.3759372,-0.4231994,0.17461583,0.30469316,-0.061063897,0.45824766,0.24198608,0.2444591,0.50729597,0.30676344,0.07102608,-0.40125126,0.39556894,0.23964785,0.43681005,0.14527103,-0.36646515,0.5131569,-0.45360115,-0.16326384,-0.26099196,-0.090382345,0.049644224,-0.0251389,-0.0060684485,0.36990106,0.25437695,0.13574052,0.17986894,-0.22775252,0.17971858,0.22445798,0.023715846,-0.34621993,-0.12305726,-0.45216522,0.40107268,-0.23396891,-0.1292656,-0.08470495,0.09111944,-0.1475243,0.123902135,0.46778306,0.37387678,0.44383094,0.0023415105,-0.38048115],"bias":0.0245932},{"weights":[-0.06364197,0.23322198,-0.27351767,0.084191225,-0.15947857,-0.3888685,0.33808047,-0.15201727,0.28173238,0.43830377,-0.3574695,0.37259,-0.24415857,-0.23010173,-0.13650069,0.25034574,-0.4101897,0.2681331,0.32622415,-0.40738243,0.3236925,0.14472029,-0.0007746855,0.14188454,-0.22681525,-0.349016,0.4419213,-0.3229689,-0.0702808,-0.16555598,0.15119717,0.35430008,0.22964486,-0.1714265,-0.24409711,-0.14267957,0.00010091513,0.25482687,0.25021812,0.13124551,-0.42805716,-0.026075028,-0.19097142,-0.07068488,-0.12818913,-0.0010895769,0.09515159,-0.48205718,0.21167469,0.0062670186,0.26673436,0.18040112,-0.04461391,0.069635294,0.2844538,-0.17739013,-0.023187602,0.169777,0.057294823,-0.24149281,0.16510135,0.24977802,-0.1862495,-0.40531465,-0.13712902,-0.28225324,-0.43216768,0.048614845,0.359777,-0.3553305,-0.43826935,0.4193161,0.46739084,0.058976,0.13824743,-0.28264964,0.3795409,0.18480338,0.42302856,0.46643674,-0.38664517,0.25209,-0.24988717,-0.3958332,-0.1800181,0.30188876,-0.34856683,-0.3701059,0.28596282,0.33947408,0.07424681,-0.31944966,0.22734547,-0.09248006,0.23088637,-0.17585751,0.059584282,0.36785623,-0.11031669,-0.2858607,0.5879754,0.24939345,-0.017201727,-0.056182627,-0.1921485,-0.20254901,-0.14277437,-0.41370222,0.4035474,-0.25075254,0.43310767,0.20617792,-0.47489506,0.2548734,-0.37729025,-0.1653494,-0.4802545,0.41243672,-0.12085388,-0.043845873,0.038908347,0.38179573,0.26483065,-0.16245054,0.07790906,0.08119674,0.06874706,0.39768213,0.4817392,0.3435948,0.33620337,0.23440059,-0.15386458,0.11136021,-0.45721838,-0.18684028,0.3739759,-0.22792763,-0.45334113,-0.11013911,0.2464403,-0.2994694,0.3244493,0.28233734,0.06818659,0.050695684,-0.4136321,0.12126956,-0.016803062,0.17970753,0.1558887,0.49739215,-0.013168099,0.7645652,0.1343449,0.76880056,-0.021576071,0.4647699,0.62210727,0.4623511,-0.43815005,0.036048077,0.38125014,-0.47758353,0.13430668,0.45357135,0.46297905,0.23674643,-0.25079754,-0.36505595,0.066297084,-0.025947401,0.2781315,-0.24274094,0.12203014,0.4208118,0.11757165,-0.2514251,-0.23835789,0.46221393,0.04922111,-0.30980334,-0.02280894,0.05283847,-0.1667139,-0.37998432,-0.2282559,0.07739095,-0.0346196,0.197631,0.07360435,0.27653524,-0.21074171,0.044134755,0.18768942,0.25629413,0.16590735,0.35871232,-0.16936761,-0.03926948,0.31746453,0.20904863,0.53578556,0.0018446669,-0.14536357,0.12364858,0.09493152,-0.23660141,-0.07012219,0.3359006,0.02349269,-0.53405637,0.22065786,-0.5341539,0.08196539,-0.48261768,-0.4468647,-0.50307006,-0.066787004,-0.00283074,-0.30101085,0.018811423,0.28298727,-0.35179025,0.09204064,0.27886483,0.2879003,0.10884899,0.22243924,0.39365524,-0.42009833,-0.095848225,0.25577027,-0.4544912,-0.074915096,-0.19635488,-0.16301113,0.18647596,0.33937913,0.396996,0.33655083,-0.56072164,0.32555518,-0.5570365,-0.13409787,-0.5581262,-0.22558276,0.14745681,0.02634762,0.009090515,0.37272453,-0.14830017,-0.12266087,0.45608166,0.43438366,-0.4606274,-0.43679434,-0.101700686,-0.17292082,0.28498057,0.039668832,-0.49117795,-0.16208102,-0.5380728,-0.5536873,0.052798677,0.47582495,-0.045194965,0.013927931,0.19797742,-0.46387357,0.05722972,0.14034103,-0.2725147,-0.20970802,0.19680913,-0.19335155,0.013822036,0.33513778,-0.24224637,-0.3291927,0.3875585,-0.044170983,-0.2136065,-0.10753524,0.42949393,0.32566282,-0.28759196,-0.3710551,-0.21383782,0.17231335,-0.38449207,-0.71413064,0.0006311664,-0.090964265,-0.0011398579,-0.20034263,-0.517964,-0.3183122,-0.09416993,-0.4601858,-0.27592653,-0.44666052,-0.39158744,0.36757654,0.44300875,0.3289946,0.092344,0.28421938,0.22196954,0.34085003,0.18433575,0.35816485,0.15716898,-0.37573174,-0.04631561,-0.16014399,0.055032488,-0.76379603,-0.6140151,0.039054662,-0.5475706,0.5990313,-0.01068399,-0.12659355,0.11921331,-0.20987682,-0.16214469,0.045687404,-0.36915225,0.12146276,-0.07928654,0.17398907,0.1643394,-0.15538341,0.45799357,-0.29733974,-0.20692891,-0.2049692,0.40033764,-0.18528284,0.0037504865,-0.043278955,-0.5413854,-0.34856692,-0.4518782,-0.41160432,-0.60512406,-0.038198642,0.025140483,0.044409264,0.33197373,-0.38665012,-0.11769899,0.12773488,-0.2862761,-0.063055284,0.21111235,-0.4659576,0.18098447,0.16685204,0.23219319,-0.08866394,0.1213057,-0.2564851,-0.1157402,-0.07859181,-0.2367494,-0.27770597,0.25818118,-0.061256103,0.083910726,-0.5686527,-0.37534955,-0.5700328,-0.6830526,-0.37022272,-0.28202432,0.07846217,0.28920507,-0.28674993,-0.034084268,-0.3573761,0.19841205,0.3393101,-0.08137443,0.27185676,0.028419606,-0.44110236,-0.30445367,-0.19210398,-0.22015102,0.4659,-0.16915128,-0.03306365,-0.45896876,-0.0597481,-0.027686326,-0.5462578,0.035643507,-0.17838655,-0.6833957,-0.11028504,-0.60476345,-0.27934703,-0.14197022,0.5749332,0.257992,-0.69251823,-0.01463761,0.13690434,0.06544784,-0.3874213,0.1373179,-0.40162608,-0.3834075,-0.13757549,0.21316706,0.35431734,0.0355301,0.27278358,-0.26737016,-0.012931019,-0.39742658,0.4331888,0.37058854,-0.35451898,-0.10593952,-0.38618624,0.2761164,-0.5668824,-0.07828715,0.45606434,-0.26076037,0.5151619,0.35709417,-0.008575703,-0.10223703,-0.5386775,-0.49430835,0.07418901,-0.10067937,0.32464018,0.13366887,0.48157537,-0.4414387,-0.4633695,0.16296959,-0.45339483,0.4706506,-0.20504484,0.36582777,0.29403168,-0.31545582,0.31057003,0.089587346,0.18665776,-0.31050304,0.2998039,0.16032082,0.27269483,0.52778244,-0.022160778,-0.066587456,-0.43763283,0.039445948,0.33492264,-0.42324138,-0.1410342,-0.09739057,0.41598287,0.31740615,0.23635192,-0.15918067,-0.2608164,-0.09030105,0.327923,0.122063525,0.4559395,0.025317155,-0.19274294,-0.2419526,-0.031607095,-0.14770667,0.11175968,0.515942,0.4546196,0.070235245,0.6140785,0.028760647,0.4814456,0.5318904,-0.309893,-0.4089711,-0.09007652,-0.060279008,-0.22119705,-0.24116158,-0.02000135,-0.09073667,0.5004343,0.22771291,-0.29310066,-0.24784118,0.10466708,0.36509347,-0.16751654,0.27841043,-0.026222572,-0.39783356,0.26794308,-0.37242603,-0.06581626,0.24471347,0.030715093,0.045609836,0.90321743,0.37810448,0.2974143,-0.16855876,0.13545333,0.070521586,-0.32815212,0.2187665,0.569805,-0.2693469,0.26398838,-0.32365587,0.2736132,-0.12842412,0.27782208,0.1676063,-0.39194828,-0.397633,0.37295428,-0.1991975,0.1305851,0.16469146,-0.32696888,0.13685761,0.037800334,0.33390453,0.7331812,0.9076114,-0.0005269086,0.35845995,0.3972045,0.22814158,-0.023659445,0.15525627,0.21910477,0.022883803,0.6238124,-0.095563285,0.27841213,0.023588214,0.28449583,-0.251735,-0.11035054,-0.43686458,-0.27979225,0.20551628,-0.34726545,-0.41243476,-0.1337902,-0.20670387,-0.23289187,0.54152673,-0.16315939,0.26511487,0.49259585,0.7367014,0.04764694,0.5808628,0.35813212,0.07794533,0.13803583,0.46958712,0.38981947,-0.24438117,0.37246168,0.0012509449,0.6306915,0.026880763,0.04552158,0.3154335,-0.04650704,0.485367,0.4154576,-0.025725106,0.14746563,0.11159444,0.46689165,0.48266208,0.007037559,0.6190313,0.19399428,0.071356505,0.4818738,0.28840593,-0.16729404,0.447689,0.5420004,-0.30571073,0.08137902,0.15254787,0.08058257,0.39512697,-0.26395562,0.45656964,-0.042959128,-0.23329075,0.5076008,-0.3406185,-0.016892524,-0.31575674,0.3655463,0.053715993,-0.4151444,-0.31372115,-0.053182688,0.18071075,-0.084488496,0.33235943,0.15147372,-0.030121032,-0.52041656,0.14170669,-0.09744773,-0.3317549,-0.2892622,-0.49104756,0.3645695,0.16705632,0.06222852,-0.06442386,-0.3997233,0.26223993,0.09592663,0.025313966,-0.39795327,-0.079049334,0.1554587,-0.26998657,0.5002194,-0.29305226,-0.13202642,-0.04500413,-0.4617247,0.4983917,-0.11550367,0.037299924,0.07204444,-0.22192813,-0.22056808,-0.11203929,0.06257452,-0.5182832,0.26144555,-0.3091534,-0.43670273,-0.6630062,0.15537168,-0.5055107,-0.474217,-0.13712013,0.0085748425,-0.39068112,0.17663112,-0.17575368,0.3562632,-0.35406893,0.026208298,-0.24180058,-0.39376023,-0.4321767,0.30676523,-0.03413435,0.008182093,-0.1304193,-0.29685348,0.33047146,-0.28393668,0.32816607,-0.5310494,-0.29385749,0.1762824,0.12318446,-0.015064237,-0.45218045,-0.12568519,0.35189858,-0.47282016,-0.44738242,0.21720535,-0.49474066,0.12242617,0.41590133,0.28994343,0.05930877,0.28603667,-0.3333276,-0.32792798,0.4103548,-0.24125785,-0.23968996,-0.40199906,-0.29954943,-0.41418293,-0.11840501,-0.3805977,0.3786606,0.28176326,-0.021940425,0.06747807,-0.3758051,0.2533077,-0.47343183,-0.014745724,0.07113067,-0.103300445,-0.47124022,-0.29005978,0.28925455,0.030129835,-0.21388921,0.34822878,-0.08082745,-0.0068652267,-0.40352243,-0.049740862,-0.45004743,0.1479866,-0.13257635,-0.041789953,-0.3227879,0.17913531,0.3797421,-0.33269465,-0.2404379,-0.28246707,0.30428824,0.30042383,-0.19120741,0.34506187,-0.37613967,-0.2994872,-0.037617203,0.20149852,-0.42564166,0.066859536,0.43116117,0.11729915,0.18533777,-0.12453321,0.12726426,0.06415103,0.11211147,-0.34299594,-0.31570083,0.17238578,-0.10419922,0.060063027,-0.41016316,-0.27531394,0.25623545,-0.26289585,0.49240512,0.39496037,0.2003999,0.014332268,-0.09800664,0.16798195,-0.084736355,-0.4829608,-0.39084938,-0.4718757,-0.24117622,-0.037241016,0.3417638,0.26813096,-0.29348463,0.4930879,0.39630288],"bias":-1.7538868},{"weights":[-0.39602363,-0.49339658,-0.2978021,0.2241173,0.2771783,0.37703466,0.299765,0.15557541,0.44239044,0.36931145,-0.47135794,-0.2865665,-0.2749005,-0.026648214,0.43927008,-0.39150262,-0.19952379,0.20818199,-0.49915558,0.3029933,0.31665695,-0.18769918,0.14726593,0.156734,-0.40858662,0.167102,-0.4599477,0.39626396,-0.4182471,-0.2188332,0.3951466,0.41188037,0.4432605,0.15856189,-0.084741905,0.04282667,0.033889953,0.35454828,0.081076995,-0.2432537,0.29613128,0.28169754,0.23218039,-0.03604124,-0.052791726,0.2772569,-0.36908957,0.054832008,0.49506664,-0.104387164,0.17449664,0.067037895,0.17169155,-0.080357134,-0.13414572,0.45235777,0.13985611,0.17319001,-0.20494483,0.060397636,-0.21243687,0.04404333,-0.0010689354,0.19926484,0.0079020355,0.11121865,-0.14091495,-0.2270932,0.37861496,-0.04892984,0.5374929,-0.26450244,-0.12746002,0.23692916,-0.17050949,0.047557406,-0.2278683,-0.03947527,0.33738804,-0.484926,0.22125237,0.07812092,-0.43111706,-0.30935597,0.3678645,0.27248788,0.14031573,-0.40189183,-0.16884111,0.296035,-0.12702127,0.29303923,0.13936655,-0.25327244,0.02041298,-0.35853985,0.252674,0.47301814,-0.26819736,-0.099387534,0.28599182,0.36333683,-0.16463017,0.00012604614,-0.3639854,0.51627433,0.432595,-0.15754206,-0.11600273,-0.3368192,0.24767943,0.048245255,-0.0152202565,0.11009508,-0.40040645,-0.16154459,-0.23754673,0.121675625,0.075238384,-0.32043597,-0.4948094,0.23989825,0.08295977,0.0670689,0.027654678,0.23112582,0.12481683,-0.3140726,-0.2089111,0.31225255,-0.09477164,-0.17082801,0.029336225,0.088402,-0.16728611,0.06791738,0.50140846,-0.12755604,0.33439177,-0.19916163,0.088294804,0.15507545,-0.1191019,-0.08175747,0.31262368,0.14811878,-0.0167125,-0.34229907,-0.51580644,0.31367424,-0.633791,-0.28957093,0.2089118,-0.36861408,-0.50942546,0.32545277,0.24969725,-0.15261738,-0.14150313,0.49286878,-0.22127153,0.4308785,-0.010701456,-0.20518291,-0.42322922,0.24746925,-0.029216921,0.1935196,-0.43130577,0.064230606,0.35696074,-0.024661541,-0.43653968,-0.20049798,0.3931025,-0.58774245,0.20033558,0.274006,-0.08670616,0.007736971,0.15774782,-0.3116924,-0.31578836,-0.6063548,-0.27050424,-0.19411458,0.19980717,-0.22748634,-0.16461876,0.1057004,0.5642877,0.33817595,-0.17770083,0.11972894,-0.46896708,-0.31879747,-0.23953329,-0.030200148,-0.108187675,-0.15341014,-0.17319249,0.27137026,-0.34574583,-0.45439813,-0.33314767,-0.45782965,-0.30209464,-0.013008936,-0.18830271,-0.11997427,-0.43786645,-0.56305796,-0.06079072,-0.3433502,0.010296864,-0.37728956,0.2939249,0.36015782,0.29488492,-0.10077013,0.020399312,0.13291806,-0.4326676,0.4485102,-0.46951336,0.17478484,0.003991538,0.36557776,-0.07449276,-0.12252682,-0.44211006,0.35135764,-0.46075016,-0.11614954,-0.5422902,-0.08121374,-0.12902912,-0.08748909,-0.016577184,-0.5116946,-0.49712253,0.26549715,-0.3560021,0.32919586,-0.42558518,-0.43026718,0.3352892,0.43007,0.38654086,-0.24387506,-0.31304988,0.40760094,-0.10507256,0.32093212,-0.50103724,0.33171877,0.13407779,-0.23808669,-0.28174913,0.3086152,0.25335345,-0.50486684,0.32835233,-0.22496752,-0.12531742,-0.36489886,0.043558076,-0.49316332,-0.14030068,-0.4944228,-0.6733945,0.014706941,-0.501985,-0.17207235,-0.2920004,-0.45270503,-0.06780147,-0.29162753,-0.1707513,-0.251362,-0.052489948,0.036981206,-0.10305351,0.3974764,-0.13374783,-0.15875356,-0.34636357,-0.118391134,0.2747643,0.472826,-0.07897819,0.2703017,-0.35297993,0.19507666,-0.11698423,-0.56550163,-0.37875858,-0.65580344,-0.13252458,-0.58628184,0.160079,-0.37835267,-0.3612711,0.11985566,-0.22905983,0.37122023,-0.24362804,-0.11942533,0.40456635,-0.007335616,0.25889698,-0.46766812,0.22656591,-0.10745517,0.41701442,0.28349546,0.44237548,-0.23890883,0.43549052,0.6128037,0.07742063,-0.083986886,0.094882496,-0.4566837,-0.6288489,-0.57493234,-0.77692586,0.02326952,-0.08469774,-0.39384788,0.3852648,-0.40237707,-0.34635758,0.46179548,0.49118003,-0.22585355,0.47084373,0.24383037,-0.28314683,0.20547563,0.270007,-0.090871975,0.17358124,-0.33914343,0.4623485,0.071349226,0.6089198,0.6652969,0.038983572,-0.5484636,-0.12741618,-0.6398392,-0.59020275,-0.2381121,-0.51922333,-0.56421745,0.04872055,-0.03170101,0.39432657,-0.35111985,0.5376263,-0.100231245,-0.17472099,0.22507559,-0.05588976,0.4035191,-0.2634356,0.085117616,0.032637864,0.33185932,0.15652499,0.41431275,0.35005873,0.23187374,0.69525844,-0.06738794,0.042738643,-0.23016576,0.23701826,-0.6350077,-0.24888715,-0.2616446,-0.80851203,-0.010768155,0.22868516,-0.20688562,0.524999,0.61229163,-0.0193197,-0.0277305,0.43532127,-0.31538737,-0.46142364,-0.22232781,0.14611909,0.2976965,-0.028748538,0.10658212,0.16298355,-0.060939264,0.6726235,0.69310254,0.18152153,0.31115332,-0.17261624,-0.178577,0.2203245,-0.1750852,-0.08107076,-0.4817302,0.11496166,0.030173602,-0.18581869,-0.24612197,0.5645383,0.35075992,0.49632284,-0.09215012,-0.16426583,0.32682073,0.2837652,0.4417162,-0.086938605,0.040128607,-0.4326513,-0.3663076,0.21607387,0.07949028,0.0336568,0.853676,0.5516139,0.33466056,-0.3814394,-0.36850572,0.011716327,-0.08835041,-0.36132818,-0.06440293,-0.46043137,-0.31252915,0.107724905,0.07208117,0.3946214,0.44691047,0.25350648,-0.2468839,0.2151957,0.0015118016,0.069051445,0.34996063,-0.3251065,-0.18360057,-0.47535276,0.3365193,0.45541224,0.37286043,0.51397336,0.53876823,-0.09862204,0.41423985,0.23366328,-0.31185156,-0.33539644,0.17734246,0.04901157,-0.013835266,-0.4543918,-0.23770638,0.4449785,0.64714426,0.21584511,0.14095093,-0.17124109,0.18497178,-0.46000496,-0.29457465,-0.4806795,-0.08838433,-0.15726663,0.08757165,0.29943618,-0.13848177,0.5605525,0.6312543,-0.23239864,-0.16923712,0.45224693,0.16975756,-0.20018189,0.22789907,0.023495443,-0.44244954,-0.11450503,0.2078545,0.0012161006,0.3800067,-0.10354844,0.04350305,0.1291984,0.50019,0.0019133247,0.37661552,0.32645595,-0.11128357,-0.460922,0.36404663,-0.4956744,-0.36494264,0.23786494,-0.039662983,-0.3397166,0.16613045,-0.1839734,0.22927901,-0.061206225,-0.025823355,0.24282293,0.37468588,-0.052515503,-0.4051563,-0.4914299,0.29558563,0.46388233,0.25029328,-0.2879767,0.41515705,-0.02769004,-0.26716104,0.3612945,-0.49199235,-0.41180307,-0.1411678,-0.35811484,0.45484835,-0.17909107,-0.4680949,0.20322242,0.18565688,0.28342983,0.043044202,0.24111499,0.15943,0.14782095,-0.14283803,-0.14901619,0.65075344,0.11355305,-0.22678356,0.37790006,-0.39158309,-0.36713228,-0.0061082817,-0.044921607,-0.26990494,0.08147854,0.21443617,0.44560403,-0.037291646,0.26975057,-0.063424945,-0.0026479415,-0.20846115,-0.09274842,0.30695656,0.008178833,0.08556283,-0.21078263,0.20909354,-0.024390653,0.36120173,-0.09735634,0.363325,0.47410375,0.14320798,0.031689573,0.2699928,0.43158904,0.44504833,0.46696776,0.17811126,-0.41266608,0.115153246,-0.43189913,0.4077869,-0.33847347,0.3443471,0.4862699,-0.07981773,0.17296292,0.06848186,-0.33682197,0.11697506,0.06880962,0.32703856,-0.6039777,-0.27780914,-0.07167517,0.11890843,0.20683813,0.050704155,0.48817992,-0.036855545,0.40069255,0.5225408,0.059583854,0.26622474,0.19231749,-0.2372335,-0.38141486,0.21190847,0.36085773,-0.38251716,-0.4427429,-0.1979396,-0.45072138,-0.38027018,-0.24436839,0.13729107,0.4566956,-0.02711387,0.09950558,0.019451017,0.21335635,-0.09041287,-0.3813939,0.022458838,0.20007105,-0.09356281,0.054897346,0.28357702,0.2357248,-0.015028385,-0.371128,-0.2859472,0.002571892,0.2060639,-0.14575922,0.31954458,0.23031247,-0.035495378,0.40147159,0.4052259,0.1667401,0.26429486,-0.348117,-0.30450153,0.267482,0.100522004,-0.061512746,0.013346565,-0.5659953,-0.46988574,0.096216224,0.08604691,-0.374713,-0.066961125,0.14206934,-0.584632,-0.3839823,-0.18577735,0.072610475,-0.3660388,0.21547464,0.22137631,0.02640023,-0.117534235,-0.3251339,0.28295222,-0.26400366,-0.06547423,-0.36899164,-0.39039242,-0.23464404,-0.32549524,0.07547786,-0.17701255,-0.3624253,-0.24691382,-0.39791733,-0.41610393,0.007303299,-0.011384171,-0.29870602,-0.49539542,-0.12885962,0.013988591,0.06518166,-0.022424104,0.3038095,-0.2539071,-0.3275834,0.083706096,0.27360392,-0.39162165,-0.29269442,-0.28285974,-0.06565951,0.44018242,0.18181263,-0.07808906,0.19773616,-0.23265778,-0.285631,0.43436104,-0.013365411,-0.12423647,0.3530144,0.067438915,0.15575399,0.25945798,0.058670636,0.08585776,-0.41028193,-0.55038035,-0.21642682,-0.34608617,-0.32302117,-0.319551,-0.18429339,0.21051383,-0.40230638,0.27566954,0.013808318,0.11937152,-0.019289413,0.14202784,-0.414338,-0.19017623,-0.17254327,0.077598155,-0.08528477,-0.4724779,-0.067469165,-0.05492998,0.17453861,0.3017465,-0.34592497,-0.29564983,-0.49872717,-0.49049664,-0.22843511,0.39513594,0.2533128,0.31183144,0.05737057,-0.15368536,-0.32507858,-0.3996092,-0.5006593,0.37531045,-0.21345773,0.38368613,0.4219473,0.03756531,-0.45536208,0.48831034,-0.13231228,-0.22770618,-0.41014743,-0.06370595,0.4057256,-0.4915378,0.13767466,-0.19229434,0.38112944,0.32519364,0.035511814,-0.056318995,-0.48560616,0.42875794,0.45181137,-0.23411295,0.12164458,-0.36140415,-0.026138026,-0.24911425,0.34895343,0.23101239,-0.28710702,0.31645113,-0.0065722917,-0.35904837,-0.10003668,0.35004652],"bias":-2.460154},{"weights":[0.18283696,-0.32581237,-0.05103872,-0.30078498,-0.450707,-0.14038043,-0.364221,-0.4250584,0.17033274,-0.06824462,0.1132849,0.17484768,-0.4906356,-0.16727667,0.14703785,-0.039388046,0.35118613,-0.2498012,0.43281123,-0.20889609,-0.4365448,0.16694815,0.12775747,-0.3307915,-0.32890263,0.20863421,-0.24655493,0.3595334,-0.4651735,-0.14304774,0.005566367,0.16199274,0.4754509,0.14635839,-0.035985798,0.118773565,-0.3911131,0.2615072,-0.15138093,-0.25509995,0.24348988,0.43026364,0.44078505,0.017525347,0.23234265,-0.21258283,0.20046864,-0.15652643,0.3142689,-0.18835907,-0.13801797,0.08856307,0.14300318,-0.3593103,0.0961649,0.38154837,0.45834228,-0.24308233,0.11566585,0.2354563,0.07503283,0.47010884,-0.2060655,0.22327201,0.078401916,0.4134323,0.37544194,-0.43308902,-0.2123238,-0.19499512,0.08133117,-0.3773,-0.3037598,0.21222167,0.045534678,0.23266459,-0.48806015,-0.032196704,0.32879862,-0.012168848,-0.3513275,0.19421361,0.15277238,0.21057041,-0.36601105,0.48279795,-0.37829956,0.20204853,0.057014503,0.36735317,0.4847148,0.07915245,-0.12223809,-0.027025275,-0.51972795,-0.25524133,-0.32233402,0.20578472,-0.18780662,-0.21068133,-0.25190684,0.32677668,0.039280366,0.07125973,-0.19340633,0.3140991,0.20975766,0.2789145,0.21026546,0.17528935,0.3383977,-0.07707028,0.17909487,-0.0008670184,-0.118541226,0.30924138,0.007348006,-0.28335896,-0.16546969,-0.4849791,-0.056448396,0.3960723,-0.4804889,0.35377198,-0.20389952,0.056982726,-0.51791114,-0.13320462,-0.49533567,-0.029854745,0.21815321,0.37646088,-0.5123859,0.03757036,0.17145316,0.30605042,0.41006336,-0.118285105,-0.18766016,-0.2295826,-0.316878,-0.32283834,-0.17862351,-0.22628833,0.022600813,0.058936913,0.099088535,-0.053044375,-0.10440629,-0.57517344,-0.41539773,-0.51669014,-0.5478149,-0.50535375,0.38519275,-0.52855164,-0.49039745,0.06305209,-0.050649483,-0.44668692,0.19975239,0.4259367,0.24674436,-0.12699325,-0.33767322,-0.0064313496,0.2539309,-0.4502453,-0.11241189,-0.377179,0.060972784,-0.22244036,-0.016919991,0.19546476,-0.40277138,0.3456008,-0.4386899,0.16240776,-0.25990888,-0.23959291,-0.05675868,0.3743044,0.17071757,-0.2088509,-0.2869415,0.11097389,0.3464434,-0.28284353,0.5263004,0.45891103,0.40059662,0.35935742,0.21666576,0.16794816,0.4076612,0.36260307,0.018588604,0.29938987,-0.4468659,0.05841559,-0.08765574,-0.12732954,0.020783179,-0.35880044,-0.26782677,-0.090139344,-0.5013544,-0.23117204,0.14175357,0.23754802,-0.09254058,-0.07985415,0.1455803,0.44271398,0.29508036,-0.34131762,0.20278962,0.40367037,-0.2699766,-0.29128897,-0.20655099,0.20390171,-0.47820446,-0.21789928,-0.30273455,0.4994952,0.1381789,-0.47064835,-0.29940662,0.12049387,-0.5471742,-0.390858,0.10573036,0.2223545,-0.050885525,-0.4939574,0.2726985,-0.08754832,0.2891041,-0.12476638,0.16517287,-0.13014507,0.15225476,-0.38452625,0.030601887,-0.020707184,-0.131328,0.35120142,-0.178226,-0.03848484,-0.28187412,0.45335975,0.25406677,-0.033328876,0.453539,-0.055317476,0.14910299,0.34206522,0.22164665,-0.17915568,-0.018240958,-0.16672106,0.27894494,-0.04028911,0.20794788,-0.12785988,-0.24008095,0.193353,-0.28651622,-0.39675403,-0.26278746,-0.38650578,-0.007830683,0.04642791,-0.035567682,0.20159152,0.017388612,-0.007088398,-0.004878193,0.310473,0.4206961,-0.4868342,0.19897567,0.4461815,-0.3450022,0.30851606,-0.2073125,0.2570168,-0.3883546,-0.2355517,0.44969994,0.26194912,-0.043616977,-0.105202004,-0.0764196,0.35614762,-0.2913562,-0.063881956,-0.32099432,0.34329677,-0.20246597,0.07229606,0.02797925,-0.45692238,-0.12827924,-0.35339957,-0.36310384,0.2437152,0.4152408,0.17668451,-0.4141362,-0.4642079,0.20417441,-0.4724455,-0.12521653,0.11752307,0.40522873,0.055837795,0.33590674,0.0070414846,0.35112327,0.4092635,-0.04926578,0.3271464,0.38842928,-0.1489077,-0.32967937,-0.08475551,-0.20642173,-0.5007166,0.28816432,0.22706193,-0.07667516,-0.39565,0.35750914,0.19921009,0.062281057,-0.26320454,0.076463714,-0.08334759,0.23694374,0.35240173,0.31969133,-0.15714753,0.73679805,0.46700215,-0.016418552,0.1499775,0.43333474,0.7778047,0.23612662,0.6674079,0.4724305,-0.27695385,0.54623467,0.27538094,-0.10636025,-0.23981257,-0.56875414,-0.093368,-0.15863669,-0.0011732,0.11425698,0.14160919,0.13820179,0.17434877,-0.28795797,-0.43052244,0.48157293,0.35418686,-0.31101087,0.24405275,0.19484535,-0.06943871,0.41580278,-0.33532625,0.080806404,0.91290647,0.6653876,0.4215425,0.38415205,0.15697162,0.2672344,0.40822837,-0.39287165,-0.39665422,-0.32107005,-0.23404811,-0.5336858,-0.29182,-0.43870455,0.23176655,-0.12444408,-0.465988,-0.33356884,-0.4177035,0.3941606,-0.28894195,0.06906943,0.09933614,-0.32053882,0.016849384,0.5327687,0.2194108,-0.22378756,0.9143017,0.90899426,0.5260632,0.32247144,0.36344886,0.34942284,-0.16902201,-0.400876,0.2974999,-0.08675183,-0.57597816,-0.2650789,0.28302374,0.11357437,0.32693115,-0.42919555,-0.1794707,0.44824928,0.49758607,-0.18360996,-0.44391248,0.3547612,0.31166336,0.09369582,0.13668016,-0.28162286,0.029961852,0.55992687,0.00019308866,0.35067463,-0.3064889,0.45551282,0.07897091,-0.15030608,-0.3108839,-0.3913356,-0.06834058,0.21042593,-0.18750025,-0.3344286,-0.24974503,-0.28117073,-0.018648228,-0.13974576,0.26421547,-0.36560443,0.3922379,-0.0806553,-0.23362327,0.26474622,-0.36319092,0.26369196,0.23404092,-0.30474216,0.029634062,0.5556656,0.50301373,0.551086,0.18904349,-0.04919507,0.049308397,-0.28584197,0.18726186,0.13840967,-0.4412951,-0.08877611,-0.22678447,-0.16236351,0.27773836,-0.19703154,-0.15117978,0.27418265,0.34042838,0.42705828,-0.014765805,-0.042702276,-0.43719777,0.091663085,-0.2223412,-0.20654242,-0.5461268,0.17976375,-0.45710102,0.06626397,0.43677604,-0.15866463,0.3199095,0.12762333,0.33578146,-0.52963006,-0.21897438,-0.3347619,-0.037480947,0.3022541,0.07364097,0.15148246,-0.30298683,-0.05198737,-0.011255338,-0.33138764,0.15729012,0.4075138,0.081667945,-0.004856304,0.016564123,-0.2874611,-0.24938248,-0.3524113,0.22205417,-0.7506853,0.14238985,-0.44503817,-0.018712426,0.33950743,-0.26879966,-0.03481864,0.082044885,-0.08933165,-0.48147565,0.30015993,-0.11443254,0.19104059,-0.23135428,-0.42482558,0.2138093,-0.15981711,-0.09624168,0.2721605,-0.35495195,0.26571524,0.36259124,-0.37157318,-0.35287404,-0.24150646,-0.21401793,-0.38312057,-0.35077775,-0.28126633,-0.25350317,-0.59397435,-0.24027015,-0.4100381,-0.009846906,-0.373787,-0.12972407,-0.3820991,-0.35076174,-0.39262024,0.11574925,-0.40190026,-0.4793602,0.23252775,0.11488239,0.35333592,-0.047441997,0.21525927,0.10114029,0.3599393,0.29683992,-0.31282082,0.3341656,0.34990028,-0.15157558,-0.53385776,0.27880162,-0.02179836,-0.67780066,-0.56854445,-0.42823663,-0.7152196,0.18100706,-0.080507986,0.07927493,0.21584459,0.32401252,0.019705666,-0.086334296,-0.17446089,-0.506877,-0.41735053,0.020698968,-0.4322385,0.36569753,-0.15557353,-0.007758971,0.2865558,0.0041872254,0.18155421,0.16714312,-0.16585779,0.13072845,-0.40397134,-0.43121076,-0.0319698,-0.25644,-0.45121607,-0.06364277,-0.30372652,-0.1969573,-0.57480663,0.025446137,0.056389533,0.40593636,-0.25995713,0.32188994,0.40115944,0.44789836,-0.26052132,0.24134666,0.26320747,-0.39214066,0.40173623,-0.44141984,-0.14613287,-0.03131037,-0.40499508,-0.4120969,-0.47386783,0.32414627,-0.4308375,-0.031163359,0.43111494,0.024405155,0.3198177,-0.062214665,0.34145278,-0.03401673,0.45147258,-0.06436611,-0.027877524,0.042407047,0.036559917,-0.2620967,-0.047743253,-0.13883342,0.23658313,0.39026612,0.21942344,0.42312816,-0.2633579,0.3130475,-0.38012552,0.10975435,-0.2208612,0.0034097284,0.070323706,-0.15796174,-0.07540456,0.23321237,-0.092935875,-0.17887405,0.3293116,0.34189537,0.19252643,0.38650262,0.33028555,-0.16218357,-0.085854754,0.0051073777,0.070713915,0.21251789,0.02392539,0.17569333,0.17882755,-0.40657702,0.36002085,0.00050713366,0.3006253,-0.2594159,0.43446457,-0.05325012,0.32735267,-0.39468947,0.12022703,0.28593388,0.17815614,0.33012518,-0.11499553,0.12832884,0.112888604,-0.43725407,0.34539357,-0.24237949,0.2765743,0.26844487,0.4134803,-0.08004872,0.51501167,0.42683724,0.32935685,0.44437942,-0.023322733,0.18387647,0.38768417,-0.24195729,0.04310906,-0.4442368,0.50069916,0.4361646,0.046918936,0.054852948,0.18374722,0.07521949,-0.101859964,-0.297941,0.016178917,-0.12743148,-0.37058502,-0.11457428,0.10977869,0.17137028,0.17317562,-0.21667719,0.470712,0.5378473,-0.17420773,0.0054425434,-0.016291691,-0.37418664,0.3704525,0.010469765,0.14241679,0.14792235,-0.2644358,0.054584958,0.4145758,-0.31366816,0.26442003,-0.1467714,0.17505807,-0.39504746,0.064637266,0.431632,0.22401063,0.3059604,-0.023510473,-0.14140691,0.30308324,0.3703079,-0.36350226,0.19133505,-0.20048268,0.42013767,0.34102237,-0.38005143,0.43415886,0.26281723,0.21529447,0.040334363,-0.3384556,0.46470842,-0.4399543,0.17379077,0.32243475,-0.18595116,-0.44253352,-0.37103006,-0.27408105,0.04792851,-0.35656065,-0.11081292,-0.15736277,0.46197444,-0.11009003,-0.16133766,0.3430936,0.27020136,0.18696865,-0.014365604,-0.25873396,0.34715575,-0.018010039,-0.40050787,0.22689457,0.1608171,0.047471978,-0.3731549,0.3655872,0.10482402],"bias":-1.2257106},{"weights":[0.35309285,0.06930755,0.28438336,-0.26196736,-0.16951679,-0.08750488,-0.016392495,0.44906873,-0.21714328,0.27910095,-0.040525597,0.43551463,0.27140862,0.24802509,0.014896902,-0.4087178,0.4832508,0.19380201,-0.0715974,0.086516246,-0.19313143,-0.0025407325,-0.22283898,0.3958276,-0.2494018,0.19859959,0.14819969,-0.4012912,-0.46524686,0.4421478,-0.11122216,-0.35643774,0.20661242,0.34263885,-0.4606547,-0.33357626,-0.20514888,-0.38949233,-0.009388799,0.053495295,0.0788367,-0.0927807,-0.11485556,-0.016612865,-0.26242992,0.46092618,-0.31591338,0.38432845,-0.3000352,0.0963101,0.2081224,-0.32111603,-0.42988962,-0.10094716,0.34905332,-0.28087348,0.2963373,-0.44718295,0.057592068,0.11618473,-0.29935327,0.20736085,-0.4111178,0.39078072,-0.22810848,0.26458213,-0.49927756,-0.30663973,-0.20426215,-0.28847793,-0.30388278,-0.4657572,0.10383579,0.10885071,0.003514823,0.37851226,-0.14637445,-0.020273171,0.468403,-0.1133502,0.011124418,-0.112285376,0.035857018,-0.21830927,-0.016046513,-0.07502128,0.37599415,-0.24522619,0.22911362,-0.40922204,0.05411574,0.027525712,0.29785463,-0.26540005,-0.35638943,0.18769398,0.092906535,-0.32101995,0.3563404,-0.015069702,-0.45077282,-0.41859677,-0.537158,-0.44985804,0.1568369,0.24042654,-0.2504126,0.31620649,0.35855323,0.25813258,0.15397386,0.33049947,-0.25248742,0.45885998,-0.07054622,-0.16767818,-0.004616355,0.2916882,0.2052613,0.36262095,0.23983572,-0.22032906,-0.17249802,0.20936547,0.3519545,-0.550249,-0.14383778,0.15793912,-0.28084943,-0.30352983,-0.2891591,-0.22220372,-0.40050426,-0.18357883,0.23621161,0.09380724,-0.19764541,0.45026475,0.101943806,-0.119180694,0.08399294,0.22061385,-0.23645785,0.29733196,-0.07430486,0.1198917,0.36438003,-0.23863445,-0.057313774,0.16391817,0.41801903,-0.43228865,0.4211504,-0.24549642,0.32801622,-0.112396486,-0.016967451,0.28961092,0.24585658,0.42310533,0.059841506,-0.30728644,0.53939134,-0.011425175,0.45793286,-0.02889644,-0.09410366,0.1022784,-0.29870898,0.31919342,-0.117942534,-0.1804105,0.12054608,-0.1335943,0.13354991,-0.32443947,-0.073538326,0.07739475,-0.508956,-0.46623653,-0.0777652,-0.3251052,0.20823364,0.11205057,-0.061486404,-0.20635791,0.39072904,0.09252326,0.17236252,0.10257999,0.49244907,0.47990656,0.42777032,0.4325699,-0.15974966,-0.0818729,-0.123774186,0.3276382,-0.086194016,0.091499805,0.16000982,0.467425,0.33864138,0.4111097,0.23080981,0.06075757,0.22698203,0.26205254,0.12358511,-0.44847885,0.36457172,0.32301348,-0.4298363,0.30114627,0.3365731,0.43865636,0.3939261,0.4074189,0.3024319,0.3328769,0.44163924,-0.16391082,-0.25917444,0.20307007,-0.2414789,-0.34150904,0.28053883,0.100142576,-0.3552409,-0.47688568,0.3557283,0.1321943,-0.005751946,0.08273961,0.30133134,0.015094485,0.22533716,0.34576803,-0.04761996,-0.29353878,-0.08966558,0.40542755,0.22381026,0.1580615,-0.061036367,0.38366696,-0.22893746,-0.29467142,-0.2723938,0.027752716,-0.38085067,-0.42156312,-0.42228132,0.28822774,0.4694737,-0.29476732,0.2185868,-0.43560696,-0.44546348,0.047890034,-0.12160741,0.44050583,-0.40281162,0.14709544,0.08274463,0.27108514,0.11236592,0.4596978,0.25367782,0.44147706,-0.16054617,-0.32013267,0.4136969,0.417149,0.09507816,0.5102679,-0.33635056,0.47112623,-0.27630928,0.37201434,-0.3281021,-0.0075643,0.13328871,0.42277592,0.09572469,0.052825414,-0.22411159,0.23502524,0.4482253,-0.30230433,-0.30349743,0.039884295,0.02518417,0.21202846,0.12203576,0.5123978,-0.20694187,0.0037818076,-0.4860545,0.30797347,-0.07841942,0.14236253,0.36681148,0.4490909,0.32481077,-0.31751865,-0.28967324,-0.11397503,0.07645933,0.23473151,-0.42447916,0.21048194,-0.41555598,-0.43060434,0.2316569,-0.40571463,0.12559411,0.011413907,-0.16326082,0.1234005,0.36253166,-0.3279648,0.03776874,-0.2511556,-0.4402893,0.21984671,-0.567187,-0.25876835,-0.10367655,-0.04179309,-0.1310109,0.5445118,-0.26196864,-0.33540934,-0.48181283,-0.13949785,-0.26704824,0.42048195,-0.03594941,0.42662507,0.25117713,0.45427603,-0.37981835,0.43372703,-0.14506386,0.3821508,0.3400542,0.1663717,-0.31761524,0.0729039,-0.40996963,0.12855789,-0.28270823,-0.13065949,-0.829354,0.20170407,-0.43851212,0.29438567,-0.15989734,0.21307641,-0.26820478,0.028747007,-0.20096631,0.12949914,-0.12947099,0.247835,0.27064767,0.47139525,-0.0979947,-0.3415279,0.28070349,-0.2851386,0.12661478,-0.3542873,-0.06478684,0.30528632,0.24458995,-0.09385892,0.10033437,-0.46184134,-0.26245224,-0.13647291,-0.15506096,-0.26714492,-0.59521574,0.3975989,0.028163198,0.28486553,-0.2850327,0.15488876,-0.1961452,0.051764626,0.31464142,-0.43409896,0.47095606,0.24441546,0.14227234,0.28545812,-0.14101462,-0.16011648,0.20507038,0.35230774,-0.0074689155,-0.34708652,-0.5063306,0.06213406,-0.0013410521,-0.7105495,-0.6771687,-0.57579833,-0.0006973569,-0.19680981,-0.5301964,0.12227476,0.5509134,-0.0684633,-0.44614887,-0.34228486,0.16498555,-0.35087037,0.38617212,0.27148324,-0.46350092,0.010767208,-0.0015515548,-0.31989086,-0.2971242,0.3608917,0.15935111,0.31274143,-0.10625221,-0.5393155,-0.005541733,-0.20321313,-0.4205826,-0.51522785,0.14033411,-0.2888236,-0.30503827,-0.109020196,-0.16183555,-0.19828685,-0.005396392,0.16941522,-0.3497991,-0.38948345,0.4305998,0.41955653,-0.3123806,-0.42604113,-0.4831992,0.37312987,0.51284647,0.13003159,0.18932182,0.45125288,0.035238747,-0.2468078,-0.06554533,-0.44619137,-0.6033186,-0.34813872,-0.025891265,-0.5274709,-0.419167,-0.5373372,0.30465025,0.021112783,0.17172813,-0.11358681,-0.3777734,-0.13077919,-0.15651187,0.4508759,-0.16794422,0.18243243,-0.2916829,0.07529463,-0.31713375,-0.34246752,-0.1592325,-0.34037456,0.3048267,-0.18712206,-0.0068027526,-0.20913328,-0.114314765,-0.046087842,-0.48105472,-0.30501994,0.15906285,-0.30930606,0.22081439,-0.42748335,-0.09883065,0.11619211,-0.23086067,0.29830384,0.44608015,-0.0426198,0.38602978,0.39948216,-0.10942849,-0.18362083,-0.43917483,0.18631117,-0.4863379,0.4338563,0.0362712,-0.19599074,-0.06288309,0.22304821,0.11451112,-0.20220122,-0.11834002,0.08164429,-0.13511673,0.036313064,-0.5476846,0.1737651,0.17245083,0.07358028,0.20154841,-0.46619293,-0.08811966,-0.031111533,-0.23405938,-0.3797407,-0.4570308,-0.022039257,-0.46520007,0.13085175,0.26785952,-0.39265004,-0.1834295,0.37608212,-0.29477134,-0.34343687,0.08618518,0.69223374,0.0730336,0.10672933,-0.42896667,0.26066056,0.18889509,-0.18340605,-0.44283286,-0.3825859,0.11964383,-0.4485746,0.43138757,0.22793107,0.08588523,0.42414263,0.43470907,0.36541733,-0.36085758,0.17809121,-0.4745072,-0.39839995,-0.12154528,0.19058071,0.41139954,-0.12433846,0.43388706,-0.28713137,-0.20022152,-0.066734225,0.47922513,-0.19690101,-0.14762403,-0.14116727,-0.5094069,0.23878245,-0.20537136,0.1320059,0.21622497,-0.5452837,0.17304038,0.14283936,0.23904897,0.3368214,-0.19908957,-0.08474123,-0.32579684,0.37836665,-0.27705622,-0.3966033,0.22778778,0.26884288,0.100685485,0.23580095,0.0718697,0.07567314,0.3323546,0.6343219,0.17159666,0.12979685,0.46484745,0.22095598,0.10745548,0.10136022,0.025490556,0.24200723,0.37134832,-0.22682329,0.07341317,0.22335255,0.33321828,0.19734362,0.24753055,-0.42662737,0.00648178,-0.018788464,-0.3748033,0.1170336,-0.42600274,0.27779213,-0.42834324,0.36933628,-0.14268377,0.18168479,0.47398788,-0.06091556,0.28231597,0.26397157,-0.2405426,0.43953562,0.64940834,-0.03951864,-0.007521473,0.25231847,-0.27539682,0.55466956,-0.23134676,-0.051597778,0.38470742,0.13108006,0.45416734,-0.2150809,0.054532256,-0.4083049,-0.36224428,-0.2755012,-0.0055631106,-0.22800778,0.22089529,-0.13761093,-0.2839729,-0.36177558,0.4263138,0.4950965,0.15436363,0.3937292,0.23654254,0.5444727,-0.18417802,0.6237228,0.5394832,-0.00076014857,-0.1783254,0.21950518,-0.31434825,-0.08389244,0.17065258,0.38452405,-0.07215364,-0.30297852,0.23750617,-0.086014375,-0.12642127,-0.040977772,0.048362423,-0.1425706,-0.14112124,-0.42751268,0.05793265,-0.44730124,-0.32100198,0.36839953,0.29879412,-0.25127348,0.17758165,-0.10445,-0.19658214,-0.11926819,0.2645126,-0.20169066,-0.2742216,-0.028394911,-0.012731892,0.21289326,-0.25251463,0.28583848,-0.14888334,0.31538066,-0.31572026,0.006777533,0.28425142,-0.20943306,-0.4421633,-0.23672388,-0.108206704,0.11766527,0.1635339,-0.15958096,0.21648948,0.3996405,-0.1854394,-0.33102855,-0.11431011,0.3571468,-0.5606618,-0.055483002,0.16142529,0.044613577,-0.33041093,-0.22292592,0.2884699,-0.28313205,-0.16016643,0.43923044,-0.41483605,0.13422613,-0.42732647,0.35326126,0.26089332,-0.21181832,0.4620915,-0.0042620287,-0.4461953,-0.015171669,0.40956953,0.43085814,0.19928743,-0.2662573,-0.4124121,0.109698035,-0.5110386,-0.35814404,-0.11366051,0.20329519,-0.19364758,-0.1610995,0.4019033,0.40653104,-0.4983223,0.4397511,-0.5007851,-0.007742043,-0.31053534,-0.2662693,-0.4865178,0.06056982,-0.05452056,0.35382396,-0.17744146,-0.017729964,-0.16669129,-0.1027471,-0.37595683,-0.14918186,-0.012907582,0.17369114,0.38658077,-0.31225252,0.36536762,-0.12496167,-0.2026752,-0.44879958,0.191247,-0.04304434,0.47729483,0.21108422,0.45270282,-0.33829328,0.3114661,0.17333196,-0.14739558,-0.08062668,-0.27833158,0.33392602,0.18299557,0.48139793],"bias":-0.84588146},{"weights":[-0.38462237,-0.31561783,-0.22223061,0.31614384,-0.16894013,0.36748156,-0.13459635,-0.27008912,-0.51880807,-0.30290988,-0.19566947,-0.2904134,-0.34762582,0.36814824,0.44476983,0.37616584,-0.02386402,-0.5097918,0.16367334,0.41411552,-0.0702715,0.40381238,-0.49009278,0.34953567,0.4383932,-0.4376208,-0.15037629,-0.013970718,0.47129413,-0.4899694,0.37910065,0.30657253,0.1171928,0.1392103,0.4706295,-0.36449045,0.029047232,0.3516356,0.38296497,0.2994602,0.3820122,-0.2953789,-0.07858715,-0.3281794,0.11190455,0.19683522,-0.42583457,-0.073950134,-0.076358765,-0.144131,0.17920527,-0.24601853,-0.25601974,-0.075903274,-0.20633513,-0.41551974,0.25329778,-0.34870294,0.101841934,-0.5058561,-0.028145853,-0.08094642,-0.12515238,-0.36352485,0.106782384,-0.44637853,-0.23284459,-0.3401776,-0.48648345,-0.5053279,-0.44525608,0.11698289,-0.2862022,0.14014561,-0.26045766,0.19845112,-0.1352698,-0.12867445,-0.13665515,0.121318564,0.43383434,0.21837884,0.4414415,-0.0666526,-0.10925568,0.0038755713,-0.029826205,0.11202438,0.30507913,0.24596485,-0.19992031,-0.22665063,0.19415757,-0.032611236,-0.0719891,0.4885879,-0.04675406,-0.34088263,0.28199682,-0.32862213,0.039771657,-0.11746949,-0.4438556,0.2860896,0.3438744,0.40294966,-0.04987598,0.080341645,-0.4831354,0.20247301,-0.28866616,0.24958284,0.28926095,-0.25385097,-0.154565,0.30176312,-0.070283666,-0.29678375,0.08813873,-0.19331759,-0.43071082,0.119703874,-0.4283272,0.11118301,0.05874448,-0.35001978,-0.07563067,0.30099013,0.2546341,-0.14971276,0.16757278,-0.09337954,0.16816658,-0.55878925,0.046704732,0.3046203,0.16432764,-0.19794615,0.31408313,0.104060136,0.29499313,-0.27357146,0.26397008,0.23777182,0.009091672,-0.14206494,-0.314563,-0.05036682,-0.09606184,-0.10737691,0.5749853,0.12642498,0.623628,-0.16704045,0.083422266,0.16979617,-0.46243232,-0.06980317,0.10029452,0.04471904,-0.4458316,-0.20939493,0.19152604,-0.51455975,0.22524062,-0.077106886,0.20131937,0.015598938,0.025511663,0.035881184,0.33615425,-0.44892657,-0.40003887,0.37564346,-0.3690372,-0.13810758,0.26157203,0.6500204,0.5038703,-0.044661496,0.27047735,0.2321867,0.40065575,0.02461231,0.52649003,-0.109894015,-0.5310497,-0.07673987,-0.026826559,-0.31365237,-0.67961496,-0.053078447,0.07264511,0.013507534,-0.22597174,-0.10994168,-0.41014507,-0.22643174,-0.34451073,-0.080129005,-0.44330987,0.5168259,-0.32506654,-0.21229546,0.0100215785,-0.31565982,-0.12523822,0.5853522,0.41884053,0.4521567,0.033041835,0.31892467,-0.18681473,0.51173127,0.030956564,0.2577717,-0.2115185,-0.20837285,0.24402507,-0.18384871,0.17658924,-0.4476988,-0.27645776,-0.0020466354,-0.2503975,0.28427607,-0.19438984,0.4962715,0.38800657,-0.11132632,-0.15280817,0.26608965,0.36682546,-0.20953208,-0.014860347,0.25262627,-0.032046854,-0.019685784,0.73320997,0.39338875,0.37948054,0.54825616,0.25021413,0.4547811,0.31976053,0.12998016,0.4481255,-0.0967253,-0.385472,0.39435744,0.3787254,0.47370914,0.120819606,0.4042808,-0.40022722,-0.35078847,-0.23711677,0.019467557,0.5431205,-0.07056748,0.25945148,-0.23923326,-0.4259809,0.15387982,-0.26753655,0.2641997,0.57013845,0.61218184,0.35315546,0.31468618,0.5674614,0.15098292,-0.008784513,-0.2707847,0.0039185276,-0.31680402,-0.35862473,-0.008105537,-0.05614357,-0.24373282,-0.13208422,0.23836839,-0.08107542,-0.032824032,-0.37440968,-0.3667592,-0.16464722,-0.43999183,-0.51106656,0.029169815,0.2016465,-0.41236418,-0.30069658,-0.2125238,0.28224573,0.44065318,0.033791967,0.094653666,0.42702898,0.43945143,0.38065866,-0.074795485,0.3598419,-0.18085045,0.28708342,0.27260375,-0.25737265,-0.49723935,0.37140217,-0.13020639,-0.14592475,-0.45414937,0.3664373,0.045831736,0.03953237,-0.24742657,0.16280432,-0.15793769,-0.28763983,0.14511001,-0.047113925,0.13740288,0.10708748,-0.07997898,0.12410818,0.6777562,0.3660444,0.3286064,-0.33230293,-0.15683237,-0.22721362,0.24600253,0.22098966,0.048066758,-0.19311637,0.1582069,-0.078012176,-0.084053874,0.06607106,0.20304301,0.13121052,0.22614779,-0.36994666,-0.176096,-0.40217367,-0.09443474,-0.671121,0.15948921,-0.01435744,0.17120267,-0.50635606,0.044664416,0.15684895,-0.20211925,-0.118570656,0.26209942,0.379756,-0.2587746,0.068596505,0.3078667,0.43377092,0.29522103,-0.02284468,0.2857625,-0.26198214,0.08282579,0.11913664,-0.34186262,-0.14167088,-0.2764984,-0.05526835,0.17098947,0.09996934,0.117308326,-0.09929642,-0.28987858,-0.023641877,-0.09948217,-0.6965313,-0.5468042,-0.0009818221,0.019735375,-0.25385866,-0.24623582,-0.16509952,0.04048546,-0.22559011,0.38376093,-0.44601822,-0.06935294,0.31859934,0.43224064,-0.491936,-0.09392705,-0.0017332211,-0.5023974,0.35908592,0.06301475,0.0041824044,0.16505152,-0.2103947,0.20937183,0.20316099,-0.48957592,0.19607255,-0.77615196,-0.4724616,-0.17300391,0.4168351,0.46030617,0.23944908,0.28592503,-0.32675275,0.07914087,0.49176353,-0.27397183,0.44254905,-0.107339144,0.31591907,-0.20888522,-0.18351036,-0.36982813,-0.51881236,-0.06590548,0.1685758,0.3198488,0.24630295,0.1671869,-0.62782216,-0.33397564,-0.48681045,-0.1966228,-0.07658963,-0.78323287,-0.10933925,-0.60677814,-0.14587577,-0.18155512,-0.01668861,-0.2966003,0.55610216,-0.041921765,0.049451116,-0.41426918,-0.48243266,-0.24987452,0.34806836,-0.080511294,0.29424664,0.4325488,0.4023458,-0.002635533,-0.47656515,-0.014990643,-0.15824223,-0.29227144,-0.5597267,-0.18205702,-0.5224077,-0.052356254,-0.83628714,-0.7201363,-0.7390519,-0.19780388,0.27396062,-0.33727387,0.17377682,-0.20551622,0.06631944,0.26281157,0.17717041,-0.17046796,-0.24872164,-0.38399118,0.05205607,0.12199158,0.3246934,0.141009,-0.08689986,-0.20872527,-0.4189896,-0.2792966,-0.19379605,0.31286025,-0.1534391,-0.52327704,0.15517224,-0.42291257,-0.82410306,-0.9118921,-0.58377224,-0.14830756,0.4358831,0.41967815,0.4554145,0.6176358,0.32924217,0.24745487,0.35156333,0.1967819,0.012711857,-0.20882429,0.052106638,-0.41796243,0.12533902,0.45655152,-0.40871513,0.45308053,-0.38165188,0.4224565,0.19763692,-0.38815844,-0.38065508,-0.6829986,-0.08377617,-0.45541045,-0.23466009,-0.20829107,-0.28792888,0.381766,0.025073132,-0.04068553,0.43298286,-0.10348299,0.5429527,0.12726814,0.025405653,0.009168496,0.36087456,-0.06357614,-0.37357673,0.42123064,0.3756424,-0.36500835,-0.27677107,-0.40537643,0.0976068,-0.040448822,0.4846927,0.05542595,0.30465448,0.3656745,-0.12484123,-0.56129354,-0.76271766,0.22193798,-0.33212075,-0.26258677,-0.02781154,-0.32032627,0.45413482,0.4126965,-0.16048864,-0.14584653,-0.37589273,-0.049779687,0.28818595,0.45220342,0.042438142,0.3107248,0.094786994,0.14213341,0.18177965,-0.2059481,-0.10040055,0.32928497,0.48719582,-0.17852019,-0.19462802,-0.085173875,0.26212767,-0.046389658,-0.29213113,0.27967042,-0.20273346,0.13148592,0.09598207,-0.047391117,0.2834828,-0.22269349,0.2575421,0.36068368,-0.14951506,-0.1798028,-0.18096854,0.35699788,-0.086846635,-0.15050119,-0.19050345,0.06489484,0.2393718,0.29875436,-0.37536478,-0.1893754,0.45397714,0.43284813,0.105440885,0.39214188,0.0712193,0.09072479,0.2104415,-0.19611435,-0.37919265,-0.26941603,0.4332314,-0.2667208,-0.17815964,-0.5023019,-0.02163679,-0.014522932,-0.2365306,0.34616646,0.16894723,0.25367644,-0.3214425,0.30100563,0.13739955,-0.026542772,0.37671092,-0.0031909528,0.5404359,0.5733233,0.34048992,-0.18043019,-0.1531934,0.31074545,0.23502693,0.110302806,0.3457923,0.49622336,-0.37905344,0.46068585,-0.031113937,0.18610395,0.12678488,-0.3046698,0.31050727,-0.34713614,-0.2955655,-0.013119977,0.3660456,0.0008969162,-0.040722374,-0.1404528,0.19861978,0.28074786,0.4042885,0.088823296,-0.45970944,-0.44520944,0.17540762,-0.17767157,0.345169,-0.3346079,0.24828465,0.30964044,0.5437584,-0.074615255,-0.35737547,-0.1746048,0.3320347,0.16710223,-0.18043156,0.2230255,0.1479457,-0.1749467,-0.52546525,-0.4510395,-0.29245692,-0.45209023,0.44054064,0.36397597,-0.20002347,-0.025595296,0.3435303,0.20418328,0.23790337,0.39602235,0.056553636,0.06537161,0.324423,0.039229576,0.4854874,0.23099853,0.5817536,-0.20943972,0.039891183,0.4245932,-0.40196845,0.3174231,-0.31230608,-0.13922921,-0.06922555,0.20431034,-0.011592917,-0.4210158,0.29431504,0.45629564,0.33550587,-0.2789643,-0.30215982,-0.13968259,-0.26445255,0.33880463,0.38517454,0.0035246802,-0.42880365,0.4615111,-0.37342575,0.4887856,0.29802242,0.5577475,-0.21328764,0.46456218,0.44759646,0.5827674,-0.33625984,-0.09668071,-0.014627038,0.029731506,-0.47046655,0.43359312,0.26836047,0.14117143,-0.04029622,-0.31124282,-0.47004333,-0.41320446,-0.015049716,-0.49789193,0.23111823,0.4332517,0.3188635,0.18434975,0.0096542,0.27794257,-0.016286463,0.41478404,-0.38718823,0.34618568,0.006133048,0.40306404,0.42591947,0.20520371,0.12211805,0.3253627,0.25606796,-0.075042404,0.12737824,-0.27945405,0.07155549,0.21375158,0.15078121,-0.23876353,-0.35909775,-0.21300513,-0.48048905,-0.3679861,0.1935634,-0.29969123,-0.21656543,-0.3014656,-0.19211248,-0.12609652,0.02653092,0.38223022,-0.23756924,-0.51540375,-0.434328,-0.24516577,0.43306932,0.11873011,-0.32477313,-0.11219919,-0.118160434,-0.32852942,-0.14780341,0.11432438,0.29641807,-0.51446885,0.4420186,0.33674976,-0.19737619,-0.12527432],"bias":-2.1536226},{"weights":[-0.19810364,-0.28453422,-0.4328897,-0.18641719,-0.22305176,-0.4220245,0.45559216,-0.26845896,-0.2617178,-0.32599115,-0.32883644,0.27910388,-0.17670287,-0.4246953,0.3174563,0.21721493,-0.33802092,-0.113071226,0.47092938,0.14739993,0.20324257,-0.3015052,0.43018067,-0.22934362,0.2995386,-0.058162596,0.15993276,-0.49729598,-0.0022635055,-0.20257756,-0.1606687,0.11880637,-0.36748093,-0.044408694,0.48168206,-0.5036744,-0.4769292,0.32897097,-0.10717252,-0.46825054,0.058215037,-0.17961009,0.22304364,0.1045634,0.033651903,0.01714356,-0.46447486,0.1391726,-0.03388719,-0.39798498,0.13134412,-0.35127366,0.04818551,0.104003645,-0.05536988,-0.46854568,-0.46471608,-0.08128097,0.45792764,-0.09638242,-0.3280697,-0.07868334,-0.4576595,0.118486516,0.33841062,0.35988936,0.31104246,0.17288215,0.4235314,0.032991488,-0.47205138,-0.07656436,-0.21454565,0.25997722,-0.16677646,-0.24187668,0.45897847,0.46893612,0.35371685,0.39846867,-0.46228784,-0.14392461,0.4119333,-0.048931878,0.023459934,-0.42887223,-0.021408472,0.48302078,0.4038341,0.10683092,-0.062176064,-0.3299254,-0.12269141,0.11615498,0.35987824,0.054164737,-0.12807356,-0.34561622,0.099112675,-0.39337587,-0.25982085,0.17221314,0.3798719,0.40966362,-0.21783333,0.40252206,-0.20093931,0.42689797,-0.16412526,0.31303695,-0.09355555,-0.21239254,0.103519775,-0.09710356,-0.18508565,0.000707647,0.075928055,0.21746844,-0.14807056,-0.08909021,-0.13779789,0.39643925,-0.20623623,0.24723057,-0.39014986,-0.2722627,0.23613185,-0.054739244,-0.2966357,0.3028656,-0.015418292,-0.06233394,-0.081576996,0.17916141,-0.22616169,0.1089255,-0.06999854,0.40745708,-0.08394679,0.3583721,0.024913251,-0.17509446,-0.4115495,-0.34492075,-0.46611685,-0.43779743,0.11437879,0.32999948,0.12178005,0.16195811,-0.0063006836,-0.09846388,-0.046271533,-0.3496847,0.33052927,-0.085121855,0.32190278,0.17416072,0.007676549,-0.09727432,-0.36559105,-0.039834764,-0.31231633,0.34379858,0.18002182,-0.2513,-0.25077406,-0.51235145,-0.29321086,0.22453034,0.41422242,0.19691192,-0.47762012,-0.24507537,-0.34945622,-0.26343155,-0.46766043,-0.22719951,0.07361933,0.26167735,0.08012721,0.44458008,0.571446,0.32294413,0.5603397,-0.25492585,-0.21519846,0.50301516,0.04134058,-0.35514328,-0.2705316,-0.04983197,-0.15293367,0.012263957,-0.36779624,-0.03139506,0.43468618,-0.08180531,0.28514972,0.33270818,0.29771903,0.08893017,-0.43245557,0.22298145,-0.44419032,-0.34137815,-0.06291997,0.34442875,-0.014622424,-0.19605753,0.5262069,0.40497643,0.5632625,0.41294044,0.47569454,0.21984474,0.015021188,0.1934035,0.35367766,-0.10122931,0.42704758,0.23836622,-0.1486937,0.15796886,-0.21927741,0.29739517,-0.2700532,0.2751949,-0.35463864,0.28037527,0.038365755,0.11640618,0.21781956,0.13766761,0.4008754,0.2603328,0.5562189,0.42773733,-0.32445127,0.2573137,0.30298367,0.25904596,-0.32124186,0.33385938,-0.2638318,-0.17352954,-0.35736448,-0.07056127,-0.29112455,0.47115386,-0.40812904,0.064222306,-0.41871035,0.16701348,0.06364205,-0.19601975,0.34502614,-0.4623035,-0.41210726,-0.3852356,0.2635403,0.14663611,0.13660285,0.45668694,0.28116816,0.34286153,-0.050094176,-0.018350992,0.28829148,0.39300248,-0.20868501,0.37857655,0.50591254,-0.003036137,-0.42935637,0.5137204,0.44563404,-0.23941015,0.29644874,0.3715725,-0.43117625,-0.5091204,0.39113393,0.31074482,-0.2267848,-0.13188915,0.4086642,0.38680905,0.10304018,0.15208073,0.16575061,-0.38804927,0.17732595,0.055106565,-0.49904132,-0.100238964,-0.26303017,-0.15455112,-0.34674507,0.25063604,0.3707886,0.45476598,-0.2288566,-0.31318048,0.25657773,-0.3610843,0.22603756,-0.42401358,-0.2000992,0.40821993,-0.08515996,0.029404452,0.25060436,-0.016453138,0.3398671,-0.29219738,0.39144704,0.39166164,-0.21367754,-0.029070573,-0.39268118,-0.05589532,0.090175204,0.065749034,-0.5791267,0.012518035,0.32421902,-0.13030398,0.14270467,-0.1778638,0.5901659,0.13618971,0.23361081,-0.50208193,-0.43647406,0.07221421,0.18572998,0.40187067,-0.0922058,0.24885876,-0.088067874,0.2461068,-0.43680868,-0.1679136,-0.21671161,0.2126681,-0.46222192,0.2502377,-0.6216258,-0.12784536,-0.6916225,0.2460057,-0.3644843,0.02531494,0.32517287,0.15084204,-0.31481868,-0.3659927,0.320438,0.2327601,-0.32766864,-0.027600558,0.15989304,-0.5015927,-0.2311745,-0.27611402,-0.35722893,-0.17065877,-0.2601235,-0.01023238,0.09253027,-0.009120088,0.34289044,0.30177197,0.21595405,-0.6063067,0.13219514,0.2882941,0.23142962,-0.3661881,-0.2569474,-0.043020178,0.42816728,-0.38558248,0.14582099,-0.025988946,-0.3022046,-0.30347505,0.09671662,-0.39091787,-0.45065665,-0.25235128,0.22401395,-0.50409585,-0.2715146,-0.118349165,-0.111680664,0.35000512,-0.39552844,0.27367893,0.19992447,0.21213008,-0.013697301,-0.030177725,0.13363694,-0.510323,-0.47266096,-0.5345731,-0.5570782,-0.44467652,-0.28606486,-0.53585726,-0.26885012,0.17272486,0.2604719,0.18868265,-0.03438133,-0.39797312,-0.027230516,0.42123234,-0.28817618,0.04223213,0.29457736,-0.08891774,0.15236893,0.42844173,0.46691546,-0.3970578,0.26322904,-0.2353164,-0.14561328,-0.24178463,0.30403093,0.24917167,0.10751465,0.05039111,0.052300245,-0.5570195,0.28209928,-0.21469444,-0.36478087,0.13318591,-0.36427397,0.23694032,0.10274373,-0.25624633,-0.025369097,0.27739453,0.16710845,-0.26615536,-0.013690899,0.27737567,-0.1759898,0.3910829,-0.3817957,0.21373904,0.26076442,0.024087861,0.16998683,0.4153266,0.49433315,-0.3061378,-0.16195884,0.13738339,-0.12002386,0.18592651,-0.2478395,0.09109355,0.06322192,-0.45732066,0.12185952,-0.0035923442,0.33378547,0.05150173,0.27166924,-0.23146796,0.4578439,0.38132858,-0.015788117,-0.30636948,-0.14670426,0.5232958,0.41272482,-0.006997245,0.067676336,-0.14558443,0.3833428,0.3009786,0.16040832,-0.13911523,0.41597039,0.2812456,-0.080405764,-0.14604427,-0.005430733,0.37313598,0.28726974,0.3891646,0.26201722,-0.17643511,0.23069255,0.4471041,0.33686808,-0.31854016,-0.34797633,0.14146945,0.32088977,-0.25298074,0.4554958,0.46055016,-0.0042199334,-0.1525017,0.029377626,-0.3613167,-0.08946276,-0.069334686,-0.3586537,0.07271486,-0.25247145,-0.36461097,-0.35251325,-0.35951966,-0.18985341,0.1914942,0.07818127,-0.102504395,0.28968614,0.17085627,-0.16087928,-0.46733144,0.042878363,0.08090884,-0.20674345,0.18832596,-0.100957274,-0.08131649,-0.31466252,0.31938186,0.55393386,-0.24948277,0.13833913,0.51797736,0.27547923,-0.021214819,0.17680384,0.052396685,0.097118154,-0.029839104,0.36131296,-0.14364414,-0.025930898,0.308693,0.3647071,-0.35744277,-0.112411976,0.24684319,0.47895327,-0.4922985,-0.35393038,-0.02127885,-0.28032506,0.42353708,-0.3555838,-0.11534386,-0.2814572,0.14245458,-0.10098109,-0.09464455,0.4699491,-0.14348407,0.03358809,-0.11542453,0.066990726,0.38442522,-0.19804466,0.096166395,-0.4473902,-0.057281125,-0.45861247,0.16967164,0.21269698,-0.204754,0.16120622,0.23961237,0.452759,-0.13732593,-0.40185785,0.39666575,0.3301896,-0.034265067,-0.3816004,0.21770112,-0.01119455,0.094773605,-0.042751104,0.014933904,0.28593385,-0.45459986,0.37438008,-0.04300004,0.008090722,-0.32134116,0.3305997,-0.18681768,0.20296611,-0.1630166,-0.24842913,0.33361396,0.17950676,0.09126311,0.3633199,0.20182602,0.41160268,-0.14079246,-0.06305463,-0.3409683,-0.20871413,0.4675839,-0.21969736,-0.45792735,0.039088544,0.39957637,0.19488738,-0.105637446,0.3029651,0.33974633,-0.27443907,0.1638726,-0.29020736,-0.39156708,0.0098272,-0.02052464,-0.40918523,-0.35566542,-0.36009493,0.3017573,-0.33638233,-0.019604417,-0.18136622,0.35541272,-0.28761044,-0.4826391,-0.4687161,-0.4945013,-0.395548,0.26273775,0.37795618,0.14209738,-0.46931058,-0.27796736,-0.007218635,0.27832812,0.24354501,0.4208438,0.065189555,-0.17466393,0.37846264,-0.17736433,0.28744534,-0.34975973,-0.4544359,0.10576176,0.08050528,0.06272551,-0.1053093,-0.0896517,0.33046773,0.34370297,0.3948379,-0.2008239,-0.46175072,-0.10386517,0.42972803,-0.49804926,-0.11941298,0.3764842,-0.44473496,0.049399145,0.12520114,0.37451765,-0.22126493,0.3923441,-0.21553639,-0.3947446,0.01098882,-0.13885349,-0.157163,0.3169598,-0.46998388,0.44194555,0.2293518,-0.06599692,-0.16429196,-0.45363867,0.025674136,0.23513073,0.34872407,-0.32829922,0.28328466,-0.41769707,-0.117438816,-0.4169495,0.15162972,0.07691119,-0.0686896,-0.44486284,0.037438028,0.35274303,0.0703137,0.016681746,-0.24028534,-0.018923737,0.4204163,-0.038463246,0.49816036,0.43507546,-0.26691553,0.09092614,0.013052416,0.18246646,0.48802334,-0.3507885,0.4605465,0.3420763,-0.114986874,0.19044651,-0.32507247,0.07704506,-0.38481033,-0.45454204,-0.050939348,0.1130395,-0.26946837,0.247803,-0.44283852,0.18438949,-0.27074564,-0.50427634,0.21419115,0.32468227,-0.07558621,-0.013430686,0.37257898,0.16570836,-0.336197,-0.07437966,0.3453968,-0.100769185,-0.008547926,0.097005434,0.33030206,-0.45302314,0.03330372,-0.35137355,0.28270543,0.4538356,-0.39053226,0.097467996,0.15554562,0.04026005,0.1592541,0.35304403,-0.2041986,-0.3881902,0.40472114,0.41106918,-0.059050296,0.17142703,0.31129044,0.25702244,-0.04663043,0.13833642,0.010650543,0.47401366,0.4038218,-0.36422747,-0.20193924,0.22706698,0.08670653,0.12371984,-0.028989173,0.092322804,-0.102517985,0.3928151],"bias":-0.7931522},{"weights":[-0.026517343,-0.39802408,-0.10815168,-0.25486362,-0.107412584,0.021238614,-0.39503896,-0.07749117,0.32501507,0.0036441956,-0.39536583,0.09094428,-0.17444588,0.029648192,0.39765102,0.2909541,0.09144425,-0.22034755,-0.25209343,-0.07282699,-0.18021372,-0.06167325,0.069048874,0.33072734,-0.24162856,0.106261365,-0.36431944,0.3144951,-0.092873104,0.21923622,-0.27656162,-0.21268609,-0.40639877,0.16018106,-0.100347884,-0.46598035,-0.2753142,0.24742204,0.13704184,-0.440373,-0.08529616,0.12432855,0.28995147,-0.21482915,-0.33551705,-0.037234016,0.22853896,-0.14384227,0.30630007,0.33331078,0.051624037,-0.4242121,0.34310126,-0.28048992,-0.45836675,-0.2169787,-0.010183187,-0.15266219,0.470011,0.14652514,-0.4528206,0.4136362,-0.14757273,-0.11437235,0.388145,-0.45305538,0.4464637,-0.49573517,0.3378204,0.43308988,0.29170635,0.265357,-0.07819899,-0.29928535,0.18929663,-0.1481956,-0.31033733,0.07054643,0.46810606,0.14921466,-0.38598242,0.11890904,-0.36456275,0.15648434,0.0957626,-0.06451691,0.010500159,0.4832877,0.07521818,0.46387658,-0.46614662,-0.47368875,0.38053828,-0.10142483,-0.3614468,-0.37481707,-0.15602905,0.20317878,0.027609846,-0.017667249,0.4657893,-0.27065784,0.14020285,-0.0032956537,-0.3182006,0.14424692,0.29893443,-0.40162888,-0.04618656,0.0430464,0.09529073,0.09084808,-0.26409483,0.013536488,0.009512341,-0.18601523,0.06997083,-0.1917869,0.40711802,0.348516,-0.42135587,-0.35370478,0.11052338,-0.24489655,-0.3061417,-0.1982208,0.03719864,-0.32689047,-0.38173762,-0.48450157,0.4541521,-0.16714062,-0.35884535,-0.081808954,-0.4027584,0.18291554,-0.20130391,-0.30253607,-0.06663897,-0.012723586,-0.47788644,0.42808318,0.08828146,0.4624206,-0.42273474,-0.13752559,-0.17578532,-0.23132002,-0.109669484,0.110743605,0.021458337,0.45532677,-0.08455053,-0.32148597,0.3611723,0.1710836,0.12798274,0.48734033,0.33778527,0.3314421,0.062383913,-0.24472345,0.23514766,0.0076124435,-0.39328402,0.1997559,-0.25531784,0.066254005,-0.2362664,0.38468572,0.14862303,-0.19199516,0.17642103,-0.20023125,-0.27733597,-0.41119805,0.43441725,-0.2921201,0.33810607,0.27530774,0.14009269,0.35652867,0.4632788,0.35929015,-0.24546006,-0.122623354,-0.21166748,-0.38713393,0.39808545,0.25632104,-0.12375744,0.36336735,0.144734,0.4136378,0.1695224,-0.14445038,0.23095784,-0.062083278,-0.2283834,0.14646761,-0.040688634,-0.43554726,0.28604993,0.06263537,0.40022108,-0.20703296,0.25141823,0.34751505,0.18970916,-0.46921423,0.2081633,0.23518497,0.16581252,0.43120793,0.33602846,-0.44167554,0.46897063,-0.07181699,-0.4652171,0.08492257,0.122041486,0.08675473,0.36150467,-0.17917474,-0.18777591,-0.25777844,0.2879298,-0.3854979,-0.15790762,0.036645297,-0.45573854,0.077049226,-0.48535734,-0.0942745,0.26776403,0.10005021,-0.46149912,0.4667144,-0.3731995,-0.18302047,-0.24216361,0.042838152,-0.08317558,0.16753447,0.13053443,-0.22353849,-0.47548047,-0.077397205,0.349883,-0.37745026,0.35000798,-0.25212714,-0.06749624,-0.0836413,-0.41008675,-0.14619546,-0.25985253,-0.08254227,-0.14329745,0.22940752,0.04167361,-0.3828813,-0.0051303008,-0.39830554,-0.47440723,-0.4342121,-0.33502302,0.019862937,-0.3752192,-0.40114683,0.37744138,-0.12725273,-0.19380334,0.44531888,0.32250583,-0.122113116,-0.29832092,0.095724426,0.03786803,-0.420874,0.31249154,0.1165139,-0.32458764,-0.3438599,0.003816987,-0.30842733,-0.36463195,-0.44088203,0.43757352,0.05842236,0.20236076,0.0219501,-0.108637065,-0.21630567,0.29082608,0.46808097,0.025368031,0.34618178,0.000038986625,0.24050419,0.4397573,0.17324957,0.056916643,0.06312721,0.41733912,-0.16244835,-0.40213084,0.45591438,-0.062435474,0.031370997,-0.12251815,-0.031266183,0.14368314,-0.23583202,-0.36643004,0.34034514,-0.18605228,0.2935379,-0.02253198,-0.2494614,0.20314933,-0.045959108,-0.0963469,0.2981969,0.35714072,0.30697042,-0.040039748,0.26892373,0.2918627,0.25692,-0.49415088,0.4166814,-0.48208785,-0.09073587,-0.45115176,-0.32396552,0.42814565,-0.025041575,0.4323762,0.3301562,0.46352372,-0.26613796,0.09143396,0.14827132,0.2452821,0.40124473,0.11620526,0.3272498,0.16960847,0.10335067,0.30635196,0.3796419,-0.4436398,-0.29839346,-0.20789579,-0.23637202,-0.097976945,-0.45027408,0.465012,0.21800509,-0.4116244,-0.4064223,-0.40894923,0.08540389,0.42632547,0.10241978,0.1806548,0.45844123,0.16381575,-0.13504037,-0.17504983,-0.2690506,0.22227663,0.47506067,0.11868113,0.4977946,0.1072363,-0.48752266,-0.45100218,0.074290134,-0.34779954,0.05030622,-0.4549397,-0.25746915,-0.029857263,0.049753632,-0.33748743,-0.36592466,-0.4030408,0.08193537,0.43801942,0.30156952,-0.3500408,-0.2347879,-0.4033202,0.3662468,0.029832367,0.37736085,0.07919622,0.3870734,-0.09915796,-0.056996334,-0.4163271,-0.48397505,-0.24090056,0.03726375,-0.32126278,0.37194926,-0.09650695,-0.3743319,-0.35667783,0.46064988,0.106506914,0.1342157,-0.27771324,-0.4556932,0.2980695,-0.26111022,0.020872315,-0.25461197,0.0116478745,0.0053194826,0.15142201,0.23939157,-0.11476847,0.29735702,0.090397194,0.41196957,-0.25796902,0.19296424,0.08218611,-0.19031033,0.3053235,0.14567798,0.11979881,-0.2651279,0.34793413,0.18320893,0.08377099,0.3626848,-0.40017682,0.2673123,-0.49120942,-0.13206486,-0.47802895,-0.19946215,0.3278425,-0.14927915,-0.36041093,-0.2084548,-0.21712904,0.14710236,-0.385312,0.048990186,0.009058479,-0.110696904,0.023275414,-0.49310485,-0.40153438,0.45139822,-0.024769967,-0.24341121,0.2072991,0.14751972,0.33602867,-0.06645579,-0.48149964,0.23972838,-0.030264169,0.089854896,0.15067072,-0.1236397,-0.14746471,-0.2565573,0.14620583,-0.43992606,-0.4263438,0.2876452,-0.19461317,0.3565181,0.40749824,0.18948331,0.4693394,0.043044634,-0.4425838,0.013285462,0.16072655,-0.2516904,-0.021869635,0.10776244,0.21630411,-0.1636835,0.16503173,0.09497615,0.2472778,-0.48728645,0.23166458,0.47431496,0.41277894,-0.3039541,-0.2970621,0.30583453,-0.116964616,0.047434065,-0.06676115,-0.33512595,0.37191287,0.13675122,-0.29094863,-0.27094913,0.25242123,0.449034,-0.32406458,0.06231589,0.40412953,-0.2246468,-0.25665918,-0.15289702,-0.30388692,-0.0050285975,-0.45351386,0.32094994,-0.20173332,0.121700555,-0.1846735,0.07350139,-0.011988282,0.0618968,0.041067503,-0.082903795,-0.3309079,-0.101650506,-0.09010709,0.032758217,-0.37950784,0.26877704,0.27913892,-0.14518246,-0.009106398,0.11241541,0.24051912,0.50156766,-0.071935974,0.14812586,-0.09751714,-0.09988241,-0.31699032,-0.28950897,-0.33547673,-0.18936907,0.47190344,-0.012071308,-0.013633574,0.25717694,-0.09839265,0.12556209,0.3447528,0.441076,0.3413274,-0.40076867,0.21969578,-0.24653079,-0.30712548,-0.32647514,0.12600444,-0.10622714,0.29996303,0.07516018,-0.41361737,0.21478724,0.11161155,-0.076182194,-0.35526067,0.19878177,-0.2017182,0.47047913,-0.11093017,-0.22028005,-0.35793376,0.04032635,-0.4959632,0.08544992,0.12114854,-0.15175132,-0.33322063,0.02740695,-0.2872686,0.08971989,0.37255928,-0.028670248,-0.49421245,-0.44806775,-0.21957825,0.0026435184,-0.30964124,0.32083812,-0.03906791,-0.11855825,-0.087943956,-0.319184,0.3461886,-0.42995802,0.029960398,-0.20889565,-0.046873767,0.2898332,0.49713153,-0.08931315,-0.027515903,-0.18654817,-0.30469894,0.23308262,-0.39498627,-0.16144738,0.16853331,0.2872134,0.09168991,-0.29156208,0.38627398,-0.48888594,-0.17637104,-0.008006176,-0.17025861,0.25972828,0.19490515,0.14962335,-0.34387392,0.20236385,0.44755855,0.11048927,0.15964426,0.33708018,-0.09005689,0.092390135,-0.4639837,-0.05366449,0.023321679,-0.22636873,0.12345515,0.13784687,-0.2246831,0.34315264,-0.23850046,-0.157505,-0.2823732,0.11322462,-0.16368271,-0.20493491,-0.10416973,-0.34147656,-0.080492966,-0.2186356,0.31341952,-0.49546978,-0.11990382,0.2846496,0.14232318,0.3041028,-0.4204033,0.3223872,0.009157416,0.105739206,-0.16971578,-0.05704426,0.14060616,0.14011148,0.06666999,-0.39327404,-0.29454517,-0.23274231,0.29805708,0.44986343,-0.10685421,-0.12425791,-0.14960422,0.3221231,0.10309937,-0.46259913,-0.25040016,0.11942397,-0.45897767,0.10227802,0.23514354,0.26865986,0.4884838,0.41955736,-0.19924052,0.28375778,-0.43289044,0.23397197,0.30868897,0.3365198,0.3383283,-0.27953103,0.49720064,0.40590078,-0.32782686,0.28268003,-0.37855348,0.44430733,0.18329236,0.31163752,-0.031448152,0.42626363,0.4808365,-0.013100653,-0.3785789,0.31838733,0.1886243,-0.2347542,-0.36629054,-0.45246175,-0.4173527,0.18086389,0.0680226,0.10610172,-0.3873672,0.26964808,-0.4602365,0.40919337,0.42222434,-0.04386647,-0.16727214,-0.08575048,0.15728335,0.37533042,0.39423722,0.46251023,-0.31355405,0.08335113,-0.3444891,-0.20220152,-0.37014773,0.25954401,0.38184673,0.24838285,0.10636509,-0.2167652,-0.47304305,0.3258477,-0.25645813,-0.47705758,-0.25052243,-0.035331283,-0.35771683,0.11495016,-0.39455125,0.064315826,-0.23316702,0.16622712,0.12602703,0.50401783,0.1441827,0.43718055,0.2604792,-0.1668016,0.24467716,0.4925431,0.09644889,-0.1339455,-0.35044408,-0.47817692,-0.06700985,0.27126506,0.37797865,0.15900724,0.3782352,-0.1890776,0.36891615,-0.2920062,0.35160857,0.11274058,0.03601918,0.34871218,-0.32603282,0.102114215,0.06148316,0.06875394,-0.42827117,-0.38858673,-0.05521324,0.24948546,0.1316211,-0.11777557],"bias":0.14458151},{"weights":[0.20279892,0.17518874,-0.05920175,0.4456193,-0.49512297,-0.5038249,0.46715015,-0.4965474,0.008814836,0.32243782,0.3872319,0.09777338,0.021308478,0.0353934,-0.3476451,0.4663676,0.12347818,0.07284302,-0.23385124,-0.39608628,0.17996664,-0.004189473,-0.28552884,0.042853728,-0.37158257,-0.45001215,-0.22179894,0.128939,-0.30489308,-0.2109174,0.4675972,-0.2153527,-0.21825562,-0.2761989,0.17067285,-0.24777836,0.3110347,0.45564464,-0.47315204,-0.11471035,0.09347441,-0.29272664,-0.40111405,-0.030483238,-0.3416096,-0.35056856,-0.12292411,-0.47779134,-0.15782186,-0.0304695,0.12499145,-0.37952375,-0.16203146,-0.3239755,-0.34567243,-0.13779221,-0.09560316,0.41147357,-0.47028762,-0.15951754,-0.2920831,-0.38143367,0.20865066,-0.09831225,0.21528706,-0.14103165,-0.46931535,0.27484563,0.035337072,-0.39871255,0.06330138,0.28122914,-0.40982938,0.11753649,0.3384002,0.42030466,-0.28954875,0.39523473,0.47811228,0.2824093,-0.15047558,0.36983362,0.10420699,0.3603546,-0.41754645,-0.39906913,-0.37949425,0.054103315,-0.32414997,0.452342,-0.05759625,0.3158582,-0.24896802,-0.014225076,0.4043166,-0.45023614,-0.17646514,0.47851098,-0.19679758,-0.11663248,-0.49025446,0.19793358,-0.13206255,-0.31223053,-0.32618478,-0.18909484,0.46771446,-0.19293056,0.07173135,0.23515399,0.34321737,0.24635766,-0.40644532,-0.50608045,-0.042499762,-0.19094862,0.19467653,-0.28111356,0.26750502,