[[{"weights":[0.052588906,-0.50944126,0.46202388,-0.26803836,-0.09853311,0.33760038,-0.26027784,-0.13548926,0.26898947,0.45039716,-0.35954377,0.46080175,0.15727465,0.27368528,0.044422187,0.31864467,0.2823588,-0.43759438,-0.16009644,0.4294012,-0.45523474,0.04678103,-0.35143957,0.19118628,0.28341785,0.2243472,-0.14916435,0.052248444,-0.15431109,0.19565961,0.04686078,0.44138375,-0.49663544,-0.44727156,0.39303187,-0.398153,-0.4337572,-0.33392602,-0.5068672,-0.14103088,0.24538329,0.006433622,-0.2202725,-0.04941872,-0.063369766,-0.01085488,-0.3370478,-0.45172596,-0.16939685,-0.28533265,0.4377234,-0.12594198,-0.14535907,0.2489792,-0.29331157,-0.48570153,-0.4839507,0.045600858,0.4421665,0.13825382,0.29799145,-0.26339966,0.03826423,0.060685344,-0.41939172,0.26268235,-0.41867575,0.17618878,-0.45105264,0.15636738,0.10132746,0.13223381,0.08760059,0.3820594,-0.4134388,-0.21071543,-0.21315476,-0.22467282,0.3014908,0.22521235,0.4476103,0.13433325,-0.30492172,0.044596042,-0.4718592,-0.36113736,0.012860029,-0.20004202,-0.3679317,0.28546515,0.31183136,-0.042545475,-0.024608156,-0.25332046,0.3309725,-0.14464755,0.14799154,-0.052690215,0.10322475,0.18707387,-0.4334675,0.00442866,0.12076767,0.1873777,0.2035849,0.1380058,0.32300025,0.3861873,0.393577,0.016453203,-0.051939104,0.42612353,-0.4516444,0.4787395,-0.36980748,-0.041589677,-0.34945264,-0.19600977,0.039115284,-0.17783357,-0.3459584,-0.3685478,-0.3906891,0.30235356,0.38374943,-0.48063686,0.11316068,0.15039851,0.12376651,0.29810596,0.14812432,0.188971,-0.40812436,-0.124350816,0.022123115,0.2121269,-0.021597255,-0.284066,0.44963905,-0.12647331,0.47345486,0.48408273,0.3185693,-0.04369324,-0.25471163,-0.10563356,-0.2132195,0.31066966,0.033619795,-0.08087296,0.007889367,0.045829847,0.2818989,-0.24982536,0.026615327,0.42793414,-0.3068107,-0.1554465,-0.4927823,-0.36090758,0.15066248,0.36424196,-0.42589605,0.099199414,-0.20928788,0.13240413,-0.22956622,-0.42589802,0.28925028,0.1572324,-0.012703365,0.3133965,-0.36893108,-0.04327216,-0.12879181,-0.1284198,-0.102784574,-0.4397541,0.2753196,-0.019923283,-0.45201483,-0.1584628,0.082766265,0.05841927,-0.33988398,0.20635146,0.21256381,-0.016177895,-0.073424175,-0.43557099,0.33964708,0.23210862,-0.40717012,0.21726967,-0.1794149,0.29931393,0.023166994,0.06807659,-0.42565653,-0.39094734,0.12633486,0.14776571,-0.45862398,-0.5065503,0.15512286,-0.49481672,0.104375474,-0.30762568,-0.25285703,-0.03359319,-0.39108053,0.23064202,0.39985174,0.4701674,-0.23984344,-0.019387454,0.16308358,-0.4072245,-0.068136565,0.36107016,0.19939,-0.2561221,0.44968808,-0.17865762,0.26460803,-0.25370473,-0.10725229,-0.2537141,0.013136742,0.4084458,0.12500305,-0.13004689,0.49326792,-0.030306883,0.39167532,-0.3674644,0.21877581,0.27128285,-0.29835984,-0.29273367,-0.4208224,0.356839,0.35923815,-0.405809,0.19513325,-0.47384816,-0.10521657,-0.022364233,0.1321846,-0.31247923,0.07769179,-0.4892067,0.31675056,0.18717016,0.48245853,0.29283524,-0.3191866,0.3321023,0.09789898,0.1672262,-0.14271697,-0.001334409,0.40881097,-0.39753124,-0.10220021,-0.22077584,-0.29277894,-0.4471431,-0.13592808,0.030148001,-0.43107882,-0.3044483,-0.3171574,0.1471231,-0.40414318,-0.42430905,0.24504118,0.3848826,-0.4792634,-0.02888208,0.024755266,-0.25688463,-0.03503981,0.40809917,0.41170868,0.36613172,-0.48674273,-0.0130207995,-0.26543728,0.4290699,-0.25388512,-0.08639869,0.22619526,-0.2225939,0.021626206,-0.42116308,-0.34854597,0.2734822,0.44831517,0.12630135,-0.16000982,0.25594682,0.40156385,-0.2680303,-0.33997375,0.25939733,0.29729733,-0.016039234,0.04854749,-0.18649729,0.35794267,-0.47414336,-0.06406339,0.1730002,-0.31465054,0.05853194,-0.22775131,-0.07655605,-0.2358354,0.41957003,-0.38501123,-0.3976351,0.37674668,0.09442774,0.26607057,-0.2928616,0.21443786,0.0837273,-0.02196329,0.1869636,0.040868726,0.35399598,-0.42812914,0.45122913,0.16882287,0.39206344,-0.19615686,-0.15850441,-0.07003427,-0.24824534,0.24446608,-0.41637355,-0.28663543,0.1243688,0.13331205,0.13751327,-0.36789182,-0.17222492,-0.40404662,-0.017382579,0.19669318,0.27330947,-0.36427447,-0.1467273,-0.1954167,-0.3348542,-0.47202063,-0.4194955,-0.4180617,0.17336722,0.28073284,-0.326648,0.13753608,0.47790912,0.35716462,0.033648137,0.26361188,0.06969251,0.39984977,0.14274548,0.2503184,-0.39711574,0.46414852,-0.17656776,0.46259123,-0.37009755,-0.48704612,-0.20139892,-0.07097912,0.43448856,0.49802533,-0.20183514,-0.109098814,0.36800152,0.17251547,-0.034870863,0.24517335,0.41690513,-0.11931884,-0.47325483,-0.037689727,-0.19407116,-0.0047369096,-0.50108486,-0.43546584,-0.1106995,0.21963198,0.13734472,0.25650617,-0.03064957,0.25328055,0.2843207,0.15692386,0.41714635,0.47793332,-0.21467774,-0.4354501,0.38056788,0.18538807,-0.41103038,-0.48476866,0.37000695,-0.42206302,-0.5026942,0.075187474,0.24113266,0.2740638,0.24367164,-0.007501689,-0.41268694,-0.37949333,0.4084684,-0.33564416,0.1731599,-0.27056742,-0.47403416,-0.3116225,0.46385062,0.16765645,0.074377105,-0.16323118,-0.42678967,0.28100827,-0.49718732,0.3551398,-0.47438824,-0.20207933,-0.1543585,-0.46624216,-0.16321486,0.09204329,-0.3420974,0.2888372,0.11042871,-0.48392126,-0.09068866,-0.11699976,0.058421385,0.1365188,0.27768645,-0.0074600815,-0.014758319,0.29063106,-0.42056465,-0.009283864,-0.43720782,-0.026677646,0.16224775,0.39699143,-0.12306871,-0.26869375,-0.40030888,0.43901998,-0.16493097,-0.10542089,0.25912595,-0.2021429,0.0033063188,0.17801747,0.036084395,-0.14569557,0.18906264,0.37242725,0.45004365,-0.34109157,0.12159218,0.406248,0.44457495,0.4771186,-0.36100203,0.3995425,0.21540026,-0.009437675,-0.028094416,-0.1901893,0.15092759,0.30490714,-0.23568161,0.42073342,-0.014954614,-0.4403888,0.15543088,-0.14500244,0.28036585,0.28697294,0.48800212,-0.47431725,-0.1733545,-0.1610117,-0.353616,0.24645144,-0.2810966,-0.4476126,0.09089137,-0.4771164,0.40289196,-0.26729223,0.14419486,-0.4019936,0.06865928,0.13043661,-0.42772043,0.01397842,0.2775036,0.008325043,-0.074906036,-0.040544763,-0.014465206,-0.24098538,0.1984533,-0.20162989,-0.06956496,-0.2506672,-0.17323714,-0.2544339,-0.47510186,0.44568384,-0.40955567,-0.41922426,0.481808,-0.4090303,0.25290373,-0.07405813,-0.17986043,-0.3648671,-0.46216917,0.4417319,-0.12775095,0.11297672,0.1803121,0.1128717,0.41703695,0.43171036,0.079828516,-0.31731662,0.22160651,0.46254367,-0.20595726,-0.3814996,0.26378343,0.08443898,0.27481782,-0.27657577,0.29411948,0.27268842,0.44766858,-0.25737023,0.41041,-0.41307488,0.005792713,-0.2697471,-0.0400922,0.0293735,-0.4059927,0.24252407,-0.23795488,0.19246536,-0.35627088,0.4056901,0.45169482,-0.39533797,0.4306613,0.48748216,-0.3155747,0.30957088,-0.16328716,-0.43332198,-0.20267074,0.030339152,0.17222445,0.14250587,-0.2221416,0.28703865,-0.28822666,0.025482303,-0.213169,0.48359987,0.31675225,-0.31975543,0.41808584,-0.07057611,0.20963307,-0.43074432,-0.49529916,0.4290992,0.41936007,0.23680213,0.01382979,-0.43432128,-0.090429105,-0.26351628,-0.103940435,-0.47995538,-0.26865876,-0.24663027,-0.19612755,-0.23701644,-0.31994715,-0.24553724,-0.27461404,-0.41364792,0.25912035,0.34781423,0.4601773,-0.01442395,0.46298897,-0.46796107,-0.4958664,-0.39217234,-0.039616723,-0.18440261,-0.40650168,-0.42502865,-0.23082286,0.27204153,-0.46421018,0.27189505,0.25028923,-0.3277099,0.47831887,-0.20048475,-0.41943362,0.3064911,-0.23657459,0.43022197,-0.4863109,0.29702374,0.050383884,0.24873133,0.11585385,0.1808134,-0.2292542,-0.35650784,0.2880898,0.35460642,0.39649335,0.027246268,-0.19955446,-0.37755173,0.34754136,0.07919575,-0.051472157,-0.46201736,0.11736657,0.43698224,0.48077667,-0.35799176,-0.04035116,0.35311732,0.3199629,0.04191056,-0.30065337,0.30896434,0.4677275,0.43451,-0.20771156,-0.4211949,0.4856357,0.21430732,0.038185406,0.1765536,-0.31590292,0.08156435,-0.08877988,0.4093169,-0.3781468,0.4711368,-0.12778626,-0.041594006,0.2719326,0.26695898,0.053728197,0.24489342,-0.29514506,-0.363786,-0.36963093,0.0003207237,0.1058158,-0.12756447,0.14648771,0.3975576,-0.094612874,0.20531008,0.054266818,0.27911386,0.20651348,0.27156082,-0.3574962,-0.47111738,-0.13045946,-0.44591722,0.008044225,0.1736268,0.10224277,-0.18625368,-0.3263172,0.36461657,-0.46861723,-0.26760107,-0.25748023,-0.49302262,-0.0088706985,-0.16163734,-0.28513223,0.4797593,0.013903908,0.3103382,-0.28824958,-0.00090210664,-0.11814053,-0.16971973,-0.018862717,-0.10154813,-0.46954045,-0.46882734,0.06617001,-0.49899748,-0.37101707,0.13957855,-0.36390457,0.21838388,0.023317913,-0.24223085,0.18079299,-0.072083324,-0.028299607,-0.22929464,-0.42821145,0.18430533,0.2836938,0.14967316,0.05796622,0.12102678,-0.26996848,-0.044520732,-0.3597368,-0.42798924,0.2406111,0.10720912,0.053573776,-0.012211357,-0.21477658,0.30933997,0.07175984,0.36700502,-0.5110394,-0.0007457441,0.013481843,-0.348003,-0.2547612,-0.3540655,-0.46042603,0.29602113,0.14228977,-0.3826308,-0.22532967,0.019141521,0.039879773,0.24628082,0.0989421,0.45923036,0.4161616,0.20222458,-0.49815792,-0.32695413,-0.41837493,-0.21144162,-0.22455285,-0.288322,-0.12899038,-0.33675,-0.13260761,0.19335756,0.23956487],"bias":-0.3456129},{"weights":[-0.10999554,0.30470175,-0.25807196,0.48473382,-0.15750572,-0.29419774,-0.2958693,0.12437061,-0.08381144,0.23975292,-0.46449643,0.4263937,0.38219687,0.41717672,0.47408116,0.14420319,0.21484068,-0.47531337,-0.16066489,0.3243801,0.26614016,-0.22373232,-0.40557033,-0.28819245,0.14279857,-0.2151204,-0.13441786,0.41972905,0.19378343,-0.06955666,-0.140221,0.20421985,0.118785374,-0.41463822,0.296098,0.34488812,0.23858404,0.400694,-0.1917767,-0.4595958,0.044931646,-0.41952258,0.11162978,-0.12719125,-0.32210487,0.29066193,-0.0102513265,-0.44931298,-0.18045312,-0.2875318,0.03296479,0.35349414,0.08303685,0.21041027,-0.10796612,-0.3030334,-0.36935455,0.24030176,0.27344543,-0.10796157,-0.30879456,-0.28541028,-0.32655892,0.21964316,0.4090044,0.26844665,-0.17293578,-0.32383874,0.27094433,0.3281251,-0.122378156,-0.1726487,-0.15367922,0.39236426,0.12462703,-0.058681305,0.18982323,0.02715183,-0.32656723,-0.18207575,0.18181476,-0.377037,-0.09355729,-0.3438534,-0.3408628,-0.47397345,-0.19508639,0.3117424,0.37281948,0.338766,-0.33333567,-0.1583971,-0.3442744,0.03780584,0.34352154,-0.22218713,0.19954719,0.3670156,0.12597202,0.082203746,-0.1647724,0.12049251,0.07393152,-0.06758165,-0.20298421,0.04200062,0.49998614,0.28946614,-0.40664035,0.048229944,-0.07985677,0.31858867,-0.25321567,0.10682754,-0.29990554,0.27280435,-0.21102762,0.42174476,0.24771304,-0.18297409,-0.19053087,0.21603408,0.07307174,0.08055082,0.22280417,-0.028334066,-0.23294927,-0.26254302,-0.1761766,0.62144256,0.5709151,0.5623844,-0.03459702,-0.22313115,-0.39389312,0.28639734,0.26403087,0.25231522,-0.21507974,0.445427,0.112754755,-0.21739206,0.32695228,-0.4695304,-0.005790891,0.11145845,-0.13726258,-0.39547774,-0.38958782,-0.0020392188,-0.056420382,-0.51171166,-0.25241965,-0.1505527,-0.596207,-0.17466241,-0.1861003,0.33413252,0.13213009,0.1904812,0.21582255,0.15660708,0.1925482,0.3819376,0.13630582,-0.3566448,-0.29846615,-0.05586824,0.007925677,0.46455514,0.3469992,0.3668126,-0.19529481,0.37358096,-0.19783336,0.110285506,0.32216537,-0.30692342,0.17894676,-0.49003926,-0.51685774,-0.45257443,-0.53756773,-0.9607466,-0.4741533,-0.60195416,-0.17084032,-0.3472793,0.17556186,0.3409687,0.46702176,0.49233,0.15996568,0.0029357795,0.26731858,-0.44813022,0.08700413,-0.23477758,0.43569311,-0.3037871,0.07981179,-0.02377258,-0.24428223,-0.15478386,0.2640873,0.017940404,0.040470812,-0.28995213,-0.067071766,-0.61007947,-0.81645894,-0.9220019,-0.21037374,-0.7208791,-0.34929785,0.0042971596,-0.51141965,-0.28909346,0.057334743,-0.4787326,-0.4788815,0.37818488,-0.4378366,-0.17444377,0.26815575,-0.40734002,-0.09878655,-0.23889567,0.19548441,-0.09306651,0.23232833,0.03576017,-0.0410528,0.49282396,0.2904,0.26565802,0.14111845,-0.24828216,-0.4253892,-0.13780612,-0.03265758,0.00038820796,0.16699013,-0.059439093,0.19555667,-0.37012014,-0.0027696993,0.20458503,-0.39887917,-0.12690209,0.38344613,0.37484115,0.4381953,0.10098022,-0.22578873,-0.028634476,-0.3452209,-0.015724871,-0.0006704397,-0.18492001,0.065354615,-0.038252637,0.13857421,-0.13441859,0.26440236,0.2996436,0.020367268,0.2512445,0.100277334,-0.2139899,-0.17593355,0.07162309,0.26281127,-0.5232804,0.34991232,-0.21815091,-0.3061661,-0.15053964,-0.38413104,0.21786311,-0.2059116,0.34676832,0.32338116,-0.3401251,-0.226219,0.053840745,0.6340724,-0.1992169,-0.02729678,0.42516822,0.44888824,0.42304087,0.43771157,0.31833896,-0.008873231,-0.29828626,-0.44414276,-0.35252494,-0.3426268,-0.43933046,-0.31574854,0.037045084,-0.3638473,-0.20129943,0.031990647,0.15860899,0.019956164,-0.05312776,-0.23532099,0.0025209037,0.20274259,-0.14035101,-0.2152152,-0.21778703,-0.0793109,0.33847997,-0.38452393,0.1888799,-0.12671018,-0.0008441249,-0.12718366,-0.35760406,-0.39048013,-0.68074733,-0.015372543,0.1914499,-0.14317101,-0.02023801,-0.30354014,-0.20053633,0.3548125,0.5004591,-0.5056586,0.42231882,0.36885217,0.2236737,0.3888467,-0.12443993,-0.25206682,0.071109965,-0.16070113,0.2704787,-0.079988666,0.51141626,0.020660564,0.5196067,-0.17758071,0.07949759,-0.83482575,-0.45218357,-1.5121232,-1.052666,0.09288654,-0.48501787,-0.5395987,-0.6728476,0.11838069,0.24809173,-0.064279795,0.2839359,0.28384718,-0.42157647,0.16769156,-0.14429691,0.27954894,-0.11264812,0.479877,0.052565843,-0.13683796,0.26473874,0.6004216,0.55298287,-0.14594734,0.20037472,0.746719,0.28742352,-0.88756233,-1.4316705,-1.3518659,-0.43776768,-0.72588265,-0.04243122,0.14688909,0.14539509,0.060366854,0.36576274,0.10109936,0.03609837,0.30849633,0.29653817,-0.08344098,-0.4823466,0.21410576,-0.40068442,0.43120417,0.12434994,-0.04622371,0.56111467,0.44113007,0.22649361,0.8657557,0.17161638,0.026047021,-0.019678915,-0.70553505,-1.1593032,-1.2561095,-0.18351942,0.38733408,-0.4614116,-0.3791994,0.21435465,0.44149953,0.28777972,0.47063255,0.1247738,-0.29622552,-0.047847368,-0.13079265,-0.042407222,-0.26613945,0.2705893,-0.09336127,-0.38705274,0.23417039,-0.032572128,0.06219322,0.13772647,0.28467438,-0.02107229,0.12471379,0.16564427,-0.42190742,-1.0786448,-0.35716873,-0.32887056,0.38121778,-0.12597026,-0.22271799,0.11954202,0.5286297,0.4689634,0.78018606,-0.068596035,-0.14206775,0.38419667,0.24300554,-0.33727494,-0.08578236,0.13758102,-0.046873253,0.017128116,-0.40967336,-0.13251816,0.24340269,0.48346457,0.5879963,0.51778615,0.61000174,-0.485272,-0.44239098,-0.6778962,-0.6225507,-0.13220859,-0.31360444,0.23341744,0.35033333,0.5963154,0.5493241,-0.03334433,0.044109534,0.13053109,0.06776563,0.4264432,0.41029438,-0.22238089,0.29976684,0.31324264,-0.38713834,-0.095278904,-0.27058583,0.535559,0.7756717,0.7564551,0.49956977,-0.052029956,-0.29400027,-0.31752312,-0.5302729,0.07003964,0.33100846,-0.17472616,0.15278925,0.53729385,-0.109070376,0.46024078,-0.06512908,0.047845747,0.1449457,-0.27120367,-0.14009722,-0.10301476,-0.21897851,-0.20466766,0.22138965,0.40055597,0.11811874,0.18241943,-0.1338026,0.22838786,0.0779828,-0.058997385,-0.020364778,0.5957572,0.13468966,0.34178767,0.21399398,0.008898174,-0.03722112,0.2638842,0.29215568,-0.19688924,-0.04358316,0.3822043,0.2597101,0.28779107,-0.03708427,-0.05128701,0.05574025,-0.009983543,0.27492553,-0.052930243,-0.04162898,0.17914137,0.19674793,-0.51906383,-0.5584128,0.2095895,0.030735677,0.10999248,0.051759392,0.6149858,-0.10838344,0.14793934,0.4485802,0.49847636,0.7498828,0.4225564,0.0350795,-0.016147451,0.01907237,0.44941354,-0.0030541688,0.36907715,-0.04340023,0.20500156,-0.17829464,0.10211879,-0.18630727,-0.17362434,-0.24538249,-0.2916549,0.27715212,0.36886507,-0.45678833,-0.25824654,0.06677603,0.021741942,-0.13516934,-0.17744498,0.59848493,0.13136902,1.0218458,0.7088395,0.8083655,0.6991671,0.70735204,0.5742399,0.22147562,0.070032366,-0.27432188,0.39679584,-0.32894585,0.11605292,-0.33003592,0.114390925,0.019336132,-0.15425587,0.2731517,0.39657897,-0.3525622,-0.20434062,0.257322,-0.6112364,-0.103305705,0.0640216,-0.53133416,-0.20458032,-0.16116609,0.32019055,0.7735803,0.40992376,0.14008862,0.49341065,0.37744066,-0.2200273,-0.3369534,-0.059769943,0.18001814,0.39528614,0.002398404,0.36853626,-0.3459543,0.4158054,0.3759264,-0.17008767,-0.09395123,0.09782661,-0.45980993,0.27440622,-0.22363427,-0.32400203,-0.06966545,-0.13333996,0.18193857,-0.64261544,0.008281196,-0.0749488,-0.33451504,-0.08661093,0.0073257233,-0.48730507,-0.32831365,-0.26268476,0.010917179,-0.09217292,-0.2007283,-0.27927035,0.14312689,0.2603342,0.056343,-0.33549708,-0.44678995,-0.2347435,-0.08035118,-0.47641546,0.1592476,-0.10819525,-0.24413247,0.30018514,0.046139054,-0.62232965,0.17915569,-0.5582101,-0.49782312,-0.054467507,-0.9041754,-0.2622058,-0.93227607,-0.1924467,-0.41643536,-0.5631932,-0.2241626,-0.3707738,0.18626887,-0.35466295,-0.31725708,0.04406316,-0.31944337,0.112758055,0.4726946,-0.1864849,-0.35002798,-0.43045336,0.08089491,0.051799726,0.24794716,-0.12612796,-0.28158545,0.055313107,-0.314435,-0.27704564,-0.25486222,0.31106842,-0.18561934,-0.55676264,0.12626855,0.079121724,-0.1887047,-0.7059037,-0.41596338,-0.18428318,-0.40414748,-0.5225481,-0.4976751,-0.35241055,-0.09221757,-0.28922302,0.4356501,-0.030355144,0.066944785,-0.42770404,0.05985615,0.2524293,-0.45604107,0.34978303,0.25586027,0.46650556,-0.26215136,0.50265723,0.43706742,-0.18298027,-0.08774902,-0.052850805,0.12652366,0.27169308,-0.31637207,0.19877417,0.037215766,-0.005793567,-0.54069096,0.062484674,-0.37462044,0.10340693,-0.17638364,0.03142491,0.21458504,0.2441481,0.42415112,-0.23740849,-0.31305522,-0.16689321,-0.11216344,0.14783493,-0.03218492,0.12085075,0.07039543,0.124869704,0.31772378,-0.22751462,-0.033937976,-0.3894415,-0.19604631,0.10042839,-0.33861884,-0.46473175,-0.15362808,-0.3032213,-0.42387852,0.19531782,-0.14746384,-0.1543732,-0.4191643,-0.26895052,0.27849847,-0.13556659,0.44916373,-0.39981252,-0.33655268,-0.07522044,0.13968506,0.010226019,0.16634384,0.37519306,0.17499727,-0.3699239,0.30318284,0.4649732,0.39714503,-0.057780568,0.08697535,0.29962927,-0.14984784,-0.18354714,-0.4108037,-0.2681337,0.47877303,-0.19904321,0.21532136,-0.36325985,0.31667513,0.37875646,-0.12151145,-0.33135086],"bias":-1.0929489},{"weights":[0.20281902,0.38906446,-0.5255215,-0.3668805,0.45344594,-0.5169755,0.30874065,-0.24491411,0.36118916,0.07879187,0.3149586,0.17184189,-0.27495083,0.049046792,0.46175846,0.45052665,0.32855454,-0.3330693,-0.2208949,0.35756043,-0.27549252,0.46983996,0.09690982,-0.11375807,0.0025450592,0.06870115,-0.37012896,-0.2410954,-0.37067136,-0.45181546,-0.16392419,0.28490534,-0.3661513,0.18702269,-0.44542572,-0.26206183,0.39380348,-0.41837466,0.21186244,-0.4825348,0.3929255,0.1523719,-0.2601995,0.27058592,-0.18705375,0.16641131,0.032870222,0.10763151,-0.10024108,0.34290573,-0.31895322,-0.16937444,0.25876084,-0.42689928,0.118844226,0.12377111,0.022681268,-0.33995232,-0.1614033,-0.25563702,-0.44167027,0.075417995,0.14579539,-0.4473491,-0.029230027,-0.37784997,-0.111815654,-0.27553767,0.5495563,0.4334675,0.33279914,0.18796171,-0.41847405,-0.40255377,-0.12802523,-0.09754723,-0.16312636,0.242491,0.26571393,0.42692602,-0.51455593,-0.1593006,0.00088072283,0.41384068,-0.424885,-0.36121938,0.17827559,0.27535337,-0.32715762,0.46079674,0.30266142,0.22054492,-0.114615165,-0.4105734,0.21673603,0.1976074,0.22181539,0.28006378,0.17121588,-0.021357212,0.44223717,0.4583255,-0.34064886,-0.16702732,0.23048669,-0.23578751,0.3294066,-0.08620327,0.27997926,0.45574278,-0.094374225,0.23815793,0.31095913,-0.37294415,-0.0466192,-0.2112611,0.20062917,0.44024122,-0.5127611,0.0963166,0.34927484,0.14019604,0.11379183,0.3579125,0.45878842,-0.10959113,0.47417623,0.06432524,0.5785695,0.36790985,0.30018628,0.36097342,-0.09267223,0.00062865345,0.013093633,0.31698376,-0.13080803,0.29327378,-0.16041781,0.23326516,-0.22574064,0.04583536,0.017890165,-0.3591771,0.3891275,-0.2561005,-0.08374679,0.15884674,-0.2200071,-0.43079352,-0.33777007,0.44863725,0.2988344,0.766828,0.7941295,0.17761764,0.30116495,0.48508373,-0.25246975,0.19477232,0.25791976,-0.3756831,-0.4527208,-0.5585649,-0.2783515,0.019432211,0.008167399,-0.15657967,-0.33615872,-0.45694533,0.048916765,0.16369358,-0.23974898,-0.4171312,0.010213215,-0.038487565,0.036199544,0.13908494,-0.22118069,-0.16452295,-0.07755216,0.62688655,0.21589637,0.8456607,0.4811093,0.57996327,0.41684863,-0.25565726,-0.0098531665,0.14701831,-0.13089137,-0.23813438,-0.11577606,-0.37163335,0.13118163,0.4711371,-0.13339028,-0.03824787,-0.2979804,-0.3178053,-0.3563321,-0.0885578,-0.27009088,-0.37091765,-0.31087348,-0.39835793,-0.4036042,0.101055756,0.55176824,0.612869,0.45293766,0.064290896,0.13203819,0.24272366,0.27877355,-0.12711118,-0.14350154,-0.03122151,0.36242828,-0.39196548,0.4055547,-0.3038051,-0.17995907,-0.49532637,-0.43221527,-0.40988588,0.25174153,0.18790564,0.35037342,-0.1497672,-0.095752455,0.17657076,-0.42385048,-0.3126795,-0.22154942,-0.21132085,-0.09729607,0.41074952,0.011568109,-0.25847396,0.119686194,-0.65657365,0.1004504,0.17716205,-0.010365923,0.52843815,0.108801804,-0.12469091,-0.043642987,-0.13776758,0.20973366,0.0062125265,0.1623539,-0.39387777,0.43482074,0.39890206,-0.23920411,-0.42833275,-0.09274773,-0.3207982,0.37860522,0.064160265,-0.35764387,0.30832407,-0.14896803,0.036873084,0.2983182,-0.070792556,-0.51001394,0.048201554,-0.76627254,0.4496746,-0.13034672,0.25136697,0.070059374,0.40906405,-0.3344578,-0.04154921,-0.25260335,-0.34162778,-0.11175747,0.19650733,0.35796604,-0.36998865,-0.13239372,0.118899316,-0.310281,0.27547938,-0.18026327,0.19691992,0.27381796,-0.17379132,0.47940525,0.048440058,0.57306886,-0.07565515,-0.3670928,-0.16727965,-0.2329548,-0.11062392,-0.061760064,-0.037176788,-0.025407303,0.5521956,-0.27612862,0.06967138,-0.018654736,-0.082950324,-0.089132786,-0.1712641,0.37072626,0.10986517,0.13633509,-0.008874174,0.10645333,0.016441964,-0.06362561,-0.4448404,-0.3883146,-0.6032259,-0.21757635,0.16456133,0.35671106,-0.058876846,-0.18604238,-0.43065396,-0.7430956,0.38188854,-0.0014477819,0.91510177,0.56673145,0.2750383,0.5901485,0.1044416,-0.050109103,-0.33496177,-0.29672495,-0.50534934,0.2524425,-0.53924024,-0.55896884,-0.50294155,0.23253708,-0.43997976,-0.10728177,0.14167489,-0.16946767,0.06087267,0.3378148,0.20105597,0.733002,-0.026833257,-0.84429544,-1.0859933,-0.6932785,0.3328491,0.2272941,-0.04972629,0.07324208,0.2972698,0.27706257,-0.16124436,-0.15625545,0.06598164,0.34036708,0.097164616,-0.25030085,0.1010212,-0.12708195,0.31665376,0.23389265,-0.60467404,-0.40817827,-0.06692971,-0.6836158,-0.08578665,0.1570361,-0.07659109,0.79344344,-0.1411098,-0.393543,-0.8808809,-0.07199794,-0.37232003,0.2680685,0.42718476,0.3370052,0.66978985,0.21043386,0.23382136,-0.48011726,-0.5154809,-0.08314632,-0.24850503,0.4554454,-0.33753523,0.2976681,-0.26168248,0.015384922,-0.5499584,-0.25866187,-0.18519808,-0.410669,-0.592092,-0.06802759,0.7299835,0.48127162,-0.017950537,-0.91535074,-1.0361224,-0.77328086,-0.39370582,-0.23539384,0.421041,0.5217056,0.577152,0.30723563,-0.25414717,-0.23443842,-0.36092317,-0.05435589,-0.4006358,-0.4907243,0.32880884,-0.37008452,0.41846463,-0.3777537,-0.09826362,-0.32612646,0.063798316,-0.30317983,-0.08657762,0.28665882,0.49305442,0.6328232,-0.42620352,-0.5198823,-0.75717753,-0.4242299,-0.51457596,0.14717513,-0.06313277,0.18239342,-0.30349588,-0.42526385,0.43004677,0.21147615,0.07423212,0.44735172,-0.2041499,-0.3912257,0.3018734,0.42373103,0.09383595,-0.41609886,0.014236031,-0.085791275,0.008157592,0.059558164,-0.024915105,0.2370012,0.66946894,0.14433104,-0.46177664,-1.2092793,-1.3309929,-0.8159326,0.24462786,0.49711096,-0.0755101,0.1755742,0.31875956,0.4289688,-0.042752214,-0.1027861,0.24579015,-0.42716154,-0.5090369,0.06523343,0.2505217,-0.25457892,-0.038543217,-0.08019444,0.38511482,0.021001978,0.23686798,0.504033,0.7140136,0.26461542,0.8226339,0.06441927,-0.98744994,-0.45085576,-0.21026452,0.0046186727,-0.17902344,0.20113105,-0.14161018,0.68764347,0.44411665,-0.05084508,-0.50784063,-0.3793491,0.023082448,0.30432504,-0.46399394,0.1602294,0.23613118,-0.01875797,-0.06660572,0.032493643,0.4858723,0.13982002,0.33723786,1.1507905,0.6815602,0.98363954,0.36308336,0.18589576,-0.18841606,-0.038076032,-0.07247051,0.31074667,0.2976714,0.15656345,0.22952113,0.12553373,0.051543858,-0.08402341,0.26669568,0.4240539,0.38337237,0.27953961,-0.42144692,-0.47468242,0.25457934,-0.31716892,-0.039609507,-0.3146162,0.22938204,0.80504483,0.7072918,1.1129236,0.79591316,0.16176718,0.58230156,0.23063836,-0.10925224,0.2756915,0.43577877,-0.13261071,0.25580522,-0.19934653,0.49987915,-0.01589589,-0.47430727,-0.2185681,0.19993342,0.3475155,-0.059206188,-0.21978793,-0.019580523,0.38967952,-0.07216616,0.42726493,0.3387279,-0.048670497,0.46730384,0.4772094,0.23044337,1.0666287,0.7592694,0.5422951,0.54748255,0.34968203,0.6796384,0.010185236,0.28008986,-0.0020833279,0.43320408,-0.1628119,0.31478885,0.11128478,-0.3969131,0.085156575,0.25556904,-0.102237,0.13849247,0.3664194,0.3421969,-0.46966472,-0.4800508,0.16448382,-0.2553136,-0.040364746,0.5839818,0.004431855,0.35685512,-0.029940981,0.2987866,-0.12960526,0.586286,0.3490476,0.35373875,0.25399482,0.3585103,-0.26929024,-0.13397472,-0.15829319,-0.1543653,0.045226738,0.25724906,0.16125718,-0.19973995,0.2649048,-0.32478276,-0.20229685,0.41759008,0.050910637,-0.39566934,-0.23408747,0.49581972,0.15873069,-0.27527356,0.17990871,-0.2014904,0.41461578,-0.09274147,0.49963802,-0.0003125007,0.6494686,-0.14344557,0.58457786,-0.015940167,-0.2415902,0.2529611,0.3533904,0.06432997,-0.50860506,0.017645437,0.02887909,0.19669776,-0.03521714,-0.06534859,-0.0759307,0.44078162,0.22692841,-0.4371169,-0.055332202,-0.25985822,-0.39093554,0.3457244,-0.1958606,0.43382367,0.055935867,0.032930907,0.8478728,0.48641956,0.029567521,0.49987847,0.27297947,0.2834613,-0.15402754,0.19008358,0.397474,-0.4326042,-0.39186206,0.21849406,-0.03886595,0.22473507,0.16609646,-0.13369179,-0.4677131,0.1499938,-0.24869162,0.003748867,-0.508104,0.40168196,-0.22761165,-0.030421339,0.30256152,0.17928265,-0.4573893,0.03360499,0.106452376,0.124337494,0.35325456,0.563073,-0.28323188,-0.1198271,0.060964014,-0.3830727,-0.3571063,0.0090265535,-0.3008037,-0.40127406,0.29142806,-0.48689216,-0.33957347,0.35264936,-0.0144207515,-0.17937824,0.31774113,0.041264325,0.3101939,0.36655784,-0.42418554,-0.43753278,-0.5743035,-0.03311126,-0.62081856,0.076738775,-0.6019396,-0.48492843,-0.34272254,-0.3968255,0.086055815,0.10165895,0.25927868,-0.20939296,-0.19967747,0.3142782,-0.12423653,-0.006240617,-0.41467863,-0.17761159,-0.20518196,-0.3228701,-0.15277627,-0.40974483,0.30516163,0.18234506,0.31844836,0.060038887,0.3246926,-0.37046835,0.08570611,-0.47109243,-0.61608475,-0.107390225,-0.5099163,0.09978141,-0.47925308,-0.06572452,-0.034019426,-0.3297426,-0.52573365,0.036309354,-0.47508332,0.2960768,-0.48591697,0.27056733,-0.3670694,0.11471252,0.32269028,0.2754555,-0.4363092,0.08083452,0.2031664,0.10449594,0.097395346,0.38542685,-0.48343295,-0.4345983,-0.18400607,-0.06040785,0.04909508,-0.3697475,-0.05461627,0.17760494,-0.088851176,-0.27148524,-0.39365545,-0.044811428,0.28976545,0.18170772,0.40473592,-0.3263683,0.29241493,0.26234618,-0.13512984,0.1808764,-0.0071525923,-0.14999723],"bias":-0.591192},{"weights":[-0.4413899,0.2333004,0.21969207,-0.3792791,0.08551698,-0.09033961,0.18823846,-0.35216233,0.33994618,0.3788518,-0.48669967,-0.080107875,-0.010068863,0.09474003,0.39109164,0.4820718,0.3101484,0.33955613,-0.25601146,-0.41385028,-0.09373636,-0.295606,-0.039475236,-0.24700741,0.16321607,-0.28682384,0.35792485,-0.0075751264,-0.16869406,-0.15226237,0.07306414,0.014539162,0.07277744,-0.30401397,-0.057348065,-0.39250517,-0.37027898,-0.08403505,-0.25939044,0.31639275,0.030709192,0.48631382,-0.22788113,-0.49445656,0.00015677304,-0.030988175,0.25083673,-0.30311677,0.39987245,-0.051260788,0.48199904,-0.33171573,0.4928241,-0.34130475,-0.00044946035,0.30240324,0.45051327,0.4575931,-0.09544427,-0.020830572,-0.49034297,-0.39289197,-0.021705236,0.4429943,-0.4492077,0.47374302,0.12888333,0.30003977,-0.4993075,-0.25449005,0.027048329,0.4277112,0.1429547,0.4479452,-0.48203883,-0.21544461,0.11362324,-0.17015319,0.16012691,-0.29274642,0.42611024,-0.42935857,-0.44995877,0.19870181,-0.303421,0.47269943,-0.104039185,0.358217,0.20820162,0.35674313,0.49201047,0.486262,-0.28503644,0.18964122,0.019206427,-0.00925721,0.3844769,-0.23140724,-0.47103763,0.2867346,0.31360334,0.23942569,-0.11423376,0.11515469,0.17009981,-0.35862967,0.0318332,0.022111356,-0.038862262,-0.23619077,-0.43779308,-0.28436908,0.41289058,0.09024707,0.064014144,0.40139312,0.4411938,0.071839295,0.39979106,-0.12923744,0.4425183,0.07559667,0.2765541,-0.2745371,0.39187098,0.36870414,0.16719763,0.22063184,0.4761224,-0.49612567,0.46477866,-0.4777944,0.25135145,0.059108872,-0.47177526,0.1463365,-0.49365008,-0.2622405,-0.19787408,-0.35770473,-0.3709894,0.09327143,0.3628301,-0.041701823,-0.13980791,0.49524155,-0.33006144,-0.12842743,-0.22994274,0.025793282,-0.091391,-0.17270811,-0.38397917,-0.15615351,0.07807385,-0.15364459,0.49948075,-0.14582899,0.27287075,0.27005485,0.38069174,0.39452848,0.19529419,-0.28840062,0.0019463279,0.14231287,0.09889918,-0.48728618,-0.13274829,-0.08031768,0.19075935,-0.20473525,0.3823253,0.08464672,0.3236031,-0.26875567,-0.1896799,0.10893831,-0.07992373,0.41938585,0.28328204,-0.35199368,-0.47469673,0.3803261,0.26560488,0.32115722,-0.26803234,0.4920446,-0.3398395,-0.4180034,-0.002243172,0.2651012,-0.27103356,-0.20227136,-0.10369301,0.05926209,0.38634875,0.05016389,-0.28007817,-0.34478882,0.010163172,-0.43248355,-0.264769,0.36592236,-0.16980967,-0.005906531,0.13719662,-0.0903809,0.37653095,-0.19079757,0.10241663,-0.09063141,-0.0018592984,-0.32340354,-0.091511615,-0.3531811,0.33236024,-0.49410608,-0.2787348,0.41574305,0.101324916,0.49469885,0.4112357,-0.055148605,0.39797023,0.30359557,-0.009657306,0.22138847,-0.12066502,-0.25266343,-0.2320973,0.042140268,0.3155216,0.07124446,-0.40244192,0.029654201,-0.40860453,-0.15549421,-0.1591547,0.46028867,0.08176683,-0.36317652,-0.008494171,0.15708993,0.21148239,0.18159641,0.0776114,0.16940041,-0.44429284,-0.3899442,0.25108877,-0.3512858,0.20343907,0.37121695,0.43967542,0.14786646,0.20680363,-0.07897841,-0.4170614,-0.26481673,0.06514242,-0.14964549,-0.22895108,-0.29826048,0.17771968,-0.22310604,-0.30606064,-0.16927686,0.22818461,0.11947225,0.47692633,0.3625307,-0.26296228,-0.046214465,0.105778664,0.40741506,-0.3106493,0.4192833,0.124880776,-0.35678297,-0.40825966,-0.372366,0.09132521,-0.26622552,-0.3227759,-0.3831979,0.16906276,0.30913162,0.23050228,-0.06920435,0.4524644,-0.13476595,0.07610309,0.034122676,-0.34819093,-0.42171013,-0.2812048,0.20309065,0.2409704,0.4132635,0.47798422,0.020153193,0.12888315,-0.09645587,-0.06497049,0.13072805,-0.012139197,-0.32585552,-0.30325982,0.106963865,-0.41570982,-0.19364795,0.35886255,-0.33390427,0.20960142,0.3114607,0.46093526,0.13330723,0.26896408,0.113472015,0.057457015,0.46776786,-0.22182935,-0.45021236,-0.099328704,-0.21328029,0.11053041,0.06689124,0.29286772,-0.40049493,0.079467036,-0.32419676,0.4686698,0.055224247,0.25452948,-0.10618618,0.11804337,0.061036106,-0.006214196,0.19485621,0.35308254,0.28746343,0.4171694,-0.41330323,-0.29529163,-0.0869741,-0.26439616,-0.44324222,0.35245815,0.27917933,0.2764017,-0.19582017,0.016503299,-0.22487102,0.18455273,-0.42447516,-0.011248078,-0.44573772,0.08590049,-0.48654982,0.07486877,-0.35812914,-0.3855472,0.46473128,0.16721052,0.16533537,-0.14249814,-0.18151714,0.25803703,-0.22854963,-0.43037367,-0.22113036,-0.32085887,0.22111382,-0.10105929,-0.36251616,0.13438967,0.0037108057,0.3131062,0.16420817,0.32501253,-0.003910986,-0.49380228,-0.13901792,0.15791152,0.22048011,0.2824078,-0.028366234,-0.33221245,-0.2994998,-0.20268847,-0.27265394,0.08114784,-0.33326554,-0.16916376,-0.24762644,0.06423982,0.22141121,-0.10476842,-0.083878905,0.16516407,-0.30990654,0.37095767,-0.36111474,0.2537799,0.1139305,-0.057352114,0.15840751,0.48634663,0.04211202,0.19586967,-0.28824645,-0.29131612,0.39560807,-0.16685106,0.27495447,-0.22364907,0.074958675,0.036038302,0.3008187,0.1848342,0.24756093,-0.06722753,0.17887889,0.36509597,0.2760555,-0.49658254,-0.3436979,-0.3892382,0.2242292,-0.10537469,-0.1233951,-0.39621124,-0.043426204,0.06420254,-0.07392689,-0.0985874,-0.16220224,-0.21068788,-0.19265233,0.06994163,-0.34794983,0.3737088,0.06303341,-0.31495452,0.30961466,0.29224038,-0.43947375,0.06634944,0.32935944,-0.046545688,0.37182176,0.26361445,0.1448784,-0.43431348,0.1935595,-0.4711917,-0.09898375,0.38322517,-0.21279907,-0.20141895,-0.0140878465,-0.3935424,0.36216107,-0.18824054,-0.04806222,-0.3153803,-0.042974703,0.31108576,0.4759155,-0.23970348,0.3209484,-0.1761158,-0.29625028,0.39701456,-0.23398505,0.24423952,0.044095036,0.37962645,-0.35879645,0.28379032,0.42568335,0.08752702,-0.3890225,-0.17962173,0.12018463,-0.07199276,-0.41348666,-0.35254607,-0.43221906,0.26079777,-0.16865094,-0.28735724,-0.36751974,-0.10393516,0.22879247,0.04543157,0.25411993,0.45547163,0.27382815,0.4907055,-0.4423744,0.48525715,-0.103850394,0.14573269,-0.15914142,0.056781985,0.26957852,-0.040963355,0.099493034,-0.11754502,0.35550755,0.17293751,0.20732698,-0.31136084,0.17356867,0.40053612,0.4185974,0.011573334,-0.19735952,0.19449864,0.38694695,-0.023689454,0.0044096443,0.113905326,0.43578136,-0.054482266,0.3515396,0.12296344,-0.33092296,-0.38716012,-0.25710368,-0.13506274,0.42204905,0.17063186,0.29723114,-0.28417277,0.4034215,-0.16742396,0.25780183,0.23818502,0.22438678,0.1989746,-0.16802925,0.41282487,0.33424062,0.20110135,0.07685161,-0.21764685,-0.06368356,-0.36156723,-0.023668863,-0.12373743,-0.23525918,0.42090213,-0.2247533,0.19670917,-0.4759661,-0.0375463,-0.14685263,-0.123815484,-0.07804825,0.48376438,0.36259052,-0.10114054,-0.1440433,0.081450514,0.0021926756,-0.0020735126,0.30694795,-0.4237284,0.40433633,-0.39905554,0.2086281,-0.08995283,0.2556136,0.31277394,-0.38367352,-0.071640685,-0.03188772,0.21480206,0.24047951,0.24537504,0.38157022,0.26494548,-0.23786369,-0.2247914,-0.2965202,-0.43039283,0.47643325,-0.3652709,0.32725117,0.26571134,-0.4470349,0.057218004,0.098329194,0.42497817,-0.24652319,0.46565187,-0.020325202,-0.2793663,-0.35042322,-0.074278384,-0.3159006,0.37479067,0.08282132,-0.28137568,0.02062321,-0.10132716,-0.4337545,0.4949064,0.4554757,-0.48179734,0.36075965,0.32314748,0.06002983,0.44510356,0.22705372,-0.37011346,0.22565073,-0.30157962,0.031613257,0.35718948,-0.27403697,-0.2533628,-0.3945176,0.2679406,0.4389996,-0.014550455,-0.4946573,0.3952673,0.2559654,0.041268658,0.24613737,-0.3917215,0.024423644,-0.40659758,0.18867454,0.427274,0.04559538,0.24733168,-0.48950094,-0.015163511,0.20148702,-0.21107964,0.4270487,-0.36576483,0.15961078,0.31013486,-0.49827954,0.3041437,0.009547685,0.31142405,0.075161226,0.056657206,0.009908528,-0.2450506,0.0026570421,0.19057563,-0.069528334,0.46447757,0.4476649,-0.4694691,0.09557519,0.04691337,0.070428275,0.081589475,0.13901429,0.3005741,-0.27671006,0.4396883,0.41901556,-0.3130611,-0.31030223,-0.030562654,0.48121142,0.30504397,-0.35557103,-0.035653822,-0.4406605,0.06268104,0.49634343,-0.3039844,-0.44581318,0.34305602,-0.09789857,0.4522985,-0.43738282,0.42406288,0.031620283,-0.039525516,0.06659837,0.1916972,0.22853877,0.07044075,0.4964877,-0.067693,0.016731804,-0.42681286,0.17516012,0.31166866,-0.17895512,0.15188466,-0.21695788,0.056312557,0.20911351,-0.36688808,0.47953793,-0.2819099,0.13023223,-0.029019257,0.06656918,-0.029252937,0.12237081,0.08102968,-0.099935696,-0.06183223,0.031176178,-0.110691324,0.46316725,-0.0063055963,0.11848345,0.22187749,0.2990654,0.27230945,-0.35117522,0.36562258,-0.10003645,0.30611578,-0.14133374,0.298932,0.4195259,0.05203735,0.30585504,-0.16534498,-0.15315771,0.11815431,-0.15744929,0.20752904,0.2316232,-0.070882164,0.33025256,0.4415979,-0.3179855,-0.0832544,0.10531192,0.022110097,-0.032505006,0.04911248,-0.19316109,0.083170064,0.3842023,-0.10520272,0.25906837,-0.45382676,-0.47486612,0.18817027,0.11349242,-0.015892942,-0.3848209,-0.41053924,-0.46324092,0.18150452,-0.3767714,0.3254972,-0.19121957,0.19023521,-0.26720068,0.4688168,-0.2985407,-0.08587987,0.33405837,0.1016031,0.1391751,0.19158545,0.071366064,0.48496482,-0.31558472,-0.10329382,-0.32825387,-0.20999603,-0.3934115,0.2791213,0.49481657],"bias":0.089369394},{"weights":[-0.019562483,-0.136484,0.2828653,-0.43114066,0.40437388,0.10744891,-0.38014126,0.40839612,0.4910128,-0.3532431,0.0069134827,-0.010886995,0.06348581,0.48120245,-0.15152352,-0.19054948,-0.077920936,0.3557434,-0.41516602,-0.36989212,0.14246455,0.3540889,0.29548335,0.08761344,0.20471314,0.32256293,-0.2617017,0.48191512,-0.48234558,-0.17433032,0.4471135,-0.027068138,-0.44990826,0.4462933,0.20431171,0.22472906,-0.244716,0.31372747,0.14605986,-0.22067973,-0.033023253,-0.24871437,0.38632342,-0.17093676,0.16572396,-0.37501144,0.25316346,-0.26660573,-0.20953144,-0.21171932,-0.19510086,-0.031602826,-0.3984803,0.2426689,-0.2550925,-0.4131831,0.12743881,-0.17604622,-0.16278766,-0.37844822,-0.17803292,-0.23271164,0.20221248,-0.21788603,0.3486118,0.1947241,-0.12767722,-0.3050206,0.2215832,0.3990839,-0.29201108,-0.47152647,-0.41674128,0.36131567,-0.13673033,0.44665584,0.45260957,0.00006941001,-0.15583846,-0.38735548,0.067999735,0.49751616,-0.48518145,0.20299295,-0.19925746,0.18244675,0.48138183,0.20736372,0.30457473,-0.13295302,-0.17803459,0.14907177,-0.46731296,0.19742763,-0.3535474,-0.0077693686,0.1457918,0.314473,0.05593036,0.16288804,0.4097359,-0.29847032,-0.36725253,-0.34847772,-0.47927174,0.41857,0.17713597,0.2258074,0.06764505,-0.38008583,-0.48997632,0.33990574,-0.012327997,-0.19655767,-0.32171798,0.16433464,-0.27709302,0.25745916,-0.38390175,-0.21324003,-0.047211673,-0.41708213,-0.24616754,-0.22403976,-0.17184784,-0.25077602,0.054691773,0.12758234,-0.25394496,-0.3657775,-0.28473797,0.43316677,0.11381167,0.42417645,0.080688566,0.27384824,0.044397496,0.39101058,-0.46023664,0.27416396,-0.13105676,-0.29288697,-0.44992208,-0.22206856,-0.026369093,0.10131315,-0.018193586,0.10618737,-0.29168263,0.101802856,-0.03367307,-0.3530736,-0.19668138,-0.4130226,0.028354935,0.3041907,0.084915645,0.216821,-0.1088794,-0.105962336,0.0037732043,-0.13226612,0.24421582,-0.33926055,-0.31285998,0.18788014,-0.20804206,0.31755683,-0.30073035,-0.012206149,-0.175312,-0.26495945,0.4700653,-0.0525642,0.48158902,-0.012704942,-0.1047884,0.37986457,-0.46286365,-0.17466779,-0.112335235,-0.2716567,-0.3588529,0.08417102,0.037686348,0.053954806,0.066828914,-0.16512354,0.24032508,0.29102173,-0.16676854,-0.18390884,-0.37338722,-0.15947735,0.23604846,0.2789675,-0.26182067,0.14068905,0.44795832,0.373876,-0.1131739,-0.20322973,0.13960546,0.06429811,-0.36162028,-0.03191813,-0.38886184,-0.30337745,-0.2944401,-0.22509657,0.48061907,-0.081376515,-0.30644217,-0.0042752484,0.4764041,0.29885647,0.35526866,0.23423289,0.09463302,-0.3730427,0.23698233,0.35039237,0.15939799,-0.43292952,-0.09122187,0.003686933,0.49548492,0.13829406,-0.09030402,0.18831664,-0.35731733,-0.061844017,-0.0036998063,0.42242706,-0.19861172,0.11588776,-0.1128337,-0.12968859,-0.056372005,-0.2706295,-0.15369186,-0.47774068,0.17980617,-0.40714273,-0.0058102207,0.39732328,-0.35087734,-0.44798458,-0.090646535,-0.20711246,0.13928439,-0.04266381,0.2134512,-0.27260754,-0.1649648,0.26037017,-0.21702853,-0.20484203,0.14040606,-0.16863085,0.02670057,-0.44689414,-0.19520032,0.27769828,-0.24299867,0.001103669,0.4091808,-0.42900625,-0.18716075,0.39729145,-0.40685728,-0.111567385,-0.27669612,0.30467108,0.3627744,-0.11390703,-0.439062,-0.29200482,0.365306,0.491929,0.1255597,-0.41964644,0.3640322,-0.41352868,-0.24633463,-0.21622726,-0.2695848,-0.498028,0.17293338,-0.0114798965,0.30944005,0.2378153,0.0292791,-0.051354248,0.39876062,0.24151683,-0.009794574,0.21949576,0.23657666,-0.13558535,0.35604605,0.12676086,0.16349028,-0.051654845,0.070656285,-0.071012855,-0.4845611,0.27665925,0.32146385,-0.3225459,0.08524008,-0.46037298,-0.37873152,0.02153345,0.012005788,-0.11357601,-0.15765986,0.39739,0.22627257,0.07373096,-0.314641,-0.46350667,0.38294306,0.057595823,0.23891208,0.4674327,0.32143635,0.27541918,-0.43722406,-0.31554565,-0.13498987,0.28028822,-0.023768555,-0.12495269,0.1303838,-0.15794572,-0.12723972,0.18214679,0.2503936,-0.079458654,0.47530684,0.004175868,-0.057968933,-0.36404237,0.43755695,-0.47628218,0.4605783,-0.108283736,-0.49251541,-0.39703473,-0.08667889,-0.056346487,-0.24217239,0.17272945,-0.32164052,0.2804183,-0.34364116,0.29728287,0.14092807,-0.18965161,0.31109762,-0.12795319,-0.13806504,0.29487333,-0.13693582,0.34275162,-0.17689382,0.12739009,-0.1740176,0.2916002,-0.06913906,-0.22866014,0.083901264,0.41275835,-0.38617533,0.21796381,-0.04924824,0.20830815,0.12944129,-0.16779605,0.1289647,0.40723217,0.1470933,0.42169642,-0.46368694,-0.12946998,0.1215558,0.047287684,0.05503609,0.14706495,0.05804564,-0.48827645,-0.10069587,0.15577202,0.4866281,0.20675561,0.3707981,-0.26601607,-0.35000515,-0.2295756,0.41500974,-0.2918389,0.13772519,-0.45051873,0.3552811,-0.10792167,-0.12407015,-0.35243917,0.41112927,0.49783668,-0.17856897,-0.3355668,0.29555953,-0.23535816,-0.18439698,-0.47550794,-0.43706614,0.37477088,0.06681961,-0.12021193,-0.29302204,0.23657551,-0.402173,0.38107336,-0.12232921,-0.3492883,0.13552615,-0.2189344,0.46444684,0.25478438,-0.3033986,-0.18668778,-0.0060176062,0.3074556,0.024374185,0.2852933,-0.36638877,-0.08727759,-0.33340427,0.3782763,0.3777949,0.09780855,0.048604827,0.049725864,-0.37660682,0.09424645,0.19484866,-0.19238406,-0.036921475,0.3712535,-0.03124866,-0.17456865,0.42498744,0.08432239,0.067756355,0.24967211,0.114216976,0.0345532,0.19231871,0.40158272,-0.37860152,-0.2229208,-0.48093024,0.06694298,0.45093593,-0.35370153,-0.06112319,-0.42246693,-0.36160922,-0.2021723,0.17649752,-0.44359866,-0.26820132,0.02067288,0.24767949,0.062191747,-0.17179629,0.44599715,-0.32179645,-0.34602475,0.1240608,-0.03715225,-0.41435516,0.4254087,-0.219685,-0.43238857,0.03768989,-0.16051431,0.36931673,-0.0033018524,-0.23669577,-0.308246,-0.2328639,-0.10116535,-0.1613465,-0.39527193,-0.10678913,0.33986726,0.29405,-0.054344155,0.31405017,-0.13994946,-0.16443412,-0.1464369,-0.02522493,-0.41521513,-0.19116417,0.18797405,-0.06858192,-0.07343354,-0.45797548,0.09494622,-0.00846161,-0.27289015,-0.32198626,-0.10958635,0.22645739,0.13037659,0.35723728,0.08402487,0.23978786,0.11238568,-0.2818119,0.19287744,0.34944877,0.31282794,-0.3258544,-0.04796887,-0.04231116,-0.26880658,-0.32888064,0.06945619,-0.019793272,-0.23340566,0.19814567,0.38241506,0.023504987,-0.13204119,-0.15758453,-0.088523425,-0.3076639,-0.08808073,-0.18099865,-0.08013277,0.4486492,0.07994381,-0.1214581,-0.18899776,0.29726413,-0.46633464,0.2873231,-0.37883654,-0.2520829,-0.15108976,0.47926104,-0.15562765,0.37277558,0.06392165,0.38933212,0.44956076,0.2557503,0.327593,0.33922687,-0.4557155,0.13640477,-0.40340382,-0.35045338,0.040674232,0.18131761,-0.13088079,0.19106436,0.37657604,0.094289966,0.27585965,-0.060663797,0.46333617,0.45401278,0.011396801,-0.34320104,0.41375473,-0.24786918,0.17408225,0.10747341,0.2020087,-0.039477713,-0.28834897,-0.4232818,-0.41061527,0.23132877,0.28539094,-0.49893805,0.05036634,-0.09910563,-0.47804892,0.44472057,0.069260016,0.010598188,0.41084677,-0.3630313,-0.31413397,0.05286307,0.15240797,-0.28897923,0.35318866,0.15418963,-0.31335828,0.25467455,-0.42790264,0.39305195,-0.41054592,-0.29506022,-0.41220987,0.13630678,-0.11597601,0.27541158,-0.47136614,-0.17350216,-0.44095656,0.42393005,-0.46913502,0.41592786,-0.25501302,-0.37984514,-0.38549295,0.20275651,0.031696524,0.4588465,0.24629804,0.12592721,0.23461854,0.03204617,0.11030537,-0.20697732,0.14411044,-0.11408686,-0.4617675,-0.20154664,0.27087787,0.11564936,0.30604756,0.3444012,-0.41687474,-0.42594936,-0.36299717,-0.0012311772,-0.22465286,-0.4465151,-0.33243874,-0.42038354,0.46560895,0.038604807,0.46273896,-0.121651806,0.05511767,-0.033448435,0.12785535,0.041898083,0.4748705,-0.14396314,0.22926882,0.18518497,-0.15462077,0.2892857,0.2300186,0.38343862,-0.20659342,-0.13595562,-0.02720448,-0.43363985,-0.09630831,-0.07216147,0.39763665,0.41446066,-0.15139171,0.17565829,-0.22778453,-0.4011075,-0.08919119,0.24172686,0.07815433,-0.0021928973,-0.28347182,-0.4180956,0.32280976,0.29622725,0.34121206,0.48747548,-0.4654113,-0.23850036,-0.01722561,0.42391005,0.1999601,-0.008583486,0.123098746,0.072073236,-0.19749695,-0.14505835,0.45707712,-0.06490761,-0.15395221,-0.12334373,-0.4680978,0.33405396,0.059468217,0.4454017,0.4395688,0.28826553,0.09439228,-0.1257799,0.21855348,0.35834822,-0.18655418,0.48817843,0.23766017,-0.21556008,-0.18806736,0.20059219,-0.11569937,0.34097785,0.006336912,-0.31601602,0.33448675,0.12326473,-0.17089668,-0.0840487,-0.241846,0.19341093,-0.32116556,0.3334447,-0.25364017,-0.082029484,-0.36012256,-0.37140915,0.1317074,-0.4429782,0.42754772,-0.31719583,-0.28713664,0.3812884,0.18860094,-0.41489914,-0.052186146,0.10440005,0.4655509,0.13254389,0.052091576,0.2317155,0.01282347,-0.13770273,-0.47583148,-0.19229746,0.34385496,-0.13859506,-0.17098019,-0.45856357,0.100350834,-0.20148298,-0.4746809,0.23349646,-0.12005057,0.27733922,-0.3576142,0.4269481,0.16354732,-0.110816136,-0.38091186,0.124082364,-0.17056568,-0.47685847,0.28393817,-0.29413703,-0.13237797,-0.4547575,0.20988287,-0.18019657,-0.21013369,-0.12314858,0.21228835,0.4530878,0.45977324,0.034160044,0.04976609,-0.04293296,0.121888734],"bias":0.43137035},{"weights":[0.47680405,0.19768816,0.4890994,-0.046352856,-0.45471856,-0.29188702,0.12860604,-0.2610757,-0.1296117,-0.38768885,-0.37202916,-0.057705753,-0.3456916,0.35864636,0.112568796,0.22720763,0.2776027,0.5066554,-0.1549694,0.4691004,0.37534252,0.13004175,0.20038432,-0.10002515,-0.18518311,0.26202717,-0.047039747,0.36653998,0.061469194,-0.4560276,-0.3561364,0.4974954,-0.3636345,-0.30807504,-0.17888525,-0.005012217,0.35786673,-0.12352132,-0.3485625,0.032039154,-0.10210937,-0.4891972,-0.45423752,-0.33145759,0.058165357,0.29244348,0.23608638,0.20384648,-0.13913307,0.45646808,-0.45358267,-0.041789293,-0.27853212,-0.032809496,0.36068514,-0.078406826,-0.28948244,0.43311253,0.23633581,0.4105988,-0.22526652,0.24402207,0.014098291,0.3298257,0.2943665,0.09701301,0.3895832,0.10511095,0.39752322,0.3391257,0.07483941,-0.22369489,-0.40600833,0.33786172,0.25607866,-0.19416273,0.15744537,0.19605869,-0.3613939,-0.003733324,-0.37890887,0.18919477,0.3806409,-0.36866865,0.24575725,-0.33267495,0.20941615,0.045355946,-0.30046126,0.43640473,-0.493819,0.32336932,-0.014781726,-0.16441582,-0.56587493,0.05365117,0.062734984,-0.19695246,-0.160377,0.14675306,-0.4085539,-0.10750552,-0.22883584,0.29703912,-0.3067473,0.42619997,0.028222399,-0.38581404,-0.4613471,-0.43155733,0.44963363,-0.12176721,0.31521788,0.42516124,0.48742568,0.25106296,-0.43483895,-0.102337,-0.049041107,0.13846554,-0.2523565,-0.5514351,-0.42354012,-0.078808635,-0.50155616,-0.3937109,-0.21441345,-0.32081145,-0.1143288,-0.37503293,-0.5062579,-0.23375365,0.4497238,-0.45090875,-0.18124533,0.4125755,-0.34593698,-0.21318662,0.25157157,-0.17904347,0.33668903,-0.3534678,-0.2047925,0.07062271,-0.058685325,-0.3797151,-0.09387045,-0.49524647,0.2633967,-0.5507058,0.16280001,-0.40806592,-0.53493035,-0.21111327,-0.4947005,-0.18349332,-0.7474423,0.12743537,-0.5943303,0.35083094,0.3609664,-0.32982975,-0.08565779,0.26436424,-0.15429793,-0.04686635,0.33074236,0.318687,-0.033948034,-0.1232341,-0.48317802,-0.33880162,-0.18333755,0.44666854,0.07568419,-0.38062793,-0.3883083,0.14243248,0.24736078,0.027980218,0.2656755,-0.08228856,-0.34911454,0.11826759,0.2341232,-0.43260348,-0.2700425,-0.34292454,0.028707556,0.014236468,0.64501506,-0.24525677,0.33750346,-0.32339138,0.2913161,0.11247714,0.34251848,0.29391068,0.47821945,-0.24942225,0.27261278,0.13287087,-0.403938,-0.53579056,0.26924655,0.016125219,0.029768765,-0.14688401,0.022577805,-0.032875948,0.16501427,0.6343952,-0.23808834,0.36164477,0.655106,0.55779296,0.40286884,0.4059385,0.20293644,-0.09676456,0.46937892,0.064137965,0.29931003,-0.06420861,0.48784545,-0.09058009,-0.120168075,0.07103597,0.055327132,0.31704536,0.31411293,-0.4014165,-0.34508905,0.67298716,0.28780067,0.23332977,0.8161605,0.68119377,0.72820216,0.40298834,0.5385495,0.24785711,-0.0061118845,-0.07775954,0.32446682,0.41517943,0.414891,-0.025236782,0.5774884,-0.19514869,-0.22818102,0.049171254,0.48641935,-0.19075945,0.50568545,-0.18894026,-0.45109975,0.44307807,-0.018204125,0.4073694,0.6702846,0.2802969,0.5998499,0.22074476,-0.13128,0.6086884,0.84390736,0.14119838,0.6005719,0.09317613,0.39786112,0.43030232,0.42437363,-0.093061656,0.51396716,0.7427816,-0.079601094,0.24724922,-0.34560862,-0.011772222,-0.028747048,-0.16685604,0.51520276,-0.3670288,-0.29807293,0.13086648,0.20211487,0.011347463,0.094903044,0.535372,0.72411364,0.5191544,0.5174999,0.21771045,0.9352499,0.32001704,0.25142485,-0.5429856,0.22287439,0.16023578,-0.04659027,-0.082283944,-0.30494365,0.50858486,0.59061605,-0.15897131,0.48626488,-0.4527541,0.27186307,0.49145794,-0.0089676045,-0.30134687,0.12882762,-0.34550127,0.56536263,0.08071855,0.2681117,0.1540818,0.258408,0.16209577,0.15209536,1.0103393,0.789223,0.25461373,0.0010097864,-0.27515495,-0.48023748,0.28433567,-0.24519284,-0.3128721,0.15911758,-0.10134431,-0.3148653,-0.39470077,-0.0404277,-0.06741454,0.3016986,-0.23229335,-0.2659257,-0.4043857,0.2957359,-0.06101366,-0.13587613,-0.16057073,0.43897676,-0.05893883,-0.016591635,0.14745879,0.7294874,0.11781626,0.70180994,0.39633894,-0.4793947,-0.03677657,-0.30372036,-0.22562762,0.17106494,-0.0033768285,0.1284827,0.3209399,-0.14531007,0.078922674,-0.036327615,0.24004436,0.44389328,-0.18637961,0.020155117,-0.2929662,0.13170312,0.21563762,0.36362258,-0.33880442,-0.03837106,0.10809925,-0.46471822,0.39856616,-0.13968804,-0.17022769,0.68812615,0.102835655,-0.0937582,-0.19203207,-0.13619596,-0.44506845,-0.3201985,-0.28000927,0.17487232,0.20793065,0.3001027,-0.24345289,-0.37739092,0.47034338,-0.075082555,-0.03375843,-0.4205653,-0.22321369,-0.27581716,-0.40678057,-0.2738356,-0.50695413,-0.11565744,-0.4708863,-0.16515155,-0.3764824,0.039593052,0.08374294,0.24820758,-0.41986743,-0.107951246,-0.7850115,-0.6046933,0.34291312,-0.41772714,-0.21367976,-0.36252785,-0.4653659,-0.20427525,0.046487145,-0.038587913,0.44237703,0.2758474,0.16286415,-0.36019182,-0.31055787,0.24854076,0.24488534,-0.056587264,-0.767578,-0.51079595,-0.45279446,-0.49518827,-0.28836375,-0.78848326,-0.299899,0.07442301,0.082412794,-0.39153883,-0.020396674,-0.02967001,-0.5607112,0.3981046,-0.3017806,0.13968109,0.37931806,0.3711813,-0.11380744,0.29861572,-0.4819392,-0.29264364,-0.46445376,-0.11959647,0.0038069068,-0.27064407,-0.08328506,-0.92476237,-0.33395597,-0.7250509,-0.43385682,-0.6243072,-0.7972107,0.040078156,-0.6105721,-0.6164939,-0.39958864,-0.5908189,-0.5260581,-0.06495175,-0.141812,-0.40905845,-0.006711678,-0.048199825,-0.026272662,-0.5452527,0.42307466,-0.15592849,0.024329249,-0.40075204,0.20937204,0.31717983,-0.106384814,0.095056124,0.12364681,-0.494517,-0.8453853,-0.28914055,-0.6898199,-0.82242644,-0.9904231,-0.28963026,-0.09538694,-0.2535394,-0.75869495,-0.78938776,-0.19347009,-0.08305167,0.2276224,0.11328151,-0.27399716,0.13657653,0.21852146,-0.15435515,-0.27045038,0.037052233,-0.46646506,0.2047549,0.04882127,0.21311627,-0.26114628,-0.4080189,0.12289789,0.1925581,-0.2218445,-0.22428274,-0.20287658,-0.46773243,-0.1976246,-0.09211045,-0.62802285,-0.716435,-0.6380462,-0.61665165,0.18903004,0.07223126,-0.15026793,-0.25994736,0.08266834,-0.3682866,0.14802252,-0.6354045,0.21045546,-0.2247572,0.21903238,0.4230354,0.23693563,-0.06669807,0.40598264,-0.37641925,-0.22250983,-0.3541737,0.25448737,-0.612787,-0.05406925,-0.5217424,-0.5172793,-0.39921618,0.06114567,0.3003494,-0.40495333,-0.24288847,-0.53704786,-0.6257414,0.20216547,-0.28422278,0.13520315,-0.44369656,-0.5627303,-0.16524047,0.12164869,-0.31505862,0.32530302,-0.123279266,0.41748172,-0.37885612,0.043176193,0.08686333,-0.513318,0.23857342,-0.05700075,0.43101636,0.2069883,-0.08646391,0.237473,-0.2961514,0.32872728,-0.37410578,-0.5186837,0.013493992,-0.6521949,-0.3418236,-0.10283184,-0.44643468,-0.5567415,0.025305437,0.12773997,0.18323404,-0.51192683,-0.32602412,-0.07383546,0.04836058,0.15249416,-0.038582698,0.38677093,-0.11995881,0.046579998,-0.14171864,0.5659104,-0.15888712,0.3133835,0.10094493,-0.06516307,0.5793713,0.25860262,0.5125251,0.3702326,-0.15505295,-0.05838405,-0.34403846,-0.545754,-0.71968746,-0.24435069,0.1412148,-0.48768046,-0.33346534,0.04619543,0.20961572,-0.24690293,-0.043308727,-0.18376237,0.4267008,-0.21659076,-0.2936764,0.27790675,-0.21688226,-0.23809084,0.048033662,0.6319792,0.22087732,0.699078,0.25215465,0.6053675,0.018448222,0.44533738,0.54624796,-0.14921243,-0.36819392,-0.27350166,-0.027320571,0.25442454,0.2326013,-0.13828982,-0.37880224,-0.052331157,0.19059752,0.02304446,-0.16052324,-0.3760477,0.3886162,0.3271195,-0.23865162,0.17155552,0.06467691,0.2761269,0.026408803,0.6548195,0.68063956,0.60559464,0.40830263,0.34600365,0.8904023,0.49912116,0.35397923,0.51080006,0.13189845,-0.038345184,0.056692474,-0.07454118,-0.21002284,-0.22203985,0.35279638,0.41445112,0.38362592,-0.43947217,0.15002605,-0.36955032,0.39245644,-0.049371213,0.3340436,-0.32181758,0.5046258,-0.03270498,0.29320192,0.078467496,0.3963387,0.5256317,0.056230225,-0.06838139,0.4159068,0.42457464,0.23123766,0.3956353,0.4493221,0.28402776,-0.14920463,-0.2534158,0.36918014,0.31201988,0.31578547,-0.43407354,0.43108737,-0.28905532,0.26297298,0.14692342,-0.43909845,0.37523368,0.21065968,0.3738224,-0.12130336,-0.02581248,0.05845255,-0.32919216,0.15389577,0.33631057,-0.028136702,0.57097787,0.43359518,0.087902576,-0.3002897,0.07695203,0.03777448,0.31762177,0.012577955,-0.14998195,0.4666189,-0.19776243,-0.3798805,-0.15186918,0.43552598,0.24365973,0.40750244,-0.15220135,-0.09472896,0.3461677,-0.11486587,-0.3993783,-0.43286976,-0.14571413,-0.40576038,-0.27672023,-0.35023177,0.33567035,0.026247963,0.108663954,0.4585324,-0.33119985,0.32323545,-0.40625048,0.213918,0.052258756,0.39113876,0.052086253,0.29255962,-0.18882596,-0.4421176,-0.39860675,-0.3778716,-0.28978834,0.22034484,0.38736466,-0.34255692,0.31979945,0.354288,0.010901599,0.13621579,-0.24361025,0.34441638,0.4548344,-0.4472782,-0.18742631,-0.18517847,0.0125683,0.42488137,0.28127748,-0.352503,-0.20602602,0.1755788,0.31845602,-0.062840246,0.06167559,0.40352264,0.47176334,0.48498097,-0.39843342,-0.03856013,0.1605925],"bias":-1.0621809},{"weights":[-0.38307652,0.038222834,-0.15670912,-0.16882996,-0.1799256,-0.20796363,0.44340292,0.19028969,0.362412,0.10307702,0.014955919,0.15439121,-0.4324365,-0.35193387,-0.00603239,0.47412574,-0.06310215,-0.10554188,0.35354605,-0.025803452,0.4925193,-0.052001648,0.112570964,-0.34556744,-0.40575024,0.08536639,-0.44090375,-0.11156719,0.33906177,0.47180966,0.061924204,0.061969705,-0.31842014,0.4600545,-0.3821884,-0.42279136,0.38750103,0.4768752,-0.042440638,-0.0051139756,-0.17773397,-0.03342258,0.48586977,0.267064,0.17032231,-0.3672049,0.14924102,-0.41404364,-0.3543856,0.14914717,0.47583964,-0.36311278,0.05650408,-0.4059038,-0.43244383,-0.059633642,0.17602594,0.18420537,-0.32617733,0.035527617,0.3688521,-0.34143218,-0.21698599,-0.2990171,-0.5042046,-0.4472432,-0.19623072,0.29564506,-0.37222457,-0.27986342,0.21165976,-0.3552795,0.3142773,-0.1888454,0.13554937,-0.31418338,-0.04185398,0.3761383,-0.0069039282,-0.46651414,-0.25023118,0.05096323,0.30696395,-0.43124005,0.14455135,0.48458102,0.30262926,-0.17805438,-0.22071463,0.2745738,0.30699646,-0.06217559,-0.26893938,-0.13788326,0.023448955,-0.45282903,-0.13094117,-0.60389394,-0.525026,-0.0015588516,-0.8335211,-0.016955629,-0.6904207,0.10270734,-0.47225374,0.38078585,0.3198271,0.17036696,0.44101408,0.24306154,-0.47449028,0.4742873,-0.081262626,0.15996797,-0.111658,0.4267145,-0.21631685,0.13531591,-0.17630793,-0.2288441,0.0077272346,0.17052099,-0.47589692,-0.024053046,-0.6285669,-0.0658512,-0.2557273,-0.17505665,-0.3688015,-0.3361257,-0.045277752,-0.42907375,-0.0799326,0.51785845,0.062088598,0.2267243,-0.06270062,-0.15425786,-0.3360508,-0.40066358,-0.24833436,-0.066424735,-0.4289432,-0.22541267,0.05296879,0.29742804,-0.59745646,0.10038702,-0.30814496,-0.62735474,-0.420016,-0.52825195,-0.38503024,-0.6970265,-0.024564546,0.061648943,0.20859897,0.19595441,0.49355176,-0.17476366,0.26660812,0.19377762,0.17835586,-0.047650937,0.34087637,0.17603375,-0.42517266,0.11935685,0.022094766,-0.063331835,-0.30346972,-0.4402867,-0.40774316,-0.030837206,-0.14881502,-0.6268934,-0.29298452,-0.5408176,-0.22188699,-0.27109635,-0.5574156,-0.058266312,-0.12141167,-0.50131154,-0.15480354,-0.3626637,0.17815529,0.04117761,0.7501901,0.55056006,0.3882161,0.7981518,0.74484205,-0.15931416,0.45406,-0.30430666,0.14695312,0.36722073,-0.19440502,0.3025531,-0.2003113,-0.5871694,0.02848403,-0.47676033,-0.033406164,-0.3838852,-0.3967927,0.085767485,-0.2849705,-0.44859955,-0.032220952,-0.4037488,0.006369387,0.12645252,0.45881382,-0.1562135,0.59866774,0.6992585,0.92879665,0.25335166,0.2763337,0.50351715,-0.24122734,0.058322012,0.46627644,-0.14726485,-0.30327073,0.18161362,-0.28722674,-0.3101215,0.20060869,-0.24498995,0.35003722,0.20561674,-0.040365055,-0.0037878116,-0.097646534,-0.8330163,-0.31215805,-0.783561,-0.10223147,-0.36440998,0.3214585,-0.0556965,0.30800092,0.47027507,0.089640446,0.5383266,0.39098674,0.40062502,0.2848797,-0.4531919,-0.35096762,0.026021563,0.071295686,0.1183522,-0.4327941,-0.5875931,0.17806606,0.5000125,0.017818898,0.5640046,0.378511,0.48205328,0.26856616,-0.5325335,-0.14261048,-0.6644123,-0.19971032,0.093628004,-0.026557148,0.22213525,0.30056304,-0.29561192,0.079913214,0.107246816,0.14807191,-0.054309454,0.5160498,-0.29201373,0.21200828,0.46272457,0.3593683,0.08529914,0.067840315,0.32876575,-0.094131,0.7444152,0.73142254,0.23438558,0.3681801,0.6316618,0.8204346,0.2789259,-0.4079385,-0.5583533,-0.46126044,-0.72645676,-0.3340356,-0.38561776,0.33600795,-0.26119435,-0.2920716,0.041022483,0.53447896,0.40181258,0.029535659,0.39733765,0.45545754,0.37695205,-0.14838615,-0.14709798,0.14769109,0.43244058,0.36258984,0.020146254,0.8961013,1.0658693,1.0220846,0.8120806,0.9690583,0.25287375,-0.107073076,-0.26984382,-0.4162469,-0.40362406,-0.16977978,-0.23211806,-0.15055935,0.25742605,0.22678,0.30009538,0.16526659,-0.07011948,0.4061717,0.15638857,0.024594055,0.013648024,-0.375426,0.46096298,0.15428704,0.025332026,0.68942267,0.7153581,0.32755524,0.737418,0.48224273,0.49455494,0.43928435,0.5030892,-0.0049369377,0.16023703,-0.2767404,-0.23284073,-0.36363882,0.036571495,-0.09312996,0.20075132,-0.52018857,0.3716343,-0.36517462,-0.17094067,-0.26703706,0.18575706,0.06406859,-0.015179159,-0.099259116,0.2999344,0.42386,-0.08132495,0.16839129,0.15124603,0.43886477,0.75692886,0.68630695,0.058885597,-0.015606387,0.18602934,-0.35523254,0.2016041,-0.68312013,-0.7107495,-0.6669831,-0.23509148,0.023567313,-0.46068347,-0.027338952,0.25964826,-0.23529333,-0.22417565,-0.14772929,-0.017584354,0.2986193,0.4457104,0.41632277,-0.13564336,0.25118494,0.4536037,0.045037035,0.7685615,0.4995103,-0.15495938,-0.047257427,0.5658114,-0.26523247,0.206407,0.40292856,0.09773465,-0.40999344,-0.6453644,-0.28523442,0.042931605,-0.1799954,-0.42615297,0.15999839,0.21997327,-0.21995586,0.017427592,-0.17251228,-0.3358334,-0.061915953,0.33315757,0.44049355,0.22767855,0.2827961,0.5296337,-0.21946672,0.63452625,-0.08262685,0.27789375,-0.22437467,-0.013352091,0.09193161,-0.22187291,-0.41621575,0.028116124,-0.3104061,-0.64238137,-0.14069752,-0.36165938,0.1603665,-0.30123633,-0.3881994,-0.022257267,0.28942403,-0.45472243,0.38156235,0.44248554,0.38657728,-0.43739972,0.2878648,-0.42121935,0.38833043,0.3697151,-0.02931834,-0.042405732,0.06166042,-0.16501322,-0.21693943,0.619271,0.64479375,0.62010646,0.2920422,0.17126319,0.08174954,-0.48060927,-0.28421667,-0.3411157,-0.863642,-0.07044356,-0.044946596,0.16253924,-0.31271973,0.1472241,0.079765156,0.07106261,-0.4836208,0.36310074,-0.40451863,0.23004262,0.17751211,0.21805225,0.3401139,0.30191135,0.21829267,0.10669298,0.20352107,-0.24109167,-0.07837699,0.23593919,0.17128907,-0.116231374,-0.14104049,-0.4917327,-0.0017285837,-0.87672985,-0.30530384,-0.05112845,-0.22050472,0.01669155,0.104630165,0.04142209,0.07277692,-0.07497153,-0.27898517,0.29323754,0.3239835,0.33518144,0.091375776,0.073091865,0.16349134,-0.3309252,0.28601405,-0.38426173,0.058054823,0.33689848,0.04803462,-0.11350738,0.13406731,0.049355365,0.05708856,-0.2500432,-0.28240815,-0.54867923,-0.4971899,-0.053878848,-0.35510585,-0.56910104,0.34195417,-0.28454468,-0.15664554,-0.30383828,-0.21914957,0.15251811,-0.14705442,0.28623328,-0.18002962,-0.014823855,0.33041593,0.1853783,0.40004382,-0.15511969,0.35219976,-0.48170507,0.23090342,0.0021207358,0.16657668,-0.49976406,-0.3217162,-0.49649537,-0.7049733,-0.29173937,-0.28345105,-0.19443008,-0.031132003,0.3359689,0.43332538,0.47403106,-0.035159163,-0.3923656,-0.3057706,-0.43334523,0.11044242,-0.62472105,-0.30769238,-0.45257372,-0.5197202,0.27570394,0.4172789,-0.2788414,0.2297745,-0.08263972,-0.5665399,-0.41997075,-0.13365301,-0.53305846,-0.5636508,-0.6410769,-0.07584255,-0.29879934,-0.4546328,-0.49214855,0.0744373,-0.48911545,-0.2570472,0.4829774,0.45097002,-0.43171695,-0.40777382,0.33013585,-0.009315571,0.08238772,0.03514754,0.15468587,-0.05577602,0.020293167,0.3586468,-0.09178528,-0.09074235,0.06487151,-0.002463887,-0.50509256,-0.21211646,-0.5957129,0.12743634,-0.2318665,0.0075438726,0.47398674,-0.39054897,0.10701914,0.18275525,0.1890996,-0.5037443,0.4021801,0.44514418,-0.45792815,0.18860991,0.2316397,-0.41069826,-0.3862737,-0.40689147,-0.5062965,-0.31742883,-0.00069376803,0.07864162,-0.32204685,0.37874332,0.63083583,0.02448611,0.67543983,-0.16117105,0.65222555,-0.14390017,-0.045313187,0.050521865,0.20461035,0.1610668,-0.34500384,0.36315462,-0.48073712,-0.24855462,-0.33494374,0.39858338,0.39995018,-0.24842186,-0.26726088,-0.24998735,-0.43166327,-0.44257602,-0.40197113,0.06615196,-0.074406944,-0.38010234,0.30857497,0.04398795,-0.06716303,0.20668453,0.4190928,0.5440397,0.059613355,0.38786563,0.72679335,0.11959129,0.2502553,0.22888999,0.1797618,0.44387978,0.11789504,0.2954271,0.42199528,-0.40867302,-0.1957889,0.085108645,0.40695634,0.4544705,-0.19558404,-0.4128568,-0.19082785,0.10332381,0.19044061,-0.76368237,-0.24916781,-0.16969115,0.042066433,0.13733236,-0.32199204,0.15151253,0.38940778,0.31077212,0.23056017,-0.23578344,0.56038016,-0.31041512,-0.025190998,0.4498002,-0.34220234,0.42838404,0.116056465,-0.2246076,-0.16934316,0.31858173,0.19102903,0.47109446,-0.021900052,0.47181636,-0.31683448,0.4050342,0.00016703775,0.050903585,0.08062349,-0.25216597,-0.33814344,-0.6610503,-0.41649517,-0.30722126,-0.037574194,0.12196855,0.3058816,-0.28958994,-0.08335042,0.12616445,0.3057872,0.39667055,-0.40060598,0.14984445,-0.15586953,-0.15822206,0.2501718,0.50508714,0.49628532,-0.12390154,-0.47401336,-0.3927833,0.030162955,0.030740043,0.119390376,-0.21425393,-0.060676415,-0.61017317,-0.3568998,-0.47338367,0.13338605,-0.37783694,-0.29178688,-0.42039725,0.416363,0.35122058,-0.38170737,0.19417036,-0.43226364,-0.3583162,-0.11579596,-0.40095553,0.08290718,-0.22677107,0.11421534,-0.45203397,-0.291481,0.4077691,-0.048237786,-0.4261776,-0.3132328,0.36710104,0.48095095,-0.027956555,0.2894905,-0.115639284,-0.13637224,0.4755277,-0.49187094,-0.09338953,-0.412247,0.13443452,-0.0080942875,-0.40819123,0.4857257,-0.44516748,-0.34864363,0.100284584,-0.070897646,-0.20910756,-0.27907345,0.20774873,-0.050573982],"bias":-0.8880199},{"weights":[-0.24961111,0.43442014,-0.078155175,-0.26213482,0.47027555,-0.07601854,0.47307852,-0.24657074,0.30108133,0.25087416,-0.3962129,0.12424754,0.112968974,-0.1411165,0.09914572,-0.34260285,0.22821197,-0.3195046,0.42302623,0.41821554,-0.20071152,0.46263567,-0.07988143,-0.36837384,0.20162949,-0.40884933,-0.05033244,-0.2924337,-0.33094856,0.21435508,-0.24760443,-0.038147,0.1024555,-0.5044378,0.35118788,-0.11147112,-0.43371302,-0.46019742,-0.28455284,-0.2126891,-0.034457766,-0.061109103,0.25171363,-0.14155294,0.00089131756,-0.51605976,-0.36522913,0.20074601,0.20019771,0.0873992,-0.016225696,0.35626647,-0.4567642,0.40939644,0.27774134,0.37886813,-0.07561369,-0.44348726,-0.49516067,-0.030623902,0.21464862,0.34683853,0.43336767,0.29298237,-0.49570754,-0.03720734,0.235457,-0.02435348,-0.0568505,-0.48163304,-0.5140072,0.4254903,0.4094897,0.17189018,-0.1971422,-0.3882666,-0.27068424,0.46528366,-0.18562064,0.4074523,0.041061465,0.35766828,-0.042807538,0.36966386,0.25063926,-0.010016948,-0.38662326,-0.443733,-0.4030799,-0.29766557,-0.21640407,-0.09310762,-0.13855423,0.20386429,0.40852752,0.07226879,-0.011068767,-0.020800665,0.41413552,0.09495223,-0.30058873,0.25248316,-0.011885424,-0.1347196,0.14827344,-0.01993593,0.18496108,-0.11390474,0.052925568,0.29034346,0.2614104,-0.36220548,-0.066698,-0.45403138,-0.101653084,0.4599153,-0.4636896,0.42630294,0.44518772,-0.36121812,0.18151642,0.30844206,0.0055369968,0.43381873,-0.12609042,0.3674764,0.12518203,0.055816274,0.36166745,-0.26703516,0.32174987,-0.026935251,0.057501405,0.26204476,-0.3562388,-0.24949473,0.29502052,0.04032509,0.44610828,-0.35843334,-0.49516252,0.35055354,0.36524326,0.22218227,-0.07528093,-0.06345835,0.21541603,0.3083387,0.31052,0.21165425,0.3215763,0.035677604,0.2694542,0.118936084,-0.0680136,0.2444,-0.18509856,0.40498814,-0.10643478,0.13089149,0.3459107,0.14710246,-0.552269,-0.523405,-0.5099885,-0.46017265,-0.06587223,-0.005953219,0.25769547,-0.1498521,-0.4777325,0.16154124,-0.08217769,-0.48659152,-0.31805027,-0.34271994,0.16256931,-0.44679087,-0.034617417,-0.07343592,-0.27849278,0.41883707,0.24214129,0.51384896,0.6638004,0.30778712,-0.051003195,0.3013993,-0.56257576,0.09650789,-0.16850168,-0.25357237,-0.012552639,0.3514182,0.17077252,-0.4348969,0.34060815,-0.09811878,-0.06974666,-0.3391925,-0.12784067,0.098194554,-0.19776638,0.028612513,-0.55558735,-0.16315514,0.010965686,0.22459064,0.34729004,0.37682554,0.12631492,-0.016154023,0.59225094,0.06720049,0.34072483,-0.28804317,-0.012907095,-0.57313496,-0.6758348,-0.06396149,-0.35092115,-0.14230259,-0.31186074,-0.35573715,0.02527467,0.17954615,0.18600638,-0.18478535,-0.09305859,0.27565435,0.36098298,0.005852145,0.24404156,0.044085078,0.08073933,-0.13725348,0.018749092,0.78082705,0.79196835,0.81442326,0.43007416,-0.012162636,0.030983064,0.4031235,-0.33577016,0.26483983,-0.5297493,-0.28676093,-0.4008343,-0.3536832,0.004622415,0.13767906,0.21266276,0.25447652,0.20234011,0.28476042,-0.102958545,0.3417122,0.17366992,-0.37654117,0.09451057,-0.24846599,0.6394882,0.55190146,0.0005107697,0.45205945,-0.18222721,0.5041625,0.46129027,-0.0722767,-0.09027395,-0.08994742,-0.34305435,-0.41777164,-0.31778634,0.12780994,-0.4485498,-0.29345924,0.23639409,-0.4184916,-0.5172307,0.051910542,-0.13642038,0.15382527,-0.059876695,0.13934611,-0.33704913,-0.2652934,0.0764592,-0.34808204,-0.10989536,0.3558348,-0.240562,-0.5038538,0.32540327,-0.06300964,-0.31965166,-0.25751364,0.12863447,-0.16413584,0.3231928,0.6575797,0.36210188,0.43170467,0.43204755,-0.25995663,0.45734358,-0.41091833,-0.46434182,-0.13405241,-0.119781904,-0.413815,-0.098841384,-0.12813053,-0.34917986,0.21727307,0.07233722,-0.108150676,-0.07047473,-0.2691049,-0.6582754,0.07167045,-0.778141,-0.705132,0.028985713,-0.19379821,0.19181538,0.5727079,-0.14713904,0.73574615,-0.027182247,0.20372683,-0.33808807,-0.45389226,0.16736835,-0.25237894,-0.4833983,0.056747288,-0.43506008,0.14771482,0.13734554,0.3028594,-0.4935978,-0.01740188,0.035037566,-0.02586817,-0.53423804,-0.25604057,-0.51303995,-1.0070515,-0.90578634,-0.1278635,-0.061883196,-0.590647,0.19684885,0.092325345,0.38572198,0.22421938,0.14572667,0.20238188,0.46687746,-0.42371684,0.2219857,-0.19981678,-0.01658084,-0.4464016,0.35575643,0.43568572,0.44106823,0.36798397,-0.12630475,-0.4049669,0.14584942,0.18808338,-0.7561431,-0.6604457,-0.11764653,-0.1644797,-0.57883245,-0.07639635,-0.5020369,-0.6529501,-0.12628731,-0.0063775876,-0.011880109,-0.21296178,0.05087519,0.010814818,0.24551405,-0.30783638,-0.37136385,0.4578468,-0.092423394,-0.2970386,0.17049167,-0.031317204,-0.257718,0.25548953,0.2545743,0.13659483,0.24481782,-0.39064312,-0.47611687,-0.2920126,-0.49575168,-0.1642187,-0.13634695,-0.2803095,0.009130157,-0.66984946,-0.24596877,-0.15083471,-0.32212147,0.4770643,-0.06128988,0.11770135,-0.46791938,0.36017278,-0.29356313,0.19795263,0.40537658,0.14248738,0.44132853,-0.29995528,0.4264792,-0.25540522,0.14809056,0.108283,0.1282778,0.37286726,0.21167699,0.1920825,-0.6737472,-0.45046884,-0.42919675,-0.5322625,-0.40000194,-0.19281384,-0.45054626,-0.17881443,-0.64855826,0.021122087,0.48092836,0.45761108,0.38492593,-0.48587468,0.37286186,-0.11254951,-0.37606832,0.29076344,-0.28257957,-0.5200413,0.38051075,0.05406166,0.36446387,0.24402002,0.5637491,-0.16246916,-0.079453826,-0.22315753,0.40967855,0.42391026,0.13053118,-0.37969252,0.08570226,0.19428617,0.069190994,-0.55675244,0.27077177,0.0715216,-0.4670311,0.4701243,-0.03610642,0.3502094,0.13241024,0.15407167,-0.022647481,-0.4628476,0.36657074,0.45130867,0.007900576,-0.2620403,0.34431472,0.05325474,0.5412532,-0.15796886,0.523598,0.16974469,0.21751294,-0.3597102,-0.30271807,0.31870213,0.09775476,-0.09340659,-0.4192148,0.12223622,-0.3861403,0.12445647,-0.26979905,-0.20609613,-0.4165613,0.40661094,0.019191034,0.4595532,-0.2075112,-0.21039997,0.46362686,-0.106326945,0.17852572,-0.10659308,0.037093785,0.50736177,0.69551754,0.6935172,0.090150334,0.79580903,0.4954569,0.40163696,0.24732906,0.41273856,-0.108921625,-0.19373699,-0.39216,0.2567494,-0.42314914,-0.1426501,0.5196532,0.58182216,0.1255384,-0.26025286,-0.19337068,0.15687515,-0.42149505,-0.28794298,-0.4546248,0.23045754,-0.22684914,-0.19714527,0.26904792,0.6434015,0.011178318,0.11855797,0.39729178,0.112906635,0.33849603,-0.11046947,0.41910622,0.064675644,0.17278345,-0.17780118,0.12684512,0.078781635,-0.131393,0.33411536,0.61039686,-0.25381356,0.3403842,-0.11063265,-0.30317783,0.4672269,0.015415684,0.2065972,0.049672898,-0.33118242,-0.026194902,0.41536885,0.08863928,0.17537121,0.0313764,0.62814826,0.49315056,-0.04153281,0.16129033,0.39924988,0.28274113,0.27511805,-0.3532905,-0.33353555,0.037920516,-0.37891844,-0.28329802,-0.32744962,0.25489,0.4140027,0.43913907,0.17252013,0.12352033,-0.1303707,0.24203819,0.093832135,-0.43767762,-0.004254401,-0.12611775,0.15091087,-0.11304283,0.1337416,0.30664787,0.21976236,0.53120005,-0.097587995,0.022178357,0.20741364,-0.4346252,-0.44910657,0.20155905,0.042419747,-0.4719465,0.34421077,0.51741517,0.17954765,-0.07482145,0.34424317,0.42140284,-0.2968531,0.001464905,0.035326842,-0.3041741,0.34018648,0.094208546,0.01759315,-0.30459696,0.10520239,-0.008611581,0.38814726,-0.07750942,-0.1948951,0.36585808,0.022072831,-0.3156718,0.0932659,-0.116866164,-0.21151394,-0.2303481,0.31068954,0.00310435,-0.4048404,-0.36923873,-0.15881918,0.113103196,0.19182783,0.38251552,-0.36761516,-0.1292418,-0.39226022,0.24310818,0.3629798,-0.0023638145,0.27225736,-0.084661834,0.38740036,-0.5133393,-0.5050145,0.29900286,-0.36031318,0.45770746,-0.25371677,-0.43055907,0.2791961,0.34793437,0.014073467,-0.4653167,0.11386149,0.28749785,-0.33349758,-0.26248178,0.058148026,-0.49166557,-0.06056412,0.42779604,0.010376481,-0.51426065,0.02841749,0.43157056,-0.046621036,-0.007148577,0.39346933,0.23706532,0.047646366,0.22722624,0.2724475,0.058266457,0.055095512,-0.15258172,-0.43793744,-0.01225502,-0.23804994,0.1873638,0.21426651,0.18401438,0.2919453,0.3143347,-0.4970247,0.25597832,-0.52268106,-0.35978156,-0.3644496,0.25945228,0.43282896,0.058737677,0.045995403,0.32146803,-0.23621383,-0.31604436,-0.1664841,0.4010712,0.028734758,-0.31819767,0.06595322,-0.155803,-0.2721633,0.3571099,0.32929927,-0.13606657,-0.26197398,-0.24378678,0.33213547,-0.0041227783,0.48149914,0.13182509,-0.44086492,0.0058848225,-0.022360798,0.30283663,0.2254966,-0.0291951,0.054139215,0.30167776,-0.24350181,0.10704084,0.29039136,0.07751958,-0.4511436,-0.08818955,0.43828854,0.34159613,0.3830122,0.102431804,-0.30555767,0.19843228,-0.08916335,0.04833813,0.26454467,0.16384034,-0.17033388,0.036584787,-0.2235862,0.26902694,-0.045606278,-0.21372826,-0.28510433,-0.50176644,-0.42045277,-0.3997716,-0.14506854,0.028741922,-0.24478677,0.46650282,-0.436789,-0.23529962,-0.41650864,-0.4022455,-0.10576163,0.2118996,0.4570521,-0.0019231169,-0.4146047,0.07023663,-0.14804943,0.14938042,0.00267875,-0.21652862,0.4363688,0.4802338,-0.043283794,-0.34279543,-0.43652472,0.13545483,-0.5044528,0.011764508,0.32684448,-0.43162033,-0.03832723,0.24779023,-0.10934837],"bias":-0.24985987},{"weights":[0.062196314,0.12395358,-0.41142416,0.22217093,0.41128898,0.4261408,0.31708956,-0.348351,-0.13254298,-0.29541266,-0.33633995,-0.004202171,-0.414572,0.062424242,0.23864554,0.06903958,0.0029833654,-0.2431301,-0.39741135,0.16171812,-0.40676343,0.23469101,0.050731003,-0.45736337,0.0033256153,-0.070730805,-0.25813472,-0.49070787,0.29991722,-0.39813197,-0.22049083,-0.15142061,-0.30718434,-0.31473434,-0.2920698,0.19504975,-0.40465868,0.3698305,0.32250297,-0.26591587,-0.3651018,0.09470463,0.019006977,0.23887604,-0.12575035,-0.38010284,-0.13250484,-0.31434178,-0.49481404,-0.0128853675,-0.16308929,-0.49401438,-0.14014675,-0.05912286,0.16373621,0.046203196,-0.14246239,-0.1341318,-0.26402307,-0.1738335,-0.093787916,-0.4011129,-0.0075370553,-0.27133965,-0.22528043,-0.38162923,0.12341353,-0.49943295,-0.2636809,0.40911424,-0.08803772,0.24604541,-0.12643737,-0.39065945,-0.14823464,0.23725593,-0.40146947,-0.12114876,-0.017784722,0.18411076,0.32216704,0.4716562,0.113490105,0.33718908,0.4608364,0.32790422,0.28814983,0.20243584,0.16973017,0.2836831,-0.45971367,0.1543534,0.40980044,0.4815002,0.034924876,-0.4145683,-0.12259605,-0.29212743,0.33494756,-0.46567604,-0.13881049,-0.24220897,-0.051196568,0.43229347,-0.48558307,0.35364115,-0.10394406,0.29195583,-0.3841312,-0.14493825,-0.07157576,0.029854795,0.22381507,0.16648899,-0.15072681,-0.3772862,0.3611219,-0.19787426,0.071960166,0.3972854,-0.43178952,-0.20099492,-0.30545247,0.4276073,0.18438335,0.34995574,-0.49767286,0.3450694,-0.43306476,0.2666178,-0.38122866,-0.04502424,0.31158388,-0.13966468,0.02276792,-0.3507266,-0.06035523,-0.46242607,-0.0057607223,0.3043269,-0.18209459,0.4901371,0.18771803,0.4568733,-0.18686202,-0.27115136,0.18683115,-0.2912378,0.14504969,-0.19629401,-0.16032654,0.33687127,-0.37750235,0.40271083,-0.37042552,-0.18972051,-0.38456202,0.06986923,-0.23659647,-0.2554938,-0.4533413,-0.24794012,0.4321248,0.37839043,-0.24758343,-0.14789094,0.48835886,-0.3434012,-0.48735178,0.054000318,-0.19390798,-0.4993348,-0.4805868,-0.08541203,-0.08130286,-0.2499109,-0.22829153,0.010383944,-0.24368219,-0.28325754,-0.040803995,-0.119360164,0.22318946,-0.026472224,-0.23379983,-0.40672433,0.21556014,0.3881084,0.0035073494,0.26905465,-0.39995807,0.0007001802,0.014689587,-0.092134684,0.14863424,0.36824858,-0.40991867,0.008053386,-0.0936445,0.32560283,0.42654806,0.33517516,-0.46905598,-0.45377478,0.36410698,-0.30169988,-0.2876131,-0.3979163,-0.20702524,-0.14593479,0.4699527,0.44195417,0.27324316,0.13672265,0.36219898,-0.33457765,0.38919997,0.2691776,-0.19697581,0.12202589,-0.35568792,-0.29215068,0.48619163,0.10225725,-0.173283,0.103637435,-0.06949249,-0.39175278,0.43557692,-0.20230001,0.26980796,0.2510587,0.15064318,-0.00083115196,0.3750906,-0.4889931,0.012305524,-0.0073827235,-0.093683876,0.2627994,-0.4005937,-0.4874977,-0.49218306,0.05932959,-0.48170575,-0.4260059,-0.24286233,0.10650105,0.48019463,0.29068375,-0.31833598,0.21529566,0.25486362,0.13586038,-0.22486757,0.116634615,0.22071771,0.18216945,-0.20713942,-0.29745,0.3394171,-0.42311773,0.31389716,-0.34589794,-0.024015948,-0.187183,-0.4886875,-0.04783505,0.20990507,-0.33850256,0.2974241,-0.17752403,-0.07010638,-0.41403088,-0.2365915,0.27940527,-0.06760944,0.016616067,0.38169685,-0.24691881,-0.20679668,-0.3535184,0.42309105,-0.32420543,-0.22168808,-0.16747917,0.0036575738,0.107097544,-0.30268824,-0.16498199,-0.13482665,0.49694237,0.42385766,0.15309098,-0.319763,0.3398332,-0.10242264,0.35385054,0.3498231,-0.3461409,0.24159206,0.09801349,-0.42741364,-0.30063173,0.16175045,0.41824508,0.4156486,-0.0025650035,-0.2576959,0.35730875,-0.2565824,-0.48151663,-0.10216868,-0.49660742,-0.49718076,0.104355894,0.290889,0.4922185,0.18445668,0.18460903,0.07749365,0.02447788,0.19780481,-0.19388641,-0.16809537,-0.17994429,0.3261482,-0.41684973,-0.3860717,-0.11908379,-0.45604205,-0.3497791,-0.07332051,-0.000086160886,0.27936053,-0.058515016,0.47885442,-0.09237576,-0.49443352,-0.23861185,0.1310965,-0.40345228,-0.048493683,-0.47020087,0.3588536,-0.07667539,0.2860036,-0.30898908,-0.48428372,-0.19661981,0.20976123,-0.39785886,-0.25559244,0.049611893,-0.38245577,-0.20796289,-0.23493779,0.12931222,-0.057732288,0.194248,-0.08779078,-0.15294011,-0.0130415335,0.33594906,-0.39903796,0.052129563,-0.24795988,0.33653516,-0.27060455,-0.45365995,-0.17125969,0.025413645,-0.2524332,-0.29255694,0.2513744,-0.49330005,0.2071066,-0.16246215,-0.24422918,-0.14332981,-0.026256477,0.24859652,0.23461977,0.23941612,0.083740644,-0.42452228,0.0017495799,0.25905874,-0.09061756,0.014657275,0.13148698,0.31246698,0.03522247,-0.043258727,-0.09503045,-0.37565365,-0.44783127,0.092692755,-0.3043666,-0.39741218,0.17155823,0.46493697,0.033233896,-0.4533151,0.35857585,0.4765247,-0.05705539,-0.32974932,-0.08695291,-0.30532995,0.44957918,0.17478457,-0.09115716,-0.12798351,-0.16967875,0.083352916,0.29101974,-0.2606898,-0.051516127,0.032895982,-0.10014665,0.07998812,-0.09799206,-0.4072743,-0.30340725,0.013405934,0.056923248,-0.011471837,-0.27577192,0.47160435,0.45740587,-0.26459402,-0.24249741,0.2593487,-0.22941113,0.089950874,-0.27488914,0.083470635,-0.43470225,-0.33297116,0.33256915,-0.4835567,-0.089700855,-0.48132378,-0.30702597,0.06944034,0.3980719,-0.3530693,0.40379667,0.0494259,0.31304595,-0.036264356,0.014407088,-0.013226828,0.32147256,-0.12789375,0.20159493,0.3828533,-0.36262327,0.21634907,-0.2507619,-0.099907495,-0.33451155,0.43623722,-0.30383262,-0.294451,0.40503463,0.3861179,0.11008024,0.3315073,0.2360233,-0.015192228,-0.38505572,-0.08248588,0.4178104,0.4104817,-0.32704103,-0.40080082,-0.364998,0.032698624,-0.13076153,-0.11090021,-0.21328573,-0.08748879,0.41293705,0.3802533,0.11282986,0.021780837,0.3660276,-0.4947063,0.42248192,-0.11804928,0.16061173,-0.21857361,0.3835109,-0.07607083,-0.30323613,0.27114382,0.18640248,0.4149115,0.29027197,0.1442479,-0.34624687,-0.2625898,-0.08894396,0.2736429,-0.04792575,-0.46956316,-0.16737674,0.25171727,-0.028476039,-0.21159129,-0.35597935,-0.478365,0.082425795,0.16626142,-0.46700644,-0.4170389,-0.4655868,0.4690243,0.48912615,-0.33807626,-0.15334272,0.16994216,0.16303323,0.411281,0.041635912,0.34228045,-0.2965184,0.29955107,-0.46564233,-0.015289942,0.49056697,0.16595313,0.3868222,-0.034139913,0.42918244,-0.48037362,0.061698586,0.023677168,0.07111187,0.23152685,-0.23808628,-0.2877403,-0.36733472,0.018577572,-0.07351845,0.49326006,0.4785456,-0.1839549,0.47439712,-0.368728,0.3037362,0.012231146,0.36235082,-0.35559782,-0.19780144,-0.41487333,-0.16948563,0.083366156,-0.2555939,-0.24633135,0.37480968,-0.4396154,0.333948,-0.056911368,-0.19942601,0.14427437,0.1482643,0.34094536,-0.17226875,-0.4577894,0.14758681,-0.04647745,0.41314775,-0.43535691,0.12601627,0.066322446,0.21775274,-0.42254233,0.0740221,-0.33953732,-0.04026394,-0.05074544,-0.16667864,0.42009193,0.31785667,-0.35587704,-0.48916566,0.23537312,-0.3076847,-0.20914587,0.15881255,-0.32881814,0.24019706,0.40603536,-0.21859564,-0.16315363,0.009605519,0.42306802,-0.29584226,-0.4663953,-0.13481706,0.18150209,0.1564053,-0.19854705,-0.3230768,0.40765256,-0.0029430767,0.1704835,0.3390413,0.08537886,-0.1446549,0.36122957,0.24271688,0.4102162,-0.18852688,-0.09243095,0.41787076,-0.14086688,-0.46651018,-0.42968565,-0.28603184,-0.13311991,-0.36255303,0.26803297,-0.1342861,0.3862374,-0.10506976,0.3556519,-0.46805438,-0.19977577,-0.22134002,-0.47056335,0.38109678,-0.08746518,-0.20705077,-0.100813724,-0.283805,0.17515026,0.06344503,0.12347637,-0.49413562,-0.03154701,0.26697326,0.44197285,0.3468225,0.39232674,-0.29452407,-0.385418,-0.43927035,-0.45829445,-0.13938564,0.12541978,0.47240472,0.14026338,0.27408606,-0.20858932,0.07631598,0.23489879,0.15924852,-0.43603057,-0.09798018,-0.48458505,0.14364931,0.19512297,0.49532053,0.19000255,0.38200852,0.21113575,0.22788678,0.26306427,-0.23607422,0.40856183,0.021167658,-0.12383257,0.31236833,-0.14323075,0.33909768,0.12997095,-0.41622216,0.29918,-0.24556693,0.25903857,0.28150246,0.16342352,-0.4081585,-0.015259861,-0.41319865,0.032874055,0.34500134,-0.15421823,0.078206584,-0.318614,0.23449433,-0.230777,0.3768915,0.012329304,-0.35622406,0.0180917,0.33373237,-0.4893583,0.4320563,0.17792152,-0.025606025,0.083301224,0.25288433,0.23421724,0.025993254,0.016905382,0.15887131,0.015686048,0.38952103,-0.4806593,-0.47264647,0.40613997,-0.21539956,-0.47215465,-0.26498306,-0.1905736,-0.221331,-0.23128307,-0.22596389,0.25552303,-0.2948013,0.48278224,0.34803963,0.43686855,0.16604958,-0.17926599,-0.33518648,-0.27674234,0.19102749,-0.3373063,0.30573952,-0.44494376,0.075404026,0.440648,0.18977349,0.43306398,-0.45465645,0.3154173,0.37631497,-0.26580787,-0.11608011,0.34124428,0.20523565,0.03114256,-0.3635763,0.23682876,0.44453648,-0.20657362,-0.47258544,-0.46210003,-0.17127909,-0.20181431,-0.23799993,-0.32943892,0.35949016,-0.48098648,0.24293278,-0.4069395,-0.028568849,0.14825699,-0.2987547,0.27843773,-0.46665776,-0.1299478,-0.48512486,-0.06478685,0.41683486,-0.49782,-0.081558764,0.4259394,0.19170222,0.029621141,0.43596673,0.48073268,-0.29871082,-0.4137833,0.15687452,-0.17298652,-0.48985648,-0.4912027],"bias":-0.48149157},{"weights":[-0.12833641,-0.007167244,-0.17208798,-0.15554412,-0.4812571,0.24111979,0.40094683,-0.1176751,-0.22357018,-0.090192,-0.21881767,0.44404325,0.14512472,-0.19761007,-0.17224862,-0.18022321,-0.04646248,-0.4447725,0.22432785,-0.09153096,0.46241066,-0.31675985,0.12141335,0.15479355,-0.069332846,0.0897431,-0.45529845,0.46350726,0.02671998,-0.107198514,0.11841423,0.17922156,0.111775704,-0.09466221,0.47772947,0.33141613,0.44796464,0.19171277,0.32577902,-0.024808103,0.24736892,0.13837454,0.3701853,-0.47661966,-0.10510648,0.24745625,-0.4744535,0.40041384,0.35906357,0.12720689,-0.46236953,0.26982537,0.4782531,0.46651027,0.39938697,-0.48593011,-0.5023266,-0.078972526,-0.50957745,-0.40518078,0.0038323116,0.22065024,0.052071877,0.33603063,-0.3220862,0.24272385,0.008080747,-0.30649865,-0.39457947,-0.08820492,-0.33651665,0.05902698,-0.1023301,0.49143815,-0.21623568,-0.3757387,-0.3173041,-0.25089294,0.21032885,-0.17627543,0.071590595,-0.466734,0.012926625,-0.20689936,-0.49283186,-0.445586,-0.38455808,0.41555384,0.12612088,0.4807949,-0.027616708,0.37850934,0.21443607,-0.07011246,0.5852141,0.15480417,0.09012972,-0.2663442,0.54485893,0.74072325,0.57688683,0.20736842,0.5451973,0.6051534,-0.056449223,-0.059492007,0.057592094,0.4893338,0.27002934,0.043244578,-0.19092138,0.3432344,0.23991157,-0.28893062,0.042117465,0.2848478,0.48539224,-0.0058840266,0.025822315,-0.0061368695,-0.12049984,0.22851585,-0.2989017,-0.26923263,0.0955547,-0.34821662,0.15610965,-0.06299856,0.5314986,0.28660798,-0.30917087,0.39467496,-0.06585944,0.095118575,0.09481474,-0.13645396,-0.30377075,0.33797792,0.088298954,-0.29298106,-0.26151463,-0.08866695,-0.13381608,0.12978844,0.079811074,-0.26808298,0.31447402,0.42154282,-0.3782074,0.46157962,0.2032545,-0.17490703,0.19120117,-0.48473075,-0.003931305,-0.0014155603,-0.24050175,-0.1724632,0.35048792,0.7050546,0.44126922,0.8431624,0.58684856,-0.04139193,0.079160236,0.50224906,0.25729603,-0.30099303,-0.32289067,0.48525718,-0.3693271,0.21806046,-0.25753066,-0.43067583,-0.4035089,0.26808244,0.17970116,0.23936914,-0.067683816,0.07605964,-0.14121442,-0.2857697,-0.35767737,-0.85027057,0.02271096,-0.6227807,-0.11958968,-0.14201234,0.11537865,0.59376335,0.6240693,0.4141628,0.69259405,0.26932603,0.24235925,-0.4495377,-0.46337298,-0.07858087,0.24614075,-0.45312944,-0.04283814,0.48115766,0.35338244,0.31881353,-0.38010475,-0.12149429,0.10551056,0.17656302,-0.285742,-0.9314749,-0.37335733,-0.5004834,-1.0976479,-0.7883745,-0.063696206,0.31602147,-0.34302196,0.52762246,0.61152416,0.0679802,0.49575236,0.2063747,0.26887664,-0.36672008,0.036408763,-0.5010701,0.24728933,-0.38557246,-0.4216621,0.23307076,-0.17093872,-0.13388178,-0.006796678,0.10621051,-0.3839732,-0.4160562,-0.39144114,-0.7019961,-0.13178042,-0.66528785,-0.6480472,-0.73980945,-0.3534176,-0.14767118,-0.023108363,0.24518682,-0.02719553,0.46461454,0.7573603,-0.0047540725,-0.03266869,-0.1443718,0.1838748,-0.1902387,0.39511257,-0.3551376,-0.06935541,0.12296726,-0.18534698,-0.12289925,-0.1984024,0.11009089,-0.3114336,-0.69590193,-0.41620174,-0.46333385,-0.16553037,-0.46276328,-0.58412945,-0.45614257,-0.741116,-0.513105,-0.6840476,-0.71112335,-0.25516728,-0.37208846,0.38811374,0.46303484,0.27224442,-0.40090147,0.0792175,0.17568319,-0.3589655,-0.19149269,0.26219207,-0.32594287,-0.25842386,0.23773998,-0.46547323,-0.42495412,-0.06377002,-0.058146093,0.10431404,0.4028738,0.101062685,0.04214331,-0.65177286,-1.0518982,-0.6874413,-0.5953294,-1.0873857,-0.31674394,-0.78007334,-0.70778984,-0.1761629,-0.16560447,0.3462273,0.09742103,0.41630206,-0.15917055,0.21399224,0.24238533,0.006582831,-0.5398996,-0.012538969,-0.23427446,-0.36398268,-0.18931025,0.21811283,-0.13787253,-0.46245345,0.17397748,0.28986722,-0.12485027,-0.03162316,-1.1213068,-0.41568992,-1.0348865,-1.1047251,-0.553468,-1.0324255,-0.30172056,0.13397115,0.13701274,0.39469153,0.29172456,0.058830313,-0.44242182,-0.35565272,0.32425964,0.3346974,-0.4327988,-0.3853752,-0.17883971,-0.49933067,-0.17526884,-0.17584111,0.38191465,-0.19391654,0.0054021715,0.022811288,0.5768993,-0.6573152,-0.09762396,-0.610089,-0.59771436,-0.7240685,-0.48236966,-0.4626654,-0.25542477,0.15808116,-0.32872158,-0.45412663,-0.058871944,-0.04346967,-0.30640644,-0.22892542,0.28321737,-0.38752013,0.023812648,-0.12385694,0.20707655,-0.12377296,0.50271964,0.024791239,-0.100946665,0.45088112,0.25538385,0.28227097,0.07982386,-0.42975062,-0.6870072,-0.40937886,-0.45639166,-0.24126008,0.027054796,-0.053308498,-0.23625126,0.3816737,-0.23684734,-0.06805387,-0.12196646,0.18369012,0.32772627,-0.18746322,-0.3332535,0.14184059,0.13935702,-0.44663507,-0.5495529,-0.114365116,0.2686521,0.12538022,0.019168627,0.44730878,0.69854695,0.35955954,0.31502685,-0.44296917,-0.16496529,0.09791312,0.40464267,-0.10765705,-0.30547515,-0.19973849,-0.0152214635,-0.058793854,0.3981982,0.27206406,0.43811974,0.11482429,0.14344816,0.15690103,-0.26953462,0.009548144,-0.36099747,-0.60885364,-0.10274336,-0.47390482,-0.39062732,0.09978852,0.26048374,0.34435937,0.3983653,0.841244,0.5039866,-0.4222181,0.010824065,0.3516924,0.21275732,0.026124857,0.11761799,0.12223348,-0.50224954,-0.019007033,0.19398105,0.10738851,0.0378137,0.4457663,-0.506475,-0.07871628,0.3045952,0.14793336,-0.32081348,-0.16043343,-0.6012544,0.23623188,0.37627593,-0.31590182,-0.26575476,0.15843101,0.9743406,0.49989069,0.2637164,-0.37150994,-0.2539795,0.4449591,0.3017156,-0.41283107,-0.22246516,0.13396463,0.15455924,-0.12145027,-0.17422834,0.33608773,0.35104957,0.17142157,0.1559283,0.09673705,0.19438328,0.25277176,0.34154007,-0.3450674,-0.25135794,-0.3123234,-0.5782875,-0.036902755,-0.18731587,0.299727,0.01886638,0.37692973,0.024342895,-0.41675544,-0.26712704,0.07713216,-0.0911052,0.119241655,0.19484264,-0.01635316,0.21729237,0.07640182,0.42116755,0.16835602,-0.007944108,-0.3242589,-0.43508455,0.22317396,0.0046270587,0.45129716,-0.3935124,-0.3651849,-0.43682215,0.009131171,-0.09774234,-0.19307062,-0.12700246,0.42027384,0.30869645,0.8313933,-0.09432428,0.35807067,-0.023188055,0.021220842,0.051534627,0.2253134,0.5941621,0.47096354,0.5687942,0.4285854,0.26597434,-0.0014412784,0.13970251,-0.025309755,0.18731904,-0.13957946,-0.47448015,0.01547719,0.23256555,0.4383984,0.23656528,-0.430623,0.091392584,0.33028567,0.42771092,0.26247758,0.8892541,0.120277986,-0.1966102,0.105205156,0.31394738,0.39465454,0.087400496,0.10179613,-0.05818406,-0.047429133,0.19559568,0.46039024,-0.31497476,-0.3438445,0.3805014,-0.24533619,0.24637952,0.38115525,0.06347773,-0.037122518,0.08037817,-0.4650323,0.106292285,0.37545884,-0.048228446,0.032567356,0.76940423,0.6347755,0.83060133,0.06317369,0.67899954,0.5106738,-0.021555705,-0.037020385,0.23639975,0.06544968,0.09063784,-0.024057169,0.5460322,0.28002852,-0.48176453,0.056891646,-0.34165248,-0.022963306,0.42231876,0.08583219,-0.12302279,0.3241919,0.013671353,-0.14577888,0.50876296,0.17854048,0.110427015,0.29979864,-0.0041084047,0.056208,-0.11099769,0.392216,-0.19797389,0.073722824,0.3175331,0.11791038,0.13633461,0.4764801,-0.2422405,0.33326784,0.08215572,-0.4516536,-0.2958806,0.40207177,0.36049864,0.049857955,-0.32743862,-0.4374555,-0.0060200556,-0.41900274,0.26247612,0.51165336,0.27249447,0.5528144,-0.03742078,0.29349867,-0.5853334,-0.7467237,-0.30861506,-0.6097313,0.24572414,-0.08270608,-0.1650644,-0.37308544,0.31290746,-0.043095734,-0.29888728,0.30286145,-0.13652728,-0.2310921,-0.39198607,-0.08569725,0.48076308,0.39499888,0.28051838,-0.50543785,-0.01171638,0.05923189,-0.023039918,-0.13434517,0.014109525,-0.3560256,-0.16957262,-0.06708295,-0.21915618,-0.4782132,-0.28011072,0.026879558,-0.06735482,-0.12555254,0.13772327,0.10613327,-0.3243976,0.27840245,-0.1711628,-0.4679105,0.06283605,-0.19722305,-0.19152999,0.45797345,-0.06288109,-0.07845051,-0.11242954,0.32718667,-0.37644163,-0.5081085,-0.09220697,0.100284316,0.0031090626,-0.3773308,-0.40859547,0.20912082,-0.15290867,-0.23835275,-0.34051815,0.33412942,-0.29743177,-0.26871136,-0.49311963,-0.69914734,-0.33668646,0.20769171,-0.32554916,0.3992048,0.2702897,-0.19645725,-0.2592201,0.48721308,-0.2602045,-0.0010228959,-0.075658195,0.07550775,0.062012054,-0.23779482,0.051861033,-0.12921645,-0.44163507,-0.61916476,-0.1579288,-0.42953327,-0.23824018,0.09616498,-0.40857926,-0.6279317,-0.52597046,-0.3459177,-0.12594658,0.1586823,-0.6889325,-0.54607916,0.32535693,0.054282103,-0.31557247,-0.102475636,0.0073727095,-0.25770378,-0.31652084,0.079606496,0.29578778,0.26023325,0.14495318,0.16273366,0.051017508,-0.39837447,0.4476261,0.102180466,-0.44030854,-0.10272373,-0.32899848,0.24329865,-0.28018996,-0.3762126,0.14139675,0.113292,0.099919744,0.13216569,-0.5448626,-0.22285244,-0.28618935,0.011561107,-0.19680911,0.04001001,0.35336825,0.1909974,0.1646431,0.0066425023,0.23733114,0.0688562,0.38455042,-0.08325485,0.4616613,0.17471834,0.35523763,-0.010512836,0.33029878,0.10237184,0.35936612,0.08665644,0.1328114,-0.24786729,-0.4364033,-0.2350235,-0.3212099,-0.44397956,0.4394851,-0.007443474,-0.104151465,-0.44682056,0.1829686,0.17451255,-0.43515518,0.018056033,0.3038064],"bias":-1.1122676},{"weights":[-0.1458738,-0.13012101,-0.19570746,0.35369334,-0.08574253,-0.14592136,0.40244243,-0.24417762,-0.0042736083,-0.28146306,-0.39109138,-0.080444664,0.27837467,-0.058738947,0.35763648,-0.16112344,0.44526538,0.30467728,0.4655623,-0.15933408,0.42130503,0.4220359,0.26410154,-0.22490801,-0.055025946,-0.04367395,-0.052468184,-0.2247283,-0.2995521,-0.10685451,0.31436053,0.11004835,0.17993651,-0.12820299,-0.17617469,-0.07707508,0.5288206,-0.014988804,-0.11113269,0.04098976,-0.12973638,-0.05138032,0.057697024,-0.26287717,0.05838617,0.44175768,0.035214365,0.19396214,0.0805919,-0.034851264,0.55065894,0.26667377,0.52479905,-0.058406606,-0.21092953,0.50122267,-0.29805532,0.4005184,0.22538052,0.31984362,0.48566094,-0.04070082,-0.36885437,-0.26902235,-0.05386447,0.4389599,-0.103577495,0.13836761,-0.26261783,-0.20735721,-0.19380899,-0.2413037,-0.0730676,-0.12529118,0.49315813,0.396176,-0.37806284,0.25755894,0.49033463,0.1756518,0.06555445,-0.14828245,-0.27701917,0.38501748,-0.24959497,0.4542279,0.49885628,-0.4028461,-0.4037853,-0.17930873,0.20070499,0.008849083,0.10491401,0.47310546,-0.1940485,0.0054936935,0.09334384,0.43502602,-0.14969212,-0.20310266,0.21835232,0.5047163,0.5670262,-0.1996376,-0.17431398,0.32772455,0.009905078,-0.33060157,-0.16373868,0.154372,0.53227794,0.5312641,-0.2056758,-0.0051894654,0.46359897,-0.11033795,0.06119533,-0.3181682,-0.15531285,-0.12631872,0.106106855,-0.008456416,0.10184542,0.16277851,-0.115049854,-0.16585426,0.15139167,0.4165583,0.41193143,0.63688344,0.2824012,0.57887214,-0.015948595,-0.13707148,0.5458459,-0.062294513,0.15699032,0.41587543,-0.35730082,0.3797091,-0.11357762,-0.023456162,0.007535942,-0.41832513,-0.26198122,0.23277402,0.37971425,-0.13259043,-0.5037875,-0.56232554,-0.39394847,-0.7646061,-0.33022413,-0.7706631,-0.3711428,-0.31842873,-0.97062117,-0.82734346,0.24422921,0.12866746,-0.0012161036,-0.08240955,-0.37326604,-0.35706955,0.013373954,-0.25297928,0.14193518,0.04955243,0.13729508,0.31390008,-0.123320125,-0.38105714,-0.41524085,-0.28806683,0.34723848,-0.68090445,-0.72733235,-0.8479004,-0.39134207,-0.87627244,-0.63460964,-0.5819592,-0.041046392,-0.12936823,-0.42064652,-0.07322527,-0.4209775,-0.6118968,0.029230656,-0.5836553,-0.27484876,0.104756534,-0.044176783,-0.5112071,0.41011354,-0.19844614,-0.34867635,-0.010008727,-0.31825653,-0.4335503,0.20940681,-0.021157764,0.022948539,0.011794585,-0.8809803,-0.8289482,-0.040639758,-0.82380664,0.20250903,0.0032252714,0.32062984,0.6864993,0.26727405,0.011206213,0.16305241,0.019777767,-0.26313347,-0.93580943,-0.13910517,-0.1730708,-0.12881102,0.12520424,-0.30841765,0.014600457,0.40827668,0.06288969,0.39511248,-0.12752002,-0.3531604,0.31458703,0.042783372,-0.09803208,-0.09079873,-0.57174796,0.21264228,0.12375108,0.6129566,0.8307878,1.053386,0.51573193,0.52139884,0.2553898,-0.2939958,-0.50334203,-0.7544888,-0.35877222,-0.36244097,-0.55520797,0.076139115,0.10977162,0.2753024,0.3794045,-0.0735728,0.5178057,0.49160942,0.39439604,0.0693333,0.15405247,-0.53046113,-0.06316934,0.027818032,0.059294283,-0.08719714,0.19803792,0.7008877,0.8316929,0.5114213,0.7269103,-0.020034485,-0.04570864,-0.7111071,-0.8134458,-0.39537498,-0.76030177,-0.9184802,-0.05761396,-0.20899735,-0.28914437,0.4322123,-0.35225937,0.48993936,-0.27310583,-0.04227734,0.123918205,-0.3843701,-0.078668885,0.24201462,0.1576382,0.16378048,0.9389407,0.27006987,0.295171,-0.36393052,-0.27893683,0.4889375,0.33160847,0.23615114,-0.3993747,-0.5511316,-0.59114516,0.0019218554,-0.8330233,-0.66345966,-0.49788785,-0.13332176,0.2401849,-0.07005297,-0.16746806,0.1007528,0.28566876,-0.108479045,0.2035755,-0.2894849,0.33886406,0.5454044,0.5013487,0.116169356,0.2545156,0.17679164,-0.36690825,-0.18902588,-0.5458462,0.60672694,0.2963827,0.102380864,-0.026371533,0.02812767,0.4685392,0.051467933,0.08108271,0.0014122649,0.48997304,0.18781793,0.3984893,-0.31235012,0.23422922,-0.334529,0.32572472,0.57635015,0.2719426,-0.00035694326,0.24645695,0.39140594,0.68466294,0.7365735,0.03699815,-0.22302614,-0.37880918,-0.5271514,-0.12492534,0.46522862,0.003272714,-0.029287465,-0.34827596,-0.08417062,-0.14759272,0.23566233,0.652486,-0.2769613,-0.17657816,-0.42262793,-0.3718057,-0.05014565,0.15366568,0.11772129,0.08388494,-0.23062672,0.40959078,0.3109307,0.24608102,0.24254763,-0.13416381,0.3583069,0.04569072,-0.1822892,-0.64596415,-1.5152508,0.1786152,0.9911697,0.10470916,0.27886367,-0.19462575,0.4519606,0.5908867,0.67954654,0.09825858,0.028357184,-0.18470423,0.17402893,-0.36682102,0.3349708,0.47454318,0.27772304,0.47535107,-0.41431728,0.47062364,0.50689286,-0.176244,-0.38906434,0.6128824,-0.0468444,0.28358418,-0.00429346,-1.1292031,-0.82793534,-0.2011078,0.25943834,0.41646883,-0.0020960686,-0.012264549,0.2859048,-0.13425173,-0.041981254,0.7024869,-0.095802575,-0.056104492,0.045504965,-0.011076767,-0.33437604,0.11159955,-0.1484126,0.07453647,0.5074034,0.3165676,0.50744975,-0.22321448,-0.3959014,0.18161657,0.18963566,0.025834996,-0.3185293,-0.60019755,-0.7443855,0.0957262,0.2129402,0.4630265,-0.81898713,-0.36753634,0.26070654,-0.019047584,0.27800557,-0.25995344,-0.22754304,-0.33456528,-0.33956957,0.21187627,-0.28546417,0.47447318,0.28304926,-0.41085458,0.5432605,-0.39617193,0.23364599,0.15278496,-0.39247882,0.343112,0.17430843,-0.50939965,-0.0018778094,-0.14338179,-0.3160617,-0.3109428,-0.16571221,0.038045947,-0.33995616,-0.71326715,0.09789796,-0.055888966,0.06958112,0.0053714127,0.11034057,-0.16517274,0.0644264,0.1669917,-0.4384318,-0.402307,0.5557744,-0.20216915,-0.42148545,-0.11118699,-0.004493747,-0.4545936,0.10747601,-0.4348851,-0.45247906,0.34547344,-0.1600413,-0.33890867,0.011939196,0.55048716,0.44945017,-0.47363755,-0.08871923,-0.24838951,-0.591826,0.0723782,-0.20353507,0.079587944,0.2206323,0.3650753,-0.4380675,0.35310826,0.3710565,-0.41601875,0.096542284,0.23452185,-0.17023383,-0.47870827,-0.5245164,-0.5673205,-0.49530882,-0.578869,-0.38448474,-0.16173604,0.46217895,-0.42867345,0.12943996,0.43237734,-0.09365465,-0.053097773,-0.83170813,-0.691423,-0.50271654,-0.15866198,-0.13252652,0.09574629,-0.67567706,0.17054616,0.0014821553,0.1486345,0.33470598,0.1104216,-0.19842021,-0.21253277,-0.06546145,-0.13136554,-0.4861029,-0.17176187,-0.46637732,-0.18984668,-0.35324752,-0.41734895,-0.14054294,-0.055568755,0.39072904,0.38419095,0.050656218,0.39363983,-0.15467848,-0.0315143,-0.41004685,-0.23785453,0.16368183,-0.45003632,-0.040508997,-0.18146618,-0.39033926,0.13814886,0.2347836,0.40167436,0.16161422,0.29026702,-0.33142856,-0.34106985,0.1565511,-0.5738647,-0.40799323,-0.30995172,-0.80757374,-0.2614768,-0.3113967,0.33152723,-0.06363026,0.49504355,0.5349998,-0.10189083,-0.40655816,-0.21977298,-0.28954947,-0.65710884,-0.61939615,-0.18476376,0.18003532,-0.5147402,-0.5145496,-0.013794586,-0.35682258,-0.2673026,-0.24916999,-0.4344581,0.52209103,0.4769501,-0.14341576,0.11224176,-0.2931712,-0.17873769,-0.8383477,-0.03877468,-0.24845654,-0.30858237,-0.06346773,0.4679231,-0.008974313,0.14989495,-0.3012828,-0.27400193,-0.5638226,-0.3011736,-0.3638796,-0.7263362,0.19696383,-0.22773418,-0.3820451,0.1531277,-0.42563504,0.16900302,0.2949476,-0.006207036,0.00060034764,-0.21414882,-0.1901925,-0.37304378,-0.32517624,-0.33013582,-0.08628181,-0.82287824,-0.117838934,-0.87546265,-0.69792956,-0.082378015,-0.41670606,-0.038248416,-0.44954902,0.1165318,-0.5982931,-0.68313605,-0.020860326,-0.034390487,0.3373269,0.34782842,-0.4171837,-0.107355624,-0.1867298,0.19024046,0.452679,-0.22171237,0.36760035,0.48428318,0.20858712,-0.08991254,-0.046722244,-0.14194386,-0.41885626,-0.18028757,-0.41982278,-0.8090852,-0.8863036,-0.2591794,-0.658501,-0.17920537,-0.19812307,-0.45304564,-0.5623919,-0.20274043,0.37535888,-0.16635147,-0.33366922,0.35839847,0.34973705,-0.18299592,-0.22351067,0.49850252,-0.37642494,-0.056160606,0.17345117,-0.35928234,0.32629627,0.092062645,0.25588158,-0.44523683,-0.13480656,-0.60386246,0.045329485,-0.40746766,-0.32281205,-0.7274797,-0.46470937,0.3556167,0.24936506,0.59224844,-0.06245902,-0.03467692,0.30510873,0.34314504,-0.111536756,0.27136,-0.12952007,-0.35200563,-0.10618216,0.33932135,0.3533884,0.45821473,-0.14693724,0.49944127,0.48405504,-0.30565688,-0.09225418,0.5161891,0.054822512,0.6152296,0.14190896,0.727055,0.92086864,0.5135072,0.6635319,-0.036498863,0.9158721,0.055274714,0.5654546,0.036477532,0.47771558,-0.08512514,0.4442086,0.547337,0.0013795174,0.39314902,-0.22739209,0.178481,-0.23819427,0.41482255,-0.13417377,-0.3576943,-0.047354925,0.17649376,-0.24128954,0.2950712,0.42872277,-0.33163363,0.19949755,0.2910581,0.023852011,0.8211382,0.20104428,0.059523493,0.3051912,0.02402391,0.51855725,0.39096987,0.38796046,0.10174588,-0.3357829,0.44665897,-0.27728802,-0.29366574,-0.3771911,0.27370885,0.14608015,0.084655985,-0.06246129,0.10247642,-0.022376614,-0.03855585,0.10452908,0.15967089,-0.34096035,-0.16833998,0.41945416,-0.0726993,0.41389036,0.10560641,-0.29694778,-0.035184223,0.22101116,0.21919395,0.37438926,0.49064556,0.42676887,-0.12369295,0.32875952,0.20643128,0.49090216,0.5558073,-0.078910634,-0.118928805],"bias":-0.7720225},{"weights":[-0.47825915,-0.27422225,-0.27447873,-0.26657903,0.1975438,-0.2804429,0.40332383,0.037423585,0.37136823,-0.51544535,0.3883974,-0.077793986,-0.07516004,-0.19726056,0.4646994,-0.33125228,0.12866168,-0.15059987,-0.35794574,0.33728164,0.03460749,0.05448908,-0.053474937,0.36583096,0.23509777,-0.30981356,-0.17751783,0.35939175,-0.35784525,-0.38116437,-0.39285868,0.3302918,0.27420342,-0.3933435,0.18071753,0.4532375,0.45897457,-0.12492651,-0.36755988,0.34518778,0.033738058,0.057091977,0.37254024,-0.032318167,0.09103867,-0.17165029,-0.32860687,0.3998083,-0.1277203,-0.5124261,0.41638267,0.01522583,0.069545284,-0.16940004,-0.12570924,0.4155143,-0.48412937,-0.23989284,0.046902355,0.3240708,-0.3627024,0.006333222,0.28897595,-0.12096622,-0.2988883,-0.4780827,0.24558319,-0.56694746,-0.23552877,-0.54781204,-0.32348144,-0.63587916,-0.082645714,0.20602167,-0.21657307,0.17607397,-0.35083315,-0.0107112,0.15186466,0.11430815,0.38546467,-0.07124916,0.32639533,-0.09837218,-0.18030399,-0.5015599,-0.33494937,0.15202557,0.29094458,0.11328472,0.40808356,0.041828167,0.42959046,-0.32749474,-0.06409624,0.32882494,-0.23799922,-0.2342414,0.11982536,-0.29493856,0.22068454,-0.3175763,-0.3134183,0.10213585,-0.48578927,0.20633338,0.14106056,-0.39056632,