[[{"weights":[-0.23940723,-0.39443627,-0.00976064,0.47195467,0.27865407,-0.24931034,-0.2553322,0.03654693,-0.32645455,-0.3343946,0.32021865,0.3832967,0.4482943,0.14691253,0.48498592,-0.20159607,0.12885602,-0.4581528,0.46560952,0.41424367,0.29828903,0.23227508,-0.45496014,-0.14821868,-0.2808999,0.4308792,0.35977694,0.27863988,-0.48495927,-0.13159801,0.39797828,-0.19349949,-0.20216642,0.3621163,-0.49935618,0.16153277,0.45682743,-0.20325826,0.119058765,0.28925878,0.48155066,0.41611966,-0.1987472,-0.3634039,-0.25165397,0.46117312,-0.21570438,0.1332873,0.14535443,0.3715056,-0.46133828,0.28832912,-0.42874828,0.17394228,-0.30186167,0.3942413,0.28775606,0.28853914,0.3101186,-0.04790152,0.39012158,-0.3289116,0.4609637,0.44292158,-0.34022963,0.4434914,0.48336568,0.43018287,0.13498253,-0.18828082,0.048545294,0.12156825,0.46018666,0.35383198,0.08456634,-0.1827572,0.14174421,-0.21895461,-0.4418499,0.33323917,0.43787998,0.1303565,-0.35853377,-0.1104296,-0.25748393,0.042694792,-0.25806454,-0.15646507,0.08093491,0.23589158,-0.34702936,-0.20437163,-0.0032798983,-0.25930387,0.26365867,0.40594354,-0.5226081,-0.20902772,-0.42860258,0.039284337,0.009148816,0.051982436,0.049786903,0.50713605,0.21974407,0.21696204,-0.06577047,0.45059663,0.4549521,0.2026137,0.20754702,-0.0978802,0.41392836,0.32291844,-0.12394037,0.15216179,0.03169761,-0.16125517,0.4086911,-0.15213016,-0.5835555,-0.59247965,0.15908548,-0.31021938,-0.3262252,-0.22978124,-0.772869,-0.1195506,-0.2517005,0.28350642,0.09944995,-0.0044513256,0.38931045,-0.060705412,-0.09989171,-0.047186323,-0.449806,0.1286776,-0.42827865,-0.13639529,0.10499208,-0.25043115,-0.48646805,0.30699888,0.4613082,-0.10149009,0.085694715,-0.15181965,-0.035391416,-0.0268932,-0.6679329,-0.48671904,-0.3611733,-0.49341628,0.08957045,-0.047137246,-0.4551304,-0.14160463,0.2993097,-0.29570648,-0.024718514,-0.39334983,-0.09524359,0.25170046,-0.06482844,-0.25328186,0.33971503,-0.10199778,-0.23568158,-0.0008519257,0.30630106,-0.30031094,0.27174318,0.14475235,-0.48915714,-0.07512701,0.17866625,-0.2991088,-0.417477,-0.44325107,-0.33372816,-0.22327913,-0.20604692,-0.27212864,0.23424338,-0.45505768,-0.21557549,-0.03429955,-0.40992707,-0.52191085,0.087324224,-0.35123333,0.089883626,-0.17731382,0.12434208,0.30887514,0.2590854,0.11546042,-0.010946849,-0.38638654,0.13245322,-0.49223354,-0.19445284,0.22405346,-0.48379874,0.36804336,0.5435772,-0.26153314,-0.089965396,0.046281043,0.14168037,-0.402955,-0.09317692,0.045502394,0.20805012,-0.2978885,-0.43163338,-0.21086074,-0.026617048,-0.040458985,0.28730115,0.13786459,0.15294145,-0.011533947,0.13291664,-0.19277754,-0.12633835,0.0043147895,0.00038406503,-0.22849058,-0.06806658,-0.3988647,-0.240047,0.58870345,0.10884656,0.057359945,0.47010615,-0.35979962,0.0781676,-0.28301984,-0.2735841,-0.60052043,0.18497479,-0.28072307,0.060397692,-0.27096874,-0.16276686,-0.13256966,-0.3402237,-0.55659884,-0.42008385,0.32600167,-0.48440585,0.34147727,0.27443963,-0.055555794,-0.45424125,0.28043696,-0.37188005,0.20642018,-0.039040748,0.5328278,-0.048464693,0.5799719,0.30921197,-0.32829913,-0.17740472,-0.48409292,-0.05454291,-0.33576223,-0.1926348,-0.53045416,0.3185305,-0.06139621,0.25790745,0.45258626,-0.5910278,-0.37876287,0.09332182,-0.4630909,0.35028753,0.18950137,-0.2790303,-0.40036508,-0.15060538,0.27579746,-0.08175624,0.7118682,0.8213524,0.048545565,0.25639808,0.6099572,0.49619162,0.38861555,-0.21421054,0.0064610364,-0.4231784,0.24733847,-0.30454278,0.10054569,0.3915533,0.4578247,0.312277,0.49595454,0.3401797,0.17133096,-0.38523686,0.42496994,-0.39277643,0.27147272,0.2391754,0.35807475,0.3927567,0.07471401,0.2850291,0.31331685,0.44856378,0.12351433,0.29492295,0.9239634,0.88838094,-0.059803125,-0.36354437,-0.76849604,-0.4357522,0.13088411,0.3036819,0.37348232,-0.0658353,0.013645054,0.1776386,0.4823259,-0.1334169,-0.41736674,-0.24349263,0.21578531,0.27557954,0.251303,-0.120252445,-0.42447993,0.23083231,0.32290727,0.69065136,0.0637793,0.74483943,0.60482997,0.82568794,0.43345234,0.39877954,-0.018890237,-0.66469526,0.17375547,0.6093474,0.23852059,0.33921397,0.30980036,-0.05402942,0.5242208,0.5186079,-0.014184661,0.121731944,-0.031380188,0.09771129,0.2676202,0.1191009,0.39732787,-0.35042292,0.084230684,0.5169209,0.029204115,0.06937384,0.2720421,0.72006786,0.15862902,0.5695889,-0.02586998,0.68525547,0.08624203,-0.4886242,-0.07263295,0.13646966,0.5327906,0.18999398,-0.26222575,0.5892895,0.60127926,0.4226614,0.685476,-0.33914503,-0.16486344,-0.20598306,-0.20126988,0.2578368,0.09376894,-0.24454327,-0.43539733,-0.28315583,0.3074045,0.76044446,0.4636148,-0.13248919,0.4252348,-0.27379364,0.31213954,0.22426888,-0.3277387,-0.39382935,-0.09957255,0.03019967,0.46883237,0.14830765,0.3970213,-0.2800952,0.5097049,0.56981564,0.49307325,-0.3267496,0.21137515,-0.05040734,-0.1704671,-0.34885326,0.42712924,0.107427284,0.33077425,0.48149896,0.133059,0.5004996,0.11439634,0.35254827,0.33619583,-0.03157229,-0.29824153,0.037082735,-0.25232098,-0.05932143,0.49479198,0.75418097,0.22652805,-0.23054236,0.36962685,0.1766813,-0.0110249035,0.22523041,-0.006239115,0.3143909,-0.20155303,-0.1316671,0.16057405,-0.028214647,0.13322692,0.4753023,-0.21875058,-0.101667725,0.07002646,-0.30578688,-0.020658238,0.33002657,0.60624397,0.1614853,-0.05063433,0.39771205,-0.32686433,-0.28137615,0.39113382,-0.17740719,0.22947648,-0.31228405,-0.17229015,0.17288533,0.40540147,0.14709213,-0.061533775,-0.029954042,-0.5204376,-0.31294134,-0.28317666,-0.19008736,-0.050250135,0.2070731,0.096469626,-0.2262465,-0.5392462,-0.10388228,0.081108905,0.3525403,0.29708403,0.24449264,0.78861415,0.4183741,-0.5511456,-0.086599216,0.25352615,0.16993259,-0.18109152,-0.06901287,-0.36541405,0.23661174,-0.07596036,-0.6212355,-0.27232784,0.075841375,0.21043923,0.040647447,-0.3022628,-0.10230009,-0.39237997,0.1013494,-0.2739276,-0.70549196,-0.5359372,0.10323386,0.16106166,-0.2227408,0.79070383,0.5278936,0.24315555,-0.048453297,0.30107325,-0.11591566,0.04883896,0.19349334,-0.56699866,-0.068890594,-0.5107654,0.27712494,0.07452571,-0.6194075,0.1241246,0.14245386,-0.17082384,0.2290332,-0.29011637,0.46950838,-0.011270705,-0.38083196,0.012114539,-0.3385751,-0.057394948,-0.38374394,-0.6477249,-0.25297847,-0.37694922,0.3507571,0.40189865,-0.3706418,-0.29165685,-0.26249617,-0.5902821,0.0700407,0.043900345,0.33312154,0.11591752,-0.60644627,-0.47750467,-0.022572357,0.18599157,-0.19768551,-0.23306945,0.4141867,-0.11077523,0.3362281,-0.18223529,0.06947873,-0.49466002,-0.009406354,-0.76198065,-0.81296986,-0.013205617,-0.4217431,0.069658756,0.033260647,0.17066266,-0.039387066,0.3776882,0.07911195,-0.060273953,0.4395508,-0.39381275,-0.1743098,-0.38168585,-0.6149102,-0.6646057,-0.6546787,-0.18260352,-0.21985427,-0.39423475,0.07423951,-0.022903385,0.3615006,0.19346045,-0.36413118,-0.3726824,-0.6326915,-0.43543217,-0.7951878,-0.7421921,-0.07166336,-0.6399939,-0.40950635,-0.1925399,0.3499066,-0.105483286,0.54368544,-0.18147697,0.03300923,-0.47813496,-0.25441262,0.029664846,-0.44963714,-0.2041276,-0.3382962,0.22009338,0.15721563,0.33833465,-0.086765945,-0.17184393,-0.22152297,-0.21790288,0.43235764,-0.28105736,0.30509922,-0.0063632485,-0.038794477,0.1016203,-0.44376165,-0.64157856,0.0801401,0.32485348,0.3244536,0.37869814,-0.17820342,-0.32182768,0.32361317,-0.13202375,-0.48658535,0.039597098,-0.5424153,-0.41234678,-0.2777856,-0.39459896,-0.48471147,-0.14589022,0.47796836,0.25003558,-0.41020027,-0.16065721,0.07229769,0.2556697,-0.48640525,-0.19671595,0.053872306,0.012451857,-0.09114881,-0.28099477,0.24006481,-0.3322293,0.21016759,0.018188002,-0.19656473,0.19439036,0.09590564,-0.23245075,0.20718762,-0.3849074,-0.18108314,-0.3762865,-0.31625962,-0.009417565,0.03667457,-0.3423683,-0.28177702,0.17191918,0.27574632,0.21638961,0.06873672,-0.28173232,-0.043606594,-0.39850485,0.39102402,-0.030487474,0.08852035,-0.21001327,0.39274085,0.0052677435,-0.20204093,0.57478905,0.2620772,-0.30857936,0.23583998,-0.20601846,0.2816834,-0.2671791,-0.040608022,0.3693507,-0.24689494,-0.3098186,0.2819419,-0.04616331,0.1138597,0.1517386,0.18698354,0.33861408,-0.3041479,-0.21821176,-0.14717565,-0.13403359,0.006674603,-0.31534725,0.2092209,0.19547783,0.24223039,-0.4393926,0.21300384,0.17852263,0.21949187,-0.050758094,0.47927368,0.12967288,-0.2721278,-0.41797394,0.48101175,-0.1575226,0.22264425,0.08284788,0.045063894,-0.27216825,0.1299754,0.3342844,-0.30066958,-0.23535793,-0.42140642,-0.094915584,-0.37122244,0.022968376,-0.02333938,-0.46592557,0.3946227,-0.12995641,-0.07389296,-0.040458795,-0.19721577,-0.11785255,-0.18576795,0.32370898,0.24033724,0.40749502,-0.20983815,-0.07223757,0.35507032,-0.36920974,0.3993711,-0.010373452,0.38594964,-0.045580417,-0.27415767,0.32945558,0.30252156,0.006083791,0.13551779,-0.3624064,-0.4648911,0.35210612,-0.43873587,-0.22077008,-0.25858617,0.09331953,0.37430778,-0.18615995,-0.3603982,-0.42487538,0.358256,0.41933158,-0.3240024,-0.33925053,0.13715233,-0.44535866,-0.29514775,0.084021024,-0.065675594,-0.30061236,-0.43567267,-0.38202265,0.16700096,0.3750299],"bias":-5.98673},{"weights":[-0.16666797,0.0658657,-0.2474901,-0.24942532,-0.5198386,0.32461697,-0.46897858,-0.43316442,-0.48997647,-0.3162207,0.44287628,0.34895533,-0.109784685,-0.0153138405,0.3784765,0.012456183,-0.5224004,0.117394514,0.22928417,-0.19967532,-0.12138619,-0.3004548,0.08986684,0.3240474,0.23682013,-0.04787255,0.22690979,0.3426935,0.1792767,-0.027985455,-0.21707988,0.38884336,-0.4686572,0.108672194,-0.050008424,-0.025232194,-0.037126347,0.18783197,0.4205205,0.19561,-0.19315204,-0.1275348,0.16951565,0.0633569,0.4365191,-0.25867572,-0.22020109,0.38942403,0.13470419,0.37497193,-0.31280932,-0.046551205,-0.13810688,0.18866801,-0.2550609,0.083643205,-0.0052801524,-0.13879517,-0.24843808,0.22868025,-0.16863097,0.35819015,-0.32310542,0.23315984,0.40394872,0.22557081,0.3923857,0.26208583,0.17125304,-0.22473282,0.010741899,0.095450185,0.38213027,0.2314994,-0.2600215,0.11940898,0.030150028,0.23929463,-0.3405142,-0.12648103,-0.18432882,-0.43521997,0.25350034,0.29536396,0.008315332,-0.40297323,0.08647605,-0.17141446,0.18329738,-0.5244533,-0.44224694,-0.32676193,-0.19607727,0.25741458,0.26940235,0.34889185,0.3525047,0.06501039,0.13531817,0.45923662,0.36522397,-0.21846105,0.35568905,-0.27623692,-0.27230796,-0.12655449,-0.20286892,0.150312,0.12150431,0.35045928,-0.440126,-0.48582977,0.09286674,-0.026485723,0.16533275,0.046271026,0.30599794,0.06041855,0.032738745,0.18880512,-0.06167516,-0.30416104,-0.17156261,-0.08765069,0.5127213,0.40448186,0.4018602,0.38811073,-0.28064087,0.11318441,0.3104314,-0.14682333,-0.5745269,-0.07190613,0.36093366,-0.2477936,0.1272264,-0.12396279,0.3838061,-0.3710708,0.04761292,0.21293083,-0.4811209,-0.3950729,-0.13857247,0.16739944,-0.11955109,0.09076514,0.053108506,0.5201402,0.4295967,-0.15756926,-0.018541383,0.22336498,0.4684969,0.1537691,0.5602488,0.052204724,0.5926827,-0.07421474,-0.08917259,0.1706671,-0.26058152,0.0049169865,0.3677472,0.27258414,0.07815037,-0.34054518,0.3761906,-0.41044837,0.0027765995,0.14532624,-0.14622925,0.39441487,-0.14069726,-0.01821923,-0.07497358,0.23017398,-0.20789297,0.28086653,0.4659168,0.0059018936,0.010919952,0.5428066,0.44392926,0.09228839,0.2012164,0.37997586,0.23819335,0.14159644,0.30496907,0.26892948,-0.49279168,-0.29499045,-0.25291356,-0.3073807,-0.28084677,-0.24000818,0.2509159,-0.23251845,0.0774787,0.19237377,-0.3344862,-0.33844218,-0.11071344,0.3528831,-0.207872,0.5536925,-0.14478901,0.33054218,-0.11794112,-0.358376,0.19604094,0.18422677,-0.14010148,-0.35856146,-0.13329297,-0.01574594,-0.40962213,-0.046346605,-0.08014177,-0.40873024,0.38369346,-0.025616823,-0.1812411,-0.4555032,-0.5240505,0.3991412,-0.15960327,0.27338904,0.095137745,0.46391422,0.4378629,0.4401453,0.433695,-0.09071041,0.048653632,-0.03412774,0.15931936,-0.42529517,0.27001387,-0.6296666,-0.37445998,-0.35219583,0.46284163,-0.14032921,0.47537974,0.5358184,0.06974847,-0.2648782,0.32909006,-0.25550508,-0.15593438,-0.20755911,0.010379753,-0.07555718,-0.42552847,0.31219646,-0.07081581,0.14977972,0.22647056,0.7116871,0.23143435,0.32624564,0.3887895,-0.105363585,-0.2401657,-0.23395076,-0.60870934,-0.12849386,0.18221878,0.065009914,0.53950965,-0.24848336,0.30371216,0.33775797,-0.1561965,0.2618953,-0.1556742,0.28133994,0.20559253,0.1705757,0.23016857,0.42182902,-0.16574998,0.4386364,0.15670136,0.18785788,0.3470532,-0.041143954,0.36695433,0.3810028,0.51869786,-0.55725145,-0.00630486,-0.92184407,-0.23143172,-0.00740644,0.22582805,-0.435866,-0.100091,0.69933623,0.70907646,-0.1032283,0.014019799,-0.0661577,0.026767315,-0.06307321,-0.17059799,-0.53327256,-0.057048976,0.39058483,-0.13793555,0.16537245,-0.08317196,-0.3255484,0.16802257,0.044628933,0.10216714,0.08252645,0.38487333,0.058734916,-0.16669257,-0.70926076,-0.26806134,-0.3904229,0.07461198,0.39259276,0.42483407,0.0627908,0.48182338,-0.004199802,-0.22277579,0.1365209,-0.39817786,0.21787155,0.318218,0.11937674,-0.28451774,0.29351622,-0.39347827,0.2684684,-0.6374752,-0.09755053,-0.42378467,-0.04957421,-0.3331214,0.34122005,-0.001609188,0.18767558,-0.8112229,-0.29098454,-0.39527136,-0.43963677,0.15958756,0.16694146,0.39816603,0.27895465,0.21172476,-0.0147507815,0.10304587,-0.25945312,-0.3441011,-0.46685338,-0.32820147,-0.08076205,-0.46209016,-0.5289001,0.108782105,-0.0860289,-0.30912894,-0.35350516,-0.3829705,-0.6118612,0.30102402,0.32190946,0.12698813,-0.09196102,0.05226201,-0.19181131,-0.21927534,0.20464064,-0.24238089,-0.67083097,-0.46253318,0.19426055,-0.45009345,-0.43813372,-0.38259378,0.42636254,0.27360028,-0.029329725,0.24615455,0.0029281164,0.019816048,0.004841102,0.06127769,-0.3896423,-0.52916855,-0.8164267,-0.70932704,-0.6588091,-0.12026428,0.022371124,0.5570591,-0.09551063,0.1678288,-0.18846227,0.104428954,0.1649468,-0.040518023,-0.072071224,-0.15408435,-0.30151,0.42610732,0.4425154,-0.28760934,-0.31826007,-0.056058522,-0.2039457,-0.072881736,0.08559444,-0.13968785,-0.25828812,-0.086617745,-0.28717464,0.1576563,-0.54535586,0.10429734,-0.54818326,0.51829076,0.08594728,0.13844372,-0.018135868,0.60810894,-0.13358827,-0.0074306796,0.1101214,-0.5105535,-0.70719266,0.006340329,-0.5542032,0.30921605,0.18802208,-0.022645509,-0.010480012,0.29554826,-0.027486788,0.0063321316,-0.38938272,0.15178375,0.23125036,0.011220628,0.34202555,-0.2917525,-0.105209015,-0.09177676,0.5467613,0.33264634,0.1960635,0.9938172,0.49993506,0.16865414,-0.04088258,-0.107243635,0.21801376,-0.2957088,-0.64757067,0.22124653,-0.28608966,-0.030587904,0.39909908,0.5265586,-0.30200866,-0.5171798,0.4072614,-0.27804518,0.19930832,0.35112423,0.26275292,-0.50318414,0.16692846,0.2666688,-0.1846522,0.41839886,0.43308395,0.749271,0.5433246,0.1623532,0.26045674,-0.26845387,0.15454261,-0.16382608,0.14158835,-0.008173542,-0.56382227,0.14187665,-0.035922248,-0.2537895,-0.106537454,-0.087826364,-0.105950095,-0.22048731,-0.31890696,-0.3143611,0.36005852,0.05510878,0.15131995,0.07574289,-0.38086733,-0.23505194,0.5691979,0.73450464,0.49958348,0.5942543,0.75442034,0.561194,-0.14816564,-0.28007835,0.3474373,0.40494362,-0.020609263,0.43541762,0.23928362,-0.31834394,0.47466075,-0.07964827,0.3937546,0.16527553,0.14938755,-0.47768384,-0.50447994,0.038491793,0.0632449,0.21550639,-0.33140898,0.23557013,-0.13086618,-0.16655752,0.75078076,0.61219114,0.93941647,0.44098428,0.52440256,0.8870168,0.4475655,0.36339128,0.5731306,-0.22613823,0.0638395,-0.2502204,-0.13452987,0.1750018,-0.17004189,0.3414197,0.3917391,-0.35985228,0.04962165,0.44893712,-0.20371722,-0.005328628,0.3988327,-0.12626022,-0.0077038812,-0.14939944,0.56860435,-0.20466432,0.17523018,0.24505039,0.13045982,0.70955443,0.43896684,-0.04621399,-0.44896454,0.17860587,-0.20219138,-0.16371863,0.25707588,0.4977254,0.08404365,-0.1127896,0.14568722,0.1817425,0.31160697,-0.017494902,0.2260817,-0.061550815,-0.10200202,-0.43221462,-0.42973804,0.2910525,-0.3277018,-0.060839895,-0.42916167,-0.24944004,-0.19190575,0.550455,0.21154173,-0.20523235,-0.2707423,0.5137962,-0.0045550903,-0.16542614,-0.20347527,0.028472098,0.079663135,-0.19005296,0.17861001,0.41934693,0.24170867,-0.0065641473,0.18614343,0.16805987,0.17817715,0.45423156,0.14401639,0.30228984,-0.15681073,-0.47590414,-0.32512635,-0.24403,0.35804492,0.02035091,0.09322239,0.3152227,-0.30490357,0.35399717,0.5366285,0.3789043,-0.13815442,0.6139611,0.05219847,-0.4423718,0.08145138,0.5485682,-0.049683373,0.09313968,-0.10205567,0.1432576,0.26910934,-0.44740131,-0.35657948,-0.26119933,0.21974958,-0.10612122,-0.46133012,0.2778533,-0.447871,-0.53916097,-0.13053201,-0.4041667,-0.3106992,-0.34448838,-0.12793373,-0.11087358,0.4765448,0.44321305,-0.0064278585,0.40005845,0.5416595,0.41428393,0.22935489,-0.11998074,-0.1399744,-0.35357952,0.15876496,-0.39381698,0.46015733,-0.03699438,-0.35397324,-0.14900194,0.19028461,0.4487508,-0.5162561,-0.4205514,-0.23228495,0.010420744,0.17354177,-0.59650946,-0.06253017,0.11130913,-0.2557721,-0.41492265,-0.29113623,0.63956195,0.2750931,-0.11446801,0.54390764,0.31735745,0.18459575,0.0104684485,0.35438666,-0.4377532,-0.14171454,-0.41273162,-0.24902147,-0.13394384,-0.4366427,0.27109748,0.13177872,0.1454525,0.4175238,0.09769992,-0.1627302,-0.5382023,0.22599386,-0.39695188,-0.015377592,-0.23304346,0.2810285,0.2222176,0.027485812,-0.13544054,0.2749413,-0.47270992,-0.11044713,0.43673578,0.35435057,-0.3728456,-0.14608654,-0.4598733,0.025893468,0.07731816,0.11975882,-0.31857145,0.41173318,-0.46649647,-0.21361387,0.25776488,0.058583617,0.103874244,-0.34484118,-0.38285118,-0.4378455,-0.34327924,0.11725859,0.15926036,0.3500285,-0.26045084,-0.17180924,0.10480796,-0.37852064,0.08453226,0.10580524,0.3746433,-0.3007583,-0.39817247,-0.4015686,0.38192838,-0.066391505,-0.03446864,-0.45187986,-0.42350394,-0.016893046,0.18901956,-0.42888623,-0.110628836,-0.06887432,-0.49866402,-0.20524049,-0.51452637,-0.32706586,-0.34683916,0.011016698,-0.26872665,0.098160855,0.4179765,-0.4335747,0.19084783,-0.52416885,-0.08244552,-0.27955365,-0.21521196,-0.02572482,0.26916525,0.056050777,0.073352955,0.08384535,-0.37831256,0.12629664,-0.35595256,-0.39730722,0.33591837,0.34970433],"bias":-5.807291},{"weights":[-0.0762622,-0.0928468,0.25074878,-0.46649054,0.05204382,-0.38743797,0.40987882,-0.4702281,0.21484038,-0.17797723,0.3056552,0.4544699,0.06499829,-0.46351627,0.0033566842,0.09373652,0.32966658,0.025085384,0.27949235,0.4331046,0.15717039,-0.42423037,0.07085409,0.27835342,-0.241508,-0.41904512,-0.076557495,-0.39344802,0.48796132,-0.31893435,-0.22198334,-0.24977982,0.35857823,0.45647898,-0.19891976,0.39961123,0.24080878,0.046123493,0.34229633,0.06951464,-0.15619718,-0.27826825,0.25037318,0.36719835,-0.33138362,-0.14973657,0.15918073,0.21612824,-0.3361113,0.2964132,-0.12743077,-0.15235282,0.17852399,-0.23615542,-0.17366257,-0.19622341,0.10939164,0.47512338,-0.2742097,-0.087825336,0.2797337,-0.29334864,-0.4850654,-0.15042174,0.040454917,-0.13702816,-0.22281252,0.34426406,-0.46967873,0.19797228,-0.3916113,0.4266405,-0.10961412,0.37174207,-0.23801567,-0.46248332,-0.23278897,0.037040725,-0.096016586,0.1853771,0.2896758,0.4265109,-0.48040846,-0.4676663,0.10619766,-0.4676092,-0.37630364,0.3074675,0.43096116,-0.2184396,-0.32851595,0.0769305,-0.50246143,0.3206934,0.3277859,0.16255403,0.1900875,0.01224172,0.024848077,-0.56331336,-0.14945367,-0.19127637,0.30244255,-0.45988208,-0.2811795,-0.2933639,-0.2715964,0.09206839,-0.2543547,-0.31634519,-0.2624428,-0.16245428,0.054370467,-0.3744709,-0.459544,-0.2836874,-0.15061797,-0.2690687,-0.24707212,-0.25080398,-0.019917993,0.31724188,-0.30527347,-0.0110743325,0.2884124,0.22741452,-0.31328684,0.33308715,-0.0014870109,-0.45363027,-0.16968188,-0.14497937,0.16439342,0.015656833,-0.28418136,0.30542758,0.10276768,-0.18089111,-0.30725405,0.16072878,0.18036065,0.2907879,0.30475006,0.4330583,0.42494094,-0.2375104,0.22765222,0.115602665,-0.4487113,0.22850657,-0.2820991,-0.14382379,-0.2293942,-0.28564242,-0.33055982,-0.3114412,0.013481157,-0.30973783,-0.2301556,-0.23718277,-0.28779274,0.018510625,0.37269667,0.07915711,-0.19062303,0.04676652,-0.45860288,-0.41570708,-0.08356743,-0.30631867,-0.4902726,-0.34694815,0.1907271,-0.4416478,-0.24794212,0.18791795,-0.38494217,0.22750671,0.08795654,0.30438772,-0.04302171,-0.35165176,-0.28385258,-0.060384337,-0.7206432,0.17860919,-0.469988,0.5221726,-0.22808371,-0.21650296,0.1890041,0.5394404,0.30753395,0.18140967,0.43316206,-0.06254794,-0.10654586,0.021418875,0.243344,0.39045754,-0.052302413,-0.010235947,0.11422573,-0.30700308,0.39559928,0.121746846,0.12963437,-0.15686503,-0.20676479,-0.4659996,-0.63688314,-0.4464678,-0.4574064,-0.68488955,-0.05297896,0.5144096,0.54448426,0.6264871,0.058046658,0.26804632,0.5157125,-0.22909448,0.4380962,-0.09481669,0.29241654,-0.14884275,0.17393985,0.30530939,-0.028831353,0.023261735,-0.15006004,-0.029481435,0.09286091,0.62863636,0.2003453,0.16690771,-0.39294845,0.32390502,-0.55721515,-0.6212097,-0.5395266,-0.11891183,0.61700916,0.07402491,0.20562305,0.32624927,0.22020659,-0.1402832,0.47262403,0.44357988,-0.25402173,0.24753518,0.24066186,0.30789918,0.367021,0.17025925,0.2710259,0.56647694,-0.15024862,0.118420824,0.57996535,-0.14623879,0.054511953,0.5625871,0.26744527,0.34793386,0.28502026,0.73470986,0.6907759,-0.008628509,0.42403886,-0.01828478,-0.16131687,0.33544788,-0.42034492,-0.4638946,0.45251617,0.049067795,-0.43005654,0.2755627,0.09474651,-0.3036301,-0.4376335,-0.34770817,0.38838485,-0.15132311,-0.07151209,0.28230748,-0.19863178,0.0033896153,-0.2871635,-0.08105825,-0.32376975,-0.20635176,0.18966578,0.350448,-0.0034080415,0.08114286,-0.22320607,0.47428042,0.19581977,-0.51730263,0.25410348,0.2993939,-0.2155106,-0.44547737,0.22565617,0.45349425,0.19490561,-0.18289083,-0.15164162,0.03169256,0.55030084,0.36917785,0.056514066,0.503798,0.40429756,0.030953946,0.14014912,-0.3395413,0.26026237,0.38935995,0.70678455,0.4045666,0.0855535,0.21979879,-0.047728207,0.3746371,0.3941757,-0.005461944,-0.31815624,-0.6611036,0.121345215,-0.15836191,-0.3796259,0.23442999,-0.34643543,0.2231022,0.12116054,-0.355118,0.23045968,0.39154533,0.29256785,-0.36236548,-0.41694883,-0.17115836,-0.08106646,-0.6456068,0.08000586,-0.36936417,-0.10696428,0.11070466,0.42360702,-0.19962634,0.5330673,-0.038570695,-0.5071073,-0.45842007,0.06649089,-0.18713085,0.036104023,-0.14419274,0.49523646,0.0750789,-0.21433333,-0.028953578,0.4634886,0.41017625,-0.38795313,0.03649426,-0.016185092,-0.7092303,0.12571704,0.0031051794,-0.05991871,-0.4926545,-0.6652028,-0.5272517,-0.36196557,-0.32419235,0.262577,-0.22983816,-0.22610326,-0.21598499,-0.13527888,0.167295,-0.2884351,-0.40236098,0.08786495,0.07334892,0.08084218,-0.035687786,-0.34916022,-0.3013459,0.43607634,0.18433906,0.06520112,0.042420544,0.11260157,0.15651895,-0.49104545,-0.26746184,-0.6351302,-0.7062045,-0.8798431,-0.19967137,0.06658079,0.2046157,0.20753627,-0.2990629,0.034123644,0.2040414,0.19294177,0.0075761876,0.007305745,-0.56994647,0.17965968,0.48295945,0.36999843,0.048343934,-0.38523784,-0.4530914,0.4195088,-0.43306035,-0.07102754,0.08702034,-0.6259586,-0.23089181,-0.82379794,-0.27189982,-0.89637154,-0.6176744,-0.2174815,-0.13913912,0.4080188,0.43581364,0.18933922,0.45214796,-0.15214485,-0.04531484,0.04559223,-0.20986013,-0.4541927,0.21159182,-0.12115137,0.22256373,0.37181148,-0.10983808,0.29532883,0.4843221,-0.120835856,-0.047300827,-0.058320563,-0.3212779,-0.06043568,-0.31344986,-0.6136879,-0.8710698,-0.19033335,-0.44970065,0.34416014,-0.07502583,0.5409397,0.4043974,0.046366256,0.17786159,-0.03473204,0.046787564,-0.35741973,-0.55235267,-0.48843664,0.2722656,0.29954496,0.412343,-0.29487294,0.11450077,0.39353856,0.14652938,-0.49495277,0.25108886,-0.28991705,-0.5390039,0.011135685,-0.17131431,-0.18564509,-0.17423584,-0.43207523,0.29095104,0.18194711,0.52537304,0.49804035,0.50372046,-0.018216653,-0.17352064,-0.4434269,0.44316453,-0.3394037,-0.032885008,0.024670195,-0.4759937,-0.114930846,0.38786602,0.22803017,0.07974889,-0.44164988,-0.43345213,0.3113903,0.21158175,0.4864745,0.21280508,-0.15193689,-0.43879214,-0.2865669,-0.67616045,-0.25419724,-0.42566708,0.049520753,0.79441106,0.07076345,-0.13166937,0.12570542,-0.055318266,-0.53790414,-0.61005384,0.3098433,-0.42302716,-0.3491353,0.35786188,-0.37924802,0.027879206,-0.38400123,-0.03973371,0.27916238,0.2922385,-0.0258611,0.09262197,0.35001,-0.21769015,-0.10159102,-0.06587535,-0.41935167,0.09971763,-0.29532406,0.0055321115,-0.27880007,0.226393,0.35323766,0.009885752,-0.8055696,-0.57525706,0.13798127,-0.15087149,-0.3390605,0.2794945,0.40604332,0.10167822,-0.31738225,-0.434543,-0.22185473,0.42494312,0.061691057,0.1014378,0.25199392,-0.28498602,-0.17493586,-0.50487417,-0.29738286,-0.048010886,0.3194697,0.08933214,-0.15680195,0.17147838,0.3132542,-0.2657101,-0.032633472,0.080653556,0.12483432,0.011984267,-0.5564087,-0.36965725,-0.4823217,-0.055060256,0.091494754,0.014138641,0.3247967,-0.21680954,0.110560514,0.21964063,0.39925423,-0.13574307,-0.118290804,-0.41265118,0.45327148,-0.27695456,-0.37029153,0.29242343,-0.17929526,-0.22505626,-0.12506798,-0.5822486,0.052422136,-0.7362811,0.23082776,-0.39360538,-0.058434106,-0.3187745,0.41284087,-0.0664013,-0.4798014,0.06919351,-0.4051792,0.4251114,-0.3270439,-0.11667779,0.46454796,-0.149321,-0.039587352,0.2562378,0.24544181,-0.36768472,0.09550742,-0.42962688,-0.013968978,-0.32937425,0.23831926,0.52715844,-0.108290054,0.48640618,0.14274359,0.27708384,-0.02454701,0.070747696,-0.2305938,-0.26983765,0.41241398,-0.055747233,0.09954997,0.01454691,0.37163955,0.20468189,0.13090652,0.12741588,-0.38317722,0.3011331,0.058729965,-0.40362325,0.10900796,0.110039674,0.44962138,0.15938948,-0.06569364,0.49044722,0.053535715,0.3284064,-0.031655576,-0.0004373064,-0.15369822,-0.19218238,-0.01254116,0.7514623,0.21444961,-0.2566507,0.17640132,0.16283445,-0.19626406,0.11611799,-0.013848947,-0.07230907,-0.47282374,-0.33878258,-0.4149761,-0.39106837,-0.419279,0.29443678,-0.34694487,-0.4592101,0.37362722,-0.043064278,0.17280962,0.40169814,0.48989055,-0.154085,-0.15203616,-0.24287735,-0.13,0.62616056,0.0076528667,0.4691129,-0.17998178,0.15764463,0.076611646,0.19941741,0.09509037,0.40307122,0.027449135,0.4310269,-0.32025188,-0.3060144,0.06318206,-0.1915988,-0.16396633,0.37654635,-0.3077103,0.26641,-0.4494474,-0.24064222,-0.19909102,-0.2205676,-0.05234241,-0.36017323,0.5669208,0.37891993,-0.18752842,0.13536936,-0.1566955,0.16861291,-0.012282782,-0.061576538,-0.011018128,0.34882,-0.19679984,0.0478006,-0.34349975,-0.4335419,0.49600163,0.1888266,0.07570917,-0.41562262,-0.30114046,0.4377248,0.44934425,-0.41736117,-0.14260769,0.16879156,0.40786478,-0.13676627,-0.17270154,0.3444988,0.25277528,-0.23681118,-0.16835028,0.15770608,0.49299803,0.501928,0.35544205,0.40791318,-0.18742108,-0.05508467,-0.1844717,-0.15546212,-0.111859515,0.16438155,0.29394343,0.24007948,0.22311696,-0.2930365,0.15236792,0.35819456,-0.37654057,0.40513048,-0.38099626,-0.2285984,0.23571436,-0.16151561,-0.18066445,0.044976253,-0.46643305,0.513186,-0.035303246,-0.2790375,0.11679583,-0.094396695,0.4764095,0.16807912,0.32003403,0.032322656,0.3509836,-0.043881927,-0.35163113,0.21694037,-0.44338897,0.49424675,-0.054745454,0.028869292],"bias":-2.5436475},{"weights":[0.4942856,-0.4579508,-0.25217912,0.13656776,0.1105965,-0.07942883,-0.44786164,-0.445173,0.44201902,0.27368966,0.491236,0.44947305,-0.116666585,0.17446347,-0.13964121,0.059797846,-0.0060889814,0.006617697,0.044206012,-0.26990637,-0.4183143,-0.087846555,-0.25738153,0.251746,0.289974,-0.022808546,0.3000057,-0.14011739,-0.057467256,0.48002294,0.03739344,0.45597556,0.43124804,-0.029374624,0.33070323,-0.01528115,0.14966719,-0.18951634,0.49045777,0.22633868,0.36438674,0.07292932,0.030872198,0.44285083,0.43472528,-0.22113596,-0.4838574,-0.03437037,0.02165732,-0.159411,0.22434352,-0.3056597,-0.13996302,0.10440954,0.45117822,0.15819682,-0.17278443,-0.41849324,-0.12558798,0.28597987,-0.008001922,0.2852811,-0.21465747,-0.074381605,0.51179147,-0.13952409,0.33672336,0.47134745,0.40104723,-0.4599947,0.032604318,0.07701206,-0.2691322,0.22017765,-0.18278953,-0.11297512,-0.35933504,0.07140153,-0.27963096,-0.18299946,-0.3092797,-0.22112817,0.50383407,-0.33456787,0.28270164,0.31407312,0.04367409,0.30000994,0.20409043,-0.27250117,-0.21313111,-0.41504046,0.3752271,-0.16608949,0.29431078,-0.23883659,0.040473975,-0.2637348,0.2196684,0.020916453,0.4324855,0.09564371,-0.10417801,0.013847507,0.47417286,0.410864,-0.29678416,0.05473845,-0.32607192,0.073951006,0.37944722,0.38345137,0.19824447,-0.17420253,-0.0042906576,-0.08660369,0.12566707,0.19551086,0.46519113,-0.021470217,0.34506494,-0.38398632,0.44709507,0.48302087,-0.3942389,-0.429195,0.16866614,-0.09240185,-0.28110102,-0.15096824,-0.22592872,0.27896637,0.36718813,-0.19820198,0.2731036,0.4962001,-0.06386972,-0.20486577,0.17148745,0.32414332,0.14507557,-0.11252397,0.023145454,0.21923454,0.43200046,0.37256652,0.19730183,-0.43772024,0.29182366,0.24950092,-0.062197536,-0.021693634,0.24502762,-0.364034,-0.06727733,-0.21602798,-0.20930244,-0.2688707,0.25169867,-0.2979478,0.39289087,0.016734384,0.21923815,-0.36485574,-0.2299316,0.19437325,0.13979515,-0.12292173,-0.39678678,-0.17047702,0.50539017,-0.39271897,0.11106502,-0.36021334,0.26871473,-0.22491741,-0.36693776,0.46175033,0.23367026,-0.3467255,0.37238592,-0.1594924,-0.40789527,0.36956695,-0.46748525,-0.38560757,-0.03680019,-0.47596642,-0.21415403,-0.12722628,-0.11294568,-0.22961219,0.2027229,-0.052564584,-0.3857984,-0.47984913,0.40065268,-0.025546605,0.23843253,-0.4669647,0.043322872,0.3692133,-0.3748248,-0.4072762,0.48267823,-0.46208513,-0.23314476,0.3629639,-0.056743693,0.15722908,-0.08685469,0.3468014,-0.47957197,0.3906364,-0.35353687,-0.2787435,0.37273872,-0.4804555,0.44753405,0.29041806,0.40951514,0.022275724,-0.043642186,-0.21120264,0.48740405,0.38089058,-0.31308544,0.15667653,-0.21167769,0.38072705,0.32948807,-0.2875696,0.33987808,0.35840255,-0.36221054,0.23360941,0.40609843,0.46387905,0.30608824,-0.1583818,-0.029578371,0.40664375,0.37469226,0.46452287,-0.30381915,-0.2834083,0.4542231,0.00586185,0.26288062,0.14956214,0.034376282,-0.22237834,-0.022837678,-0.4328339,-0.14866124,0.24430618,0.1029422,0.15587515,0.38634357,-0.09559359,0.3019009,-0.16100213,-0.21866383,0.14508457,-0.43297324,0.3901812,0.39987358,0.09134482,-0.17193861,0.4809243,0.25060892,-0.38852534,0.2637711,-0.035476845,0.08785083,-0.22715163,0.46257845,-0.39890978,-0.40041298,0.22720462,-0.3327031,-0.40531516,-0.02017895,-0.44245276,-0.45508173,-0.040463123,-0.023264803,-0.17851193,0.37241217,-0.21437864,-0.44840848,0.26416633,0.32320872,-0.15253162,-0.37392738,-0.31586754,-0.12088035,-0.10714806,-0.1623039,0.15614288,-0.28634256,0.24844037,-0.4220939,0.17295595,-0.35089517,0.4692379,0.30812827,0.26012334,0.2928473,-0.38355577,0.17638789,0.3100527,0.2870508,-0.012350035,0.001901563,0.32028553,-0.25858983,-0.45799586,0.4905247,0.18766843,0.32299423,-0.27120632,-0.32378063,0.47431841,0.12160464,0.0122289285,0.2578725,0.02695889,-0.35955787,0.4574213,0.32726032,-0.01804159,0.44558758,-0.45013726,0.15491289,-0.22839296,0.2531851,0.41094473,-0.02495652,-0.38779774,-0.37877724,0.12775838,0.23212731,0.42033204,0.27108413,-0.06080328,-0.28202817,0.2810167,0.41534352,-0.47342736,0.18760753,0.28669733,0.19099268,-0.294322,-0.07257104,-0.18155962,0.18140042,0.078747496,0.14677337,-0.39862433,-0.18615675,-0.14787748,0.4722653,0.12725586,0.35022712,0.23408876,0.399534,-0.01927705,-0.07280857,-0.15781215,0.3414628,0.09242975,-0.17514928,0.3509691,0.45785338,0.12932718,-0.37921926,-0.028950142,0.22179317,0.37024668,-0.33475372,0.4282605,-0.3392435,-0.37757215,-0.41265413,0.35780632,0.48554155,0.39134294,0.4360703,0.02842636,0.31434724,0.42307568,0.24273981,0.19312555,0.21435411,-0.32701334,0.35948926,-0.22024964,0.3932389,0.1539056,-0.06885899,-0.2512551,0.06736654,-0.43465745,-0.4121497,-0.14018476,0.3330643,0.4589126,0.27241722,0.41230297,0.34918395,0.37655896,0.27216864,-0.16810235,-0.3106161,-0.28728646,0.1884103,-0.05369226,-0.27974543,-0.19276327,-0.30872008,0.40260795,-0.030893832,-0.4793114,0.47986665,0.11816749,-0.30317712,-0.4186999,-0.25749427,0.34868118,0.43781677,0.31961033,0.0074652624,-0.092753634,-0.47427934,0.38676244,0.4099925,-0.13051881,-0.079110004,0.1596994,-0.37773097,-0.32217893,-0.07414934,-0.12900911,0.029271033,-0.42843112,-0.1288926,0.49041292,-0.19073366,0.20443293,-0.25990248,-0.11490737,-0.16798887,0.34186667,0.24123904,0.2576899,0.09072774,-0.0687568,-0.3002582,-0.06512963,0.19672969,0.17175318,-0.08803912,0.028185595,-0.21678232,0.013411195,0.15753677,0.16242427,0.19560987,0.14353552,-0.10943119,0.19251946,0.1740134,-0.44921827,0.4426148,0.23070021,-0.13276719,0.23786211,0.016505556,-0.3097291,0.16946597,-0.30992,-0.21615784,-0.102308,-0.3751533,0.21663304,-0.18869954,-0.24945034,-0.2664748,-0.3350706,0.24228461,0.19001365,-0.021968462,-0.24110451,0.049931582,0.43329418,-0.39859408,-0.30802625,-0.41437662,-0.09994965,0.034019895,-0.4670366,-0.34299803,0.06837793,-0.4329613,-0.13418226,-0.4322729,0.0015131936,0.23138435,-0.30799335,0.268745,0.43091398,-0.22912721,-0.4040743,-0.46434307,0.43301708,0.2847822,0.16457093,-0.2523673,0.049861122,0.42691624,0.101607166,-0.24689083,0.27174708,-0.29810914,-0.272284,-0.37265047,0.026950488,0.3030448,-0.31011373,-0.13241328,-0.06944662,0.43224612,-0.039498124,0.44897825,-0.35292062,-0.22150591,-0.33559853,0.4877624,0.21875823,-0.3273281,0.33862934,0.2791686,0.056360308,0.29382515,0.3807888,0.09882389,0.37113178,-0.04329636,-0.27959093,-0.47117445,-0.21165173,-0.4669218,0.25101,0.30211338,-0.074638225,-0.36141413,-0.1076426,-0.022462294,-0.41577494,0.021953827,0.13087124,0.093411684,-0.32254115,0.2764358,-0.323583,0.10556315,-0.13098605,-0.21197003,-0.13186096,-0.28226694,0.45245296,0.08318522,0.4317524,0.39719298,0.29631433,0.13769351,0.38213086,-0.1910593,0.2654177,0.3151773,-0.41458988,-0.05942728,-0.0114298025,0.22180875,-0.072452344,0.20011128,0.29113927,0.24836317,-0.11877687,-0.0038340443,0.33011377,-0.24602643,-0.25619966,-0.30358264,0.34633973,0.14961773,0.29973835,-0.28915972,-0.43099055,0.44769552,-0.42647812,-0.22043072,0.08036452,-0.41930294,-0.3086154,0.39730236,-0.001568023,-0.15484416,0.32644427,-0.20030177,-0.27851444,-0.12997356,-0.47397837,-0.20527169,-0.12621865,0.04210966,-0.45432332,-0.47035056,0.20894161,-0.45903862,-0.002209098,0.26421583,0.4820865,-0.16970086,0.16999575,-0.415263,0.35439628,0.29913163,0.11813177,-0.043885536,-0.45486593,0.31094122,-0.10108379,-0.4885873,-0.47287834,0.019114612,-0.21090662,-0.32717392,0.0046360414,-0.12349853,0.36539337,0.041491177,-0.08117267,-0.4618927,0.22381045,-0.03256316,0.049786184,-0.038413443,0.30557814,-0.21713103,0.32513896,-0.33776864,0.26100585,0.48638073,-0.17345908,0.3275339,0.08503237,-0.41483372,-0.054386783,-0.12000378,0.07290727,0.020051124,-0.1200076,0.12794389,-0.4785651,0.03882906,-0.21707758,0.29990605,0.37711892,-0.09302104,0.3881549,0.2626125,0.45184615,-0.31602818,-0.02994173,-0.43723482,-0.2535013,0.024623498,-0.19652613,0.01976382,-0.4334071,0.04908157,-0.13339001,0.3402549,-0.37141305,-0.18035899,0.34255284,0.0035749897,-0.3818957,-0.16603668,0.26490298,0.008548612,-0.45653585,0.41111642,-0.31074953,0.118355,0.10642542,-0.38100547,0.3441631,-0.3333455,0.08186444,0.5126255,0.28017813,-0.122153245,0.10981257,0.2304353,0.41278228,0.2596177,-0.018968126,0.09425772,-0.43283084,-0.17404073,0.29336217,0.13225548,0.12926732,0.24734065,0.024543433,0.39700484,0.48375514,-0.0035061515,0.025266318,-0.43617424,-0.032920443,0.28281686,-0.29555902,0.34215593,-0.40402243,0.2822081,-0.14218532,0.03620456,-0.33760497,0.42710742,0.068989314,0.20393792,0.17834276,-0.37579554,-0.42305595,0.17475593,0.30483782,-0.06093787,0.45837718,0.24211256,0.24458142,0.50741917,0.30688578,0.071144156,-0.40111592,0.39570782,0.2397796,0.4369523,0.14540493,-0.36632237,0.51329803,-0.4534584,-0.16313015,-0.2608492,-0.090248145,0.049777374,-0.025005097,-0.005934937,0.3700438,0.25452003,0.13587493,0.18000226,-0.2276203,0.17985141,0.22458999,0.023848528,-0.34607646,-0.12292207,-0.45201752,0.40121853,-0.23383446,-0.12913322,-0.08457147,0.09125398,-0.14739056,0.12403633,0.46792585,0.37401953,0.4439737,0.0024750251,-0.3803384],"bias":0.024275938},{"weights":[-0.06906875,0.22779304,-0.27894622,0.07876437,-0.16490752,-0.39429706,0.3326519,-0.1574462,0.27630383,0.43287522,-0.36289805,0.36716145,-0.24940255,-0.23520261,-0.14201427,0.24491274,-0.41561824,0.26270455,0.3207956,-0.41281098,0.31826395,0.13929135,-0.0062016123,0.1364556,-0.2322442,-0.35444456,0.43649274,-0.32839745,-0.07570765,-0.17098492,0.14576823,0.34887153,0.22424692,-0.17675743,-0.24876449,-0.1460438,-0.0025285783,0.2515564,0.24856101,0.13032469,-0.42665768,-0.024479808,-0.19221662,-0.07289698,-0.13248779,-0.007001774,0.08950053,-0.48741683,0.20662983,0.0020209465,0.26229525,0.17505784,-0.05004054,0.06420874,0.27902526,-0.18281907,-0.028614284,0.16434807,0.051883128,-0.24697381,0.16021758,0.2445439,-0.19004163,-0.4068734,-0.13429141,-0.2738271,-0.41617137,0.07209692,0.39601824,-0.30447966,-0.38676012,0.45520505,0.4918836,0.07373542,0.14721552,-0.27428725,0.3865901,0.19168396,0.42714384,0.46565598,-0.39009434,0.2469598,-0.25531435,-0.40126175,-0.18544704,0.2964602,-0.35395646,-0.3757519,0.28081837,0.33617643,0.07337091,-0.3138433,0.2470031,-0.05138564,0.28425038,-0.116017066,0.1417537,0.4690399,-0.027261864,-0.22421604,0.6307475,0.2994844,0.040627237,-0.0011543316,-0.14929831,-0.16854367,-0.11741613,-0.39844862,0.40594214,-0.25533482,0.428422,0.20074898,-0.4803236,0.24939585,-0.3827405,-0.17091984,-0.48636654,0.40987578,-0.11449069,-0.017555183,0.09247138,0.45463574,0.35392022,-0.083277136,0.16873641,0.15353873,0.11487647,0.42544106,0.49154314,0.37164798,0.39953434,0.31985992,-0.08406847,0.14503863,-0.44207564,-0.19105849,0.36140773,-0.23506796,-0.46006,-0.11556596,0.24101147,-0.30489796,0.31916535,0.2764454,0.06258782,0.05860594,-0.3909522,0.16671127,0.041169237,0.24136226,0.20288637,0.50660163,-0.004289436,0.7807736,0.16891074,0.7843212,-0.027996147,0.47934613,0.6659048,0.50538087,-0.40379637,0.03738628,0.33494297,-0.5351083,0.09564555,0.43757635,0.4559163,0.23131156,-0.2562257,-0.37048665,0.060295057,-0.03198053,0.27670136,-0.23034179,0.14722057,0.46670538,0.15425143,-0.25447756,-0.29302314,0.3865933,0.003259019,-0.32859027,-0.04980565,0.006876887,-0.20596585,-0.4013374,-0.2449199,0.04502793,-0.048886012,0.14367688,-0.03608238,0.15781857,-0.27929288,0.019356307,0.17992835,0.2503664,0.16047841,0.35361594,-0.17310767,-0.040204838,0.32699096,0.22975354,0.560201,0.020545365,-0.15658265,0.07691472,0.013360796,-0.30385602,-0.10428554,0.27974647,-0.043074682,-0.5961632,0.15544438,-0.5686468,0.05121722,-0.5099703,-0.4768738,-0.5639629,-0.182857,-0.15178971,-0.39336386,-0.019039975,0.27272254,-0.35792357,0.086606555,0.2750741,0.2870159,0.116340145,0.25125006,0.4214966,-0.4005041,-0.10438797,0.23070121,-0.48938474,-0.09684915,-0.19476916,-0.15251555,0.19188567,0.3629617,0.41932386,0.318758,-0.5947781,0.24903594,-0.6278118,-0.20333257,-0.63732064,-0.3565187,0.0014450736,-0.092757225,-0.04288288,0.35840252,-0.15486006,-0.12794279,0.4524062,0.4353934,-0.44365415,-0.39609337,-0.07574441,-0.16909781,0.26104018,0.02734044,-0.48811343,-0.13710472,-0.48757818,-0.4999142,0.11850803,0.62150013,0.10657918,0.05360509,0.12573211,-0.57340276,-0.067926764,0.04072716,-0.37700132,-0.32349965,0.07864229,-0.2866468,-0.03700484,0.323122,-0.24825293,-0.33441705,0.38425153,-0.042769212,-0.20068638,-0.0879258,0.42258236,0.27443895,-0.3481929,-0.39517033,-0.2319717,0.17395832,-0.38729554,-0.7405251,0.05705694,0.11157577,0.17193437,-0.18112312,-0.59390086,-0.42081398,-0.20075129,-0.541468,-0.35492417,-0.5106937,-0.44706905,0.31853238,0.41025078,0.31574506,0.08622285,0.27878383,0.21801598,0.3429174,0.19255973,0.3556795,0.09771916,-0.4970408,-0.154817,-0.21948187,0.018485183,-0.8150354,-0.746094,-0.09887111,-0.5591835,0.7066151,0.051824573,-0.17998886,0.02007139,-0.29700994,-0.23391157,-0.011600987,-0.40282217,0.095122546,-0.102148995,0.15062542,0.14558235,-0.16762005,0.45227164,-0.3028071,-0.21146129,-0.20349622,0.40375644,-0.20476174,-0.09929596,-0.21124713,-0.6607086,-0.39220944,-0.46253493,-0.5026571,-0.78931254,-0.20200944,-0.0025372284,0.11193303,0.32721296,-0.44388756,-0.20968111,0.033324685,-0.3411734,-0.109488934,0.20303616,-0.48454118,0.16491897,0.16065425,0.22732262,-0.094431974,0.116084896,-0.26198,-0.12066328,-0.07957096,-0.23950417,-0.31319436,0.12923634,-0.23046874,-0.039019004,-0.5792744,-0.34307343,-0.6361729,-0.8021754,-0.43470755,-0.1970218,0.19395289,0.30732325,-0.30311573,-0.10453954,-0.42082077,0.16889603,0.3174826,-0.06597526,0.27244332,0.027447037,-0.44126067,-0.299505,-0.19226694,-0.22420093,0.46047145,-0.17427054,-0.03655761,-0.46475103,-0.10682806,-0.1585713,-0.67410094,-0.056327913,-0.16444716,-0.6435478,-0.1141573,-0.6072868,-0.2045691,0.018410115,0.6903372,0.3187516,-0.69294673,-0.124450415,0.064788975,0.03262054,-0.36064082,0.19714202,-0.3788624,-0.39391443,-0.15220638,0.21858265,0.35212916,0.030228421,0.26735502,-0.27279872,-0.01891827,-0.4046595,0.3876737,0.2776454,-0.43184295,-0.16629383,-0.40286925,0.26860282,-0.57338417,-0.033840064,0.53248537,-0.14364322,0.60197383,0.365243,-0.09925065,-0.27081424,-0.61403507,-0.49082342,0.13174301,-0.036537472,0.3204612,0.09962264,0.45968604,-0.42941117,-0.4639464,0.15815978,-0.45882338,0.46522605,-0.2100466,0.3617432,0.26907998,-0.3674053,0.2573058,0.019257328,0.08543548,-0.3893869,0.26121736,0.20642123,0.2918008,0.5732016,0.0054700417,-0.13463505,-0.5799306,-0.14138179,0.23529722,-0.3809941,-0.031655155,-0.02328251,0.43047345,0.3017149,0.2351617,-0.13057378,-0.25482145,-0.09373743,0.32249445,0.11681222,0.45148364,0.024325803,-0.19529618,-0.2691082,-0.08695267,-0.21894974,-0.013079362,0.41227192,0.4250472,0.08396976,0.5992545,0.020639353,0.4390154,0.41773078,-0.4241693,-0.47699028,-0.096699506,0.032334786,-0.09273093,-0.1518299,0.037044324,-0.06446186,0.5248863,0.25631568,-0.29006422,-0.25203103,0.09927604,0.35981938,-0.17430912,0.28266084,-0.007691337,-0.40699947,0.20541434,-0.44307733,-0.1483157,0.20339288,0.07715195,0.09648275,0.9123685,0.38887677,0.24494368,-0.23902796,0.15037142,0.1489362,-0.21484306,0.33025748,0.6560457,-0.19004904,0.32342964,-0.27151302,0.3155622,-0.102831155,0.27781263,0.1630236,-0.39737684,-0.40267786,0.3659621,-0.19969821,0.1504103,0.17121336,-0.3571987,0.0687625,0.01683728,0.37115785,0.8134961,1.002111,0.074360855,0.40954852,0.39565364,0.29211554,0.13594705,0.32851303,0.35937536,0.10742254,0.66235256,-0.05188948,0.32980722,0.07033388,0.32053843,-0.2333651,-0.11241158,-0.4419797,-0.2852208,0.20050094,-0.35323247,-0.4066043,-0.10417788,-0.18798365,-0.23593056,0.5106397,-0.15868315,0.3263315,0.5897845,0.8372864,0.15253161,0.68669635,0.48758343,0.27584565,0.3732571,0.6303167,0.512588,-0.18109305,0.40418434,0.03342488,0.6623292,0.060460404,0.071158215,0.32351035,-0.05005127,0.47994745,0.40994704,-0.030929204,0.14360757,0.12178921,0.49124742,0.5165083,0.017093498,0.6071123,0.19681527,0.1215699,0.57030743,0.3632517,-0.065132335,0.576866,0.6919914,-0.10633682,0.24748984,0.2598283,0.12216933,0.41602483,-0.25013718,0.4742487,-0.01922948,-0.2092023,0.5170618,-0.34092706,-0.020891732,-0.3211656,0.36003843,0.04827224,-0.41882452,-0.3038604,-0.030269464,0.22499041,-0.038007393,0.36954156,0.18889672,0.021235412,-0.48433846,0.13852972,-0.10354859,-0.3254005,-0.2611596,-0.45438695,0.36871648,0.14994796,0.026795683,-0.08817328,-0.4158786,0.25153157,0.09170091,0.021526884,-0.4017226,-0.082219355,0.15122077,-0.27537903,0.49479347,-0.2984808,-0.13642591,-0.044748034,-0.45367774,0.5213543,-0.08188081,0.069186345,0.11333924,-0.17308442,-0.21327579,-0.15515509,0.01260402,-0.5692894,0.19720775,-0.36241633,-0.47464693,-0.70230263,0.10417082,-0.5449924,-0.5110055,-0.16986886,-0.015538967,-0.40568423,0.16912374,-0.17922425,0.3521304,-0.3594975,0.020781426,-0.24723,-0.39910358,-0.4380438,0.3005439,-0.0383026,0.003575075,-0.1471185,-0.3126655,0.30561692,-0.30278552,0.31508458,-0.5136233,-0.27883765,0.17673165,0.11918143,-0.035871476,-0.4729815,-0.15898097,0.31036314,-0.51927114,-0.48446712,0.18936561,-0.5098186,0.11850465,0.41153717,0.2849103,0.053882148,0.28060812,-0.33875614,-0.33346656,0.4041194,-0.25161245,-0.251705,-0.41291994,-0.31341767,-0.42253453,-0.1312662,-0.39115524,0.38124985,0.3089506,-0.0021736582,0.083705254,-0.36732337,0.2510407,-0.48222372,-0.039301626,0.037943054,-0.13746713,-0.5014756,-0.30985436,0.27885807,0.024594644,-0.2192024,0.3432087,-0.086254306,-0.012292088,-0.40895098,-0.055167492,-0.455476,0.14167506,-0.13900398,-0.04356264,-0.3155044,0.19266318,0.4027183,-0.2988223,-0.20650543,-0.25977087,0.31721407,0.31592,-0.1745494,0.35255963,-0.3769696,-0.3069124,-0.047613602,0.18604961,-0.4389975,0.058745544,0.4258056,0.111909784,0.17994004,-0.12996149,0.12183685,0.05872448,0.10668462,-0.3484245,-0.32112938,0.16695684,-0.10958021,0.055183094,-0.41475105,-0.27946365,0.25366637,-0.26321334,0.4926357,0.39547944,0.20154896,0.018991329,-0.09326113,0.17221695,-0.08541059,-0.488036,-0.39609137,-0.47820562,-0.24697706,-0.04249466,0.33644572,0.2627024,-0.29891318,0.48765934,0.39087433],"bias":-4.97859},{"weights":[-0.4036784,-0.50105137,-0.30545685,0.21646458,0.26952353,0.3693799,0.29211023,0.1479227,0.4347357,0.3616567,-0.4790127,-0.29422125,-0.28257287,-0.03457275,0.43135637,-0.39916807,-0.2071765,0.20052928,-0.50680125,0.29533854,0.3090022,-0.1953519,0.13961321,0.14908129,-0.41624138,0.15944928,-0.46760246,0.3886092,-0.42590186,-0.22648591,0.38749185,0.40422562,0.43558732,0.15085855,-0.0920825,0.03559227,0.026462192,0.34755963,0.07463528,-0.24834652,0.2923019,0.2753583,0.22346956,-0.044455122,-0.06063837,0.27039337,-0.37713683,0.04679086,0.48720077,-0.11144499,0.16735682,0.059637792,0.16403884,-0.08800939,-0.14179844,0.444703,0.1322034,0.1655373,-0.21259147,0.052738294,-0.2199432,0.036320876,-0.007996268,0.19330539,0.0050545163,0.10994839,-0.13873138,-0.22133213,0.386429,-0.04112504,0.54065347,-0.2620379,-0.12423432,0.24313828,-0.15982284,0.06078427,-0.21678144,-0.0309465,0.34155807,-0.48928037,0.21436712,0.07056496,-0.4387718,-0.31701073,0.36020973,0.26483312,0.13267183,-0.40961048,-0.17585042,0.28429577,-0.13876027,0.27862346,0.12873657,-0.2653424,0.0023820037,-0.39503393,0.18949512,0.39055938,-0.34287882,-0.14526708,0.26936543,0.37541637,-0.13070329,0.04670364,-0.32113454,0.55429393,0.45905566,-0.14873236,-0.11693059,-0.34350824,0.24069387,0.040592022,-0.022872971,0.10235117,-0.4080943,-0.1695576,-0.24820057,0.101507954,0.04416829,-0.35874528,-0.54607993,0.16020441,-0.04139696,-0.0887452,-0.15293044,0.04338458,-0.034708384,-0.44267324,-0.29816517,0.283648,-0.062197153,-0.08492444,0.12517385,0.1911909,-0.07760534,0.13582247,0.5229203,-0.1283146,0.32612857,-0.20681435,0.08064255,0.14742273,-0.12697259,-0.09217872,0.29019985,0.10027276,-0.07676212,-0.40943342,-0.59130985,0.2225245,-0.7174895,-0.40361884,0.06645078,-0.5030243,-0.584789,0.2760874,0.23063728,-0.08214115,-0.0024075052,0.650295,-0.062075574,0.5947437,0.18054862,-0.049408283,-0.34948492,0.2562024,-0.03686001,0.18586054,-0.43896052,0.056573987,0.34873757,-0.042186514,-0.47481555,-0.27545232,0.3157199,-0.64331317,0.14183779,0.2391072,-0.10761444,-0.051124047,0.069890335,-0.40201208,-0.40037215,-0.70007247,-0.3544409,-0.20771085,0.23766866,-0.14797653,-0.059614,0.22855721,0.7637166,0.5377825,-0.06597892,0.14926347,-0.46998832,-0.32616338,-0.24718606,-0.038418576,-0.11800223,-0.17562371,-0.22444433,0.20006041,-0.3996142,-0.46961078,-0.3319146,-0.4062564,-0.2629812,-0.043044165,-0.2771453,-0.26256034,-0.58682096,-0.7154671,-0.17745385,-0.37473962,-0.016900957,-0.3878352,0.2924032,0.39641333,0.40643537,0.070043236,0.13689356,0.17904085,-0.43086517,0.44085094,-0.4767392,0.16608231,-0.0058930195,0.33612654,-0.13203439,-0.17640898,-0.47636423,0.34087923,-0.4160901,-0.022203486,-0.49771526,-0.11144618,-0.2451918,-0.2621035,-0.22137982,-0.65787774,-0.5252431,0.25322026,-0.3907899,0.25855902,-0.432825,-0.43137488,0.36786267,0.5615288,0.50138444,-0.1997178,-0.31025022,0.3997326,-0.11276415,0.31255883,-0.51033705,0.29923394,0.07635144,-0.29101628,-0.3133182,0.31004617,0.31306666,-0.426826,0.36881727,-0.21995257,-0.180518,-0.44945237,-0.10412822,-0.58936304,-0.18345484,-0.49758232,-0.672718,-0.026103832,-0.5679426,-0.242549,-0.3157964,-0.36804658,0.01880882,-0.2579171,-0.17623478,-0.25976995,-0.05995469,0.030432578,-0.11470649,0.36349425,-0.191317,-0.21527044,-0.37138972,-0.09821048,0.33859238,0.53197825,0.0029801822,0.28029028,-0.3269854,0.1842945,-0.22233349,-0.66898096,-0.48008245,-0.7181376,-0.18721966,-0.6886942,0.012302056,-0.53422624,-0.43996328,0.13209674,-0.19655268,0.3679572,-0.25549665,-0.12848365,0.39695564,-0.01658593,0.24191743,-0.4980017,0.1847017,-0.13176371,0.43293545,0.3223706,0.4946541,-0.15705265,0.5019931,0.67846066,0.19518279,-0.03552885,0.0051128715,-0.6077345,-0.7116099,-0.65601236,-0.8859426,-0.15667051,-0.34938738,-0.60785955,0.25895733,-0.41921616,-0.351954,0.43857265,0.47745165,-0.23391256,0.4631321,0.2350291,-0.29740384,0.1827957,0.23415267,-0.0905678,0.24321891,-0.24656639,0.5386805,0.15269439,0.6898103,0.8390868,0.24291939,-0.4501454,-0.2398837,-0.74402773,-0.62866133,-0.27667823,-0.5706303,-0.7630911,-0.22679193,-0.23365115,0.30490395,-0.35117787,0.5448226,-0.12009115,-0.18818519,0.21675417,-0.06358726,0.39493942,-0.27445084,0.07081839,0.014799977,0.38148865,0.29252034,0.5557267,0.43533042,0.3057275,0.8181178,0.14574887,0.21936445,-0.21779597,0.08681355,-0.75218517,-0.33465979,-0.3041975,-0.83650947,-0.11318325,0.04495443,-0.34200653,0.48717543,0.6503399,0.0069947024,-0.046548862,0.42111695,-0.3245966,-0.4690784,-0.23069102,0.13523516,0.2873085,-0.038897835,0.19184712,0.32369718,0.11149531,0.77195185,0.730451,0.2852754,0.46268946,-0.079953596,-0.25203747,0.039268814,-0.29165214,-0.1852945,-0.57422227,0.059713062,0.0048219785,-0.22867598,-0.29942024,0.5664764,0.39499405,0.5195258,-0.112115234,-0.1764908,0.3189961,0.27611044,0.43406144,-0.09447751,0.02785297,-0.44475535,-0.2898552,0.3494658,0.22122183,0.1036587,0.82572293,0.53334063,0.36677644,-0.38069928,-0.45740744,-0.06907494,-0.1341569,-0.44209144,-0.15720986,-0.46878198,-0.2877869,0.10686655,0.064131066,0.39933288,0.48407128,0.26838022,-0.26476607,0.20013921,-0.007197237,0.061399996,0.34229735,-0.33471882,-0.20837769,-0.5061999,0.3733751,0.5321347,0.4359889,0.51663214,0.49757987,-0.13121161,0.39554867,0.18166625,-0.3328969,-0.30514267,0.21742673,0.031311966,-0.067918524,-0.4183279,-0.1795756,0.46822086,0.6319176,0.19827707,0.13815197,-0.18222712,0.15530767,-0.47871122,-0.30499223,-0.48833427,-0.09615763,-0.16697446,0.04803686,0.23559763,-0.1496945,0.61028403,0.6654155,-0.23797347,-0.1807787,0.47693658,0.19174756,-0.23795274,0.18343337,0.064284414,-0.35486013,-0.048900675,0.22499076,0.034836996,0.41803735,-0.07540129,0.014823188,0.090908706,0.46746674,-0.02607445,0.350028,0.31188348,-0.11949351,-0.46855393,0.3563838,-0.50634253,-0.41931564,0.14952125,-0.094481446,-0.30781177,0.20952123,-0.16246812,0.22731963,-0.010256698,0.022844067,0.23148221,0.33454826,-0.02902538,-0.31072867,-0.42649892,0.29599708,0.44775572,0.21862997,-0.29262388,0.39254132,-0.08024609,-0.30933404,0.32977492,-0.51466,-0.42208138,-0.14928156,-0.3657696,0.44724676,-0.19298479,-0.5267357,0.10758017,0.11964476,0.30157772,0.103979364,0.28814006,0.20782726,0.27120277,-0.015192788,-0.11371126,0.66186404,0.18657632,-0.124611095,0.3939551,-0.42103988,-0.41702667,-0.04153561,-0.034337938,-0.26997015,0.03739617,0.18431155,0.42602468,-0.057142165,0.2570829,-0.071148135,-0.010300693,-0.21609038,-0.10607146,0.25113666,-0.07964558,0.012347455,-0.21637058,0.23715405,0.050551444,0.4983529,0.09824713,0.5427321,0.5895907,0.24055943,0.11989941,0.34055564,0.4288984,0.42359382,0.44124964,0.1877392,-0.37557176,0.12743765,-0.45145398,0.38926244,-0.34603047,0.33321178,0.47793153,-0.08748982,0.16533855,0.06085241,-0.34803644,0.073576614,-0.004850904,0.24812765,-0.62438154,-0.23605758,0.005411868,0.23974036,0.38796896,0.22069103,0.5923043,0.039470494,0.43767732,0.5307886,0.084217034,0.30056486,0.2348997,-0.19008046,-0.3385254,0.2451071,0.35772738,-0.382132,-0.4480492,-0.20630233,-0.45765302,-0.38787803,-0.25199467,0.12964621,0.44788358,-0.058570947,0.04103144,-0.053775053,0.16697806,-0.063935615,-0.30839762,0.08869724,0.26438168,-0.017517239,0.104875974,0.32501367,0.21647294,0.0017336456,-0.29861042,-0.20518953,0.053681646,0.23933053,-0.12018613,0.32660925,0.22438338,-0.033703674,0.39452207,0.3945246,0.15901174,0.25672618,-0.35577175,-0.3121563,0.2594927,0.08123352,-0.097779155,-0.03416723,-0.601305,-0.4812754,0.13979667,0.14372802,-0.2981364,0.022948226,0.20037751,-0.56369305,-0.36808407,-0.12757526,0.15153664,-0.325336,0.20333682,0.20746726,0.032120947,-0.11413764,-0.33023745,0.28099397,-0.2745,-0.07487363,-0.37629527,-0.39804718,-0.24229676,-0.33315,0.06768367,-0.18798712,-0.3838329,-0.28171533,-0.44651753,-0.481614,-0.050805982,-0.038817998,-0.28951162,-0.4459384,-0.058901865,0.037002653,0.06918843,-0.019909378,0.2717884,-0.29442832,-0.3736834,0.031780794,0.24570917,-0.40212625,-0.3025446,-0.29417259,-0.07408774,0.43216097,0.17421064,-0.08574131,0.19008344,-0.24031049,-0.29325417,0.427158,-0.025603006,-0.14794718,0.31483945,0.008202828,0.06719382,0.17689951,-0.01803763,0.008106661,-0.49782145,-0.6595317,-0.33874065,-0.4749213,-0.4598837,-0.4215602,-0.2722635,0.13857582,-0.44625875,0.2493776,0.0018618037,0.11100741,-0.026932882,0.13429207,-0.42191127,-0.19782895,-0.18019599,0.0699459,-0.09293702,-0.48013267,-0.07657542,-0.065524936,0.1598939,0.2782863,-0.38091692,-0.33572865,-0.53320247,-0.5246468,-0.26549184,0.32987988,0.18387534,0.23869313,-0.012189062,-0.2079685,-0.36981013,-0.4294581,-0.51914316,0.35945112,-0.22457266,0.37559012,0.41418147,0.029879475,-0.46301684,0.48065558,-0.139965,-0.2353589,-0.41780218,-0.071358204,0.39807084,-0.4989946,0.12972382,-0.20258322,0.37080392,0.31573847,0.027299127,-0.06358733,-0.49777287,0.41125777,0.43071502,-0.24810787,0.10900409,-0.3752692,-0.038983017,-0.25806937,0.34152862,0.22333279,-0.2957552,0.3085846,-0.014225301,-0.36670312,-0.10768893,0.34239176],"bias":-6.52877},{"weights":[0.18755138,-0.32109493,-0.04632389,-0.29606754,-0.44598955,-0.13566601,-0.35950357,-0.42034096,0.17504716,-0.06353164,0.117997855,0.17956209,-0.48599553,-0.1626966,0.15179047,-0.03467163,0.35590357,-0.24508968,0.43752867,-0.20418167,-0.43182737,0.17166257,0.13247174,-0.32607406,-0.3241852,0.21334863,-0.24184045,0.36425084,-0.46045607,-0.13833332,0.010280806,0.16670716,0.4801349,0.15096197,-0.032089733,0.12184838,-0.38861457,0.2647828,-0.14851238,-0.252893,0.24476607,0.43065026,0.4438654,0.023623602,0.23575641,-0.20857659,0.20560074,-0.15145665,0.31940633,-0.18366432,-0.13361064,0.09308148,0.1477176,-0.35459286,0.10087785,0.3862658,0.46305972,-0.23836792,0.12030031,0.24013153,0.0793599,0.4746387,-0.20267715,0.22413267,0.07705156,0.41245997,0.37349808,-0.4387409,-0.22765107,-0.21229975,0.07511552,-0.37237614,-0.2950036,0.22071935,0.050117686,0.23819038,-0.4804899,-0.031095244,0.32768148,-0.011150678,-0.3488672,0.1984329,0.1574868,0.21528482,-0.3612936,0.4875154,-0.373775,0.20657188,0.06195418,0.3713832,0.48574096,0.0728817,-0.1358604,-0.051351696,-0.5495367,-0.29421315,-0.37129146,0.14905047,-0.22748832,-0.23346812,-0.28083983,0.28483137,-0.0033377062,0.034878638,-0.21768744,0.29317,0.19186273,0.26901186,0.20750245,0.17928131,0.34234333,-0.07235733,0.18380928,0.003933572,-0.11396354,0.31399247,0.0143456785,-0.27878323,-0.17312874,-0.5171008,-0.10692077,0.3339179,-0.5366063,0.2953614,-0.25580198,0.029193293,-0.47014698,-0.054160945,-0.4476514,-0.046648484,0.17732434,0.33943513,-0.52959216,0.029331343,0.16373585,0.3090771,0.4198995,-0.11363131,-0.18119435,-0.22486818,-0.31216055,-0.3181209,-0.173854,-0.22132055,0.026225869,0.050820094,0.06328039,-0.12305292,-0.19947906,-0.66784465,-0.48124328,-0.53210455,-0.5161606,-0.4624826,0.4284991,-0.4902267,-0.50363225,-0.018646603,-0.13265872,-0.48419318,0.18144359,0.40967658,0.25377855,-0.094749324,-0.3070479,0.0020788251,0.2608878,-0.4455034,-0.10769893,-0.372456,0.06467829,-0.22088034,-0.026893688,0.16192766,-0.47983477,0.22365062,-0.5642291,0.06500004,-0.3016598,-0.20271857,0.013837009,0.43183455,0.25811815,-0.12098241,-0.2730811,0.05199109,0.29182434,-0.3022111,0.49148893,0.41725618,0.40688753,0.42180282,0.27432904,0.18920512,0.41697666,0.3672887,0.023303153,0.30402395,-0.44539797,0.053754855,-0.1107778,-0.18221433,-0.088626936,-0.49276045,-0.38350627,-0.16598502,-0.52447367,-0.19892277,0.22087441,0.37320513,0.057754293,0.026051855,0.15937588,0.406332,0.27265012,-0.34608006,0.17282067,0.37471563,-0.23544556,-0.17481218,-0.09405301,0.2587459,-0.45694083,-0.21287572,-0.29833996,0.5021823,0.13509609,-0.48669487,-0.3410603,0.047509182,-0.6492715,-0.4828269,0.047411956,0.20000319,-0.067378275,-0.47296223,0.32570317,-0.013770757,0.30924127,-0.1766214,0.056119494,-0.18369319,0.1516963,-0.37161896,-0.004548211,-0.05158346,-0.07046255,0.48324063,-0.028909797,0.049930748,-0.25379488,0.4606732,0.25829613,-0.03175827,0.44616383,-0.08157865,0.09085735,0.2610771,0.15824269,-0.21301025,-0.009826263,-0.13716191,0.30741897,0.013942641,0.25422236,-0.13168739,-0.31821316,-0.018835811,-0.5185178,-0.5215579,-0.3223945,-0.44220766,-0.08307725,-0.021984098,-0.009785304,0.29910973,0.14237039,0.07798655,0.01859417,0.3174485,0.42480862,-0.48583078,0.18992585,0.4176048,-0.3922712,0.269121,-0.1892157,0.31197408,-0.28510842,-0.1173896,0.55644727,0.37982994,0.052075546,-0.08858081,-0.13026679,0.18279654,-0.5166598,-0.20651406,-0.4419605,0.21345222,-0.3218973,-0.0099837305,0.0021292516,-0.4156323,-0.05443437,-0.28081194,-0.33938602,0.2508284,0.41973755,0.17903109,-0.42468238,-0.48812377,0.18217914,-0.4461947,-0.029400587,0.26131475,0.5804534,0.23720428,0.52601725,0.22533412,0.5021696,0.56592613,0.14025992,0.37354928,0.30298853,-0.1856749,-0.39292842,-0.16900422,-0.247184,-0.5356707,0.25838593,0.22358227,-0.050957214,-0.35891125,0.37410167,0.20482475,0.06683284,-0.2602195,0.06821402,-0.09815391,0.2431543,0.40931422,0.4376979,-0.006383765,0.88281816,0.63018984,0.20371208,0.36953866,0.63520414,1.0592656,0.567307,0.83051926,0.5137074,-0.19367743,0.59649235,0.31227425,-0.030347504,-0.22881734,-0.5921976,-0.13032877,-0.18239604,0.0052127405,0.12026442,0.14587837,0.1429036,0.17748122,-0.29133427,-0.4352149,0.50815314,0.41518342,-0.2145759,0.35327682,0.2867441,0.007739257,0.5388857,-0.16501509,0.2802022,1.1869899,0.94319534,0.5603215,0.45759374,0.2822073,0.38286382,0.5192002,-0.30902147,-0.4001107,-0.37381965,-0.30385554,-0.5872276,-0.29862192,-0.4385887,0.23424366,-0.11973069,-0.46200666,-0.33256263,-0.41497177,0.42432278,-0.25890934,0.079859525,0.08703046,-0.35644764,-0.0252412,0.5350121,0.28528112,-0.09375155,1.0827688,1.063581,0.56790483,0.337435,0.43231875,0.40361342,-0.12743641,-0.43454129,0.2314151,-0.16042283,-0.6535192,-0.30621454,0.27404982,0.11558729,0.33149463,-0.4244781,-0.17475629,0.45398435,0.50227916,-0.16440782,-0.47491843,0.2573471,0.19556077,-0.047931302,0.012443257,-0.3488705,0.03812285,0.6243587,0.07473485,0.40655822,-0.3111429,0.44880685,0.075202286,-0.21930157,-0.3951305,-0.49159923,-0.16254865,0.14589395,-0.25471997,-0.3760903,-0.27165392,-0.28392118,-0.01441449,-0.13503134,0.26890606,-0.36057416,0.39165315,-0.08984249,-0.31003153,0.11266447,-0.50759906,0.14644974,0.12449111,-0.35470012,0.016496498,0.5539222,0.499725,0.55172193,0.16741754,-0.079187796,-0.0091878325,-0.3690786,0.06249633,0.033646647,-0.51715374,-0.14921224,-0.29512492,-0.21589637,0.23846488,-0.20620123,-0.14784928,0.2789001,0.34537232,0.43002304,-0.01743785,-0.07712482,-0.53792995,-0.037540074,-0.34564862,-0.27278292,-0.56483734,0.2089291,-0.43455818,0.06855623,0.45280936,-0.16181171,0.28330937,0.04961577,0.21853997,-0.5958119,-0.27759632,-0.37524968,-0.086082496,0.2145666,-0.010004429,0.08914775,-0.34822056,-0.06122055,-0.008796395,-0.32673043,0.16175601,0.41067073,0.08140678,-0.05402746,-0.0642604,-0.34734425,-0.3016149,-0.34484482,0.28426385,-0.7077523,0.16095906,-0.423422,-0.014222613,0.34261483,-0.2955127,-0.14456077,-0.04254918,-0.12703346,-0.44284233,0.3276063,-0.1653145,0.08910704,-0.3328458,-0.4962845,0.17421724,-0.16361134,-0.092300035,0.27687794,-0.35105804,0.26878342,0.3643973,-0.42760777,-0.42899403,-0.28957295,-0.18400668,-0.28973055,-0.2629512,-0.27393645,-0.2970694,-0.6287222,-0.26533473,-0.42210245,-0.08504022,-0.49601147,-0.22784615,-0.3718117,-0.30742034,-0.3885744,0.04340764,-0.5078294,-0.5555427,0.17978375,0.087795354,0.3540215,-0.04286055,0.21997368,0.10532331,0.36233228,0.28818753,-0.38671333,0.24516024,0.29261217,-0.10664332,-0.4056823,0.36107,-0.032830138,-0.7135875,-0.6029279,-0.43734744,-0.76937896,0.028565174,-0.20632516,0.015265613,0.19218376,0.2794044,-0.043235246,-0.1618425,-0.2528893,-0.5608258,-0.45450732,0.008276659,-0.42915922,0.37036467,-0.15083638,-0.003271291,0.28932518,-0.011105889,0.12474463,0.08197771,-0.22396798,0.14524479,-0.2984284,-0.35314757,-0.01985477,-0.26768568,-0.4542856,-0.07650761,-0.3668902,-0.31405786,-0.6477857,-0.035959896,0.0024755932,0.34815636,-0.29893506,0.27163896,0.34772643,0.40160787,-0.2779217,0.23911177,0.26612672,-0.387461,0.40647528,-0.43670264,-0.14282621,-0.041255195,-0.430869,-0.4548199,-0.53487426,0.27258635,-0.43261552,-0.019865628,0.4291329,0.017016308,0.291796,-0.13986294,0.22796854,-0.11974006,0.42337307,-0.04337303,0.012010862,0.07058127,0.053688042,-0.26982653,-0.066050716,-0.15499237,0.23289151,0.39424884,0.22405025,0.4277762,-0.25864047,0.31776494,-0.37568358,0.109176695,-0.22406313,-0.002240492,0.049546804,-0.18069838,-0.10682051,0.19709887,-0.118985,-0.17788,0.31645042,0.28922677,0.13658394,0.36088112,0.378723,-0.06421609,0.01219128,0.07962688,0.12889203,0.24615654,0.042755783,0.18086441,0.18319908,-0.403407,0.36464632,0.005221563,0.30534273,-0.25469846,0.43965304,-0.04860093,0.3302014,-0.39139622,0.1150234,0.2736864,0.14015137,0.2957856,-0.15282634,0.08766598,0.03630615,-0.5459146,0.22600874,-0.3191047,0.27283335,0.31441617,0.48651502,-0.00035934692,0.5810029,0.47199303,0.3608372,0.46497774,-0.018236253,0.18709865,0.39177275,-0.23724288,0.047823887,-0.43951935,0.5055516,0.44149685,0.050160468,0.05672687,0.18289614,0.059855673,-0.1254083,-0.30343983,0.026062254,-0.12405452,-0.38951916,-0.16870344,0.041173752,0.13174054,0.18740554,-0.16535437,0.52914876,0.5960617,-0.11908509,0.048215248,0.007743375,-0.3612102,0.37604383,0.014839391,0.1464718,0.15263677,-0.25971836,0.059299786,0.41929322,-0.30895072,0.27012247,-0.1403419,0.17777447,-0.4054317,0.052443106,0.41641393,0.1897924,0.2792145,-0.03638186,-0.1614695,0.27250293,0.34110597,-0.35853854,0.20904687,-0.18508053,0.43150204,0.36031908,-0.363729,0.4422766,0.26843336,0.2200138,0.04505033,-0.33373815,0.46942586,-0.43523687,0.17850518,0.3271522,-0.18123674,-0.43781608,-0.36667454,-0.26967755,0.052524816,-0.35240227,-0.108662136,-0.15893525,0.46167162,-0.10948439,-0.166317,0.3345522,0.26078692,0.1808067,-0.015436227,-0.255952,0.34981388,-0.013203138,-0.3952751,0.23278028,0.16559505,0.052186806,-0.36843747,0.37030464,0.109536976],"bias":-5.095635},{"weights":[0.3468744,0.063089214,0.2781649,-0.26818582,-0.17573462,-0.093722716,-0.022609774,0.44285026,-0.22336112,0.2728825,-0.04674269,0.42929617,0.26513898,0.2417876,0.008781947,-0.41493192,0.47703233,0.18758418,-0.077815235,0.08029841,-0.19934927,-0.008758288,-0.22905682,0.38960913,-0.25562015,0.19238175,0.14198186,-0.40750965,-0.47146532,0.43592933,-0.11744003,-0.3626562,0.20036899,0.33634722,-0.46676928,-0.33957687,-0.21117875,-0.39567915,-0.01667506,0.045929518,0.072253264,-0.098887615,-0.12062716,-0.02096462,-0.26721874,0.45470622,-0.3220381,0.37799138,-0.30602393,0.090298474,0.20211108,-0.3272781,-0.43610808,-0.107164994,0.34283486,-0.28709194,0.29011884,-0.45340142,0.051327053,0.11002599,-0.3056009,0.20119172,-0.41730598,0.38494077,-0.23555206,0.25536662,-0.5073806,-0.31653807,-0.21666594,-0.30339998,-0.3152574,-0.4764715,0.091013595,0.09585106,-0.0063996725,0.36382133,-0.16557233,-0.03877622,0.45621526,-0.12171574,0.0043621487,-0.11856875,0.029639969,-0.2245271,-0.022263795,-0.08123912,0.36967447,-0.2512446,0.22302131,-0.4169624,0.04635909,0.020088589,0.28990546,-0.2828762,-0.37205547,0.17397806,0.0835422,-0.32583863,0.36049494,0.0009653557,-0.4285917,-0.41737747,-0.55780536,-0.48807538,0.1083592,0.19752239,-0.28617623,0.29063648,0.34402984,0.25089216,0.14734267,0.324281,-0.25870588,0.45264494,-0.07674883,-0.17361946,-0.011314934,0.2824125,0.19528374,0.3449222,0.20902379,-0.25930738,-0.21899128,0.17713735,0.33263326,-0.55332226,-0.1338061,0.18364125,-0.23798026,-0.24547623,-0.2669246,-0.25179788,-0.44454345,-0.21447271,0.21313739,0.08659401,-0.2009775,0.44606596,0.09702131,-0.12539816,0.077775106,0.21439601,-0.24282593,0.29142675,-0.084165014,0.103780344,0.33825478,-0.27217433,-0.08559468,0.14149614,0.3947885,-0.4413183,0.41266215,-0.2505131,0.31750467,-0.0960454,0.03133901,0.33627722,0.28360036,0.4358609,0.088906586,-0.2737919,0.5898343,0.024656693,0.48053744,-0.02302569,-0.0972334,0.09610689,-0.30492744,0.31297147,-0.123513095,-0.1862521,0.107634164,-0.15230824,0.108805455,-0.33952114,-0.08072326,0.1003238,-0.46212226,-0.41373315,-0.048929956,-0.29634297,0.19773456,0.058599316,-0.11956425,-0.25169328,0.37114975,0.109095484,0.23263034,0.18870178,0.595359,0.5775423,0.50836116,0.4691117,-0.15325786,-0.086509705,-0.12999181,0.32158017,-0.09193959,0.08512625,0.1512339,0.45851827,0.34947634,0.4376874,0.2685929,0.16369984,0.33794105,0.3461918,0.15173066,-0.49414888,0.24318643,0.15248361,-0.5653845,0.22663744,0.31865945,0.45850086,0.44199896,0.4765526,0.4090752,0.47630823,0.5655456,-0.09577704,-0.24723771,0.19803949,-0.24747814,-0.34726462,0.278628,0.101361744,-0.34942225,-0.4505762,0.40245998,0.18892877,0.07830603,0.22013232,0.41827035,0.09527127,0.2430482,0.27856943,-0.15856116,-0.42205572,-0.16075483,0.39694932,0.28554878,0.21455924,-0.005726288,0.4300484,-0.12689778,-0.13592969,-0.11573965,0.11657792,-0.3635218,-0.42665073,-0.4283113,0.28258562,0.4701421,-0.2873335,0.23676522,-0.3884925,-0.37868616,0.1319471,-0.014151686,0.56497294,-0.28482503,0.23769294,0.1339432,0.30358055,0.08665635,0.4193008,0.26943246,0.52076834,-0.044719428,-0.22643572,0.44985187,0.4502024,0.169648,0.6466463,-0.1872893,0.5627809,-0.26440817,0.3673739,-0.33412024,-0.012523819,0.13557717,0.43363214,0.11226242,0.087918796,-0.1697825,0.29553106,0.5102879,-0.21077685,-0.21791571,0.13881025,0.14038937,0.33504397,0.18590772,0.53148735,-0.17697561,0.04591629,-0.4440506,0.30307496,-0.1409556,0.06488283,0.34497496,0.49941933,0.4067777,-0.26377812,-0.28122467,-0.118991196,0.07009025,0.2299235,-0.42254075,0.21739852,-0.41161332,-0.42176574,0.25032854,-0.39617485,0.11549453,0.017029004,-0.11441617,0.24526185,0.50320077,-0.19103229,0.09926093,-0.25088137,-0.46158233,0.18424733,-0.61618423,-0.36391932,-0.297122,-0.24281155,-0.25818107,0.5045873,-0.24645393,-0.31600466,-0.48053658,-0.14547014,-0.27343798,0.4155779,-0.035964113,0.42597616,0.237723,0.44215387,-0.40411025,0.37598836,-0.19798553,0.34837016,0.37344003,0.24960203,-0.24196193,0.08651048,-0.47073096,0.02853084,-0.37004608,-0.19217055,-0.88012326,0.061825745,-0.6544329,0.06623509,-0.3190061,0.14095615,-0.2799299,0.028801339,-0.2044804,0.12329682,-0.13567625,0.2425599,0.2677302,0.46522614,-0.12788743,-0.38379908,0.20571844,-0.3967426,0.030320594,-0.40714413,-0.08075863,0.3048881,0.21365537,-0.23115778,-0.1198524,-0.67700994,-0.39648846,-0.22165652,-0.19972213,-0.3575463,-0.75165945,0.21396948,-0.107604735,0.2280241,-0.28598145,0.15304182,-0.2005079,0.045506965,0.30842295,-0.44004676,0.4662585,0.23371339,0.10853596,0.22714362,-0.2543385,-0.32537276,0.051952615,0.27019954,-0.05547719,-0.38952994,-0.58853817,-0.09701467,-0.21896613,-0.8784431,-0.8128365,-0.6526119,-0.029534409,-0.21753587,-0.59341115,0.0042271377,0.45268357,-0.09248741,-0.4336432,-0.34437683,0.1600283,-0.35712,0.37995365,0.26526478,-0.4689169,0.00077146484,-0.030772187,-0.3764054,-0.41608047,0.18450247,-0.017648092,0.18348175,-0.1826591,-0.6146344,-0.057665993,-0.2781572,-0.5115381,-0.56322694,0.06029,-0.33562142,-0.27035797,-0.061372355,-0.14905345,-0.23639573,-0.04537748,0.1693727,-0.3299483,-0.38538533,0.425828,0.41289145,-0.31859908,-0.4322018,-0.4880428,0.37026414,0.50622416,0.08884931,0.09104292,0.28383917,-0.15531304,-0.40128896,-0.19906875,-0.5708426,-0.66188586,-0.38507012,-0.04262886,-0.53712964,-0.47159392,-0.5308178,0.35652176,0.10622612,0.21375558,-0.10498877,-0.37263992,-0.10514609,-0.1370037,0.4530453,-0.1740951,0.1756783,-0.29790136,0.06914553,-0.32142413,-0.33852643,-0.14480895,-0.3357765,0.27278823,-0.29976606,-0.17112325,-0.3795369,-0.28928086,-0.2135481,-0.6052461,-0.39242107,0.13336304,-0.31642604,0.22161362,-0.39912528,-0.062006794,0.16452691,-0.20713423,0.31234473,0.46368483,-0.01154217,0.40336895,0.39712828,-0.11408658,-0.18873867,-0.44553176,0.18017939,-0.48906413,0.4406921,0.062527545,-0.15287426,-0.011584382,0.2060993,0.03236219,-0.31446287,-0.22236139,-0.018956592,-0.21183303,0.023853522,-0.5236759,0.20103163,0.19789796,0.090973586,0.20609592,-0.4689973,-0.08547269,-0.022983428,-0.2116704,-0.35186756,-0.44796106,-0.031751994,-0.47156772,0.12430215,0.26164106,-0.39866742,-0.18588465,0.3837943,-0.2635652,-0.28769627,0.17184457,0.7587132,0.106508136,0.13569552,-0.38232282,0.30757853,0.22900851,-0.1226798,-0.38615254,-0.3745645,0.08717782,-0.4592645,0.40273207,0.20286353,0.076391496,0.42296383,0.44873646,0.38821867,-0.3585114,0.1673742,-0.48229638,-0.40485457,-0.1277626,0.18460982,0.40731162,-0.117946304,0.457966,-0.23690133,-0.13274482,0.022577025,0.5825792,-0.07443758,-0.012169967,-0.007793682,-0.41179985,0.29931197,-0.20059407,0.07550189,0.14250232,-0.56600016,0.15172976,0.13334098,0.21729793,0.32207242,-0.18503329,-0.07252251,-0.33056313,0.37086442,-0.28353858,-0.4028298,0.2215452,0.2627306,0.09529262,0.23680477,0.08593988,0.0980616,0.37317178,0.701814,0.25678462,0.20765921,0.5294055,0.27817833,0.1409626,0.11145066,0.004377735,0.18297072,0.32631373,-0.2105235,0.096155725,0.24436696,0.31097484,0.18041992,0.25052854,-0.4249641,-0.0041619805,-0.02474729,-0.3804195,0.11082709,-0.43224517,0.2715695,-0.43162456,0.36419207,-0.14457129,0.17972694,0.47842062,-0.03474753,0.30754197,0.29969227,-0.21357483,0.47011286,0.6750355,0.01138893,0.026918627,0.2745865,-0.2127923,0.6343959,-0.1619434,-0.015178432,0.36212263,0.09837297,0.43980715,-0.22416212,0.04518541,-0.4156667,-0.36848244,-0.28169876,-0.01178059,-0.23422562,0.21621819,-0.14200363,-0.28610772,-0.3621425,0.42306933,0.48793754,0.14437898,0.39135092,0.23903613,0.57075757,-0.113482326,0.7186868,0.64369184,0.110842235,-0.07825188,0.27963245,-0.30299795,-0.113153525,0.11894408,0.33393043,-0.104126975,-0.32098097,0.2283526,-0.09284107,-0.13278943,-0.047194865,0.04214533,-0.14878844,-0.14669274,-0.43049297,0.057147976,-0.44935536,-0.3251751,0.3644509,0.29697827,-0.25368857,0.15392773,-0.08745257,-0.097680025,0.009654311,0.37911102,-0.11359129,-0.23139054,-0.027440103,-0.04564956,0.16027454,-0.31297973,0.2352262,-0.17934182,0.29800954,-0.3222788,0.00073136814,0.27825668,-0.2156509,-0.44838175,-0.24294148,-0.11442216,0.11214656,0.1594565,-0.16829322,0.20157838,0.39134914,-0.1850034,-0.3290332,-0.11994481,0.36352357,-0.5328948,-0.037207447,0.16248597,0.040164508,-0.34126544,-0.2459188,0.24858175,-0.3272518,-0.20450343,0.40458867,-0.4312159,0.12563741,-0.43235528,0.34728298,0.25495026,-0.21803616,0.45587304,-0.010479547,-0.45241377,-0.02138894,0.40155473,0.42109412,0.18834653,-0.27174917,-0.4167017,0.10762226,-0.5039805,-0.35449272,-0.1218622,0.17611475,-0.21537052,-0.16906862,0.38896888,0.38487434,-0.5234251,0.4185746,-0.5208861,-0.0237337,-0.31761226,-0.27255973,-0.49273732,0.05434345,-0.06073715,0.3476055,-0.1836593,-0.023947235,-0.17290913,-0.108964935,-0.3821753,-0.15517318,-0.01858687,0.16790871,0.3802329,-0.3182611,0.36142877,-0.12785174,-0.20650885,-0.45292476,0.19012457,-0.043599855,0.47365546,0.20697236,0.44626078,-0.34392655,0.3047063,0.1662201,-0.1546551,-0.0869215,-0.28455004,0.32770756,0.17677774,0.47517946],"bias":-2.9539492},{"weights":[-0.4034998,-0.33449528,-0.24111074,0.2972664,-0.18782026,0.3486041,-0.15347648,-0.28896657,-0.5376878,-0.32178733,-0.2145496,-0.30929086,-0.36648235,0.3496481,0.4262608,0.35730383,-0.04274432,-0.5286715,0.14479321,0.39523807,-0.0891532,0.38493493,-0.50897384,0.33065823,0.41951576,-0.45649824,-0.16925642,-0.03285109,0.4524167,-0.5088494,0.3602232,0.28769508,0.09832978,0.12038913,0.45186135,-0.3830839,0.010454728,0.33241597,0.36289003,0.28045556,0.3625886,-0.3144302,-0.097320944,-0.34581175,0.095640056,0.17966253,-0.44305456,-0.092215896,-0.09555124,-0.1638525,0.1600107,-0.2647703,-0.2748972,-0.094784975,-0.22521526,-0.4343972,0.23441836,-0.36758038,0.082989424,-0.5246699,-0.047359247,-0.099695906,-0.14419578,-0.38145247,0.08680102,-0.46868303,-0.25268915,-0.35900396,-0.50398374,-0.51999456,-0.45795983,0.097664386,-0.30260697,0.12990375,-0.27536973,0.1709344,-0.16734448,-0.15973364,-0.16241531,0.10057044,0.41472617,0.19957227,0.42256406,-0.085534304,-0.1281373,-0.0150046805,-0.04864883,0.09347099,0.28542098,0.22678116,-0.22098829,-0.24453779,0.17785797,-0.052557565,-0.07689356,0.50646335,0.0020930213,-0.27303532,0.35552847,-0.25953248,0.11210274,-0.06328503,-0.43267596,0.25719973,0.29611847,0.35191566,-0.09843242,0.04567425,-0.5073151,0.18275128,-0.30782285,0.23070198,0.2703835,-0.27268744,-0.17338799,0.2836084,-0.08827746,-0.31150568,0.08276596,-0.18937136,-0.42279005,0.14811727,-0.3780813,0.19237883,0.15079534,-0.26237798,-0.034916896,0.3156239,0.27137432,-0.1277557,0.16093104,-0.16375902,0.06921591,-0.6458638,-0.037298173,0.24344882,0.13180126,-0.21771953,0.29521787,0.085178435,0.2761157,-0.2924489,0.24514687,0.22197403,0.0025698338,-0.13081421,-0.2896562,-0.009131794,-0.038219336,-0.04449629,0.6088206,0.15163918,0.6111977,-0.21347445,-0.0063050124,0.09029187,-0.5129221,-0.15534216,-0.008894569,-0.07879114,-0.56948197,-0.32453018,0.074623145,-0.6179609,0.1669063,-0.09868915,0.1829841,-0.0032280982,0.006631298,0.017001988,0.31868562,-0.45527583,-0.3893406,0.42778468,-0.2952696,-0.05827517,0.3484024,0.7243545,0.56886303,0.0026392846,0.2824768,0.26554602,0.44965482,0.079276025,0.6216461,-0.04827302,-0.4935135,-0.07803397,-0.05283104,-0.35279584,-0.77458674,-0.17228347,0.0061530685,-0.008271047,-0.24053693,-0.12789579,-0.42902252,-0.2447911,-0.3605832,-0.07895862,-0.40766087,0.58861375,-0.23356614,-0.12934908,0.07178891,-0.24123602,-0.05260059,0.652757,0.4872471,0.54224145,0.16389343,0.47067362,-0.012327452,0.6267363,0.081039675,0.28138766,-0.1733441,-0.22773015,0.16521667,-0.28897235,0.097616225,-0.4727873,-0.29542813,-0.020435797,-0.26923558,0.26692483,-0.2049678,0.5135849,0.43902078,-0.037371196,-0.0760395,0.3203543,0.37523925,-0.19816765,0.0064496705,0.27516884,0.038848106,0.058232695,0.84644514,0.5190161,0.492322,0.5910674,0.2589699,0.45987514,0.3541628,0.13462408,0.41898766,-0.17608549,-0.45196325,0.3652245,0.35632315,0.45443127,0.10178417,0.38681012,-0.4082345,-0.32911927,-0.18668605,0.08227892,0.5867388,-0.065752886,0.21497512,-0.32365966,-0.5035846,0.08154404,-0.28514212,0.29231778,0.64065915,0.73395455,0.48812172,0.39105216,0.5868465,0.20872304,0.09707817,-0.16252016,0.04284364,-0.3514045,-0.3893511,-0.017921086,-0.07403568,-0.26194242,-0.15140533,0.22058803,-0.087341435,-0.005824097,-0.3315715,-0.318104,-0.16511932,-0.49787349,-0.6463815,-0.1490807,0.015625108,-0.5239274,-0.35479698,-0.18950136,0.34513736,0.56844354,0.239938,0.2267574,0.5313114,0.5538378,0.54490036,0.05321401,0.412246,-0.18650848,0.26700145,0.25829703,-0.27448,-0.5156139,0.352361,-0.14585347,-0.14770374,-0.43387702,0.3831426,0.04514182,-0.012942191,-0.36098108,-0.038067654,-0.39002177,-0.45909628,0.052081723,-0.1225389,0.09442502,0.09088074,0.01962216,0.27525428,0.79815185,0.48881087,0.45744416,-0.21264753,-0.08643722,-0.20887475,0.23028624,0.19336116,0.033203565,-0.21077496,0.13924266,-0.09693834,-0.099952355,0.061169464,0.20621248,0.12311469,0.20323566,-0.45395067,-0.34339714,-0.6103393,-0.2977567,-0.792849,0.045478888,-0.14374466,-0.0062970812,-0.6294593,0.05744936,0.25564852,-0.12863898,-0.05295209,0.3168148,0.43014064,-0.25211653,0.057103883,0.2904226,0.4137896,0.2808107,-0.03953819,0.2670705,-0.28086022,0.065477505,0.10716489,-0.35100016,-0.1702534,-0.32164612,-0.17633185,-0.017339222,-0.07329928,-0.020117417,-0.19211552,-0.41337064,-0.17346978,-0.31214848,-0.81468093,-0.5330507,0.08775203,0.059336547,-0.25087124,-0.23791504,-0.1345708,0.046406705,-0.2316958,0.37367883,-0.4489578,-0.081874765,0.30229276,0.4134889,-0.51081777,-0.112203,-0.01636611,-0.5208609,0.32781386,0.00021707127,-0.13014694,-0.008025531,-0.32931757,0.18607154,0.18955453,-0.55744517,0.07977964,-0.88305354,-0.49071822,-0.13595836,0.45787057,0.5346758,0.30908114,0.36148694,-0.23468526,0.12284207,0.4845935,-0.25412786,0.4523538,-0.122197725,0.2978991,-0.22781606,-0.20239049,-0.38870558,-0.536598,-0.0843434,0.14983808,0.2776041,0.1421297,0.045449458,-0.67276824,-0.27727583,-0.4030384,-0.189972,-0.08742417,-0.7813169,-0.10016375,-0.6028269,-0.15379944,-0.09731947,0.13052244,-0.13341434,0.71663946,0.04668461,0.09949329,-0.3755671,-0.4641772,-0.2632158,0.33012637,-0.09985527,0.2753692,0.41371068,0.387471,-0.0057270173,-0.4547328,-0.013062008,-0.2038492,-0.35118234,-0.57666963,-0.1554042,-0.5281498,-0.106769,-0.8522721,-0.75927085,-0.8025022,-0.30232233,0.19317976,-0.24681017,0.30309835,-0.058417723,0.19770159,0.35710075,0.24828026,-0.12406904,-0.23028496,-0.395062,0.035020657,0.10298164,0.30581596,0.12214109,-0.10044134,-0.19056574,-0.35961977,-0.24132723,-0.19258538,0.2803594,-0.21978846,-0.63719034,-0.053933144,-0.6537539,-0.9942959,-1.057955,-0.7310611,-0.27702472,0.36499017,0.49883208,0.55547655,0.6999213,0.3978039,0.329579,0.42326638,0.23322879,0.009158281,-0.22504395,0.034615263,-0.43596914,0.1064706,0.4377127,-0.41849536,0.48964763,-0.29699183,0.4769542,0.21419224,-0.40822414,-0.45583346,-0.8451744,-0.31521603,-0.6745359,-0.40102717,-0.33442816,-0.3996484,0.29237527,0.031386632,0.046233065,0.51929253,-0.058061976,0.5757252,0.2003793,0.089382134,0.008616422,0.32442892,-0.09348569,-0.39422774,0.40172908,0.35676494,-0.38376442,-0.28406346,-0.35987318,0.20244701,0.039565586,0.50846994,0.020378591,0.21794474,0.23876946,-0.22851622,-0.62346286,-0.78287315,0.19803262,-0.3435587,-0.28100732,0.000456604,-0.24705532,0.48875463,0.4288659,-0.1396457,-0.11728806,-0.35147315,-0.07924933,0.24925302,0.42345145,0.021856435,0.29138497,0.07590529,0.1233784,0.17445059,-0.15605292,0.013365013,0.43412974,0.50445694,-0.21939142,-0.27876282,-0.19421683,0.19970882,-0.028943727,-0.2548103,0.3153323,-0.14055388,0.16482063,0.113698915,-0.0012159725,0.31134903,-0.20212413,0.2547852,0.338701,-0.16735779,-0.21332873,-0.21269421,0.33292425,-0.10681243,-0.16938725,-0.20940061,0.046116102,0.22867993,0.33440807,-0.28152198,-0.09263136,0.50404364,0.41069114,0.02812006,0.26109844,-0.05953707,0.025073174,0.19429015,-0.14793229,-0.29085997,-0.24906875,0.39383587,-0.28814995,-0.1933271,-0.5241721,-0.10280917,-0.085776865,-0.27991915,0.30835408,0.14127563,0.23460282,-0.33947578,0.2821271,0.11850205,-0.045428272,0.3654452,0.009671622,0.59387577,0.6437562,0.4082625,-0.14293018,-0.16940096,0.23838408,0.12642989,-0.0007356867,0.26509055,0.49865675,-0.34697804,0.38193646,-0.14201619,0.083171785,0.033566322,-0.39712894,0.19513348,-0.43459374,-0.33700594,-0.03997689,0.3466051,-0.018119706,-0.06002476,-0.15933454,0.17973965,0.2618704,0.3888881,0.09082333,-0.43002346,-0.39007437,0.24467303,-0.087841615,0.39241028,-0.33710456,0.18614726,0.19100426,0.4508702,-0.101704165,-0.39599982,-0.29538637,0.15667944,0.016802553,-0.29110563,0.11901827,0.031230021,-0.25904942,-0.57016486,-0.47922733,-0.31005818,-0.47130772,0.42073277,0.34509853,-0.2189036,-0.044475462,0.3260291,0.19681498,0.2521422,0.4319357,0.12921712,0.19133365,0.4717782,0.15605855,0.54696697,0.26318976,0.62978715,-0.10644859,0.0902821,0.39934763,-0.43740818,0.28829557,-0.34747562,-0.17852803,-0.1218263,0.15460944,-0.042937923,-0.44399983,0.2755973,0.43734244,0.31678805,-0.29784176,-0.32103726,-0.15856272,-0.28322008,0.3209662,0.37744823,0.008608906,-0.40941387,0.52690774,-0.26338997,0.5893872,0.37653115,0.6342355,-0.111210324,0.6001875,0.5446486,0.64820516,-0.26345792,-0.038500536,0.026554124,0.049429484,-0.48438597,0.41049948,0.24741025,0.121214546,-0.058485787,-0.32987222,-0.48874834,-0.4320819,-0.033930093,-0.5167717,0.2122381,0.41437426,0.30026546,0.16614695,-0.0046851723,0.2747859,-0.017359667,0.4142895,-0.3907014,0.3387056,0.0024830382,0.4160735,0.44157258,0.22205737,0.13930218,0.3365765,0.26506755,-0.07478075,0.11293312,-0.29671434,0.055356853,0.19434237,0.13195512,-0.2576523,-0.3779752,-0.23188525,-0.49936667,-0.38686356,0.17468327,-0.31856868,-0.23544556,-0.31991127,-0.21072842,-0.14444274,0.007853348,0.36528277,-0.25223872,-0.5307975,-0.4478827,-0.25618985,0.42776474,0.11028862,-0.3350556,-0.12522608,-0.13397785,-0.344347,-0.16613136,0.09507717,0.27786097,-0.5331819,0.42314115,0.31787232,-0.21625632,-0.14415458],"bias":-6.369438},{"weights":[-0.19896697,-0.2853976,-0.43375307,-0.18728052,-0.22391509,-0.42288786,0.45472878,-0.26932234,-0.26258117,-0.32685453,-0.3296998,0.2782405,-0.17755155,-0.42549026,0.3166336,0.21635328,-0.3388843,-0.11393331,0.470066,0.1465366,0.20237924,-0.30236858,0.4293173,-0.23020695,0.29867524,-0.05902554,0.15906943,-0.49816373,-0.0031261996,-0.20344089,-0.16153203,0.117944285,-0.368349,-0.045287646,0.4806229,-0.5047842,-0.4786605,0.326986,-0.109503776,-0.4710111,0.055104617,-0.18221614,0.22086012,0.102346584,0.032754976,0.016404955,-0.46577647,0.13765661,-0.035390273,-0.3995281,0.13002835,-0.35230172,0.047322653,0.10314156,-0.056232736,-0.46940905,-0.46557945,-0.08214305,0.45707896,-0.09718338,-0.32903704,-0.07950426,-0.45821702,0.118562244,0.33760864,0.355089,0.30183813,0.1573184,0.40005124,0.0062119304,-0.49700308,-0.09990954,-0.24737126,0.21695134,-0.20743664,-0.27721822,0.43050617,0.44851676,0.34347114,0.39560378,-0.46326184,-0.14462222,0.41106993,-0.049794734,0.022597406,-0.4297356,-0.022242807,0.48232868,0.40265685,0.10362284,-0.06361431,-0.32864207,-0.11989002,0.11993875,0.35583,0.045439854,-0.14193912,-0.3466406,0.08443275,-0.41700342,-0.29912624,0.088849686,0.26462996,0.30619872,-0.2928369,0.35409886,-0.23041466,0.4121357,-0.17091481,0.31175977,-0.094610944,-0.21325587,0.10265769,-0.09796084,-0.18598773,-0.00015305178,0.07211164,0.20890743,-0.15041386,-0.08367326,-0.1302021,0.40555876,-0.1929446,0.2838099,-0.3222691,-0.19737145,0.29623565,-0.016429592,-0.2877975,0.2713007,-0.08840291,-0.14435335,-0.16145533,0.09936167,-0.2906501,0.06707596,-0.09046024,0.40318352,-0.08456126,0.35750872,0.024050724,-0.17595778,-0.41228628,-0.34611952,-0.47612986,-0.4576761,0.09919961,0.32008284,0.117685,0.16190708,0.022166656,-0.016068675,0.06182337,-0.2325606,0.412919,-0.05411581,0.31155944,0.15875164,-0.030531013,-0.16193122,-0.4376628,-0.12350802,-0.40560627,0.25623867,0.13716167,-0.2579682,-0.2518535,-0.5132369,-0.29407424,0.2236682,0.41294053,0.19129659,-0.49760273,-0.26907408,-0.37551638,-0.28877768,-0.48756933,-0.23792006,0.0845552,0.28967202,0.12519063,0.523869,0.6577837,0.42509478,0.67060983,-0.12518477,-0.10038753,0.54657775,0.024528863,-0.40221685,-0.35095966,-0.14001375,-0.20943956,-0.0042280345,-0.37003875,-0.032225277,0.4338228,-0.082789384,0.2839373,0.32255793,0.26515412,0.04823392,-0.47584713,0.18452917,-0.47077498,-0.3735178,-0.09237437,0.32763156,0.020090546,-0.06464163,0.7525416,0.6695998,0.803107,0.59398276,0.6308589,0.28665948,-0.0010163297,0.17673345,0.31313872,-0.16832605,0.36271468,0.20886725,-0.15602964,0.15782674,-0.21990024,0.29694632,-0.2717926,0.2597564,-0.39681295,0.21904491,-0.008664102,0.07290545,0.17744859,0.06168625,0.33402222,0.24055928,0.6024585,0.554586,-0.11139788,0.47610682,0.49110085,0.3915139,-0.20936272,0.35720578,-0.29588795,-0.17752175,-0.34825352,-0.09025719,-0.3433027,0.43598774,-0.41889575,0.063210376,-0.41976005,0.16666283,0.061960604,-0.21281333,0.30570465,-0.50281,-0.4302387,-0.40858188,0.23779608,0.112548925,0.12742583,0.51474196,0.35772848,0.42324635,0.02534317,0.04920371,0.37081107,0.44801617,-0.16509734,0.36054602,0.49725875,0.050795734,-0.35948104,0.54143363,0.4236915,-0.2629617,0.28989682,0.37057355,-0.4323757,-0.5102954,0.38967025,0.29356247,-0.25763696,-0.14527844,0.418556,0.3998847,0.10502197,0.14190206,0.18944003,-0.30823076,0.19395553,-0.03131739,-0.6093821,-0.16664985,-0.25412834,-0.15210027,-0.36202487,0.23237465,0.44123456,0.59300333,-0.10064762,-0.24342921,0.26738563,-0.36846069,0.22343518,-0.4252822,-0.20105179,0.4079283,-0.087257706,0.015299152,0.22704506,-0.014137497,0.36975533,-0.26413867,0.35801557,0.32151198,-0.23496409,-0.060567804,-0.5133996,-0.26818106,-0.13434634,-0.066728406,-0.6558855,-0.067520246,0.24454652,-0.110822335,0.30089808,0.017690439,0.7402856,0.21446583,0.26146716,-0.49614683,-0.4368056,0.07128176,0.18485056,0.40149313,-0.09385629,0.24235605,-0.093883075,0.26779082,-0.4011631,-0.19085795,-0.33653176,0.086412564,-0.5374655,0.12508893,-0.8016849,-0.35116583,-0.88524586,0.13372676,-0.47838128,-0.09515262,0.21969706,0.21237074,-0.15221189,-0.20792568,0.43230504,0.30176795,-0.29640058,-0.017346404,0.16244665,-0.5021122,-0.23200198,-0.27640864,-0.35841605,-0.1732758,-0.25963715,0.006262588,0.092321895,-0.07946988,0.19872853,0.1943832,0.14920014,-0.7167268,-0.020475723,0.14917281,0.16102496,-0.40037668,-0.32915804,-0.1703471,0.33060938,-0.35982594,0.22045241,0.032667127,-0.26469642,-0.26648387,0.12495747,-0.37845644,-0.4448825,-0.25092897,0.22315063,-0.50478625,-0.27235764,-0.120350264,-0.11457444,0.34449914,-0.42312798,0.19214316,0.116686,0.2000313,0.03306047,-0.039811056,0.093356945,-0.5250774,-0.4694463,-0.55234385,-0.62093425,-0.53263646,-0.388067,-0.61854637,-0.3308713,0.094356544,0.20414707,0.19548526,-0.008058212,-0.38191953,-0.021767907,0.4205429,-0.28903955,0.041369274,0.2934115,-0.091534525,0.1525757,0.43511504,0.4563307,-0.42549226,0.28097826,-0.14544743,-0.013391407,-0.20046097,0.27727273,0.16997662,-0.036016207,-0.094919644,-0.009542057,-0.6074467,0.15674269,-0.37283117,-0.5359088,-0.04716329,-0.47893527,0.22218028,0.1343157,-0.23390982,-0.017139386,0.2771539,0.16624512,-0.2669513,-0.016615836,0.27281407,-0.17010535,0.4149467,-0.34814513,0.24638385,0.3400663,0.15933684,0.30095196,0.4377336,0.4524633,-0.4419098,-0.37969792,-0.0028805088,-0.11401604,0.2009681,-0.35589612,-0.11948253,-0.18315381,-0.6653438,0.021285929,0.0065974663,0.38050687,0.08642643,0.2839922,-0.23072796,0.45698053,0.38021332,-0.019076873,-0.3172053,-0.13976647,0.5728023,0.48738256,0.10078337,0.21603626,0.019372473,0.5034219,0.34758455,0.16682136,-0.19897702,0.31303093,0.27431267,-0.0060812733,-0.10038983,-0.0939495,0.16324458,0.035147928,0.208586,0.20974281,-0.13342507,0.3007188,0.48640347,0.34592718,-0.31729144,-0.34871003,0.14055723,0.3172285,-0.27712333,0.4556624,0.5306163,0.102435365,-0.022066182,0.1622599,-0.22308278,0.035809588,0.020711632,-0.30980596,0.08556675,-0.22052974,-0.31359637,-0.2950365,-0.35699397,-0.2997331,0.0031934534,-0.123599075,-0.20786504,0.30733305,0.25606665,-0.08216551,-0.42902195,0.046834957,0.080860615,-0.20760678,0.187458,-0.10531273,-0.11080791,-0.3186111,0.38261214,0.6623107,-0.1490589,0.21706167,0.58103126,0.34205398,0.015314058,0.19689693,0.044793908,0.072040744,-0.08077493,0.29519278,-0.2511181,-0.15755554,0.1632257,0.25563347,-0.36512887,-0.025948143,0.34602207,0.5435917,-0.4621471,-0.34981582,-0.021922238,-0.28118843,0.42238778,-0.35912803,-0.14653184,-0.28708827,0.2031856,0.0070079383,-0.012380483,0.49238446,-0.14631152,0.027961198,-0.16799071,-0.044034697,0.23240691,-0.3880875,-0.1114549,-0.6409358,-0.20830041,-0.5562713,0.123976454,0.21477042,-0.13886522,0.27070484,0.32348981,0.5012365,-0.1219636,-0.40015677,0.39581367,0.32933006,-0.035343364,-0.38658866,0.19373716,-0.029176237,0.121651694,0.020502305,0.064702205,0.28413534,-0.4562076,0.3433551,-0.12648211,-0.14441323,-0.5241652,0.08361343,-0.43779114,0.040104244,-0.23627526,-0.24156573,0.37633356,0.24640307,0.18215814,0.4529924,0.26468688,0.441077,-0.13369036,-0.06226693,-0.34181017,-0.20957364,0.46671745,-0.22413436,-0.47227928,0.009769024,0.3749891,0.19179101,-0.10670268,0.2874131,0.3314537,-0.26908067,0.16857307,-0.28403202,-0.42124593,-0.060199246,-0.10141676,-0.4235868,-0.31194705,-0.2926291,0.36013266,-0.2651033,0.05083753,-0.122482225,0.38799465,-0.27440584,-0.47902793,-0.46946323,-0.49532482,-0.39641136,0.26187438,0.37503538,0.13054758,-0.49802852,-0.3295096,-0.07500958,0.1980687,0.16517967,0.35272315,0.02941015,-0.1712647,0.40405807,-0.16467656,0.2959714,-0.34536782,-0.41175476,0.14430103,0.122801736,0.11481995,-0.062396012,-0.053539533,0.3611587,0.3590946,0.40088475,-0.1998069,-0.46317407,-0.10472725,0.42886466,-0.4989148,-0.1219285,0.36851725,-0.46037555,0.02043848,0.07623932,0.30904454,-0.30214527,0.31269252,-0.28281444,-0.45528898,-0.031251848,-0.15210925,-0.16347018,0.31602338,-0.42217717,0.49353436,0.29588538,-0.0011743355,-0.11750869,-0.42475203,0.04145314,0.24495809,0.35146466,-0.32850942,0.28244233,-0.41856045,-0.1183009,-0.41781288,0.15062116,0.075150505,-0.073354304,-0.44981053,0.033316992,0.34327778,0.05501979,-0.00061549706,-0.24055392,-0.019240111,0.42933384,-0.0105244545,0.5240021,0.48581362,-0.17321078,0.18885875,0.10464722,0.26054394,0.542936,-0.3193763,0.46929756,0.34305093,-0.11577493,0.18975149,-0.32589966,0.07618298,-0.3856737,-0.4554054,-0.051802203,0.11217742,-0.269523,0.24710415,-0.4440574,0.17905341,-0.2746837,-0.5045949,0.21431486,0.33071098,-0.053664483,0.015960207,0.40074804,0.20162968,-0.28918898,-0.03185372,0.37834916,-0.07421486,0.009022713,0.10696282,0.33162045,-0.4538802,0.0324841,-0.35220635,0.28184205,0.45297223,-0.39139563,0.09660591,0.1546823,0.039397195,0.15839078,0.35189864,-0.20509,-0.38802567,0.40440232,0.41035387,-0.060738426,0.16876082,0.30868152,0.25487024,-0.049445137,0.13395973,0.008881662,0.4738879,0.4043671,-0.36464182,-0.2025427,0.22663698,0.08560851,0.122739434,-0.029851705,0.09146072,-0.10338007,0.39195174],"bias":-2.6868591},{"weights":[-0.014759628,-0.38626024,-0.09639402,-0.2431044,-0.09565492,0.032996267,-0.38327512,-0.06573352,0.3367789,0.015402155,-0.383602,0.10270195,-0.16268295,0.04129631,0.40927508,0.3027123,0.10320191,-0.20859203,-0.24033922,-0.061069615,-0.1684582,-0.049915597,0.08080654,0.34249118,-0.22987303,0.118019015,-0.3525556,0.32625893,-0.08111544,0.23099175,-0.26479778,-0.20093057,-0.39464137,0.17191699,-0.08860196,-0.45439968,-0.26396987,0.25868446,0.1479412,-0.42939425,-0.07487511,0.13458134,0.30049068,-0.20378076,-0.32387713,-0.025617624,0.2399023,-0.13218528,0.3179025,0.34484366,0.06322471,-0.41248372,0.3548651,-0.26872608,-0.4466029,-0.20522317,0.0015748431,-0.14090666,0.4817699,0.15828103,-0.44114575,0.42538545,-0.13580914,-0.10319299,0.39858627,-0.44336608,0.4548268,-0.4892996,0.34089628,0.43255302,0.29092118,0.26640928,-0.07541705,-0.29776388,0.18951757,-0.14566255,-0.30376357,0.07851263,0.4774396,0.15998384,-0.37449464,0.13068366,-0.3527989,0.16823986,0.10752027,-0.052759364,0.02224527,0.49504316,0.08688614,0.4753681,-0.4548267,-0.4623001,0.39198646,-0.091020495,-0.3517255,-0.36689964,-0.15281193,0.20310505,0.024676802,-0.02147406,0.4611198,-0.2855702,0.12351519,-0.014032773,-0.3202719,0.14570141,0.302186,-0.3949533,-0.037066434,0.0545425,0.1069379,0.102605745,-0.25233024,0.025306052,0.021259738,-0.17420377,0.08160136,-0.18047881,0.4192907,0.36245507,-0.4085683,-0.341712,0.12302115,-0.23125938,-0.29012784,-0.18424095,0.05188808,-0.30960456,-0.37030667,-0.48673207,0.4417092,-0.17690164,-0.36019322,-0.082258835,-0.40238988,0.18698643,-0.19231829,-0.29159254,-0.054561846,-0.00096549897,-0.4661226,0.43984702,0.10007588,0.47430006,-0.4113959,-0.12750536,-0.16518326,-0.21972676,-0.09845847,0.12502296,0.038387377,0.4768992,-0.057043392,-0.29393005,0.3848158,0.19271071,0.1495437,0.50586075,0.34773898,0.33749196,0.07125364,-0.23537816,0.24305832,0.015366547,-0.3833552,0.21171927,-0.24319416,0.0780094,-0.22451088,0.3964511,0.16019982,-0.18094711,0.18638301,-0.19272283,-0.272028,-0.406055,0.44082946,-0.2849265,0.34335244,0.28163236,0.14882357,0.37441146,0.48415577,0.3845881,-0.2160064,-0.083145045,-0.1745542,-0.3591568,0.42172602,0.27943683,-0.102885105,0.38141525,0.16056253,0.42851624,0.18273027,-0.13253698,0.24271336,-0.05036304,-0.21759884,0.15519367,-0.03550533,-0.43615857,0.28049874,0.055727396,0.39715368,-0.21699695,0.23544584,0.3341022,0.19639508,-0.4358804,0.25872868,0.2872896,0.20600745,0.4627087,0.3722137,-0.4104944,0.497479,-0.041176442,-0.43536067,0.11236513,0.14476825,0.104320794,0.37516266,-0.16702966,-0.1759668,-0.24666889,0.29675597,-0.38156402,-0.15980957,0.025475763,-0.46810213,0.06333093,-0.49736485,-0.11492393,0.24193819,0.088112205,-0.4502872,0.49646786,-0.33877778,-0.15688668,-0.22391172,0.059727117,-0.05383306,0.19795698,0.15789606,-0.18954186,-0.44002536,-0.045984976,0.3778984,-0.35727018,0.36396363,-0.24004067,-0.055883147,-0.07276358,-0.4029079,-0.14679836,-0.26842597,-0.09587702,-0.15226571,0.22136512,0.03306149,-0.39844593,-0.01820862,-0.39587414,-0.46091515,-0.42329022,-0.3374995,0.0012585935,-0.39002886,-0.40386507,0.39098635,-0.110878766,-0.17470476,0.47213337,0.35488293,-0.09066776,-0.27036685,0.11629197,0.05178323,-0.40867367,0.32403454,0.12710053,-0.31770283,-0.3432741,-0.0026590703,-0.31424597,-0.36012727,-0.43819225,0.4398112,0.05482747,0.19868033,0.030305576,-0.103671625,-0.23454085,0.2607933,0.4317327,-0.003932407,0.33284935,-0.00091793656,0.24788827,0.45328343,0.19187552,0.08050582,0.08931481,0.44197875,-0.14174984,-0.38727504,0.46823272,-0.050681718,0.042297646,-0.11552323,-0.02788592,0.14560668,-0.22738415,-0.35164696,0.35296267,-0.17781374,0.2919572,-0.018895324,-0.2412664,0.19720694,-0.06324271,-0.108988084,0.28206563,0.3387626,0.30250517,-0.04224677,0.27815878,0.30687833,0.27261236,-0.47453701,0.43680465,-0.46151197,-0.072430104,-0.43730417,-0.31205738,0.43994755,-0.013594665,0.4409313,0.33634135,0.47269094,-0.24959329,0.113456964,0.16497497,0.25275853,0.4054794,0.12704502,0.33831504,0.1797172,0.120678455,0.3316724,0.3897294,-0.45060503,-0.29774207,-0.20763697,-0.22065589,-0.08297246,-0.4397306,0.4756175,0.23074561,-0.39736035,-0.3918153,-0.39618784,0.0971075,0.43809453,0.11404528,0.19079497,0.46778703,0.17582026,-0.11752976,-0.15383324,-0.24745639,0.24162954,0.49328887,0.1423878,0.53507227,0.15272212,-0.4308034,-0.40487766,0.08785356,-0.35241622,0.049364608,-0.45446885,-0.25316438,-0.02632739,0.046182178,-0.33924907,-0.36204407,-0.39401168,0.095228136,0.45070434,0.31365427,-0.33827695,-0.22312409,-0.3924871,0.3766437,0.04383257,0.3939405,0.09800062,0.40980807,-0.07216878,-0.025273722,-0.37360224,-0.42444736,-0.17016837,0.107622474,-0.2796612,0.37465462,-0.11292658,-0.3807417,-0.36895755,0.44101262,0.08071531,0.109282434,-0.2901919,-0.45536143,0.30859628,-0.24739936,0.03377471,-0.24283029,0.023405898,0.017077465,0.16316643,0.25073525,-0.09881344,0.31320146,0.10644579,0.4298442,-0.22599868,0.22967277,0.12685065,-0.14014421,0.3614941,0.1880918,0.12948169,-0.27875116,0.33798823,0.17560753,0.05920588,0.3257546,-0.4425125,0.23307155,-0.5070047,-0.1299404,-0.46501198,-0.18490618,0.34121457,-0.13737862,-0.3486471,-0.19669876,-0.20521499,0.15900941,-0.369891,0.06448608,0.023437867,-0.09196665,0.052287105,-0.45693836,-0.36927095,0.47563413,0.0033065046,-0.23287115,0.19017671,0.13423276,0.344921,-0.06070741,-0.4970578,0.20294748,-0.0686901,0.06611547,0.14407441,-0.11602656,-0.13314931,-0.24078286,0.15974958,-0.42778727,-0.41457996,0.29939845,-0.18271032,0.36872184,0.4225698,0.2106785,0.4933506,0.06718694,-0.40806863,0.04680343,0.18793914,-0.23373595,-0.011118366,0.097470805,0.19531722,-0.16131201,0.1875734,0.09971923,0.23225714,-0.516131,0.20685765,0.46468875,0.41391858,-0.29178977,-0.27926767,0.3207424,-0.103766106,0.05956172,-0.055007316,-0.32339564,0.3836836,0.14901353,-0.2755121,-0.24025454,0.28692174,0.47634926,-0.29684618,0.088298135,0.41909254,-0.22279356,-0.2651171,-0.17250559,-0.30814174,0.009645834,-0.4385671,0.31609035,-0.21952385,0.10842756,-0.1901505,0.07684509,-0.00024134119,0.08232141,0.060414266,-0.067700356,-0.3186189,-0.08973112,-0.07834943,0.044462264,-0.36777672,0.28204486,0.2962622,-0.11444738,0.02865659,0.14445443,0.26897895,0.5208883,-0.07086004,0.13207786,-0.12205406,-0.1267093,-0.3322359,-0.29895929,-0.3482811,-0.20128147,0.46495494,-0.010787475,-0.0076180506,0.27107197,-0.07505997,0.15065953,0.36386815,0.4561857,0.35408822,-0.3889449,0.2314513,-0.23476344,-0.29492667,-0.3138433,0.14325882,-0.075644605,0.34106237,0.11902065,-0.37342447,0.23583487,0.10439863,-0.1063088,-0.39305875,0.16014794,-0.24822596,0.41986892,-0.14642109,-0.23645398,-0.3606127,0.050551064,-0.47785008,0.11403599,0.15252545,-0.12596628,-0.31506187,0.041265145,-0.27500054,0.101465285,0.3843102,-0.016906412,-0.48216712,-0.43569428,-0.20580386,0.028216284,-0.27213347,0.361588,0.0005102893,-0.091869526,-0.087226756,-0.33881792,0.31922656,-0.46633264,-0.023779877,-0.2652753,-0.07226607,0.28565153,0.5108756,-0.063525476,0.0055182977,-0.1511903,-0.27399287,0.2547349,-0.37935576,-0.14849243,0.1805274,0.2989697,0.103434995,-0.27980173,0.39809787,-0.47720525,-0.16428015,0.008045955,-0.14585792,0.28480127,0.22381555,0.17758246,-0.3201827,0.22450528,0.46551546,0.11315027,0.14202754,0.32592738,-0.07918654,0.11590885,-0.42959875,-0.014763724,0.062970124,-0.19250588,0.14813136,0.15583979,-0.21146187,0.3553395,-0.22667398,-0.14576355,-0.27060935,0.12498154,-0.15182208,-0.19339316,-0.093067184,-0.33155957,-0.070967376,-0.21050309,0.32590416,-0.4817909,-0.10120299,0.31198928,0.16895637,0.3204282,-0.41554117,0.33214146,0.03313827,0.13273838,-0.13718545,-0.022806102,0.17318459,0.1676908,0.088116094,-0.37656686,-0.28165764,-0.22070609,0.30983818,0.46162727,-0.09509654,-0.11250025,-0.13785766,0.33332133,0.11294471,-0.4550152,-0.24723457,0.117852546,-0.46439767,0.10167227,0.23927885,0.27543837,0.48890907,0.41689688,-0.2015757,0.28647965,-0.4209495,0.25001606,0.33252865,0.36216763,0.3635877,-0.25657055,0.5160293,0.42229295,-0.31508163,0.29456815,-0.36678526,0.45607117,0.19504789,0.32340136,-0.019672703,0.43780434,0.49123585,-0.004312788,-0.37219483,0.31694573,0.18173578,-0.23926322,-0.36333472,-0.4544664,-0.42425308,0.17262474,0.060602307,0.104932316,-0.3783637,0.28439683,-0.44338176,0.4272567,0.44226074,-0.024348252,-0.15154321,-0.07240526,0.16920245,0.38711235,0.4060081,0.47427407,-0.3017902,0.09510879,-0.33272526,-0.19044599,-0.35809624,0.27115035,0.39111322,0.25306723,0.10980961,-0.21382247,-0.47136587,0.32936403,-0.25073263,-0.47468582,-0.24886122,-0.031546596,-0.34704354,0.1271135,-0.38266867,0.076903805,-0.21874352,0.18036307,0.13824174,0.5159494,0.1559389,0.44894075,0.27224305,-0.15504608,0.25643823,0.50430983,0.108206555,-0.12218808,-0.33868024,-0.46658924,-0.05537576,0.28283504,0.3892741,0.16981858,0.38862097,-0.17821188,0.37927553,-0.28300357,0.35934362,0.12017477,0.04468367,0.35858506,-0.31487724,0.11298661,0.07298099,0.08058038,-0.4166637,-0.37690714,-0.043455586,0.26124933,0.14337662,-0.1060179],"bias":-0.094830155},{"weights":[0.18820329,0.1605931,-0.07379454,0.43103123,-0.50970703,-0.5184098,0.4525621,-0.51113075,-0.0057779197,0.30784976,0.37264383,0.08318051,0.0066675907,0.020517778,-0.36242995,0.45177114,0.10888531,0.05825016,-0.24844587,-0.41067433,0.16537102,-0.01878202,-0.3001169,0.028260753,-0.38617063,-0.4646002,-0.23639457,0.11434602,-0.31948113,-0.22551303,0.45300913,-0.22994833,-0.23286061,-0.2908219,0.15603791,-0.2624037,0.29594496,0.440484,-0.48889416,-0.12987794,0.07696868,-0.30977526,-0.41531315,-0.044625312,-0.3561637,-0.36560494,-0.13946187,-0.49353114,-0.17364602,-0.04555981,0.10974426,-0.3945662,-0.17662708,-0.33856356,-0.3602605,-0.15238784,-0.11019603,0.3968855,-0.48482805,-0.1741402,-0.3068081,-0.3962002,0.19397406,-0.11414458,0.20060238,-0.15785848,-0.4908971,0.25160494,0.004847486,-0.4427356,0.016998487,0.24031724,-0.44018173,0.088696666,0.30416217,0.38631716,-0.3123957,0.3735146,0.4595847,0.26567307,-0.16525273,0.35536584,0.089614116,0.34576654,-0.4321345,-0.4136572,-0.39397004,0.039335415,-0.33856314,0.44059443,-0.06917069,0.30737984,-0.25445193,-0.010377419,0.4144118,-0.43620592,-0.15481605,0.47995836,-0.21093991,-0.14048065,-0.5223874,0.15812929,-0.16059265,-0.33716735,-0.340194,-0.20915897,0.44378662,-0.21503606,0.0540645,0.22019503,0.3282749,0.23176204,-0.42103338,-0.5206879,-0.057020914,-0.20547374,0.18355697,-0.28426683,0.2763695,