[[{"weights":[-0.12369753,-0.30985352,-0.30616006,0.067181006,-0.5094138,-0.42131183,0.39189306,0.32639578,-0.4294426,0.1859361,0.028915571,-0.09429169,0.19889536,0.056325085,0.37219027,0.19161686,-0.37943026,-0.4176124,-0.12062897,-0.20725536,0.2348172,0.22200108,0.33460703,-0.13404621,0.39255193,0.21592438,0.22787094,-0.3372719,0.24517123,-0.49613684,-0.04940372,0.34315112,-0.44550595,0.053203665,0.04353387,0.2999333,0.37751824,-0.091312766,-0.43467748,0.004032973,0.35149455,0.31748357,0.35895544,0.009908906,-0.30148834,-0.35622692,0.3834452,-0.055285998,0.1925897,0.021559702,-0.08329725,0.3047866,-0.49638125,0.2133007,-0.0688558,-0.08591902,0.10403836,-0.20086038,0.23554647,0.11834742,0.14694619,-0.24694467,-0.06745738,0.44694448,-0.28879747,-0.2659941,0.44375688,0.3001241,0.50436443,0.3873894,-0.14980976,0.04336768,0.23816112,-0.16922463,0.28420687,-0.36218736,0.050254777,-0.20387831,-0.28995258,-0.1611384,-0.17250624,-0.40447414,0.22329152,-0.023358008,-0.049158737,0.11172062,-0.30929825,0.2965295,0.08542006,0.3233133,0.2545236,0.37829882,-0.38678712,-0.007273202,0.09466088,0.37953165,0.5299022,-0.20563708,0.5400448,0.31021515,0.17212264,0.07103858,0.11177163,0.4703136,0.3433198,-0.43289685,-0.0044544647,-0.26100895,-0.00657956,-0.04172343,0.26254597,-0.036731847,-0.0015842931,0.40651128,0.45947072,-0.020994531,0.12609777,-0.3014051,-0.28475904,-0.023399934,-0.39530265,0.108032875,0.21708897,-0.14540341,0.3716274,0.16392425,-0.22307149,-0.34773508,-0.17879164,0.030217912,0.2545161,-0.03823855,0.3520282,0.4469362,-0.28483054,0.28870288,0.33467528,0.26960504,0.41038135,0.16162324,-0.14747882,0.20251882,-0.45764002,-0.3296296,-0.27494627,-0.21696651,-0.51511127,-0.091131866,0.1529296,-0.31390855,-0.24420746,-0.030975658,-0.38637924,-0.21167298,-0.07436378,-0.28224197,0.2262206,0.07957646,0.28209215,-0.064267606,0.27305034,-0.4724303,-0.037984226,0.15294413,0.32157376,0.11062244,-0.19850802,-0.3019317,-0.31063792,-0.0730692,-0.33747083,-0.37767383,0.41252187,0.09982842,-0.29474902,-0.26175657,-0.08049827,-0.051484816,-0.4174303,0.19697174,-0.08511245,-0.23774037,-0.20942746,-0.20108134,-0.30817497,-0.08127994,-0.4370892,-0.20896356,-0.526315,0.08357449,-0.20633149,-0.34380022,-0.4981056,-0.48099953,0.16997667,-0.20724085,0.28735188,0.092661016,0.24967954,-0.25995877,-0.53799295,-0.020704225,-0.3829561,-0.27030444,-0.09240061,-0.3461251,-0.30551666,-0.4146298,-0.108709306,-0.37828436,-0.18355948,0.13727668,-0.14821604,0.18173258,-0.107470326,-0.04523431,-0.41918564,0.11205667,-0.23850493,-0.45122173,-0.14762795,-0.16651803,0.16520797,-0.14000317,-0.2498285,-0.15403152,0.1293101,-0.51313996,-0.3812735,-0.3166741,-0.19347793,0.0038607232,-0.035416305,0.25261408,-0.2899225,-0.010468509,-0.3918215,-0.25075108,-0.083898254,-0.79031444,-0.44163227,-0.25764006,-0.30191225,-0.5657071,-0.15452035,0.053067625,0.20163578,0.29643676,0.08828977,-0.17607965,-0.0045197783,-0.12231064,-0.13756901,0.075873375,0.40635613,-0.41348448,0.30983636,0.022339825,0.27650252,-0.23859385,-0.31384405,-0.11947547,-0.027259495,-0.030783854,-0.2115497,-0.40128285,0.19793339,-0.686436,-0.8801563,0.003752493,-0.5939929,0.041587483,-0.08887516,0.21410526,0.07083604,0.2858334,-0.012795041,-0.25766844,-0.15088163,0.37055537,0.41500747,0.184087,0.21692601,0.43695447,0.39338642,0.18128048,-0.22408418,0.07245239,-0.3213402,-0.17935365,0.005367633,0.4172394,0.21192646,-0.48831853,-0.033455797,-0.5099888,-0.2773664,-0.31096318,0.24091788,-0.33955318,-0.18364319,0.322234,0.35667244,-0.32350084,-0.007248315,0.20593871,-0.059180565,-0.42481077,0.29357517,-0.1733579,-0.2784455,-0.18184283,-0.1797443,0.15847506,-0.29138952,0.07620214,0.47183368,0.33516192,0.146099,0.72234017,0.18181045,-0.55431354,-0.62875676,-0.37826508,-0.22446255,-0.18216354,0.26569387,-0.15306222,-0.20088814,0.14052568,0.23010676,-0.123030044,-0.49823126,0.2976683,-0.22098222,0.029939698,-0.06663239,0.47128624,0.15456922,-0.2866339,-0.18911237,-0.4271783,0.19295856,0.35001838,0.58593684,0.58919054,0.09623623,0.36839196,-0.03947007,-0.7997985,-0.99128056,-0.6031418,-0.36417425,0.5372342,0.32991326,0.47193924,-0.015687153,0.20328055,0.5850441,-0.14611633,0.005934477,-0.4684154,0.2889728,-0.3754842,-0.4552007,-0.31616497,-0.15480204,-0.22339034,0.4529757,0.29921857,0.3554353,-0.17709528,0.59563136,0.71946615,0.41757622,0.25808486,-0.08410938,-0.68609315,-0.3591975,-0.26305956,0.4190434,0.49220827,0.18588196,0.16158299,0.26050255,0.065998845,0.16518454,-0.23299961,0.20617725,-0.14606868,0.37874448,0.24429919,-0.5127093,-0.40899637,-0.37189633,-0.042750638,0.056636263,0.5420689,0.5160643,0.27133998,0.6612285,0.6955831,0.55685025,-0.022021167,-0.3844154,-0.20638381,-0.12493454,-0.21500374,0.43211123,0.39882195,-0.042995628,-0.03941526,0.10917553,0.3616162,-0.22870502,-0.11350638,-0.117860734,0.4029982,-0.21913518,0.3092976,0.25743416,-0.12459504,-0.39702117,0.17987151,0.42702246,-0.28754392,0.22817941,0.600365,0.05973617,0.33011702,0.25343272,0.19394268,0.3289264,0.2843951,0.0076362034,0.44205588,-0.102743655,0.48837522,0.13196725,-0.12569208,-0.25837353,0.5408766,0.23345175,0.6716811,0.22311729,0.17934147,0.004644489,-0.35825858,0.29719606,0.15831926,-0.3625754,0.42735088,0.175205,0.43868792,-0.03905964,0.70268583,0.777321,0.094661236,0.4566693,0.68613994,0.06847959,-0.0635316,0.5036922,0.10582799,0.37602133,0.4762283,0.1291411,-0.0043758345,0.45160484,-0.15675128,0.002736391,0.17117082,0.06845697,-0.3667436,-0.27898428,0.21230423,0.3945116,0.37199643,0.1511784,0.18415558,0.22495449,0.16456538,0.08655402,0.6491699,0.18525279,0.19757046,0.7826594,0.5795634,-0.03887526,0.028671833,0.24135491,0.24299152,-0.06227641,0.365909,0.29489425,-0.37766865,0.0903072,-0.17984596,0.24212646,-0.28232673,0.34050503,-0.19596355,0.062416628,-0.50990665,0.28468707,0.42181835,-0.070702344,0.1323902,-0.1222271,0.2996035,0.45747143,-0.12739208,0.38379368,0.7455244,0.6388095,-0.069626056,0.57156706,0.255139,-0.19905761,-0.10828805,0.13691196,-0.008394767,0.4210679,0.42986953,0.33982137,0.24319391,-0.2195546,0.32764328,-0.38328788,0.39497197,-0.004961852,0.3386062,-0.0068203425,0.062200718,0.29223898,-0.05793024,-0.5044733,-0.4039272,-0.29253063,0.22849752,-0.17185526,0.16017053,0.45432666,0.3646017,-0.34471434,-0.25525534,0.09597206,0.21061131,0.036274858,-0.2595311,-0.0030765024,-0.0073475917,0.04944732,-0.31301013,0.35158965,0.15352285,-0.025897933,-0.4078054,-0.023841677,-0.469552,-0.4622502,-0.29589525,0.42102686,-0.4449491,-0.38168806,0.08453524,-0.61063904,0.35730097,-0.29339537,-0.25604793,-0.35165292,0.081718646,0.041717622,0.27448583,0.33326754,0.6000626,0.059682272,0.4759645,0.33188975,-0.20763263,-0.31860456,0.48345095,0.3410713,-0.39027706,-0.07517792,0.023488136,-0.49947277,-0.21306422,-0.1580992,0.2600627,-0.3315078,0.0012433247,-0.13035752,0.056005664,-0.20640321,0.06725976,-0.36160642,-0.57356626,-0.087758034,0.37965295,0.29087678,0.122911684,0.38222143,-0.07197009,0.5407611,-0.03127799,0.013549467,0.28492382,0.13489029,-0.21901827,0.28077513,-0.26419878,0.069133095,-0.13144703,-0.45166564,0.05908061,0.208413,-0.37886682,0.21833839,-0.5317248,0.1956508,0.21544874,0.24856767,-0.1738689,0.051992524,-0.7801431,-0.6523578,0.067119434,-0.7416878,-0.46409187,-0.19794117,-0.57289606,-0.05123601,-0.12396836,0.29043642,-0.39594653,0.24924469,0.2030552,-0.21354164,0.5097295,-0.34294537,-0.322253,0.45067006,0.3970417,-0.50538045,-0.4616234,-0.45397756,-0.10286524,-0.27348724,-0.27863163,0.2918317,-0.19669949,-0.036759157,-0.58118135,-0.094875254,-0.24288477,-0.13403654,-0.72136724,-0.4069508,-0.2808081,0.10641479,0.28845012,-0.112241894,-0.42945963,-0.2723524,-0.099164195,-0.2984919,0.32520968,0.2789186,0.40865275,0.018471742,-0.40450212,-0.5110445,0.32010606,-0.44216385,-0.012951042,0.30729255,-0.52210075,0.022757081,-0.32992262,-0.42861655,0.17251088,-0.61437076,-0.37616616,-0.43958825,-0.36691028,-0.05994522,-0.08091355,-0.14363985,0.016692605,-0.47197253,-0.1462698,-0.043857846,0.15269451,0.25749835,-0.07178705,0.03911756,-0.022641664,0.37901202,-0.25049886,-0.24005562,-0.2887207,-0.5002324,-0.20787552,0.09875062,-0.08246354,-0.13899568,-0.054577757,-0.24458565,-0.115935884,-0.4892141,0.10734835,0.24822894,0.13283387,0.24274702,-0.21085954,-0.09351202,0.10479094,-0.3262842,-0.33086693,0.2437547,0.14941305,0.011998835,0.03378045,-0.40426403,-0.040789537,-0.10174218,0.26957658,0.46099487,-0.38772747,0.2602993,0.39303878,-0.33213925,0.11005284,0.15534735,0.4381243,-0.1003711,0.19493966,-0.38031408,-0.17841345,-0.15709452,-0.15947244,0.2555532,0.3196864,0.060771223,-0.38454795,0.07722489,-0.2523807,-0.024511041,0.10452823,0.20428509,-0.232852,0.15542533,-0.025935015,0.1357671,0.14240265,0.3831183,-0.009869848,0.24413185,-0.38565668,0.037478626,0.051484577,0.3116474,0.07875477,-0.03618481,-0.45277277,0.23688628,0.35244933,0.37847447,0.47562236,-0.20144467,0.46276262,-0.15442921,0.26363814,0.32181472,0.19513354,0.4319746,-0.054669335,-0.2672623,0.40241817,-0.030042754,-0.3805395,-0.025249226,-0.2548269],"bias":0.28316742},{"weights":[-0.16098358,0.29803467,0.0012917684,-0.24813212,0.42448103,0.30662107,0.24765532,0.12923945,-0.47863543,-0.24271956,0.46013558,-0.20286597,0.38803875,-0.28199786,-0.37148505,0.36557513,-0.030957807,-0.4125018,-0.1438318,-0.3554076,0.046309534,-0.009617356,0.17554115,-0.2705806,0.38342524,0.068257,0.16307066,0.0059826476,0.10935801,-0.35106373,0.23165734,0.032212697,-0.14890008,-0.11829203,0.10192877,-0.46266392,0.3819044,0.21962881,0.4732592,0.02539923,-0.1619631,-0.50662786,0.26105353,0.20327893,-0.33837745,-0.45583075,-0.47402397,0.30272526,0.13326164,-0.11841132,-0.109860525,0.08954197,-0.0277941,-0.257388,0.25685558,-0.05042993,-0.18049313,-0.1681198,0.40095025,0.461995,-0.29404014,0.4525128,0.016972704,0.4560211,-0.36864707,0.39697188,-0.12832727,-0.49896994,-0.10366527,0.41215768,0.08218427,0.0043757837,0.12852165,0.27154437,0.22575824,-0.18565673,-0.2274321,-0.30171025,0.3252451,0.29440066,-0.03349493,0.21903695,-0.4889694,0.33980572,0.15569495,-0.2588672,0.305458,-0.5141026,0.3976512,0.2992993,-0.1081482,-0.08936496,-0.28403962,0.007161983,-0.26696673,0.25935045,-0.06942015,-0.09520905,0.3358553,0.37693962,0.34495375,-0.4571879,-0.25924048,-0.39015013,0.3359259,-0.32084873,-0.26218066,-0.40125862,0.076811716,-0.29809287,-0.35536754,-0.5051521,0.088691816,0.081664264,0.35283244,0.34101874,0.39498788,-0.17186849,0.046936832,0.47388962,-0.05967855,-0.040419202,0.036449246,0.063706025,-0.19141221,-0.37113807,-0.4431437,0.009717228,0.3468936,-0.23407272,0.101979114,-0.5256455,-0.32484528,-0.07382651,0.342032,-0.015290414,0.20758604,0.4527507,0.18875635,0.29197335,-0.039593022,-0.28090525,-0.46323812,0.345958,0.19626608,-0.20692655,0.42084047,-0.04598964,0.018044803,0.35008112,0.050104946,-0.14928554,-0.008390864,-0.39318937,0.0015886188,0.19014247,0.07160966,0.394993,-0.24803838,0.060443815,0.15256041,0.36899295,-0.4488484,-0.41083533,-0.5178754,-0.21663852,-0.3152385,-0.3083924,-0.43200445,-0.3320735,0.41145146,-0.37952122,-0.2186565,0.23600684,-0.29783857,-0.32833245,0.3041144,-0.1402538,0.12121113,-0.41594556,-0.19505471,-0.06344504,-0.4968184,-0.5537984,-0.49705765,-0.4733543,-0.3203482,-0.30198747,0.26039183,-0.585786,-0.2853141,-0.17245191,0.36724728,0.2353523,-0.2964272,-0.29485595,0.11226867,-0.4616397,0.2093554,-0.10821404,0.4217014,-0.104402654,0.35769877,-0.13902684,-0.24411201,0.26894918,-0.016957682,0.41383478,0.07823038,-0.056405216,0.09228242,0.17459635,0.24322166,0.5870762,-0.1961717,-0.41946056,0.018578542,0.24702023,0.023351168,-0.36224875,-0.4256712,0.14151332,0.18401642,-0.34311938,-0.39446712,0.24277386,-0.10800244,0.0601716,-0.39042607,-0.40000606,-0.062153682,0.3414008,0.6467265,0.22206347,0.12851739,0.7204971,0.31896752,0.20328648,0.5998155,0.5055656,-0.09665195,-0.22616562,-0.0484919,0.1244741,0.15137854,-0.16818681,-0.53375775,0.016205551,-0.08408882,-0.53042215,-0.27226087,0.44252804,0.22421937,-0.3464138,-0.052189093,0.44461593,-0.35117885,-0.3483081,0.45612326,0.49312025,0.12342124,0.48159915,0.7206081,0.67649204,-0.07342196,0.78343564,-0.16677037,0.6849896,0.3066376,0.64352316,0.528622,-0.04004233,-0.20382404,-0.3180035,-0.10572968,0.19591388,0.26170245,0.33706203,-0.40881965,0.4098278,-0.196595,-0.18119942,-0.30249274,-0.4387743,0.4042395,0.10711741,-0.065674275,0.113073476,0.19398937,0.080542535,0.48151684,-0.001244257,0.38526532,0.3378504,-0.3661928,-0.41906157,0.16370891,0.4315149,0.16475612,0.22147901,0.5660143,-0.044533517,0.42222968,0.10142757,0.33119005,-0.06287405,-0.47116292,-0.19062124,0.40175995,-0.12064231,-0.1760541,-0.32619268,0.36449915,0.3907053,-0.35430366,-0.23551211,0.041229922,0.2982736,0.0038855162,-0.3503565,-0.010841484,-0.20978963,-0.7627938,-0.50862885,-0.32582754,-0.30344793,-0.30076477,-0.21534774,0.5597583,0.23296557,0.13922192,0.42064846,-0.10716601,0.034691576,-0.2161334,-0.3962121,0.36925226,0.37907755,0.13859369,-0.49559128,0.25471556,0.36606926,0.20550567,-0.27624473,0.084587775,-0.23990001,-0.27939615,0.2255083,-0.4888868,0.1386489,-0.062869474,-0.8191118,0.21553476,-0.15967631,-0.15549177,0.53014576,0.2669439,0.4714258,0.5469551,-0.122962445,0.26055324,0.01660128,-0.18068238,-0.050482433,0.22676928,-0.44523382,0.42134243,0.21363139,-0.33319128,0.4081004,0.18215182,0.35812253,-0.23771764,-0.46807083,-0.5319239,-0.20158806,-0.75466985,-1.0374284,-0.885094,-0.5526384,-0.5973693,0.47352216,-0.2855212,0.3583922,-0.0641988,0.43578452,0.04091808,0.32829884,0.45582724,0.2980416,0.010179379,-0.44341278,-0.06356184,0.05918142,0.15610899,0.1980006,0.06388911,-0.29406682,0.42453393,-0.1700169,0.17250055,-0.28009808,-0.23388816,-0.23213387,0.025731722,-0.39598238,-0.27147296,-0.68126124,0.33884665,-0.20022705,0.4087217,0.1330493,-0.37991285,-0.04605572,-0.32393047,0.3106037,-0.0098115625,-0.44499844,0.02414278,0.3213293,0.019948745,-0.30021417,0.4509268,-0.22353041,0.06594551,-0.18473338,0.47514218,0.15163566,0.13839132,0.050389297,0.26562995,-0.024108436,-0.70075643,-0.6182392,-0.32674953,-0.4906321,0.18545224,-0.10869175,-0.42960835,0.070757344,0.36955816,-0.34247428,0.21118209,-0.15415497,0.5243276,0.2557248,0.4830269,-0.016452748,0.2658453,-0.26539594,-0.2621698,-0.40935922,0.16713251,-0.21740079,0.34962013,0.30364296,-0.04117931,0.048286147,0.09324413,-0.7522224,-0.28307232,-0.18636905,-0.42006117,-0.39601362,0.11255036,0.103485696,-0.38617232,-0.006658861,0.45959768,0.005706433,0.4254356,-0.27005997,0.28603488,0.31202033,0.06914791,-0.35423988,0.40417337,-0.17774929,-0.51110595,-0.2788851,0.14412887,0.32549715,0.00006143727,0.3247098,0.5409399,0.12873141,-0.39387843,-0.30772632,-0.24015589,-0.37537482,-0.18830888,0.46595874,0.079243354,-0.1252896,-0.2855197,0.49181223,0.08278629,-0.26064682,-0.18073146,0.29555675,-0.3758446,0.121278286,-0.17552793,0.2698431,-0.10330485,-0.45628005,-0.15942031,-0.31506354,-0.2239019,0.5488262,0.344011,0.047471732,0.0033550798,0.375076,0.18862607,0.23159438,-0.5329913,0.30756754,0.036739454,-0.23833042,-0.10672718,0.24617918,0.3559128,-0.08335681,0.09705214,-0.18482894,-0.04261199,-0.40336925,-0.11974931,0.37847453,-0.266019,0.12687613,-0.24116914,0.26398796,-0.48353437,-0.28048688,-0.18881218,0.022273283,0.54172766,0.26318288,0.13372436,-0.14709727,0.026716452,-0.34146273,0.18800734,0.30676576,0.36286512,0.46483114,0.3373237,0.1726777,-0.33860725,0.32244846,-0.3210868,-0.023985922,-0.3353147,-0.4270161,-0.06640671,-0.38424382,-0.36444357,0.24917366,0.3456365,-0.3509015,0.3073342,-0.34587666,0.412477,-0.40571964,-0.34259847,-0.23672405,0.3140487,0.12930797,0.4446639,0.0990018,0.30415386,-0.022019714,-0.16384389,-0.21921493,-0.0028196464,-0.33985537,0.2096157,0.3024214,-0.43608278,0.5336936,-0.2469857,0.20200306,-0.30871654,-0.4356352,0.1869712,0.064847745,-0.16081624,0.02260653,0.043017987,0.32468393,-0.11605458,0.21363987,-0.35950646,-0.03217033,0.34399453,-0.059343886,0.14033353,-0.21763733,0.26466373,0.1679419,-0.07360077,-0.06002805,0.043955088,0.040544983,0.30604213,-0.26160687,-0.2437442,0.033210583,-0.38815403,0.22757554,0.018840946,0.41439992,0.3771614,0.14538056,-0.09975591,-0.04061411,-0.40782604,0.39940876,-0.44407144,-0.13535483,0.15018441,-0.20581494,-0.040052243,0.09988662,0.028068045,-0.2038922,0.24577309,-0.172614,0.26130447,-0.42794177,0.06538304,-0.41995016,0.23061146,-0.1380537,-0.44801086,0.1763189,0.06538442,0.48414955,0.29992995,-0.4506814,0.47406942,0.46594527,-0.17667986,-0.19330765,0.15653645,0.07605526,0.23351473,0.31455672,-0.41679263,0.3933685,0.18578342,0.21697436,0.33061445,0.11712696,-0.18915388,-0.45112523,-0.21155515,-0.43019044,0.26759574,0.2966622,0.07357547,-0.30477622,0.090124704,-0.27626184,0.21194194,0.12508395,0.39396062,0.33961055,0.12248093,0.2074313,0.18193005,-0.049528133,-0.51535046,0.10625826,0.30637598,0.4542837,-0.06947724,-0.29645845,-0.23700379,0.12268226,0.43926314,-0.07853224,0.12835121,-0.20790766,0.2812308,0.39788306,-0.45221758,0.22288308,-0.32809746,-0.3978184,-0.43886986,-0.4510052,0.26290408,0.40682286,0.21996197,0.43650693,-0.30330163,-0.08366221,0.026587602,0.22065495,0.37225384,0.2812973,-0.4494742,-0.36607218,0.43737736,0.25694823,-0.43562764,0.56606174,-0.1577882,0.51401925,0.4778117,0.22235003,-0.18941663,-0.051418085,0.087796256,0.36075604,0.18616459,-0.2005295,-0.492511,-0.1834448,-0.24061023,-0.46608174,-0.20862873,-0.18902208,0.2667011,-0.32592893,0.2760378,-0.11280753,-0.34286714,0.38172662,0.12757888,0.26316926,0.31358764,0.12662879,-0.3963696,0.21888891,0.18951717,-0.27871093,-0.2985828,-0.3112217,-0.033270467,0.46894664,0.119287334,0.51196563,-0.12399358,0.41176787,0.08688329,-0.07862072,-0.4567499,0.29503176,0.078236565,-0.0014326709,-0.5025584,-0.13353191,0.18620537,0.36363328,-0.40196347,-0.1563157,0.10761437,0.060234617,-0.032124605,-0.06808865,0.09384121,0.33564472,0.19771667,0.36637494,0.06692621,0.38001883,0.036265004,-0.13011365,-0.0852529,-0.117016114,0.2737177,0.28813556,-0.2830586,-0.22444014,-0.072546035,-0.31610608,-0.011176118,-0.38294005,0.11875032,-0.21860315],"bias":0.2597647},{"weights":[-0.049137242,-0.055598266,0.27644348,-0.14331819,0.31232154,-0.37141943,0.3443991,-0.24677707,0.26747823,-0.27986705,-0.34401762,-0.103809215,0.106609784,0.32256687,-0.26378435,-0.16054119,-0.2749151,0.06549098,0.2628579,0.4813503,0.21870624,0.019679468,-0.1676388,-0.028812911,0.23435022,0.09073212,-0.08669696,-0.36500764,0.18648563,0.10542726,0.21355902,-0.433388,-0.48160523,-0.031154715,-0.033619717,-0.5033867,-0.21874171,0.28206813,0.0027330576,0.27642092,-0.33519974,0.03220084,0.45777324,-0.4186131,0.28007886,0.14446542,-0.44939336,0.20979819,-0.10950979,-0.32306436,0.01577108,-0.3256896,0.00900746,-0.19736566,0.10633511,0.22202824,0.09871843,-0.31585932,-0.2645017,-0.0075907535,-0.06515832,-0.2809186,0.13382788,-0.36800334,-0.011229713,0.0024782107,0.2935033,0.1396707,-0.06912969,0.351941,0.23821095,0.50210625,-0.41336247,-0.14530975,-0.19071166,-0.24213518,0.28701898,0.13451928,-0.0052752304,0.40234202,-0.27019417,0.27989542,0.3018248,0.041959777,0.17644678,-0.44858575,-0.3415966,0.39166164,0.39853933,0.30999023,-0.2291875,0.4034627,-0.09284091,0.20202808,-0.10133053,0.30283627,-0.25745106,0.02713738,0.29137942,0.41746056,-0.3502528,0.07746717,-0.33583888,0.26960567,-0.3386647,0.09776352,0.12008106,0.09836594,0.25517917,-0.19924952,-0.22494222,-0.4063264,0.38703334,-0.27443552,-0.18152346,-0.1165844,0.36465764,-0.48300105,-0.12060785,-0.34317708,-0.4187915,0.108841345,0.29400513,-0.28568506,0.28348848,-0.043794602,-0.20186442,0.4458708,0.29619655,0.08437533,-0.3834423,-0.24215533,0.022927333,-0.40448916,-0.10778182,-0.2968011,0.29849508,-0.22277425,0.4804056,0.46159995,0.19266175,-0.3095442,-0.25365204,-0.30931458,0.11854166,0.3581766,-0.35703054,-0.20664142,-0.1917301,0.5997263,0.22122033,0.47077033,0.4796118,-0.07943475,0.020023165,-0.14749199,-0.17910323,-0.006584363,-0.17014699,0.02572662,-0.1412612,0.44805846,-0.041282076,0.3817054,0.2052846,0.22687633,0.30363902,0.38481617,0.35922015,0.3252322,-0.32192165,-0.06647733,0.2770595,-0.28893664,-0.23439862,-0.33523905,-0.2792533,0.30631566,0.5986652,0.46200576,0.3053734,0.23200804,-0.38689002,0.07141001,0.13202235,-0.5115925,-0.095046006,-0.112917304,-0.34169745,0.16120829,0.43191898,0.4604537,0.21106066,0.32916474,-0.33642012,0.23821865,-0.45696855,-0.028926473,0.17109455,0.116843075,-0.42000833,0.431169,0.24116284,0.40546876,0.54804546,-0.22813462,0.5459161,-0.060738273,-0.46947238,0.34443012,-0.44234538,-0.30910262,-0.018107768,-0.01309075,0.36602256,-0.44368765,0.083540104,-0.05384914,-0.2577247,-0.21097626,-0.3019647,0.48714337,-0.40282843,-0.37065157,0.1939496,-0.25535947,0.12415136,0.10344486,-0.29163978,-0.17620516,-0.24650508,-0.061564047,0.53496814,0.53591776,0.20122287,0.39574274,0.12706761,-0.14123602,0.12114083,-0.44050413,-0.6059318,-0.5636537,0.25396532,-0.455658,-0.32316047,-0.35034057,-0.23038347,-0.09901526,0.09548081,-0.120321944,-0.41992992,-0.30272827,0.28522715,-0.37729323,-0.002569232,-0.4170489,-0.08683549,-0.40543318,-0.20815773,-0.17119236,0.51497024,-0.4740699,0.23338644,0.06299329,0.23908438,-0.46567532,-0.5218639,0.12129352,0.24045806,0.07227693,-0.108037114,0.41821823,-0.4349926,-0.35590628,0.3554957,0.4693403,0.49284196,-0.08746444,-0.39580452,0.18353668,0.46906853,0.07649489,0.055806413,0.1350995,0.08013269,-0.22969586,0.28372118,-0.028995233,0.3344056,-0.50155485,-0.4576082,-0.40987155,-0.19454026,-0.31263426,-0.49598762,-0.428286,0.20666887,-0.15337817,0.02306709,-0.057887785,0.050485093,0.1655197,0.07345333,0.114753544,0.34837994,-0.45215833,-0.13883606,-0.073294215,0.28658557,-0.20142475,0.116613545,0.29007858,-0.45524776,-0.21359777,0.17533651,0.43742567,-0.38522798,-0.180777,-0.11305325,-0.1540271,0.424592,0.41606715,0.31202835,0.21141602,0.25344047,0.631237,0.429072,0.5703496,-0.10421562,-0.0029718473,-0.1924623,-0.14737575,-0.50631315,-0.011513187,0.23489983,-0.04038212,0.4324311,-0.046265293,0.07702274,-0.30132863,0.09048006,0.118752085,0.22734454,-0.24830347,-0.2790205,-0.13304877,-0.10299426,-0.18678279,0.31784558,0.5662064,-0.038906615,0.12563325,0.4979004,0.4220519,0.5687369,0.13015997,0.20864363,-0.29724732,-0.19467299,-0.22473702,0.1351648,0.07200655,-0.3105515,0.15656225,-0.031074561,0.045639288,-0.24519514,-0.36477163,-0.20911558,0.20907383,-0.48746622,-0.33156085,-0.47593802,0.23709567,0.21029188,0.32431582,-0.08945231,-0.18151651,-0.057817295,0.62964076,0.039338093,0.6961825,0.58985746,-0.23969069,-0.4281631,-0.23368868,-0.69379973,-0.5683799,-0.20989355,-0.35653847,-0.0025557806,0.47186083,-0.13453765,-0.23984914,0.1590362,-0.4728586,-0.20882912,-0.40975344,-0.12011361,-0.11931483,-0.11462052,-0.699882,-0.12683538,0.27565208,0.46355996,0.1355804,0.013001117,0.5640186,0.5441284,0.4379122,0.31229576,0.22917756,-0.36316285,-0.26749775,-0.4370514,0.34953353,-0.5554548,0.40525815,-0.32015663,-0.275133,-0.14527284,0.13580845,0.17336592,0.32474667,-0.22647409,-0.40216142,-0.6298767,-0.20748027,-0.5841659,-0.37416127,0.13425452,-0.10186877,0.5515962,0.3755309,0.67096835,-0.005904847,0.33129537,0.65233994,0.60516816,-0.049111545,0.06464513,-0.50765914,-0.3598064,0.0051356144,-0.48462626,-0.2247819,-0.23016706,-0.2843669,0.01915323,0.4774688,0.21190457,0.09246509,-0.03836123,-0.60030824,0.22116208,-0.55164284,-0.29248217,0.06199877,0.08099546,-0.120837204,0.46488288,0.17512693,0.104314074,0.37050456,0.79007304,-0.11070129,0.52509624,0.22722551,0.23403436,-0.23209357,-0.39860326,-0.48191357,-0.23499417,0.13083969,-0.08802949,0.3075345,0.3172878,-0.50099224,0.16131334,-0.23709166,0.42453006,0.06525889,0.13835518,-0.28628197,-0.20777844,-0.014079244,-0.12987314,0.5356362,-0.037081387,-0.09592873,-0.24240121,0.74713665,0.3602195,0.3020174,-0.26831007,-0.5576836,0.17851618,-0.49664903,-0.21217725,-0.32340714,0.22404514,0.26339614,-0.49667504,0.10993985,-0.14820336,0.20357175,0.37527418,-0.32902846,-0.35676888,0.16525057,-0.41897467,-0.01468872,0.123247795,-0.21245502,-0.12159438,0.28313398,0.42958814,0.55059326,0.16312341,0.1516001,0.32737082,0.2701946,-0.1769717,-0.3416438,0.1582516,-0.025841039,-0.13536546,0.26435995,-0.07822657,0.38360476,0.2571415,-0.2628681,0.21555386,-0.16693209,-0.021182016,0.22905059,-0.3089562,-0.48958158,-0.33690825,-0.16875298,-0.5089729,-0.47172523,0.48576936,0.39061975,-0.37730217,0.2356125,-0.15032561,-0.15374333,-0.29156208,0.16430768,0.25801143,-0.23840234,-0.33392888,-0.27986476,-0.0005547728,0.4145586,-0.3380498,-0.18493605,0.4067359,0.02491612,-0.49249423,-0.09604392,0.24479803,0.46945122,-0.21005505,0.35874563,-0.022459002,0.45624945,-0.06666113,-0.2017765,0.37795055,0.15013939,0.12651156,-0.29545385,0.2650669,-0.4563768,0.35014105,-0.26605648,0.18028088,-0.20459892,0.18218352,-0.24532647,0.08474335,-0.33448243,0.39567226,0.38045853,0.4664896,0.2791583,-0.3854245,0.25505203,0.36373895,-0.33322847,-0.33150297,-0.27780935,0.53349876,-0.24457134,0.38287222,0.0513083,-0.5764637,-0.14228167,-0.2644361,0.30399144,0.33164528,-0.0059291497,0.38566047,0.33214197,0.4229594,0.28016728,-0.08357786,0.513836,0.46012747,0.05660496,0.46037856,-0.029843321,0.25533423,-0.46064463,0.26871926,-0.40006554,0.3709597,0.3348308,0.018612452,0.07612246,-0.062239476,0.2346348,0.025989255,-0.4261426,0.2048449,-0.14619082,-0.3529832,0.032364264,-0.4048174,0.17132871,0.37648064,-0.0733668,-0.03786343,-0.1024433,0.2370705,-0.10673841,0.2950785,-0.46068162,0.32387662,0.23911288,-0.38990405,-0.19134565,0.48144,0.26625288,0.39547145,-0.46535975,-0.4542819,-0.37748638,-0.3178563,-0.13023135,-0.24987242,0.21891302,-0.34377933,0.4817867,0.35357493,0.008879758,-0.22347367,-0.10377394,0.43527633,-0.20953293,-0.14783515,-0.3887309,-0.21290357,0.029660303,0.14777681,-0.11959569,-0.12719648,-0.25674373,0.09374846,-0.09199164,0.13940094,0.27086937,0.42322612,-0.19046353,0.19571735,0.11201388,0.15792002,0.21257064,0.0850106,-0.19493908,-0.0725275,0.09265522,0.4474265,0.23458202,0.15332668,-0.1254253,-0.18822205,0.28944606,-0.13417621,0.41738582,0.10078062,0.08080803,-0.1529042,0.044087604,-0.21829964,-0.38319635,0.36433375,0.2510677,0.46672726,0.35437727,0.24996784,-0.3669671,0.3863628,-0.45469517,-0.30321586,0.43537223,-0.40331855,0.52655554,0.04969233,-0.041248694,-0.26513934,0.11560563,-0.28771135,-0.22904605,-0.38752794,0.4410136,0.20119137,0.26976442,-0.40696377,0.19573064,-0.12733771,-0.29468796,0.08944932,0.38805085,0.4245389,0.039684646,0.30278182,-0.39165235,0.105282135,0.03374385,0.38764772,-0.10576282,-0.2736398,0.29507497,0.50214535,-0.39286503,0.069395535,-0.003170361,0.2555597,-0.47270098,-0.37643722,-0.47925723,0.13564694,-0.11088381,0.27363616,0.22628468,0.49361137,-0.038288604,0.36162704,-0.24485455,0.1724387,0.18375154,-0.2469187,0.082023285,0.28954732,-0.39542997,-0.028934605,-0.06114316,-0.24959417,0.12946041,-0.010872453,0.26480058,-0.44079417,0.0879532,-0.07145039,0.066008404,0.127075,0.4507038,-0.4563198,-0.20385097,0.048679024,0.24771576,-0.21668315,0.050346367,-0.16348581,-0.4840102,0.2417981,0.39749873,0.14810823,-0.4640249,0.20767806,-0.040314954],"bias":0.4380711},{"weights":[-0.17311704,-0.054775942,0.34435603,0.33468196,-0.074765466,-0.3592905,-0.019090211,-0.48348835,-0.06924572,0.2753254,-0.20239532,0.14228356,-0.035194322,-0.14547813,0.3576617,0.12115333,-0.13207555,-0.16172266,0.3534331,-0.2676548,-0.3150914,0.22018218,0.0006765586,0.29966936,-0.2381798,0.25501332,0.11395381,-0.09854259,0.17467093,-0.22083557,0.33215782,0.2491697,-0.31031075,0.09807035,0.1477589,0.0234189,0.110549904,-0.13366827,0.39202634,-0.31138307,-0.5066025,0.49006832,-0.08928682,0.41723692,0.47618774,0.49244636,-0.14572288,0.1579483,-0.38902345,0.44317544,-0.4732626,-0.31214464,-0.07128205,-0.35411254,0.18216825,-0.41842607,-0.116929315,-0.43002883,0.03403307,0.26389885,0.0108397985,-0.37227845,-0.23619518,0.27488288,0.15129419,0.48495552,-0.034662634,0.16908117,-0.029264973,-0.3570505,0.043397773,-0.22849162,0.28510115,0.09494027,-0.36121464,0.115447246,-0.25064728,-0.43384334,0.2955472,0.42414013,-0.43786433,0.21888201,-0.37114123,-0.46509042,-0.12317517,-0.092181705,-0.46762538,-0.043480672,-0.45858425,-0.21518245,0.035142917,-0.039713513,-0.2327359,0.33789715,-0.0375041,-0.2434507,0.3185304,-0.059747506,0.40331846,-0.35036093,0.33079362,0.19406106,0.29544786,0.278554,0.15354034,0.12540133,0.3032251,0.17642355,0.28142092,0.112290874,0.03939308,0.27174065,0.07774637,0.23982844,0.13830353,-0.4391222,-0.33274466,-0.34473675,0.12212549,-0.21274084,-0.037364498,0.43201962,0.3170396,0.10200199,-0.3217196,0.30467618,-0.15798993,-0.2948143,-0.4417875,0.36023796,-0.35162503,-0.20488381,-0.28263563,0.13626352,0.13520387,0.4814598,-0.30814946,0.2660891,0.42791697,-0.13329554,-0.20438635,0.49291655,0.23754615,0.20270787,0.4301237,-0.06693305,-0.19848463,0.20433204,-0.0496202,0.025240397,0.049133997,-0.024065902,-0.28708962,-0.47176108,0.3299594,-0.058041204,-0.4528798,0.1839909,-0.07283846,-0.300987,-0.38168907,0.2807016,-0.323938,0.23682423,-0.1402356,-0.17431793,0.28674254,-0.272329,-0.35234824,0.4121041,-0.11763613,-0.4220679,-0.040554006,0.017294874,0.48736054,0.11699335,0.029048769,0.12503605,0.24329773,-0.25834164,-0.29198682,0.03231999,-0.17438185,-0.27043912,-0.010834,-0.116564356,0.28047395,0.4446417,-0.19306879,0.25866398,-0.35246727,0.37062842,0.30811086,0.4902106,-0.2628454,-0.40336302,-0.41140655,-0.29928958,-0.43921334,0.29381114,0.004836664,-0.08229697,0.02007559,-0.19044103,0.11255924,0.38694388,-0.021946939,-0.15466346,0.25167874,-0.16525342,0.1629656,-0.2670668,0.4324455,0.13742389,-0.23904786,0.15707919,0.06342563,0.48874608,0.22324164,0.45569688,-0.35588622,-0.17747289,-0.099161714,0.39773858,-0.25956148,0.006682256,-0.2681221,-0.31245255,0.20303711,-0.3345541,-0.18401718,-0.23258284,-0.037090596,-0.42691004,0.08377404,0.09731857,-0.24019313,0.47254497,-0.46055254,0.33919874,0.3359398,0.13638675,0.2808141,0.24180643,0.15951632,-0.1739919,-0.27384368,-0.02562355,0.28348595,0.23150474,0.009348933,0.24006951,0.10498736,-0.0037520397,-0.19473511,-0.16656035,0.15057287,-0.42411545,-0.2633308,-0.14465936,-0.12020242,-0.16576299,0.23627008,0.32250258,-0.5009555,0.2068679,0.18077466,-0.13564795,0.4969086,-0.2013461,0.07294082,-0.39044234,0.4117462,0.39485553,0.014846976,-0.43802366,0.06693791,-0.48723045,-0.3626902,-0.47277677,-0.35258603,-0.102398135,-0.19819593,0.18345965,-0.15928361,0.30434737,0.29601315,-0.20019779,-0.068613686,0.1802673,0.19162142,-0.4490595,0.2961306,-0.4948808,-0.20697819,-0.34353155,0.20916578,0.4806068,0.3508201,-0.27306154,-0.458961,0.010376091,-0.043094914,-0.38073733,-0.13800366,-0.42192796,-0.030487318,0.31488279,-0.25408092,-0.14823025,-0.40401047,0.033799298,-0.22509083,0.22100702,0.04580733,-0.36428687,-0.35863805,-0.44520864,-0.40501982,-0.19154023,0.028719367,0.44644818,0.45595208,-0.15031403,0.31048372,0.13375671,0.34260273,-0.2693381,-0.14437944,-0.4162029,-0.48316926,-0.43147245,-0.27234393,0.31804085,0.20812,0.24516913,-0.33662084,-0.4229259,-0.38871852,-0.32577264,-0.4997416,-0.1958537,0.032710925,0.18513544,-0.29091758,0.34893447,-0.22474074,-0.25141126,0.14973745,-0.3804381,0.42123166,0.21636899,0.097935475,0.47282466,0.3786135,-0.2947039,0.43601823,0.22359706,0.13288921,-0.14988594,-0.4652022,-0.21489823,0.08006213,0.19841452,0.1437295,-0.2871959,-0.42830452,0.38742393,-0.27745318,-0.45832056,0.3285508,-0.47351804,0.4167104,0.029809348,-0.24353863,0.1252075,-0.4900946,0.4636153,-0.41610035,0.16430023,-0.32093158,-0.46474078,-0.47719407,0.0245937,-0.4528404,-0.11361961,0.08855792,-0.31142744,0.07325897,0.46052513,0.44036302,0.22670723,-0.014438097,0.08220318,0.42849526,0.20565997,0.24093963,0.37289503,-0.13738695,-0.27623704,0.11963033,0.12841408,-0.23444356,-0.103146225,0.03651379,-0.36973256,0.27037486,-0.30732518,0.21570797,0.49322432,-0.13927777,-0.38181153,-0.36330193,0.18257304,0.17706996,-0.45498067,-0.1936559,0.43421963,-0.32579857,-0.41145387,-0.10594501,-0.1082479,0.038376,0.22619818,-0.270871,-0.21600693,0.22753496,-0.3676261,-0.48544532,0.19482605,0.38166967,-0.09530653,-0.3629311,0.07036836,-0.2783596,-0.10246157,-0.34281904,-0.47286063,-0.36013106,-0.22467737,0.41606715,-0.49564222,-0.35035637,-0.43266124,-0.39062953,0.25367844,0.033988245,-0.4313031,-0.13524318,-0.378947,0.4620146,-0.38920707,0.40056872,0.09553483,-0.21966957,-0.17950349,-0.18104957,-0.40688255,0.20612404,0.09023883,0.0006237172,0.41010612,-0.039718054,-0.26028737,-0.49564722,-0.19756001,0.24590446,-0.0994278,0.3966713,-0.04118771,0.22915721,-0.25417724,0.3825437,-0.18961214,-0.27801922,0.31814775,-0.4544771,0.37856025,0.10932825,0.13677606,-0.29342782,-0.09046731,-0.31167898,-0.16410823,-0.33067718,0.24092366,-0.0066803023,0.33926705,0.35847056,-0.09145657,0.39139798,0.34247136,0.29731458,0.21885921,-0.28350815,0.3621557,0.41124523,-0.06392503,-0.32256424,-0.5054991,0.13789265,0.43908155,-0.21493536,0.18211493,0.18556486,0.18326005,-0.16902196,-0.1613938,0.22721955,0.095144555,0.2841458,0.4077004,0.3841369,0.38701582,-0.05295143,-0.40055826,0.49327162,0.2716841,-0.39250478,0.33450824,-0.31791714,0.4760807,0.14817637,0.3834104,-0.40392616,-0.034050837,-0.25300643,-0.14120255,0.037007228,-0.49534616,-0.16041598,0.012673655,-0.24513268,-0.028712986,-0.42413262,0.01464058,0.253487,0.006613659,0.037136417,0.20976396,-0.34942144,-0.21568018,-0.3644065,-0.016302953,0.48566234,0.18826331,0.3917934,-0.28904432,0.4401329,-0.008906498,0.39963847,0.3413045,0.07286768,-0.32864583,-0.18298404,-0.3714278,0.26931617,-0.42588395,-0.46206594,0.22347352,-0.17257869,0.15950286,-0.108481444,0.27001193,-0.34273747,0.45610875,-0.18737978,0.40095267,0.09114187,-0.0021057418,-0.036442596,-0.057223406,0.15980145,0.14002134,-0.44769087,-0.13672435,-0.4325519,0.27705044,0.37020528,-0.19584961,-0.13294064,-0.107764125,-0.022911455,0.45173278,-0.08360392,0.29202044,0.46924654,-0.06253834,0.37701714,-0.18730567,-0.20465897,-0.4330524,0.23653932,-0.13080335,-0.2789474,-0.428697,-0.22332294,0.25526834,0.45210075,-0.07769446,-0.46532395,-0.038946614,0.22596166,0.28675443,0.19198996,-0.29247907,0.06582593,-0.43463343,-0.31806567,-0.078817144,-0.4462088,0.12735845,-0.018769043,0.3457751,0.112340614,-0.09283856,0.35486913,0.34754607,0.43996438,0.34855738,0.02044419,-0.12504196,-0.4093442,0.17568235,0.19820757,-0.1348211,-0.10169679,-0.40094164,0.36709645,-0.34675348,0.14296699,0.3950228,-0.24988054,0.03656337,0.41070458,-0.39885205,0.1588309,0.29349303,-0.12866127,-0.37544885,0.20619121,-0.2133493,0.29190373,-0.14037612,0.17525315,-0.13497889,-0.4895538,-0.061694104,0.13838816,-0.06484005,0.18634729,-0.34789288,0.28607467,-0.116520524,0.1888968,-0.4813048,-0.36938396,-0.48604515,-0.048170432,0.15973343,0.41093427,0.1415879,-0.4024239,-0.30878624,-0.27385756,0.15983567,0.19887581,0.327341,-0.4330515,-0.4927388,0.4073616,-0.41034892,-0.089364074,0.30675277,0.35298264,0.23382449,-0.1899392,-0.18740357,0.47123438,-0.313348,-0.20253468,0.19515194,-0.24903284,-0.2655515,0.34322965,-0.4503899,-0.44101557,0.04167427,-0.2579672,-0.17105767,-0.11697053,-0.0470872,-0.19317606,0.07166517,0.45150042,-0.36884436,0.20373385,-0.44948035,0.40324557,-0.49553636,0.39776763,0.45083198,-0.43871883,0.12355751,-0.46705288,-0.17162958,0.31586334,0.24492796,0.13511737,0.033614222,0.22234634,0.23638037,-0.06008565,0.30529723,0.38668674,0.45409805,0.15431416,0.34766603,0.054597557,0.08432028,-0.0902886,0.13176766,-0.50282854,-0.004204924,0.3638103,-0.26735088,-0.2912316,0.0770205,0.44815466,-0.035720576,0.12789881,0.016897166,0.46073082,-0.2425945,0.106492326,-0.10494191,-0.24535559,0.4685031,-0.26891017,-0.0785302,-0.46904474,-0.037087165,0.097321145,-0.4993356,0.17679119,-0.16742612,0.30893177,0.3211993,0.058656897,0.16028963,0.44901374,-0.039035913,0.48727348,-0.36427364,-0.41565195,-0.03720497,0.120298006,-0.071754955,0.34763476,-0.28850213,0.024062121,0.368796,-0.4884937,-0.016198728,0.32684416,-0.045093995,-0.09623154,-0.13599758,0.006801488,-0.12477493,0.4530538,-0.24866784,-0.042392325,0.40043026,-0.33531448,-0.114138246,0.21478432,0.2092587,-0.22077851,-0.30280596,-0.42714134,-0.29998282,0.30328295,0.42937383],"bias":0.09506621},{"weights":[0.2986022,0.07223228,-0.17645687,-0.19959134,-0.16796213,-0.48120824,0.24229223,-0.48003224,0.09745435,0.027886152,-0.15853411,0.2918901,-0.024874106,-0.012567566,0.40370524,0.23651212,0.25774,-0.03835157,0.14979225,0.1774711,-0.038064037,0.1733306,-0.27332786,-0.11058351,0.23983449,-0.47891858,0.10837666,-0.2174657,-0.053345356,0.11126927,-0.14640671,0.3075162,-0.239848,-0.47424322,0.049146317,0.32642564,-0.20409107,0.39648852,0.44606164,0.11114383,0.2477875,-0.49905136,0.14919184,-0.4937419,-0.33458883,0.39547712,-0.45461798,-0.17530015,0.4022732,0.28195173,-0.07254983,0.122529216,0.47629997,0.06482524,0.0677313,-0.26477852,-0.44515303,-0.16394979,0.1409378,0.2948542,-0.45733693,-0.09090523,0.38566372,-0.22992495,-0.46810424,-0.114756435,0.23078519,-0.19866373,0.1076673,-0.17121755,-0.14651872,0.3787782,-0.4526591,-0.50991553,-0.32822293,0.38033855,0.030865401,-0.37192732,-0.28258955,-0.27035913,-0.50837725,0.3424644,-0.06515845,-0.43519655,-0.29486373,-0.029829882,0.014991161,0.31402045,-0.14879903,0.027367696,-0.010553117,0.3876812,-0.44626412,-0.19382954,0.47381678,-0.013819646,-0.30805787,-0.076911375,0.113947496,0.36154148,0.4802939,0.28470454,-0.45065713,0.21871926,0.26505926,-0.15134218,-0.3167857,0.44933286,-0.46327263,-0.320012,-0.41208676,0.05864617,-0.1341793,0.35556564,-0.17073031,-0.46614313,0.19238456,0.4419233,-0.1853039,0.017660633,0.40413466,-0.34680966,0.337636,0.19829667,-0.09392438,-0.2649481,-0.20084584,-0.1410191,0.1306213,-0.06854983,-0.21706235,-0.38382852,0.17242284,-0.067657344,0.4689944,-0.20549133,0.08690479,0.09664058,0.107234314,0.2807431,0.43338427,-0.11829027,0.048687927,0.4808908,0.12570846,-0.020549284,-0.4363797,0.016181847,0.052317824,-0.050104484,0.48234853,-0.15844291,0.48575062,0.39033666,0.2742898,0.2598803,0.3383977,-0.1424924,0.27476552,-0.39315793,-0.29587054,0.22247946,0.3749712,-0.5021765,0.16599154,-0.46332055,0.12083142,-0.22919196,0.11816446,-0.2994497,-0.26119685,0.19949009,0.20900689,-0.38568905,0.2602581,-0.1491291,-0.44011298,0.42763865,0.18918577,0.4080882,-0.43516463,-0.32679683,0.24557333,0.22463226,0.3002869,0.09913095,0.1479565,-0.4258453,-0.07231441,0.120670296,-0.41202292,-0.084220834,0.0818483,0.36364663,0.116657615,0.22352645,-0.31646708,-0.03462755,-0.38383985,0.37907985,-0.44686678,0.30319256,-0.46331722,-0.32124949,0.3181543,0.27976847,-0.30683059,-0.2165538,0.3345048,-0.025928147,0.24359,-0.081742845,0.40120438,0.118919134,0.3536397,0.23503025,-0.020799244,-0.36259967,0.070080385,0.276309,0.08763132,-0.4551988,-0.08428375,0.044612948,0.074883975,-0.4065009,-0.055130612,0.40372223,-0.25182784,0.008520173,-0.038567964,-0.10474359,-0.42539936,-0.0841751,0.40679055,-0.17639647,0.05246688,0.4823422,0.024134565,0.3087141,0.44506064,-0.2550301,0.1438108,0.4414054,0.3834442,-0.44327104,-0.25044033,-0.04598324,0.056633137,-0.32908168,-0.4262964,-0.46403956,-0.19360559,-0.21483545,0.03649093,0.23490107,-0.4504048,0.047042627,-0.26134688,-0.012398242,-0.35830647,0.4664851,-0.05434347,-0.24467035,-0.277938,-0.19395699,0.017543815,0.05563039,0.09639805,0.48282754,-0.17791457,0.21598524,0.3090863,0.08770805,0.20827866,0.41918656,-0.2847365,0.11268054,0.30224833,0.38686034,0.36459747,0.44744575,-0.15937859,0.20522355,-0.3522169,0.44631618,-0.3371381,-0.19882365,-0.45954448,-0.22456537,-0.034056846,-0.12710096,0.24323557,-0.34516308,-0.026130138,0.25487942,0.0055640987,0.0869069,0.030677712,0.122014955,-0.30166364,0.27504605,0.13165572,0.026932174,-0.25841022,-0.31180236,-0.44143054,-0.16998555,0.48134768,0.41985923,-0.3681178,0.12735724,0.31334817,-0.34151793,-0.37893483,-0.48904097,0.16466875,0.35130662,-0.34220183,-0.28754047,0.45208427,-0.32514814,-0.39056155,-0.48120865,-0.29195336,0.101058386,0.13614696,0.36542773,-0.26455262,-0.09350549,0.083511814,0.4596939,-0.25593874,-0.50901866,-0.01249041,-0.47919965,0.45787707,0.085631974,0.033183098,-0.40890476,0.12512454,0.33426428,-0.21180105,-0.42853382,-0.40351084,-0.439441,0.2159369,-0.1373076,0.3335642,0.35950866,-0.026119405,-0.49764794,-0.38905734,0.14405929,0.03989335,0.37036908,-0.12948722,0.47666305,0.37609932,-0.25280342,0.33716214,0.09405444,-0.044608433,-0.2942168,0.34546047,-0.4032955,-0.18608624,0.4077413,-0.482963,0.23215114,0.020966949,0.031840373,0.4529733,0.16967969,-0.2546952,0.029373765,0.40684167,0.12792069,0.37136447,0.4139608,-0.036430027,-0.507023,-0.08746739,0.4273219,0.48755306,-0.3573506,0.05510795,-0.21072027,-0.40546238,0.19986533,0.0046774643,-0.23982854,-0.32163432,-0.05439839,-0.05254241,0.078928374,0.17235637,0.017150084,0.0020565286,0.16240871,0.47660196,0.3498364,-0.48477566,0.16848418,-0.16540773,-0.03306462,-0.064278334,0.3493139,0.2792015,0.42026526,0.19632503,-0.3257713,-0.37272254,-0.3374023,0.022247475,-0.36928216,-0.040910922,-0.4302475,0.3853945,0.11251092,0.18191928,-0.4583291,-0.44292653,0.07440156,0.15108278,0.28333464,-0.41884154,-0.11316101,-0.33823705,0.052001722,0.045516815,-0.08760165,-0.076851144,0.033382274,-0.4516516,0.3381398,-0.31712714,-0.44684577,-0.45870608,-0.32585058,-0.21677984,0.1728927,0.0031908709,-0.12106575,-0.305348,-0.4116972,-0.2242873,0.2813038,-0.39899817,0.04016703,0.24839206,-0.019763041,-0.12516797,-0.31305036,0.43962252,0.35433418,0.17497441,-0.27427322,-0.40845734,0.19318877,0.20417562,0.3860984,-0.2428874,-0.1552371,0.43665242,-0.0014356271,0.44792998,0.43316403,0.14700095,0.20747486,0.35586092,-0.005867134,-0.30091697,-0.1235168,-0.33233464,0.3319662,-0.24522644,0.19229606,0.2248821,-0.23345236,0.35610437,0.17988285,0.060699113,-0.17175558,0.18542537,-0.24109945,-0.3749159,-0.1788852,-0.4855291,0.40849286,-0.071881235,0.3488475,-0.035622608,-0.38166147,0.035752773,0.14239486,0.08587866,0.35904104,-0.15932886,-0.13875362,-0.02207182,0.26743987,-0.018157102,0.027552841,0.48533663,-0.029982468,0.34214064,-0.10482644,0.26801312,-0.19836426,0.46027002,-0.22590366,-0.04014396,-0.47616112,-0.27840716,-0.1352925,0.02769125,0.46015576,0.39637938,0.34683383,-0.13006249,0.06880717,0.00033776712,-0.347435,-0.37403128,0.2379225,-0.49579802,0.46414825,0.3277831,0.4336554,-0.27951902,0.24635063,-0.36263815,-0.07083909,-0.10455889,-0.14676963,0.38561305,0.48054564,0.10820291,0.148713,0.1513562,0.019292861,-0.077553995,0.24616183,0.331874,0.43519142,0.27680406,0.14941935,-0.3867118,-0.23308323,0.4863821,0.4657987,-0.40290704,0.43986195,0.18560413,0.20182554,-0.29350019,-0.29513687,-0.40059546,0.21798049,-0.2842714,0.3515724,-0.3531024,0.32653213,0.46165273,0.33706436,-0.122558884,0.16984919,-0.32895818,0.2369182,-0.043017313,-0.038905267,-0.026225263,-0.082327135,-0.12919877,-0.42056006,-0.18861891,0.072285384,-0.12533285,0.40739423,-0.1583161,0.38656563,-0.31353718,-0.2693571,0.44542217,0.45334876,-0.39707878,0.1587235,0.37381706,-0.061681367,0.34415403,-0.501552,-0.4128437,-0.34245998,0.251384,-0.39609003,0.121774115,-0.4979268,-0.4682454,-0.009512322,-0.115499325,0.17740424,0.12667832,-0.32309654,-0.2637151,0.02826655,0.44449016,0.23326246,-0.32120544,-0.30275515,-0.30393642,0.06153344,0.4518972,0.40693647,-0.3867951,0.48159567,0.467728,-0.14848216,-0.22402616,0.29622486,0.0087895505,-0.28953135,-0.2955517,0.01982086,-0.13624378,-0.05408812,-0.28072798,0.073210075,-0.39536977,0.34139323,0.502563,0.09043619,-0.012536338,0.44677785,-0.052205637,-0.1371951,-0.3448899,0.054992907,0.3969166,0.099142045,-0.34451064,-0.20410946,0.48045754,-0.14151855,-0.16938537,-0.10013243,0.22081283,-0.43382347,0.20261863,-0.12763062,-0.23669958,-0.078119636,0.30712503,0.32026294,0.19203888,-0.1695326,0.11962391,-0.33728328,0.24864464,0.24867512,0.056922678,0.041108184,0.017349238,-0.31269047,0.15396176,-0.18105398,0.02667531,-0.18584572,-0.107795164,0.33049923,-0.14544097,0.26095018,0.37900326,-0.0045933626,-0.42696726,0.32150212,-0.16110137,-0.39699572,0.3731613,-0.02715284,0.08037884,0.36329737,-0.44156995,-0.0751842,-0.0529249,-0.35596257,-0.4191473,0.48988616,-0.40069783,-0.47963637,-0.16043937,-0.22869511,-0.42161945,0.2619952,0.4650607,0.30002865,0.08564309,-0.3501219,-0.4132418,0.11926559,-0.004196038,-0.4901897,0.27846107,-0.20120955,-0.17618561,0.40643266,0.47808042,-0.10439889,-0.15787743,0.121548325,0.15226719,-0.306218,-0.2707315,-0.06639979,0.10593905,-0.31116134,0.025812646,0.15318944,0.39845946,-0.35966945,-0.0658251,0.42322952,-0.43633115,-0.103495,0.37476298,0.3687524,-0.4023723,0.19154423,-0.06543275,0.15940255,-0.025544047,0.1478036,0.040842857,-0.118738405,0.44485638,-0.3557774,-0.3966829,0.3925331,-0.36097628,0.3003425,0.22839615,0.37018427,0.26865172,-0.24800083,0.4612882,0.046942193,-0.16571337,0.32079214,0.4201474,0.3932036,0.2645838,0.1508355,-0.056231197,0.039584532,-0.10206481,0.000050648487,-0.21735853,0.16066688,-0.4145191,-0.21307379,0.44578096,-0.36902907,-0.49094805,-0.3023921,0.2781304,0.23214719,-0.24629442,-0.1282464,-0.485949,-0.4574622,0.33436474,-0.47049826,0.33872056,-0.42462224,0.035210043,-0.16517994,-0.10117279,-0.18459366,-0.36075845,-0.18031111,-0.2128461,0.2835401,-0.22642523,0.12361876],"bias":-0.20925325},{"weights":[-0.07898883,-0.06252438,-0.25118956,-0.2989559,0.32390872,-0.25188848,-0.4936174,0.46110216,0.29569343,0.25407687,-0.45800063,0.43450525,-0.14015609,0.18178691,0.067143574,0.3834341,-0.18833838,-0.27137157,0.25193873,0.34880248,-0.45282075,0.424215,-0.11652867,0.038164627,-0.026951406,0.26236096,-0.076374926,-0.28118894,0.07781502,-0.02735648,-0.42315468,-0.38159558,0.19267572,0.018539809,-0.04186419,0.37989843,0.41947466,-0.042242642,-0.29252923,-0.47555307,-0.4741919,-0.34126437,0.41351846,0.48385608,-0.06000086,-0.43289462,-0.47146067,-0.4888298,0.37377557,-0.2914486,0.30755094,0.38721412,-0.42105517,0.41800514,-0.3892108,-0.14407049,0.042580497,-0.22185908,0.27860805,-0.4887828,-0.2980104,-0.36170307,-0.086143605,-0.12135213,0.37443277,-0.4243617,-0.4383097,0.061293222,-0.19299483,0.4546287,-0.08038758,-0.13536741,-0.1039968,-0.22758391,0.38551703,-0.06465823,0.35940963,-0.056651082,-0.3427254,0.39945334,-0.46235982,-0.1938415,0.38669327,-0.13533506,-0.04467498,0.21751596,-0.06633083,-0.07231779,0.18600231,-0.0069889273,0.3779829,-0.06518932,0.47613737,0.033833116,-0.46288133,0.37624463,0.14866574,0.0397886,-0.27246702,0.2713326,-0.33425328,-0.15265834,-0.4163844,0.072121695,0.39116862,0.3991025,0.11135993,-0.3951485,-0.32129648,0.06949937,-0.10771755,-0.34509143,0.36864093,0.13910182,0.24628691,0.48085174,0.45042926,0.074123465,-0.03636122,-0.022395484,-0.35498756,0.380859,0.13942538,-0.45295396,-0.45504984,0.14395924,0.45243055,0.3526041,-0.23142263,0.27478245,0.025368968,0.29107994,-0.15088649,-0.45802113,-0.29100022,-0.3323563,-0.07989801,-0.36838222,0.27093995,-0.051506866,-0.13299617,-0.48732635,-0.47435427,0.36785132,-0.22818437,-0.2617629,-0.17896643,0.1470518,-0.20407556,0.49375004,-0.28965876,0.05007707,0.16650824,-0.4050763,-0.32651997,-0.20332822,0.23389752,0.079002455,-0.3686071,0.07784059,-0.0774407,-0.2959405,0.26242426,0.067631595,0.040779434,-0.39621276,-0.4305481,-0.08208231,-0.50168,-0.32871947,0.065374516,0.15894313,-0.45069063,-0.20008658,0.20631388,0.0047505074,0.05132307,0.013804825,0.4514216,-0.35560384,0.18605839,0.3985235,-0.06893035,0.29854822,-0.14835697,0.39673734,0.21673763,-0.49819255,-0.13216507,0.062829435,-0.34465414,-0.3017182,0.45257846,-0.49153203,-0.45485234,0.38629165,0.31392506,0.24723677,0.01703843,-0.24775594,0.44889557,-0.23318404,-0.5044633,-0.32837808,-0.4972878,0.20684618,0.034282047,-0.221461,-0.1359916,-0.1303082,0.37281856,-0.44338873,-0.255477,-0.0038052013,0.006508452,-0.0087493295,0.11228464,0.24210975,0.36442962,-0.19821228,0.00976842,0.29111144,-0.24831873,0.26143476,-0.06522471,0.38291028,0.23458563,0.32705283,-0.17530902,-0.39756677,0.37328756,-0.35177583,0.32185903,-0.068909444,-0.4830058,0.23258752,0.44199184,-0.1687958,0.19246426,0.015709372,-0.12931119,-0.13207029,-0.3628693,-0.23023653,-0.2600268,-0.06862861,0.41439804,-0.2929452,-0.009287004,0.3906747,0.32124996,-0.21973103,-0.23320492,-0.21522589,-0.45459127,0.08922183,0.09951472,0.24099213,-0.42677268,0.118113354,0.31417397,-0.18799068,-0.24883406,-0.41020283,-0.3290044,0.022846969,-0.25903437,-0.13659881,-0.19414124,0.20710531,0.4474242,-0.1814978,-0.015339261,0.12922703,0.032646976,-0.12224488,0.3490796,-0.10380686,-0.0053637293,-0.38179436,0.00111751,-0.42000666,0.44939476,-0.09576354,-0.15536761,0.42279768,-0.03897762,0.32255724,-0.01989274,0.0457139,0.029267065,0.1799255,-0.03779517,-0.21819256,0.4884617,0.106834605,0.21162139,-0.42320928,0.0964721,0.3752194,-0.4970675,0.1607745,-0.029521724,0.26939878,-0.23072414,-0.44749746,-0.18685462,0.4280236,-0.038513817,0.16072744,0.061256155,0.3868582,-0.42405593,-0.13330556,-0.32123467,-0.20178835,-0.37490028,0.009576862,0.17078227,0.088840105,0.118107624,0.49832758,-0.10244829,0.47834748,-0.36566034,0.2397374,-0.27342352,-0.12570018,0.22782107,-0.018728452,0.20896664,-0.43457553,-0.47974885,0.28010663,-0.37967512,0.41368908,-0.3093242,-0.4541864,-0.15253755,-0.38177198,-0.28444242,-0.40556058,0.44245416,-0.14874376,0.028233139,-0.06277506,-0.46610895,0.27768677,-0.17582333,0.30500242,0.009022157,0.11261844,0.16245739,-0.16237548,-0.49635333,0.49129295,-0.064127445,-0.31506556,0.3127513,-0.072452284,-0.41906524,-0.057324,-0.45271823,0.38505954,0.19627759,0.08925965,0.39155307,-0.4739333,0.33068752,0.1918745,-0.42477676,-0.2815752,0.0375431,-0.01443121,0.46950242,-0.35705623,0.1154742,-0.27963632,-0.30538815,0.34815538,-0.2679432,-0.1693524,-0.3581941,-0.29540226,-0.23383299,0.21974364,0.1791246,-0.2102634,-0.14609398,0.4052037,-0.07715905,-0.11845759,0.2360927,-0.33863586,0.48308405,-0.45454645,0.25709748,0.1110888,0.18824784,0.27943224,0.18292698,-0.48096138,0.21429415,-0.49211732,-0.3551963,0.012274869,-0.15814023,0.41850168,-0.48976925,0.06281709,0.28685075,0.3699148,-0.3712482,0.0018749557,-0.39734906,0.42511195,0.39147222,-0.170071,0.09364154,0.44821417,-0.14526187,0.3963069,-0.4597906,-0.3143135,0.20629877,-0.49351683,-0.46411797,-0.45925483,-0.4385283,0.20414977,0.31812418,-0.03472582,0.46284375,-0.3048112,-0.087700784,0.3323144,0.16242562,0.18387198,-0.13951534,-0.16884434,-0.11783689,-0.43202084,-0.47737572,-0.12178072,-0.12437262,-0.020406706,-0.06671011,-0.4375726,-0.38041338,0.11873741,0.1524394,0.13613206,-0.39274043,0.2775968,-0.31009087,0.30694044,0.17137523,0.23454323,0.40361613,0.37657845,0.33797267,-0.10283632,-0.3594036,0.3785033,0.0014039899,0.19672012,-0.3054222,0.41905338,-0.4510581,-0.2418288,-0.33425882,-0.0189287,-0.34504074,-0.31337497,0.19147824,-0.06580204,-0.47234604,-0.17605056,-0.4836251,-0.015294829,0.45157123,-0.12577637,0.32492104,-0.15117313,-0.44242218,-0.471173,0.4846524,0.24470818,-0.27409664,-0.46627367,0.16994166,0.3408044,0.077959724,0.40972903,0.23898688,0.40540168,0.15943785,0.15535551,0.100819774,0.0831461,-0.46328902,-0.46367553,0.328428,0.019425254,0.06345435,0.03189327,-0.47986683,-0.45837602,-0.22775608,-0.10141969,-0.3827636,-0.38830647,-0.014896425,-0.21455167,-0.16937277,-0.49887225,-0.16799854,0.11036464,0.009634483,0.42421794,-0.017835667,-0.09850507,0.3565957,-0.3362427,-0.13906015,-0.18438798,0.48645526,-0.010466585,0.14035642,-0.50816494,0.2849526,-0.27442405,-0.15411507,-0.47932476,0.0118669225,0.045108024,-0.22511576,0.37894082,0.17224777,-0.196328,-0.20465124,0.09661392,-0.33741057,0.10657492,-0.276145,0.29354972,-0.47053808,0.30583212,-0.24428946,0.45206344,0.066776775,-0.48598644,0.29337895,0.17698936,0.044343814,0.45457327,-0.10757356,0.11428017,0.15908657,-0.37881052,-0.31590995,0.4431186,0.08466801,0.017233394,-0.1669995,-0.40436777,0.3574897,0.02089077,0.12256908,0.06026541,-0.18034445,0.23008849,-0.47955653,-0.08885928,0.36363333,-0.46279088,0.013810873,-0.23643625,-0.13007328,-0.35479745,0.14323562,-0.23374231,0.47789752,-0.0837057,0.051911823,0.35223782,0.3075283,0.32734552,-0.16007756,0.2320346,0.20345008,0.36028692,-0.024043968,0.466328,0.40774855,-0.3332682,0.37475199,-0.47054034,0.21697842,0.13679206,-0.4835858,-0.4449637,-0.026291952,0.3287981,0.3873312,-0.11706543,-0.10930287,-0.3675732,-0.27243835,0.3082043,0.029094797,-0.23050687,-0.1226503,-0.15536612,0.3008942,-0.4982595,0.3334071,-0.13545185,-0.13618495,-0.099746026,-0.39529568,0.21006307,0.48597702,0.30014792,0.19105315,-0.121670485,0.21406837,0.3093689,-0.24991769,-0.2741205,-0.4142499,0.17519997,-0.13010141,0.4650728,0.26365954,0.48074165,-0.262076,0.29490727,0.18373525,-0.037208784,-0.35640448,0.4492202,-0.29784638,-0.039265186,-0.18612932,0.23507883,0.024671787,0.42864954,0.12962186,0.064803585,0.12270687,-0.45418686,-0.12909803,-0.11563742,-0.09457104,0.30107662,-0.44926444,-0.09300474,0.3376592,0.16810654,-0.30662814,0.30431196,0.43431732,-0.39862445,-0.26164255,0.18668155,0.22588076,-0.050767317,-0.06119141,0.2763168,-0.2923086,-0.21524285,-0.25154912,-0.17290531,-0.021816857,0.19462119,0.21676119,-0.3728418,0.2387444,-0.34053642,0.47397897,-0.3872048,-0.48087668,0.14997339,0.4763754,-0.45991883,0.32336393,0.20700255,-0.39256868,0.29369184,0.06653821,-0.077923514,-0.15672594,0.32818934,0.09398301,0.2503323,-0.08331451,-0.25837532,-0.104036085,0.37489668,0.059323,0.48738387,-0.2540443,0.062895775,0.14678049,0.3198377,-0.35631272,-0.17333789,-0.0780671,-0.027367,0.1414091,0.21483842,-0.36663455,0.46800205,0.41351736,0.28050572,0.4030864,-0.12733482,-0.013524697,0.19714053,-0.4956482,0.3039605,0.17475863,-0.26010478,-0.44126675,-0.07107357,0.20125376,0.4101477,-0.26178798,-0.47622165,0.2833542,-0.1493666,0.3877806,0.13979164,-0.0041542742,-0.21064718,0.3821217,-0.46512994,0.35344175,-0.011913831,0.37673092,-0.04842024,0.11837722,0.19864158,-0.40930215,-0.50350016,0.026104307,-0.16485326,0.0115241865,0.27984414,-0.19988672,-0.09958805,0.3520873,-0.17529678,-0.39544567,0.40968814,0.0006285637,0.13996257,0.000033826742,-0.15398,-0.06094562,0.28932062,0.3220678,-0.12327202,0.2810873,0.26132935,0.4627684,-0.37823904,-0.124797665,0.37105256,0.112619415,0.042142823,-0.1187992,0.061704293,-0.083374195,0.1350837,0.45552415,0.39485016,0.24476197,0.31356654,-0.47538552,-0.31824955,0.0017657027,-0.15897368],"bias":-0.3346391},{"weights":[0.26720917,-0.030532647,0.340001,0.076732785,-0.48023522,0.022923779,0.4870807,-0.2057184,0.109053284,-0.30487907,0.082136065,0.11976841,-0.321355,0.13330734,-0.35601318,0.21217501,0.17154825,-0.36072505,-0.038769096,0.17803764,-0.29357684,0.055072337,-0.31510484,0.07963315,-0.110771626,0.1648705,0.11891618,-0.11875519,-0.11538741,-0.23217368,0.025205325,-0.4691751,-0.35216463,-0.07832834,-0.09691867,-0.12678754,0.3855617,0.42455196,0.39383197,-0.034971803,0.082776934,0.21375525,0.2123946,0.11438766,-0.21425521,-0.4163531,-0.19549799,0.345886,0.18317282,0.021390628,0.17879379,0.013983945,0.020349454,0.35985088,-0.064251155,-0.29081,0.43935668,-0.035487145,-0.11775383,0.37796986,0.19510603,-0.12258288,0.09252432,-0.20982814,-0.039563745,0.15803659,0.21536493,0.18414903,-0.39631844,0.4158069,-0.11388859,-0.47435677,-0.4551307,-0.01230671,0.3836745,-0.3004291,0.48613608,-0.27277684,0.39762354,0.3392825,-0.22486794,0.030374955,-0.25974798,-0.43057072,-0.28790402,0.26721287,-0.44130552,0.14835596,0.34872353,-0.031766504,0.25927556,0.3922373,0.17796063,0.07035735,0.049839403,-0.3158592,-0.24558091,-0.042323567,0.23610985,0.3595811,0.08236339,-0.17359614,0.12838793,0.2688576,0.20262814,0.15238953,0.36658072,-0.12674057,-0.41609967,0.16003847,0.48422968,0.19500041,0.22823143,0.45317566,-0.44264138,0.451782,-0.40482295,-0.28067374,0.4366181,0.06146517,0.327729,0.38194525,0.3166386,0.25556564,0.16310489,0.14531493,0.3445258,0.08604301,0.32436156,0.33336687,0.13370204,-0.3788979,0.38759708,0.32664323,0.18364441,-0.42720163,0.40904534,-0.24123776,-0.0029445656,-0.35489058,-0.19963503,-0.4114524,0.33803916,-0.11513743,-0.08263585,0.35808527,-0.08627603,0.0910845,0.14376807,0.15497422,-0.23351586,-0.49320197,0.24185753,-0.20865786,0.21083927,-0.23791194,0.095464945,0.21709633,-0.06947625,-0.13494134,-0.25546265,-0.22166407,0.44498885,-0.21272373,-0.0661597,0.3374493,-0.37600303,0.46177053,-0.32792473,0.23127174,0.48267424,0.2016958,0.2153467,-0.48183966,-0.49882364,0.14751625,0.14620352,-0.34377265,0.099515915,-0.28973448,-0.16091168,-0.2385068,0.18487108,0.08619177,-0.44431388,0.1655724,0.27237737,-0.18555033,0.075655945,-0.48056412,-0.21038175,-0.08830117,0.28990507,-0.20955801,-0.24144006,-0.06338808,0.34820795,-0.27103388,-0.097127646,-0.012735626,-0.2040292,0.46090472,-0.26586664,-0.4654503,0.3138932,0.10900426,0.03409743,-0.40862465,0.3455639,-0.05227363,-0.2502612,-0.16551459,0.34084678,-0.08429158,-0.3119117,0.31406963,-0.36943674,-0.19333279,0.45953906,0.2834152,-0.3278333,0.29294097,-0.038779825,-0.4485482,0.3880049,0.040310293,-0.03458938,0.2884971,-0.32446492,0.022084778,-0.12258052,-0.103629224,-0.14959967,0.44313216,0.20337379,0.24926054,0.40757823,-0.10740292,-0.2643441,0.058752768,-0.044612058,-0.07399297,-0.07061088,0.27247584,-0.12114048,0.13855755,-0.40264487,-0.41707885,0.19646502,-0.35927522,0.13043773,-0.019712139,-0.01805346,0.16812229,0.49843037,0.13220644,0.3334931,0.39877486,-0.3021555,-0.31098974,0.30741,0.35664678,-0.025771977,0.28815007,0.31032705,0.22351456,0.34526634,0.2646855,-0.10347974,0.38306987,0.42378068,0.22820938,0.11765158,0.1192286,0.14361477,0.4055674,0.0016012338,-0.34454465,-0.20997429,-0.021405626,-0.43371236,-0.35235882,0.09387961,0.49038935,0.131719,0.10042932,0.43955505,0.15607142,-0.039184213,0.03045261,0.39671755,-0.06850755,-0.31678176,0.20599616,-0.13758504,0.035780314,0.3672421,-0.23492646,0.44174886,-0.44576502,0.39372885,0.3766085,-0.40846252,-0.3627658,0.032202743,-0.4232694,0.09520605,0.18355167,0.4373486,0.17626965,-0.44141245,0.21676719,-0.048352692,-0.07728992,0.03218414,0.031590465,-0.38172638,0.45620048,-0.30305576,-0.14354253,-0.079187036,-0.046864145,-0.32202983,0.2056154,0.4544201,0.22021031,0.0069056908,-0.15063286,0.110849865,0.08024252,0.42271733,0.4559908,0.44460928,0.083996564,-0.11571452,-0.09117088,0.30976844,0.29786718,0.46213543,0.10546854,0.162925,0.01245351,0.30397666,0.33726442,0.29952562,0.42735767,0.21076524,-0.21283603,0.45290792,0.32802773,0.19170558,-0.38884842,-0.32180357,0.07507932,0.076278806,0.13543808,-0.058943026,-0.1128751,0.48687232,0.22588837,0.33107018,0.21385539,0.36891937,-0.0939233,-0.46347463,0.30995154,-0.23016262,0.37531638,-0.30720806,0.41855836,-0.32076538,0.3944869,-0.26878083,-0.19364953,-0.24926853,0.45540643,-0.1367724,-0.48858356,0.07551265,-0.11821234,-0.4878906,-0.093299985,-0.306157,0.20722997,-0.4923216,-0.3607086,0.34222734,0.2817744,0.31484807,0.13873792,-0.06907424,-0.2653873,0.21282756,-0.4797064,0.06557599,0.43046355,-0.39022565,-0.2588706,-0.06160008,0.029803522,-0.46762908,0.24434686,-0.1711644,-0.17572463,-0.24177241,0.47190583,0.10135996,0.0059141046,-0.023236627,0.23604321,0.24210155,-0.18389869,0.32665527,-0.24677551,0.1879797,0.46415842,-0.2022078,0.08697691,0.09768513,-0.34736133,-0.10753366,0.23817778,0.036375076,0.39306366,-0.071653344,-0.42311168,-0.12214506,0.3448434,-0.36760688,-0.21683407,0.21189964,-0.22692668,0.36206317,0.32254624,-0.39722276,-0.13689458,-0.49939668,-0.44346464,-0.36545777,0.04562451,0.37946486,-0.28425193,0.38678956,-0.20613003,-0.46519637,0.14241052,0.22007763,0.2601514,0.41559267,-0.040601224,-0.1175842,-0.40205503,0.057538535,0.46213138,0.28678286,-0.055318702,0.3082502,0.004815976,0.0042661866,-0.32205355,0.26111484,0.22952902,0.17340255,0.34339607,0.42406285,0.328961,-0.31213284,-0.33259666,0.3689003,0.013882549,-0.44609165,0.22855842,0.03414919,-0.41863906,-0.09638783,0.23059773,-0.20351136,-0.06856677,0.09185067,0.0070337057,0.45840108,0.1377027,0.47958934,0.3993796,0.15267289,-0.48825097,-0.3775357,-0.23588884,-0.12061751,0.17811263,0.12871802,0.45660317,0.324355,-0.34138608,-0.2666545,-0.11524463,0.43415332,-0.21515083,-0.2166059,-0.017199112,0.37399852,0.45432067,-0.46036577,-0.044961423,0.26327503,0.17702484,0.33954275,0.43572795,-0.36010146,-0.1540209,-0.31696367,-0.39092827,-0.252411,0.16988933,0.44148433,0.0032489854,-0.2495501,0.30276322,-0.07390678,-0.42372847,-0.003763185,-0.08564329,-0.06826329,0.40951848,0.06540084,0.48004174,-0.12458444,0.07678068,0.47721946,0.013178089,-0.083562106,0.049117953,-0.3816539,-0.22252893,0.14306629,0.21354687,-0.023506226,0.21153605,0.08424187,0.3287512,0.35217035,-0.2413615,0.19730699,-0.37454545,0.000008887932,-0.36688638,-0.071995854,0.2779292,-0.10038352,0.47645676,0.033985376,0.1457411,-0.2914859,0.25184846,-0.056534633,0.34950197,0.22766185,-0.10930142,0.47941756,0.4888711,0.20477271,-0.37368357,-0.1542654,-0.06537995,-0.13065422,-0.36359227,0.228639,0.25310934,0.34916294,0.1375705,-0.34906912,0.1593293,-0.036361814,-0.34513378,-0.22544527,0.32251108,0.17405915,-0.013624555,-0.030928371,0.27617002,-0.091236115,0.32605445,0.07427122,0.21878326,0.34965432,-0.35433686,-0.15835297,-0.22756505,0.12920809,-0.4656347,-0.121013135,-0.24428308,-0.47573328,-0.47661102,-0.4842316,-0.42690432,0.2611959,-0.19256234,-0.44894636,0.14708447,-0.16566527,0.23224437,0.14744234,0.39166915,0.30358398,0.104118586,-0.29954922,-0.018324241,-0.25344992,0.12033333,0.18154895,0.21333373,0.28210664,-0.45948374,0.38430297,0.11828795,-0.40355086,0.028627109,-0.3262701,-0.4612124,-0.3145417,-0.14647353,0.13418436,0.4521041,0.4399053,-0.05467331,-0.25808167,0.23396885,0.14409113,0.4044485,-0.08858037,-0.10620844,0.39347768,0.49330747,-0.061090462,0.038968105,-0.38177848,0.17464817,0.07083443,0.030197928,0.25564396,0.11005631,0.4225105,0.073166996,0.11236039,0.46352303,0.28324878,-0.13157845,-0.40633678,0.434201,-0.16122389,0.04619303,-0.38160586,-0.25637674,-0.10072577,-0.19549191,0.22070193,-0.060302973,0.4890225,-0.268497,-0.24356222,-0.3960656,0.42085028,0.46358454,0.22449398,-0.08013484,-0.49651742,0.07485631,0.03466943,0.3918116,-0.4203415,0.23422599,-0.39478254,0.25620997,0.4201498,0.40088046,0.33069408,0.30385315,0.32644284,-0.17749,-0.26317048,-0.39787364,-0.031972986,-0.10579645,-0.18572533,0.23770404,-0.10178673,0.29728508,0.28374267,0.39868915,-0.17293859,0.02862674,-0.0015070197,0.2932154,0.20225632,0.49251628,-0.12133166,0.4548303,-0.41521418,-0.31238925,0.4202597,-0.3592342,0.39068782,0.42653596,0.453488,-0.2858852,0.023349239,0.35445547,-0.2149818,0.41167235,0.4845364,0.09412207,-0.4773966,0.22612977,0.009637676,-0.4211657,0.044247296,-0.38153398,-0.12810242,0.47512662,-0.28691447,0.38873506,0.29680884,0.18040526,-0.06393775,0.2815801,-0.058014482,-0.014772792,0.31902683,0.3242005,0.3908503,0.033263355,-0.26616657,0.36469352,-0.13620102,0.085383445,-0.28280544,0.17710876,0.40269613,-0.19207561,-0.20114481,0.3503108,-0.029788662,-0.43646848,0.331365,0.10805181,-0.42827964,-0.45950556,-0.0069098463,0.039979964,0.11269835,-0.45807803,0.08267549,-0.39247704,-0.3831867,-0.03656158,-0.24733436,-0.34220374,-0.0072652097,0.26855314,-0.23817146,0.15128815,-0.13576198,0.31359076,0.48699725,0.08796325,-0.031521767,-0.19326079,-0.163988,-0.424649,0.33471763,0.23205888,0.23801565,0.47181952,0.24178302,0.16499639,0.26028097,0.38023496,0.4013834,0.32529986,0.13645315,-0.011388679,0.46659184,-0.004734635],"bias":-0.019437741},{"weights":[-0.147524,0.37749943,0.0006697753,-0.2549289,-0.1983608,-0.4759077,0.17996538,-0.27211574,0.32409224,-0.30041996,0.2793053,-0.15479052,0.14026558,-0.44403347,0.16294602,0.13659501,-0.37900916,-0.5132699,-0.39359704,-0.2210573,-0.33103588,-0.47921553,-0.45576218,0.3120453,0.20667851,0.43324682,0.4215556,-0.12961876,-0.44504884,0.30443224,-0.32654133,0.3273357,0.1278641,-0.46079347,0.32470834,-0.26508018,0.26719674,0.44765005,0.37849298,-0.21871668,0.31513014,0.28603908,0.40021497,0.31301764,0.3649781,0.14345384,0.42928168,0.1198262,-0.27062815,0.3618092,-0.46841696,-0.3796436,0.1626606,-0.4768491,-0.0902273,0.10626795,-0.1494894,-0.06831575,-0.21713671,-0.1766822,0.37944847,-0.3547519,0.12636839,0.0071066944,0.18772174,0.19188815,-0.2663701,-0.014004229,-0.30461565,-0.23791693,-0.17434597,0.41576913,0.11097507,-0.3830849,0.11383405,0.1508932,0.31399778,0.45920953,-0.21862312,-0.4495566,-0.41084287,0.46312222,-0.45703414,-0.023330124,-0.0005042377,0.44061813,0.47018513,-0.33426014,0.45890942,-0.17697266,0.39756846,0.3850774,-0.008286674,0.11519385,0.07507874,-0.18019797,0.060995243,-0.37574136,0.31928545,0.45402777,0.14345218,-0.01063994,0.43110123,0.44036862,0.31325674,0.2242761,0.20202361,-0.16663827,-0.16179493,0.32243258,0.44220778,-0.45436946,0.20316863,-0.38503084,-0.08158473,0.4007282,-0.34300667,-0.36860704,-0.37684724,-0.319615,-0.1887135,-0.04796886,0.07614411,-0.4212066,0.48349044,0.4488762,-0.27243033,0.3271692,0.4468433,0.26561478,-0.16581921,-0.49947268,-0.2203883,0.32781315,-0.15458608,-0.001762643,-0.43809474,-0.31771377,0.04103626,-0.33026198,-0.3678675,-0.07980602,0.12023969,-0.34324983,-0.03325464,0.33495402,0.21806538,0.31574064,-0.28275585,0.0130087845,-0.11527952,-0.0990136,-0.27960268,-0.14643674,0.26925418,0.45309064,0.37637863,-0.04397239,0.23194768,-0.07541274,0.10151797,0.06714363,-0.17201187,0.4180741,-0.2919119,-0.007246795,-0.37417573,-0.26900026,-0.064205036,-0.43308398,-0.2947072,0.12225124,-0.045455724,0.1759195,-0.013468489,-0.039992314,-0.04554059,0.10852026,-0.31890216,-0.37131536,-0.039403215,-0.4425651,0.3794527,-0.059976246,-0.016371999,0.039770834,0.5124153,0.36642486,0.14680964,-0.38022554,-0.18421505,0.12751508,0.06178507,-0.15990616,0.05072544,-0.012291017,-0.093553,-0.5157719,0.41956046,0.16132633,0.23194717,-0.015433152,-0.1250157,-0.39126465,0.30107686,0.2637126,0.18040425,-0.48703367,-0.41596645,-0.26049995,0.23655924,0.28315255,0.14040689,-0.31499857,0.19307667,0.06468864,0.05523572,-0.08293899,-0.4626617,0.2377433,-0.40374234,-0.17140397,0.43605763,-0.06055214,-0.23031965,0.33809304,-0.28738376,0.47355735,0.15354706,0.16746612,-0.24185072,-0.4273363,0.5024375,0.03764767,-0.054933753,-0.42946118,0.4071182,-0.43684712,-0.26999855,-0.500983,0.4103206,0.09658791,0.43303964,-0.36091772,0.40159288,-0.40364444,0.3825988,-0.27516928,0.16496593,0.12714519,-0.09963309,0.37773284,-0.45533332,-0.14480898,-0.22781703,0.31087682,0.30940938,-0.24063921,-0.07323798,0.36347583,-0.4187108,-0.31489253,0.21788517,0.25247598,-0.1422316,-0.39560983,-0.19502153,-0.48434997,-0.18384509,-0.26969442,-0.0754367,0.4414016,-0.2864197,-0.41760916,-0.16514698,-0.041931957,0.033429388,0.37084514,-0.1977786,0.47416595,0.34915742,-0.4650162,0.3147458,-0.43584862,-0.16353278,-0.09179477,0.43209255,-0.30592448,0.34406304,-0.3306315,0.21014121,0.11628373,-0.4483335,-0.3755731,-0.034945406,0.11300256,-0.119077615,0.10331867,0.11253209,0.10481513,-0.10574323,0.25034702,-0.33612984,0.4212444,0.12722751,0.39961484,0.06471382,-0.167783,0.41119602,0.45446974,0.46129867,-0.1903926,-0.37979102,0.118140005,-0.13142589,0.026706604,-0.037184704,0.31831622,-0.028840307,-0.43122068,-0.1878359,0.060054176,-0.20007306,-0.19877055,0.4126434,0.2370491,0.079764225,-0.35058177,0.30341506,-0.22934385,0.3249602,-0.07872278,-0.40636688,-0.048937116,-0.37627915,-0.069042705,0.17295825,0.41876987,0.112077355,0.32683828,-0.15843481,-0.15891728,0.30851206,-0.08747302,0.11456518,-0.14580269,-0.023380414,-0.1707942,0.30530208,0.16777721,0.035104774,-0.43625456,0.017706499,-0.116504334,-0.099995956,-0.38747922,0.40771344,-0.36099198,0.04907099,0.31122237,0.134016,0.15155424,-0.24233657,-0.058979984,-0.48630765,0.43034402,-0.007256661,-0.4920755,0.09019278,0.41017994,-0.25077397,-0.27574956,-0.37051415,-0.29673603,-0.20857221,-0.4776384,-0.15984267,-0.47238985,0.0013953828,-0.1339548,0.053607192,0.118025675,-0.30798173,-0.44450244,0.37112874,-0.33844686,-0.027765956,0.15857515,-0.039010875,-0.23983376,0.046880458,0.24200276,-0.2624884,0.15759537,-0.08298043,-0.42639607,0.02201034,-0.09516921,-0.037280772,0.37256673,0.19388458,-0.47680452,0.319622,0.029601295,-0.10177791,0.4544053,-0.2491557,0.18463613,-0.43355343,0.36721236,-0.017308727,0.018211886,-0.26506308,-0.50365514,-0.0055310046,-0.26099995,-0.22607827,0.0951655,0.31025046,-0.3261281,0.27601168,-0.099709325,-0.12468103,0.4247891,0.3726841,-0.34255055,0.47565416,0.15162505,0.078695275,0.13174643,-0.2539542,0.080274515,0.4028419,0.37594342,-0.27509353,-0.011016401,-0.06689046,-0.23584774,-0.07614797,0.24208455,0.3211151,-0.12281443,0.30175835,0.21412855,-0.22215265,0.3801473,-0.23059575,0.24172285,0.34653673,0.075629555,-0.10079746,0.34098658,-0.50777,0.4885703,0.090957634,-0.450709,0.009590414,0.44118014,-0.23699093,-0.15509227,0.041516155,0.11865326,0.5149079,-0.0025670934,0.3708705,0.35877958,0.12911265,0.4572685,0.18270366,-0.49999174,-0.18886286,0.06274475,0.1762886,0.064953916,0.20537508,0.062978834,0.2801672,0.35185626,-0.03867312,-0.018069265,0.28281474,-0.48750505,-0.14814462,-0.26413643,0.2661125,0.08690961,0.10163641,0.2541455,0.35428202,-0.3355155,-0.19873185,-0.20583747,-0.43675745,-0.19021451,0.38703838,0.023157848,0.030325871,0.34936896,0.3854529,0.49061328,-0.20172645,0.39625946,-0.5174941,-0.4016292,0.21160218,0.28116015,0.4421475,0.23712318,-0.39864403,-0.3484858,0.31783172,-0.46533138,-0.13784504,0.46060383,0.09509249,0.46837163,0.1986333,0.04621196,-0.04331458,0.11776304,-0.32799143,-0.0054926523,-0.30729306,-0.023513023,-0.28557903,0.06425436,-0.25904974,-0.46642268,-0.16220908,-0.4920991,-0.050494175,-0.51931864,0.4181243,-0.37439767,0.1810517,-0.2379734,-0.4542579,-0.42747304,0.30141687,0.16028033,0.2988382,0.24060553,-0.3947424,-0.1120232,-0.05615264,0.07652333,0.4661452,0.26329577,-0.29937997,-0.50720036,0.058220215,0.39116,-0.32668772,0.31061447,0.27775288,0.21475355,0.25572732,0.47952467,-0.21854639,0.012391684,0.122654006,0.4541897,-0.06341017,0.44632998,0.48963895,0.33560878,0.3000036,-0.03172099,0.2169311,-0.30574378,0.053443253,0.2460559,0.47533226,0.50285614,-0.31542867,0.111512624,0.27642184,0.38898057,0.36932567,0.2065542,0.04345569,0.2661072,0.29494673,0.17315905,0.48362476,0.14930005,0.05463442,0.06958694,-0.13276693,0.058361594,0.15438224,0.4047966,-0.3737192,-0.4604769,0.3266225,0.29507554,0.4284972,0.035968788,0.016409062,-0.50862277,0.4377459,0.0077093896,-0.418798,-0.44759035,-0.27169305,0.17492445,-0.23746169,-0.13547552,0.4328628,-0.39988866,0.2081001,-0.4362694,-0.053546753,-0.054536346,0.24733715,-0.38144702,-0.08184799,0.34968373,-0.3359087,0.03530015,0.11661836,-0.06163121,0.03670379,0.022105498,0.20606117,0.172062,-0.22387692,-0.25938198,0.12497229,0.30562234,-0.41773912,-0.45215887,-0.23801242,-0.28868365,-0.332389,0.1817585,-0.3618415,0.13402201,0.10243223,0.090674095,-0.04195693,-0.17682752,-0.43763044,-0.27280194,-0.35289636,0.059685618,0.08184176,0.22395088,0.027448652,0.1270667,-0.47390494,-0.25825828,-0.10807352,0.016181251,-0.20874289,-0.07954904,-0.38036045,0.24785873,-0.50351095,0.024731217,-0.3592239,0.43881252,0.13271363,-0.34885907,0.045550175,0.13448168,0.46547496,0.35711393,0.08637298,0.27298197,-0.008518598,-0.5106367,-0.5110024,-0.45037535,-0.26952395,0.46060953,0.2725762,0.23784797,-0.30699638,0.19073316,-0.36287764,-0.11898114,-0.3370886,-0.0017979577,-0.40087903,-0.49121046,0.38460878,-0.38752958,-0.36402118,-0.26692843,0.4001056,0.39323044,-0.059162173,0.06891524,0.44481817,-0.40233108,0.09230502,0.05493244,-0.1788947,-0.015166097,-0.027109453,-0.10214382,-0.35184237,-0.27842548,-0.21347216,0.446252,0.43691424,-0.30438527,-0.5178125,0.14114963,0.40720364,-0.2859172,0.26778376,0.19425136,-0.4117803,0.029533368,0.44026095,0.17223397,-0.5137808,0.18247053,-0.00036141253,-0.29165378,-0.118833035,0.13940227,-0.40191314,-0.5070044,-0.51463264,0.037437182,-0.5043637,-0.3968133,0.27081153,0.0522655,-0.32911953,-0.45706415,0.3787055,0.34870043,0.16729854,0.0646666,-0.15703946,-0.10058829,0.15193164,-0.46524155,0.29844946,-0.30941072,-0.09192534,-0.44187862,-0.47696516,0.45559186,0.16808318,0.40155962,0.46966517,-0.43973893,0.0070830276,0.22410399,0.28099188,0.26976117,-0.39608362,0.41848168,-0.4300938,-0.47417453,-0.2045939,0.3404847,-0.33170643,0.07197323,-0.04694741,0.024953289,-0.35537508,-0.39952412,-0.0017256015,0.28076994,0.3684755,0.27270743,0.1922061,0.12588064,-0.08577919,0.024547352,0.34081948,-0.13342687,0.32752195,0.4416701,-0.37762478,0.21578693,0.064895816,0.45720062],"bias":-0.13594599},{"weights":[-0.40557852,-0.23052034,0.16538277,0.36565992,-0.46114007,-0.1776211,-0.41622213,0.41904995,-0.028359327,-0.4263467,-0.24528486,-0.15530941,-0.3768017,-0.29147747,0.27999726,-0.025302019,0.1698629,0.122972965,-0.4293125,0.021515984,-0.4780269,0.4633846,0.14582112,-0.46266952,0.2695807,0.41227397,-0.44302407,0.40402898,0.09196261,-0.0708679,0.474256,0.18841687,0.48952025,-0.4368052,-0.2217302,0.08258914,-0.078019895,0.089871,-0.50718313,0.21437109,0.24563539,0.12108006,-0.12475052,0.29514563,0.44457412,-0.15154096,0.264893,0.33351016,0.36082706,-0.37753573,-0.24358325,0.34729636,-0.23286507,-0.33714083,-0.045398254,0.11813662,-0.100373946,-0.106381975,0.13758832,-0.4334078,-0.07289707,-0.27533102,0.15117374,-0.36483622,-0.20883586,0.14232805,-0.43465248,0.14169125,-0.19084904,0.24038035,0.11296871,-0.05303117,-0.19332351,-0.5089514,0.42182532,-0.51186544,0.25391114,-0.19862853,-0.18511754,-0.2806965,0.23768058,-0.12498886,0.31598374,-0.021324545,-0.15498158,0.23021442,-0.47241232,-0.04203398,0.37919366,-0.470214,0.41827446,0.31897148,0.15166642,-0.041462123,-0.32860154,0.18135463,0.20840941,0.19111651,0.20180704,-0.039263196,-0.42397586,0.24340649,0.4500167,0.09271875,-0.09859333,-0.49606702,0.21476592,0.018861819,0.18944637,0.4878978,0.195259,0.03638484,-0.30074432,-0.42921713,-0.43634006,0.14671963,0.35263464,0.14961204,-0.06639485,-0.14293791,-0.1877993,-0.42646447,-0.108729884,0.19513513,-0.50717145,-0.06167668,-0.091721244,-0.28984234,-0.26541638,-0.107997864,-0.15949823,-0.32652602,0.020402053,-0.28832975,-0.16136521,0.047295876,0.10491035,0.28960356,0.3922469,0.024232082,0.23075327,0.174611,0.4679927,0.22527562,-0.19834326,-0.2284508,0.4086557,0.4436748,0.23325278,-0.045221645,-0.23345047,0.24083976,-0.25865275,-0.05861434,-0.5279229,-0.43517548,-0.3692203,-0.5266251,-0.35882106,0.20797303,-0.17525941,-0.018609447,-0.24218473,0.005642582,0.24185355,-0.20897855,0.15366022,-0.31034485,-0.24691497,-0.16167763,-0.39153978,0.00912981,-0.1871012,-0.477873,0.20101063,-0.065687776,-0.12258144,0.27477178,0.19636938,-0.017038453,-0.100646935,0.08945168,0.120558724,0.13818821,-0.33729914,0.28168142,0.0314356,-0.16224675,0.3428099,0.066547245,0.24091847,0.1785161,-0.00513407,-0.27920285,0.12776619,-0.42108062,-0.13872457,-0.36527973,0.14447881,0.054783754,0.30957618,-0.21530579,-0.39779037,0.28679067,-0.48648924,0.089601435,-0.39134333,-0.022418074,-0.18813261,-0.35173544,0.21848859,0.37802023,-0.050660904,-0.30295613,0.0127309915,-0.17879945,0.5444084,0.0380685,0.472785,-0.3088278,0.4646284,-0.45446008,0.023136765,-0.45571733,0.031416535,0.360097,0.07062863,0.011072409,-0.27044111,-0.06052556,0.31319454,0.04792981,-0.4176623,0.31017604,0.5606906,0.50773346,0.10925013,-0.20921151,-0.31558457,-0.0449405,-0.20603855,-0.08466641,0.25866738,0.082560316,0.09066199,0.23627375,-0.10987528,-0.20175469,0.21325444,-0.48392794,0.31022513,-0.13471286,-0.41932285,-0.49488857,-0.3268228,0.3302337,-0.45472482,-0.14729783,0.30180812,-0.20791563,-0.40175945,0.4130974,-0.31902415,0.07546055,0.058456887,-0.022980353,0.0194569,-0.51156175,0.42592025,0.325613,-0.19764614,0.19258454,0.033990636,-0.22067441,0.26092154,0.14230098,-0.2157447,-0.49000308,-0.41963768,-0.10623557,0.0016057168,0.19364578,0.2809802,-0.2858944,0.15029483,-0.30109793,0.363671,0.19955915,0.48303458,-0.3544324,-0.094844714,0.3747196,-0.20975469,0.5881923,-0.18709101,0.0015447509,-0.14186998,0.042606425,-0.23280983,0.31395435,0.278013,-0.40636295,-0.32059827,-0.2727831,0.34978607,-0.34193352,0.09713682,0.27443558,-0.39283976,-0.50511676,0.2238072,-0.44467473,0.095628,0.23197919,-0.06508993,0.5233627,0.069894426,-0.048961986,-0.15496215,0.5368735,0.43747488,0.32436627,-0.6243106,0.17073594,0.20664373,0.18097344,0.51655936,0.06785738,0.05116876,0.38256067,0.14963764,-0.13227941,0.18859603,0.42234364,0.28868878,0.20088643,-0.029501114,-0.434295,0.12643379,0.31575802,0.29460648,0.47266537,0.30924103,0.47515488,0.64111227,0.62676203,0.81774056,0.3933387,0.22142911,0.38147798,0.14056477,0.18606703,-0.12733077,-0.24991763,0.0655989,0.15912251,0.1686145,0.11420946,-0.36261198,0.39868385,-0.29528064,0.15707184,-0.16051087,0.25745395,-0.17093599,-0.15817729,-0.46329847,-0.122341454,0.38333374,0.0037123028,0.5906766,0.29576078,0.61152273,0.1877296,-0.07499996,0.71383405,0.03070248,-0.3409423,0.2520559,-0.16983429,-0.2226344,0.3978054,0.23661692,0.47016007,-0.011359378,0.3359035,-0.43817183,-0.46818224,0.1584872,0.32110623,-0.40596792,-0.0027024741,-0.1175529,-0.2452007,-0.1994169,-0.17573352,-0.23681527,0.12567124,0.54667234,0.19281754,0.3226609,0.58900875,0.55184686,0.2628288,0.37178427,0.026357966,-0.7671408,-0.012358684,-0.23581132,0.2893933,0.38785115,0.19351085,-0.07741693,0.39730567,0.4652777,-0.11530623,0.19287293,-0.47170478,-0.15311688,0.3418567,0.21563295,-0.1779004,-0.5002863,0.15169114,-0.12800014,-0.02496675,-0.051140875,0.5285082,0.3486094,0.55992436,0.54491836,-0.35934913,-0.042702366,-0.61609626,-0.21354222,-0.5151088,0.42838728,0.66306597,0.3922026,0.64131665,-0.26631048,-0.16009271,0.40863547,-0.42744344,0.412852,-0.10030917,0.42983243,0.42796728,0.16349307,-0.20919904,0.205035,-0.47492054,-0.04346015,-0.3021992,0.47689655,0.13288546,-0.14584984,0.12780933,-0.18243709,-0.39364904,-0.397449,-0.23448023,-0.74250835,0.09155941,0.33030772,-0.1464053,0.40122882,-0.13167694,-0.16959418,-0.016795315,0.0988783,-0.44369838,-0.02789324,0.13044602,-0.00013271306,0.25334054,-0.4428946,0.07384565,-0.2631403,-0.3942074,-0.11655586,-0.06702239,-0.341393,0.45396304,-0.46557274,-0.5118799,-0.55673075,-0.48494175,-0.7746897,-0.40686938,-0.07992025,0.3690883,0.35179392,-0.058817778,0.0147916,0.0061031436,-0.036584344,-0.06743432,0.37495887,0.39599237,0.14547846,0.4110072,-0.28992188,-0.2680994,0.39944535,0.18695557,-0.37224203,-0.13898818,-0.3547713,0.07949038,-0.33497325,-0.006449868,-0.4840711,-0.51734257,-0.7791254,-0.54279673,-0.4202024,-0.74848855,-0.18442658,0.23460022,-0.22398303,0.21331525,-0.039393526,-0.44936442,0.027189663,-0.52755564,-0.4327281,0.19914378,0.2710415,0.45547977,0.43792793,0.32605436,0.28479335,-0.07142567,0.19890825,0.3041791,0.47595912,-0.14100568,0.31669122,-0.44044074,-0.36627737,0.16943337,-0.04166066,-0.858194,-0.76694626,-0.10526003,-0.42814273,0.024817076,0.048707843,0.2903835,-0.29543683,-0.15915942,0.023796447,-0.21917102,-0.5726758,0.3002785,0.39954722,0.38906726,-0.11517259,0.42511475,0.4505765,0.25143895,0.05050973,-0.34712705,0.009173365,0.23268948,0.34640524,-0.4614461,-0.2842036,-0.25850952,-0.0342299,-0.55045503,-0.4895626,-0.54843616,-0.25804487,-0.37445912,0.3071978,0.32024997,0.2911985,-0.3971726,-0.33155847,0.1909478,-0.12010561,-0.323397,-0.3386805,0.09123035,0.35936826,-0.38821837,0.1360111,0.20231037,-0.039486527,0.075544424,-0.091114655,0.0063867997,-0.083068945,-0.45279494,-0.23175135,-0.37683085,0.039419048,-0.10669871,0.047227602,-0.31488028,-0.33089718,-0.035772722,-0.29481477,0.3809418,-0.24304163,-0.42824408,-0.18110617,0.36755672,0.2071553,0.07250712,0.22466077,0.30168313,-0.10309865,-0.22826172,-0.49570724,-0.18945879,-0.11311762,-0.052058384,0.19930586,-0.14016318,0.22212845,0.06311926,0.19930927,0.15416107,-0.33514628,-0.24829637,0.1583521,0.5499709,0.4267538,-0.39399785,0.13695216,0.0130956,0.25113615,0.27947906,-0.068120435,-0.3850441,-0.21555392,-0.45592117,0.10029221,0.049534474,-0.42212328,0.24153608,-0.15552244,0.42110464,-0.04283827,0.32359576,-0.18290159,-0.46104205,0.084496506,-0.24164656,0.46636584,0.23053776,0.4145428,0.06322844,-0.24832062,-0.30496603,-0.27543062,-0.19630203,0.36324725,0.35026193,-0.12419011,0.49938267,0.06376476,0.016962595,-0.02730365,0.3115231,-0.28866085,-0.14829697,0.25578272,0.22551528,0.414363,-0.16602847,0.28372824,-0.50266117,-0.32984546,0.46098897,0.24668841,0.3161067,0.40627736,-0.23439986,0.45917052,0.30250645,-0.22000651,0.2913948,0.12850657,0.1981999,-0.3489339,0.22118728,0.13364737,0.038192477,0.26461777,0.17303593,0.41408715,0.2848924,-0.2707674,0.16725656,-0.087784596,-0.30029836,0.4258599,0.08882848,0.041625965,0.3031068,0.4375624,0.38084203,-0.1738719,0.27771905,-0.4220685,-0.16127057,0.5432254,0.45232537,0.036168884,0.47043875,0.36115897,-0.08184254,-0.18435703,-0.12662706,-0.14759986,0.2583039,0.05532339,0.45603752,-0.18999965,0.24458365,0.17189556,-0.44083145,-0.2730073,-0.44755295,0.07687477,-0.35872808,0.06906428,0.31263277,-0.159414,0.03797231,0.052932642,-0.35330787,0.17343177,0.32522425,-0.4297296,0.2579974,-0.3797331,0.16204092,0.1525994,0.046404842,-0.47111437,-0.044200018,-0.26647502,0.07431819,-0.15574582,-0.2304805,0.3955101,-0.41906664,0.019129097,0.111031465,0.4819288,-0.2382184,-0.3057752,0.19473866,0.45281073,0.0006108635,0.09911171,-0.15801072,-0.16899925,-0.06844405,0.12198278,0.4052263,-0.34053224,-0.18514024,0.06619017,0.29333016,-0.008825682,0.19006193,-0.47889602,-0.19351695,-0.36557958,-0.4249521,0.17965752,-0.34235483,0.3764263,0.114073046,0.28787205,-0.47025838,0.054441664,-0.28841284],"bias":0.22621493},{"weights":[-0.10235423,-0.39613664,-0.35693705,0.47167945,-0.20683873,0.100088924,0.06272859,0.3270594,0.20708978,-0.40753365,0.1105185,0.24018197,-0.073898464,0.077650234,0.025001109,0.15775317,-0.1981529,0.21666408,-0.1773932,0.33551788,0.062812276,0.23467684,-0.05200843,0.341115,-0.4612283,0.471107,0.08126223,0.024193393,0.24303524,-0.29036367,0.05678152,0.23728812,-0.1941747,0.34160614,-0.42642748,-0.4548141,-0.39704436,-0.006506283,0.0793198,0.007579526,0.40702936,-0.19256128,0.31235802,0.17336859,-0.4325762,0.33347464,-0.38551065,0.0048652394,0.3089567,0.11090645,-0.3282265,-0.34355438,0.22027981,-0.42161524,0.25862944,-0.3453014,0.1097316,0.106345564,-0.20599377,0.43429273,0.14979026,0.28983468,0.14860699,0.04482584,-0.067882925,0.35706347,-0.27065963,0.14640753,-0.12077197,-0.4130505,-0.21611913,0.012780828,-0.20120418,0.50621265,0.0046052095,-0.16488412,0.41624117,-0.2520517,0.15326884,-0.09426496,0.12377996,-0.4130959,0.45258534,0.23958175,0.21487737,0.40030372,0.040458743,0.3639964,0.021092689,0.4488459,-0.19120803,-0.3417247,0.47036806,0.48545027,-0.47260565,0.2527285,-0.16052656,-0.485786,-0.45580053,-0.22235392,0.033515573,-0.17612042,-0.07054556,0.39183494,-0.40383637,0.4886088,-0.13483803,0.37890992,-0.09385684,0.4496184,0.46226728,0.16097814,-0.15433097,0.49479938,0.42103183,-0.21799529,0.27756783,-0.41474876,0.14798081,0.0806809,-0.083674125,0.2514183,-0.0108736,0.28471568,-0.20751934,-0.06442107,0.23967277,-0.08562771,-0.14467715,0.28893334,0.5021028,0.5252474,-0.29300192,0.16731139,-0.27772188,0.44059485,-0.16874899,-0.2804285,0.15315795,0.11544006,-0.3598492,0.44144297,-0.25089312,0.16857654,-0.29685467,-0.21929522,-0.045934793,0.3889979,-0.35059044,0.2944507,-0.16994064,-0.07163269,0.033490345,-0.39472133,-0.51644313,-0.6416339,-0.6386531,-0.47770822,-0.5219029,-0.007962644,0.25446603,-0.05498191,0.30192012,0.12385962,-0.15072021,0.34521133,0.1472674,0.4586941,-0.27584553,0.5202051,-0.115700126,-0.03608754,-0.009574283,0.004094174,0.40640205,0.022415062,-0.54453176,-0.3599027,-0.28093004,-0.3898431,-0.20388855,-0.7452162,-0.17457113,-0.5564298,-0.75715435,-0.2473175,-0.51532245,-0.23041557,-0.6383563,-0.052225903,-0.2123719,0.40350622,-0.11310774,-0.40594238,-0.13772582,0.3494991,-0.43196535,0.14364526,-0.27546886,0.14472553,0.054290466,0.34107736,-0.12211817,0.3112492,-0.38459697,-0.55118304,-0.32683605,-0.44287243,-0.049297806,-0.3369369,-0.2002228,-0.20806499,-0.5064629,-0.21467721,0.2540123,-0.4823308,-0.41281867,-0.27433527,0.011369441,0.14188963,-0.0491667,-0.20767781,-0.1885887,-0.022970742,-0.031043971,0.117895424,-0.42512506,0.43373975,-0.22187188,0.24198149,0.29898444,0.39596996,-0.45549434,0.24219221,-0.0017481417,0.0038478884,-0.21528402,0.2399449,-0.0071512326,0.030295141,0.39237407,0.36636966,-0.4747489,0.08509291,-0.402212,-0.5151526,-0.2023648,-0.33660284,-0.039856907,0.017529916,0.016616398,0.0063443147,0.15243617,-0.04766988,0.08194263,-0.28545684,-0.17491522,0.48270503,-0.11898072,0.24446651,0.22222692,0.16022964,0.3088418,-0.26742482,-0.15866427,0.38482648,0.6655944,0.5379722,0.55841786,0.07252914,-0.4597729,0.26179212,-0.5975897,-0.3957822,0.23594534,-0.544423,-0.24193707,-0.49183622,0.42415607,-0.4141275,0.4616226,-0.29949364,0.27191225,0.4512585,-0.08801758,-0.009027919,-0.38346353,-0.1122947,-0.082332976,-0.54225,-0.2829481,-0.13141116,0.11376918,-0.13273689,0.2531136,0.12347267,0.35241172,0.3155605,-0.15304768,-0.59112567,-0.105195485,-0.66047555,-0.05795704,-0.5546186,-0.1665156,0.22213262,-0.1976634,-0.10707833,-0.16189748,-0.055086624,0.19814186,0.3796515,-0.11974092,0.08971575,-0.06313728,-0.10357797,-0.065391205,0.012483035,-0.43192136,-0.04378798,0.007047506,0.33721852,0.5112979,0.60568017,-0.3156436,-0.4275455,0.26611105,-0.29744047,-0.37306455,-0.22792272,0.03810847,0.2772705,-0.25163844,0.17122322,-0.21417415,0.0011835746,0.2655741,0.43738803,0.2860965,0.39742753,-0.05648028,-0.3460155,-0.15511622,0.44230753,0.36647832,-0.14451686,0.10637312,-0.5867219,-0.8077221,-0.5580516,0.61094946,0.034753826,0.32511604,-0.053124294,0.08104605,-0.12423114,0.2667451,0.33361343,0.13256991,-0.22934537,-0.45463446,0.49419934,-0.2102713,0.07508421,-0.28814137,-0.15999177,0.28866583,0.35374385,0.057117637,-0.26574168,-0.1978678,0.3877621,-0.50694346,-0.5237377,-0.6217923,-0.15453002,-0.81997365,-0.22137125,0.35582238,-0.21394649,0.3257323,-0.6057068,0.074737385,-0.26257244,-0.17840761,-0.009014061,0.17063539,0.4476883,0.4069993,0.038992595,0.44183943,-0.2721337,0.08004548,-0.0687234,0.22280073,-0.2898085,0.15943766,0.47757974,-0.032380056,-0.03637919,-0.5253605,-0.056053054,-0.20167509,-0.71007156,-0.80722517,-0.41678202,-0.056579106,-0.24660724,-0.04169869,-0.16711329,0.40671498,0.40308964,-0.14082266,0.032744322,0.3423869,-0.075218506,0.41012508,0.5139368,0.029281136,-0.2899751,0.2910518,0.3774371,0.21744312,0.021601664,0.362355,0.20255849,0.08139922,-0.2522988,0.09750919,-0.3060481,-0.548957,-0.20519516,-0.0605371,-0.44892398,0.24515647,0.25940892,0.25009772,-0.24853487,0.22338714,-0.26656398,0.2185376,-0.21052039,0.15388574,-0.35416567,-0.17640218,0.5027955,0.36632672,-0.11388044,0.48253834,-0.2575779,0.38976467,0.1410069,-0.19658317,-0.24270561,0.08092667,0.30330497,-0.5570019,-0.2996812,-0.4734141,-0.5208734,-0.28672257,0.3451483,0.17897415,-0.26708692,0.07795767,-0.240525,0.12115634,-0.5486157,0.21506843,-0.29864016,0.2590101,-0.2688052,0.36361244,-0.118261866,-0.47144955,-0.17092913,0.10774186,0.082478836,-0.2719829,-0.37175113,0.054705158,-0.32998312,-0.23920202,-0.009518847,-0.037347134,0.19953218,0.10162898,0.121205665,-0.1433743,0.22113729,0.0108307395,0.36387843,-0.006765553,0.11260627,-0.3536268,0.30720332,0.012630156,-0.15594937,0.35540628,0.41296786,0.17047898,-0.19223496,0.35106072,-0.09445524,0.108383045,-0.0035683475,-0.3060437,0.13616951,0.29217768,-0.393616,-0.59709305,-0.46763447,-0.1363859,-0.046685733,-0.721766,-0.53183174,0.4164609,0.14849454,0.1038406,-0.033130772,0.08003969,-0.06321771,-0.049469095,-0.6365219,-0.2741174,-0.23807678,-0.27227664,0.20716415,-0.48377848,-0.27418417,0.33397254,0.28745615,0.018343953,-0.37402296,-0.23498212,-0.11085446,0.24934824,0.13475588,-0.37816486,-0.46291855,-0.56920993,-0.353503,-0.06454374,-0.33589968,0.2316138,0.5486929,0.12922318,0.13475129,0.028174773,-0.17093123,-0.7332364,-0.41566125,-0.08951025,0.14398605,-0.42865464,-0.30483958,-0.17374343,-0.111948095,-0.34183758,-0.1329338,0.39134216,-0.06725836,-0.110496834,0.31623986,0.4460872,-0.33525997,0.05736863,0.1940134,-0.50251746,-0.2461002,-0.2690701,0.1277861,0.13313395,0.21253502,0.07082462,0.27940714,-0.69339585,-0.031876326,-0.07903855,0.021228679,0.3317236,0.42983127,-0.012363324,-0.3573507,-0.005017566,0.51681864,0.23117784,-0.3564514,0.2904896,-0.34300324,0.25002816,-0.1803556,-0.47602654,-0.035653856,-0.63872105,-0.341356,-0.36990514,-0.20101108,-0.31938314,0.034631554,0.4875229,0.11070134,-0.20170377,-0.07699722,-0.64529,-0.14811142,-0.65625376,-0.2229507,-0.48584118,-0.3673522,-0.16883276,-0.29180995,-0.41485408,0.08513984,-0.1560213,0.12058438,-0.19473559,-0.085085526,-0.44576302,-0.4553123,-0.42067313,0.069917366,-0.24515957,-0.18583553,-0.09875349,0.09971212,-0.38375768,0.15387666,-0.66581714,0.15307252,-0.22509702,0.16970575,-0.22366188,-0.6218364,-0.15827999,-0.33225363,-0.36145443,-0.44510671,-0.15461743,-0.35806143,0.06966281,-0.21295385,0.44140533,0.0016775767,-0.17536402,-0.21360317,0.39684772,0.29860425,-0.46984687,0.1389136,-0.3883121,-0.54247993,0.31594372,-0.034036413,-0.54593194,-0.74739546,-0.55445576,-0.32782772,-0.46072456,0.013758597,0.25104797,-0.59878194,0.06605026,0.23315883,0.42341012,0.46151838,0.4542553,-0.17982104,-0.044934653,-0.05925778,-0.42903465,0.22966802,0.35133743,0.43303895,0.2332705,-0.4204162,0.3438689,0.39579585,-0.43054244,-0.22952576,-0.13702893,-0.35453153,0.3181944,0.039235625,0.10729215,-0.46156305,-0.11639158,0.03527359,0.23354025,-0.28542137,-0.36597425,-0.15401615,-0.2460285,0.43556178,-0.09277027,0.25111544,0.4879459,0.33212262,0.15578502,-0.24755841,0.017264659,-0.41777444,0.17648935,0.4101256,0.29758874,0.056509376,-0.43245387,-0.14863154,0.5036626,-0.29869288,-0.3442782,-0.27446115,-0.25183886,0.62541306,-0.064324535,-0.014385886,0.1556509,0.12864658,0.27618355,-0.07719174,0.28013042,0.098540805,-0.44083083,-0.117326625,-0.2248002,0.3189041,0.18107381,0.36110687,-0.08106002,0.08192572,0.4315635,0.041314665,0.08993359,-0.028355448,0.3901459,-0.3534751,0.40881133,0.1158897,-0.07519262,0.3256936,0.5320467,0.35745472,-0.28996798,0.25271878,0.45403352,-0.37140113,-0.19818306,0.41785836,-0.20322604,0.28487733,0.3483117,0.37323377,0.42164934,-0.27932775,0.07664901,-0.12848586,0.51975316,0.18389928,0.26470393,0.51745015,0.26311445,0.2577331,-0.22066948,0.5108443,0.06961959,-0.076185234,-0.1738591,0.039310995,0.14663944,0.44514048,-0.36885154,-0.25243643,0.16983116,-0.20289314,-0.30257973,0.4785958,-0.18885562,0.27795684,0.4294747,0.18995899,-0.07708414,-0.03853278,0.48234499,-0.061882917],"bias":-0.310769},{"weights":[-0.48679015,-0.49338016,-0.14830051,-0.04114013,-0.1601908,0.38987234,0.46306613,-0.29545376,0.20419182,0.07627545,0.20115174,0.03571578,0.17982112,-0.49064502,-0.37891528,-0.39475736,-0.3971077,0.18915035,0.05693683,-0.4386427,-0.43553635,0.3056678,0.17234255,-0.064568,-0.27859768,-0.044762433,0.34941486,0.00933743,-0.046415627,0.2554522,0.16112818,0.15219559,-0.3377305,0.2995831,-0.20434627,0.4326668,0.16776621,-0.009544722,-0.098563924,0.0359582,-0.065123886,-0.50314087,-0.19036923,0.4519495,-0.33375835,-0.42621338,-0.19670078,0.48160037,-0.0017707032,-0.35190842,0.2328312,0.26715842,0.4849023,-0.22558127,-0.4260355,0.29409614,0.4531881,-0.0038336199,0.3472562,-0.48619083,-0.319293,0.48931274,0.3345985,0.26845887,-0.44776034,0.0062873783,0.2063586,-0.2762238,0.3122419,-0.06042156,-0.33860347,-0.30289832,-0.3419389,0.078723095,-0.47383967,0.20433556,-0.27034882,-0.3687144,-0.2538415,-0.45926258,-0.17087716,0.103617385,-0.1226186,0.22220112,-0.4538909,0.38086596,-0.17757298,0.16613252,-0.15940267,0.44197574,-0.28038916,-0.4313003,0.23176032,-0.21979968,-0.26804465,-0.019191187,0.5631196,0.20181958,0.55695736,-0.2179877,0.4542326,-0.10119305,0.35219026,0.06489762,-0.09797114,0.388768,-0.27151474,0.36179557,0.071635775,-0.3765277,0.33401635,0.28603306,-0.44466087,-0.15646322,-0.0013809317,0.334973,0.29109755,-0.47165495,0.27231768,-0.38524407,0.09577198,0.2149818,-0.4296095,-0.106650315,0.046747483,0.004318379,-0.23908272,0.263574,0.31602472,-0.09179171,0.28678727,0.021077832,0.3085169,0.45695674,-0.14483163,0.24236542,-0.02387,0.35308245,0.008806271,0.4530634,-0.4887961,-0.21505307,-0.062073506,0.38416517,0.4300891,0.4724416,0.1905969,0.41684383,-0.15728375,0.18154529,-0.43647563,-0.22051924,0.23959783,-0.024883054,0.13771395,0.49457785,-0.051879954,0.5060309,0.49484158,0.39368248,-0.46007696,-0.0058328304,0.45166865,-0.079371676,0.42977417,-0.098691955,0.36980057,-0.3217226,0.38660267,-0.30983928,-0.12517546,0.44098294,-0.2138687,-0.18486747,0.44132432,0.3412522,-0.4830568,0.058366932,-0.45299,0.500483,0.0068881605,-0.41511223,0.025014168,-0.49206918,-0.29707536,0.057101224,0.32556054,0.056569077,0.00089852035,-0.3788796,0.4192527,0.10293422,-0.20753996,0.33994344,-0.26649043,-0.10444607,0.25344303,-0.12826085,0.07040366,-0.3799201,0.34026876,-0.23413873,0.2662541,0.06905277,0.25029626,0.024302373,-0.3900324,-0.062438175,-0.1924309,-0.51443917,0.05511723,0.12383627,-0.8047022,0.06448534,-0.1773473,-0.24185109,-0.022147696,0.2040855,0.25580513,-0.5335596,-0.48518926,0.072769806,0.20716481,0.098941684,-0.09363952,0.3098514,-0.14617918,0.2619303,-0.32207826,-0.010757571,0.045605876,-0.38920414,0.4792587,-0.048175357,-0.03781391,-0.07837829,0.03749328,-0.37356952,-0.26866138,-0.3318072,-0.15867864,-0.79766786,-0.6407281,0.25305232,0.36579242,-0.08074842,0.27547377,-0.28316846,-0.40817067,0.25726187,0.083787456,0.33391473,0.48369458,0.011590861,0.4223125,-0.3802074,-0.41268402,0.11078319,0.07016786,0.30618495,0.5080192,0.36199853,0.18032724,-0.1619366,-0.018011404,-0.029113933,-0.068943776,-0.03887162,-0.32807627,-0.19819024,-0.099521235,-0.5299438,0.0031891658,-0.29964757,-0.18063869,-0.3632751,0.0025140387,0.3085298,0.01837701,-0.0872901,-0.26536998,-0.44979054,-0.19392172,-0.3521979,0.2630707,0.030563883,0.012063152,-0.09089745,-0.14546928,0.26689255,0.23814273,0.21552475,0.2766954,-0.045034766,-0.27181268,-0.6264464,0.21115944,0.26214966,0.081380494,0.26947668,-0.27733156,-0.39721307,-0.17746338,-0.22243682,-0.17753756,0.16777356,0.4356385,0.2649959,0.19894046,0.110818245,0.38255915,-0.04211747,-0.46424156,0.2101348,-0.2528417,0.25887445,-0.13451697,0.1905917,-0.43565834,-0.023630384,0.050184328,-0.46738696,0.26551762,0.21609208,-0.30028924,-0.27673545,0.43335882,-0.014515338,0.47986588,0.18540974,0.099069364,-0.36550727,-0.07116526,-0.16328204,0.32036546,0.18348947,-0.307403,0.055955928,0.021217007,0.11270414,-0.1546529,-0.028315373,-0.26644176,-0.14621164,-0.032449324,-0.5474828,-0.44624895,-0.45515588,-0.14860046,-0.47781438,0.0022835648,-0.26010752,-0.038364314,0.21499443,0.33731115,-0.14279275,0.37763867,0.33120832,0.08964684,-0.458682,-0.0073183393,-0.40195403,0.06211642,0.3230467,0.26890168,-0.3916547,-0.3246146,-0.059142284,0.31670997,-0.35514414,0.1807023,-0.15303402,-0.5143952,-0.7432377,0.20233262,0.10653833,-0.5985676,0.16527472,-0.6220389,0.32800555,-0.41622505,-0.4271636,0.33952937,0.2183299,0.47518742,-0.10625299,-0.3610897,0.13848941,-0.3556813,0.25882286,0.3700945,-0.26997343,-0.2540894,0.4187446,0.01936983,-0.44218004,0.45457745,0.33521095,-0.19604683,0.33266106,0.06054377,0.18109776,-0.14252259,-0.4913373,-0.17869382,-0.10797607,-0.4058468,0.5125894,0.13122393,0.10266787,-0.44691,0.18844725,0.28239354,-0.40661624,0.17797783,-0.1737214,-0.26058096,-0.45163855,0.34910068,0.2836106,-0.42901644,0.17888714,-0.18658814,0.25155962,0.3139513,-0.25437713,0.14359741,0.098717816,-0.25297707,-0.40087834,0.3630971,0.2532497,-0.40440097,-0.06301123,0.35024983,-0.13016059,-0.29916254,0.20288351,-0.18677205,-0.14969206,0.30789778,-0.32204282,-0.090976186,0.53508687,0.38594407,-0.094549716,0.35658142,-0.4540622,-0.32076046,-0.09171568,-0.33878884,-0.08336377,0.26887837,0.2078247,0.4143683,0.10848441,-0.23811926,0.28350803,-0.07592746,0.06840485,0.65739805,0.52624345,0.47048554,0.70767415,0.011376081,-0.45344484,-0.18943025,-0.017372008,0.32655105,0.020332038,0.20627984,0.4940002,-0.02951549,0.2581442,-0.103671245,-0.27642974,-0.326763,-0.061713435,-0.100197315,-0.44814003,-0.08416394,0.15025967,-0.41036773,0.169489,-0.19478242,0.27073643,0.43913057,0.84093875,0.63594097,0.0027329405,0.065033935,0.48425695,0.26452258,0.060460206,0.13658051,0.053681213,-0.26372495,0.08477579,-0.0020567947,0.114633195,-0.23001422,-0.4302918,-0.22587809,-0.4135088,-0.2308167,-0.32489136,0.16171174,0.002102824,-0.30336168,-0.19990258,-0.26234284,-0.041433576,0.30035132,0.81492287,0.5662123,0.7139228,0.14848317,0.014302821,0.28711486,0.4019284,-0.09113902,-0.34697187,0.23945774,-0.25803456,0.18314302,0.47545433,0.39701995,0.24774224,0.097588815,0.31229258,0.23985995,0.48199978,-0.103933826,-0.13074042,-0.42723322,-0.40837187,0.13066697,-0.49908242,0.22019736,-0.25663596,0.027965143,0.73384345,0.3051571,0.91612095,0.5794087,0.7248969,0.12067338,0.23489842,0.31154612,-0.2549428,0.2649078,-0.268169,0.18342641,0.26542026,0.15398929,-0.122940846,0.2950896,-0.09599686,0.18962961,0.4245812,0.29421774,0.10181507,0.00034598654,-0.37421975,-0.45594925,0.14868893,-0.32859978,-0.38363788,-0.24112298,-0.20573899,0.7276528,-0.23885405,0.61715275,0.18694574,0.25324017,0.3911759,0.30267435,-0.40290397,-0.0717531,0.21903995,-0.3240719,0.23047808,0.23013987,-0.06002112,-0.36296085,0.46651837,-0.4206045,0.3769044,-0.0861775,-0.19589424,0.19277683,-0.0005146893,0.095903195,0.41201544,-0.31630525,-0.5529573,0.24165313,-0.08036947,0.42559648,-0.48109034,-0.086455286,0.34091777,-0.28074685,-0.19097877,-0.23395678,-0.47189707,0.2695606,-0.46359798,-0.23037519,0.15938222,0.2184654,-0.023872934,-0.37604824,-0.2253123,-0.3688945,0.0056644487,-0.24877839,-0.47092804,0.39547354,0.13551399,-0.33156514,-0.56766903,-0.3699805,-0.5364569,0.22937451,-0.41040534,0.23010576,0.09990389,-0.16712737,0.036216177,-0.15192977,-0.12507534,-0.149135,-0.47944242,-0.5005288,-0.43661523,0.066171885,0.34371525,-0.24258244,0.20741609,0.2153616,0.07764157,-0.3659841,-0.46183196,0.18562485,0.124999516,0.14996289,-0.49019116,0.40183333,-0.08458493,-0.35582384,-0.15824641,0.24217403,0.039633024,-0.11580034,0.004508085,0.07092131,-0.48523507,-0.5306604,-0.44441965,0.42311832,0.36318097,0.2529965,-0.2810498,0.07959931,-0.4352893,-0.35253632,0.48016736,0.21740672,0.46477312,-0.2794443,0.23710324,-0.0901164,-0.320847,0.23976488,0.36820304,0.45239332,0.050530855,-0.054350358,-0.44849557,-0.14699404,0.026196871,0.1682005,-0.45204863,0.08263106,0.3424392,0.08478694,-0.3212132,-0.096393175,0.24246588,0.09668888,0.35881874,0.011825751,-0.43654832,0.4117532,-0.07614264,-0.27762985,-0.13787867,-0.19237764,0.3365591,-0.002664262,-0.4210901,0.2585536,-0.052362263,-0.27677998,0.14788143,0.247256,-0.2457744,0.2753399,-0.38030943,-0.19730696,-0.10208141,0.33904263,0.20227844,0.13513784,0.29244953,-0.49779326,0.20499162,0.27849892,-0.25157514,0.39576402,0.38368607,0.16757517,-0.5029934,-0.005153039,-0.16366746,-0.22394942,-0.39775476,0.3216063,-0.22429453,-0.05443544,-0.18800591,-0.09290471,0.06474156,-0.050045226,0.28181708,-0.0665726,0.1374941,-0.34644455,-0.17369244,-0.36940044,0.48418435,0.39716133,-0.05341062,-0.2978753,0.3434381,0.27885085,-0.5096428,0.28679788,0.13886756,0.27769116,-0.26633438,0.21574008,0.3977295,0.34861222,0.3288273,0.33353367,0.29648975,-0.21438287,-0.12046035,0.16445829,0.29054543,-0.3367329,-0.29089037,-0.44177577,-0.34743974,-0.26911417,0.0020125858,0.21979113,0.036418483,0.49428526,-0.30184865,0.3941938,-0.42106384,-0.33614478,-0.30438069,0.45464185,0.26400223,-0.315716,0.3643568,0.10696505,-0.16257535,0.06081285,-0.13470392],"bias":0.44873628},{"weights":[-0.05829546,-0.3437749,-0.047417015,0.07187792,0.12832777,-0.48661518,-0.32215536,-0.044418544,-0.121986665,0.12580036,-0.0012942654,-0.48235404,-0.16734447,-0.09585812,0.20553143,-0.033865303,-0.26994014,0.19021289,-0.4875809,0.44469035,-0.04122457,0.065875016,0.4261657,0.42648017,-0.37122023,-0.3595487,0.3523265,-0.2085497,-0.059541315,0.075964294,-0.026716169,-0.32077754,-0.25143704,0.28048146,-0.24145181,0.31643555,0.06813397,0.29158077,-0.12783475,0.32591853,0.12006657,0.4849047,0.22705892,0.17646661,0.22617854,-0.44823503,-0.5021284,0.44491935,0.09768561,-0.30745873,0.16432002,0.45115975,-0.2909088,0.26698816,0.30974674,-0.35202897,-0.38923347,-0.19106086,-0.2418003,0.49126208,-0.1165553,-0.4593646,-0.05597571,0.31636396,0.03815763,-0.068517014,-0.14224772,0.36647072,0.14984563,0.20962715,0.19170949,0.26978153,-0.30096397,-0.023222562,-0.41236004,-0.34932524,-0.48094392,-0.16143157,0.0932953,-0.03956559,-0.3406003,-0.35328242,0.32913172,-0.30380785,0.26589704,-0.3305962,0.2711637,0.40380675,-0.4568787,0.48373687,-0.3417271,-0.2954414,-0.047579847,0.1124014,0.22982538,-0.18369853,0.07556111,-0.23996864,-0.20094031,-0.11841104,-0.46520174,0.3241299,-0.28445703,-0.48051316,0.2484432,0.32787856,-0.015173813,-0.4214085,-0.4273953,-0.017176794,0.22482781,0.45263743,