[[{"weights":[-0.24068518,-0.39571482,-0.011038654,0.47067612,0.27737552,-0.250587,-0.25661078,0.035268802,-0.3277331,-0.33567315,0.3189401,0.38201815,0.44725752,0.14612411,0.48366272,-0.20287587,0.12757836,-0.45943135,0.46433097,0.41296512,0.29701048,0.23099713,-0.4562387,-0.14949663,-0.28217846,0.42960066,0.3584984,0.27736133,-0.48623782,-0.13287596,0.39669973,-0.19477744,-0.20344694,0.36083084,-0.50060225,0.16018152,0.45549902,-0.20439176,0.11846897,0.28826976,0.4807558,0.4153213,-0.19920717,-0.36434767,-0.2526564,0.45921078,-0.21777754,0.13118838,0.14366819,0.36990792,-0.46282938,0.286779,-0.43002683,0.17266433,-0.30314022,0.39296275,0.2864775,0.2872606,0.3088451,-0.049180064,0.3888785,-0.33020097,0.45972437,0.44113293,-0.3428107,0.4402459,0.4819375,0.43127048,0.13530986,-0.19210333,0.046560302,0.11899555,0.45577544,0.34696692,0.07619154,-0.19205287,0.13420904,-0.22406222,-0.44552776,0.33109635,0.43685222,0.12940882,-0.35981232,-0.11170832,-0.25876248,0.04141667,-0.25932848,-0.15771602,0.079564326,0.23442416,-0.34798872,-0.20530818,-0.003018117,-0.2583634,0.26786095,0.41339335,-0.5133102,-0.19898093,-0.419241,0.05214114,0.020385256,0.053931773,0.045451466,0.49125868,0.20251516,0.20281816,-0.078248315,0.44159037,0.44969994,0.20091395,0.20603336,-0.09915892,0.4126498,0.32162535,-0.12519792,0.15095742,0.030932432,-0.16159081,0.41095856,-0.1447837,-0.571228,-0.5730819,0.18629724,-0.2900431,-0.3036386,-0.2071187,-0.75264233,-0.08847899,-0.22175021,0.30899805,0.11154843,-0.012240953,0.3724844,-0.07596108,-0.11437943,-0.060580675,-0.4570411,0.12532306,-0.42953843,-0.13767324,0.103713356,-0.25170925,-0.48774493,0.30594066,0.46247014,-0.097718105,0.09483317,-0.1357337,-0.0067701573,0.007768689,-0.64562744,-0.4784569,-0.35774475,-0.48995999,0.104593955,-0.024237927,-0.443822,-0.14096603,0.29578716,-0.31389946,-0.033272017,-0.40333587,-0.101626694,0.24633576,-0.06925422,-0.2544795,0.3382424,-0.10327501,-0.23695953,-0.0021321415,0.3049242,-0.30109853,0.27353522,0.15012492,-0.47618422,-0.05185955,0.19816849,-0.2831454,-0.41422418,-0.45648488,-0.34573746,-0.2222701,-0.19844039,-0.27403858,0.22458477,-0.46873158,-0.22764808,-0.04916822,-0.42069253,-0.52435994,0.08642425,-0.35349503,0.09264897,-0.17242669,0.12619261,0.3077499,0.25780684,0.11411915,-0.012194263,-0.38865122,0.13379782,-0.48622096,-0.18138129,0.23082964,-0.48399806,0.37619218,0.5437271,-0.27027497,-0.096127614,0.050124325,0.15148346,-0.3952053,-0.09615824,0.04435789,0.20552734,-0.2939117,-0.4297616,-0.20687616,-0.02522362,-0.04244546,0.29226595,0.14590922,0.15568401,-0.012542035,0.13168807,-0.19453986,-0.1279311,0.0016363462,0.004275689,-0.22217919,-0.060148913,-0.39637804,-0.23647004,0.605755,0.12327208,0.06347084,0.48336184,-0.35461465,0.085740566,-0.26921403,-0.26345092,-0.5833316,0.20434472,-0.27065197,0.06626338,-0.27570653,-0.17283963,-0.13568981,-0.3332633,-0.54685444,-0.41669685,0.32492304,-0.4858302,0.33930272,0.2711092,-0.05916549,-0.4529108,0.28195578,-0.37130117,0.21211039,-0.031602368,0.54885995,-0.039467946,0.58848256,0.31262627,-0.3276501,-0.1638011,-0.46361765,-0.048730083,-0.32921973,-0.1805816,-0.5240589,0.32680553,-0.061660606,0.2524104,0.4509285,-0.5815065,-0.36743197,0.09557225,-0.4641053,0.34877554,0.18750054,-0.28154677,-0.40135238,-0.15590622,0.26596195,-0.090678245,0.69808507,0.8087699,0.038047273,0.2387324,0.59511006,0.47556192,0.37832975,-0.19792767,0.027560398,-0.4223707,0.23839167,-0.30313775,0.10603282,0.3958551,0.44426328,0.29699004,0.48973784,0.3480105,0.18164405,-0.3829905,0.42437518,-0.39407825,0.27043694,0.23797072,0.3581054,0.38671574,0.058740914,0.2617889,0.28117013,0.41545248,0.094964094,0.26542464,0.89880943,0.84973085,-0.08864948,-0.3578627,-0.7574151,-0.4500088,0.11249136,0.29417694,0.3787383,-0.07568316,-0.026861483,0.13922004,0.4573889,-0.13624474,-0.4102934,-0.2424172,0.21489292,0.274319,0.25038278,-0.12035134,-0.42771935,0.22208406,0.2976306,0.65453124,0.031912908,0.71972275,0.58721495,0.8039922,0.39727324,0.35200563,-0.047041807,-0.65457696,0.1687034,0.57708275,0.21779515,0.3349902,0.31260177,-0.07483532,0.47845575,0.46690384,-0.052531354,0.110619806,-0.031371884,0.09706485,0.26650319,0.11782447,0.39635226,-0.3508156,0.08017231,0.50349385,-0.0033191275,0.028002018,0.24528569,0.7213463,0.17196111,0.55807394,-0.041420065,0.6742339,0.093364276,-0.47910467,-0.10342317,0.10223294,0.5175648,0.18987879,-0.25712264,0.5759256,0.5716684,0.38314047,0.64914465,-0.3531015,-0.16523686,-0.20618707,-0.20212011,0.25655824,0.09264939,-0.24547352,-0.4394404,-0.29543558,0.2720769,0.72094977,0.436612,-0.122731574,0.45609748,-0.26642013,0.32059756,0.25363505,-0.293616,-0.38754782,-0.12362689,-0.00012413041,0.45494926,0.14344181,0.39978746,-0.2774474,0.5000101,0.5429797,0.4663851,-0.33694842,0.21432301,-0.049418543,-0.17169158,-0.3501318,0.4258507,0.106254876,0.32836258,0.47328055,0.107393585,0.4731867,0.095796674,0.36687627,0.3529351,-0.035469044,-0.30483627,0.053457092,-0.22340931,-0.043733235,0.50274295,0.7369087,0.20726061,-0.23257846,0.37442783,0.18732385,-0.007009545,0.20998648,-0.01971254,0.31371284,-0.19333108,-0.12884744,0.15944523,-0.029492583,0.13194881,0.4753445,-0.21705323,-0.10057801,0.057303198,-0.3268905,-0.0370544,0.31881556,0.59267807,0.12818192,-0.07942743,0.3909353,-0.31411445,-0.26802915,0.39879426,-0.17849152,0.22279635,-0.3246026,-0.17283215,0.19525707,0.42452067,0.15170951,-0.058731854,-0.020320842,-0.50830245,-0.30971813,-0.28399712,-0.19136532,-0.051505145,0.20782585,0.10139282,-0.21306218,-0.53381765,-0.114394635,0.06106364,0.32814237,0.26682097,0.19974235,0.74281013,0.38360256,-0.5675201,-0.08692253,0.2774625,0.20281708,-0.17464666,-0.083139345,-0.37634903,0.25526792,-0.051519472,-0.6073119,-0.2547149,0.09358595,0.22089076,0.04297252,-0.30293456,-0.103592135,-0.3936007,0.10110519,-0.26575842,-0.68145525,-0.512199,0.106237054,0.1450439,-0.2578368,0.75741804,0.4927632,0.2103089,-0.07769193,0.29815364,-0.10530216,0.08560755,0.23670992,-0.5549647,-0.08309314,-0.5191124,0.2896236,0.09637192,-0.59756213,0.15278886,0.16131558,-0.1637905,0.22902276,-0.29115456,0.46822983,-0.012360163,-0.38112265,0.02442009,-0.3104992,-0.031664398,-0.37577417,-0.6574331,-0.27704132,-0.39873824,0.33799812,0.38840863,-0.38344812,-0.28777274,-0.2569715,-0.55665785,0.11415263,0.06886853,0.33663923,0.11544827,-0.5981948,-0.46026722,0.0037954592,0.21136078,-0.18304783,-0.2267341,0.4145188,-0.111980155,0.33494955,-0.18323775,0.07057545,-0.47874254,0.022091439,-0.7359669,-0.8007082,-0.011181526,-0.41543528,0.067176625,0.03548883,0.17475748,-0.036202993,0.37309974,0.07647411,-0.045947712,0.4711117,-0.37449232,-0.16356029,-0.3751485,-0.6103483,-0.6509629,-0.6306141,-0.1618547,-0.2118875,-0.393084,0.07350507,-0.0241682,0.36018795,0.1922787,-0.36260322,-0.3594746,-0.6077392,-0.406678,-0.77813196,-0.7443369,-0.07142771,-0.6470347,-0.4197608,-0.2024154,0.3435882,-0.12068802,0.5309005,-0.17839965,0.05027306,-0.47008604,-0.24164455,0.042924836,-0.44030654,-0.18672346,-0.318477,0.2320437,0.15726444,0.33720335,-0.08766947,-0.17313136,-0.22283396,-0.21918727,0.43271866,-0.27489766,0.31951335,0.015606994,-0.019901564,0.10576559,-0.45547834,-0.6521857,0.06844246,0.31762406,0.3081956,0.35775432,-0.19811702,-0.31726906,0.34325558,-0.111725934,-0.46776676,0.054142684,-0.5338666,-0.40284124,-0.27096704,-0.391806,-0.48632154,-0.14692521,0.47699174,0.24873884,-0.41147882,-0.16193517,0.07163068,0.2575602,-0.480352,-0.18580927,0.06557206,0.016206825,-0.097056285,-0.29546508,0.22556774,-0.33795545,0.2014391,0.011958759,-0.20650019,0.20112678,0.1160099,-0.21727711,0.2105081,-0.3923231,-0.1886029,-0.3800981,-0.31874743,-0.009762105,0.036103085,-0.34278122,-0.28251287,0.17064123,0.27446777,0.21511166,0.06773219,-0.28187278,-0.04110167,-0.39488956,0.39394385,-0.030853933,0.08807716,-0.21868362,0.38187397,0.005264651,-0.19343574,0.5828605,0.26570538,-0.29701164,0.2395889,-0.20884782,0.27289575,-0.2840288,-0.05491793,0.36234012,-0.25162023,-0.3111203,0.28189895,-0.046980288,0.11264021,0.15046065,0.18570559,0.33733553,-0.30541694,-0.219848,-0.14925732,-0.13573483,0.003982663,-0.32138535,0.20691091,0.19554982,0.2476688,-0.428873,0.22691539,0.18380563,0.22156814,-0.053766377,0.47785318,0.1260112,-0.2832491,-0.43351975,0.4692815,-0.16570014,0.21833053,0.080952294,0.044142853,-0.27334136,0.12873797,0.33300585,-0.30194813,-0.23663588,-0.42268497,-0.096194305,-0.37290484,0.020993149,-0.025872286,-0.4667786,0.39615503,-0.12848976,-0.06886431,-0.031593483,-0.19164255,-0.123303734,-0.19339453,0.3196877,0.23948878,0.40440992,-0.2165621,-0.07967536,0.34909374,-0.37216592,0.39795882,-0.011429969,0.3846992,-0.04680786,-0.27543622,0.32817703,0.301243,0.004805728,0.13423984,-0.36368495,-0.46616966,0.35064322,-0.44037786,-0.22238135,-0.25993064,0.0917778,0.37327585,-0.18562172,-0.36086035,-0.42737946,0.35534248,0.41774428,-0.32578084,-0.34111556,0.13473308,-0.44723582,-0.29689288,0.082549594,-0.06707115,-0.3019143,-0.43695122,-0.3833012,0.16572301,0.37375134],"bias":-4.9673104},{"weights":[-0.16407803,0.06845348,-0.2449001,-0.24683627,-0.5172498,0.3272048,-0.46639076,-0.4305766,-0.48738864,-0.31363288,0.4454641,0.35154316,-0.10734413,-0.01288556,0.38124552,0.015051467,-0.51981163,0.119982325,0.23187411,-0.19708538,-0.11879844,-0.29786697,0.092454635,0.3266352,0.23941007,-0.04528491,0.22949973,0.34528133,0.18186665,-0.025397753,-0.21448994,0.39143118,-0.46609065,0.11119718,-0.04743529,-0.022931976,-0.035170812,0.1902425,0.42324334,0.19818795,-0.19150525,-0.1258327,0.17200461,0.06629661,0.43889165,-0.25712976,-0.21779105,0.3916688,0.13686126,0.37700436,-0.3106813,-0.044081148,-0.13551694,0.19125795,-0.25247183,0.086231,-0.0026923004,-0.13620523,-0.24586499,0.23127598,-0.16607952,0.36078846,-0.3209555,0.23419271,0.4043698,0.22535725,0.39212704,0.2625155,0.17116424,-0.22386894,0.015913699,0.1017241,0.3866669,0.23432893,-0.25885558,0.12130618,0.032764465,0.24110849,-0.33976954,-0.124631114,-0.18201485,-0.4327275,0.25608835,0.2979518,0.0109031545,-0.4003854,0.08901898,-0.16878322,0.18562686,-0.5224306,-0.441001,-0.3279775,-0.20071955,0.2491771,0.2630729,0.3436103,0.34795478,0.06207254,0.14268175,0.4718736,0.37855002,-0.21067412,0.3636954,-0.27033556,-0.27238518,-0.12971272,-0.20501423,0.15089773,0.123838924,0.35274056,-0.43763712,-0.48324195,0.09545454,-0.023889488,0.16789284,0.048865687,0.30915254,0.06424851,0.03473088,0.18699737,-0.06553758,-0.30656597,-0.1702864,-0.08899696,0.5087977,0.40769765,0.4133678,0.39525795,-0.2754213,0.124284565,0.32617858,-0.13282412,-0.5678127,-0.062846735,0.37223515,-0.23980889,0.13170457,-0.12153374,0.38647425,-0.36848298,0.050200563,0.21552077,-0.47847745,-0.39217138,-0.13316365,0.17660062,-0.109895155,0.09691381,0.062093344,0.522644,0.41860124,-0.18245117,-0.04520888,0.1991342,0.46216485,0.14509684,0.5361716,0.027040731,0.5888152,-0.069191456,-0.08070205,0.1853905,-0.24184453,0.01993401,0.37470967,0.27435398,0.08093794,-0.33793297,0.37877843,-0.4078604,0.005444025,0.1499003,-0.13886257,0.40511912,-0.12828845,-0.009523914,-0.07387872,0.22104701,-0.23234819,0.26506403,0.45662436,0.00830391,0.03044805,0.54651743,0.435953,0.0816029,0.21375543,0.389494,0.2508216,0.14798588,0.30892324,0.2741006,-0.49041864,-0.29397064,-0.2510152,-0.30494687,-0.27825895,-0.23738497,0.25367525,-0.22616085,0.08857497,0.20631623,-0.32341298,-0.33531004,-0.12334451,0.34417146,-0.22160985,0.5574312,-0.13031095,0.3567184,-0.08912792,-0.3461913,0.21226859,0.20965238,-0.11331846,-0.33486563,-0.114975914,-0.019610798,-0.4239071,-0.05596525,-0.08741468,-0.40613043,0.3872613,-0.02335783,-0.17875049,-0.4527773,-0.5199551,0.40783286,-0.14964198,0.28643772,0.10080323,0.45904022,0.41766387,0.41867217,0.4130296,-0.0944539,0.06300306,-0.01294707,0.16887093,-0.42515698,0.27598664,-0.60937953,-0.3505096,-0.33822486,0.47823063,-0.14400138,0.45294347,0.51617885,0.05671695,-0.26392937,0.33225405,-0.25272632,-0.15345556,-0.20475197,0.014906306,-0.06778313,-0.42363238,0.3088759,-0.079566315,0.12789099,0.19028115,0.6703088,0.19397396,0.30492407,0.37863523,-0.10836752,-0.2379557,-0.22281009,-0.6011363,-0.10296189,0.21684071,0.09170874,0.5639052,-0.2537994,0.277029,0.31008396,-0.16732971,0.26489288,-0.15368326,0.28365976,0.20809844,0.17317468,0.23330809,0.42547372,-0.16475272,0.43468297,0.14629334,0.16340132,0.30882892,-0.07944915,0.3411202,0.3559724,0.49650362,-0.5643597,0.008913059,-0.89282113,-0.20174739,0.024351591,0.2666013,-0.40140843,-0.07759292,0.68793476,0.67809445,-0.13385206,0.0009181932,-0.067518815,0.027042728,-0.061084885,-0.16800386,-0.5306428,-0.054039788,0.3935332,-0.13242604,0.17187296,-0.0840086,-0.34403017,0.13581242,0.03274407,0.09170889,0.07563778,0.37558898,0.057435174,-0.14779879,-0.67469895,-0.22496276,-0.3504602,0.12184393,0.4188355,0.42454058,0.03467457,0.44730705,-0.03181225,-0.23832019,0.13209774,-0.39697313,0.22039562,0.32080367,0.12193126,-0.28091633,0.2962012,-0.38536748,0.2819334,-0.63259435,-0.10934477,-0.4394539,-0.050052516,-0.3276896,0.34387025,-0.00708654,0.18664646,-0.79056984,-0.24440071,-0.35563618,-0.3967969,0.20440914,0.17462116,0.3868007,0.2534202,0.19035001,-0.031667255,0.087634556,-0.26277214,-0.34310225,-0.4641931,-0.32561004,-0.07818996,-0.45880693,-0.5244692,0.122329116,-0.062312078,-0.28815675,-0.3503888,-0.38812393,-0.6107475,0.30454978,0.3217089,0.12572306,-0.08988006,0.07443618,-0.17023188,-0.20170222,0.24283129,-0.21384685,-0.66458625,-0.4618717,0.18677188,-0.45791715,-0.44912222,-0.39558056,0.42214054,0.2741517,-0.027540678,0.248745,0.005511357,0.02242347,0.0077217296,0.0747771,-0.36166376,-0.50635386,-0.81035537,-0.7139901,-0.656979,-0.12874049,0.012241871,0.5489421,-0.104296476,0.16776077,-0.19462028,0.099783674,0.18543132,-0.012507732,-0.0475478,-0.13718781,-0.293232,0.4284031,0.44199106,-0.29344818,-0.32187486,-0.054657053,-0.20141089,-0.07029394,0.08818223,-0.13721775,-0.25708753,-0.07672124,-0.27179793,0.16081427,-0.545019,0.10051256,-0.5629767,0.49910223,0.07869847,0.13737772,-0.01778833,0.61654705,-0.13066252,-0.01699089,0.118616134,-0.48606274,-0.69152886,0.029073546,-0.5348659,0.32549194,0.19744816,-0.026487714,-0.016193861,0.29582557,-0.024965605,0.008919981,-0.38677362,0.15425271,0.2324518,0.021914743,0.34778988,-0.2986852,-0.115096286,-0.10093209,0.524484,0.30826768,0.1881473,0.98941433,0.50146335,0.19292767,-0.027402552,-0.10744254,0.21883734,-0.29677057,-0.657748,0.23842989,-0.26482767,-0.0167728,0.40051094,0.52029425,-0.30945182,-0.51864934,0.40948904,-0.27545735,0.20194481,0.35331663,0.26554325,-0.49832043,0.16607456,0.25543565,-0.20393105,0.39707184,0.40647432,0.724954,0.519451,0.12855057,0.2459358,-0.26168615,0.17435274,-0.16514313,0.1398563,-0.020968609,-0.5815226,0.1543248,-0.020667834,-0.25375956,-0.12104878,-0.10183293,-0.11383035,-0.22186354,-0.31722975,-0.3117529,0.3625783,0.0577789,0.15809655,0.081817746,-0.3914977,-0.2516727,0.5470567,0.7094541,0.46889818,0.556112,0.70759517,0.51384014,-0.16784321,-0.27712408,0.3503649,0.39249796,-0.02183626,0.4356147,0.23755518,-0.3072576,0.4822348,-0.092132114,0.36948994,0.14805232,0.1420735,-0.47653708,-0.50225896,0.041079435,0.06558842,0.21898887,-0.32067585,0.24351977,-0.13902096,-0.18667115,0.739453,0.5969211,0.9172373,0.4132927,0.49019393,0.85487425,0.4419422,0.3713495,0.5741917,-0.23602185,0.07646192,-0.22957337,-0.12057205,0.19241253,-0.163489,0.3264379,0.37229043,-0.36898512,0.047243446,0.4509664,-0.20124792,-0.0027407757,0.40110108,-0.12379332,0.0033904354,-0.13857858,0.5615924,-0.22023413,0.16211833,0.24869119,0.12073432,0.69198596,0.4309136,-0.062992476,-0.45346278,0.19263606,-0.1928931,-0.14732419,0.29941437,0.5346343,0.10139796,-0.09715292,0.14633851,0.17204845,0.30393764,-0.020382984,0.2262903,-0.059779044,-0.09938157,-0.42962846,-0.42731932,0.29311904,-0.32007173,-0.048313335,-0.42994162,-0.25866246,-0.19486734,0.56567717,0.21512516,-0.21881671,-0.28915283,0.493333,-0.021304226,-0.15899065,-0.18824825,0.041720815,0.107590474,-0.17713924,0.1747969,0.40891448,0.23134765,-0.013204654,0.18618464,0.17040637,0.17997862,0.4565831,0.14658052,0.30487606,-0.1542257,-0.4725182,-0.32065722,-0.23227252,0.3685456,0.023725934,0.098644145,0.3304107,-0.30260193,0.33597755,0.5153629,0.33180982,-0.17957509,0.5900215,0.030742804,-0.44985822,0.09281408,0.5486392,-0.06770119,0.0698768,-0.11725547,0.14031819,0.27192405,-0.44289523,-0.3543792,-0.2583805,0.22229195,-0.103533424,-0.4587423,0.28070927,-0.44401655,-0.5288945,-0.11242501,-0.38653833,-0.29121333,-0.33071253,-0.1264729,-0.1188378,0.4645564,0.40726823,-0.048807543,0.36357,0.5108259,0.39144397,0.2280882,-0.1267294,-0.16217056,-0.3729209,0.15150997,-0.39566508,0.4628073,-0.03376429,-0.35182467,-0.14576235,0.19287455,0.45133862,-0.51366735,-0.4175868,-0.22722533,0.020593602,0.19198701,-0.573027,-0.04001772,0.12859741,-0.24685827,-0.4029224,-0.28960752,0.6289027,0.25773922,-0.14306478,0.51387954,0.29988274,0.18047018,0.00663586,0.34770608,-0.44028378,-0.1382922,-0.4077593,-0.24455443,-0.13161889,-0.43427384,0.2736701,0.13436866,0.14804244,0.42011163,0.10032692,-0.15988499,-0.53294814,0.23364967,-0.38807377,-0.0049821995,-0.21853262,0.29649183,0.2465074,0.054125357,-0.1131454,0.281224,-0.47472683,-0.11824577,0.43727913,0.357483,-0.36406597,-0.1404263,-0.4561534,0.029782385,0.08181563,0.1240208,-0.3157839,0.41428432,-0.4639304,-0.21102393,0.2603527,0.061171394,0.10646204,-0.34225336,-0.38009188,-0.43494278,-0.33932766,0.12184906,0.16469827,0.35473165,-0.2560403,-0.16666697,0.10792957,-0.37676674,0.084947854,0.10785014,0.37898543,-0.29661137,-0.3920039,-0.39647812,0.38521,-0.062852494,-0.03128508,-0.44922107,-0.42091656,-0.014339952,0.1916095,-0.4262984,-0.10804104,-0.06628645,-0.4960771,-0.20265055,-0.5119376,-0.32457867,-0.34456334,0.01344273,-0.26647153,0.09992874,0.419419,-0.43203253,0.19408736,-0.5209456,-0.08083739,-0.27853188,-0.21469109,-0.023991838,0.27184364,0.058921907,0.07575138,0.086373486,-0.3754516,0.12896058,-0.35336474,-0.3947194,0.3385062,0.35229215],"bias":-4.7722588},{"weights":[-0.070152014,-0.08673662,0.25685936,-0.46037987,0.058154367,-0.3813273,0.4159895,-0.46411744,0.2209496,-0.17186801,0.31176588,0.46058056,0.07115163,-0.45721984,0.009568319,0.09985091,0.33577725,0.031195547,0.28560302,0.43921527,0.16327961,-0.4181197,0.076964274,0.2844641,-0.23539878,-0.41293445,-0.07044731,-0.38733736,0.494072,-0.31282368,-0.21587412,-0.24367033,0.3646988,0.46262306,-0.19262001,0.40614775,0.24731559,0.052641246,0.34970385,0.07715793,-0.14934002,-0.27210277,0.25616327,0.37340322,-0.32503426,-0.14259206,0.16603951,0.22270317,-0.32973233,0.30254054,-0.121282846,-0.14615743,0.18463321,-0.2300462,-0.16755335,-0.19011419,0.11550182,0.48123404,-0.2680958,-0.081711665,0.28584594,-0.28723556,-0.47850972,-0.14313823,0.04829673,-0.12803754,-0.21163288,0.35568157,-0.45798802,0.21039934,-0.3806345,0.43565074,-0.10160646,0.3826248,-0.22902216,-0.45590755,-0.22562559,0.04556386,-0.088076375,0.19186042,0.29570407,0.43250066,-0.4742978,-0.46155563,0.11230785,-0.46149853,-0.3701806,0.31359696,0.43723208,-0.212256,-0.32258976,0.08460588,-0.4928895,0.3333764,0.34283382,0.17870551,0.20747805,0.029372988,0.036060445,-0.5576643,-0.14348184,-0.18105346,0.31325245,-0.44936743,-0.26902136,-0.28104228,-0.26079842,0.10099277,-0.24656613,-0.30999267,-0.25618592,-0.15634505,0.060481012,-0.3683478,-0.4534478,-0.27758488,-0.14463097,-0.2637433,-0.2408285,-0.24037732,-0.00694996,0.33208886,-0.288461,0.007401146,0.30551916,0.24599911,-0.31005913,0.3250691,-0.0145890685,-0.4636637,-0.17273585,-0.14780807,0.16297033,0.019524828,-0.2782083,0.31142217,0.109049544,-0.17452142,-0.30166763,0.166838,0.18646987,0.29689857,0.31085727,0.43887222,0.43143708,-0.23243502,0.23630741,0.12938952,-0.43550533,0.24254614,-0.26485983,-0.13190502,-0.22206964,-0.28443593,-0.34464663,-0.33136597,-0.0043425905,-0.3190772,-0.23945227,-0.24775873,-0.30289274,0.008904312,0.3676899,0.07764949,-0.18917067,0.052024927,-0.4526028,-0.40959892,-0.07745725,-0.30020738,-0.48413897,-0.3409479,0.19781858,-0.43473583,-0.24022046,0.19773643,-0.37641415,0.23435189,0.0888527,0.29151508,-0.06202799,-0.3743729,-0.30362713,-0.06571749,-0.7166328,0.19114192,-0.46212697,0.51757634,-0.24281894,-0.22762403,0.18490945,0.5350819,0.30645907,0.18583004,0.44038853,-0.0563021,-0.100435674,0.027511138,0.24886698,0.39591312,-0.047318533,-0.008190515,0.11333554,-0.31353945,0.3911891,0.11184944,0.11276612,-0.1820703,-0.22574848,-0.4692262,-0.6035734,-0.39298594,-0.4168906,-0.6633023,-0.049037308,0.49858674,0.5252236,0.61081064,0.047024976,0.26055515,0.5148317,-0.2240398,0.44373646,-0.08870386,0.29863867,-0.14292611,0.1779776,0.3084305,-0.02812234,0.016408093,-0.16210257,-0.04742943,0.081985,0.6192576,0.17606808,0.13366164,-0.4154361,0.3294936,-0.5172402,-0.5776047,-0.50161743,-0.10903989,0.6115192,0.05705922,0.18879785,0.31010818,0.20841625,-0.14884782,0.47071525,0.4458226,-0.24901293,0.25360027,0.24676134,0.31404316,0.36984277,0.17013456,0.2651468,0.5544604,-0.16142768,0.11021239,0.5778563,-0.16495448,0.015143785,0.5276115,0.24420148,0.3477626,0.30181336,0.755932,0.6970605,-0.018563861,0.40810198,-0.035347812,-0.1739427,0.32107118,-0.42988607,-0.4657366,0.4537651,0.051144663,-0.42436737,0.28162727,0.10080867,-0.29737434,-0.4352138,-0.34807476,0.3789924,-0.16310686,-0.074907586,0.28270882,-0.2047657,-0.03461225,-0.3364755,-0.12312142,-0.34897617,-0.22060032,0.17906687,0.34251913,-0.027990691,0.058208104,-0.23115572,0.47505015,0.19584988,-0.5231781,0.25289372,0.3100668,-0.20858511,-0.44360253,0.23039162,0.45945135,0.20101576,-0.17699955,-0.14993705,0.030750735,0.54402256,0.36804378,0.06532679,0.50545025,0.38857073,-0.008925995,0.10213783,-0.37149063,0.2361848,0.37387133,0.6902253,0.37939703,0.061964616,0.21595353,-0.03971583,0.3891379,0.40730065,0.009223786,-0.30380288,-0.63716376,0.13237834,-0.15489317,-0.37496638,0.24038512,-0.3403037,0.22865571,0.12372322,-0.35670727,0.2299763,0.40235797,0.3155453,-0.35243785,-0.43080458,-0.1956201,-0.10056066,-0.65214276,0.08790757,-0.35409668,-0.10562095,0.10413911,0.42768857,-0.18524589,0.5465838,-0.028615294,-0.49566388,-0.44042188,0.09381991,-0.15175438,0.05591034,-0.13789426,0.5007478,0.081026435,-0.20821895,-0.023144983,0.4674312,0.41158316,-0.38496804,0.055072267,0.01248556,-0.6916904,0.1326806,0.010151201,-0.04588997,-0.4669474,-0.6290248,-0.49507532,-0.34135294,-0.30131412,0.28878754,-0.20780374,-0.2185345,-0.21297309,-0.1340218,0.18438748,-0.2566757,-0.3640709,0.11075868,0.080352105,0.08676787,-0.029439546,-0.34304956,-0.29540607,0.44093043,0.18838179,0.073077224,0.06647576,0.14591071,0.18769677,-0.4662227,-0.23832338,-0.59987116,-0.66953397,-0.84656584,-0.16007538,0.10323889,0.23361623,0.23469886,-0.28051186,0.029747784,0.19342253,0.19351764,0.021727229,0.034326687,-0.5400816,0.19874845,0.48915303,0.37507913,0.054428197,-0.37912717,-0.44698074,0.42546356,-0.42821407,-0.06086789,0.11210199,-0.58905613,-0.19959648,-0.79752386,-0.24466442,-0.86952794,-0.59206325,-0.19007643,-0.115540065,0.42627805,0.4455028,0.20517752,0.45013133,-0.17073663,-0.068742864,0.035740905,-0.20279783,-0.43666533,0.23456042,-0.10555826,0.22845623,0.37590483,-0.10390908,0.3014395,0.49049023,-0.11449657,-0.042688098,-0.050069295,-0.30209157,-0.028170956,-0.28300834,-0.590908,-0.8449162,-0.1645162,-0.42828938,0.3559751,-0.07504379,0.52995855,0.39745042,0.052099474,0.17007835,-0.052165493,0.015794694,-0.3712986,-0.5494237,-0.47288164,0.28835392,0.30925444,0.4178617,-0.2899053,0.12052977,0.39964923,0.15268968,-0.4882192,0.2564758,-0.28283212,-0.52943766,0.036472533,-0.145528,-0.1654721,-0.15381977,-0.41253388,0.29796848,0.1727684,0.50758904,0.46865422,0.49628377,-0.009396584,-0.16968921,-0.44850767,0.42510912,-0.34236428,-0.021019714,0.042660017,-0.46594825,-0.11428459,0.39212903,0.2332533,0.08623355,-0.43550408,-0.42733353,0.3177217,0.2172948,0.49304864,0.21947047,-0.13474917,-0.42018664,-0.26755232,-0.66584206,-0.24193524,-0.42258623,0.03711108,0.76865125,0.05281722,-0.12637596,0.13968584,-0.040941693,-0.5348044,-0.6116543,0.3167836,-0.40309736,-0.33121893,0.36408073,-0.3820242,0.03182223,-0.37866387,-0.03361334,0.28527305,0.29832965,-0.019278606,0.10006416,0.35859108,-0.21254522,-0.093889065,-0.059788123,-0.4101792,0.10957461,-0.2807507,0.01701926,-0.27933547,0.22004084,0.36173445,0.024221791,-0.78957385,-0.5659722,0.14164948,-0.14493452,-0.3249219,0.29894674,0.41970637,0.10203539,-0.3201936,-0.4315331,-0.21670191,0.43104613,0.06780145,0.10752796,0.25900722,-0.27478024,-0.16526742,-0.4976811,-0.29357845,-0.04646136,0.31962714,0.09148754,-0.14792807,0.17801134,0.32541746,-0.24586463,-0.011770426,0.09695906,0.12748764,0.0077959113,-0.5563699,-0.35589984,-0.4666544,-0.042569727,0.09734037,0.01364608,0.327534,-0.21172911,0.11647801,0.22574042,0.4053491,-0.12965328,-0.11148462,-0.4032408,0.46462503,-0.2701841,-0.3631059,0.29287788,-0.19093315,-0.23496297,-0.12425105,-0.56844413,0.07905785,-0.7062078,0.24443276,-0.403229,-0.06935987,-0.32708427,0.42255834,-0.050409913,-0.47122198,0.07459629,-0.40142572,0.42745432,-0.32069415,-0.110604696,0.47077313,-0.14320146,-0.03349209,0.26234347,0.2518885,-0.36067212,0.104425624,-0.42324978,-0.008932548,-0.33180797,0.23123229,0.5199481,-0.11139851,0.49645784,0.16243394,0.28123423,-0.047717698,0.03901383,-0.25072992,-0.28052828,0.41427812,-0.050864153,0.10571294,0.02255097,0.38019928,0.21311387,0.1371109,0.13352329,-0.37730116,0.30726284,0.064840615,-0.39751258,0.115258604,0.116991036,0.4576471,0.16460606,-0.06624812,0.48371038,0.04905956,0.3245758,-0.033130698,0.000031532105,-0.15925671,-0.21086967,-0.045246612,0.72097445,0.19536322,-0.267258,0.17932984,0.17293784,-0.18230283,0.13206713,-0.0002875991,-0.06197324,-0.46657017,-0.33273262,-0.4090004,-0.3849577,-0.41316834,0.30054745,-0.3407833,-0.45236415,0.38038287,-0.038664527,0.17470253,0.40204751,0.48950392,-0.149586,-0.14022692,-0.2354961,-0.13437931,0.61505777,-0.0062003536,0.45252144,-0.18714315,0.15937302,0.08875965,0.21321958,0.10981904,0.4188601,0.04050949,0.44124898,-0.31332955,-0.29997408,0.06929025,-0.18548958,-0.1578571,0.38265702,-0.30157435,0.27263254,-0.44423854,-0.2364473,-0.19549559,-0.21948045,-0.053140916,-0.35591078,0.57873666,0.38188583,-0.19448532,0.12853365,-0.1612477,0.1650391,-0.00728089,-0.050014984,0.0049518174,0.36538386,-0.18108891,0.06146699,-0.333301,-0.42593348,0.50228554,0.19491018,0.081820525,-0.40951195,-0.2950298,0.44383547,0.45545492,-0.4112505,-0.13633339,0.1749632,0.4124483,-0.13627872,-0.17278865,0.34589055,0.2529548,-0.23595314,-0.16425976,0.16021281,0.4951197,0.5040271,0.36276886,0.4161764,-0.1793706,-0.047168635,-0.17553593,-0.1473598,-0.10570719,0.17056964,0.30005518,0.24615721,0.22922619,-0.28692582,0.15847714,0.36430523,-0.3704299,0.41124114,-0.3748856,-0.22264339,0.24156941,-0.15585689,-0.17526498,0.050752763,-0.46141365,0.5183189,-0.030198336,-0.27516267,0.11851984,-0.09166884,0.4809107,0.17232148,0.32561168,0.037790813,0.3570518,-0.037555493,-0.34588236,0.22293077,-0.4372783,0.50035816,-0.04863491,0.034979716],"bias":-2.0126247},{"weights":[0.4942785,-0.45795792,-0.25218624,0.13656309,0.110592015,-0.079433315,-0.44786876,-0.44518012,0.4420119,0.27368253,0.49122888,0.44946593,-0.11667106,0.17445917,-0.13964544,0.059793357,-0.006093297,0.006613381,0.044201504,-0.2699135,-0.41832143,-0.08785104,-0.25738865,0.25173888,0.28996688,-0.022812884,0.29999858,-0.14012206,-0.057471763,0.4800158,0.037388932,0.45596844,0.43124095,-0.029378958,0.33069614,-0.015285211,0.14966297,-0.189521,0.490451,0.22633415,0.3643796,0.07292539,0.030868921,0.44284478,0.43471873,-0.22114038,-0.48386398,-0.034374688,0.021653118,-0.15941572,0.22433878,-0.3056668,-0.13996768,0.10440505,0.4511711,0.15819216,-0.1727891,-0.41850036,-0.12559266,0.28597274,-0.008006199,0.285274,-0.21466197,-0.07438557,0.51179075,-0.13952924,0.33671525,0.47134137,0.40104443,-0.45999622,0.03260736,0.077012375,-0.2691335,0.22017926,-0.18278858,-0.11297497,-0.35933933,0.07139875,-0.27963746,-0.18300341,-0.30928692,-0.22113283,0.5038316,-0.334575,0.28269452,0.314066,0.04366955,0.30000287,0.20408571,-0.27250803,-0.21313575,-0.41504633,0.37522224,-0.1660926,0.29430744,-0.23883285,0.040479496,-0.2637327,0.21967302,0.020923156,0.4324919,0.095655166,-0.10416722,0.013855648,0.47417384,0.41086286,-0.29678676,0.05473668,-0.32607806,0.07394662,0.37944016,0.38344425,0.1982398,-0.1742072,-0.004294987,-0.08660818,0.1256625,0.19550672,0.4651848,-0.021471098,0.3450641,-0.38398406,0.4471013,0.48302662,-0.39423403,-0.42919075,0.16867249,-0.09238873,-0.2810871,-0.15095897,-0.22591802,0.27897,0.36718476,-0.19820535,0.2730984,0.4961937,-0.06387335,-0.20487021,0.17148246,0.3241362,0.14507091,-0.11252846,0.023141121,0.21923013,0.43199545,0.37256196,0.19730134,-0.43771952,0.29182658,0.24950846,-0.06219347,-0.021692142,0.24502166,-0.36404318,-0.067274116,-0.21601783,-0.20928708,-0.26886067,0.25170115,-0.2979478,0.3928794,0.016723055,0.2192254,-0.36486936,-0.22993848,0.19436873,0.13979009,-0.12292623,-0.3967939,-0.17048168,0.50538796,-0.39272505,0.11106324,-0.3602173,0.26871395,-0.22491346,-0.36693215,0.46175483,0.23366803,-0.346734,0.37237912,-0.15949358,-0.4078863,0.36959198,-0.46745637,-0.38559037,-0.036788408,-0.47597274,-0.21417706,-0.12725589,-0.11297551,-0.22964317,0.20270301,-0.05257268,-0.38580665,-0.47985634,0.40064555,-0.025550885,0.23842815,-0.46696994,0.043321796,0.36920926,-0.3748278,-0.40728474,0.48267195,-0.46209344,-0.23316023,0.3629481,-0.056748323,0.15723962,-0.086829364,0.34683093,-0.47954956,0.39064124,-0.35354346,-0.27875477,0.3727095,-0.4804997,0.447488,0.29036856,0.40947673,0.022260474,-0.0436496,-0.21120775,0.48739687,0.38088346,-0.313093,0.15667433,-0.21167983,0.38071918,0.32947743,-0.2875821,0.33986536,0.3583827,-0.36223248,0.23358758,0.40608653,0.46387586,0.3060894,-0.15837796,-0.02958456,0.40661854,0.37465477,0.46449584,-0.30386046,-0.28345168,0.45417833,0.005811279,0.2628374,0.14954075,0.03436771,-0.22238332,-0.022841994,-0.43284097,-0.14866658,0.24430154,0.10293437,0.15586211,0.38632563,-0.09561382,0.30187878,-0.16103378,-0.21870413,0.14505522,-0.43299884,0.39015818,0.3998523,0.09133081,-0.17196324,0.48089087,0.2505717,-0.3885574,0.2637457,-0.03550078,0.08782245,-0.22718649,0.46254677,-0.3989296,-0.40042236,0.22719978,-0.3327102,-0.40532228,-0.020183977,-0.44246194,-0.45509285,-0.04048066,-0.023286609,-0.17853776,0.37238336,-0.21441622,-0.4484434,0.26414457,0.32318306,-0.15255827,-0.3739487,-0.31588462,-0.12090085,-0.107167386,-0.1623195,0.15613689,-0.28633207,0.24844399,-0.42210004,0.17294057,-0.35091478,0.46922323,0.30811864,0.26011595,0.2928402,-0.38356307,0.17638244,0.31004313,0.2870382,-0.012367342,0.0018835537,0.32026765,-0.25861216,-0.4580182,0.49052095,0.187662,0.3229775,-0.2712204,-0.32378873,0.4743162,0.12160868,0.012243141,0.25788334,0.02697412,-0.35952932,0.4574423,0.32727003,-0.018040918,0.44557792,-0.45014837,0.15490668,-0.22839764,0.253178,0.41093764,-0.024961565,-0.38780752,-0.3787886,0.12774798,0.23212005,0.42031974,0.27107462,-0.060801465,-0.28200877,0.28103027,0.41534534,-0.4734278,0.18761666,0.28671715,0.19101985,-0.29429087,-0.072546616,-0.18153767,0.18143173,0.07877027,0.14679001,-0.39861757,-0.18615969,-0.147884,0.47225755,0.12725115,0.35022,0.234084,0.3995265,-0.019282172,-0.0728132,-0.15781415,0.34146792,0.09243792,-0.17513679,0.35099643,0.4578937,0.12935835,-0.3791998,-0.028926387,0.22182557,0.37028354,-0.33472136,0.428292,-0.3392204,-0.3775443,-0.41262704,0.3578263,0.48555577,0.39135304,0.4360667,0.02842045,0.31433934,0.42306837,0.24273515,0.19312084,0.21434927,-0.32701984,0.35948548,-0.2202455,0.39325368,0.15392978,-0.06882594,-0.25121266,0.06741738,-0.43461582,-0.41212577,-0.14016019,0.3330924,0.45892546,0.27243567,0.41232908,0.3492133,0.37659508,0.2722017,-0.16807759,-0.31060442,-0.2872809,0.18840687,-0.053697787,-0.27975312,-0.19276795,-0.3087272,0.40260082,-0.030898385,-0.47931805,0.4798637,0.118172385,-0.30316457,-0.41867623,-0.25746304,0.3487192,0.43785745,0.31965232,0.0074987323,-0.09272863,-0.47426638,0.3867555,0.40999928,-0.13050517,-0.07908916,0.15972906,-0.37769863,-0.32215726,-0.07413827,-0.12900777,0.02926575,-0.4284392,-0.12889792,0.4904058,-0.19073832,0.20442827,-0.25990957,-0.11491126,-0.16799076,0.3418699,0.24124746,0.25770319,0.090744175,-0.06873748,-0.30023685,-0.0651056,0.19674204,0.17175144,-0.0880547,0.02817242,-0.21679316,0.013410177,0.15755072,0.16244693,0.19564143,0.14355376,-0.10942664,0.19251505,0.17400332,-0.4492276,0.44260675,0.23069546,-0.13277185,0.23785754,0.016501587,-0.3097334,0.16946355,-0.3099252,-0.21616012,-0.102307536,-0.37515202,0.21664266,-0.18868516,-0.24944472,-0.26648274,-0.33508918,0.24225745,0.18999392,-0.021988034,-0.24111326,0.04994858,0.4333176,-0.39856815,-0.30801168,-0.41437313,-0.099957235,0.034006704,-0.4670467,-0.34300616,0.0683733,-0.43296844,-0.13418691,-0.43227926,0.0015121754,0.23138353,-0.30800542,0.26873118,0.43090767,-0.22912481,-0.40406734,-0.46434116,0.43300784,0.2847584,0.16453758,-0.25239068,0.049840074,0.42690384,0.10161935,-0.24686548,0.27177164,-0.29808804,-0.27227935,-0.3726532,0.026937524,0.30302846,-0.31012475,-0.13241819,-0.069451146,0.432239,-0.039502677,0.44897166,-0.3529238,-0.22150603,-0.33561385,0.48774546,0.21874772,-0.3273337,0.33862764,0.27916297,0.056348026,0.2938013,0.38077015,0.09881089,0.37112153,-0.04329252,-0.27956903,-0.47115102,-0.21163754,-0.46691415,0.2510062,0.30210567,-0.07465366,-0.3614307,-0.10765028,-0.022466958,-0.4157821,0.021949489,0.1308665,0.0934076,-0.32254362,0.2764344,-0.32359642,0.10554612,-0.13100535,-0.21198219,-0.13187663,-0.2822846,0.45243847,0.08316927,0.4317456,0.39719504,0.29632297,0.13770896,0.38214788,-0.19104332,0.26542136,0.31517294,-0.41459942,-0.05943939,-0.011443321,0.22179902,-0.07245844,0.20010635,0.29113215,0.24835852,-0.11878138,-0.003838337,0.33010924,-0.24602444,-0.25620618,-0.30359238,0.3463236,0.14959165,0.29970968,-0.28918022,-0.43100658,0.4476865,-0.42648193,-0.22042386,0.080375716,-0.41929176,-0.30860317,0.39731097,-0.0015710441,-0.15485604,0.3264295,-0.20031409,-0.27852792,-0.12997988,-0.47398585,-0.20527625,-0.12622331,0.042105153,-0.45433044,-0.4703573,0.20893928,-0.4590405,-0.0022076285,0.26421753,0.48207834,-0.16972508,0.16996983,-0.41528332,0.35437188,0.29911408,0.11812249,-0.04389239,-0.45487577,0.310933,-0.10108467,-0.48859236,-0.47289097,0.019099092,-0.21091788,-0.32718572,0.0046287,-0.1235036,0.36538628,0.041486654,-0.08117716,-0.46189982,0.22380579,-0.032567564,0.049783044,-0.03841464,0.3055771,-0.21712857,0.32513762,-0.3377766,0.26099175,0.4863643,-0.17347494,0.32751748,0.08501421,-0.41484952,-0.054408323,-0.120023094,0.07289913,0.020045815,-0.120016776,0.12793301,-0.4785749,0.038822383,-0.21708305,0.29989877,0.37711185,-0.09302547,0.38814777,0.26260537,0.45183903,-0.31603518,-0.029946005,-0.4372404,-0.25350523,0.024625447,-0.19652201,0.019764941,-0.43340704,0.049079817,-0.13339187,0.34024543,-0.37142769,-0.18037556,0.34253225,0.0035592164,-0.38190514,-0.1660396,0.26489657,0.008546541,-0.45654178,0.4111098,-0.3107571,0.11835003,0.106421016,-0.3810126,0.34415597,-0.33335263,0.08185995,0.51262313,0.28017098,-0.12215747,0.1098084,0.23043537,0.41278195,0.25961605,-0.018968536,0.094251975,-0.43283612,-0.17404272,0.29335842,0.13225172,0.12926061,0.24733564,0.024541073,0.39700398,0.48375586,-0.0035071636,0.025264284,-0.43618077,-0.03292515,0.28280938,-0.29556608,0.3421488,-0.40402955,0.282201,-0.14218998,0.036200054,-0.3376121,0.42710042,0.06898453,0.20393692,0.17834176,-0.3758015,-0.4230629,0.17474562,0.30482376,-0.060945526,0.45836934,0.24210696,0.24457648,0.50741774,0.30688253,0.0711452,-0.40112105,0.3957011,0.23977518,0.43694484,0.14540032,-0.3663295,0.5132956,-0.45346552,-0.16313481,-0.26085633,-0.09025263,0.049772866,-0.025009435,-0.0059392527,0.37003678,0.25451317,0.13587025,0.17999777,-0.22762488,0.17984702,0.22458422,0.023843298,-0.34608412,-0.122926876,-0.45202583,0.40121087,-0.23383904,-0.12913722,-0.08457619,0.09124892,-0.14739537,0.12403166,0.4679187,0.3740124,0.44396657,0.0024707022,-0.38034552],"bias":0.02435545},{"weights":[-0.06646031,0.23040129,-0.27634045,0.08137281,-0.16229926,-0.3916913,0.33525768,-0.15483795,0.2789096,0.43548098,-0.3602923,0.36976722,-0.24698547,-0.23304813,-0.13944505,0.2475194,-0.41301247,0.26531032,0.32340136,-0.41020522,0.3208697,0.1418996,-0.003593665,0.13906385,-0.22963594,-0.3518388,0.4390985,-0.3257917,-0.07309921,-0.16837667,0.14837648,0.3514773,0.2268435,-0.17418522,-0.24637295,-0.14414856,-0.0005542913,0.25385192,0.24994665,0.13142015,-0.42623338,-0.024169954,-0.19143541,-0.07164799,-0.12934287,-0.0038501383,0.09243566,-0.4844863,0.20918544,0.004184558,0.2645515,0.17759745,-0.04743264,0.066817,0.28163102,-0.18021081,-0.026006445,0.16695632,0.054481126,-0.24435109,0.16275176,0.2470474,-0.18794979,-0.40572548,-0.1339724,-0.27478197,-0.41914177,0.067064315,0.38640592,-0.31760472,-0.39978054,0.4474109,0.4904917,0.075274475,0.14940606,-0.27370262,0.3880275,0.19216065,0.42793363,0.4674954,-0.38816673,0.24938254,-0.25270864,-0.39865598,-0.18283878,0.29906598,-0.35137185,-0.3730977,0.28327057,0.33823794,0.074354306,-0.31513315,0.24273449,-0.0618065,0.27423424,-0.1271807,0.123393856,0.447918,-0.043036632,-0.23412651,0.6262024,0.29200435,0.03029265,-0.012151829,-0.15721984,-0.1764267,-0.12348195,-0.40117523,0.40613073,-0.25304735,0.43093678,0.20335723,-0.47771785,0.25200832,-0.38012522,-0.1683215,-0.4838104,0.41183206,-0.11483127,-0.022532497,0.08264988,0.4426969,0.339607,-0.099973716,0.146723,0.1391415,0.110560454,0.42488798,0.49719197,0.36941573,0.3807147,0.29390174,-0.1009494,0.13748406,-0.4464044,-0.18955086,0.36480334,-0.23270623,-0.4573626,-0.11295752,0.24361973,-0.3022922,0.32175294,0.27924496,0.06590406,0.059649903,-0.39303932,0.16083525,0.032076336,0.2309615,0.19765982,0.5060617,0.0003294583,0.78345627,0.16686219,0.78444856,-0.028052304,0.47228116,0.6522292,0.49490553,-0.41166466,0.036783952,0.34044626,-0.5235064,0.103205755,0.4414368,0.45913833,0.23392345,-0.25362006,-0.367877,0.06306725,-0.029219287,0.27817687,-0.23054512,0.14416212,0.45985806,0.15071428,-0.24681208,-0.27606335,0.40404922,0.014754139,-0.3224719,-0.04179491,0.012512951,-0.20610435,-0.40238944,-0.2522395,0.042018343,-0.048264187,0.15385991,-0.014821791,0.1878159,-0.2646208,0.023820411,0.18295687,0.2530223,0.16308667,0.3562029,-0.17093919,-0.03936529,0.32463086,0.22563434,0.55353975,0.022738058,-0.14428371,0.089259416,0.026225377,-0.2914771,-0.09824956,0.2983678,-0.0186736,-0.58763933,0.16103,-0.5723285,0.045201275,-0.5086813,-0.47016585,-0.5505512,-0.15934604,-0.1160205,-0.37512758,-0.013196006,0.27605423,-0.3552421,0.08917822,0.27670342,0.2871553,0.114523046,0.24347857,0.41468027,-0.40647396,-0.10048462,0.22886382,-0.4978702,-0.106755346,-0.20476224,-0.15756154,0.20044391,0.37686995,0.4216678,0.32000282,-0.59367573,0.25894326,-0.61716074,-0.18332256,-0.61321527,-0.32383335,0.036219154,-0.06747364,-0.032917045,0.36345726,-0.15195753,-0.12551711,0.4537692,0.43494028,-0.44747707,-0.40642947,-0.07976683,-0.16815463,0.265514,0.0133536095,-0.5088897,-0.1596813,-0.5085216,-0.503206,0.12481338,0.6138817,0.090414874,0.059135944,0.14771664,-0.5489538,-0.03865642,0.06315118,-0.3481034,-0.2979474,0.106006645,-0.267115,-0.02520217,0.32696193,-0.24559183,-0.33207497,0.38602772,-0.04206057,-0.2022379,-0.08928177,0.42822385,0.29311427,-0.33397543,-0.39996368,-0.23976193,0.16287337,-0.3813343,-0.7151901,0.06895514,0.085388005,0.14710155,-0.17492948,-0.57506067,-0.39515096,-0.17479976,-0.52185404,-0.3344895,-0.4985524,-0.43657622,0.33087236,0.41909248,0.32030994,0.08897266,0.2814124,0.22013806,0.34373024,0.19262087,0.3608787,0.11821375,-0.4601481,-0.12659523,-0.20781305,0.0126312645,-0.81178564,-0.70835924,-0.052033473,-0.5390349,0.6870059,0.03983449,-0.16361062,0.046110235,-0.27599585,-0.21389915,0.006040243,-0.39307562,0.10163127,-0.09481296,0.15758225,0.15061837,-0.16334043,0.4550653,-0.30013534,-0.20895685,-0.2027507,0.40428218,-0.19646043,-0.06669777,-0.16204184,-0.6296624,-0.38970798,-0.47625735,-0.4902356,-0.73998547,-0.14844143,0.014883326,0.09354364,0.32688946,-0.42774305,-0.18280795,0.061583742,-0.32138547,-0.09320584,0.2105831,-0.47512102,0.17274089,0.16349745,0.23002425,-0.09176859,0.118671015,-0.2593633,-0.118355125,-0.07793948,-0.23599006,-0.30121052,0.1659441,-0.18513688,-0.008905221,-0.5852109,-0.3653534,-0.6245434,-0.7701125,-0.4062077,-0.20933215,0.16126373,0.2955976,-0.30212012,-0.08336716,-0.39968583,0.1835243,0.3347069,-0.061129335,0.27479416,0.031236827,-0.43941507,-0.2993936,-0.19066143,-0.2218435,0.46307722,-0.17190188,-0.03447682,-0.46087152,-0.092372775,-0.12081523,-0.6396434,-0.028810138,-0.16767867,-0.6569246,-0.11066717,-0.59957397,-0.21661541,-0.022373348,0.6510651,0.29290852,-0.7019044,-0.09947094,0.08370796,0.04788362,-0.36465564,0.18633321,-0.38076136,-0.3851348,-0.14520115,0.21854587,0.35425952,0.032826293,0.2699608,-0.27019295,-0.016183881,-0.4010687,0.40147626,0.30493507,-0.41099003,-0.1443415,-0.38972968,0.27734014,-0.56466824,-0.037484713,0.5197717,-0.17340076,0.5727493,0.35247755,-0.090438426,-0.23541756,-0.59453195,-0.49278232,0.11429299,-0.054720484,0.3247137,0.11593863,0.46635997,-0.43145353,-0.46213636,0.1607437,-0.45621762,0.46783814,-0.20753415,0.36424822,0.27747387,-0.35078043,0.27657115,0.042020682,0.12148234,-0.35508463,0.2788343,0.19973463,0.29472002,0.5677019,0.0035099748,-0.12114124,-0.5555019,-0.103378534,0.25930485,-0.39013413,-0.06751788,-0.04420819,0.4322926,0.31267095,0.23750487,-0.13699745,-0.254763,-0.09144579,0.3251002,0.11943465,0.45397747,0.025406653,-0.19452761,-0.25819176,-0.06881637,-0.1941142,0.030803397,0.44874436,0.43976134,0.09575966,0.619365,0.036831122,0.4623478,0.45167145,-0.40458292,-0.46555313,-0.09543443,0.00584707,-0.13109301,-0.17263557,0.029555349,-0.0657874,0.5183292,0.24958177,-0.2895009,-0.24980919,0.10189475,0.3622891,-0.17111601,0.28257602,-0.011629604,-0.40065098,0.2239298,-0.41604072,-0.11322685,0.22862571,0.072500624,0.084830515,0.91571903,0.39889818,0.271221,-0.2113411,0.14266557,0.12787168,-0.23796836,0.3010992,0.6347316,-0.1993058,0.321318,-0.27410242,0.30934724,-0.10594322,0.27917838,0.16554233,-0.39477107,-0.40048054,0.3700182,-0.19798881,0.14796154,0.17562202,-0.34801427,0.09280397,0.030480469,0.37454283,0.7985012,0.9814156,0.067904145,0.40877843,0.41259047,0.29253668,0.10060013,0.29165748,0.3375851,0.09430174,0.65646505,-0.052084442,0.33153734,0.06853433,0.3174335,-0.2350237,-0.11026303,-0.43933478,-0.28261504,0.20278646,-0.34928983,-0.40616342,-0.109296285,-0.18751103,-0.22989857,0.52526325,-0.15405716,0.31444964,0.56402045,0.81508976,0.14204037,0.675634,0.47423652,0.24131325,0.32269242,0.5986698,0.48874378,-0.19213976,0.40158537,0.037975345,0.66798836,0.061515335,0.06875108,0.32226253,-0.047866523,0.48252365,0.41257438,-0.028491411,0.14641733,0.120581776,0.48422816,0.5095695,0.017924642,0.61603075,0.20170678,0.111916795,0.5437747,0.34524915,-0.08339192,0.54825497,0.66245973,-0.1443516,0.20829885,0.23098537,0.10737647,0.41198915,-0.24693067,0.47895056,-0.016373865,-0.20958728,0.51868683,-0.33843818,-0.018430963,-0.31855884,0.36266506,0.050880954,-0.41606417,-0.30549592,-0.03552657,0.21227238,-0.049262103,0.3608847,0.1785075,0.0023100039,-0.50056916,0.13561893,-0.109297074,-0.33764726,-0.26968396,-0.46833745,0.35948056,0.14834556,0.035194866,-0.079437025,-0.40355885,0.2612805,0.09992381,0.026637822,-0.39777085,-0.079973966,0.15347792,-0.27277145,0.49739903,-0.29587504,-0.13389713,-0.04400266,-0.45532188,0.5156533,-0.09281104,0.05817316,0.10065057,-0.19297132,-0.2225412,-0.14964539,0.016915372,-0.5680955,0.20423368,-0.35786256,-0.4776109,-0.69732124,0.11507793,-0.5338478,-0.49996763,-0.15737353,-0.006980663,-0.40052867,0.17246424,-0.17770983,0.3543278,-0.35689172,0.023389347,-0.2446215,-0.39666787,-0.43573093,0.30305576,-0.037517037,0.005593023,-0.14226183,-0.31020004,0.30989578,-0.29585978,0.31190968,-0.5263,-0.28789097,0.17193459,0.11482054,-0.034716997,-0.46746725,-0.14921254,0.32190254,-0.5054768,-0.4713814,0.19811493,-0.50452846,0.12074399,0.41396436,0.2874486,0.05649005,0.28321388,-0.33615038,-0.33083758,0.40680194,-0.2477141,-0.24835235,-0.4090942,-0.30751052,-0.4215537,-0.12953566,-0.3850303,0.38267317,0.30274868,-0.008723836,0.078869745,-0.36998746,0.25064114,-0.48044518,-0.032010138,0.04622006,-0.12823145,-0.49109206,-0.30267784,0.28288284,0.026983729,-0.21663697,0.34573856,-0.083645865,-0.009684142,-0.40634522,-0.05255959,-0.45287022,0.14458324,-0.1359266,-0.0408408,-0.31395668,0.18981418,0.3983722,-0.3035156,-0.21282406,-0.26568976,0.31534284,0.31244963,-0.17879435,0.34985438,-0.37785682,-0.3041549,-0.043611087,0.19172229,-0.43361607,0.062392227,0.42835784,0.114481375,0.18257092,-0.12735333,0.12444553,0.061332334,0.10929306,-0.34581873,-0.31852362,0.1695651,-0.10687965,0.057751924,-0.41242746,-0.27752686,0.2555289,-0.26196268,0.4940562,0.39695016,0.20332089,0.018419446,-0.09391035,0.1725497,-0.08444022,-0.4856591,-0.39346355,-0.47528037,-0.24418569,-0.039741494,0.33905068,0.26530817,-0.2963074,0.4902651,0.3934801],"bias":-4.1126776},{"weights":[-0.402624,-0.49999607,-0.30440247,0.21751858,0.2705779,0.37043428,0.2931646,0.1489767,0.43579006,0.36271107,-0.47795832,-0.29316688,-0.28143787,-0.033384945,0.4323637,-0.39811563,-0.2061225,0.20158328,-0.5057465,0.29639292,0.31005657,-0.1942979,0.14066721,0.1501353,-0.415187,0.16050328,-0.4665481,0.38966358,-0.42484748,-0.2254319,0.38854623,0.40528,0.43665883,0.15196045,-0.09112941,0.03662623,0.027936626,0.34907332,0.07563448,-0.2480273,0.29298225,0.2767031,0.22481456,-0.04347063,-0.06028996,0.27068216,-0.37612483,0.04818872,0.48853496,-0.1104857,0.16828918,0.060608655,0.16509284,-0.08695583,-0.14074443,0.4457574,0.1332574,0.1665913,-0.21159647,0.05378494,-0.21895754,0.03745633,-0.0072925277,0.19406916,0.005603682,0.10989806,-0.13977326,-0.2223712,0.38572308,-0.0443822,0.53895384,-0.2623952,-0.12650247,0.24167259,-0.16064546,0.06057381,-0.2171243,-0.03272347,0.33986533,-0.4888806,0.21557163,0.0718115,-0.43771744,-0.31595635,0.3612641,0.2658875,0.13359661,-0.40857863,-0.17511964,0.28640497,-0.1367759,0.28173882,0.12929404,-0.2666928,0.0017426714,-0.38750997,0.2034523,0.40765372,-0.32570833,-0.13317695,0.27844316,0.3797373,-0.13258828,0.041207567,-0.32777238,0.54728836,0.45202392,-0.1510477,-0.117306516,-0.34255254,0.24157412,0.04164565,-0.021819362,0.103424564,-0.40700743,-0.16863096,-0.24665402,0.10569765,0.050209604,-0.3516981,-0.5390533,0.1734461,-0.014344362,-0.049299333,-0.1123507,0.077801585,-0.005521176,-0.4140447,-0.26964936,0.29752856,-0.06370385,-0.09541323,0.115476385,0.17660488,-0.096439086,0.12180047,0.51851386,-0.12841477,0.32738844,-0.20576034,0.08169611,0.14847673,-0.12596627,-0.09062799,0.29563153,0.11111325,-0.06537273,-0.39706782,-0.5756225,0.24299194,-0.6974107,-0.3728677,0.10305712,-0.47154596,-0.57192844,0.28095084,0.23627439,-0.09626749,-0.029272644,0.62072694,-0.089190096,0.5708844,0.14099823,-0.08259841,-0.36410138,0.25537685,-0.035598885,0.18691243,-0.43790615,0.05763058,0.35004365,-0.03840288,-0.4651611,-0.2589551,0.33197242,-0.6307654,0.15576866,0.24974678,-0.09373236,-0.028623784,0.09317897,-0.3841184,-0.38908067,-0.6885388,-0.34924325,-0.19892046,0.24306624,-0.16085374,-0.08232833,0.20257725,0.7155163,0.49028003,-0.09083056,0.14277413,-0.4708193,-0.32471022,-0.246132,-0.03728647,-0.11609642,-0.17026608,-0.2116388,0.21797223,-0.38580248,-0.46756238,-0.3293622,-0.412093,-0.26162675,-0.027640153,-0.25354105,-0.22768594,-0.56014556,-0.682012,-0.15703252,-0.36299455,-0.00047503487,-0.37838846,0.27774286,0.3700753,0.36559454,0.018177317,0.10286807,0.1652559,-0.43250424,0.4421423,-0.47578365,0.16739532,-0.0027412632,0.3434808,-0.11816211,-0.1611349,-0.4672669,0.34072813,-0.42514613,-0.040348217,-0.50504994,-0.099866726,-0.21888065,-0.2296865,-0.17844194,-0.62696594,-0.530828,0.25656584,-0.3807729,0.2775485,-0.4565847,-0.46681967,0.33067322,0.50997764,0.45987287,-0.2154133,-0.31175634,0.40079713,-0.111761644,0.3139355,-0.5071924,0.30765185,0.09325324,-0.2757865,-0.31160644,0.30374697,0.2971131,-0.44192922,0.35722375,-0.22573496,-0.1786462,-0.43653315,-0.074687086,-0.5719195,-0.18459669,-0.50981754,-0.6782555,-0.022385566,-0.5783845,-0.25971168,-0.33926967,-0.4082058,-0.01684526,-0.2706625,-0.17562035,-0.25845897,-0.05907851,0.030835588,-0.110712364,0.37299806,-0.1741146,-0.2021972,-0.37354335,-0.110194266,0.321216,0.52009237,-0.013943486,0.28442392,-0.33221346,0.18719709,-0.20656511,-0.65886325,-0.47476235,-0.715441,-0.18209802,-0.6781683,0.029477812,-0.52431864,-0.44537872,0.113837294,-0.21549827,0.36521026,-0.2550754,-0.12704049,0.39799017,-0.015526814,0.24602132,-0.48939016,0.19606781,-0.12904258,0.42223212,0.30462942,0.47641018,-0.18113564,0.49635646,0.67974836,0.18612894,-0.042971272,0.019126,-0.5805983,-0.6981647,-0.63860995,-0.8715061,-0.13460435,-0.30759972,-0.57561815,0.27438062,-0.42508364,-0.3558789,0.4427084,0.47973803,-0.23266086,0.46423298,0.23658821,-0.29356134,0.18885423,0.24313846,-0.09005516,0.22082819,-0.27812162,0.51073086,0.13215712,0.68011874,0.8204275,0.21157162,-0.47093913,-0.20551676,-0.7066512,-0.6076555,-0.2595966,-0.5707282,-0.7374471,-0.17935733,-0.19390713,0.3191192,-0.35719964,0.54017633,-0.11593978,-0.18541616,0.21808788,-0.06253779,0.39635864,-0.27209908,0.07379705,0.017810626,0.36867198,0.2567102,0.51727694,0.40519428,0.28770128,0.7993241,0.11545985,0.19019838,-0.21014598,0.13924724,-0.7100928,-0.29925033,-0.2856589,-0.8383908,-0.10497291,0.077784546,-0.31705397,0.48939538,0.6368439,-0.0008696527,-0.041997097,0.42403454,-0.32299852,-0.46802402,-0.22934456,0.13714,0.2889505,-0.03767939,0.17002562,0.28128767,0.06683601,0.7378385,0.7213464,0.27705362,0.45023638,-0.08272156,-0.22704588,0.09490439,-0.25842538,-0.15900932,-0.5574567,0.06799055,0.012880627,-0.22014904,-0.28879246,0.55912983,0.38352486,0.51573753,-0.10696218,-0.17377079,0.32013577,0.27716482,0.4351158,-0.09355573,0.030526932,-0.44197187,-0.3128626,0.31111842,0.18730378,0.08494233,0.83435464,0.54584336,0.3767469,-0.3685937,-0.42804155,-0.045207165,-0.128945,-0.4301618,-0.14773287,-0.46958566,-0.28568062,0.114772335,0.06449998,0.39607197,0.4792877,0.2668678,-0.26097235,0.20380029,-0.0058937687,0.06245279,0.34332123,-0.3333615,-0.20255747,-0.5010196,0.3618372,0.5117134,0.4195285,0.5079925,0.50166005,-0.12634955,0.3956174,0.19181617,-0.32819948,-0.31908292,0.20134638,0.017435452,-0.07317478,-0.43031812,-0.18658412,0.46806914,0.6325964,0.2021547,0.14031048,-0.17897007,0.16221364,-0.47527343,-0.30357787,-0.4872799,-0.09505753,-0.16567251,0.05644781,0.24745232,-0.14694685,0.59045786,0.6438761,-0.2509526,-0.18096864,0.47319576,0.18997343,-0.22170451,0.19283092,0.05419169,-0.37606758,-0.08433677,0.19687212,0.020507865,0.40635714,-0.07969233,0.023848202,0.10323224,0.47553062,-0.019572694,0.35802427,0.31541,-0.11827231,-0.4675083,0.3574883,-0.5045585,-0.40847322,0.16338007,-0.09042782,-0.33103132,0.1781727,-0.181467,0.22811455,-0.010178487,0.025601525,0.23411894,0.33379227,-0.03734307,-0.33644083,-0.45383587,0.2808594,0.44916585,0.2224472,-0.28696185,0.40149382,-0.065139085,-0.2995924,0.33976275,-0.5075246,-0.41965777,-0.14807406,-0.36471522,0.4483359,-0.19054992,-0.5169214,0.121306956,0.122942716,0.28357583,0.06670943,0.2612044,0.19496615,0.25436532,-0.029696122,-0.124387234,0.65137213,0.17064644,-0.15127416,0.3935769,-0.41048723,-0.40075284,-0.027106501,-0.026753623,-0.2651354,0.046248227,0.18671344,0.43112335,-0.051316027,0.25987783,-0.070108086,-0.009247119,-0.21512927,-0.10363345,0.25954312,-0.069415204,0.017026829,-0.22486627,0.21408962,0.020488834,0.46463957,0.05537162,0.51481175,0.5677877,0.22578795,0.11004867,0.32847583,0.4392455,0.44148138,0.4645551,0.20155838,-0.37732133,0.12346356,-0.45521063,0.38775602,-0.34790957,0.3343168,0.47929037,-0.08637744,0.16641602,0.061851215,-0.345786,0.08179549,0.0033513727,0.25583866,-0.62832856,-0.25790802,-0.026626876,0.20317452,0.34325272,0.1831478,0.57939833,0.038575873,0.4446609,0.5406432,0.09284471,0.3189652,0.2513096,-0.18730125,-0.34501907,0.23100592,0.3524745,-0.3861093,-0.4502179,-0.2068852,-0.4567796,-0.38686925,-0.25091827,0.13070582,0.4495864,-0.05230305,0.048786435,-0.04379019,0.17086075,-0.07867503,-0.33483687,0.062765315,0.24010313,-0.048053246,0.09170479,0.32600328,0.2310927,0.016063016,-0.2905992,-0.19273649,0.061375707,0.23232597,-0.13077235,0.31841382,0.22292507,-0.03729685,0.39345986,0.3952344,0.1601962,0.2576965,-0.35471737,-0.3111019,0.2607627,0.08437324,-0.093516424,-0.026444374,-0.59690267,-0.48218125,0.12079674,0.11787452,-0.33069804,-0.005745782,0.18830034,-0.5624872,-0.36313635,-0.12614633,0.15362045,-0.31751153,0.21054332,0.20532998,0.02380142,-0.11821724,-0.33243373,0.27918577,-0.27299774,-0.073577166,-0.37540796,-0.3969928,-0.24124275,-0.33209562,0.06887002,-0.18627414,-0.38004878,-0.2750331,-0.43655178,-0.4694578,-0.045678377,-0.044878714,-0.30206364,-0.45952803,-0.071241066,0.0400755,0.07573706,-0.014768554,0.2849892,-0.28274256,-0.3688012,0.034833178,0.24664274,-0.40307072,-0.3025806,-0.29281658,-0.07287736,0.43324968,0.17522164,-0.084687755,0.19113745,-0.23925649,-0.2921964,0.42760572,-0.023741227,-0.14327995,0.32243907,0.019232603,0.08169044,0.18833002,-0.007882743,0.023407854,-0.48185855,-0.6346615,-0.31322965,-0.4402573,-0.4190706,-0.39691597,-0.25608927,0.15147923,-0.4387658,0.25459516,0.0039588627,0.11174128,-0.02603433,0.13525857,-0.4209141,-0.19677494,-0.17914198,0.07099946,-0.091883466,-0.4790783,-0.0747698,-0.06389096,0.16148865,0.28152287,-0.3755087,-0.3298352,-0.52731705,-0.5182214,-0.25975832,0.34553793,0.20402734,0.26118362,0.01032902,-0.19507365,-0.3613365,-0.42349404,-0.5162286,0.3623791,-0.222915,0.37676272,0.41528717,0.03094786,-0.46196246,0.48170996,-0.138911,-0.23430489,-0.4167478,-0.07030465,0.39912522,-0.49807832,0.13061425,-0.20089424,0.37210682,0.31615394,0.027714618,-0.063302845,-0.4965644,0.4146803,0.43709883,-0.2439034,0.11173067,-0.3724462,-0.03659543,-0.25706875,0.34232256,0.22448517,-0.2943587,0.30969983,-0.0131716225,-0.36564875,-0.10663538,0.34344614],"bias":-5.4116597},{"weights":[0.18567027,-0.3229789,-0.04820507,-0.29795152,-0.44787353,-0.13754712,-0.36138755,-0.42222494,0.17316605,-0.06541167,0.11611786,0.17768098,-0.48784703,-0.16443859,0.14998521,-0.036549643,0.35401958,-0.2469695,0.4356447,-0.20606278,-0.43371135,0.16978146,0.13059072,-0.32795805,-0.32606918,0.21146752,-0.24372165,0.36236686,-0.46234006,-0.14021443,0.008400119,0.16482605,0.47826946,0.14913966,-0.033866085,0.12012001,-0.3904214,0.2627784,-0.14984815,-0.25397554,0.24331564,0.42970568,0.44175094,0.020719709,0.23397492,-0.21005248,0.2041848,-0.15317374,0.31751344,-0.18533878,-0.13524495,0.09131736,0.14583649,-0.35647684,0.09899785,0.38438183,0.46117574,-0.24024902,0.1184674,0.23827092,0.07765938,0.47285074,-0.20445853,0.22256915,0.07643603,0.41009936,0.37138686,-0.43909448,-0.22733264,-0.211386,0.072821155,-0.37674317,-0.30096945,0.21749689,0.050474633,0.23560205,-0.4836867,-0.030692657,0.3278659,-0.011917223,-0.34977248,0.19683947,0.15560569,0.21340372,-0.3631776,0.4856314,-0.37554598,0.20477493,0.06019476,0.37044325,0.4853546,0.07261466,-0.13552468,-0.04959743,-0.5459208,-0.28678152,-0.36475646,0.15865102,-0.2201103,-0.227558,-0.27479035,0.2939095,0.00090109796,0.034255195,-0.21723852,0.296281,0.19562796,0.2705218,0.20745546,0.17791031,0.34075052,-0.074237324,0.18192817,0.0020332092,-0.115829915,0.31209412,0.012124429,-0.28002352,-0.17196639,-0.5121441,-0.09847123,0.3464633,-0.5241898,0.30548975,-0.25074372,0.035922196,-0.4752584,-0.0681169,-0.4606646,-0.04617529,0.18799803,0.34152007,-0.5385497,0.024467487,0.16534996,0.3073619,0.41707075,-0.11467696,-0.18345125,-0.22674929,-0.31404454,-0.32000488,-0.17570873,-0.22305298,0.02460707,0.051875763,0.07121222,-0.105584346,-0.17661424,-0.6418116,-0.45881593,-0.5236802,-0.52660954,-0.47531965,0.42225116,-0.4892608,-0.49230263,0.0017402894,-0.11477921,-0.4860593,0.17135015,0.40604314,0.25216848,-0.10084754,-0.31204656,0.0010838094,0.25844312,-0.44739342,-0.10957893,-0.3743429,0.062858135,-0.22150287,-0.02544199,0.16894253,-0.4589386,0.2597866,-0.5305655,0.09136667,-0.2849297,-0.2107866,-0.005416174,0.41849172,0.24427739,-0.12769301,-0.25509733,0.07966766,0.31031048,-0.29817072,0.4896332,0.42436633,0.40828183,0.40984032,0.26480544,0.18709145,0.41427705,0.36533725,0.02142271,0.30237737,-0.44639966,0.054339267,-0.10746542,-0.17162299,-0.060061026,-0.45852834,-0.36604655,-0.15765372,-0.52357686,-0.2073571,0.19972183,0.33511412,0.023120863,0.011042201,0.17436601,0.42882925,0.29101682,-0.34701282,0.16662708,0.37741706,-0.23813784,-0.19796798,-0.11619879,0.24984819,-0.46183792,-0.21504872,-0.30014318,0.5020424,0.13637224,-0.4824444,-0.3325566,0.06060381,-0.6262663,-0.46512282,0.049471945,0.19622625,-0.06623641,-0.4794532,0.30801058,-0.036413953,0.30760452,-0.1571626,0.090407506,-0.16558106,0.15395497,-0.3761559,-0.0048866225,-0.04811296,-0.08446497,0.4582887,-0.058322843,0.0314621,-0.259681,0.4581003,0.2564743,-0.031835653,0.44912162,-0.0765893,0.09928677,0.27500919,0.16578476,-0.21436141,-0.017192645,-0.14686862,0.30678612,0.00474321,0.2363361,-0.13750154,-0.30411673,0.03125472,-0.4676306,-0.49922156,-0.3192416,-0.4368446,-0.06905117,-0.006314196,-0.017550088,0.27810684,0.1142324,0.058290087,0.012740576,0.31493098,0.4230236,-0.4863386,0.19156142,0.42235675,-0.38717866,0.27203363,-0.20511246,0.29066882,-0.31459895,-0.1366441,0.55006284,0.36298713,0.02599925,-0.10336231,-0.122340895,0.22491036,-0.47103783,-0.18859985,-0.42221743,0.24398805,-0.29781052,0.00663308,0.0002041602,-0.4287259,-0.07115398,-0.30038986,-0.34616697,0.2482913,0.41781262,0.17827573,-0.4220757,-0.48221663,0.18471375,-0.46030992,-0.061144896,0.21911818,0.53943884,0.21388981,0.5022616,0.19186762,0.4679702,0.52896005,0.1059049,0.3755665,0.33095488,-0.18626782,-0.38520446,-0.1425623,-0.23357388,-0.5252194,0.2572881,0.21814997,-0.056028113,-0.36752844,0.36945254,0.20271185,0.06488924,-0.2617917,0.07033251,-0.09310191,0.24053442,0.38669056,0.40397522,-0.04243784,0.86189765,0.6098147,0.17320776,0.3387354,0.6013488,1.0080385,0.5032822,0.8064948,0.5007849,-0.22936508,0.57956976,0.30950668,-0.046200503,-0.2304826,-0.5931357,-0.12710297,-0.17621411,0.0041337023,0.1186248,0.14409216,0.14103065,0.17597823,-0.29101408,-0.4344538,0.49862772,0.3938209,-0.24516934,0.32629615,0.27843508,0.011756698,0.53160596,-0.18745564,0.24671176,1.1451951,0.8999188,0.53680444,0.42712003,0.23712972,0.35441715,0.49935448,-0.32907382,-0.4040924,-0.36695787,-0.2928622,-0.57387,-0.29686528,-0.4396263,0.23260929,-0.1216112,-0.46367943,-0.3336013,-0.41617566,0.4133795,-0.2735122,0.066521645,0.08351568,-0.34440103,-0.0011865705,0.54129916,0.27751306,-0.11604213,1.0606774,1.0489984,0.56385076,0.31813443,0.40282935,0.39946023,-0.124231145,-0.41902617,0.24318972,-0.14987051,-0.6445956,-0.30066347,0.2748384,0.11411944,0.32961813,-0.4263621,-0.1766374,0.4519523,0.5009072,-0.17104666,-0.47023878,0.2778853,0.22116096,-0.007943091,0.052844565,-0.3338968,0.029557511,0.6116524,0.06781182,0.40059257,-0.31944218,0.43501183,0.0754171,-0.19031198,-0.36181545,-0.45772967,-0.14377362,0.14977226,-0.24955346,-0.369401,-0.26611724,-0.2840587,-0.016345873,-0.13691245,0.26700568,-0.36251983,0.3926579,-0.08782808,-0.29256564,0.14757949,-0.47495925,0.17938493,0.14611153,-0.3486461,0.0140458755,0.5527064,0.50347126,0.5480141,0.15448333,-0.07642766,0.011324674,-0.33853078,0.099819556,0.0665206,-0.5019577,-0.14486784,-0.28745118,-0.20551226,0.2484301,-0.20459236,-0.14956857,0.2770161,0.34334722,0.42872864,-0.015985247,-0.06510795,-0.5174448,-0.01574624,-0.31796154,-0.25157788,-0.5606094,0.19196223,-0.45024383,0.06414166,0.4493162,-0.17715381,0.27292663,0.06686163,0.24906531,-0.5724581,-0.25603038,-0.36371207,-0.077694975,0.22795084,0.005903807,0.10287849,-0.33606708,-0.05900141,-0.010122043,-0.32859868,0.1599451,0.40932176,0.08128385,-0.039957207,-0.050722253,-0.34460136,-0.29221198,-0.34834626,0.2717852,-0.7152312,0.1613354,-0.41689345,-0.009913321,0.32459983,-0.3098374,-0.12027673,-0.017221149,-0.12245814,-0.4510665,0.32028306,-0.15486728,0.10729165,-0.31169474,-0.4796101,0.1843685,-0.16335876,-0.094010405,0.27499396,-0.35263985,0.26778767,0.3650938,-0.41283625,-0.414549,-0.2872921,-0.19416623,-0.3160453,-0.2889127,-0.27371043,-0.27963153,-0.6138883,-0.25912943,-0.43899238,-0.08904518,-0.47388124,-0.21740972,-0.38442922,-0.3163974,-0.3861473,0.062381655,-0.48939928,-0.5405997,0.1898888,0.091620326,0.35262588,-0.044731908,0.21809258,0.103743024,0.36173788,0.29194474,-0.36982602,0.26477954,0.298404,-0.119337454,-0.42710608,0.34774727,-0.022570567,-0.6896567,-0.5849998,-0.44560173,-0.78499717,0.04218845,-0.18155928,0.025780715,0.19685706,0.2972109,-0.022115752,-0.14222266,-0.23930266,-0.55043024,-0.44910884,0.009013033,-0.43107438,0.3684824,-0.15274096,-0.0050481833,0.28857,-0.006999906,0.13761903,0.09821189,-0.21762525,0.14204034,-0.30819362,-0.35772988,-0.011414325,-0.25566012,-0.45325565,-0.09384454,-0.3814409,-0.29847935,-0.6259705,-0.018850027,0.026890626,0.3734956,-0.2811472,0.2874694,0.35909626,0.41175762,-0.27569848,0.2385424,0.26469558,-0.38933688,0.4045687,-0.43859023,-0.14395083,-0.038324725,-0.42701152,-0.4507867,-0.53119963,0.2784799,-0.4244317,-0.0074633528,0.444069,0.030444443,0.30168676,-0.13511755,0.23656835,-0.09506404,0.44816718,-0.031807106,0.018694146,0.075655185,0.057659727,-0.2648518,-0.061560284,-0.15065674,0.23256738,0.39295805,0.22224799,0.42590725,-0.26052445,0.31588095,-0.37765813,0.10930863,-0.22345282,-0.0036413537,0.049678065,-0.18235242,-0.10215631,0.20753513,-0.10911059,-0.17323378,0.32427633,0.2942645,0.14702183,0.3794644,0.39073977,-0.071430005,0.0016492932,0.06501068,0.11704662,0.23990437,0.037454836,0.17939454,0.18094155,-0.40543678,0.36281288,0.0033408827,0.30345875,-0.25658244,0.43765047,-0.049932517,0.32918733,-0.39245802,0.11792385,0.27690104,0.14989977,0.2983375,-0.15279268,0.09101275,0.051402174,-0.5295176,0.25014248,-0.29356214,0.2857038,0.31233642,0.47131315,-0.020789793,0.56445897,0.4593806,0.35154575,0.45858824,-0.020633504,0.18559004,0.39005423,-0.23912399,0.04594271,-0.44140333,0.50360554,0.43967158,0.048538815,0.055689655,0.18359636,0.063286595,-0.12012587,-0.30168027,0.020205224,-0.12975715,-0.39654604,-0.16725555,0.05061962,0.13686281,0.18172136,-0.17741199,0.51584995,0.5822286,-0.13319731,0.03602755,0.00008386665,-0.3655112,0.37388784,0.013072836,0.14476739,0.15075566,-0.26160234,0.057418607,0.41740924,-0.3108347,0.26772568,-0.1429793,0.17602345,-0.40393484,0.053717278,0.41870663,0.19708245,0.28253406,-0.03942123,-0.16267693,0.27441213,0.3436584,-0.36170483,0.20487031,-0.18742834,0.42913038,0.355878,-0.3683787,0.43898517,0.26622668,0.21813883,0.043191865,-0.33562213,0.46754187,-0.43712085,0.17662407,0.3252682,-0.18311785,-0.43970007,-0.3683987,-0.27143246,0.05088467,-0.35354894,-0.109470345,-0.15892898,0.46017587,-0.11179559,-0.16700554,0.3353627,0.26323688,0.18084387,-0.016892739,-0.2576127,0.34879106,-0.014727906,-0.3970495,0.23054965,0.16371383,0.050305627,-0.37032145,0.36842066,0.10765698],"bias":-4.0112424},{"weights":[0.34501982,0.061231658,0.27631032,-0.2700404,-0.17759262,-0.095581256,-0.024467336,0.4409957,-0.22521912,0.27102792,-0.04860031,0.4274416,0.26334488,0.24007127,0.006934897,-0.41678602,0.47517776,0.18572618,-0.079673775,0.07843987,-0.20120727,-0.010615771,-0.23091482,0.38775456,-0.25747472,0.19052376,0.14012386,-0.40936422,-0.4733199,0.43407476,-0.11929854,-0.36451077,0.19852754,0.3345419,-0.46865842,-0.34148303,-0.21303056,-0.3975554,-0.018417712,0.043851916,0.06981372,-0.10057622,-0.12236013,-0.022995904,-0.26994243,0.45264772,-0.32372022,0.37654275,-0.30770522,0.088312864,0.20009477,-0.3291417,-0.43796265,-0.109023534,0.3409803,-0.2889465,0.28826427,-0.455256,0.049465813,0.10813608,-0.30747056,0.19924729,-0.419257,0.38294128,-0.23718032,0.25457627,-0.5086311,-0.31736585,-0.21670814,-0.30295008,-0.31698027,-0.47837135,0.08929988,0.09413672,-0.0075233416,0.36527407,-0.16313413,-0.037246656,0.45512256,-0.12340945,0.0025853405,-0.12044879,0.027782382,-0.2263851,-0.024121357,-0.08309766,0.36781022,-0.2532202,0.22104481,-0.41831204,0.045165014,0.01942859,0.2898116,-0.2798442,-0.3692454,0.17720671,0.08574138,-0.32608247,0.35654336,-0.006931091,-0.43982548,-0.4219357,-0.55425966,-0.48074043,0.1146509,0.20315893,-0.2808932,0.29428127,0.34497917,0.24938013,0.14557303,0.32242644,-0.26056045,0.45081145,-0.0786197,-0.17548262,-0.013158706,0.28142434,0.19481039,0.34793165,0.2168614,-0.24815165,-0.20458454,0.18826762,0.3430619,-0.5493766,-0.1378575,0.17152779,-0.25880116,-0.26874733,-0.27755094,-0.2484322,-0.43494374,-0.20743743,0.21747437,0.08691561,-0.20264702,0.44434986,0.094917536,-0.12725638,0.075916566,0.21253802,-0.2446399,0.28970012,-0.08497606,0.10487561,0.3437838,-0.2622337,-0.07363975,0.15218596,0.40443772,-0.4343683,0.41896123,-0.24779558,0.31659162,-0.10865256,0.010573114,0.32024068,0.26738414,0.42911333,0.08610965,-0.27677456,0.58250165,0.017928122,0.47530946,-0.026451357,-0.09910073,0.094228335,-0.306782,0.31111932,-0.12543103,-0.18805182,0.108318746,-0.14963888,0.11601249,-0.33424127,-0.07486815,0.09519072,-0.47341388,-0.42930162,-0.06191651,-0.31345403,0.19049099,0.057871506,-0.11719449,-0.24275602,0.3784086,0.10745542,0.22507672,0.17604473,0.5766,0.55499613,0.4852938,0.45698094,-0.15747508,-0.08854885,-0.13184981,0.3197614,-0.09348971,0.08410648,0.15239976,0.46005508,0.34849668,0.43318668,0.2587715,0.13352206,0.31273133,0.32763338,0.1434974,-0.48628843,0.26750624,0.1871392,-0.5440837,0.24287763,0.32924908,0.4673962,0.4388093,0.4675091,0.38263053,0.43554068,0.5276063,-0.11690178,-0.25303325,0.19604881,-0.24941696,-0.34920967,0.27627787,0.10013003,-0.35004625,-0.45604762,0.3916406,0.17958163,0.06529759,0.19410463,0.40099254,0.084178835,0.24108697,0.2951302,-0.13294417,-0.4023005,-0.1579828,0.39693105,0.27453747,0.20879604,-0.018087897,0.42039472,-0.15767449,-0.18752457,-0.16391242,0.09000578,-0.37128976,-0.42889935,-0.4301977,0.2806767,0.46764612,-0.28922388,0.23239914,-0.40080485,-0.3922894,0.12035154,-0.029839378,0.54389715,-0.30503476,0.22015542,0.11660115,0.2954946,0.09181322,0.42093176,0.25176662,0.5019187,-0.06784853,-0.24903746,0.43913352,0.43914762,0.1493579,0.6052067,-0.2308612,0.5341439,-0.270819,0.3652996,-0.33601996,-0.014945445,0.13215098,0.4303947,0.107139476,0.07948102,-0.18085118,0.28777486,0.5047462,-0.22758737,-0.23106818,0.11726815,0.11026587,0.30543384,0.1621437,0.51357865,-0.1982669,0.03479234,-0.45533383,0.3050626,-0.124456376,0.08442733,0.3531423,0.48547024,0.38082975,-0.28275213,-0.2878432,-0.12115942,0.06825251,0.22729905,-0.4272458,0.21266069,-0.41551772,-0.4245404,0.25087777,-0.39378867,0.122541085,0.016125305,-0.122518845,0.2185465,0.474171,-0.22430062,0.07754336,-0.2639423,-0.4700368,0.1896481,-0.6051046,-0.34041175,-0.24766989,-0.18466485,-0.22123364,0.51821214,-0.25258195,-0.32461098,-0.48482534,-0.14742708,-0.27526146,0.41321024,-0.04021087,0.42182648,0.2370231,0.44671077,-0.39318436,0.39279726,-0.18578543,0.35990876,0.36988878,0.23637097,-0.25084206,0.08564212,-0.45801297,0.04066091,-0.3602858,-0.18137713,-0.87045276,0.09158082,-0.59613127,0.13250929,-0.27174708,0.16319522,-0.27767408,0.025360556,-0.20687246,0.12145747,-0.13753457,0.24013546,0.26418483,0.46383092,-0.12130852,-0.36816156,0.23236823,-0.36774352,0.04960925,-0.3957896,-0.07162656,0.31044066,0.22266142,-0.20313299,-0.07779511,-0.63896865,-0.3735699,-0.2002228,-0.18498681,-0.33248705,-0.7064758,0.26560593,-0.06780102,0.24706042,-0.28432205,0.15007155,-0.20261241,0.043653212,0.30656838,-0.44215748,0.46346468,0.23400693,0.11811875,0.25129312,-0.21412946,-0.28391442,0.07800861,0.2823199,-0.046881307,-0.38306898,-0.57923025,-0.077001795,-0.18544783,-0.85414076,-0.78449506,-0.62900245,-0.013590433,-0.2087439,-0.57184356,0.039970558,0.48089167,-0.08266167,-0.43327183,-0.34634638,0.15799485,-0.35896066,0.37809908,0.2634102,-0.47103983,0.0013717777,-0.0209439,-0.35117903,-0.3757711,0.22558402,0.0075219646,0.20034279,-0.17542735,-0.6074821,-0.06327931,-0.28167364,-0.50781554,-0.56592816,0.084406205,-0.31544957,-0.27693704,-0.07102098,-0.14799258,-0.22192891,-0.031751685,0.17144987,-0.33107328,-0.38825285,0.42398027,0.41120178,-0.32045364,-0.43406644,-0.49031743,0.36800164,0.51012766,0.10939706,0.12303335,0.32120836,-0.1243722,-0.37307382,-0.17956078,-0.5565051,-0.6613467,-0.392684,-0.05559389,-0.53678066,-0.45311174,-0.52518594,0.3524421,0.0933111,0.21054694,-0.10081178,-0.37180188,-0.112851195,-0.14185643,0.4498854,-0.17563802,0.17397526,-0.29975593,0.067282595,-0.3239003,-0.3423753,-0.1487989,-0.33118162,0.28485003,-0.27606165,-0.13651365,-0.3402112,-0.25285453,-0.18478584,-0.589306,-0.39347532,0.1246605,-0.31348515,0.23027529,-0.3943409,-0.05635068,0.16142192,-0.20595677,0.31356043,0.46281806,-0.022470865,0.39658713,0.3958635,-0.116006225,-0.19070856,-0.44734055,0.17827839,-0.49207357,0.4358103,0.055857945,-0.16224779,-0.019686164,0.2086625,0.053633627,-0.2831826,-0.19494474,0.0027788829,-0.20512113,0.0119900545,-0.53321713,0.2020052,0.20625365,0.10033667,0.22162072,-0.4585563,-0.08294346,-0.024278,-0.2166834,-0.36177716,-0.45338404,-0.031759996,-0.47340864,0.12254686,0.2597865,-0.40062618,-0.18874264,0.3787061,-0.27355677,-0.29994926,0.1580787,0.7463634,0.10658426,0.13834198,-0.38329762,0.2995899,0.21406192,-0.13641986,-0.3898299,-0.36295614,0.10599985,-0.44757205,0.41805875,0.21610773,0.082725525,0.42238933,0.44468564,0.37818554,-0.36180946,0.16727528,-0.48371297,-0.4067411,-0.1296206,0.18266885,0.4045526,-0.12301001,0.44864702,-0.25089547,-0.14493011,0.0069359853,0.5644559,-0.09066254,-0.03498719,-0.043950778,-0.44579083,0.2913436,-0.18994613,0.10012076,0.16030431,-0.5565988,0.16345267,0.13865505,0.22408487,0.32563558,-0.19223593,-0.08011892,-0.3334548,0.3699591,-0.2851866,-0.4046899,0.21970104,0.2608624,0.09271295,0.23270851,0.07872514,0.08988533,0.36713356,0.69160163,0.24057622,0.19845247,0.52392924,0.26097947,0.12877817,0.11328513,0.01629659,0.19421141,0.33599904,-0.20847069,0.094140984,0.23751706,0.31453168,0.1799748,0.24290118,-0.4318474,-0.0054630414,-0.026052985,-0.38234428,0.10896253,-0.43408638,0.2697183,-0.43436518,0.36117658,-0.14852294,0.17828242,0.47832128,-0.04131121,0.30258107,0.29700932,-0.21583916,0.45752984,0.666011,0.008685841,0.02706914,0.27399948,-0.22485186,0.6098099,-0.18948248,-0.03303722,0.36261058,0.1015894,0.43583518,-0.22820213,0.04372943,-0.41737878,-0.37033918,-0.2835645,-0.013638196,-0.23608361,0.21375214,-0.14490686,-0.2901449,-0.36446252,0.42417526,0.48701227,0.1386943,0.38482177,0.23153634,0.5562576,-0.12831925,0.7071332,0.62946194,0.09158876,-0.10864835,0.25252867,-0.31703594,-0.11443961,0.12781033,0.34223628,-0.10257804,-0.32199788,0.2265127,-0.09441089,-0.1346139,-0.049052484,0.04028771,-0.15064643,-0.14876357,-0.43318495,0.05270763,-0.45250717,-0.32640922,0.3638186,0.2933851,-0.2548856,0.15842155,-0.090734914,-0.11634277,-0.016861463,0.34931475,-0.14375265,-0.25592372,-0.04133612,-0.047030132,0.16844895,-0.29956096,0.24424846,-0.17646933,0.29787725,-0.32435,-0.0009785015,0.2763762,-0.2175089,-0.45023632,-0.24479972,-0.11626565,0.110141166,0.15693195,-0.16925283,0.2001361,0.38630682,-0.19322725,-0.33805317,-0.12857556,0.35768607,-0.53976697,-0.03864513,0.1603805,0.035027802,-0.34640178,-0.2468751,0.25282165,-0.31815556,-0.19396877,0.4101858,-0.43122786,0.12335294,-0.43482906,0.34536034,0.2530549,-0.21989416,0.45401847,-0.012337049,-0.45426834,-0.023246503,0.40056655,0.42043895,0.18726714,-0.27504885,-0.41938832,0.105477594,-0.5092327,-0.35845158,-0.12021815,0.18486914,-0.2095657,-0.16899766,0.3885304,0.38684157,-0.5208436,0.42187437,-0.5173731,-0.022603638,-0.3199351,-0.27458206,-0.49458867,0.052474402,-0.062595636,0.34575093,-0.1855173,-0.025804805,-0.17476712,-0.110823475,-0.38402987,-0.15707958,-0.020730713,0.16569525,0.37820098,-0.32060808,0.35893753,-0.12998347,-0.20875002,-0.45524743,0.18660964,-0.04864189,0.4705466,0.20441325,0.44436193,-0.3462021,0.3029823,0.16465372,-0.15627545,-0.08877711,-0.2864046,0.325853,0.17491974,0.4733249],"bias":-2.3208187},{"weights":[-0.39660317,-0.32759863,-0.23421466,0.30416304,-0.18092418,0.35550076,-0.1465804,-0.28206992,-0.53079015,-0.31489068,-0.20765352,-0.3023942,-0.35959667,0.35640514,0.43302882,0.36419517,-0.03584846,-0.5217739,0.15168929,0.40213472,-0.08225733,0.39183158,-0.5020757,0.33755487,0.4264124,-0.4496016,-0.16236034,-0.025955176,0.45931333,-0.50195146,0.36711985,0.29459172,0.105222754,0.12727626,0.4587584,-0.3761414,0.017707067,0.33970225,0.36997908,0.28717914,0.36882192,-0.3076556,-0.09002196,-0.33899722,0.10194266,0.18652245,-0.4361544,-0.085024066,-0.08832736,-0.15655532,0.16719672,-0.2578099,-0.26800054,-0.087889105,-0.21831918,-0.42750055,0.24131444,-0.36068374,0.0899002,-0.5178061,-0.04042612,-0.092827946,-0.13693453,-0.37468752,0.093917094,-0.46026117,-0.24488923,-0.3520149,-0.49888527,-0.51455694,-0.4498048,0.10738558,-0.29644695,0.12907897,-0.27486053,0.17982946,-0.15588167,-0.14964285,-0.15418893,0.10763864,0.4216241,0.20640865,0.4294607,-0.078638434,-0.121241495,-0.0081087835,-0.041718148,0.100254245,0.2926296,0.23385176,-0.21285309,-0.2371359,0.18657494,-0.042065352,-0.070181325,0.5051251,-0.0066783316,-0.28553647,0.3447906,-0.27477917,0.09045341,-0.081802204,-0.43516225,0.26715496,0.3066144,0.36256304,-0.08618701,0.056340322,-0.49834287,0.18988945,-0.30091113,0.23759806,0.27728015,-0.26580745,-0.16651684,0.29041287,-0.081474476,-0.3055735,0.086516276,-0.18655212,-0.4186795,0.14619449,-0.38446552,0.17939666,0.14094448,-0.26964512,-0.03888832,0.31065708,0.2616938,-0.1333359,0.16440238,-0.14903156,0.08628322,-0.6337755,-0.020748828,0.2597475,0.14318974,-0.21020515,0.30219585,0.092074305,0.28301233,-0.28555226,0.25200045,0.2280184,0.005542238,-0.1326876,-0.29373223,-0.016139865,-0.0497913,-0.056612354,0.60124123,0.14422771,0.6140718,-0.20444891,0.010404937,0.10457894,-0.5035477,-0.13629104,0.008358879,-0.05506547,-0.5447757,-0.30431917,0.099505946,-0.5903452,0.1866166,-0.089381896,0.19038412,0.003645596,0.013527228,0.023896167,0.32535225,-0.45187277,-0.38972822,0.41798165,-0.3108267,-0.07556701,0.3319499,0.70592046,0.54673356,-0.015209623,0.27729115,0.25815564,0.44235718,0.06662114,0.5959488,-0.07246319,-0.51253295,-0.08239479,-0.048175525,-0.34634185,-0.7513824,-0.13945566,0.027840346,0.0007602331,-0.2336747,-0.12122474,-0.42212588,-0.23797521,-0.35427606,-0.07672405,-0.4103357,0.5782643,-0.2497216,-0.14285216,0.064970315,-0.26575145,-0.081265606,0.6242167,0.47227857,0.5371717,0.15026473,0.4484843,-0.055141043,0.58966047,0.05771808,0.27173865,-0.18423915,-0.22064325,0.18412402,-0.26400396,0.12208635,-0.46477932,-0.28874496,-0.013491135,-0.2623315,0.27311316,-0.20074694,0.5136733,0.43515384,-0.045686748,-0.08832769,0.3169737,0.38079363,-0.2078121,-0.006867219,0.267453,0.029530957,0.058147788,0.8429627,0.50005364,0.46489832,0.5750666,0.25086215,0.45262098,0.34413594,0.14057767,0.42724955,-0.15861471,-0.43084982,0.37452248,0.36285588,0.46155208,0.10874721,0.39266056,-0.40497234,-0.33045873,-0.19210355,0.072794385,0.58877796,-0.052091062,0.23268428,-0.31219792,-0.49400222,0.09558457,-0.27533156,0.30348527,0.63843554,0.7126835,0.4560548,0.36713773,0.56948376,0.19046776,0.072534,-0.1816289,0.037988774,-0.34012988,-0.37593174,-0.014815026,-0.06892906,-0.2556052,-0.14440721,0.2266367,-0.08502921,-0.009951273,-0.3378478,-0.3220536,-0.15045626,-0.47218463,-0.611474,-0.12047441,0.045006044,-0.51082754,-0.34127653,-0.19011408,0.3409967,0.5453576,0.1896317,0.18290375,0.49005005,0.52127063,0.5058474,0.025989924,0.40825382,-0.17998032,0.27392682,0.26211464,-0.26820478,-0.50911236,0.35926297,-0.14061993,-0.14652719,-0.43732113,0.38184088,0.052364178,0.011048666,-0.32370773,0.009250575,-0.34757438,-0.43950388,0.050987884,-0.11617526,0.108294144,0.11215835,0.0059841746,0.23645811,0.7531539,0.45229435,0.42233735,-0.24708979,-0.102759175,-0.20649861,0.23769885,0.20257685,0.039247565,-0.20362926,0.14605193,-0.09005521,-0.09405781,0.06311439,0.20667738,0.12657803,0.21332479,-0.42098683,-0.29471,-0.5639834,-0.26565334,-0.7914404,0.042923167,-0.12879112,0.0395551,-0.5955234,0.054922286,0.22429729,-0.15772402,-0.068574816,0.30946225,0.4177163,-0.25057417,0.065798484,0.29916015,0.421806,0.28586128,-0.033382736,0.27360782,-0.27397087,0.071830526,0.11152285,-0.34701625,-0.1605231,-0.30672324,-0.14148614,0.02545137,-0.044020567,-0.008109183,-0.19678906,-0.408368,-0.1547567,-0.27391037,-0.8017101,-0.5445446,0.065104425,0.05642826,-0.2370831,-0.23253256,-0.14110722,0.04790659,-0.22149436,0.3836926,-0.4460918,-0.078169696,0.30814436,0.42003423,-0.50392014,-0.10556726,-0.010980997,-0.51450783,0.33874455,0.020486532,-0.09720325,0.029164255,-0.30588537,0.17820993,0.16895652,-0.5614625,0.09126501,-0.8728848,-0.50407124,-0.14778507,0.45770735,0.53385144,0.30878073,0.3392597,-0.26116812,0.116158195,0.4980364,-0.25296092,0.451059,-0.118076384,0.30465385,-0.22091156,-0.19549441,-0.38180894,-0.529439,-0.07731652,0.15903172,0.29195207,0.16605383,0.06319123,-0.67129636,-0.2942417,-0.42375395,-0.19732894,-0.10131229,-0.7961304,-0.1151164,-0.6073603,-0.14190194,-0.0987086,0.1014633,-0.17522824,0.6771109,0.034723144,0.099999346,-0.38093853,-0.46633694,-0.2576443,0.3374196,-0.092793636,0.28226584,0.4206281,0.39404333,-0.0017438983,-0.45452157,-0.00970222,-0.19723326,-0.3439346,-0.5770428,-0.15702787,-0.52867305,-0.09993899,-0.8646106,-0.7616338,-0.79367304,-0.27978384,0.2120191,-0.2587341,0.27750418,-0.091523424,0.17395726,0.35180646,0.24685587,-0.12739496,-0.23015505,-0.38836673,0.04227048,0.109959915,0.3127126,0.12909618,-0.09418989,-0.1900489,-0.36804503,-0.25003326,-0.19519341,0.28915262,-0.19723836,-0.6084151,-0.01637988,-0.62249833,-0.9804744,-1.0346606,-0.69824183,-0.24358754,0.38793042,0.4832095,0.53721744,0.68610406,0.39005986,0.32718033,0.41696605,0.23006986,0.016725186,-0.21599215,0.0416046,-0.42925453,0.113346875,0.44455963,-0.41347823,0.48703036,-0.3101136,0.4702907,0.21326277,-0.4000738,-0.43843147,-0.8135434,-0.2809632,-0.64726156,-0.37423745,-0.30065,-0.36573523,0.3256682,0.042637765,0.02952156,0.50547,-0.06615857,0.56996346,0.18935594,0.0796303,0.0122598475,0.33400655,-0.08326164,-0.38640895,0.40879163,0.3636616,-0.37692326,-0.2795277,-0.36438927,0.18440837,0.032288384,0.5121207,0.029912625,0.2409932,0.26559165,-0.21788582,-0.6253239,-0.7810319,0.21311465,-0.33265683,-0.2621985,0.007844379,-0.25688168,0.47768652,0.42019948,-0.14751062,-0.12804934,-0.35190773,-0.071300805,0.25936365,0.43289396,0.029519089,0.29833907,0.08280116,0.13039538,0.17912164,-0.1609131,-0.0053155296,0.41863576,0.5079814,-0.2069276,-0.26018372,-0.16806325,0.21162683,-0.048747856,-0.28039834,0.30211326,-0.1555152,0.16496794,0.10966159,-0.012325687,0.29701394,-0.22030424,0.24738863,0.34667674,-0.15909682,-0.20533875,-0.20240535,0.34185,-0.09927085,-0.16251782,-0.20251335,0.053086914,0.2339316,0.33215412,-0.29274803,-0.10425143,0.49714166,0.41766083,0.043915197,0.29316545,-0.029654754,0.025165552,0.17770742,-0.1683191,-0.3107214,-0.25037318,0.39370027,-0.28745103,-0.20708597,-0.5291835,-0.09136961,-0.069997035,-0.2714319,0.31716305,0.14946158,0.24050993,-0.3329517,0.2890315,0.1253898,-0.0385314,0.37061644,0.011369716,0.5899756,0.6377546,0.4028823,-0.15290229,-0.16878779,0.25306785,0.14453061,0.006420436,0.2733425,0.49982113,-0.34103793,0.40918645,-0.12698033,0.09342987,0.038785134,-0.3826264,0.22431822,-0.4121805,-0.32806584,-0.03252835,0.35367498,-0.011358734,-0.05288834,-0.15242428,0.18663573,0.26876706,0.39485767,0.0933193,-0.4307436,-0.3977793,0.2362683,-0.10913061,0.3781512,-0.3370483,0.18776846,0.19830675,0.46146926,-0.081585735,-0.36924395,-0.26362485,0.18704706,0.042108234,-0.27194408,0.1435764,0.06276723,-0.23794912,-0.55914605,-0.47157663,-0.30333072,-0.46379802,0.42822513,0.35199517,-0.21200752,-0.037579603,0.33238587,0.20040275,0.24993514,0.42407712,0.11127734,0.16119316,0.43859136,0.13046548,0.53271604,0.2549788,0.61467147,-0.13031049,0.07932048,0.3999904,-0.4396769,0.29122615,-0.3374436,-0.16491671,-0.10633195,0.16685863,-0.035515156,-0.43696186,0.2826885,0.44450116,0.3236405,-0.2909451,-0.31414062,-0.15166664,-0.27637827,0.32783744,0.38097027,0.0087852,-0.41327247,0.51298493,-0.2850206,0.57029444,0.3628469,0.6198679,-0.13097285,0.57646817,0.5316865,0.6382619,-0.28171226,-0.048183896,0.0201883,0.047576144,-0.47656697,0.4190606,0.25425303,0.12801886,-0.05184211,-0.32294205,-0.48188978,-0.42518526,-0.027034132,-0.50987405,0.21913418,0.4212709,0.30693918,0.17288922,0.0012058321,0.27697623,-0.013219229,0.4194253,-0.38420025,0.3476422,0.0072877756,0.4142738,0.4400479,0.21922585,0.13407028,0.33699876,0.26309308,-0.07410552,0.12013134,-0.28945717,0.061943695,0.20130916,0.1388156,-0.2507722,-0.37107855,-0.22498918,-0.49246985,-0.3799669,0.18157935,-0.31167203,-0.22854948,-0.31310582,-0.20383573,-0.1377875,0.014774039,0.3720007,-0.24541861,-0.5228753,-0.44180068,-0.2514072,0.43021595,0.11257567,-0.3301488,-0.11876522,-0.12828596,-0.33857715,-0.15936954,0.10192835,0.28463325,-0.526332,0.4300378,0.32476896,-0.20936024,-0.1372585],"bias":-5.182456},{"weights":[-0.19944282,-0.28587317,-0.43422866,-0.18775637,-0.22439094,-0.42336345,0.4542532,-0.26979792,-0.26305676,-0.3273301,-0.3301754,0.27776492,-0.17807136,-0.42600173,0.31622517,0.2158802,-0.33935988,-0.114408605,0.46959043,0.14606075,0.20190339,-0.30284417,0.4288417,-0.2306828,0.29819965,-0.059500832,0.15859358,-0.4986353,-0.003601348,-0.20391674,-0.16200788,0.11746899,-0.368834,-0.045789916,0.48012713,-0.50535333,-0.47891605,0.3267837,-0.109386474,-0.4709379,0.055394683,-0.18179394,0.22100791,0.10247528,0.032379277,0.015965965,-0.46620265,0.13673946,-0.036082115,-0.39985266,0.12964986,-0.35272324,0.046847273,0.102666266,-0.056708116,-0.46988463,-0.46605504,-0.08261835,0.45660862,-0.09767278,-0.3294844,-0.080018155,-0.45929882,0.117016256,0.33658573,0.35506245,0.30212575,0.15880698,0.4066241,0.013271787,-0.49089783,-0.093037196,-0.2389858,0.22683935,-0.19982827,-0.27024242,0.4365933,0.45253593,0.34479457,0.39554888,-0.46342635,-0.14505707,0.41059434,-0.050270114,0.02212228,-0.4302112,-0.022702517,0.48181766,0.4022491,0.103677146,-0.06432779,-0.33027005,-0.12240004,0.11709496,0.35445386,0.045135614,-0.14080884,-0.350631,0.08326684,-0.41465324,-0.2890227,0.10861205,0.29271084,0.33143377,-0.27635935,0.36418977,-0.2248565,0.41503972,-0.16938767,0.31129327,-0.09514763,-0.21373172,0.102182396,-0.09842735,-0.18644641,-0.00071327906,0.07230558,0.21069968,-0.15129326,-0.086165436,-0.13475636,0.39935747,-0.19955595,0.2694978,-0.344557,-0.22005554,0.2777324,-0.025471978,-0.2893192,0.28151038,-0.07010888,-0.12613818,-0.14814925,0.11549387,-0.27682948,0.07671568,-0.0861095,0.40363133,-0.08507983,0.35703313,0.023575598,-0.17643364,-0.412774,-0.34676316,-0.47413275,-0.4525907,0.10260204,0.32122922,0.11456672,0.15742864,0.008917597,-0.046940785,0.02164867,-0.27027732,0.39260176,-0.056967746,0.31434813,0.16371654,-0.023757705,-0.14424372,-0.42183372,-0.10891468,-0.38687646,0.2748158,0.14537533,-0.25855187,-0.2523815,-0.51369977,-0.29454982,0.22319213,0.41268492,0.19153725,-0.49398208,-0.2655546,-0.3720212,-0.28763032,-0.486018,-0.23617987,0.0794334,0.2791145,0.11073657,0.5079159,0.6485236,0.41522017,0.65559644,-0.15420839,-0.12695561,0.53819,0.023161795,-0.40067104,-0.33943757,-0.12296492,-0.19908628,-0.003277593,-0.3704318,-0.032642283,0.43334723,-0.083228536,0.28437984,0.32397285,0.27153185,0.056523025,-0.46922353,0.18833005,-0.47006997,-0.37096795,-0.083393395,0.33327317,0.013053301,-0.08294088,0.7132339,0.62002623,0.76248354,0.564283,0.60365295,0.27718288,-0.002863917,0.17384392,0.31889778,-0.15483947,0.37701657,0.21555571,-0.15508193,0.1571189,-0.22043179,0.29625684,-0.27125,0.26308033,-0.38717693,0.23365405,0.00030724978,0.079738446,0.18248092,0.07633694,0.34719908,0.23901866,0.59506255,0.53498024,-0.15328695,0.4409786,0.46295047,0.38048637,-0.21974808,0.3600177,-0.28373078,-0.18097526,-0.35337228,-0.08850473,-0.33183387,0.44434252,-0.41741985,0.06310979,-0.4199243,0.16591677,0.0626579,-0.20776613,0.314422,-0.4946884,-0.42695612,-0.40653566,0.23377421,0.11218655,0.12686121,0.4974607,0.3415361,0.4004646,-0.00028525165,0.036611047,0.35843483,0.44500172,-0.1613247,0.3780151,0.50687724,0.036203586,-0.37973374,0.53183323,0.42854345,-0.25845927,0.29036444,0.37011838,-0.4323243,-0.5108553,0.3904369,0.29869905,-0.24862176,-0.14240025,0.41541302,0.3917272,0.09690514,0.14136636,0.18450607,-0.33301204,0.17733063,-0.02336438,-0.5995438,-0.16047326,-0.25330794,-0.14248954,-0.34578362,0.24862209,0.43177116,0.5635428,-0.13004744,-0.2591981,0.2631555,-0.3685963,0.22288579,-0.42583817,-0.20139986,0.4072678,-0.087179236,0.0190689,0.23388834,-0.012693986,0.36096498,-0.27364776,0.36425146,0.34309015,-0.22851914,-0.06319207,-0.49618825,-0.23126459,-0.096512526,-0.041906096,-0.6304852,-0.042474583,0.2745679,-0.10746183,0.2684029,-0.024930274,0.7059851,0.19939964,0.2553281,-0.49962947,-0.43726248,0.07076488,0.18440054,0.4007769,-0.09425407,0.24398716,-0.090933144,0.26605758,-0.4095022,-0.18676881,-0.30646074,0.11582031,-0.5207232,0.13848266,-0.7743295,-0.31457412,-0.85247904,0.15856719,-0.4452119,-0.0652752,0.25118917,0.1964369,-0.19005907,-0.2445839,0.40772,0.2892,-0.30395606,-0.02209871,0.16108885,-0.5026529,-0.23248495,-0.27704763,-0.35862356,-0.17275885,-0.25711092,0.0061165323,0.095578335,-0.06562671,0.22917041,0.21067478,0.14760134,-0.7178128,-0.0060386434,0.15885144,0.15687837,-0.40123057,-0.31559834,-0.14494766,0.35217914,-0.37323776,0.19579014,0.018062748,-0.2732787,-0.27426353,0.11506204,-0.38468286,-0.44722947,-0.25207958,0.22267477,-0.505278,-0.27272293,-0.1204821,-0.11184045,0.34812364,-0.41219187,0.20714098,0.124775216,0.18978243,0.0013853349,-0.058798015,0.081987165,-0.5375001,-0.4864353,-0.5598968,-0.61331755,-0.5138731,-0.36937276,-0.6139433,-0.32613337,0.112399414,0.21618456,0.19339642,-0.018093837,-0.3887663,-0.023795057,0.41997063,-0.28951514,0.040893894,0.2929982,-0.09225592,0.15110812,0.43231106,0.45893374,-0.42139813,0.26386467,-0.17713806,-0.050471503,-0.21544129,0.27654183,0.18534394,-0.010193011,-0.0653702,0.0020760363,-0.60415435,0.17243488,-0.35248607,-0.5064085,-0.0050074705,-0.45249313,0.22501655,0.12319956,-0.24240243,-0.02056116,0.2763607,0.16576926,-0.26743978,-0.016304487,0.27284145,-0.17274335,0.4079163,-0.35757467,0.23703033,0.31601644,0.12073514,0.27002332,0.432734,0.45910382,-0.411057,-0.32829654,0.03529039,-0.11213243,0.19260222,-0.34770945,-0.088065386,-0.13280062,-0.6180884,0.04223451,0.0018308446,0.36626402,0.07441367,0.2788252,-0.23176567,0.45650494,0.37980306,-0.018460298,-0.31472802,-0.14171821,0.56104946,0.47198984,0.07628693,0.17879888,-0.027443996,0.46795654,0.32941788,0.16053933,-0.18085036,0.34288484,0.28059307,-0.02395809,-0.11249926,-0.089908846,0.19493961,0.08649585,0.24636933,0.2155075,-0.14943434,0.27945337,0.47334614,0.34147617,-0.31839257,-0.34922904,0.14010458,0.31774735,-0.2705137,0.45722887,0.51439327,0.08304316,-0.046806622,0.13591588,-0.26094976,-0.004382377,-0.013266205,-0.32529092,0.08882775,-0.22310354,-0.33045644,-0.31931633,-0.36453986,-0.2841531,0.036883138,-0.08193646,-0.18855755,0.29745832,0.23259205,-0.10440323,-0.44055128,0.04501789,0.08013954,-0.20808263,0.18705116,-0.10492344,-0.1024435,-0.31674248,0.3646874,0.6381541,-0.1615625,0.20863855,0.56946325,0.31996194,-0.0053627766,0.18287466,0.04081565,0.07356641,-0.079914495,0.29150617,-0.23934443,-0.13489442,0.19558688,0.28155467,-0.36250514,-0.047255702,0.32087898,0.5263428,-0.4705031,-0.35170096,-0.022497062,-0.281664,0.42208743,-0.35979602,-0.13829814,-0.2867586,0.18247189,-0.023000635,-0.03172399,0.4853678,-0.1520799,0.021358797,-0.16589598,-0.027516438,0.2532298,-0.35628307,-0.07596038,-0.6150032,-0.1798995,-0.5297366,0.14220302,0.22199379,-0.15210837,0.24691492,0.3028367,0.48834574,-0.12657273,-0.4014907,0.39534056,0.32885996,-0.03566261,-0.38638824,0.19912353,-0.024074674,0.11179351,-0.002567961,0.04562023,0.27284408,-0.4689293,0.34162655,-0.11581829,-0.12301599,-0.48900396,0.1349757,-0.38989937,0.061568946,-0.21607992,-0.23152076,0.37641904,0.23431413,0.16189483,0.43200177,0.24972574,0.43355566,-0.1368355,-0.06336268,-0.34228957,-0.21004413,0.46624535,-0.22385389,-0.47032833,0.017700695,0.38258666,0.18858127,-0.11383865,0.27639893,0.31766212,-0.2822368,0.15968756,-0.29075104,-0.41424647,-0.04019079,-0.08835328,-0.42669088,-0.31234202,-0.2954912,0.353028,-0.28364077,0.032467395,-0.13778919,0.3802603,-0.27657023,-0.48058197,-0.47004524,-0.4958074,-0.39688694,0.2613988,0.37487373,0.13216321,-0.49209106,-0.31632966,-0.05653201,0.21602163,0.17463644,0.35902646,0.03384352,-0.17351551,0.40137464,-0.15683015,0.30729163,-0.34281474,-0.41721842,0.14669576,0.122190796,0.10429234,-0.074505344,-0.06348686,0.35316187,0.35514793,0.39905897,-0.20060603,-0.46345213,-0.10520255,0.42838907,-0.49938732,-0.1218848,0.36997172,-0.4567018,0.027171437,0.09025636,0.32532385,-0.2830902,0.33030155,-0.26100242,-0.43450698,-0.01814345,-0.14487006,-0.1555735,0.3228661,-0.42229626,0.49344262,0.28748998,-0.017449737,-0.13204606,-0.4340783,0.036777638,0.24220204,0.34999812,-0.32919568,0.28193328,-0.41903603,-0.118776195,-0.41828847,0.15018687,0.07485501,-0.07279069,-0.4487161,0.034716833,0.34528568,0.059653018,0.0051173354,-0.23512658,-0.012446859,0.43285286,-0.015898203,0.5212959,0.47702333,-0.19324684,0.17066175,0.08752685,0.24230939,0.5287632,-0.32931244,0.46624458,0.34217903,-0.11635642,0.18924358,-0.32641596,0.07570768,-0.3861493,-0.455881,-0.052277584,0.11170212,-0.27050307,0.24656232,-0.44313905,0.18160215,-0.27222392,-0.50322217,0.2165146,0.33059093,-0.05945153,0.007472402,0.3948177,0.19257328,-0.30293593,-0.042579144,0.37049735,-0.08199671,0.0034822004,0.10286386,0.33059826,-0.45437267,0.03197962,-0.3527009,0.28136647,0.45249665,-0.3918712,0.09613062,0.15420644,0.038921814,0.15791492,0.35161567,-0.20544401,-0.3887273,0.40394104,0.40990803,-0.061336152,0.16906063,0.3093322,0.2549568,-0.04929554,0.13481379,0.008764509,0.47325256,0.40323853,-0.36540017,-0.20329729,0.22590889,0.085236855,0.12231424,-0.030326894,0.090985425,-0.103855364,0.39147615],"bias":-2.0672734},{"weights":[-0.0202336,-0.39173412,-0.10186853,-0.2485766,-0.101129435,0.027522357,-0.388749,-0.07120802,0.33130503,0.009928058,-0.38907588,0.09722743,-0.16816592,0.035922606,0.40393916,0.29724407,0.097727396,-0.21406423,-0.24581142,-0.06654384,-0.17393039,-0.055389594,0.07533202,0.3370173,-0.23534523,0.112544514,-0.35802948,0.32078505,-0.086589955,0.22551955,-0.27027166,-0.20640276,-0.4001112,0.16645761,-0.09402114,-0.45963675,-0.26919043,0.25356165,0.1432289,-0.4341914,-0.079399645,0.13030405,0.29605556,-0.20867015,-0.3292174,-0.030950636,0.23480795,-0.13759963,0.31255716,0.33957472,0.05787043,-0.41793376,0.34939122,-0.27419996,-0.4520768,-0.21069537,-0.0038992376,-0.14637886,0.47630143,0.15280898,-0.44657138,0.41994107,-0.14125568,-0.108311504,0.39392832,-0.44759643,0.45144814,-0.4912208,0.34177834,0.43595082,0.2943103,0.26810226,-0.074475616,-0.29566327,0.19224519,-0.14512786,-0.30613345,0.075607724,0.4736793,0.1551994,-0.3797045,0.12525274,-0.3582728,0.16276766,0.10204575,-0.05823336,0.016785381,0.48956704,0.0815093,0.47026256,-0.45976257,-0.46739063,0.38678187,-0.095552266,-0.35576975,-0.36934468,-0.15188652,0.206121,0.028539704,-0.016881516,0.46733963,-0.27180597,0.13757367,-0.00410337,-0.31652886,0.14709568,0.30285606,-0.39653406,-0.040339842,0.04929659,0.101522796,0.09713123,-0.25780487,0.019821594,0.015797405,-0.1797387,0.07619236,-0.18555506,0.41369373,0.35577872,-0.4138549,-0.34603062,0.11823156,-0.23653316,-0.29861334,-0.19243099,0.042272296,-0.32141528,-0.37754366,-0.48387206,0.45222402,-0.16740221,-0.35674164,-0.07959366,-0.39993158,0.18701087,-0.19578107,-0.29640645,-0.06025469,-0.0064395675,-0.47159648,0.43437314,0.09456307,0.4686999,-0.41657576,-0.13148424,-0.16870734,-0.22341111,-0.10150615,0.11941162,0.030878289,0.46474782,-0.076078266,-0.31349552,0.368099,0.17687675,0.13176624,0.4888125,0.33864585,0.3340259,0.06766941,-0.24001917,0.24001814,0.012675572,-0.38727692,0.20605478,-0.24890295,0.07253755,-0.22998308,0.39097565,0.15484145,-0.18601747,0.18226106,-0.19493014,-0.27161637,-0.40530342,0.4399281,-0.28714764,0.34198555,0.27799794,0.14294818,0.36142594,0.46955568,0.36662126,-0.23666327,-0.11122222,-0.19867562,-0.3766862,0.4071521,0.26515707,-0.11580444,0.37061802,0.15187453,0.42055824,0.17609061,-0.13818039,0.23724116,-0.05579513,-0.22233316,0.15161854,-0.036677975,-0.43366373,0.2868643,0.06312499,0.39947295,-0.21002917,0.2474659,0.34486198,0.19133659,-0.45747608,0.22563264,0.25432464,0.18108942,0.44400156,0.350836,-0.43116584,0.47590828,-0.061963394,-0.45491973,0.09483165,0.13092159,0.09455164,0.3681747,-0.17286636,-0.18147594,-0.25150675,0.2938108,-0.38146558,-0.1558411,0.034916766,-0.4583134,0.073106594,-0.48978198,-0.10084432,0.26059252,0.095964454,-0.45649162,0.4796269,-0.35833603,-0.16998266,-0.23172873,0.051329337,-0.072237924,0.17792866,0.13810547,-0.21338658,-0.4643285,-0.066499494,0.36022425,-0.36879054,0.35686418,-0.24572255,-0.061248563,-0.07743407,-0.40457997,-0.1430339,-0.259207,-0.08408773,-0.14486298,0.2263807,0.037755918,-0.3890751,-0.009017509,-0.39716527,-0.4693294,-0.42978454,-0.33395863,0.017632507,-0.37706783,-0.40096784,0.382088,-0.12178119,-0.18738687,0.4534138,0.33206046,-0.11205672,-0.28866693,0.10434941,0.04483912,-0.41446102,0.3187368,0.12239397,-0.31950355,-0.34046164,0.0054691127,-0.30708247,-0.36216742,-0.4405803,0.43654096,0.056930494,0.20159602,0.024694273,-0.10873153,-0.2232481,0.28016198,0.45720786,0.016048646,0.33966145,-0.00033871186,0.24356334,0.44477722,0.17956747,0.0641664,0.07175508,0.42598215,-0.1542772,-0.39501327,0.46234423,-0.05616565,0.037353337,-0.11735877,-0.026900694,0.14814222,-0.23031037,-0.3603375,0.34448004,-0.18298253,0.29430607,-0.02018548,-0.24741797,0.20026286,-0.052679483,-0.10173485,0.29283372,0.35120356,0.30299428,-0.039604515,0.27328482,0.29816496,0.26287907,-0.4873706,0.42421475,-0.47381666,-0.08309035,-0.44433185,-0.31760958,0.4344267,-0.018886639,0.4379011,0.335465,0.47003135,-0.25788444,0.100353554,0.15537506,0.25067514,0.4041952,0.12173989,0.32988915,0.17046238,0.10641067,0.31311032,0.38351142,-0.44550592,-0.29967874,-0.20792425,-0.23195505,-0.09226143,-0.44529033,0.47038424,0.22396886,-0.40521777,-0.39957854,-0.4023707,0.09169521,0.43261608,0.108676665,0.1866228,0.46447203,0.17078455,-0.1260212,-0.16574603,-0.26000237,0.23021653,0.48162308,0.12693407,0.5059366,0.11865186,-0.47189334,-0.43708023,0.07922089,-0.34907338,0.048374806,-0.45372552,-0.25640425,-0.028632354,0.0506513,-0.33535448,-0.36253217,-0.39774653,0.08873226,0.44463256,0.30793783,-0.34375083,-0.22851746,-0.39716956,0.3724844,0.03673826,0.3850312,0.08740591,0.3950835,-0.08970937,-0.04541117,-0.40363243,-0.46826825,-0.21954137,0.05817795,-0.30963317,0.37132227,-0.10176651,-0.3766853,-0.35798872,0.4565099,0.1000856,0.1285518,-0.27930117,-0.4533557,0.30444866,-0.25422812,0.027482314,-0.24832104,0.017931847,0.011603366,0.15771107,0.24580574,-0.10770425,0.303978,0.097602256,0.41941416,-0.24719274,0.20467459,0.09504813,-0.17590901,0.32365668,0.15890622,0.12078976,-0.2713149,0.3442038,0.18092915,0.07861101,0.35340405,-0.41184965,0.25888616,-0.49364612,-0.12882578,-0.47119305,-0.19234896,0.33461794,-0.14297675,-0.35412097,-0.20217827,-0.21076362,0.15375201,-0.37833914,0.055273768,0.015022842,-0.102410406,0.0329413,-0.48319456,-0.3929788,0.45876497,-0.015079031,-0.24035741,0.19908209,0.14073479,0.33793572,-0.06366339,-0.4851778,0.22957352,-0.040279113,0.08515467,0.15086077,-0.118492566,-0.14062667,-0.24939361,0.1528538,-0.43360245,-0.42005384,0.29391605,-0.18828979,0.363285,0.41443488,0.1979192,0.47793922,0.052215703,-0.43181425,0.022489196,0.16780818,-0.24648795,-0.018273138,0.10488356,0.20716247,-0.16605869,0.17148095,0.09851248,0.24446057,-0.49430123,0.22697924,0.47422382,0.41598248,-0.297342,-0.2892737,0.31303582,-0.11045939,0.053781025,-0.06048369,-0.32885456,0.37813804,0.14323664,-0.28330088,-0.25959837,0.26482764,0.4591378,-0.31556192,0.0699299,0.4095258,-0.22414286,-0.25747848,-0.15700121,-0.30594066,-0.0030583325,-0.44967932,0.31984428,-0.2060392,0.12049451,-0.18333274,0.07751316,-0.0051509645,0.07117642,0.049916424,-0.07539451,-0.32441908,-0.09526515,-0.08382394,0.03902233,-0.37331003,0.27526444,0.28726858,-0.13347502,0.004822039,0.12459098,0.25042254,0.50822455,-0.07107005,0.14227156,-0.10465871,-0.10727645,-0.32370436,-0.29588932,-0.3427209,-0.19428782,0.47027555,-0.0072558518,-0.006661758,0.26612428,-0.08776769,0.1368623,0.35395554,0.44844893,0.3479391,-0.3944312,0.2259791,-0.24024893,-0.3008925,-0.32032996,0.1342594,-0.094404146,0.31430572,0.09013425,-0.39965397,0.2235788,0.11070715,-0.08465186,-0.36782205,0.18371293,-0.21916193,0.45196587,-0.12295709,-0.22429812,-0.35441187,0.050172105,-0.4847047,0.09851778,0.13442478,-0.14015704,-0.3245939,0.034513723,-0.28080434,0.09600403,0.37883574,-0.022391083,-0.4879375,-0.4417684,-0.21170777,0.013465709,-0.2967979,0.3358583,-0.024833618,-0.10807853,-0.08705394,-0.32580528,0.33435905,-0.44695374,0.011516876,-0.22712359,-0.054727267,0.29155275,0.5069595,-0.07580489,-0.013297226,-0.1719959,-0.29150265,0.24345824,-0.3870523,-0.15478756,0.1749205,0.29350334,0.09795993,-0.28527626,0.39264834,-0.4824561,-0.1693264,0.000121299985,-0.16084503,0.27079722,0.20695688,0.15949593,-0.33750182,0.20682625,0.44881946,0.10740315,0.15357493,0.33290637,-0.08653225,0.10216199,-0.45039874,-0.03818812,0.037765548,-0.21319135,0.13391677,0.14609675,-0.21778078,0.3496344,-0.2321642,-0.15122181,-0.27608323,0.11950777,-0.15737198,-0.19865853,-0.09786038,-0.33561876,-0.07522279,-0.2140485,0.31880608,-0.49043795,-0.115486294,0.29107377,0.1472916,0.30742675,-0.4184055,0.32608667,0.01775632,0.11588485,-0.15734833,-0.044877917,0.15296048,0.15149076,0.07591091,-0.38553894,-0.28787047,-0.22636858,0.30433834,0.4561534,-0.10057106,-0.117974766,-0.143329,0.3282532,0.108891696,-0.45737746,-0.2459422,0.122268796,-0.45737943,0.10449938,0.2379062,0.27185526,0.48975527,0.42057988,-0.19838223,0.28552303,-0.42629582,0.24280034,0.31913733,0.34685174,0.3486897,-0.2697735,0.5055229,0.41354182,-0.321338,0.289021,-0.3722655,0.4505973,0.18957569,0.31792748,-0.02516306,0.43246025,0.48683286,-0.007290678,-0.37309656,0.3216786,0.19038561,-0.23208323,-0.36196905,-0.449763,-0.41684085,0.18180919,0.06838028,0.107714534,-0.3818389,0.27797526,-0.45061514,0.41837153,0.4313167,-0.0352127,-0.1597587,-0.07895582,0.16361623,0.3816247,0.40052313,0.4688002,-0.3072641,0.08963428,-0.33819914,-0.19591819,-0.36376956,0.2658432,0.3877553,0.2531491,0.11054378,-0.21297918,-0.47004437,0.32911962,-0.2526134,-0.47314104,-0.247021,-0.03188207,-0.35153338,0.122140266,-0.38726303,0.07142684,-0.22590317,0.17332782,0.13253091,0.51035035,0.15046512,0.44346505,0.26676917,-0.16051827,0.25096434,0.49883512,0.10273204,-0.1276622,-0.34415412,-0.47189367,-0.060708754,0.27760342,0.3842169,0.16496664,0.38410527,-0.18314286,0.37479502,-0.2862662,0.35723567,0.11794202,0.04132959,0.35442206,-0.31973696,0.10811161,0.06763802,0.07506217,-0.42196375,-0.38231033,-0.048929583,0.25577545,0.13790442,-0.11149242],"bias":0.07804144},{"weights":[0.19042327,0.16281308,-0.07157586,0.43324727,-0.5074947,-0.51619744,0.45477813,-0.5089184,-0.0035593472,0.3100658,0.37485987,0.08539919,0.008842173,0.0227504,-0.36009097,0.45399237,0.11110399,0.060468685,-0.24622689,-0.4084583,0.16759099,-0.016563587,-0.29790086,0.030479219,-0.38395458,-0.46238416,-0.2341746,0.1165647,-0.3172651,-0.22329305,0.45522517,-0.22772835,-0.23062287,-0.2885549,0.15821552,-0.26020974,0.29822695,0.44295353,-0.48605698,-0.12708154,0.07975776,-0.30675042,-0.41245234,-0.0420164,-0.35398513,-0.36322945,-0.13689446,-0.4908024,-0.17091095,-0.04289105,0.11221298,-0.39231485,-0.17440711,-0.33634752,-0.35804445,-0.15016787,-0.10797735,0.39910156,-0.48262668,-0.17191088,-0.30460513,-0.3939448,0.1960024,-0.112153955,0.20247176,-0.15548114,-0.485995,0.2572589,0.010264819,-0.43367547,0.027216407,0.24819309,-0.4350258,0.092836276,0.3100605,0.39167276,-0.30844107,0.37832883,0.46394026,0.26877308,-0.16330528,0.35732627,0.091832794,0.3479826,-0.42991847,-0.41144115,-0.39178652,0.04158995,-0.33639753,0.442438,-0.067710266,0.30698574,-0.25517923,-0.012873307,0.4110904,-0.44100073,-0.1652739,0.47249323,-0.21631733,-0.14314918,-0.52213746,0.15969467,-0.16152315,-0.33623192,-0.3377054,-0.20235133,0.45162654,-0.21017055,0.05680578,