[[{"weights":[0.0893711,-0.45570296,0.29174432,-0.11824199,-0.35965705,0.03729705,-0.15301766,-0.0021439057,-0.079422906,-0.5108863,-0.0072828676,0.10738729,0.1702994,-0.30439883,0.18593584,0.3060595,0.12178896,-0.4920496,0.29082438,-0.3609175,0.018823054,-0.43241015,0.077188246,-0.20382285,0.39352906,-0.38403064,-0.02990285,-0.030281397,0.049190495,-0.22187433,-0.20644264,-0.42445743,0.3745868,0.25097907,-0.41100755,-0.3090903,-0.37918097,0.02002627,-0.26736912,0.23865514,-0.104484044,0.02077386,0.3605778,0.49022558,0.40105614,-0.42289257,0.36483884,0.2794786,0.07777007,0.3062864,-0.5133565,-0.23923787,-0.094521135,-0.24142243,0.18069713,0.28389663,-0.050182756,-0.18415566,-0.00516648,0.28172094,-0.21246114,0.029327374,0.3099288,0.25085083,0.20280129,-0.1912,-0.46791366,-0.3933398,0.3085377,-0.016379852,-0.35232654,-0.465505,-0.119272344,0.004186673,-0.4115802,0.18317796,-0.11726038,0.39594072,-0.24453601,-0.3926127,-0.16852692,-0.19083187,0.3923885,0.34166127,-0.20769063,0.08030865,-0.08241495,0.368644,-0.073432624,-0.5389057,-0.03508718,0.33988464,0.063516214,-0.3041662,0.4721378,0.40940097,-0.10303453,-0.41911018,-0.23773988,0.34156078,-0.0029997001,0.24912246,0.28386706,0.041874077,-0.30334646,-0.46305567,-0.26835912,-0.16506201,0.37328866,0.31483215,0.07539278,0.23467939,-0.41222945,0.33868572,-0.20903333,0.3056169,0.20225337,-0.4863809,-0.24074768,0.42440784,-0.2333188,0.49844187,-0.024303624,0.3083363,-0.21773994,-0.43033212,-0.15431733,-0.42204496,0.114661746,0.3233175,0.04018637,0.09449778,-0.24886882,0.19356364,-0.064624384,-0.10676525,0.15770246,-0.32198912,0.29046297,-0.062201142,0.41705522,-0.05831905,-0.012668558,0.23077962,0.47372782,0.28718844,0.39295405,0.30903587,-0.4656109,0.3823129,-0.24094427,-0.3214101,0.25287852,-0.08590708,-0.41227007,-0.022727158,-0.40571257,-0.3585692,0.3655863,-0.29079768,0.18521987,-0.01187297,0.21694909,0.061087143,-0.0007405774,-0.025388222,-0.0736603,-0.17117904,-0.004818948,-0.11838128,-0.4419124,0.072815165,0.42744154,-0.18117699,-0.0440326,-0.45962116,0.11178012,0.2508264,-0.24862355,0.2827792,-0.34664354,-0.49356756,-0.15388049,-0.15111417,0.30703127,0.29595506,0.1348025,-0.5120741,-0.07148314,0.11847978,-0.05566931,0.19126873,-0.016649218,0.40227443,0.44853297,0.25758347,0.26424605,0.07677006,-0.12107871,0.059639174,-0.22312577,0.15465972,0.378074,-0.32718137,-0.35412326,0.48955706,-0.2569654,0.07797378,-0.38978088,0.1368347,-0.23793122,0.22445062,-0.34705418,-0.2115348,-0.36732438,-0.3370426,0.32664284,0.39895833,-0.25181744,0.17802899,-0.049278207,0.28374907,-0.40104747,0.32984418,0.017268013,0.44143143,-0.5075854,-0.38696685,-0.0043206397,0.4114637,0.3699562,0.07900468,-0.36927584,0.09432609,-0.29865405,0.15318868,-0.022064483,-0.3442485,-0.5029512,0.27464548,-0.43749186,0.31324264,-0.44097227,0.41986057,0.4353581,0.1819543,-0.20506883,-0.35858166,0.4708407,0.09691749,0.3289347,-0.46130565,0.047013577,0.46111342,0.3527057,-0.121959254,0.26595923,-0.27844334,-0.30844197,-0.3947576,-0.31287134,-0.27416918,0.2534303,-0.4458857,0.4250739,-0.4467026,0.0039230315,0.07379482,0.034378074,-0.2652977,0.32022154,-0.12300564,-0.2714527,0.3393909,0.53969055,0.3674855,0.54063576,-0.026330477,-0.4960242,-0.29138672,0.14113958,0.1654663,0.2045143,0.44033116,0.49517864,0.50392103,0.48229685,-0.15659963,0.27558646,0.14870453,0.14072625,-0.4478146,0.04612544,-0.42022696,-0.4760534,0.09829902,-0.2241945,-0.32932457,-0.5356209,0.11104272,-0.34720415,0.42844585,-0.30417645,0.45328498,-0.3379705,0.22665794,0.34701347,-0.3958833,-0.17622049,-0.06559367,-0.06429495,-0.41594988,-0.1055121,-0.21628405,0.025088938,0.53160435,0.26230806,0.33992514,0.37427184,0.07976145,-0.15593423,0.08320293,0.3165484,-0.027483366,0.16537778,0.1028521,0.40872484,0.12781657,-0.1555062,-0.3470053,-0.37320805,0.39417425,-0.36365235,0.088521175,-0.08773033,-0.35040563,0.17917348,-0.44723296,-0.51624125,-0.09601564,-0.4467351,0.098390125,0.29274014,0.046132594,0.26672038,0.16680487,0.50011325,-0.1103593,0.4876782,0.17317759,0.10229805,-0.103387736,0.28066587,-0.269263,-0.21678458,-0.36933428,0.23661639,-0.22356562,-0.22732346,0.1412319,0.16422138,-0.07057413,0.3679489,-0.38071024,0.28911942,0.28199807,-0.5044533,-0.5410227,-0.06500446,0.18648851,-0.13821475,-0.041790053,0.37407154,-0.26956075,0.23995262,0.42347592,-0.20230271,0.2607149,0.020031279,0.49071205,-0.086840734,-0.37730655,-0.3066931,-0.39999616,0.37383464,0.4528743,-0.47467503,0.4546879,0.010485452,-0.29756317,0.046105355,-0.08811076,0.4611016,0.30528808,-0.19743347,0.38897237,0.14581148,-0.3947927,0.24331711,-0.07056027,0.2991942,-0.03672599,0.3690808,0.5099005,0.052591313,0.3959154,-0.28098032,0.16090134,0.42246935,-0.2554336,0.15489684,0.30764472,-0.1339954,-0.099878244,-0.2141951,-0.5186051,-0.5346257,-0.30791655,-0.30935773,-0.027379945,0.04681546,0.42873985,0.20923929,0.31950095,0.02852205,0.08474137,-0.20769957,-0.06839656,0.14088093,-0.13576937,-0.09358587,-0.49567777,0.38905814,-0.3245808,-0.0662789,0.4331608,0.184763,-0.3454643,-0.39552125,-0.07292581,-0.053786177,0.16141424,0.29891306,0.088870965,0.007951201,0.13041092,0.097143255,-0.045414407,0.24248515,-0.03958883,0.3792416,-0.23305874,0.0968636,-0.0008263531,0.12882489,-0.014801294,0.39053336,-0.1645454,-0.0817259,0.035062894,0.1285863,-0.1987723,0.41559651,0.39687768,0.11861043,-0.17856668,-0.41388085,-0.31258658,0.3581982,0.0499722,-0.49894235,-0.49159515,0.43629372,-0.32624143,-0.42558122,0.30858204,0.08309429,-0.10251702,-0.024152463,0.17511255,-0.3619321,0.2831068,0.24520817,-0.122756995,0.33130047,0.113152474,-0.28312457,-0.41925287,0.16729134,0.29766908,-0.16143215,-0.38251367,-0.05231805,0.4388444,0.39758477,0.44039413,0.087545544,-0.22265933,0.08120809,0.47504976,0.45688817,-0.4585812,0.04253698,-0.36480933,0.22127359,0.48600805,-0.15637231,0.0831617,-0.046394363,-0.046986543,0.35941878,0.2448426,0.2372008,-0.15905361,0.19313425,0.036025472,-0.26300684,-0.33735868,-0.4801517,0.11264132,-0.45006678,-0.32334137,-0.4216967,0.24690674,-0.2599273,0.4237836,-0.14373362,0.003573151,0.25925794,0.02200392,-0.19197923,0.17668578,-0.16641083,-0.20430195,0.48493665,0.36338156,0.05790857,0.38120544,-0.2480364,0.4864548,0.0029140941,0.32461923,-0.5115236,0.38666248,0.22316301,0.3275512,-0.48253933,-0.3063411,-0.12755859,0.28748882,-0.30224526,-0.48852694,-0.18966521,-0.04513511,-0.29891884,0.47139275,0.24057662,0.042162206,0.37917304,0.39180255,-0.3946226,0.1627127,-0.25533488,-0.30424672,-0.22287987,-0.045295518,0.058391467,0.38247025,0.5101892,-0.20170876,-0.52000225,-0.33048317,-0.481061,-0.08930681,-0.34741297,0.04496849,-0.4341165,-0.07220688,-0.5693946,-0.4076131,0.18688469,0.09814923,0.22941947,-0.35032752,0.26263395,0.08412105,-0.06597344,-0.023634372,0.33149278,0.2916851,0.039115757,0.2561013,-0.09902656,-0.16483276,0.5292142,0.46289936,0.42866054,0.16940041,0.20734346,-0.25068468,0.36956713,0.28208145,0.26925606,-0.3815586,-0.43355188,-0.4672555,0.15824191,0.2580064,-0.5134238,-0.30434337,0.43434438,0.4219068,-0.16460006,0.31445405,0.28493276,-0.48593286,0.3350952,0.06519456,-0.10875146,0.04278361,0.03777063,0.5229858,-0.3190453,-0.37846166,0.38271043,0.508012,0.39499068,-0.31357414,0.22424908,-0.4665939,0.1229343,-0.00614264,0.41038385,-0.09401541,-0.40616065,-0.06695829,0.11648747,0.25220725,-0.054327853,-0.21633682,0.36289665,0.39159992,-0.20904054,0.14189912,0.32914296,0.25577572,-0.1141365,0.25501817,-0.3362925,0.60544384,0.17903036,-0.07840166,-0.092948474,0.05112049,-0.2845699,-0.33624947,0.29093078,-0.32834542,0.36417773,0.45946017,0.38201025,-0.035038386,0.0037427412,-0.048964433,0.3789673,-0.1853963,0.20918097,-0.22850391,0.30409816,0.3649485,-0.23576307,0.38767797,-0.12085959,0.07016603,0.09418543,0.3332155,-0.07486469,-0.3457368,0.38517627,0.0868184,0.484641,-0.20093678,0.13018027,-0.037628956,-0.11680276,-0.19265243,0.45690864,-0.3677179,-0.08414759,-0.330362,0.47147104,-0.3469154,-0.27974012,-0.035998233,-0.21123515,0.39845404,-0.3429736,0.4472526,0.28425664,-0.12084662,-0.3791438,-0.22517486,0.32426962,-0.24841613,0.38336056,0.31323,0.21617098,0.46296555,-0.35062155,0.09737226,0.47713885,-0.2887821,-0.05668329,-0.05030777,0.29701552,-0.30194965,-0.36870053,-0.08646983,-0.17455654,0.024514807,0.25848153,-0.036607075,-0.4085458,0.007707699,0.09982901,-0.2929414,-0.14924663,-0.44813678,0.21614526,-0.489501,-0.4709685,0.31541148,0.16802649,0.20724791,0.43226865,0.25777188,0.1155653,0.2313525,0.22725958,0.54936457,0.12980455,-0.27229685,0.4199041,0.07354428,-0.3789799,0.5308353,0.19172877,-0.31986523,-0.40792736,-0.31365195,-0.23240358,0.1785124,0.2015535,-0.17631763,-0.22546427,0.25896913,0.22281559,0.27102697,0.19135502,-0.06790004,-0.50401443,0.37559327,-0.19381861,0.470739,0.089776814,0.40160796,0.35659847,0.26695916,-0.12162893,-0.120849244,-0.21943624,0.007672319,-0.253699,0.22666833,0.06046419,0.16920829,0.12922105,0.4296367,-0.18216231,0.3585193,-0.19035092,0.17269266,-0.41122928,0.051832758],"bias":-0.36946818},{"weights":[0.13223206,0.09966489,-0.119151324,-0.026099477,0.1282234,0.18398419,0.22566259,-0.2865128,0.04222479,0.1674504,0.2289672,0.3563955,-0.44978288,0.088489965,0.27254334,-0.25498277,-0.39703715,-0.4300528,-0.4020201,-0.277113,0.1885766,0.101598874,-0.34843177,-0.38085783,0.4963341,0.020156499,-0.11528142,-0.20744938,0.01448548,0.029670734,0.28554666,0.40306187,0.12638998,-0.36600152,0.103201404,0.11110391,0.31174412,-0.1953743,-0.37178928,-0.48271185,-0.14577931,-0.37080947,0.019672723,-0.35976276,-0.35747144,0.21791527,0.18486533,0.19265272,-0.450511,0.48904666,0.48876962,0.19592807,-0.21485502,-0.33333355,0.03253746,-0.4200307,-0.40709335,0.3508748,-0.48077947,-0.03933583,-0.32314345,0.01803712,-0.37518826,-0.48389435,0.17318979,0.45058542,0.3591304,0.29533482,-0.12976931,-0.2836374,-0.34809408,-0.05852654,-0.17398632,-0.25601143,-0.043299537,0.08953503,-0.027569259,-0.1260655,0.038867205,0.38632077,-0.38985607,0.36846665,0.38600498,0.31704295,-0.31269407,-0.19600752,0.47240967,-0.45296046,0.04962284,0.3338712,-0.09876863,-0.06283548,-0.27952728,-0.25498027,-0.39099398,-0.40521756,0.32548717,-0.1289602,0.3188305,0.267901,-0.14452995,0.30471736,0.5729412,0.28769892,-0.078624725,0.3713709,-0.19178803,-0.43043885,-0.29636332,-0.119168475,-0.1258699,0.3882215,-0.2119401,-0.062402856,0.34547004,0.034988206,0.13990045,0.40304005,-0.32117474,-0.36745888,0.36305833,0.12896423,-0.08981556,0.020663364,0.025574263,-0.17641665,-0.22820169,0.57412106,0.028845793,-0.31129268,0.2524627,-0.20382312,-0.41672042,-0.32846102,0.20088214,0.42912194,0.4993495,0.023305459,0.48654175,-0.17077357,-0.4366578,-0.34451374,0.1914121,0.20465638,0.3999099,0.37527424,0.007892858,0.41801605,0.47656688,0.17765556,0.4377025,0.13127655,-0.19330856,0.16244447,0.34881806,0.15300298,-0.18842207,0.12989193,0.53455865,0.41859627,0.12444837,-0.33215472,0.004671444,-0.2544872,0.20816934,0.0013867426,-0.10398465,0.17988941,-0.35359192,0.39320585,0.27704263,-0.44874886,0.10338995,-0.3243793,0.58949494,0.07709313,-0.017063644,-0.32601857,-0.12321067,0.46018982,0.3917226,-0.17323536,0.48636594,0.3849925,0.24731955,0.38961545,0.14706415,-0.2223327,0.49389738,-0.15377784,0.6064968,-0.112091705,-0.22166492,-0.014609978,-0.14155385,0.3424615,0.3987371,0.45175198,0.4490658,0.12820789,0.12714176,0.29584366,-0.3687921,0.49665895,-0.027823756,0.29332533,0.17529128,0.49574628,-0.07172316,-0.09103587,0.106791034,-0.08024196,-0.19696365,0.49445224,0.20590456,-0.035369374,0.4865188,-0.31961885,0.046637308,0.3797113,0.25794607,0.39860794,0.20285602,0.13567488,0.25423905,-0.16617443,0.09149533,0.30125496,0.42051446,0.14474547,0.5800262,0.30364704,-0.08781972,0.3212079,0.03291003,0.32972676,0.113457866,-0.21357253,-0.07788061,-0.023790743,0.26339766,-0.14881398,-0.3663788,0.48297447,0.24375956,-0.017465487,-0.21733199,0.51866275,0.15039119,0.09153132,0.38626865,0.3380827,0.17322905,-0.02934188,0.5347371,-0.2759544,0.016253443,0.0043010903,0.01487027,-0.3079283,0.013128633,-0.13857211,0.32074326,-0.29508963,-0.24364981,-0.23272593,0.52447116,-0.39645785,0.4768036,-0.25812978,0.21258986,-0.37178913,-0.36126286,-0.38091144,-0.084715635,0.32781813,0.4435819,0.32140258,0.0810408,0.4146933,0.1630278,0.4640292,-0.35381573,0.5021712,0.55775195,0.4795742,-0.37525514,-0.41156694,-0.23766366,-0.13963388,0.3621938,-0.54672754,0.33955705,0.024720043,0.24860694,0.4731139,0.48959246,0.27685145,-0.4432542,0.2773918,-0.36404952,-0.16922382,0.37614354,0.33261684,0.56408685,-0.016411556,-0.20614596,0.11093487,0.0048957155,0.47594848,-0.12140303,-0.09485603,0.37011847,0.23853227,0.15643513,0.27529532,0.19617674,-0.57053113,-0.49852207,-0.28161946,-0.026550153,-0.2765592,0.30028492,-0.32579753,-0.42492995,-0.40044138,-0.4752848,-0.44069293,-0.36611977,-0.25541943,-0.34963295,-0.26466635,0.44355977,0.13867618,-0.2165483,-0.028370744,0.011306692,0.38634756,0.04466131,0.12311253,0.02259968,0.06486773,-0.25876555,0.22645554,-0.30145073,0.0150663,-0.6399469,-0.38889378,0.1264781,-0.2231193,-0.19142638,-0.528378,0.24023123,0.025386708,-0.28216338,0.17370155,0.29174846,-0.12495901,-0.17143306,0.3360366,0.61610234,0.49023747,-0.13559708,-0.23075604,-0.39185783,-0.11716541,-0.23020312,0.13496779,-0.1681936,0.22179641,0.17213885,-0.16584367,-0.083809055,-0.5604403,-0.4679241,0.19715244,-0.5141169,-0.1732636,0.09496894,-0.29792458,0.19865781,-0.4182559,-0.10924958,0.11483245,-0.16828735,0.35101703,-0.19128405,-0.21942092,-0.049741436,0.81497043,0.10700613,-0.001177958,0.396859,-0.4999644,-0.13599603,0.49986473,-0.11086699,0.29776895,-0.2140728,-0.45098552,0.26124877,-0.084468625,0.2419921,0.088324964,-0.31838286,-0.27757782,0.2962923,-0.3661927,-0.14790139,-0.50985116,0.20279525,0.11530769,0.17810412,-0.023387687,0.36394846,0.23867369,0.5364661,0.5951655,-0.25609478,0.22762913,0.46068045,0.01986828,-0.40077457,0.33495304,0.07845515,0.21509512,-0.25758934,0.2409818,0.25574028,0.47476462,-0.060467392,0.25928506,0.23715237,0.11102928,-0.272293,-0.37157422,-0.18687898,-0.24385531,-0.05947688,-0.5614502,-0.18229406,-0.2821815,0.46215862,-0.13455617,0.46481454,0.30777377,0.15793614,0.13248987,0.043080382,-0.52010137,-0.45694664,-0.10766235,0.1838067,-0.20028427,-0.14944376,-0.32376426,-0.36829683,0.1851651,-0.29016274,-0.14357807,0.11325064,0.41611785,0.33681324,-0.048540268,-0.23897989,-0.0041110036,0.24894531,-0.5204186,-0.50150996,-0.4564688,-0.079629734,-0.16389105,0.22007537,-0.16785012,0.46970543,0.122105286,-0.013018294,0.23008758,-0.4469716,0.28447747,0.079026796,-0.6177768,-0.6204972,0.004828248,0.093312554,0.3859664,0.43899587,-0.36712942,0.15554143,0.28462487,0.43793923,-0.09603229,-0.3878946,0.09613419,0.2076456,-0.3195799,-0.18482393,-0.40820378,0.1380432,-0.35016456,-0.4629398,-0.39408055,0.087178886,-0.48449105,0.26511163,0.40568236,-0.08201155,-0.12479165,-0.039252784,-0.4818485,-0.107485496,-0.45036694,-0.5022567,0.04712621,0.4112204,-0.13541716,0.3274515,0.022624077,-0.40947983,0.31483275,-0.37815884,0.18442494,0.083415814,0.25006878,0.41359958,-0.12777704,0.4788514,0.35792947,-0.3789736,0.1003688,-0.46562165,-0.30479863,-0.52254534,0.15115042,-0.56041676,-0.24736989,-0.46440077,0.105438754,-0.3150085,-0.46655372,-0.35994858,-0.12504074,0.14499529,-0.11349177,-0.2505192,-0.18648385,0.2659729,-0.024504839,-0.009790342,0.08091685,0.55465966,-0.1977993,0.38884765,0.32815835,0.29073113,0.35861388,0.064601615,-0.033783734,-0.004653907,0.04359815,-0.43032148,0.06238558,0.32292357,-0.24012482,-0.45798472,0.013410948,-0.3229285,0.06188881,-0.29491273,-0.62341386,0.08661258,0.20890121,0.33026147,0.37073365,0.06669929,-0.26869562,0.57774764,-0.30877736,-0.24645777,-0.2876001,0.29987592,0.11559658,0.166737,0.31050387,0.0936713,-0.6285055,0.22073309,0.20676762,-0.30525848,-0.2726708,-0.21187958,-0.2891469,-0.04738141,-0.611419,-0.28854287,-0.35069114,0.27994856,0.091262326,0.039201368,-0.43392685,0.06511288,-0.2652028,-0.07874881,0.436381,0.16718008,0.28700122,-0.07646871,-0.32489362,0.019742621,0.0893991,-0.39747873,0.21846919,0.16667393,-0.39429706,0.14015113,-0.005544791,-0.50883543,-0.47191626,0.38167685,-0.14345212,-0.03619908,-0.34193516,-0.05952622,-0.09466357,-0.3510173,-0.42749524,-0.11283204,0.28177607,0.044498514,-0.16756731,0.24947746,0.29320306,-0.2106169,0.17250393,0.58369035,0.23068531,0.017216627,-0.33887392,-0.19621423,-0.47493252,-0.40451586,0.3571062,-0.29710746,-0.32658046,-0.44928813,-0.4565339,-0.13505834,-0.0125701465,-0.56156665,-0.12396833,-0.34382534,-0.563818,-0.52317244,-0.34167898,-0.26885295,0.05302198,0.22546214,0.073640704,0.0036122834,0.40638846,0.038994074,0.25851807,-0.46031502,0.42530248,0.37789485,-0.5167889,-0.46947038,0.26551008,-0.13985519,-0.22479616,-0.12608622,0.46493247,0.022768473,-0.32537603,-0.2654754,-0.516358,-0.49711928,0.16917205,0.25247636,-0.083659455,0.36722666,-0.2608508,0.3745619,-0.123585396,0.15320836,0.47268176,-0.15535116,0.26903355,0.28837326,-0.25733408,0.42556393,0.023276666,0.38728943,-0.1629271,0.25320607,-0.4208405,0.060377467,-0.24907957,-0.3750275,-0.1120109,0.09220177,-0.47154793,0.20018254,-0.47971097,-0.06726474,0.24503842,-0.071128175,-0.09900769,0.12617494,-0.3240146,-0.38979715,-0.11168704,-0.19909653,0.14166486,-0.49343693,-0.25676963,0.16286899,0.23115554,0.15807408,-0.30371684,0.22535892,0.01476104,-0.20875932,0.229424,0.028827941,-0.47333226,0.31405187,0.19793226,0.410013,0.07048866,-0.16823196,0.044769615,-0.37977177,0.44555455,0.17060414,-0.4386732,-0.48090434,-0.09106837,0.28040817,0.035251826,0.13415822,0.017603684,-0.066745356,0.40816468,0.2802978,0.3266608,0.051780947,-0.42609966,-0.085554615,0.3172512,0.042083327,0.1911918,0.023443794,-0.052876133,-0.13878848,-0.12538429,-0.005892696,-0.053907894,0.08810123,-0.15009236,-0.081493355,-0.00052017433,-0.22677523,-0.017471833,0.14604995,-0.26661712,0.2641687,-0.34530824,0.09763309,-0.05046999,0.2172519,-0.073894404,-0.16232473,-0.20146213,-0.2575579,-0.1256364,-0.24884662,0.36805037,-0.44170263,-0.031767458,-0.0119288,0.040649842,0.1888606,0.19771051],"bias":0.2432536},{"weights":[-0.2196613,-0.07543109,0.029801484,-0.26995578,0.23122136,0.038844485,-0.45658338,0.03497061,-0.21003406,0.122300774,-0.2200363,0.4044033,0.3088008,0.33579797,-0.31319153,0.3651532,0.30180278,0.49489835,0.19651374,0.27651504,-0.114618786,-0.42536262,0.24094896,0.14263193,0.24350391,0.24657494,0.30787915,-0.32127413,-0.37165618,-0.4327722,-0.40491605,0.18103571,-0.078358956,-0.042465862,0.27824986,-0.37175184,-0.2594371,-0.4106278,-0.1576704,0.17167354,-0.124737605,-0.23077133,0.1245526,0.21286136,0.39734554,-0.38599983,0.074525096,-0.059307963,-0.0423832,-0.012812576,-0.42025393,-0.16704069,-0.026357142,-0.013252086,0.03097658,-0.24702133,0.45519164,-0.38759732,-0.17580585,-0.21684724,-0.013599832,0.3499243,-0.3250278,-0.10294964,0.00045358858,-0.0971829,-0.41772372,-0.362155,0.23004375,0.17782667,-0.3407806,-0.38503662,-0.37846962,-0.5290233,0.4245842,-0.13316922,0.19135197,-0.33979544,-0.468896,-0.3250839,-0.09433098,-0.48723674,-0.04883257,-0.0051713423,0.18350409,0.27244285,-0.034256548,0.03821416,0.34187093,-0.5739366,-0.117515564,-0.5419311,-0.4458791,-0.07201603,-0.55868113,-0.38069853,-0.04607917,0.24737059,-0.4337493,-0.41238648,-0.26196557,-0.43302295,-0.31008017,-0.34059724,-0.045615844,0.33705127,0.2678826,0.13556021,0.3478379,-0.3203688,-0.24160196,-0.10198441,-0.2869039,0.014974115,0.3740226,-0.42302603,0.2015261,-0.10315881,0.11255841,0.2986249,-0.3357019,0.1695948,-0.03551435,0.021370586,-0.42701164,0.032549154,-0.034634843,-0.4050375,-0.47969303,0.34301287,0.30579492,-0.07601655,-0.26638046,-0.27049983,0.36223993,-0.3288229,0.079843506,-0.19160314,-0.3666641,-0.48687726,-0.40143707,0.307319,-0.035509378,-0.5258096,-0.45783603,0.17300047,0.04630947,0.38119304,0.04752656,0.2989482,0.26695275,0.081176214,0.16746733,0.3499939,-0.1351881,-0.08090574,0.48532808,-0.46052644,0.09574957,0.34035495,-0.43320432,-0.11021472,0.12063831,0.0756986,-0.41818455,-0.053836048,0.039022315,0.017960025,0.2213935,0.3845316,0.0944823,0.1630236,0.04715423,0.23136623,0.24138738,0.0880812,0.01850499,-0.31082043,0.13706526,0.44012794,-0.20106912,0.4513373,0.14813736,-0.24691114,-0.2862312,-0.11932568,-0.3480764,0.24913341,0.32004753,0.2456933,-0.28216404,-0.026349448,0.37475476,0.3405231,-0.13846515,0.031655725,0.1784642,0.37328786,0.3291993,-0.17598805,-0.16160958,-0.27094257,0.20147261,-0.37903112,-0.12239643,0.025089374,-0.31357837,-0.2636852,0.31605855,-0.17192832,-0.017173484,0.49855134,0.50911474,0.10204372,0.39959148,0.0703989,-0.34165406,-0.43278456,-0.0036009143,0.37379536,-0.08243426,-0.38117453,0.48800197,0.13111567,-0.15109678,-0.29534447,-0.030991443,-0.01936605,-0.40781415,0.08911366,-0.13271092,-0.32607293,0.07749097,0.16376445,-0.0942131,-0.1402214,-0.3602303,-0.14689268,-0.25296107,0.45587853,0.31732026,0.3334789,-0.46783972,0.0067312755,-0.39687622,-0.23631474,0.03270906,-0.105090186,0.24796064,0.28404182,-0.14137277,-0.06390861,0.05180766,-0.468052,0.07273308,-0.12171487,0.4080098,-0.048885796,0.011350851,-0.07856787,-0.10425088,0.44471768,-0.41379696,-0.16505118,0.09174647,-0.08951365,-0.26770553,-0.0035862608,0.23795614,0.18577681,0.05208317,-0.5648233,-0.08738763,-0.3817885,-0.27830786,0.19338961,0.2619541,0.36978173,0.4576393,0.21593088,0.05082517,-0.2806267,-0.28522363,0.11560966,-0.13791019,-0.06617115,0.09483045,-0.12647437,-0.2675024,0.048114713,-0.24047223,0.03911904,-0.3346062,0.49369085,0.57698625,0.021560082,0.22032052,-0.09905362,0.05922303,0.20342907,-0.08795426,0.27618948,-0.061614808,-0.54567546,-0.36076343,0.062188905,0.32909164,-0.3349952,-0.044886228,0.33836067,-0.110154025,-0.18883497,0.36958802,-0.033893775,-0.031190442,-0.14600144,-0.42059523,-0.11460472,-0.025052233,0.16220538,0.4529889,0.021802053,-0.20368873,-0.32870463,0.5198073,-0.30521238,-0.29011017,-0.37924495,-0.5407533,0.34685907,-0.4633781,0.099520095,-0.35556084,-0.50136584,-0.036147926,-0.31308696,0.46355006,-0.0076163183,0.4785459,0.218892,0.15724045,-0.16865538,0.43216053,-0.020282723,0.32970533,0.42908353,-0.097386725,0.3910588,0.09935032,0.12260219,0.4528633,0.18058248,0.28029415,0.11709364,0.1257968,0.33773598,-0.45860273,-0.11506982,0.07605013,0.17242315,-0.18741387,0.32769725,-0.4842005,-0.25520054,0.36759177,-0.013582475,-0.31306207,-0.20411848,-0.29422075,-0.21015222,0.49517548,0.22049765,0.48239642,0.22452116,0.06705467,-0.38979205,0.13376887,-0.119174324,0.27029532,-0.30879822,0.26793367,0.47649303,-0.4072952,0.10773835,0.3590766,-0.38596162,0.52526724,0.015283037,-0.096534856,0.34451512,-0.1613769,-0.19562887,-0.17580846,-0.03659808,0.07981165,0.40791124,0.5628241,-0.14954825,0.04649675,-0.1718103,0.13537543,-0.50206685,-0.2758496,-0.031246739,-0.40756518,0.2106082,-0.21521145,0.41299003,0.13931948,0.062561154,-0.4481666,-0.2289881,0.33043846,-0.1615803,0.13480043,-0.28578535,0.2033101,-0.24927065,0.34605047,0.4477585,0.2905204,0.515291,-0.2150447,0.55625117,-0.19579744,-0.24378477,-0.015769454,-0.39325607,0.27145487,0.2269998,-0.08366185,0.4472172,0.10856919,0.1118606,-0.2594736,0.21033363,0.23042355,0.36604112,0.20169227,0.11158794,0.27740276,0.4445079,-0.104302905,0.33564308,0.41548675,0.51117826,0.015081502,-0.07147975,-0.47568467,0.16267593,-0.32040787,-0.025116893,0.13316065,0.073624,0.20075,0.13712612,-0.38761437,0.43085802,-0.22090426,0.29002622,-0.29455456,-0.33046702,0.17982844,-0.25627998,-0.45311043,0.097646564,0.3254665,0.21411504,0.23713636,0.18783882,0.37612122,0.12675835,0.21712518,-0.1913399,-0.23262706,0.4902129,-0.4240982,0.24314003,0.18469162,0.03190354,-0.39239976,0.40907946,0.47764117,-0.26892802,-0.07992062,-0.27350733,-0.041111663,0.28092566,0.21397722,-0.57136685,-0.3007569,0.1399278,-0.27047256,0.197281,0.073498294,0.48266128,-0.016338317,0.3929145,-0.21260655,0.48104408,0.1608128,0.5719891,-0.10350244,-0.36097625,-0.4507597,0.3684396,0.2907692,0.48603854,-0.17244062,0.32781416,0.3016264,0.31702232,-0.47889054,-0.11148366,-0.5241541,-0.56444,-0.4493466,-0.001288384,0.05564948,-0.4889258,-0.12366374,0.13289179,0.3796837,-0.21610494,-0.17295077,0.18245544,0.074434906,-0.23371536,0.5163945,0.40136123,-0.29735452,0.113117695,-0.06107223,-0.17664078,-0.28479257,0.2144544,0.34371772,0.47534847,0.31157055,0.41082004,-0.53995305,-0.5150401,-0.5635552,-0.30718243,-0.06178793,-0.05893261,0.09028025,-0.34761977,-0.20501582,-0.077154905,-0.40386721,0.11817443,-0.35776097,0.2983837,0.22315237,0.30274233,0.59719986,-0.025810597,-0.1731423,-0.14806615,-0.45212832,-0.4565949,0.2586595,0.097033985,0.048348818,-0.05319413,-0.13916034,-0.014078913,0.34846023,-0.30614132,-0.34823266,-0.6260313,-0.42721623,-0.61295617,-0.21535008,0.3085852,0.21477318,0.3189285,0.20130719,-0.25535166,0.14010768,-0.37727284,-0.11164267,-0.36272448,0.030819427,-0.23524915,-0.2703201,-0.35886613,0.24214171,0.28177977,-0.484666,-0.26363006,-0.037066273,-0.40238568,-0.10102257,-0.41592437,-0.07110151,-0.107506365,-0.53111666,-0.22936346,-0.23910357,-0.54672426,0.038680166,-0.095382154,-0.102215655,-0.048714988,0.1309797,0.44280475,0.12718502,0.2005068,0.33336928,0.44079638,-0.3596243,0.56351376,0.17702894,0.39467284,-0.40374145,0.36636725,-0.0020422076,0.2817835,0.21311782,0.011448125,-0.12115065,-0.024338013,0.43867412,0.00021111591,-0.45334804,-0.013333506,0.20779712,0.39722067,0.25330502,0.2057243,-0.17254297,-0.050588727,0.16437674,-0.34084234,-0.38779357,-0.34766984,0.2232533,0.15896578,-0.30831292,0.5203063,0.37405255,0.17295383,0.045729857,-0.25487128,-0.21185732,0.30184847,0.5086203,-0.31931806,0.109645866,0.08653731,-0.24510032,0.43371123,0.19462308,0.29759407,0.24164072,-0.4177306,0.24802501,-0.16688216,0.177458,-0.08471152,-0.1386174,0.5521953,-0.39682627,-0.026245292,-0.27972257,-0.29142812,0.0175298,0.5429723,-0.3307323,-0.3680304,0.39531374,0.4377216,-0.065831065,0.17534316,0.2738426,0.37534022,0.41535422,-0.11621994,0.17392354,-0.44472882,0.06663474,0.25422466,-0.0681895,-0.27438942,0.03193706,0.17574821,0.29378647,0.1026652,0.4592407,0.44224527,0.51753175,0.050973482,0.17671013,0.19312717,-0.040497907,-0.11166983,-0.1523966,-0.04933292,-0.3320266,-0.48590997,0.37186328,0.24837987,-0.3245513,-0.4766268,0.458245,-0.2552621,-0.13893558,0.065692686,-0.02214751,-0.30626744,0.01658283,0.032938223,-0.16228,0.13440081,0.38142738,-0.18883678,0.18836617,-0.13599941,0.1438988,0.3725358,0.49730834,-0.15230659,-0.43915626,-0.018257134,0.3647388,-0.05344719,0.3995987,-0.14631252,-0.31683555,-0.4330688,-0.32884178,0.21589811,-0.06475747,0.25761768,0.29578605,-0.16066244,0.4494976,-0.14689568,-0.20408915,0.1704507,-0.107478745,-0.09461464,0.22358048,-0.33631748,0.008203966,0.008475592,0.21716578,-0.20303798,-0.2244877,-0.17831299,0.36181566,0.25920582,0.12958828,-0.4086019,0.26110223,0.08612221,0.18202144,0.38962445,0.2584778,-0.18651395,0.31685773,0.2696607,0.3377613,-0.23127574,0.34886047,0.41121012,-0.1991058,0.14336061,0.25334626,-0.12333173,-0.043884985,0.15292677,0.39895868,-0.18833406,0.2886838,0.3931376,-0.23304847,0.45461878,0.26231712,0.35237542,0.10032351,-0.20871904],"bias":-0.06913698},{"weights":[0.08252645,0.40200633,0.38485205,0.23935902,-0.24617347,-0.44994858,-0.18047675,0.31188372,-0.46204117,0.15000282,-0.004013886,0.45984375,0.3860442,0.28385255,-0.37922034,-0.38777754,-0.21029511,-0.26145768,-0.07353935,-0.18586677,-0.11595069,0.4906343,0.20153037,0.35034594,-0.26407838,0.2638642,-0.29291397,-0.26784223,-0.49615908,0.2758329,0.028433066,0.4235084,-0.26943725,0.31783366,0.07582494,0.14797558,-0.34783605,-0.10228765,-0.18105464,0.082133904,-0.08790888,0.037624557,0.287703,-0.34882835,0.21986113,0.37520024,0.1907848,0.20949258,-0.2095135,-0.3366588,-0.14414601,-0.23887318,-0.48292464,-0.1036016,0.04800705,0.39834782,0.4101532,0.23543961,-0.027295718,-0.17001003,0.39828095,-0.21057466,-0.26513168,-0.41199982,-0.41137102,-0.053896394,-0.015636714,0.060410943,-0.41506004,-0.25010207,-0.12694773,-0.10060685,0.47007143,0.33598402,0.066475466,0.0023703703,0.21344487,0.3234769,0.10147141,-0.38050446,0.19948038,-0.03252339,0.3450674,-0.104133464,0.27237052,-0.41354468,-0.4396225,-0.005050723,-0.08198639,0.15717228,-0.43616703,0.23502918,-0.14475681,-0.33374977,-0.0792284,0.22981375,-0.40497988,0.21736279,-0.38033834,-0.18229584,-0.026271902,0.10512921,-0.1895295,-0.05425395,-0.11832174,-0.062331006,-0.23606484,0.26867646,-0.49005538,-0.07509779,0.07365737,-0.33881032,0.42885354,0.13255766,0.34119472,-0.12684377,0.47225553,-0.03464297,0.3801008,0.41853663,0.318503,0.015999455,-0.11459567,0.40112257,-0.44313818,-0.40100187,0.23962027,0.22730032,-0.28258818,0.011094003,0.15087341,-0.23835082,0.009957629,-0.47523963,-0.46049017,-0.1044632,0.37759635,-0.0738069,0.4436618,0.2176143,0.3357207,-0.50482094,-0.092158794,-0.49709615,-0.2050838,-0.47714475,-0.1493207,-0.24440101,-0.45459217,0.102895714,-0.36400917,-0.43279105,0.13203633,-0.1036462,-0.030953508,0.40925068,-0.026032696,-0.10098547,0.091359094,0.3734787,-0.23121856,0.09157807,-0.08215933,0.10716961,-0.21064991,-0.2078944,0.12271187,0.30341133,-0.44914192,0.14215556,-0.3826049,-0.0060733245,-0.21055594,-0.30009222,-0.1987792,-0.33818564,0.36822593,0.05159374,0.2868528,-0.24424729,0.2999489,-0.073858105,0.02219884,-0.44480821,-0.09140934,0.4062894,-0.29583928,-0.41254982,-0.08372982,0.37773404,0.22820705,-0.0535685,0.4452676,-0.36354062,-0.07019673,0.07978255,-0.078751974,0.15888447,-0.44792643,-0.30093607,-0.44020662,-0.18530852,-0.44267902,-0.07706961,-0.40455106,0.27008677,0.09190002,-0.008905211,-0.11964291,-0.35863808,0.43775207,0.023418829,0.094150536,0.3360142,0.11853785,-0.23621306,-0.123431996,0.32677346,-0.17304312,-0.18145199,0.11852773,-0.28087193,0.4486507,-0.4321546,0.38389382,0.18129335,-0.27355266,-0.4583298,0.0039395844,-0.38807443,-0.1338393,0.17732297,-0.007533455,-0.29223827,-0.0045352248,0.48170972,-0.25840726,-0.3942739,-0.41882783,-0.25818828,0.07109091,0.33013847,-0.15705952,-0.37732992,0.265469,0.1258863,0.26408726,-0.31724638,0.22840546,-0.40929177,0.39569595,0.2025517,0.29012963,0.2726453,-0.233611,0.09920086,0.44682664,-0.37108725,-0.48163086,-0.23355237,-0.3830942,-0.2085043,-0.097652085,0.35471225,-0.1290385,0.23337775,0.141785,-0.16157468,0.24834467,-0.12053406,0.45077074,0.46359226,0.06716185,0.044269655,0.05029201,-0.4583259,-0.27853203,0.39389664,-0.11828721,-0.16778086,-0.353628,0.11016366,0.13119513,-0.10092775,0.45617157,0.37379873,-0.25908607,0.3563363,0.18167248,0.14535274,-0.11581489,0.3621667,0.43987954,0.040922187,0.32007167,0.43396515,-0.25140634,-0.15661904,0.070965976,-0.012777272,0.19236444,0.014631819,0.13955653,-0.04948081,0.24976742,-0.38499475,-0.48391193,0.04071237,0.2872807,-0.23460971,-0.44832,-0.43243945,0.21435381,-0.11383321,-0.35818872,0.15117875,-0.13793164,0.36171445,-0.29439858,-0.26391977,0.3759015,-0.015781121,0.12069431,-0.3871443,0.20013422,0.3792478,-0.3959067,0.51275295,-0.2875184,-0.3123765,-0.3546372,-0.36808094,0.22767046,0.46235195,0.018490722,-0.024142688,-0.3568674,0.18616532,0.19470024,-0.073690765,-0.2523096,0.1380648,0.29620945,-0.046768144,0.48552397,0.38560498,0.33547193,-0.088460565,-0.3603171,0.47161973,-0.424853,-0.36546534,-0.39434287,0.19719657,-0.4147212,0.043214757,0.4378637,-0.06658089,-0.42474735,0.22357519,0.027552562,0.11351376,-0.29101834,-0.33267468,0.098174356,0.14528576,-0.074472226,0.20072122,0.45977452,0.1554355,0.22405355,0.37513104,0.032281246,-0.25383213,-0.028805254,-0.11502566,-0.09475744,-0.4105991,0.056913123,-0.3186491,0.4319687,-0.115047,-0.29035702,0.33696598,-0.3391316,0.39339384,-0.12979189,-0.0680823,-0.47681862,0.09089833,0.15246749,-0.39480397,0.033803746,-0.13082083,-0.01340405,0.30804247,-0.14066501,-0.026440866,0.509071,-0.32758296,0.053950835,0.2389807,0.20923504,0.025268447,0.46185675,-0.16640335,0.27171504,0.32543197,-0.506551,-0.42537177,0.46647927,0.013348682,0.50943226,-0.28652743,-0.2677512,-0.2212541,-0.38209155,0.30948874,-0.058714584,0.11659697,0.23707134,-0.12989934,0.3055158,-0.110014394,-0.3922692,0.1931753,0.5189158,-0.21944454,0.22691803,0.43731418,0.14667355,0.4045343,0.2528668,-0.13509214,0.38638243,-0.19311239,-0.04175522,-0.23560743,0.027232183,0.3507755,-0.46587116,0.08014934,0.045187414,0.14621799,-0.24943118,0.14589506,-0.04342917,-0.22485892,0.3852755,-0.3000851,0.12823567,0.33457348,-0.41488954,0.1526613,-0.0408537,0.17642622,-0.15764369,0.42120898,-0.106128484,0.04159298,-0.09626407,0.24038722,0.44780612,-0.18608625,-0.088992,0.006501809,-0.40808967,0.13352017,-0.45475876,0.20045547,0.4251798,-0.27559215,-0.47977263,-0.23524079,0.33832034,-0.49679837,0.49284315,-0.46110886,0.29046696,0.5157675,-0.061442293,0.04933077,-0.3457744,-0.16717343,0.0035286031,0.28376603,-0.12036223,-0.19614634,-0.3043715,0.43938535,0.048019484,-0.11120957,-0.15337093,0.14025751,0.35644448,-0.39181373,0.28463462,-0.47323033,-0.22513562,0.27378422,0.23846398,-0.08656084,-0.122698605,-0.40230626,0.43205512,0.4993729,-0.30959153,-0.23355593,0.30881125,-0.4617331,-0.2250957,0.4697474,0.45384863,0.15386045,0.28229308,-0.43379325,0.13261913,0.4943368,-0.32756883,-0.2182185,-0.2619071,0.059871554,-0.14734639,-0.45229766,-0.4628826,0.3483573,0.31514317,-0.11778102,0.0142116165,0.08070409,-0.44149166,-0.16414374,-0.3017167,-0.4028051,0.06282719,0.3344914,0.21445829,0.4483937,0.514611,0.46758574,0.017216168,0.24807316,-0.26855242,-0.14254238,-0.067139424,-0.41842473,-0.07037671,0.10744454,0.15959702,0.02235644,-0.18489957,0.38008374,0.3970649,0.047075704,-0.3111866,-0.16690893,0.08559978,0.39649606,0.005376488,0.12179501,-0.39768302,0.2727977,-0.25762483,0.37855586,-0.09383824,-0.09426842,-0.25018826,-0.42314452,0.31163657,-0.155657,0.08371151,0.23182663,0.4792754,-0.37113038,0.3578796,-0.14360777,-0.23396416,0.21542759,0.26743165,0.41444558,-0.17195204,-0.19631864,0.42894843,-0.15800533,-0.13147235,0.20806587,0.41846442,-0.49709022,0.37192136,-0.2813429,-0.0005028943,-0.2017725,-0.09419118,-0.46305773,-0.15967616,0.09997883,-0.44195008,0.34671763,0.028458925,0.45957148,-0.48702687,-0.044283148,-0.15150173,0.49255252,-0.32015276,0.37884232,0.3925438,-0.3428844,-0.2134461,0.0070184423,-0.04359037,0.107485615,0.4492609,-0.052079737,-0.041823607,0.22996151,-0.030363461,-0.34011513,-0.11373435,0.41462395,0.12513068,0.29891118,-0.17559686,0.1894694,0.18165378,0.15741618,-0.41631794,0.21881822,-0.15004438,0.30171138,-0.31420922,0.23431699,-0.14583841,0.3819361,-0.2152181,-0.24155731,-0.13218307,-0.043388072,-0.38283145,0.4180417,-0.41947484,-0.10987564,0.37766936,-0.47622547,0.45420876,0.11976619,-0.03794029,-0.3367629,-0.33699918,-0.27214047,0.18842132,-0.0056575164,0.31611583,-0.08799298,-0.04360973,0.11754436,-0.12948146,-0.041806165,0.35396987,0.40566242,0.3461155,0.25757945,0.18600294,0.1743934,0.40960306,-0.10925765,-0.01542888,0.07151795,-0.23389477,0.21787967,0.25809452,0.20038505,-0.0510655,0.3730374,0.4257915,0.03509822,0.2668291,-0.4803124,0.12529716,0.10096121,-0.3629943,0.2850953,-0.4238246,-0.2548674,0.4386503,-0.30303758,0.2557521,-0.06296097,-0.07594128,-0.45603156,-0.38100266,-0.21635038,-0.17683023,-0.34087896,-0.13648137,-0.05769231,0.016797638,0.013563585,0.44907326,-0.37775818,-0.03146134,-0.45815974,-0.2823329,0.19972122,-0.16434619,-0.06886921,0.30634055,0.060262356,-0.047019932,0.3466689,0.032167338,0.39548847,-0.07616348,-0.37066612,0.32838854,0.29478613,0.33826202,-0.1585203,-0.22735341,-0.44862056,-0.24251764,-0.20929493,0.44723934,0.5015991,0.20084369,0.35478193,-0.3364797,-0.29595983,0.12523226,-0.2503407,-0.17368571,0.08324912,0.031720296,0.36909318,0.06862774,0.0895904,0.25124955,-0.34376898,-0.22187176,-0.48680753,-0.03533713,-0.25484094,0.34861174,-0.12274554,0.020992883,0.16446012,0.42091632,0.49970603,-0.029689899,0.023973977,0.36573505,0.10933296,0.34689003,0.46628448,0.42777395,0.314814,-0.118301205,-0.0842068,-0.447265,-0.15098116,0.4548595,0.19631048,-0.23068151,0.37366512,-0.0118758865,-0.46028572,0.26678568,0.021328997,0.47443226,-0.1831979,-0.1516235,0.28305292,0.36442894,-0.24090381,0.20179391,0.048458006,-0.3035708,0.37390944,-0.3643258,-0.086716376,-0.10766461,0.23185648,-0.31532353,-0.39089066],"bias":-0.3971258},{"weights":[0.1307307,-0.17968656,-0.39508843,-0.21835941,-0.13149418,0.072264284,-0.000021625296,-0.36557728,0.27924743,-0.34574747,0.14449613,-0.47623748,-0.39156067,0.22730382,0.4722691,0.4017273,-0.016293073,-0.22500475,0.15384768,-0.4983096,-0.4844328,0.25462162,-0.41783774,0.030128691,-0.17958309,-0.495271,-0.3736301,0.019639209,-0.015757633,-0.29592744,-0.11523589,-0.38112554,-0.3714856,-0.07242344,-0.44654334,0.17115219,0.1023473,-0.43416482,0.03321925,-0.093946695,-0.012625132,0.3341649,-0.3089746,0.10044813,-0.0889176,0.4105441,0.35883412,-0.33862746,-0.48207763,-0.4210253,-0.03225326,0.21002074,0.06623848,0.374739,-0.16273776,0.32396957,0.2034998,0.447351,-0.4045175,-0.12649481,-0.4030895,0.42183742,0.019859806,-0.43681097,-0.20909454,0.1318665,0.0745969,-0.21957491,0.35051596,0.15809032,0.4041734,0.40986037,-0.14204696,0.073686905,-0.21974365,-0.06766416,-0.34699336,-0.019503413,0.007715082,-0.43913168,0.16987064,-0.13130106,-0.28796288,-0.1247496,0.30431637,-0.07404495,-0.1404696,-0.17886744,0.22834206,-0.4013449,0.38059235,-0.23856834,-0.12903081,0.034673814,-0.5248611,0.42989153,-0.4563107,-0.15965888,0.17831817,-0.44877812,-0.53708166,-0.32141232,0.29531124,-0.36556605,0.4788181,-0.074302204,-0.12039006,-0.44347537,0.17159632,0.15504523,0.15518539,0.16799949,-0.24379092,-0.39946422,-0.18365292,0.25870785,0.42444095,0.085568905,-0.48602894,0.0153796505,0.14880078,-0.24175754,-0.40847954,0.24836072,0.20636097,-0.083142474,-0.4910074,0.32366848,0.33300328,0.44145402,0.35806826,0.07084178,-0.21613693,-0.24624911,-0.42713475,0.44181243,-0.38972208,-0.3552508,0.44991598,-0.1000587,0.15573663,0.4319233,-0.0012211386,0.37263063,0.03149924,-0.34052387,-0.40685555,-0.17964417,-0.3591063,-0.24430689,0.17071705,-0.5046697,0.3568489,-0.5404568,-0.42357334,-0.12848243,0.32624882,-0.49572885,0.4634015,-0.3649962,-0.4476306,0.32361993,0.037523944,-0.3314962,-0.2525901,-0.02532821,-0.28025973,0.11806515,-0.5105925,-0.24563764,0.39378127,0.11939892,-0.47605368,0.17859694,-0.25751808,0.13479392,-0.24023047,0.16747239,-0.5503382,-0.55401844,-0.10977643,0.2742093,0.16911899,-0.4891017,-0.25087675,-0.20644134,0.30514753,-0.14732908,-0.40503624,0.54410166,-0.39731157,-0.28437597,0.4867941,-0.18005873,0.33801863,-0.0027797008,-0.089287266,-0.18934661,0.5117498,0.20984116,0.114366435,0.003106712,0.39724183,-0.45882964,0.3732398,0.37337512,0.26177964,0.42832628,-0.33659887,0.09761698,0.19495764,0.21270064,-0.22665064,-0.5395391,0.44023442,-0.27624604,0.24575898,-0.05952919,0.23296076,-0.16985862,-0.19399804,-0.084124304,0.2160916,-0.16471298,0.34325486,0.26419497,-0.12033222,0.0035915244,0.3842038,-0.506757,0.32998583,0.19391106,-0.41836035,-0.3374112,0.14602372,-0.19516908,-0.19748671,-0.3065147,-0.25222564,-0.2507053,0.13806608,0.42792243,-0.075725,0.434837,-0.06890989,-0.15415487,-0.32172808,0.48246402,-0.1525179,-0.1267552,-0.08339314,0.43992692,0.26218018,-0.48772568,-0.44167843,0.007417296,0.39248997,0.4379695,-0.02884313,-0.42717534,0.10644098,0.015519274,0.29787073,0.086591475,-0.5119348,-0.040618565,-0.5187928,0.006883398,-0.35465482,0.024231926,-0.15437263,0.1931295,0.12309679,0.41603366,0.16144243,0.07183071,0.44473943,0.3322472,0.45745268,-0.03550823,0.082901254,-0.18360676,0.26230288,0.27456522,0.2019046,-0.36918372,-0.10150843,0.019942444,0.22964068,0.34341004,0.16981691,-0.010529039,0.16252884,0.20466185,-0.21695149,-0.5483826,-0.37512118,0.1811923,0.16575196,-0.2086206,-0.30263814,-0.3569678,-0.10737094,0.5758666,-0.23688209,0.39810342,0.10063036,-0.392312,-0.30911675,-0.13628674,0.23458423,0.40818843,-0.14560513,0.022957893,0.0072197276,0.251455,0.26221815,-0.37950918,-0.059446238,0.3159561,-0.34937516,-0.44319445,-0.009840681,0.281826,-0.46362755,0.06155478,0.46044314,-0.27316844,-0.37550464,0.5170603,-0.03178804,0.26724094,-0.31792632,-0.30513984,-0.26617947,0.44635355,-0.03011791,0.053358182,0.2709764,0.10351796,-0.14949821,0.33225137,0.30340004,-0.19688655,0.1876066,-0.16122997,0.4359718,-0.0017655386,-0.038017713,-0.36786786,-0.6233598,0.1276334,-0.6360743,0.20408152,-0.062326364,-0.35929567,-0.35951278,-0.2983611,-0.054881647,0.40616852,-0.02535126,-0.38216165,0.011152055,0.47776267,-0.29457277,-0.06688009,-0.20113985,-0.16932061,-0.12050987,-0.30031532,-0.13805811,0.032031454,0.17306793,0.38589713,-0.40773138,0.12404324,0.3346341,-0.22384779,-0.122008875,-0.56000787,0.103091724,-0.19392768,0.24063985,0.48907563,0.5246033,0.088524535,0.45095065,-0.03702405,-0.17719793,-0.17145766,0.48705313,0.4694389,-0.31218177,0.44634792,0.33201858,0.5098592,0.4927107,0.45000678,0.53562516,-0.1819896,0.31741163,0.34957945,0.3619591,0.34849575,0.34468147,0.4129436,0.24136081,-0.4835353,0.20756829,-0.13775702,0.47384626,-0.31993222,-0.05347101,-0.23704395,-0.08837063,0.38537273,-0.2840914,-0.40965793,-0.43694672,-0.12460255,0.24971677,0.32546973,0.030047396,0.34803414,-0.09332444,0.4157632,0.24730672,-0.11484817,0.3965901,0.18051617,0.4099817,0.25936863,-0.13559869,0.4020501,-0.41855717,0.30277205,0.4823672,0.2131192,-0.24560611,-0.26983592,0.1584644,-0.36448306,0.38770998,-0.309611,-0.10837,0.032427352,0.14312305,0.30257842,-0.07852691,0.45182824,0.09764655,-0.4043076,0.15678541,0.28903285,0.65026015,0.59716874,-0.21416694,0.42465603,-0.36336696,0.58579266,-0.20952769,0.3118144,-0.34911257,-0.17579667,-0.17337653,0.042098068,-0.18508878,-0.12329661,0.31371185,0.32929116,0.20637015,-0.29722667,0.29258847,-0.05639028,-0.48060697,-0.0030469345,0.23317271,0.1737443,0.21065952,0.4931585,0.3765758,0.43665335,0.29879275,-0.08022566,-0.17761253,0.34218112,0.007911652,0.5754091,0.3713345,0.5947379,0.4387097,-0.028983535,0.16857758,0.46456394,-0.15432076,-0.23504753,-0.46765766,-0.30376175,0.3703723,-0.24603501,-0.24355972,-0.3844781,-0.28742346,-0.3748453,-0.46508926,-0.25482196,-0.09223695,0.406577,0.609961,0.048473608,0.43633556,0.39885715,0.0685886,-0.0056653987,-0.082122035,-0.29800037,-0.36956277,-0.31553513,0.33646342,-0.3361813,-0.004536457,0.39402348,-0.427463,0.033400223,0.2925503,-0.26295733,-0.46419343,-0.46947265,-0.120193526,0.41435707,-0.2492044,0.3175279,-0.20371342,0.36288857,-0.09500796,0.044572134,0.56419927,-0.27878636,0.57422364,0.50499326,0.56900144,0.15887824,-0.1568202,0.28111205,-0.27731374,-0.2545989,0.033846572,-0.22326085,0.41364443,0.4524472,0.4483544,-0.121520795,-0.038725026,-0.32611433,-0.29732642,0.3867477,-0.010331602,0.19701678,-0.24020183,-0.29454744,-0.16564971,0.028023684,-0.06461781,0.44946954,0.49223062,-0.21392491,0.44857967,0.21659353,-0.05630838,-0.20565066,0.48499784,0.33062735,0.2797805,-0.37010798,0.4422529,0.44417465,0.0016457591,-0.43131444,0.48918435,-0.31511468,-0.48424742,0.44243795,-0.08661452,-0.21556666,0.081264734,-0.4487018,-0.17344216,-0.49587446,0.18031761,0.09831205,-0.44125786,0.13007286,0.18179578,-0.0072163325,0.2735735,-0.08485785,0.49741417,0.2606432,-0.09877765,0.241487,-0.067655824,-0.06347385,0.05358696,-0.19894947,-0.44914654,-0.29353896,0.15526144,0.14546454,0.24163483,-0.1454653,-0.54727364,-0.06837121,0.13111165,-0.024646142,-0.21866779,-0.15735602,-0.33996928,0.15985316,0.27242765,-0.20031439,0.24117649,-0.32708547,-0.16126874,-0.24754775,0.06329641,-0.4786169,-0.4032336,-0.17649679,0.23124532,0.32020268,0.3807045,0.31303874,0.4291197,0.216092,0.17467321,-0.09902271,0.3145342,-0.16795212,-0.31097043,-0.12794223,-0.029588317,0.20609841,-0.4846808,-0.46998397,0.44084305,-0.076361805,0.42067182,-0.13044897,0.3536375,-0.041929413,-0.078984745,0.2480879,0.29231635,0.050836354,0.110106304,-0.38297534,-0.26474136,0.39827958,0.21032421,-0.08155746,0.13388409,0.24386647,-0.17021516,-0.14301743,0.28958398,-0.3975727,-0.29000816,-0.055388533,0.31931806,-0.11070329,-0.121391706,-0.3832167,0.2923277,-0.22002548,0.12800175,-0.51772535,-0.48651722,-0.5257656,0.029349454,0.12896423,0.451716,0.061636247,-0.02777152,-0.11746512,-0.40951106,-0.24581242,0.3534395,-0.25359085,0.006291709,-0.24175288,-0.25386906,0.40510732,-0.01203328,-0.47685364,-0.07775679,0.20783687,0.21361618,0.1613784,0.008432576,0.3100538,-0.275857,-0.21489176,-0.43966493,0.122548304,-0.55480236,0.4204031,0.40418345,-0.26326382,0.34938473,-0.19677132,-0.5101042,0.11546767,-0.29241508,-0.501194,-0.3756582,0.29600427,0.41206455,-0.4916843,0.3556702,-0.15271376,-0.31435823,-0.23479639,-0.27588922,-0.3967097,-0.14682828,0.4194288,-0.3062881,0.36906224,-0.36391968,0.28478608,-0.4558756,-0.44293955,0.184827,0.07121893,-0.32559827,0.37679663,-0.16707972,-0.13980712,0.30303067,0.1186177,0.34923562,0.25775427,-0.36444739,-0.20000507,-0.456305,0.08021935,-0.034325123,0.2968394,0.20989859,0.3644237,-0.44383883,0.039560523,0.42281446,0.43715474,-0.14040782,0.068283334,-0.26154003,0.45543522,-0.31619808,-0.36212543,-0.00015618748,-0.3866434,0.47442967,-0.05956914,0.36153826,-0.017156264,-0.13214792,-0.0662318,0.075773396,-0.44805136,-0.19793892,0.20094474,0.36221883,0.066856004,-0.10267002,-0.22377911,0.42145994,-0.10104366,-0.39650965,-0.21563941,-0.3205953,0.13821787,-0.45952404,0.47214335],"bias":-0.06741023},{"weights":[0.1420607,-0.4305709,-0.24406898,0.44077504,0.2398403,0.417797,0.003005947,0.52016896,0.31540847,0.17687301,0.29063204,-0.09642364,0.40741768,0.22194386,0.45787445,0.116122216,0.46684608,0.5217921,0.35237873,0.055633545,-0.14739482,-0.3495546,-0.12758648,0.38005367,-0.19025135,0.053457778,0.27918223,-0.27500114,-0.41896233,0.26592803,-0.36020747,-0.382204,0.26773822,0.5556185,-0.37146428,-0.23527455,0.11698577,-0.25656193,-0.12913036,0.33792844,-0.22254047,-0.33722392,0.33177882,0.26748344,0.27857468,-0.38327143,0.18637244,-0.30410734,0.34556577,-0.42930558,0.48356816,0.22058709,-0.15549536,0.14822522,-0.3297754,0.33399954,0.118569575,0.41193098,-0.2795897,-0.30099243,-0.15286927,0.30654773,0.44771883,-0.09739065,-0.046507444,-0.07186415,0.13613667,0.23982145,0.39025447,0.094362706,0.50188893,0.4053285,0.13503839,0.19144556,-0.2771802,0.028072884,-0.21678619,0.23049812,-0.30347794,-0.4264455,0.44408235,-0.29435036,-0.29027522,-0.46332943,0.102410756,0.013911276,0.18903264,-0.24267471,-0.18032499,-0.33159786,-0.17387877,-0.017902615,0.38610038,0.3748615,0.26493797,0.30485833,-0.4162222,-0.1389667,0.4031412,-0.11660922,0.4299038,0.46364516,-0.44964996,-0.14247265,-0.31648785,-0.00930412,-0.16998012,0.34557715,-0.37667248,-0.45188078,-0.3404202,-0.33222178,0.31103715,0.37870097,0.2641721,-0.36416566,0.30101097,0.20985171,-0.04057946,0.016174642,0.5066649,-0.26290426,0.37359852,-0.057656106,-0.07217832,-0.44907424,0.1565794,-0.36104763,-0.40021926,-0.23565735,-0.05692743,0.28435653,0.24031557,0.082784146,-0.20822768,0.059975766,0.5060979,-0.19404805,0.28720906,0.12041836,0.02685717,0.15269852,0.386284,-0.18497007,-0.13842575,-0.14219321,-0.14468649,0.23094863,-0.039854996,0.469947,-0.2530453,0.12688269,-0.23280185,0.29930982,-0.0053073126,-0.06572051,-0.24871351,0.20461734,-0.2892487,-0.29095903,-0.493961,0.48863637,-0.19711241,-0.10264488,0.46838608,-0.4701576,0.48212445,-0.007861177,0.20107944,0.2510858,0.39858517,-0.4286756,0.21168739,-0.48100996,0.2534027,-0.41261673,0.20587923,-0.32288665,0.2184738,-0.18875846,0.24081631,-0.10937057,0.02601106,-0.24240641,-0.28295985,-0.08479722,0.09313326,0.06468651,-0.11636268,0.43842885,-0.004050409,0.42634195,0.20546,-0.32084522,-0.46631524,-0.45241758,0.020203166,-0.3633569,0.25652382,-0.21553954,0.10080032,-0.19490857,0.009590806,0.38723576,-0.49521834,0.055246077,0.3591227,-0.0891628,-0.25315925,-0.13020694,-0.1829022,-0.22158644,-0.27028087,0.34517038,-0.44301054,0.28937742,0.22134987,-0.42638713,0.12981671,0.2944817,-0.20279832,0.25928265,-0.34152958,0.46782953,-0.30611366,-0.203552,0.27871943,0.26818934,-0.3215057,0.1436913,0.47831842,-0.3839099,-0.35219717,-0.06892542,-0.43126065,0.4552718,-0.017386677,0.07860464,-0.43050376,0.18410403,-0.07081863,-0.07236162,-0.21757108,0.023834312,-0.022972934,0.13181366,0.23890471,0.10936277,-0.2780202,-0.50935143,0.44540784,-0.38105687,-0.14866106,0.4445996,-0.3585062,-0.11505243,0.46891248,-0.35799816,0.189807,0.45590693,0.18043968,0.062873095,-0.31299022,0.21136154,0.28811836,0.26265192,0.106671154,0.29471534,0.409507,-0.29451972,-0.21581067,0.015183025,0.31734082,-0.015580216,0.09153275,-0.039467335,0.20901033,0.25017905,-0.24638984,-0.33672315,-0.14417565,0.042927433,0.5088224,0.1564693,-0.114005215,0.3281166,0.089306705,0.16411571,-0.43974996,-0.415494,0.10166211,0.0903621,0.36222434,0.27558914,0.26411316,0.15165186,-0.35717574,-0.08262668,-0.23598738,0.30398116,0.47274944,-0.4617305,-0.058320075,-0.31599745,-0.3913336,0.051279195,-0.4163126,0.10606219,0.13495588,0.095234215,-0.40785456,-0.40487,-0.30836436,0.4055495,-0.33085263,0.28695324,-0.33335394,0.19288564,-0.11979458,0.4745363,-0.40471157,0.28450677,0.31973803,-0.2792954,0.19860773,0.38034797,0.292586,-0.19935378,-0.056306906,-0.26928106,0.15038463,-0.19429603,0.17689939,0.25392422,-0.2159861,0.22409295,-0.4332194,-0.28020033,0.23862055,-0.24492744,-0.018107424,-0.08096442,-0.17129122,-0.12750931,-0.14851376,0.34752953,0.02563225,0.2163019,0.55771005,0.5713525,0.040766638,0.40956965,-0.36112562,-0.13905275,-0.20565674,0.47826716,-0.27892327,0.16584095,0.34136024,0.19416478,-0.38094473,-0.43424478,0.06084285,-0.47389913,0.15348485,0.15836117,0.14722762,0.21910784,0.43042842,0.29371154,-0.285597,0.18456094,0.16680892,0.11822757,0.22528413,-0.11313013,-0.07290382,0.017903667,0.44002274,0.062603846,0.4412847,0.4181872,0.31034997,0.4846503,0.02554222,0.08304972,-0.114814356,0.26870212,-0.50499564,-0.42214027,0.35749292,-0.4332834,0.38079756,-0.23260957,0.010779323,-0.43644193,0.0072062956,-0.22441693,-0.00024521985,0.055825155,0.40133536,-0.39820135,-0.41247106,-0.087897204,0.22858799,0.14273761,-0.21886888,0.1544335,0.15952867,-0.18794975,0.1882688,-0.14613527,-0.3240595,0.11751607,0.48527348,0.08685397,-0.4499078,0.21792112,-0.15969834,-0.11606696,0.08495716,-0.30556053,0.23351963,-0.32877684,-0.18058373,-0.3901614,-0.124296226,0.381513,0.11715434,0.11539458,-0.30389616,0.302815,0.43338782,0.034764368,0.47485095,-0.26567376,0.4035185,0.3136594,0.43210265,-0.14351651,-0.114006154,-0.1906194,0.41560888,0.29670915,0.46961477,-0.33694026,0.45841172,-0.23943093,-0.29703945,-0.16963038,-0.045371514,-0.038102176,0.23496062,-0.112148054,-0.21199515,0.42729536,-0.13320479,0.092442185,-0.25342125,0.5291001,-0.43140784,-0.3561869,-0.4491272,-0.110973805,-0.29616433,0.20537452,0.4566962,-0.35985202,-0.19005845,0.22858879,0.48703247,0.35916921,0.5164005,0.29465726,0.40445104,-0.25845817,-0.3841185,-0.19272216,-0.21576329,-0.5514046,-0.4776246,-0.17141455,-0.07352805,0.24045177,0.39281255,-0.09911882,-0.2578194,0.16242658,0.020253837,-0.44820064,0.1119979,-0.19222768,-0.22806767,0.16543964,0.43668565,0.28556755,-0.088131666,-0.20999892,0.25373152,0.4920391,0.44156465,0.2857229,-0.027405381,0.39824063,0.11302565,0.3267298,0.34026566,0.17329158,-0.5596398,-0.38240027,0.17781161,-0.30644664,-0.43805188,0.4434479,0.41064644,0.21272902,-0.4107465,-0.11853687,-0.22412272,-0.0062949997,0.13084139,0.45463023,0.1246367,0.45475426,-0.07166691,-0.3826995,-0.06344186,-0.036990322,0.2502365,-0.16875808,0.23818243,0.02593318,0.019709999,0.31534973,0.39729723,0.31189972,0.17415474,-0.26579285,0.30184346,-0.32225385,-0.47935373,0.25941572,-0.53365093,0.23607019,0.24183013,-0.32409692,-0.28973767,-0.44490907,-0.03662656,-0.054086834,0.1842749,-0.12843792,0.36346558,0.33250776,-0.35603788,0.41604567,0.4111018,-0.18096489,0.14725722,-0.46489865,-0.3379259,-0.42146975,0.00306035,-0.4342249,0.3719704,0.16354519,-0.48006117,-0.42211315,-0.12621386,0.3530455,0.090060756,-0.52897316,0.029403463,0.2726849,-0.20418818,-0.48436528,-0.1180246,0.40647456,0.44553605,-0.4058883,-0.33238283,-0.3538574,0.24618444,-0.19007726,0.12150327,0.12619448,0.49196082,-0.17145552,0.4680011,-0.39401504,-0.36910152,-0.11988259,0.102611974,-0.49117213,0.3764624,-0.016023064,-0.53437954,0.39089933,-0.07598738,-0.13085419,0.20655632,-0.004270036,0.0777694,0.20561251,-0.44670725,0.51940686,0.50167096,-0.15990737,-0.34323364,-0.4252522,-0.07394832,-0.027775383,-0.16709335,-0.40214857,0.50694793,0.44458506,0.37031376,0.5132367,0.27228212,-0.3402822,-0.33260894,-0.10437858,-0.5650471,-0.3429779,-0.39375448,-0.46865782,-0.11927383,-0.36222723,0.2480828,0.3673915,0.35871682,0.07527583,0.26525638,0.031493027,-0.32276022,-0.2770719,-0.3714128,0.21331911,-0.4778944,0.41512534,0.03584807,0.19533777,-0.010642763,-0.38763356,0.074996755,0.13740796,0.43653372,-0.27497593,-0.13287921,-0.026754083,0.014074365,-0.07575357,0.27226567,0.09524063,0.36843473,-0.43220538,0.34452775,0.13478094,-0.27322158,-0.058107063,0.03459786,-0.2393478,0.16289736,-0.24113318,-0.16554148,0.118215725,-0.43325627,0.4219797,0.21840079,-0.40363374,0.026697636,0.32706237,-0.3093865,-0.3035017,0.37458426,0.17943244,-0.0077240365,-0.15736963,0.3370363,-0.42679784,0.27297422,0.42242932,0.26372686,-0.48974958,-0.17035323,-0.18069725,0.052984208,-0.17847516,-0.0916003,-0.48748899,-0.11981128,0.36458874,0.0527523,-0.24629137,0.104852356,-0.52576226,-0.5415144,0.44480628,-0.26332787,-0.35013488,-0.15355732,-0.05857157,0.45115513,-0.075383276,-0.04610326,-0.1366162,0.22395194,-0.012156447,-0.17022933,0.17542945,-0.4255789,-0.46733364,0.0060047903,0.041187614,-0.29386836,-0.0086092325,-0.43984872,-0.21094993,-0.5135356,-0.3330965,0.20645882,0.24269372,0.1448788,0.32148498,-0.5560233,-0.2848632,-0.38819206,0.013148678,-0.38125956,0.010933999,-0.27282193,0.25436962,-0.08862933,-0.46549338,0.17397113,-0.16143578,-0.1020943,-0.44220087,-0.21982236,0.00068565673,-0.36939692,-0.24288899,0.26577997,-0.37917018,-0.5341324,-0.5178832,-0.21528424,-0.52262765,0.17624141,-0.32979056,-0.29819086,-0.54262525,0.04314483,0.2810569,-0.40236276,0.2110476,0.11669198,0.036536794,0.04951023,-0.2801969,-0.22407311,0.35331672,0.18664546,-0.28117976,0.03677718,0.07882475,0.28347754,0.52061766,-0.31233326,0.17764045,-0.22973521,0.2538787,0.023659734,-0.43472603,0.23319384,-0.30332312,0.35749096,0.0891329,0.42754638,0.28025267,0.44691697,-0.3271726,0.051320776,-0.11038052],"bias":0.5228734},{"weights":[-0.09917138,-0.040979426,0.2578641,0.4583457,-0.2265665,-0.3750528,-0.39615408,-0.04452326,0.34367907,-0.051251616,0.029191785,-0.3081751,-0.3048145,-0.46720085,0.1555145,-0.3259744,0.122496754,0.030969512,-0.17988315,0.3375616,0.02676429,-0.41236925,0.07771807,-0.2139853,0.3204617,-0.21371746,-0.38475895,-0.12495464,0.2201627,0.4469258,-0.18864745,-0.22974186,-0.1524283,0.08052301,-0.20598924,0.27061215,0.5115708,0.19551688,-0.46518165,0.35949594,0.47022992,-0.0067006177,-0.23415117,-0.46483213,0.12138281,0.20350048,-0.076114714,-0.15598868,-0.1359855,0.23236334,-0.15926585,0.16679244,0.20218387,0.25703174,-0.26250657,-0.40511313,0.33107752,-0.035961375,-0.2519846,-0.4822157,-0.07240922,0.11714587,0.14015724,-0.06606124,0.12818524,0.16386272,-0.5308592,0.20958056,0.33383647,0.28736386,-0.3876315,0.29260007,-0.0174755,-0.5322375,-0.19357456,-0.505792,0.08117345,-0.3502871,-0.5260365,-0.10373607,0.28149608,-0.016546125,0.1663709,-0.023402316,-0.23334764,0.016686978,0.022323243,-0.31001684,0.3053936,0.34593335,-0.3846747,-0.20109,-0.40878177,0.025407301,-0.2309325,0.2493135,-0.5132334,0.40873343,0.3102172,0.1683758,0.44647965,0.23915415,0.16075732,0.30617908,-0.07585526,0.07737325,0.3368285,0.2628999,-0.54011995,-0.0610673,-0.4007515,0.3070994,-0.13385814,0.4956483,-0.25422937,0.24895447,-0.03904239,0.42667392,0.18668854,-0.27856976,0.4084555,-0.11968316,-0.19847885,-0.2817274,-0.5151273,-0.40791917,-0.111207746,-0.3644666,-0.2839622,0.3389851,-0.31180134,0.19624923,-0.3324586,0.03535599,-0.019861443,-0.30627054,0.38898525,-0.5571686,0.1246168,-0.36428028,-0.34469408,0.22481224,0.10622678,-0.05937088,0.21338215,0.221548,-0.4108614,0.2606873,0.40319782,-0.029920284,0.08002771,0.06308974,-0.40298578,0.07988109,-0.18131213,0.17820579,-0.3121512,0.18906419,0.50949025,-0.31606826,0.029758893,-0.017749233,-0.2036681,-0.18065822,0.19256409,0.12097877,-0.3870518,0.3090067,-0.4363631,-0.33467487,0.26305538,0.4129594,0.13120338,0.03915591,-0.21401715,-0.057611603,0.44358525,0.0019234675,0.41666406,0.3441499,-0.041696884,0.2967496,-0.041239936,0.0784247,0.103999004,-0.29049492,-0.3789789,-0.25276855,0.34545875,-0.28597182,0.29980254,0.1027385,0.0055559203,-0.073989406,-0.16221696,-0.34958422,0.11677662,-0.44922224,0.006393013,-0.32502505,0.22274646,-0.20905897,-0.23322949,-0.2890246,-0.36781138,0.1175618,-0.28210524,-0.2974694,0.26364592,-0.13179201,-0.3961386,0.4522555,-0.019702075,0.041207977,-0.40663907,-0.43515253,-0.0065514436,-0.2760152,-0.39487612,-0.18437965,-0.009253738,0.31822217,0.2281566,0.37790167,0.16895849,-0.42746317,-0.04427449,-0.3222259,-0.39678314,0.32789075,0.40012568,0.047452513,-0.2853633,-0.34780073,-0.39781016,0.51765084,0.35005867,-0.09630258,-0.29253215,-0.091803655,-0.10302236,0.072013505,0.44428566,-0.28006485,0.2628195,0.36868045,0.09091876,-0.48936075,-0.31248918,0.028764732,-0.32933682,0.3295749,-0.0027586562,-0.4511601,0.33392206,0.18188554,-0.51840967,-0.43201363,-0.47035939,0.37764093,-0.061749227,0.42252904,0.2503579,-0.07700834,-0.03524825,0.09754072,0.53352755,0.19044758,-0.14322063,-0.21407756,-0.4007397,-0.24352121,-0.42645386,0.4431648,0.03377126,-0.2644163,0.16563565,-0.39416963,0.5076384,0.25832015,-0.05296195,-0.3434482,-0.2819631,0.034291256,0.360946,0.3704504,-0.12756051,-0.46970344,0.34111145,-0.1954513,0.23828919,0.37983522,-0.3275996,-0.17900969,0.36493328,-0.28413627,0.18438366,-0.43381658,-0.10708698,-0.2900123,0.05683046,0.08175272,0.5069283,0.3027534,-0.023208901,-0.31978253,0.07270545,-0.10349108,-0.17478389,0.24056008,-0.5221171,0.34085512,-0.04333846,0.08223254,-0.031763837,-0.40813342,0.36324456,-0.39175957,0.16984664,-0.054247446,-0.03533723,0.12492963,0.48130283,-0.08921762,-0.3504339,0.28012797,0.025305673,0.24527879,0.5451575,-0.22142439,-0.11132363,0.40149775,-0.3234741,-0.34043917,0.48759294,-0.28645387,0.10987119,-0.21953106,-0.406554,0.01869783,-0.48234364,-0.5607364,-0.4452375,-0.106821425,-0.3510378,-0.013847377,0.24154823,-0.17081778,-0.45431963,-0.26701686,0.2075731,0.031494837,0.035519063,0.23863009,0.47421515,0.2685364,0.02127511,-0.13905461,-0.12735014,-0.30611876,-0.44403955,-0.44453532,0.41846722,-0.29046196,0.2847916,-0.4419211,-0.014563794,-0.33948147,-0.03378894,-0.15979192,0.12225317,0.26091763,-0.05310319,0.12636533,0.20684814,0.31255552,-0.06993988,-0.5033411,-0.08082344,-0.10979016,0.32801375,0.17375176,-0.39907265,0.0037187506,0.20821182,0.18843278,0.018866412,0.37435922,0.04502247,0.33863467,0.29095834,-0.12201696,-0.07603798,0.029766457,0.29321727,-0.42191646,-0.3842192,-0.43797722,0.38111115,-0.47667587,-0.19229577,0.2746905,-0.17587763,0.028000092,-0.6038611,-0.13223858,0.07800912,-0.14368695,-0.01384623,0.22188826,0.04734084,0.48419183,0.37920618,0.61088455,0.13019525,-0.19258802,-0.34619343,-0.31457546,-0.07018926,-0.2561226,0.19961357,0.48669901,0.248379,-0.18917513,-0.17556241,-0.26807654,0.22415826,-0.09019026,-0.294494,0.22122039,0.35879546,-0.079222195,-0.0018599958,0.070279464,0.03889991,0.0045720697,0.2839758,0.11229258,-0.35131547,0.39276817,0.55425316,0.25288263,-0.4305213,0.14503554,-0.118412904,0.09266481,0.3659894,0.3293989,-0.31583884,-0.35815886,-0.48233342,0.13345353,-0.62034595,-0.46521538,-0.009233914,0.109729685,0.1163417,0.2859658,0.3262076,-0.3944102,0.09335615,0.20030156,-0.38385165,-0.37815017,-0.14412317,-0.37502617,0.41074106,0.5608697,0.4371624,0.11953576,-0.38262492,-0.44299152,0.16156383,0.04561477,0.16112646,0.2964277,-0.46905968,-0.27595982,0.14077745,-0.11082452,0.27587208,-0.21752691,-0.40408444,-0.36174846,0.041563667,0.24981664,0.29363987,-0.17257206,0.20405802,-0.35499394,-0.30822644,-0.04081924,-0.3101075,0.35248017,0.06537583,0.125237,-0.3684522,-0.3491793,0.43149325,-0.3009394,-0.22121397,-0.2542807,-0.11248443,-0.29017043,0.3826388,0.23560148,-0.26593512,0.13322024,-0.5130593,-0.6246299,-0.5934318,-0.062732115,-0.024580885,0.4307996,-0.19939277,0.44484207,-0.112898484,-0.04164364,0.19897549,0.36518434,-0.2764939,-0.036425713,-0.048602838,-0.20727454,0.35197413,0.18055874,-0.1961401,-0.41659313,-0.26329482,-0.34379524,0.44615832,0.42482343,0.25341278,-0.09111265,-0.011482715,0.27472758,-0.3755859,-0.21602005,0.3853531,0.28291312,-0.12278191,-0.13713753,0.10651766,-0.040154446,-0.09155041,0.52042764,-0.2766753,0.33184856,-0.18450588,-0.06946614,0.5221105,-0.3867019,-0.4276781,-0.026863243,0.49575794,-0.29017037,0.5222507,-0.14791352,0.15647005,0.19822915,-0.2749014,-0.08983325,0.20869371,0.19970676,0.15634024,0.26913866,0.10491252,-0.31410936,0.4222517,-0.15331091,-0.009204668,0.0316091,0.5291314,0.10380315,-0.19550538,0.13935524,-0.11136625,-0.24238116,0.19315816,0.24302772,0.3078345,-0.26273847,-0.012921701,-0.37049535,0.45422658,-0.40773445,0.4837713,0.09701092,0.21990125,-0.023469502,-0.38848302,0.35014245,0.12936433,-0.3423897,-0.37718815,0.41683847,0.29738486,-0.4003258,0.4132749,-0.116278574,-0.5190135,-0.4483774,0.35117176,0.13429587,-0.45692852,-0.052350964,0.057339154,-0.2018162,-0.15232195,-0.021169374,-0.40394133,0.2097363,0.44665253,-0.107697755,0.25853187,0.03057896,0.11990592,0.5095275,0.40130126,0.40255854,0.38771468,-0.0629279,0.17186156,-0.5553967,-0.5038698,0.1940669,-0.33861336,-0.2331409,-0.44350588,0.120544635,-0.44829744,-0.33274087,0.3993938,0.44644746,0.06365512,0.60829014,-0.2700208,0.27459386,0.3519186,0.53471524,-0.13254361,0.3938289,0.09431592,-0.0682192,-0.094391346,0.5435187,0.30735323,0.3926944,0.32034475,-0.28290403,-0.11333845,-0.1377659,-0.024315385,-0.33961156,0.24375892,-0.18219551,0.38896835,-0.2038592,-0.39559263,-0.43782982,0.44292596,0.61290723,0.342756,0.6563662,0.5213676,0.34277365,-0.24645299,-0.3001001,-0.40298003,0.26379824,0.48929334,0.19343993,-0.44908008,0.22395039,-0.021119943,0.3917864,0.20625584,0.53354245,0.041191466,-0.44782308,-0.4823257,0.18412253,0.1867241,-0.46196303,-0.55827993,0.061478246,-0.40220168,0.30078784,0.25786197,0.028644353,0.15363394,0.29089266,-0.046237994,0.19280647,0.35988432,0.016010225,0.5996728,0.42761427,0.16828145,0.02044915,0.14758521,0.17638603,0.371597,-0.08555873,0.055394795,0.38767856,0.19519477,-0.30013785,-0.046507753,-0.21156788,-0.20857607,-0.30120158,-0.45823932,0.3968901,0.23424642,-0.056307647,0.3661482,0.01576559,-0.11667798,-0.2130876,0.47988793,-0.040381514,0.42958748,0.43371394,-0.30319864,0.035026003,0.4708484,0.08757155,0.025995884,-0.15478848,0.4794486,0.04022629,-0.26198477,-0.10091277,0.2971691,-0.01545292,0.32608572,-0.4348335,0.31673542,0.19527538,-0.24073243,-0.16263719,-0.21864888,0.017601388,-0.19011886,0.5636735,0.63612896,0.41215307,0.21700093,0.53057617,0.33847174,0.20870063,-0.20784551,0.052875847,-0.1568674,0.43297392,0.08802913,0.094538756,-0.2797627,0.52736986,-0.33254814,0.39378154,-0.033844363,0.47042093,0.13642223,0.06661521,-0.32970956,-0.0671404,-0.085867435,-0.24556684,0.46473128,-0.043822028,-0.36768472,0.2581565,-0.11575627,-0.14489475,0.2785681,0.49525827,-0.028275367,-0.005824701,-0.12030836,-0.19339043,-0.20500045,-0.15287128],"bias":0.34673196},{"weights":[-0.15019725,0.4491239,-0.46057352,0.44597143,0.3142857,-0.4872957,-0.21140419,-0.118202366,0.050435305,0.37595123,-0.19797643,0.40713525,-0.5102367,-0.1939809,-0.15183072,0.46978894,-0.4885244,0.23674212,0.036363024,0.11329649,-0.20288788,0.18114811,-0.060536627,0.30058247,-0.11156288,-0.24588251,0.2226626,-0.38502043,0.061649173,0.24378613,-0.17789261,0.22155732,0.45242622,-0.38737622,0.13706657,-0.036936678,0.28592664,0.115139425,0.15649702,0.17343949,0.08190924,-0.09476068,0.47982484,0.12880486,0.28212723,0.15921076,0.48319253,-0.39395636,-0.30997616,-0.09542238,0.29674783,0.4527391,-0.16779311,0.40012923,0.0035310606,0.18926117,0.24315251,0.37999064,-0.41260502,0.32646966,-0.3993929,-0.14760019,-0.11663439,-0.37076035,-0.010482348,-0.0065569044,-0.26421434,-0.019674081,0.3370021,-0.47573715,0.2698247,-0.1709114,-0.2948833,0.09678483,0.10518342,0.41515142,-0.1101865,0.11193953,0.3256923,0.43616918,-0.023074618,-0.116203606,-0.34336087,0.15283798,-0.34588188,-0.38366258,-0.2549217,-0.32370797,0.43676397,-0.18459244,-0.08234442,-0.041389234,-0.48231646,0.41081548,-0.34517896,0.28775993,-0.071281694,-0.13474612,-0.11459718,0.41386306,0.09762501,-0.0711824,0.48846006,-0.42944828,0.1253736,-0.06942737,-0.13114089,0.46557817,-0.2685001,-0.11409444,-0.4154586,-0.40023255,-0.28547624,-0.2571952,0.4120936,-0.27795044,0.43333906,-0.1956732,0.29097942,-0.16521214,0.44620347,-0.15132779,-0.16309544,0.45702323,0.041966233,-0.4985281,0.17847736,0.40998006,-0.3421012,0.044822473,-0.15069629,-0.45757216,-0.4117178,0.09416004,-0.45285138,-0.036677726,-0.040394947,0.29533687,0.010325622,-0.202434,0.12449834,-0.508053,-0.45061758,-0.14941058,-0.43668178,0.2565913,-0.30503163,-0.1291453,-0.37811384,0.4062367,0.08554332,0.17344664,-0.4378172,-0.44187084,0.354052,0.31042734,-0.10932965,0.27859604,-0.3651059,-0.19521105,-0.2880631,0.41262424,-0.21167703,0.4354789,0.44213575,-0.2319403,0.061105438,-0.51430756,0.30712393,0.30601755,0.0028530688,0.43169308,-0.18447612,-0.04070864,-0.34150538,0.23521832,0.40632772,0.05015297,-0.41861367,0.48521122,0.25248516,-0.48243368,-0.32513776,0.18456806,0.44054857,-0.05571409,0.4650304,0.34758303,0.027541157,0.5112791,0.30388784,-0.39807722,0.3168014,0.06770444,0.17103474,0.13068657,-0.4038319,0.31568134,0.3214804,-0.35403168,0.355,-0.03097705,0.22740453,-0.0073362603,-0.2359251,-0.45356545,-0.45879897,-0.14950778,0.19676751,-0.01732133,0.22720602,-0.14119583,-0.30986398,0.2669395,0.47418466,0.06880463,-0.4457939,0.3385302,-0.3836273,0.06881866,-0.406187,0.17425214,0.31350458,0.022436865,-0.3578018,-0.101194195,0.27904242,-0.38153914,-0.2006993,0.15177104,-0.41509283,0.26462066,-0.27331007,0.3027366,0.21836983,0.20461516,0.060196765,-0.19616027,-0.29865697,-0.4690476,-0.21662053,0.41543183,-0.49313647,0.42099217,-0.25221652,-0.39266476,-0.27571538,-0.39783344,-0.17575192,0.02027077,-0.25363043,-0.17927359,-0.41012213,0.3169526,0.2891134,-0.10615489,-0.03609091,-0.24438787,0.23412393,-0.13012633,-0.3252484,-0.24858737,0.13589188,-0.14300707,-0.24791853,0.01052693,0.29077703,0.3507043,0.34368894,0.44555777,0.13392454,0.075997934,-0.4198304,0.16908547,0.32841626,-0.19960237,-0.08715406,0.30192327,-0.094888456,-0.028216058,-0.12563308,0.27972397,0.35214308,0.39963588,0.49657482,-0.14235906,0.13961288,-0.23721151,0.2601268,-0.08532917,-0.15124303,-0.2136755,0.46198505,0.17628737,-0.147104,0.42952773,0.46143875,-0.06991864,0.17553398,0.16605441,0.46061924,-0.44389233,-0.178484,-0.4033268,0.07480304,-0.29682997,-0.048568357,-0.15777148,0.4063266,0.0019869853,0.17472275,0.48531026,-0.30878586,0.17067301,0.19267267,-0.18753663,-0.45775327,0.4425767,-0.033218604,0.096893914,0.27142817,-0.39325047,-0.36893517,0.09219996,-0.088606104,0.3342334,-0.47143608,-0.31115195,-0.03525359,0.38618344,-0.43965945,-0.27514282,-0.033705395,0.35806057,0.035721913,0.24791522,0.24185197,0.2890493,-0.41287866,0.36669406,-0.47402102,0.053189754,0.2998356,0.14220496,0.30805677,0.06489458,-0.05144945,0.04385635,-0.10467336,-0.48790935,0.17518263,-0.3536792,-0.27130654,-0.08396648,-0.023299575,0.19261134,0.23917906,0.11420035,-0.4620621,-0.14039028,0.45087865,0.22463365,-0.316278,-0.2781298,-0.3851321,-0.0015762084,-0.16229954,0.3198771,-0.44329625,-0.25999054,0.15262482,-0.01190253,-0.06817007,-0.44157833,-0.3132621,0.3835705,0.10452792,0.2878623,-0.51010346,-0.24884343,0.0014736535,-0.3198992,0.38215077,-0.24530362,-0.450115,0.40070236,-0.14001928,0.42109734,0.10423848,-0.41038463,0.459518,0.2758119,0.30108723,0.18790463,0.29168698,-0.323373,-0.078369886,0.041338112,0.17110623,-0.38919148,-0.030668285,0.2986299,-0.3752454,0.20775832,0.17136379,-0.34630218,-0.41199464,-0.24777776,-0.21818736,0.24331604,-0.012581894,0.08542778,0.3329193,-0.06471829,-0.04299534,0.15444863,-0.011703327,0.19573219,0.20218453,0.44546375,-0.13205834,-0.5096824,0.27059925,-0.109694295,-0.3163597,0.1613886,-0.26094478,0.15835924,0.32766262,-0.20754717,0.27133867,-0.01280298,0.29609203,0.40113473,-0.44256416,0.15281926,-0.476881,0.26447064,-0.106592976,-0.20152487,-0.40898633,0.34878972,-0.2600746,-0.14166412,0.20593262,0.07888082,0.08746713,0.14023414,0.15549624,0.30829588,-0.2759866,-0.19241914,0.5250595,-0.35221833,-0.3718802,0.16017842,0.4333253,0.48663476,0.39591056,0.18838103,-0.18886161,-0.21299383,0.107246384,-0.45580643,0.38859075,-0.094087586,0.101716205,0.39617756,-0.41973057,-0.04720915,-0.27772802,0.083776675,0.038056504,-0.20063533,-0.52686006,-0.1515178,-0.21205072,0.3089644,0.19723783,0.350517,0.4631613,0.04146037,-0.3129107,0.4406233,0.36090973,-0.04037779,0.419888,-0.37255016,0.2461916,-0.08838624,0.049450308,-0.40506253,-0.01158987,-0.26447228,-0.16864812,0.48819166,0.19999093,-0.10972047,-0.06536813,0.12865235,0.16752152,0.05893521,-0.3300177,-0.36653107,-0.4837482,-0.14192095,-0.27859968,-0.17959693,0.4402323,-0.42266268,-0.36475602,-0.026116842,-0.39100912,-0.038796414,-0.4331551,-0.13001157,-0.010452252,0.5316996,0.27853182,0.043576926,-0.42001158,0.23138577,-0.059134677,-0.22427616,0.1472528,-0.1943921,0.14831969,-0.3252084,0.07195822,0.4299355,-0.04073894,-0.44226912,-0.36798373,0.31903479,0.21541975,0.35435122,-0.3638302,0.16294292,0.05927235,0.51135087,0.08861124,-0.011921128,-0.15768011,0.32643214,0.4747815,0.23973136,-0.09627248,0.5247787,-0.41693953,-0.39000663,-0.045782525,0.2053072,-0.43499088,-0.28970996,-0.21910517,-0.49453244,-0.43901935,0.34987307,0.2455092,-0.258333,-0.004050606,-0.38279474,-0.33884773,-0.32260704,-0.473704,0.23649393,0.50812864,0.07817245,-0.11632527,0.2522188,-0.03595469,-0.28145233,0.07537315,0.05680536,0.25222224,0.32143804,0.4960349,0.23873346,-0.38143712,-0.48236236,0.23842658,-0.26992747,-0.060810424,0.028293896,-0.17354695,-0.48599395,0.10904417,-0.45329767,-0.25881773,-0.104577534,-0.11090014,0.31594822,0.3182945,0.21518132,-0.20716697,0.0769211,-0.16777277,0.23775531,-0.3112037,0.36670622,-0.20165488,0.18717654,0.05899719,0.025391666,-0.08295606,-0.041077387,-0.26525357,0.347004,-0.11158269,0.3258523,-0.35145754,-0.36955798,-0.004214244,-0.1820581,-0.4745002,-0.025120188,-0.4206496,-0.36960828,0.2752958,0.18387346,-0.2578257,0.3734275,-0.0769121,0.34033203,0.35286182,-0.09644342,0.405456,0.0458548,-0.27499482,-0.14006181,0.04890958,-0.42758057,-0.36784205,-0.032088898,-0.2592454,0.44312134,-0.08031957,0.057755347,0.17564239,0.13606182,0.30993608,-0.32536164,-0.28976786,-0.5063441,0.17018439,0.07805522,-0.008645982,-0.41072124,-0.3788601,-0.49406826,-0.024381114,0.23505689,0.29786447,0.38461658,0.26723802,0.31460032,0.42996,0.44713977,0.28599775,0.23501784,0.10045866,0.45385718,-0.44394386,0.37290803,0.0011778341,0.29564804,-0.017418565,-0.45380926,-0.23842935,0.18307556,0.40194166,-0.3154,0.44610083,0.053277273,-0.24637975,0.062468003,0.28567126,-0.504444,-0.42617968,-0.062232185,-0.26458493,0.13542266,0.04702294,-0.23104952,0.13870013,-0.42523286,-0.123582676,-0.45005226,0.03485196,0.47763598,-0.077486254,-0.4025989,-0.12975803,-0.3767145,-0.4220606,-0.45445976,0.46471265,0.1960808,-0.06011879,-0.48179397,0.36623105,0.43778613,0.2183591,0.36376545,0.32951307,-0.051997233,0.36967275,-0.42983645,0.43094066,0.17702061,-0.44339094,-0.2807543,-0.43246922,-0.37152892,-0.48851046,-0.40655935,-0.3859306,0.09554686,0.28088605,0.44549742,0.13374196,0.4221932,0.28526375,-0.48288786,-0.40379384,-0.11202856,0.35612923,-0.23274526,-0.49419537,0.2950329,0.030497808,-0.1324563,-0.044612907,0.21580338,-0.43562263,-0.29440987,-0.27795205,0.28974047,0.22193986,-0.1790075,-0.4345611,-0.52551836,-0.5064938,-0.5215901,-0.011856699,-0.1521897,0.36042222,-0.053071972,0.43132156,-0.47315574,-0.39619455,-0.29288998,-0.04733945,0.37746438,-0.2676508,0.08339457,-0.21011361,0.30412903,-0.29423216,-0.013699646,-0.39358056,0.44389892,0.40282604,-0.13256106,0.3840444,0.24735357,0.0122648,0.023690555,-0.12174479,-0.15678386,-0.24587749,0.3905449,-0.121069625,-0.22251841,-0.071075685,0.07664189,-0.23597305,0.41150993,-0.42759043,-0.014505069,-0.5109757,0.11597578,-0.07882658,-0.23261528],"bias":0.31009957},{"weights":[0.34912217,0.37412596,-0.11204102,0.5561177,0.07084395,0.4954833,-0.033849042,-0.38611305,-0.17127286,0.05906398,0.40923184,0.42439637,-0.44262233,0.49692422,0.4431298,0.5212487,0.2018279,-0.011053088,0.033870474,-0.22553594,0.19933303,0.42875686,0.44705877,0.25590107,0.398963,-0.16554601,0.4020308,0.51146954,0.23530583,-0.3323926,-0.070775196,0.34791487,-0.43971473,0.08252229,0.43086842,0.0017142553,-0.30447328,0.025787327,-0.1592807,-0.42980546,0.12526351,0.10227754,-0.21828596,-0.1969024,-0.33636358,0.03839283,-0.053464673,-0.15600593,0.24875498,-0.00036170526,-0.1878597,-0.0056883683,0.25028992,0.2891418,0.4566255,0.30011687,0.23234771,-0.39839777,-0.22054383,-0.20708346,-0.07104233,0.12158142,-0.3881111,-0.19182889,-0.30009636,0.22693193,0.043967575,-0.21575196,-0.40952864,0.4920122,-0.024497095,0.33180597,-0.32463703,0.08950162,0.10672437,0.36705777,0.47176355,0.48497614,-0.3535218,-0.45111826,0.028956447,-0.25087994,0.2414741,-0.16127673,0.21001484,0.494095,0.34396467,0.08174489,-0.27092892,0.44027877,-0.20084016,0.18211685,0.34687898,0.3895699,0.13986272,-0.062507086,-0.4371338,0.4467361,-0.2760348,-0.25941494,-0.26836044,-0.35989738,-0.15257762,-0.2394375,-0.37564167,0.46224484,-0.22697334,-0.28713262,-0.07804514,0.15708752,-0.40487525,0.4079384,-0.019171273,0.13327664,0.2015762,0.20759146,0.18877257,0.3547362,-0.3338555,-0.26160717,-0.45734373,-0.25772125,-0.5052456,-0.15104952,0.32281655,-0.51023865,-0.35070425,-0.13405338,-0.23929548,0.41111997,-0.10678055,0.36411455,0.12818933,0.33802158,0.18307543,0.49184763,-0.00053663563,-0.15071385,-0.22034155,0.11080463,0.09438859,0.15220977,0.09759193,0.3431142,-0.27706113,0.4904377,-0.37493676,0.21262053,0.057163976,0.38367867,0.26338565,0.3839674,-0.09866374,-0.36072633,0.107702404,0.45344406,0.38641676,0.012606906,0.08284453,0.41405648,-0.48252916,-0.18070208,0.023797918,0.2800813,0.24084483,-0.26190937,0.48884147,-0.27419916,0.17545101,-0.06771504,-0.13519672,0.06294843,0.4914273,0.42965373,-0.33590293,-0.3390299,-0.23742162,-0.2751434,0.15226626,0.09623417,-0.28259218,-0.2016117,0.43929628,0.47523853,0.41108003,-0.4844266,0.47284147,-0.018514255,0.45533073,-0.32561833,0.29773045,0.3172563,-0.46876648,-0.36968124,-0.2411042,0.10565411,0.4597287,-0.23427397,0.45818058,0.19284156,-0.31457672,0.159839,0.3904529,0.23928508,-0.048992593,-0.21281315,-0.06415695,-0.10444454,-0.41107154,-0.36403278,-0.079178125,0.43152025,0.30946937,-0.11419618,-0.18831156,-0.47085944,-0.013164958,0.3654457,-0.118037544,0.38895932,0.13503456,0.24431401,-0.35626546,0.18450087,-0.23491697,0.2640399,-0.23220111,0.20975436,-0.1670203,0.06575707,-0.41130883,-0.2912899,-0.48159137,-0.15093285,-0.09137756,-0.102543384,-0.010815431,0.24758781,0.22178876,0.45330694,-0.17658615,0.013490724,0.12020486,-0.1655361,-0.20793536,-0.41388696,0.20525253,0.2705912,-0.06958389,-0.12950443,0.534804,0.07602897,-0.37321994,0.17029639,0.084181465,-0.20083478,0.1808487,-0.12018972,0.01989503,-0.30753008,0.35705957,-0.13906592,0.13354826,-0.38474762,0.29343355,-0.3851308,-0.19079195,-0.30068007,-0.020446766,-0.28001794,0.49475217,0.40050474,-0.42892483,0.336523,-0.115201056,0.39618742,0.46604678,-0.3873481,0.1373566,0.19727692,0.10540999,0.19259244,-0.09155246,-0.16918677,-0.2514791,-0.07135945,0.12871397,0.46163538,-0.217104,-0.009610221,-0.3913243,-0.45633513,0.067113966,-0.16765171,0.29360837,-0.042238437,-0.26514268,0.258876,-0.443787,-0.2882683,0.4135173,-0.40913475,-0.04047669,0.041518256,0.24109872,-0.14919049,0.25031254,-0.30615765,-0.33072308,-0.21712905,0.13130806,-0.1393065,-0.48191774,0.44860068,-0.3582739,0.054820713,0.062000103,0.46256113,0.11709124,0.22924116,0.050176736,-0.07023076,-0.4203551,0.16942887,-0.4415724,0.26014128,0.42949167,-0.03544054,-0.38627264,0.36175215,0.30827627,0.058854643,0.14629437,0.2371573,-0.07983503,0.2016088,0.15989977,-0.39374098,0.5043348,-0.27810377,-0.3999956,-0.040903438,-0.4793475,-0.32824492,0.13057235,-0.44168437,0.2311298,-0.42439848,0.0015574198,-0.0012385945,0.0074841203,0.048285417,-0.2109241,-0.0582963,0.06383147,0.29106122,-0.41231084,0.15067326,0.09541505,0.16745162,-0.35702676,-0.18246843,0.3745803,-0.113014735,0.15508822,0.3284809,0.38449153,0.019854706,-0.18689471,-0.011485666,0.20323467,-0.0067363665,0.25583163,-0.012123806,-0.31709465,-0.03697298,-0.33390468,0.23604585,0.12733209,0.42951575,0.00843675,-0.20338142,0.11322134,-0.04286821,-0.33399498,-0.3591655,-0.46155307,0.0049200533,0.31649837,-0.35655242,0.22803782,-0.15366133,0.11094269,-0.28630602,-0.15136385,0.34378538,0.14078508,-0.37452373,-0.39664477,0.41291696,0.032917395,-0.48380288,-0.4590459,0.26791924,-0.27968016,0.44650048,-0.31149325,-0.37160087,0.38457575,-0.21320757,0.25725955,0.05441315,-0.48632342,-0.46834603,-0.39257658,0.35788563,0.22059305,0.3874594,-0.43068805,0.0879191,0.41049558,-0.30514422,0.5161267,0.49082574,-0.09828942,-0.13747679,-0.14780453,0.052360687,0.15883447,-0.36254644,0.1339722,0.0872419,-0.44001994,0.16440749,0.43419528,0.35737735,-0.24390393,0.2352952,0.27735966,0.45312765,0.114233494,-0.13704872,-0.5089269,-0.27599117,0.47401956,-0.4462611,0.11275864,0.09365391,-0.05664915,-0.26204294,0.2998691,0.27891698,-0.19557929,0.1620654,0.26642197,0.129505,0.08933864,0.45224082,-0.47130665,0.2043144,-0.14346692,0.2703127,-0.3125653,-0.26439443,0.024270952,0.12738492,0.2208036,0.32656893,-0.029433215,-0.046196427,0.33554944,0.23898655,0.3670303,0.18570682,-0.19773456,-0.45223644,0.40455952,0.16593717,0.49603543,0.06305002,0.061043076,-0.43189028,-0.38513687,-0.027364848,-0.04297701,-0.2589146,0.18139982,0.21648508,0.023874652,0.41704568,0.34735385,0.2792626,-0.44481906,0.15452732,-0.04924156,-0.36651874,-0.45120683,0.042909205,-0.22237541,-0.36537337,-0.4251811,0.09034627,-0.23592527,-0.027047578,-0.3460546,-0.16297336,-0.20036665,-0.14181192,0.46256682,-0.31714687,0.2438194,0.10333337,0.41756758,-0.32230756,0.44135815,-0.24448505,-0.43593547,-0.38180482,0.3080731,0.1444951,0.40816742,0.22966264,0.018865202,-0.3830613,0.47478226,0.16166519,-0.024688901,-0.3024859,-0.046351355,-0.29825202,-0.29970255,-0.009844849,0.13024743,-0.23174454,0.092361756,-0.1288986,-0.23332286,0.43759713,0.26485106,0.41013288,0.40241015,-0.36119327,-0.17152576,0.32160082,-0.06856544,0.29389098,-0.056193817,0.12710561,-0.051267367,0.45140818,-0.11278864,-0.3555933,0.09924112,-0.3732659,0.4234123,-0.31756043,0.019123975,0.4628498,-0.43353313,-0.01349318,-0.33714837,0.2963587,-0.36514854,-0.18106301,-0.0380993,0.27579236,-0.122904025,-0.13634244,0.17278172,0.25610247,-0.42371044,0.098604225,-0.1776071,-0.08068538,0.07878879,0.336933,-0.22240695,-0.21441351,0.42599156,0.4558427,0.19628415,-0.09218388,0.41358456,0.066254765,-0.054636866,-0.27537492,-0.1598335,-0.16324596,0.5322133,0.29245043,-0.19058965,0.19130144,-0.43559423,-0.039491814,0.27053154,0.177658,0.37284955,0.12948036,-0.32461873,0.36447257,-0.17624344,0.4408348,0.053054363,-0.10597776,0.49183747,-0.36960837,0.07528141,0.26638892,-0.08694674,-0.47629863,-0.49821642,-0.47853455,-0.424677,0.20620772,-0.16260493,0.2829121,0.23953868,0.059221186,0.30623612,0.48473972,-0.22230567,0.098876245,0.37420714,0.36832604,0.22464389,-0.18821847,0.39673162,-0.42736885,0.49559644,0.37806755,0.4454482,-0.037903845,0.057085436,-0.38163787,0.022223316,-0.03524042,0.05492725,-0.0008055196,0.08716345,-0.14766036,0.35177284,-0.08276011,0.20564502,-0.21708937,-0.36563882,-0.21714239,0.37327623,0.38669515,0.13487697,0.031300463,0.39441276,-0.30222228,-0.23596483,0.45135346,0.05581975,0.13840336,0.30097917,-0.39323977,0.005346536,-0.28173596,0.2041435,0.39617577,0.080305226,0.39978832,0.062348142,-0.33660322,-0.040270537,-0.36813083,-0.17768931,-0.16737029,-0.31251842,0.23840828,0.08103129,0.45321375,0.14880587,-0.09642426,0.38028142,-0.0056185937,-0.28974575,0.3311833,-0.35113674,-0.22271329,-0.252941,0.17780614,-0.45515063,-0.13736144,0.12570255,0.48162386,-0.1341389,0.09588672,0.24175775,-0.1282118,-0.37336466,0.20156191,0.29971078,-0.20311275,-0.43363294,-0.14423226,-0.27681488,0.47701192,-0.23341602,0.15088926,0.48840663,0.08339456,-0.3359163,0.17061456,-0.2014352,0.3091774,-0.3859814,-0.051448613,0.003941985,0.052114982,-0.11010326,0.22653967,-0.5036567,0.27425027,0.10279025,0.13748899,-0.2379906,0.3135767,-0.17029852,0.13526541,-0.2823576,0.52073026,-0.16430727,-0.3575231,0.49981144,-0.20889331,0.20543268,-0.13588387,-0.13981625,0.42790255,0.30159485,-0.26374468,-0.34040484,0.35332003,-0.30148602,-0.0560867,-0.14742547,0.23562296,-0.30644313,-0.43969497,-0.17459317,-0.35612458,-0.36253405,-0.39331728,0.001971441,-0.37711442,0.47660756,-0.060527142,0.055485196,0.41489094,-0.107696936,0.046108253,-0.012216216,-0.21881562,0.43714848,-0.020171644,-0.11802801,0.32212535,-0.0015751601,0.17099614,0.021133494,-0.16853638,-0.10573456,0.065980755,-0.13846041,0.041077066,0.12028685,-0.12964424,-0.30535206,-0.4029021,-0.28801775,-0.43332362,-0.40289828,-0.28979447,0.34537104,-0.3120242,-0.3943997,-0.1952751,0.3821258,-0.16349503,-0.38590237,0.20154001],"bias":-0.40136173},{"weights":[0.30477983,0.30083644,0.057176463,-0.20006277,0.09481036,-0.2442917,-0.37413296,0.45802528,-0.29730707,0.3270019,0.29877716,-0.12910235,0.09479204,-0.25885886,-0.3611395,0.20888682,0.2494189,0.11184994,0.185063,0.4453958,0.4273001,-0.26404718,-0.009254556,0.35407373,-0.06452096,0.33492652,0.4319412,-0.13552918,0.40902355,-0.10741242,-0.01637662,0.38391653,-0.07010956,0.18758303,0.46135992,0.0015754835,0.39791667,-0.3569558,0.025394166,0.09426192,0.08011572,0.44366553,0.29909134,0.027336929,0.3735377,0.21160153,-0.17880112,-0.035655666,-0.26318806,0.32413676,-0.15807131,-0.12797965,-0.3807809,0.29382107,0.4500107,0.026168846,0.37786534,-0.2691615,-0.018920513,-0.011439751,0.4074816,0.4966482,0.12491127,-0.331779,-0.098090395,0.38625008,0.07074132,-0.1311765,0.39382443,-0.33105755,0.100724325,0.07509537,0.21451928,0.43062982,0.19697596,0.13699393,0.29960865,-0.063102804,0.40403432,0.0708337,-0.04835864,0.42114204,-0.026556524,0.018975178,-0.21961309,0.03168859,0.19197164,-0.41876617,-0.15354612,-0.23025626,0.15956281,0.3676659,0.10068966,0.36456695,0.015971689,-0.02047052,-0.4250338,-0.18090768,-0.22601688,-0.31438795,-0.42989862,0.015744632,-0.44683525,-0.4250421,-0.40813312,-0.4467877,0.2807172,-0.37678012,0.2989365,-0.11595512,0.07006878,0.11872199,0.46031946,-0.021447772,0.015623118,-0.44966027,-0.26275423,-0.27273577,0.48855212,0.05070174,-0.3621831,0.28958642,0.28913292,0.08933859,-0.45529026,0.03914544,-0.25551566,0.4809087,-0.18576199,-0.05931568,0.01624946,0.12970583,0.3336606,-0.4861386,0.41256937,0.18997243,-0.2624231,0.31028345,0.2289398,-0.25185218,0.40563387,0.03307052,-0.47861665,-0.029842556,0.26248792,0.24280822,0.17682065,-0.44674978,-0.19174829,0.49122137,0.37667257,-0.392346,-0.3672773,-0.34908095,0.31859162,0.22054489,-0.061516717,-0.09915551,-0.4021999,-0.19107668,0.4816667,0.0013038104,-0.35437834,0.13388714,-0.4177433,0.21847297,0.43125725,0.23346518,0.43135524,-0.029978327,-0.16528861,0.19303514,-0.07943554,0.08737769,0.4424033,-0.06588975,-0.33549726,0.03311391,-0.0025183572,-0.2645159,-0.35813206,-0.23573849,0.07267149,0.06095634,-0.21557999,-0.01773925,0.100131586,-0.38538074,-0.36819452,-0.1879153,0.23239633,-0.46292,0.46628878,0.3491684,-0.39647344,-0.416037,-0.007998815,-0.375367,0.4665622,0.3138695,-0.20591965,0.30980617,-0.1829219,0.054113723,0.37741986,0.25413358,0.2893946,-0.20168199,-0.35782096,0.03413786,0.22618876,0.32537782,-0.07743471,-0.12403383,-0.39691222,0.3737291,-0.24183773,0.35613677,-0.32229838,-0.13269849,0.38461432,-0.19532646,-0.38793242,0.069470435,-0.15883699,0.10834866,0.4214283,-0.45533344,-0.14762531,0.373473,0.4643518,0.46818858,0.4894143,-0.21259083,0.48216957,-0.47934797,0.13689,0.4301414,-0.31925774,-0.37538096,0.44978705,0.2634606,0.19350109,0.125485,-0.1727312,-0.2914947,0.3749418,-0.4968968,-0.005927921,-0.08777335,-0.31961673,-0.37659693,0.42644262,0.46177852,0.37795457,0.13708928,0.042787135,0.45672813,-0.44557017,-0.18267654,0.2968797,-0.45914385,0.2697236,0.2388575,-0.20468655,0.21776706,0.13901472,0.36863723,-0.1915291,-0.27014157,-0.03450037,0.011544708,-0.3934568,0.000028629016,-0.22626202,-0.3971846,0.30542892,-0.31267235,0.43328804,-0.3864464,0.39773902,-0.3787332,0.21849827,-0.4795386,-0.023547383,0.10083401,-0.22546785,-0.3723271,-0.3710664,-0.1944536,0.23576298,-0.06188018,-0.2175327,-0.4413307,-0.12808183,0.389937,0.19213185,0.21919025,-0.15445411,0.37962067,0.22100745,0.09354303,-0.13577023,-0.31317845,0.15929669,-0.07300783,0.185013,0.27630237,0.31834415,-0.3540859,0.28908193,0.0906667,0.024547864,0.49575466,-0.28623536,-0.097091585,0.08885972,0.45212317,-0.2546738,0.3399942,0.08252235,0.41275683,-0.36039484,-0.18245359,-0.13953252,0.4032656,0.021515578,0.28614295,0.38818195,-0.10632665,0.14466271,-0.41443723,-0.45209506,0.12224425,-0.0011060911,0.30109203,0.4890109,0.14624725,0.14320345,-0.078017175,0.35253704,-0.2404902,0.23475517,-0.43735272,0.2989858,0.09631585,0.1776154,-0.11666077,-0.22744256,0.00065934,-0.02792936,-0.11942935,0.01283517,-0.41604874,-0.4280966,-0.31525606,-0.31016654,-0.18554603,0.12836133,-0.29201365,-0.4076171,0.23428439,0.21601108,-0.016682904,-0.04053324,0.11116349,0.34832716,-0.44138557,-0.22041878,0.39698842,0.41657642,-0.49860063,0.46212104,0.24694331,-0.29935816,-0.28494838,0.4222808,0.11102415,0.4247008,0.40881926,0.0004596602,-0.16455016,0.29605946,0.1234669,-0.3286633,0.43412507,-0.3391863,0.24970607,0.48167706,0.13843748,0.07383739,-0.38564306,0.37213343,0.36086702,-0.24563734,0.049071033,-0.2139027,-0.24094555,0.39742485,-0.45629865,0.0073436173,-0.49086767,-0.25191566,0.06760389,-0.11735051,-0.116290465,0.44050696,0.32501104,0.3676359,-0.35971978,0.3150781,0.16545242,0.460681,0.17909153,0.15511231,-0.15098709,0.43413383,-0.21871616,-0.20199615,-0.42347875,-0.3086851,-0.018616328,-0.11965892,0.05236917,-0.2348711,-0.23670751,0.27649933,-0.032887943,-0.11082852,0.4721371,0.16392586,0.2765333,0.04985378,0.07878645,0.16079073,0.45830172,-0.07002528,0.33728155,0.040713225,-0.26010665,-0.4879278,-0.1100787,0.37293753,0.06606559,0.15577476,-0.017093135,0.10817295,-0.32875916,0.26841328,0.3770828,-0.15990864,0.04358768,-0.40273914,0.45016965,0.18353216,-0.3753526,0.18932472,-0.21458887,-0.17621091,-0.38503945,-0.21954054,0.053357475,0.033522587,0.08577743,0.06897796,0.37929124,0.42944542,0.17715645,-0.12737586,-0.3377114,0.25271413,0.32535648,0.3192373,0.4323978,-0.44699407,0.18525627,-0.108978674,0.32845518,0.36420834,0.17840835,0.15386142,0.32159936,-0.496531,-0.15585859,-0.38647166,0.43666708,0.21161608,0.4896186,0.4541318,-0.12607789,-0.07708872,0.06926726,-0.16416062,0.058635715,-0.19699235,0.18150292,0.49096376,-0.20047855,0.46161076,0.16887598,0.4899004,-0.034525733,-0.1322883,0.16127573,0.32995808,0.39999595,0.20670198,-0.4163173,0.03737389,0.2894962,0.33364165,-0.18021943,0.13986373,-0.059846662,0.42668024,0.10465319,-0.09877615,0.067625165,-0.16359824,-0.28294486,-0.17607997,0.4029902,0.35904807,-0.11568824,-0.14652476,0.46639663,0.26984048,0.28115764,0.46208882,0.19365269,-0.11856788,-0.2818501,0.46879297,-0.18923661,0.44469193,-0.4527049,0.13490924,-0.39950573,-0.07835003,-0.3995463,0.05694452,0.14171192,-0.37914786,-0.14761217,-0.29272807,-0.21759515,-0.12702705,-0.41156974,0.26875946,-0.23514545,0.124629796,0.14778322,-0.3499255,-0.15247117,0.44061497,-0.11782112,0.14519624,-0.36699486,0.227809,0.48186928,-0.15403818,0.22849974,-0.29660058,0.40457246,-0.4975142,-0.39666292,0.0033107211,0.052705776,0.29377893,0.39246172,-0.40689334,-0.20752482,0.26686493,0.35444862,0.33604,-0.044715982,-0.30265388,0.26370156,-0.34393823,0.30881512,0.09237375,-0.005632415,-0.3047717,-0.46378994,-0.3220811,0.16146308,-0.3209625,0.15584287,-0.013702587,0.2791718,-0.18764642,-0.25065,0.058719177,0.028493347,0.019983197,0.1430337,0.0841425,0.37274155,-0.15775448,0.339411,0.17857902,0.3577437,-0.013502402,-0.0945267,-0.41278213,0.48086286,-0.3894418,-0.35627884,-0.11880279,-0.11738688,-0.0796111,0.15368849,-0.078266874,-0.18825358,0.009575111,-0.043081313,0.2661182,-0.34569255,-0.23421074,-0.17627953,-0.22934033,0.27793556,-0.12754503,-0.0039079725,0.070223466,0.30994898,0.4014612,-0.14750686,0.11256925,0.46308485,0.2985698,0.046790283,-0.39471465,-0.32797977,0.39087376,0.45899272,-0.31473494,-0.3153624,-0.40463525,0.053679533,-0.41066554,0.3043998,0.28661707,0.22823285,-0.051024593,-0.17033306,-0.19801502,0.46318004,0.018428575,0.06294348,0.18008617,0.011691378,0.06461689,0.19125636,0.26612875,-0.1315634,-0.23336965,0.39615655,0.27185935,-0.44935676,-0.415782,0.21034367,-0.43769312,-0.044538062,-0.09849599,0.18708313,0.2652243,-0.41079375,-0.17482786,0.13076381,-0.4565499,0.40748724,-0.47893828,-0.2811367,0.29680464,0.35893154,0.32444277,0.49046016,-0.46732157,-0.222021,-0.18246286,0.17945336,-0.10682786,-0.08398711,-0.08518071,-0.31685466,0.3017627,-0.038928784,-0.48654234,-0.45861745,-0.46589005,0.39511028,-0.14363664,0.19780059,0.23146936,0.16332753,-0.4115342,-0.42477226,-0.024284244,-0.34317756,0.07077085,0.2452673,-0.06711146,-0.033743948,-0.3476996,0.39077446,0.15150495,0.18183868,0.38192934,0.19674575,-0.4303322,-0.47308525,-0.046704665,-0.25551265,-0.2587728,-0.3536303,-0.236815,-0.15883449,0.142935,0.09102801,-0.15598515,0.29147762,0.4501492,0.12731913,0.11780846,-0.4533397,-0.2454698,0.17304303,0.098470524,0.4756718,0.110624716,0.077726185,-0.12960863,0.20331196,0.20657386,-0.09290594,-0.35907415,-0.019401819,0.30784586,0.42970252,-0.28676984,0.12093392,0.018984968,0.13792016,0.4419307,-0.0495399,-0.40370756,-0.45472127,0.0955999,0.31980565,-0.30140355,0.31390163,0.11827172,0.46760437,-0.42798084,-0.43207547,0.0759138,0.35241634,0.08142823,0.4088431,0.15671486,0.048032153,-0.46316245,-0.12764446,-0.21019958,-0.1995017,0.38002813,0.38613427,-0.23724422,0.06555673,-0.207191,-0.40029302,0.28157347,0.20241204,0.27864304,0.0069535845,0.15442976,0.14271787,0.122046255,0.28703696,0.07650023,-0.33223614,0.42417032,-0.360909],"bias":-0.034397066},{"weights":[0.47224808,0.26037425,-0.49259993,0.1798597,0.25832537,0.13639627,-0.401908,-0.27324435,0.032493375,-0.40261102,0.19326618,0.05812375,-0.074030735,0.39274326,0.04465591,-0.03834501,-0.47572315,-0.00043441018,0.06358287,-0.20671159,-0.44516194,-0.2344884,-0.16123077,0.13968368,-0.30435002,0.19882564,-0.41797072,0.06367367,-0.15220731,0.026625687,-0.11482654,-0.07974126,0.32896245,-0.028547414,0.28377524,0.017028462,0.029956043,0.51942396,-0.16322201,-0.38174117,-0.39871016,0.42456493,-0.05271033,-0.4312203,0.1664778,-0.24727847,0.02437661,-0.011761661,0.38051727,-0.12706828,0.12702005,-0.11904642,0.38529226,-0.39999047,-0.27893525,0.28592214,0.16867983,0.29302564,0.27301952,-0.023339752,0.42729318,0.10096499,0.37593555,0.15379329,0.5112289,0.44959185,0.50505966,-0.2933865,-0.08382017,-0.37044853,0.19585755,-0.31650934,0.09787465,-0.25123343,0.014592019,-0.44568598,-0.05786479,0.47900534,-0.31474662,-0.29664811,0.42468068,0.20533687,0.50210166,-0.30473238,0.30750525,-0.18988347,0.055802703,0.42554784,-0.020390065,0.09883226,0.105528966,-0.16551892,0.2523964,0.4663198,-0.2804606,0.034262422,-0.095154256,-0.26970416,-0.0459788,-0.026346188,0.17509207,0.36240688,-0.19571798,0.3568775,0.120346256,0.2384354,0.17113309,0.2940523,-0.015015701,0.25275812,0.4180648,-0.3038421,0.41293243,-0.110121265,0.038021848,-0.22144207,-0.15014637,-0.07560539,-0.11986649,-0.005410614,0.37241885,-0.04573151,0.2491169,-0.26079974,-0.15899329,0.084436715,0.3787557,-0.11631912,-0.16975452,-0.22709607,0.23146181,-0.014503295,0.3824932,-0.36041382,-0.2966049,-0.41296428,0.5119748,0.45233282,-0.21883328,-0.21511674,0.0028668337,-0.4968183,0.47100067,0.3678262,0.18220142,0.3494995,-0.29545242,0.41713247,0.01284989,0.27839106,0.34845546,0.03307208,0.47055346,-0.037072558,-0.16849105,0.25306094,0.12643862,0.32201597,0.015557165,0.18107168,0.047927123,-0.23628739,0.022048706,0.50661254,0.103255466,0.16674271,-0.4241357,0.15078966,-0.16037045,0.39773786,-0.12340506,0.13471511,0.1117629,0.46174142,0.45050088,0.15187044,0.15689974,-0.17278081,-0.41674972,0.08177164,0.3485262,0.28625816,-0.019299451,-0.33055562,-0.34284198,-0.33689135,0.14964037,-0.08356208,-0.036337413,0.096915886,0.36041057,-0.27693012,-0.12787127,-0.3792112,0.26407015,0.13883199,0.47729117,0.066889256,0.44091836,-0.3569649,-0.09014624,-0.21338828,-0.2048789,0.4832398,-0.2808996,-0.17412384,0.40394714,-0.3385334,0.34142035,-0.42376542,-0.22708057,0.08239834,0.33780634,0.28678656,-0.11388422,0.19826911,0.003527059,-0.119017616,-0.24606419,-0.16631682,0.10816934,-0.4164874,-0.22331621,0.45526752,0.10066415,0.31391472,-0.23300682,0.18981187,0.0352716,-0.22130053,0.27483344,-0.25238302,0.45558572,-0.22233273,-0.03697458,-0.2597075,0.20774661,-0.48626503,-0.50416315,-0.16231935,-0.36249802,-0.2660642,-0.021796448,-0.34001943,-0.2371313,-0.087387145,-0.03794854,0.54366815,-0.24172883,0.3372942,0.47245228,-0.066677675,0.18032546,-0.4278619,-0.18774034,-0.17727542,0.1297679,-0.27836755,-0.3535163,0.27071422,0.4408773,0.29988092,-0.34702557,-0.06284212,-0.4649812,0.32285866,-0.24412125,0.3508451,0.11855057,0.011143662,0.46223834,-0.15767914,0.43340743,-0.026032317,-0.0370759,-0.23499009,-0.31633922,0.47605217,-0.08292815,0.30264172,-0.011214872,0.052741148,0.30682597,-0.03322238,-0.2510504,-0.16384473,0.23326804,0.06295088,-0.08155069,-0.3564239,-0.07845812,-0.23023348,-0.4125403,0.014615376,0.22002241,-0.20532711,0.26793855,-0.13294931,0.33584282,0.47749636,-0.063220926,0.14416246,0.3661909,-0.27038896,0.4838956,-0.40156192,0.14650214,-0.33833614,0.051905032,0.37846532,-0.13649856,0.24200782,0.057827625,-0.008024194,-0.0059825373,-0.18949123,-0.3719648,-0.4237748,0.09408365,-0.48013234,-0.39418635,-0.2090364,0.19077632,0.21799408,-0.42550546,-0.29541925,-0.09900969,-0.31840467,-0.3285303,-0.07809587,0.20669717,0.2902398,0.35703772,0.45256692,0.17873454,0.18634684,-0.26222995,0.37459895,0.49453872,0.48778555,-0.24249323,-0.40478608,0.43031555,-0.4801244,0.03585029,0.043738805,-0.20082267,0.3114147,-0.20206305,0.4997475,-0.153532,0.21530212,-0.0494479,0.38354382,-0.2964718,0.35527626,-0.40859488,0.26095867,-0.47624227,0.09944872,0.28399658,-0.3058296,0.20863742,-0.20325407,-0.3475119,0.37067413,-0.13230658,0.3697592,0.14627945,0.24943537,0.29200622,0.19831043,-0.01719309,-0.61999,-0.22344793,0.09787486,0.36992836,0.45832548,-0.4294016,0.1712259,0.19503601,0.0257908,0.21091041,0.043048523,-0.40167308,-0.26561612,-0.16717349,-0.24190374,-0.43192756,0.49994466,0.13355705,-0.1519728,-0.45579895,0.3173112,-0.31150338,0.15692611,-0.15302153,0.28314352,0.40721598,0.16981934,-0.18430673,0.3093294,-0.42046633,0.1043573,0.2855778,-0.15037835,-0.22385742,0.07496354,-0.0387557,-0.5077408,-0.5008622,-0.48973674,-0.2739681,0.33690578,-0.23844852,0.23874958,0.03430832,0.4698076,-0.33065435,0.23254001,0.4678298,-0.3999053,0.5021451,0.40879747,0.20926327,-0.030776871,0.2981083,-0.15503709,0.2874968,-0.28434095,-0.454657,-0.09585253,-0.4539039,-0.10267443,-0.032522716,0.09699374,-0.21231627,-0.30060557,0.25257522,-0.2304927,0.35360807,-0.21409206,-0.4306025,-0.3738825,0.2779072,-0.35078862,0.14117582,-0.040826976,0.052417085,0.38777286,-0.017705666,0.31417394,-0.036717627,0.028241219,0.3463977,0.020055534,-0.4891217,0.37520954,-0.5321076,0.20380889,0.3853619,-0.30583638,-0.4117324,0.21490529,-0.022439774,0.15913948,0.20298645,-0.07524411,-0.16835453,0.1469062,-0.14735697,0.060172778,0.15224639,0.30864814,0.31909555,0.09131269,-0.047324564,0.057076484,0.5095554,0.42512205,0.26775888,0.10428247,-0.17655338,0.057429112,0.27396783,0.14031939,0.25788042,-0.14703447,-0.13004485,-0.16461806,-0.4673873,0.14470658,-0.45422572,-0.01006109,-0.37037647,-0.012183688,-0.019142346,0.18675467,-0.5171814,-0.25158894,-0.3496635,0.048603848,-0.37179303,0.050344933,-0.08653536,-0.14075251,0.2850531,0.5289028,0.34556964,-0.14998554,-0.33494192,0.29535732,0.018212266,0.390695,0.2695294,-0.5067627,-0.5557888,0.2957317,-0.31998083,0.084569044,0.38739222,0.37306717,-0.27259618,0.13672541,-0.46951848,0.3787582,-0.3771344,-0.27298534,0.02241675,-0.102438055,0.051722456,0.15546538,-0.10426349,-0.13019612,0.120404385,-0.2435186,0.47829688,0.06681595,-0.29025584,-0.25991544,0.37297666,-0.3851069,-0.25960454,0.16405737,-0.07858687,0.25643218,-0.16931799,0.32311916,-0.0908477,-0.11603418,-0.4690411,-0.44878328,-0.12095412,-0.015069435,-0.16632256,0.16460524,-0.009476804,-0.15452363,0.015616564,0.18370472,-0.46590593,0.24827911,0.26299036,0.4829723,0.011944887,0.38054985,0.50457186,-0.31981006,-0.3122026,0.0918712,0.07657202,0.00650538,-0.039013065,-0.33652154,-0.24211633,-0.4025821,-0.34530872,-0.43236545,-0.4802127,-0.37173763,0.10430503,0.21250148,0.34009963,-0.4026435,-0.24646837,0.32774374,0.4191199,0.4107546,0.14833792,-0.4214002,0.24583848,-0.42142984,0.49018037,0.3724952,0.45261157,-0.056300838,0.38948044,0.3575575,0.055235226,-0.15892029,0.17805406,-0.3149104,0.064565115,-0.23020299,-0.2959741,0.13072364,-0.4854056,-0.25425044,-0.03644093,0.17314298,-0.4671468,0.18448484,-0.16422535,-0.3358828,0.36869183,-0.44433016,-0.41920885,-0.05084251,-0.06381333,-0.20533793,-0.22902156,0.08383129,-0.28744343,0.063605584,-0.09014285,-0.34605333,-0.20060055,0.40854862,-0.015472646,-0.3099358,0.4492835,-0.013350426,-0.081095494,0.38435587,-0.18613926,-0.43027863,0.26231703,-0.28482586,0.19031495,-0.4696411,-0.31060782,0.038953222,0.22887106,0.38312092,-0.12313618,-0.011429062,0.4814671,-0.053372655,-0.3279327,0.29976496,0.4708306,0.3316878,0.5548445,-0.20099944,0.15158918,0.49923924,-0.31267834,-0.19258556,0.50147915,-0.44070512,0.2306033,-0.05995089,0.026471384,-0.549998,-0.07418918,0.062379405,0.22099882,0.2856343,-0.520199,-0.24364924,-0.3254913,-0.16837543,-0.113596395,-0.4512176,-0.069539964,-0.18420589,-0.041115474,-0.15021461,-0.22700772,0.21662493,0.34014043,0.6128414,-0.0797196,0.5239438,-0.17489722,0.22756183,0.12943396,-0.27215147,-0.4858723,-0.13336627,-0.34771743,0.27152705,0.33656642,-0.26503387,0.40779492,0.44216716,0.11676651,-0.21799462,0.17473112,-0.10144189,0.0639058,-0.33587793,-0.022435565,-0.24809799,-0.4171668,0.43219918,0.28626493,-0.015231251,-0.07063744,-0.061231762,-0.14460254,-0.32696685,0.43061492,0.2966025,0.21391596,0.12582086,-0.08733322,-0.35105094,-0.16725965,-0.12109645,0.1980553,-0.18707193,0.38788283,-0.4114426,-0.4099855,-0.20198263,-0.052928917,0.007820758,0.0423565,-0.18808907,-0.29049796,-0.37188464,0.13009143,0.44714835,-0.058346637,-0.07468087,-0.3877004,0.40226936,-0.32506338,-0.07212443,-0.031187437,0.37651485,-0.16078474,-0.35330042,0.3136156,0.30538473,-0.23214431,-0.5120504,-0.33049646,0.11001432,-0.110580586,0.0037386015,-0.4802,-0.54041094,0.40168485,-0.19284427,-0.06938836,-0.45444712,-0.3258584,-0.28131822,-0.4341762,0.38389242,-0.44887865,0.4228656,0.11219208,-0.004823099,-0.13314046,0.19123323,0.09916271,-0.1287021,0.044241842,0.036160607,-0.07642395,0.038702868,-0.10822075,-0.5518017,-0.2158319,-0.11108223,-0.29771417,0.22936362,0.41779447,-0.37181172,-0.3940736,-0.1731151],"bias":0.33916304},{"weights":[0.22558138,-0.39119434,-0.21633004,-0.026582949,0.4606574,-0.03853877,0.003155664,0.23332237,-0.17500144,-0.48391291,-0.23293714,0.04320107,0.119998895,-0.04006313,0.27178696,0.0378304,-0.11662984,-0.47273445,0.32315585,0.14114484,-0.23557363,-0.22010319,0.058427133,0.30766732,-0.31379437,-0.48135582,0.3759309,-0.26571336,0.328394,0.19536251,-0.29970863,0.39418054,-0.4199972,-0.27331516,0.1711205,0.50516224,0.42798534,-0.42914748,0.013948706,0.2268359,-0.50485694,-0.18577878,-0.33632258,-0.30214462,-0.19202666,-0.34335724,0.44083062,0.028225603,0.43835333,-0.13086422,0.39027983,0.601638,0.32507005,-0.13074602,0.24205796,-0.23830737,0.15790668,0.2703429,-0.36171088,0.019793307,-0.44832253,-0.052819904,0.29441738,-0.24269795,0.44318074,0.27848122,-0.3289827,-0.1555209,0.41590345,0.44618607,0.17362398,-0.006398986,-0.49693036,0.1812785,-0.23884732,0.26094872,0.15688433,-0.2285395,0.42733422,0.3099255,-0.23483407,0.5472579,-0.20044705,0.33757085,-0.15038933,0.3130587,0.23241474,0.39121383,-0.29494822,-0.37423056,-0.4586129,0.14676037,0.027883094,0.2438214,-0.03590498,0.18525374,0.03216731,-0.36676043,0.15881066,-0.065292135,-0.01932405,0.18030497,0.070129015,-0.35536766,0.4668749,0.1763367,0.5240954,0.119864665,0.4242063,0.11189501,0.08039939,-0.2147058,0.3784419,