[[{"weights":[0.2574825,-0.060221028,0.15436475,-0.007929628,0.47252476,-0.2544376,0.08125381,0.07224585,-0.002335481,-0.44308883,-0.4495569,0.10276082,0.03860637,0.5031161,0.5007555,0.076943845,-0.024417758,0.01137036,0.47708893,-0.06545305,0.36677247,0.045536857,0.131077,0.18589248,-0.12541972,-0.07476557,-0.18701197,-0.42840466,-0.22143139,-0.31837246,0.5086678,0.35743332,-0.41884333,-0.47953048,-0.076433465,-0.3568845,0.5235342,0.07704807,-0.27188998,-0.2877248,0.13931422,0.06389098,0.17657599,-0.29132843,0.44971806,0.18718015,-0.21303351,0.25836673,-0.18933113,0.33174542,0.37381315,0.45227647,-0.36141908,-0.29212338,-0.05600313,-0.2972024,0.21064551,-0.380921,-0.08654313,-0.054995354,0.38755274,-0.4613794,-0.043844867,0.48609453,0.12992644,-0.28045106,-0.26513413,-0.15212063,-0.09114925,0.163856,-0.33569708,-0.11258405,-0.38621256,-0.054768328,0.1523834,0.18512522,0.4057253,0.04010943,-0.15929088,-0.34868315,-0.42346826,-0.35939038,-0.17648907,0.43223947,0.45916924,0.16390109,0.021865195,0.18453334,-0.45372728,-0.06652689,-0.34505174,-0.103728965,-0.02589333,0.008744801,0.3849692,-0.2506317,-0.28313237,-0.03941252,0.33208713,-0.08173372,0.2634299,-0.0121281855,-0.07429113,0.08696086,-0.45453936,0.18844585,0.34653673,-0.52105933,-0.17300546,0.24221034,-0.34215322,-0.35655198,-0.049569648,0.051409516,-0.060753923,-0.10678765,-0.05046146,0.13877213,-0.030591397,-0.20616294,-0.43341532,0.19085485,-0.19269851,-0.44144282,0.16658281,0.012385692,0.13430496,0.3986631,-0.31740987,-0.05242969,0.41245842,0.13736305,-0.33140722,0.4361736,-0.015998794,0.12225894,0.23952784,0.238643,-0.18993369,0.42570114,-0.29492486,-0.29804122,0.2548166,-0.1413356,0.17925668,-0.46996894,-0.11978371,-0.056707256,-0.06025395,0.35934561,-0.5087847,-0.5430066,-0.11402272,0.030787867,-0.5586458,0.07808549,-0.21964084,-0.44587713,0.030539956,0.2698587,0.35601363,-0.494603,0.0023472859,0.336968,0.14391613,0.20894405,0.4734467,0.32457364,-0.4020016,-0.2839675,-0.41561586,0.32483366,0.37338135,-0.21108826,0.009579795,0.26244205,0.16377994,0.1769595,-0.4963492,-0.34452453,-0.52058554,-0.41958684,-0.2340332,-0.3754737,0.28173932,0.262007,-0.50476193,0.1336455,0.18802541,-0.55221444,-0.34914228,0.2901874,-0.22466965,-0.0066139163,-0.25764874,0.41489485,0.016107678,-0.36861187,0.4370931,-0.16265802,-0.42475358,0.3903826,-0.31344545,-0.32920432,-0.4219719,0.41200042,-0.35346147,-0.5050204,0.028685594,-0.063882,0.062073518,0.38939312,-0.55146617,0.027506202,0.28050184,0.12799264,-0.30155462,-0.39921233,0.02669012,-0.3451261,-0.3684656,0.3677676,0.41742855,0.2904963,-0.42278647,0.52258474,0.06340988,0.0039281785,0.41911942,0.10321828,-0.4663676,-0.3997425,-0.2969684,0.022661874,0.12874776,-0.32081217,0.4294328,0.10438757,0.42579433,-0.5413173,0.27596834,-0.4589268,-0.14553866,0.35110223,-0.105854884,0.22251967,0.053641025,-0.33682105,-0.45686126,0.036888387,0.08767295,0.4343395,0.4859338,-0.07739207,-0.493373,0.25341853,-0.08441135,0.120449685,0.27160433,0.22960104,0.066857524,-0.27380452,-0.42563656,0.055295207,0.29333895,-0.3023949,-0.2058365,0.35111225,0.21390672,-0.1439086,0.0065238033,-0.49044105,0.085777335,-0.16771327,-0.4608874,-0.27178133,-0.0009133262,-0.20062576,-0.38783798,-0.33683354,-0.40506163,-0.36095938,0.15566555,-0.5226952,-0.114132635,0.037422676,-0.009286905,-0.01213308,-0.21710658,-0.21356057,-0.40028778,-0.26553017,0.38752767,-0.40966675,-0.36409283,0.4030662,0.2234056,-0.14756675,0.022010202,-0.3283044,-0.34964243,0.4603944,-0.12572153,0.26688004,0.04566989,-0.49883324,0.459093,-0.2534018,0.03730469,-0.18881151,-0.45305425,0.1759171,-0.058111854,-0.18087788,-0.025917858,0.21889275,0.5327093,-0.095532596,-0.19683939,0.30191228,-0.28972372,0.31747556,-0.4662173,-0.37643948,-0.22944154,-0.26710507,-0.25110415,-0.09167488,0.25093758,-0.27749816,-0.41324884,-0.4247459,0.13716573,0.050096862,0.106533684,0.02879221,-0.3856916,0.3479315,0.45523867,-0.07318287,0.003080381,0.3351153,0.51133335,-0.27754426,-0.15977861,0.32804233,0.48325738,-0.18958153,-0.27570078,0.4707135,0.30742976,-0.39750707,0.22101657,-0.12898746,0.28115034,0.45334816,0.29904526,0.25690314,0.12493749,-0.24072045,0.25269055,0.081235014,-0.27050254,-0.10626435,0.5116455,-0.27811465,0.34602937,0.41051558,0.0012297869,0.28445387,-0.044905804,-0.16626115,0.110138305,0.5891979,0.56260186,0.5632686,-0.14942408,0.23410419,0.2166966,0.3156938,-0.21731119,0.015259622,0.19077824,-0.15021405,0.3082274,-0.06350528,-0.2030248,0.0142690195,-0.18029317,-0.32550463,-0.084363766,0.015226758,0.40479663,0.22769059,0.29167166,-0.52878106,-0.11663489,0.22603802,0.27275535,0.16731617,0.21912044,0.109351784,0.5131421,0.30296245,0.102740146,0.50813866,-0.44591767,-0.4369591,-0.0813402,0.32776567,0.265364,0.12587886,0.55764043,0.4970803,0.32421038,0.29736882,-0.47118,-0.37726796,0.32167077,0.3071835,-0.18027717,0.18431939,-0.49339807,-0.01253852,0.31745842,-0.44068676,0.424038,-0.11742143,0.5013846,0.34096617,-0.22829051,-0.161866,-0.07354115,0.10619077,0.39521626,-0.36962444,-0.3231395,-0.19203158,-0.3402344,-0.26865432,-0.16083293,-0.19447419,0.3033098,-0.30527583,0.049778987,-0.022245992,-0.2681477,-0.21923889,0.155345,-0.3514058,-0.4571736,-0.4403346,0.03921191,-0.22107258,-0.24196027,0.107744604,0.11449591,0.16945478,-0.41858044,-0.1563356,-0.2511253,-0.36385247,-0.5351717,0.31327006,-0.04214544,0.17499058,0.3407331,-0.34531984,0.5975374,0.42153656,0.2900871,0.19095077,-0.055733707,-0.4063441,0.11950401,-0.35295,-0.0297866,-0.47193122,0.20231237,-0.14749804,0.15678504,-0.19699983,-0.16212021,-0.1203228,-0.2310469,0.36066312,0.16195948,0.2335479,0.11078013,0.085532814,-0.11593476,-0.55938613,-0.1983585,0.21002474,0.38417414,0.27021244,0.336167,-0.18329655,0.18161602,-0.37586576,0.25086337,0.049390983,-0.38708,0.21143034,0.20231129,-0.3643672,0.42889902,-0.054229688,0.23654819,0.14293653,0.13601686,-0.38735306,-0.02149731,0.11216898,-0.08593881,-0.2441485,-0.001247305,0.31818393,-0.56784004,-0.5801106,-0.37970412,-0.34908286,0.13134415,0.3677921,0.028443173,0.19066983,0.47921842,-0.06204229,0.05626096,0.3907388,-0.12153288,0.39355466,0.30834234,0.26509997,-0.43611076,0.10138176,0.14840873,0.2869406,-0.013428107,0.116365954,-0.4039859,0.30166465,-0.5222229,0.4155692,-0.4801037,-0.57415015,0.15972057,-0.07866033,-0.045148388,0.45567027,-0.09594588,0.2048292,0.28940848,0.53306717,0.18057558,-0.16051817,-0.1649567,0.4063725,0.54010284,-0.050378956,-0.13555135,0.019671774,0.12276431,0.39123705,0.23290388,0.23891786,0.055412747,-0.057184763,-0.5024738,-0.20077574,0.40250894,0.34927556,0.3519577,0.26353434,-0.09346022,0.007202255,0.33898485,0.028968925,0.31053075,-0.17836563,-0.42880875,-0.017816156,0.13949427,-0.0013968453,0.5524946,-0.27424076,-0.25025803,-0.34385496,0.35945725,0.3114188,-0.14799243,0.4900062,-0.019601857,0.3424178,-0.063955456,0.12029708,-0.4087427,-0.43330055,0.2055769,0.22338836,-0.20084096,0.050441675,-0.014133877,-0.19976637,0.41785115,0.2006545,0.016076941,0.13593057,0.3566792,0.5564177,-0.34502235,0.25679246,0.36867273,0.21353744,0.41689986,-0.011547013,-0.031683963,0.5075497,-0.28406632,0.31237784,-0.3710647,-0.016918331,-0.23042071,0.2081277,0.36664364,-0.45401284,0.026835525,0.35416967,0.059483673,0.07601655,0.21353908,0.096424066,-0.1789949,0.48412845,0.31470162,0.18784891,0.48756585,-0.15440968,-0.42998224,0.18529217,0.4079653,-0.36276558,-0.1669527,0.39027163,-0.01707601,-0.28053448,0.21853755,0.3226441,-0.2648122,0.23461513,-0.4090679,0.2452595,-0.109536886,-0.3123972,0.020432957,-0.02804157,-0.42541802,0.21389936,-0.15650342,0.31984395,-0.33713767,-0.3803498,-0.09200119,-0.21236378,-0.31831124,0.35840192,0.4015869,0.49046928,-0.33453816,0.3880836,0.017428676,0.4676619,0.24995686,0.21177916,-0.215878,0.6136685,0.33437377,-0.32088622,-0.05091932,0.4119412,0.318989,0.20372723,-0.34185207,-0.04702065,-0.20799604,-0.14913052,-0.4483015,0.24919133,-0.17914051,0.5162234,-0.26761264,-0.28952798,0.079317436,-0.22839881,0.1139537,-0.098412655,0.11597844,0.12479152,0.18305323,-0.3318278,0.13433227,0.30929127,-0.03375894,-0.019032424,-0.12147645,0.13244149,0.26878205,0.3149248,-0.04730252,-0.4524304,0.090731665,0.39575875,0.25200447,-0.16826136,-0.42687598,-0.25079998,0.402451,-0.16991183,-0.32951146,-0.19568205,0.3481022,0.23335066,0.46839324,-0.33932248,-0.5406287,-0.5034089,-0.11568591,-0.01096114,0.27993587,-0.43096372,-0.099637404,0.3551411,-0.29077643,-0.09435481,-0.27958438,0.5047162,-0.3910818,-0.07092545,0.4616447,-0.39997733,-0.076723345,0.23665217,-0.13609524,0.24299519,-0.17415962,0.48767436,-0.2950846,0.013522566,0.1350804,0.37355635,0.28767428,-0.07361517,-0.1897714,0.07316746,-0.019579848,-0.2202612,-0.07859014,-0.13016184,0.3254209,-0.38939762,0.16044027,0.06264908,0.113241956,0.19613187,-0.30868378,-0.14223029,-0.19249882,0.43376955,0.31889006,-0.13381587,-0.25279915,0.12230031,0.042749833,0.36080876,0.46413726,-0.37557596,0.09475558,-0.36756915,-0.25730243,0.0054814243,-0.5060628,0.31233424,0.24560061,0.011508782],"bias":0.38086236},{"weights":[-0.3593797,-0.27081499,-0.49292353,-0.50186443,0.030588018,-0.10614863,-0.4032913,0.049313504,0.070252806,0.07973444,-0.020458378,0.32703477,0.27162144,0.4353978,-0.17541999,0.19921286,-0.05847769,-0.51258016,-0.27228305,0.08844438,-0.22391795,0.2277538,-0.4351555,0.21664928,0.004801653,0.35083327,-0.22699645,-0.45809916,0.2266424,0.28472233,0.196549,0.0048002913,0.02142977,0.0518353,-0.28290376,-0.3442976,-0.07166452,-0.14293393,-0.11837415,0.042028263,-0.1096501,-0.42557123,-0.13765904,0.4799577,0.3085057,-0.29967391,0.43522468,-0.46770176,0.15741223,-0.21008703,-0.38554677,0.24938028,-0.22705862,0.018871693,-0.2705524,-0.2754404,-0.49841738,0.2934847,-0.10654954,-0.05709388,-0.0836845,-0.39668575,0.010006848,0.13474429,-0.53883976,-0.42253453,0.36838487,-0.15690915,0.23861654,-0.041908562,0.4636826,-0.45785132,-0.36055824,-0.4214053,0.43117702,-0.020367062,0.28509188,0.22962235,-0.36100647,-0.12747285,-0.15380558,-0.5654487,0.3855748,0.25849563,-0.14419545,0.11207391,-0.50251055,-0.22547251,0.15275294,0.0003699915,0.41380876,0.19178338,0.10466009,-0.22570974,0.11126264,-0.29205614,0.47673413,-0.46884134,-0.09108055,0.35841936,-0.3156188,0.17638174,-0.12047388,-0.019136755,-0.19406158,-0.12230906,-0.16288094,-0.238722,-0.10749135,-0.08507883,0.1877347,-0.4762503,0.303115,0.11541274,-0.29256678,-0.03091781,-0.53654736,0.3375338,0.17800446,0.04800382,-0.33546236,-0.20805915,-0.3801213,-0.512056,0.009439398,-0.19999932,0.114153095,-0.11688282,-0.25687912,-0.13980757,0.5262699,-0.0029581403,-0.23424363,0.3949285,-0.01965086,-0.56038135,-0.5684974,0.16943873,-0.09630736,0.04555714,0.41435358,-0.27092567,-0.50311804,0.24401939,0.3362816,0.35938975,-0.2802498,0.45146957,-0.46571943,0.118658684,-0.36507508,-0.19841424,0.31213677,0.24124014,0.35158435,-0.072080776,-0.21767336,0.04608054,-0.37107632,0.16262226,0.57361335,-0.30217233,-0.39312527,0.09513947,-0.018669771,-0.5460879,0.09791614,-0.16258219,0.3946663,-0.1684986,-0.38861233,0.45188063,-0.315096,0.44604254,0.3299674,0.05962831,0.26927364,-0.1666055,-0.24978356,0.080774836,-0.022034025,-0.06016698,-0.3380079,0.063997746,0.40575024,-0.26033318,-0.2936692,0.1546189,0.34827378,0.12719575,-0.06479333,0.16668358,0.21439536,0.14022069,-0.1293423,0.03617866,-0.073409,0.3021346,-0.16596133,0.13611892,0.01710877,0.23386642,-0.48529324,0.039983552,0.39701992,0.3675012,-0.36994198,-0.5488906,0.10030293,0.039099287,0.18093507,-0.15908475,0.39621213,-0.048738766,-0.09456916,0.16799408,0.004216311,0.24111667,-0.12688878,0.3032044,0.44486526,0.3912443,0.4281881,-0.22475398,0.4251858,0.001746038,-0.36680135,-0.14724953,0.46651912,-0.31323814,-0.27475712,-0.38252896,0.09739377,-0.50739306,0.2732103,-0.047505494,-0.24078026,-0.20567912,0.30051988,-0.47014984,0.4038878,-0.44541976,0.21531862,0.47115633,-0.365546,-0.0020077003,0.08022567,0.011380536,-0.06947681,-0.15407746,-0.13219401,-0.37935933,-0.19300745,0.3046494,-0.12334207,0.26375818,-0.4289395,-0.37762707,-0.17580706,-0.11923807,-0.029511273,0.3564331,-0.029692177,-0.36485994,0.16729788,0.3257231,-0.39155182,-0.17768817,-0.10861389,-0.42259312,-0.15612045,0.053317703,0.32981735,-0.08381613,0.44858116,-0.011704827,0.23732963,-0.19727905,0.30245575,-0.26633406,-0.36195993,0.25513542,0.42858413,-0.3141143,0.083827496,0.4893482,-0.337522,-0.19655587,-0.33682618,-0.06912538,-0.5450099,0.25189257,-0.109233975,-0.05013501,-0.30438387,0.18995498,0.27459082,-0.3588614,-0.45151606,-0.105824575,0.18609579,0.1320972,-0.33005193,-0.2768275,-0.26910877,0.5809911,0.038938563,0.25027055,0.46003464,0.31306952,0.07612067,0.20447734,0.36325705,0.2717499,-0.34776792,0.22445995,-0.19795261,-0.47021374,0.17464614,-0.4101002,-0.37157744,-0.29427966,-0.24700788,-0.4888872,-0.5252195,0.21987042,-0.50891674,-0.1353536,-0.4357396,-0.34360316,0.43791097,0.6066416,0.1436009,0.5969084,0.3240516,-0.42314884,-0.07111282,0.49383575,-0.41574445,-0.14534998,0.096614495,-0.14807637,-0.36299634,0.3741403,0.41965672,0.08645786,0.33433837,0.056285456,-0.52322435,-0.019697608,-0.49754098,-0.47023857,-0.58069986,-0.55307883,0.1323605,0.28378153,0.17486316,-0.14997332,0.15679063,0.26058754,0.585676,-0.25307262,0.56369615,-0.23758587,0.0113834785,-0.16819419,0.5635732,0.28742856,0.030375613,-0.26118866,-0.3016974,0.20558217,-0.36288017,0.19960953,0.31418082,-0.27852777,-0.49268,0.17112146,0.2688777,-0.2668978,-0.24445657,-0.33732662,-0.21377917,-0.19607066,-0.15971646,0.21174802,-0.16003217,-0.3622949,0.6470182,0.5060621,0.50921357,-0.053205643,0.4239234,0.4066314,-0.34909827,0.2542294,-0.3724125,0.35360584,-0.077731356,0.1310327,0.38816828,-0.054425824,0.19189166,-0.40952614,0.0499233,-0.51133186,-0.24785765,-0.055938568,-0.57711023,-0.42521104,0.32228586,-0.251535,-0.13000283,0.09620353,0.17327783,0.0074293874,-0.06235588,-0.058882345,-0.41980872,-0.36899576,0.39641818,-0.23033905,0.2349808,-0.21893167,0.23152223,0.40885392,0.32710457,0.3284048,-0.054646622,0.38500464,-0.0833286,-0.20690145,0.34537566,-0.33654955,0.32107064,-0.5260528,-0.47532424,-0.25720313,-0.1303212,-0.12807691,0.26531196,0.40527126,-0.3156079,0.071585946,0.29517168,-0.009254106,0.46408564,0.46538576,0.0475947,0.09570811,0.27000198,0.5768115,0.09255829,0.34430286,0.19405156,0.18537803,0.21186948,-0.19678485,-0.34068117,0.07332457,-0.39822185,0.28287724,0.3585892,0.3810984,0.45423228,-0.38859347,-0.11117861,-0.27697316,0.33685866,0.13378638,-0.18582596,-0.34331742,0.089229435,-0.09012192,-0.3363171,0.239465,0.38927245,0.39667332,-0.026514735,-0.16650769,-0.17071506,0.56791043,0.18152851,-0.287793,-0.0804834,0.18004203,-0.06913245,-0.034121763,0.18705039,0.27876565,-0.12909968,0.4450778,-0.26557365,0.28913727,-0.39949295,-0.2048903,0.12626411,-0.4922365,0.1231846,0.23425047,0.35277095,0.38282806,0.26814702,0.3223861,-0.019463195,-0.06601687,-0.13317467,0.32823035,-0.19727956,-0.42341352,-0.028181035,-0.36123386,0.47002172,-0.27208763,0.43290702,-0.10793867,0.17920525,0.52020866,-0.4563171,0.42421803,-0.01761773,-0.24121547,0.37034062,0.20920607,0.4341285,0.21354254,-0.36569825,0.33465552,0.4299161,-0.5369313,-0.4141908,-0.44294715,0.045415167,0.36807904,0.09926154,-0.03099628,-0.35461652,-0.33355767,0.24066424,-0.26925826,-0.15309013,0.5958774,-0.32910794,-0.031856835,-0.15053241,0.30385673,0.16657974,0.3153395,0.45448554,-0.0560146,-0.35395175,0.045384247,-0.26086363,-0.15739217,-0.39376813,0.3260611,-0.11924712,0.23819117,0.3338267,-0.041779876,-0.34007487,0.20010729,0.0083125755,-0.25299862,0.2564056,0.07136173,0.32649636,0.286892,-0.102728955,0.1885108,-0.019152991,0.423678,-0.22154425,0.00036376706,0.26533458,0.4092318,0.094716586,0.08723135,0.3988127,0.43130592,-0.22822304,-0.057921354,-0.08337015,-0.23969546,-0.15671685,-0.41194353,-0.46228883,0.23656397,-0.08504649,-0.37626132,-0.44698164,-0.084539026,-0.23254198,0.2076221,0.06652457,0.4286338,-0.1192112,-0.14348242,-0.25219104,0.26274303,-0.013572497,0.09718205,-0.42365557,0.37346044,-0.09113608,0.1781498,-0.05730659,0.42089635,0.3739814,0.027533254,-0.055308934,-0.5514177,-0.039023407,-0.079264484,-0.053893276,0.07761573,-0.21089907,0.3179942,-0.40720174,-0.19006456,0.4274074,0.43328264,0.19243002,0.08448682,0.28012073,0.5402094,-0.1162142,-0.40861848,-0.17331438,-0.19992897,-0.15547143,-0.28656763,-0.16192113,0.37652025,0.19391051,-0.24566297,0.07608301,0.33805525,0.14582142,0.2775451,0.084164746,-0.08057791,0.36390582,-0.15733321,0.47108245,0.21150513,-0.17055945,0.30388206,0.25917262,0.17734632,0.4146346,-0.30232596,0.40020534,0.3080835,0.1641753,0.049070653,0.17739515,-0.014393479,0.22160035,-0.16462025,0.48918688,0.25284582,0.39309067,-0.37961957,0.36876753,0.38179126,0.019575274,0.33371994,-0.43665355,0.13326828,0.085331805,0.19739786,0.32750303,0.35736993,0.3051255,-0.22370727,0.049567718,-0.032911163,0.19851817,-0.41649318,-0.36344218,0.29675823,0.50569725,-0.4003788,0.27517754,-0.27853382,-0.36733294,-0.37482923,0.5773832,0.39987814,-0.2073683,-0.343401,0.3594767,0.39125624,-0.46495122,-0.3491542,0.051318277,0.035281383,-0.28837043,-0.1626601,0.40554857,0.02288888,-0.385457,-0.11767615,-0.33062243,0.36192927,-0.5009287,0.07335859,-0.4222415,-0.03572949,0.068512894,-0.35012442,0.27003145,0.31859073,0.17084004,0.10709179,-0.052877225,0.294703,0.20183684,-0.36593476,0.05095024,0.4028154,0.2769483,-0.3294685,-0.30694833,-0.15723617,-0.19452412,-0.12340784,-0.13858773,-0.51226294,0.017859064,0.5141289,0.27582827,0.43352818,-0.3412839,-0.055210423,-0.46158102,-0.16454537,0.49745297,0.025865879,-0.06541417,-0.40456653,0.28106034,0.041532874,0.15820152,0.14502448,-0.45082873,0.31093177,-0.2963761,0.4470078,-0.32849047,-0.054861095,0.32010517,-0.33464307,-0.30951658,-0.18128957,-0.08028362,0.33488685,-0.1913589,0.2343854,-0.18178356,0.49035278,0.015718978,-0.44823676,0.026160374,0.37366456,-0.49640977,0.20818876,0.47807586,0.3714141,-0.20704547,-0.022201374,0.36734965,-0.13678183,0.15965813,-0.07780109,0.39796224,0.32891592,0.31147018,0.029528564,-0.14150372,-0.41835383,-0.45300463,-0.06569645],"bias":-0.32607427},{"weights":[-0.116833396,-0.042748068,-0.3343419,-0.02360404,-0.11111594,0.091543175,0.28378528,0.20269725,-0.22436877,-0.38658825,0.46897447,0.4319949,0.3153105,-0.20026818,-0.41357392,-0.30949098,0.06697413,-0.11423116,0.45973796,0.2750007,-0.32904616,-0.13928245,-0.31020042,-0.07002291,0.39277205,-0.40706646,0.12533168,-0.4718739,-0.16584411,0.27922466,-0.11977506,0.06565301,0.4450601,0.33121768,-0.21266273,0.031695846,-0.49612072,-0.32213306,-0.4461352,0.4061196,0.42559153,0.1801421,0.15285094,-0.19621399,0.0035796715,0.47377685,-0.31148806,0.019839646,0.2106884,0.28722426,-0.1521581,0.07649481,-0.22570802,0.028375885,0.32595474,0.21754149,-0.17787655,0.06389983,-0.16801831,-0.49086085,-0.24250576,-0.27252287,0.4536621,0.29945236,0.1588971,0.05623548,-0.22547081,-0.46142784,-0.093164146,-0.43346,-0.46226406,0.15898485,0.11458813,0.38570407,-0.1340055,-0.12142272,-0.03234268,-0.3235693,0.018425055,-0.48209074,-0.00343476,-0.034146067,-0.43419075,0.24356514,0.34485197,0.3126973,-0.009217456,-0.06433115,-0.3828428,-0.016048824,0.11372413,-0.22299501,-0.037754048,-0.21403694,0.34643224,0.36328465,0.40738085,0.38295907,0.29728648,0.15003781,0.42233434,0.49781117,-0.31308937,-0.10260184,-0.20064513,0.03231772,0.15264043,-0.15107918,-0.045945734,0.47548962,0.17833115,0.29929,0.31120586,0.4172409,-0.19769527,-0.30088255,0.44119528,-0.12197862,-0.3818092,0.49117583,0.48105934,-0.06504196,0.15379225,0.43865028,-0.39782757,-0.14419445,-0.16826272,0.041373126,0.056410693,0.47145426,-0.26202908,-0.041810628,0.1544042,0.46640348,0.15226233,0.012293343,-0.08913231,-0.27346373,0.31423008,0.19402629,0.34901068,0.05789269,-0.23249605,0.19547787,0.31761128,0.23968776,-0.22860502,-0.18961808,0.04944435,0.25944597,0.2744561,0.09601218,0.3282642,0.40746957,-0.482359,-0.32103148,-0.08049805,0.06388868,0.051347975,-0.42276642,-0.25113836,-0.21123774,-0.50730336,-0.3854714,-0.11969346,-0.11656792,0.44367382,0.3515414,-0.45786732,-0.43626207,0.02500204,0.2841471,-0.48658487,0.515191,0.19639936,-0.38166735,0.49144575,0.19406968,-0.264734,0.41526395,0.47056308,0.3047431,-0.4360717,0.24256778,-0.511194,0.38911667,0.07450501,-0.50200033,-0.4458548,-0.098466784,-0.18756007,0.35685784,0.013984304,0.0054853493,-0.030382438,0.43414307,-0.007878856,-0.3586942,0.09719996,0.4192603,-0.24966353,0.1890314,0.31845996,0.31393203,0.013521929,-0.15368389,0.40795574,-0.014818551,-0.18495977,0.14149031,-0.09290275,-0.005384384,0.26257068,0.4272943,0.027981529,0.33820373,0.21561648,-0.038102012,0.3436587,-0.069416285,0.27137274,-0.23707035,-0.24737604,0.3207657,-0.10104871,-0.30730638,-0.48737904,-0.111172214,0.1712372,0.04991472,-0.25214374,-0.0712034,0.4150755,-0.35322952,-0.09204388,-0.38698098,-0.05076969,0.047122445,0.22454147,0.0898677,-0.07918768,-0.17484865,0.26000065,-0.5445588,-0.18593824,0.10084427,-0.53837454,-0.087583624,-0.53528786,-0.021021727,-0.17514853,0.44486648,0.08954818,0.083743185,0.117768444,0.1828671,0.29671872,0.45095494,0.37854102,-0.32629895,0.4306097,-0.44760942,-0.36075732,-0.17187853,-0.3202859,-0.51789176,-0.42309636,-0.28565717,0.29354167,0.16770421,-0.3363869,0.21802904,-0.56592196,-0.29427308,-0.40581593,0.25345445,0.083617434,-0.014468269,-0.24196102,0.015802678,-0.0012670674,0.14685374,-0.008505168,0.21243711,-0.1846451,-0.07446855,0.37412208,0.4787558,0.19844387,0.37745467,0.26194912,0.48505557,0.38217825,-0.36243233,-0.48510766,-0.052160036,0.42854092,-0.40569764,-0.2710781,-0.07709532,-0.19381355,0.3370049,0.40323663,0.44669065,-0.20455515,-0.46495235,-0.36850798,0.17766137,0.014586458,-0.37871644,-0.004916564,0.019257734,0.19359207,-0.12738907,0.5699672,0.34197477,-0.13917114,-0.28984118,0.3060886,0.13647498,0.2597062,-0.09180787,0.08380429,0.18970434,0.1948619,0.2925509,0.2955061,-0.45000505,-0.02196666,-0.03399216,0.4459193,-0.016429586,-0.16629563,-0.109782234,0.3466304,0.15189728,-0.34733856,0.28819162,-0.21799557,0.55584586,-0.026095826,0.53709584,0.52633953,0.36646914,0.059969757,0.13301592,-0.3542792,0.27421704,-0.13636164,-0.34803447,-0.2608239,0.060929716,0.20531437,-0.23515491,-0.460457,0.33104205,0.1950632,-0.49722978,-0.23851664,0.045410562,0.4067307,-0.05689173,-0.11466488,-0.42941028,0.050648503,0.250257,0.22397524,0.4942909,0.24512795,0.4180231,0.12218718,-0.1204794,0.37179083,-0.004733665,0.04647658,-0.22270626,-0.20452496,-0.09079822,0.24706194,-0.34567967,-0.4439334,-0.40490755,0.14034244,0.25885007,-0.39329323,-0.0133962035,0.17515579,-0.024325978,-0.23719595,-0.11793059,-0.18607628,0.473421,0.28991234,0.14152059,0.3381753,0.2747926,0.62316436,0.05179489,0.35812917,0.24875769,-0.2198949,-0.5143108,0.29747933,0.011250377,-0.15510374,-0.5742361,-0.47546875,-0.17530541,-0.21367824,-0.27113777,-0.23978482,-0.37258717,-0.31468803,-0.34034088,0.3010702,-0.1984653,0.46615607,0.44616845,0.044378128,-0.4865351,0.41176105,-0.28933698,-0.17927526,0.2843862,-0.28190586,0.47242823,-0.07169703,-0.40885752,-0.36449468,0.15982775,-0.1904378,-0.31560108,0.35411024,-0.09488019,-0.18468049,0.0043550855,-0.25763515,-0.11851566,-0.45895433,-0.38324705,0.41026413,-0.48329732,0.06865166,-0.020489732,-0.35509792,0.13297598,-0.17612678,0.17901598,-0.15464318,0.34740725,-0.3389897,0.58095556,-0.012573452,0.31345305,0.577317,-0.23781238,-0.43967664,-0.40245834,0.30732042,-0.025108814,-0.01903583,-0.06750561,-0.22361848,0.011642415,-0.4663642,-0.3656516,-0.32038096,-0.18632329,0.39592963,-0.32067245,-0.3221184,-0.17848524,0.35535982,0.20548223,0.49179962,-0.22124757,0.1920457,0.33070004,0.38441235,-0.24253872,0.10428479,0.23893835,0.08649909,0.33480638,0.2856722,-0.07728049,0.046696663,-0.25861093,-0.09834115,-0.16371259,-0.076321535,-0.11629152,-0.11095546,-0.18566744,0.22427197,-0.1261532,0.1316853,0.41559994,-0.15081853,0.48769274,-0.2974657,0.281429,-0.046851434,0.21379551,0.03319479,0.16639495,0.37829155,0.6195924,-0.08517463,-0.2158071,-0.20727424,-0.078363925,0.03621,-0.046702344,0.092612825,0.44153172,-0.4736027,0.17427659,0.4175532,-0.018390784,-0.37075332,0.19656411,-0.2743834,-0.010068696,0.16405171,-0.15411556,-0.333615,0.0128720375,-0.122785464,-0.21670379,-0.038621776,0.23365594,0.0024372193,0.41701102,0.14619234,-0.23140176,-0.3363262,-0.13924062,-0.3014121,-0.29745325,-0.3436728,0.40584612,0.08203794,-0.17515548,0.06534132,-0.304707,0.36781698,-0.41601488,-0.054846417,-0.18998657,-0.5011661,-0.45445806,0.05057768,0.2801278,-0.30762368,-0.31725514,0.311523,0.015359354,0.059964832,0.1412003,-0.122503184,-0.06746684,-0.24061796,-0.11653555,0.06862488,0.14576925,-0.14984624,0.5695053,-0.08656063,0.00044379974,0.4674027,-0.37472326,-0.4527684,-0.05111779,-0.009323538,0.25542095,0.095871255,-0.2697173,0.011986616,0.29966977,0.100102656,0.2978336,0.011606907,-0.12702659,0.4462058,0.45432097,-0.22333635,0.05714051,0.18736513,0.3326082,0.08331776,-0.22988267,-0.18858825,0.25673446,0.31330502,-0.19498256,0.29706547,0.3445798,-0.18732643,0.3580791,-0.27076435,-0.22131693,0.12046873,-0.4043192,0.22024387,-0.022119224,0.06945837,-0.4374982,-0.11819165,0.32315922,0.37109607,-0.063139476,-0.30549172,-0.26370847,-0.14044887,-0.30458006,0.2909818,0.15272395,-0.35011238,-0.18085667,0.36337677,0.27012342,0.26403463,0.30449682,0.075911954,0.10528636,0.0771455,-0.24574508,-0.18714368,-0.24443524,0.3265003,0.2947909,-0.21667235,0.034213245,-0.051532045,-0.4472969,0.20973687,0.41429487,-0.024544973,-0.30668986,0.21779926,0.18801221,0.09223899,0.28179052,-0.3059323,-0.34527415,0.40866926,-0.25492162,-0.2577607,-0.055986807,0.49461475,-0.22009395,0.5997336,0.047439102,0.43753734,0.11311921,0.4558073,-0.15628266,0.07403557,-0.013428275,0.42870048,-0.32812876,-0.5074498,0.0137938,0.08641036,-0.18344234,0.47097388,-0.32442012,-0.36182112,0.14591207,0.04816702,0.4503751,-0.24912816,-0.20661207,-0.017935794,-0.5170272,-0.29201642,0.33953342,-0.18631051,0.12753953,-0.40267012,0.11296872,-0.41680285,-0.040412806,0.20194012,-0.37103584,0.18950832,0.04536224,0.17231047,-0.24048492,-0.06358102,0.036309198,-0.36683965,-0.1297377,0.47454402,-0.18055138,-0.29464874,0.021847427,-0.07204512,0.36578116,-0.30598122,-0.43123063,-0.40453157,-0.48140708,0.16807945,0.009972538,-0.28128806,-0.2557772,0.38380003,0.3477093,-0.20481041,0.4293214,0.05067699,0.086774506,0.00708683,0.29722843,0.13347115,-0.13330983,0.2569226,0.190827,-0.05587168,-0.27858102,0.09247291,-0.32166764,0.12164216,-0.5033995,-0.2876108,-0.3071623,-0.38006812,-0.3486393,0.055554233,-0.14157239,0.16861129,0.083603926,0.20106709,0.12095144,0.459967,-0.0907947,-0.0154049,0.5379658,-0.4101311,-0.05974085,-0.15337195,0.5501189,-0.3337244,-0.43749866,-0.18986408,0.0296864,0.31552264,-0.2629797,-0.45997745,-0.18730398,-0.2633771,0.4295833,-0.38926813,-0.07600683,-0.319972,-0.45925722,-0.48492357,0.19483113,0.41181022,0.07710089,-0.39881325,0.24089104,0.43906596,0.42909837,0.26269665,-0.47388086,-0.32629317,0.2575565,-0.27048257,0.2522894,0.24546167,0.06559328,-0.012679984,0.43103066,-0.3748623,0.3903783,-0.29897153,-0.5188126,-0.26017693,-0.19805045,0.037044235,0.18500923],"bias":0.19973972},{"weights":[-0.20540151,0.42551613,-0.25428334,-0.134588,-0.33990216,-0.100853175,-0.4529307,-0.09097071,0.2967097,-0.020737428,-0.4277008,0.053437494,-0.18280675,-0.235967,0.07929838,0.3558122,0.0090066865,0.42733297,-0.26189554,0.5204892,-0.2318793,-0.44336498,-0.29899764,-0.435737,0.24644968,0.034095317,0.40316024,0.3612702,0.19790894,-0.03752831,-0.2802163,0.3974548,-0.21258666,0.42287222,0.120202295,0.5240916,-0.11248783,0.12544657,-0.010476873,0.05280203,-0.48482013,0.10048092,-0.06936771,0.0153631875,0.22396564,-0.39112106,0.4351712,-0.22522168,0.2645634,0.29983512,-0.21406013,0.4439939,0.37985158,-0.08405935,-0.4345624,-0.23846592,-0.33382764,-0.34753937,-0.44073066,0.14116782,0.3185097,-0.2464634,0.52118677,0.28724387,0.4778396,-0.2812179,-0.16496189,0.27924672,0.45755756,-0.44485518,0.11271414,0.47236496,-0.44678733,0.475057,-0.2511587,0.4316281,-0.3182604,0.29735038,0.025550982,-0.20678608,0.16879731,0.35255745,-0.041548915,-0.2594481,0.28507736,-0.28293562,0.28497666,0.078356385,-0.43901342,-0.29498923,-0.10063522,-0.4822583,-0.4485389,-0.50284606,0.01795506,-0.42779097,0.16329798,-0.033296775,0.14937654,-0.449086,0.4235381,0.44017506,-0.39083838,-0.30449352,-0.43166247,-0.2991624,-0.08560444,0.49390498,-0.32808965,0.5451179,-0.1366875,0.0063471794,-0.34490427,-0.23387389,0.13657327,-0.3794311,-0.4026291,-0.23505753,0.019124784,0.11586083,-0.36995462,-0.35537902,-0.22421679,-0.059748255,0.48142886,0.44813216,-0.28433403,-0.25043935,-0.27939552,0.20297566,0.109253846,-0.12170953,0.41770473,0.25120962,0.07302288,0.4019148,-0.47864893,-0.1437863,0.034974933,0.19674963,-0.09870345,-0.013420409,0.52537143,-0.33147836,-0.24815756,-0.17799062,0.08599715,0.21870996,0.1059721,-0.2414151,-0.25703388,0.14767435,0.55228144,-0.010230254,0.44445795,-0.16170709,-0.14378533,-0.17386532,0.44719473,0.22000235,-0.33933392,-0.42460713,0.16476442,-0.1946968,-0.07152358,0.1838356,-0.13586752,0.51598704,0.25251853,0.051955525,0.292191,-0.25340605,-0.13846712,-0.3483665,-0.21650814,0.17061526,-0.003593453,-0.18131171,0.08038437,0.42831805,0.44520915,0.45869023,-0.11237297,0.19952166,0.24666287,0.5282413,-0.15702473,-0.060750667,-0.29640323,0.3710762,-0.3312428,-0.45625404,0.35580775,0.31186822,0.10635727,-0.21321979,-0.020603279,-0.12033275,-0.5173485,0.22335991,-0.43881884,0.25440428,0.106358275,0.19367595,0.36565503,-0.4825373,-0.09339256,0.42001757,-0.31756008,-0.19140494,-0.03290761,0.38397944,0.38919502,0.22648954,-0.05452141,-0.36502206,0.47480723,-0.15300559,0.26805377,0.3290345,0.112506025,-0.19059122,-0.033919156,-0.31892818,0.30442286,-0.14031608,0.35804254,-0.3680677,-0.21706645,-0.23109892,-0.4606743,0.2613934,0.39109764,0.44681513,0.3693528,-0.41716462,-0.38909182,0.21005613,0.36489224,0.36841863,0.3476606,0.33569482,-0.1836766,0.4948692,-0.21384509,0.44375408,0.0977332,-0.091648676,-0.24018435,0.1616172,-0.5200061,-0.33098215,-0.35572395,-0.46941084,0.21219851,-0.042743307,-0.52906686,-0.5258551,0.0111283325,-0.28273994,0.27257222,0.08357068,0.3428611,0.33525887,-0.28185475,0.20897341,0.3281111,-0.09113484,0.5598191,-0.0686043,-0.16976695,0.17196915,0.049299642,-0.11579349,-0.23374885,-0.4819731,-0.15452053,-0.34259456,0.42035925,0.3174793,-0.04463147,-0.12638518,0.23732658,0.09177295,0.17974488,-0.42168462,-0.1641753,-0.38035184,-0.0061079254,-0.26418865,-0.31282094,-0.10734395,0.019009959,0.1623673,0.11087394,-0.12492373,0.22779854,0.33976015,0.22505061,0.12173632,-0.32226586,0.009625659,-0.5461773,-0.12455544,0.057364684,0.17630988,-0.19787589,-0.033952557,-0.41009778,0.1672192,-0.21327735,0.29569003,0.48330042,-0.52051955,-0.46567732,-0.44241667,0.20102306,-0.5291872,-0.04721869,-0.23531687,0.35115147,-0.3101583,-0.36268055,-0.10582592,-0.013735032,-0.042537134,0.4904393,0.019253967,-0.18766269,-0.12946811,-0.30950394,-0.5556093,-0.13013388,0.17668858,0.3590537,0.11997343,-0.1940845,0.33740875,-0.32592845,-0.07961915,-0.45188746,0.20775418,-0.25263333,-0.50999194,0.12822108,-0.45620677,0.11445836,-0.2113191,0.4579191,0.16485025,0.44663635,-0.17808868,-0.16531804,-0.019002084,0.096145235,-0.20331658,0.07476447,0.106525235,0.19778854,-0.1300467,0.4117565,0.3364245,-0.2368372,0.49567196,-0.36551112,0.30023074,-0.39990795,0.45819232,0.46955684,0.012399162,-0.34612432,-0.18826506,-0.38190687,-0.47554064,-0.22887339,0.14350401,-0.220636,-0.31745884,0.23120525,0.18116686,-0.27525422,-0.12142386,0.34148812,0.37731555,0.29267073,0.12176957,-0.29003382,-0.031731673,-0.35274416,0.4993853,0.17114733,-0.3549386,0.23257011,-0.22169372,-0.2539829,0.37647414,0.4204439,0.46767184,0.11758962,0.031942207,-0.12843296,-0.5250693,0.22269176,0.29673928,-0.45703447,-0.15450314,0.2217622,0.19937387,0.3660836,-0.009517819,-0.148334,-0.42196724,-0.1865784,0.10686969,0.29374552,-0.20791622,-0.38476485,-0.31390262,-0.17804594,-0.329516,0.10314928,0.46861172,0.22931382,-0.16050954,-0.096613124,0.124468595,0.21871635,-0.42785197,-0.1544603,0.3937873,-0.06143364,-0.052619167,0.38333353,-0.55846703,-0.2155448,-0.344897,-0.42770267,-0.49172685,-0.54321045,-0.5202714,-0.22269571,-0.49363816,0.26642483,-0.34561026,-0.00091719633,0.39809647,-0.039633933,-0.06711209,-0.047867775,0.3125308,-0.12109464,0.53696483,-0.22394843,0.26071832,-0.40226474,-0.18179423,-0.35809174,-0.26592103,-0.33090833,0.05457097,-0.5594124,-0.41030845,-0.4356068,0.36468405,-0.30878866,-0.14218646,-0.0861328,-0.4668478,-0.37759277,-0.22390917,0.19143426,0.3741461,0.12864996,-0.2772746,0.24119611,0.5375903,-0.07354707,0.06255628,0.27689633,0.10898068,-0.004430868,-0.07804308,-0.12523451,-0.21491313,0.09698202,0.27912542,-0.42075393,-0.41008618,-0.31279394,0.4032693,-0.36816168,-0.4917582,0.26779574,0.053035397,-0.13275915,-0.3210751,-0.14277618,0.03198742,-0.06400796,0.32027245,-0.051991176,-0.37733123,-0.28047615,-0.4393251,0.2530022,0.16656731,0.06531336,0.018572386,0.42351335,0.355767,0.0638756,0.004086668,0.43342313,-0.3706416,-0.30640373,-0.054717258,-0.2901284,0.25239775,0.32850656,0.31945878,0.17367598,-0.2458269,0.0061318274,0.43697342,0.4408025,-0.13327736,0.42531645,0.55071604,0.118627965,0.034921367,-0.3347713,0.03306051,-0.13308497,0.32298928,-0.44429255,-0.10577496,-0.24299438,0.1982343,0.46201125,0.1600814,0.1981358,0.37000412,-0.26447913,-0.34970903,-0.19974487,0.46031973,0.07453926,0.37337077,-0.39272547,-0.037712358,-0.36881545,-0.122961745,0.28831017,0.45986792,0.11529217,-0.1550815,0.4405156,-0.23559713,-0.39779708,-0.40768376,-0.16640934,-0.04079953,0.49438375,0.030103775,-0.34864804,-0.30288225,0.037287697,0.34480083,-0.21294327,-0.415876,0.23951262,-0.15697713,0.53120995,0.30755472,0.1351535,-0.24475035,0.090868734,0.37068525,0.5427265,0.17391708,0.5692362,0.24553195,-0.15108575,-0.35524377,-0.11570164,0.52026194,-0.22538382,0.15546237,-0.087979525,0.13984518,-0.025421584,0.40747276,0.3710081,-0.39397025,0.026215333,-0.15887477,0.02232885,-0.18344247,-0.054946486,0.057775777,0.3935661,-0.33105725,-0.27535716,0.25251502,-0.2213282,0.3700636,-0.049083058,0.4942187,0.5471234,0.15455791,-0.28695932,0.45573017,0.029091876,0.302573,0.16224675,0.28719258,-0.20307471,-0.482213,-0.03629589,-0.33083677,-0.29569224,0.45598358,0.30895805,-0.0073211472,-0.19706543,0.027919313,0.3617267,0.03668014,-0.25197008,0.039976668,0.21354207,0.16890533,0.050768144,0.14334713,0.50546557,-0.10830761,0.031095488,0.49434522,0.3499092,0.182797,-0.19107862,0.095895566,-0.39402074,-0.06387997,0.10880745,0.2899669,-0.2646026,-0.53151715,0.015946697,0.20495749,0.2635129,-0.049283136,-0.5115577,-0.4680868,0.26657698,0.35346547,0.28579333,-0.027994663,-0.3882604,-0.39721802,-0.03215051,-0.20261475,0.12745763,0.0509569,-0.43438908,0.27800262,-0.08831971,0.4740944,-0.2932027,0.3220442,-0.48061207,0.3635154,-0.13702595,-0.17804137,0.40522686,-0.48487025,0.20445678,0.3027231,-0.44503596,0.12371966,0.064573854,0.30115822,-0.08819923,0.14219572,-0.42656067,0.47848696,-0.30823955,-0.10453643,0.32121426,0.27559546,0.50221455,0.16230077,0.11702164,0.031845443,0.29740843,-0.4850393,0.050537366,0.3783059,0.24505454,-0.16207111,0.07630706,-0.103600495,0.4523466,-0.011777825,-0.20849194,-0.5361639,-0.028356353,0.059646893,-0.10511748,-0.050703276,0.1451737,-0.46442538,-0.3860953,-0.04027493,0.22641967,-0.49736792,-0.35534635,0.41257542,-0.40649614,0.28032154,-0.3871574,-0.19029048,-0.28692588,-0.2491261,-0.32580408,-0.24650808,0.37187076,-0.4415818,-0.034607332,-0.18610822,0.031150533,0.38524666,-0.17537741,-0.52582234,-0.5767343,0.35559466,0.14399031,0.3124646,-0.117397875,0.27670145,-0.2811725,-0.48685914,-0.17077346,-0.16900225,-0.33878738,0.41036373,0.46139458,0.28559488,-0.2768085,-0.4388165,0.08786675,-0.43958429,0.42759702,-0.051540185,0.19568224,-0.083788805,0.1945841,0.0026958187,0.295511,-0.43104497,0.33136007,-0.48338872,-0.13378786,0.43614653,0.008550148,-0.31625557,-0.47391328,-0.21616425,-0.38642213,-0.33771878,-0.060915362,0.058477547,0.49527436,0.24298479,0.37545493,0.4737104,-0.31025308,0.30996314,0.07877229,0.11066442,0.29507455,0.22232316,-0.42065492,-0.4081688],"bias":-0.0076388298},{"weights":[0.4573105,-0.23948006,0.10015608,-0.31852853,0.28599167,-0.42528036,0.0390793,-0.2509372,-0.32049036,-0.38669387,0.14012901,0.31319404,-0.2781016,0.40782127,-0.23979658,0.3023288,-0.3909986,0.4207473,0.4315053,0.057739086,-0.33186734,0.17976843,-0.4155315,0.24834974,0.1037832,-0.43721905,-0.1997511,-0.0028188857,-0.25594372,-0.09572971,-0.0996835,0.24018534,-0.26800537,0.4115365,0.24833699,-0.3283055,-0.11209271,-0.45516887,0.17581856,0.32147357,0.12534927,-0.013026711,-0.06536955,0.17741261,0.4737079,0.37669584,0.036790617,0.24324767,0.45785287,0.47651228,0.4694252,-0.013118151,-0.2896259,-0.1671634,0.29269546,-0.4403859,0.3428623,-0.1550485,0.007764556,0.18587011,0.1372107,0.15824267,-0.26514024,-0.28356695,0.18448465,-0.101052925,0.2759089,-0.35367668,-0.01650688,0.2723004,0.34029558,0.31530198,0.37498602,-0.40535545,0.30187482,-0.032275908,0.20125704,0.40420228,-0.06302064,-0.31251702,0.51018554,-0.18299638,0.29924086,-0.06273847,-0.4036684,-0.12674418,-0.3077121,0.284079,-0.31682283,0.05584558,0.33737558,0.18054155,-0.084239654,0.010075518,-0.29990017,-0.51650375,-0.19288315,-0.49551082,-0.35681176,0.018350678,-0.18355797,0.21776988,-0.0019985512,0.2519989,-0.05360558,0.32226557,-0.0880707,-0.27671248,-0.16269748,-0.3673967,-0.23402672,0.43854082,-0.29914758,0.4502653,-0.12958832,-0.13952109,0.097912475,-0.28447306,-0.26976225,0.05561748,-0.36715463,0.20491609,0.2898651,-0.1781019,0.3836944,0.25092155,-0.18877378,0.2935238,0.45061383,-0.48964375,0.3158329,0.3439534,0.043316223,-0.17321093,0.2661756,0.19176504,0.24558644,0.020972025,0.121659786,0.13056119,-0.03809383,0.29582787,0.43336046,0.055793304,0.16350289,0.32939824,0.25133613,-0.12839168,-0.4459187,0.29372463,0.39877704,-0.32469139,0.15631779,-0.16853863,0.21010178,0.26326054,0.16056173,0.20555995,-0.1109533,-0.33313155,0.28892818,0.008134495,-0.0559966,0.3943167,0.11376869,-0.3396083,-0.36144218,0.4782683,0.04584561,-0.30577737,0.15124278,-0.20016484,-0.52211684,-0.19978456,-0.1897396,-0.3843773,0.040338434,-0.005162906,-0.30615067,0.2518999,-0.10431119,-0.4530949,-0.13083872,0.09070966,0.12607962,0.039482094,-0.38999602,-0.025788264,0.4311074,-0.54042405,-0.03909034,-0.45680094,-0.12898766,-0.36547723,0.3137685,-0.2475192,-0.26842237,0.32870072,0.23998138,-0.060719058,-0.4647513,-0.062198073,-0.31207904,-0.2826462,0.13453183,-0.45781896,0.015679482,0.028107122,0.12527996,0.29750663,0.28250232,-0.24670863,-0.41175634,0.34143054,-0.09250527,-0.31560925,-0.41601124,-0.15361416,-0.49799642,0.00621995,0.33417276,0.35241124,-0.3543722,0.24749947,0.0006566955,0.3897476,-0.5024105,0.086734176,-0.048937775,-0.09446695,-0.39198658,-0.39999035,0.21066009,-0.08344755,-0.2533433,-0.14307356,0.26638752,-0.23894449,-0.076624766,0.326663,-0.14152597,-0.16581212,-0.10521035,0.47186708,-0.002827507,-0.47417536,-0.34355807,-0.06867284,-0.119507834,-0.097490564,-0.29193494,0.08978193,0.036616135,-0.29896086,0.018496044,0.384916,-0.57171,0.3546186,0.31021196,-0.40305415,-0.37361273,-0.48761177,0.4893703,0.06598796,0.49744365,-0.12013593,0.4176142,-0.19031699,0.13547185,-0.35601774,0.22085026,-0.055298865,-0.49477503,-0.49693802,-0.023730027,-0.23844342,0.21168904,-0.3337454,-0.34879965,-0.059214965,-0.39603925,0.028273791,0.4371093,0.37762222,-0.39398852,-0.2034311,0.21168627,0.051366404,-0.45396543,0.32326755,0.029539118,-0.15157038,0.34198534,0.21050072,-0.08434536,0.2435994,-0.24627793,-0.21722198,0.14138186,-0.17900936,-0.40820342,0.40065163,0.24323967,0.14755318,-0.50686723,-0.19625308,-0.53398407,0.19056258,-0.37053987,-0.3601077,0.0907568,-0.09216376,0.38095066,0.03878839,-0.123837546,-0.3708025,-0.45462677,0.0065956316,0.32709754,0.23247519,-0.4120511,0.5070166,0.2498142,0.39749458,0.4818381,0.3067502,0.10769034,0.12945625,0.22233193,0.3166628,0.33981854,-0.52411354,-0.05215553,-0.43112373,0.3370683,0.29506359,0.27211902,-0.2727749,0.30614328,-0.32629845,-0.07812247,-0.1053354,-0.44863907,-0.3830366,-0.41456497,-0.38385665,-0.41408542,-0.31846836,0.42149603,0.22851269,0.029029679,0.528221,0.11631618,0.55688316,0.2947276,-0.40599853,0.09043356,0.50031555,0.20846602,-0.13269714,-0.24574792,-0.41513517,-0.25398558,0.46371078,0.016945077,-0.3333871,-0.18796526,-0.28477436,0.39528644,0.10179774,0.1567319,0.09486479,0.2691844,0.255425,-0.36057064,0.059993766,-0.15878078,-0.38825253,0.36815232,-0.18908688,0.39113745,0.36231953,-0.22774747,-0.24739566,0.5296358,-0.36661556,0.27298224,0.32412136,-0.1664885,-0.49895647,-0.33060333,0.3899972,-0.0399703,-0.38255763,-0.30592808,0.16476582,-0.4947443,0.20728697,-0.16448714,-0.22260313,-0.06697206,0.39891642,-0.4707884,-0.36567557,0.40051717,0.39585114,0.45274433,0.06416046,-0.004982767,0.45966733,0.4802949,-0.1671648,0.2733301,-0.37361005,-0.3270707,0.30383414,-0.050806936,-0.12866968,-0.4432693,-0.38113406,-0.21767317,0.4716266,0.22550753,-0.058219712,-0.4802237,0.1942362,-0.3999768,-0.37282497,-0.06614019,0.0052687237,0.07922399,-0.45423678,-0.19208279,0.3092763,0.41146657,0.2485018,-0.4587097,0.16555712,-0.43997142,0.3935034,0.1708069,0.24071589,-0.38813177,0.43098468,-0.23298013,0.062008206,0.004287452,-0.26532713,-0.032303084,0.2386195,0.3252351,-0.23123798,0.30137298,-0.5219887,-0.51151145,-0.24691516,-0.21447816,0.18333103,-0.5059283,-0.55213326,-0.03903545,0.33973172,-0.06532087,0.14487585,0.4151459,-0.42852286,0.44548175,0.37976375,0.048718557,0.16037408,0.075922795,0.22256556,-0.27297467,0.23060268,0.19608,-0.012798939,0.4072406,0.33451366,0.21268661,0.34139013,0.4371876,0.2631181,0.22310755,0.0056854584,0.41452459,-0.20135896,0.2690861,0.032154445,0.39182764,0.3614608,-0.4788018,-0.010199693,0.43728814,0.23488022,-0.45798984,-0.021440519,0.29019335,-0.09048117,0.010508962,0.31707904,0.22811934,0.22096959,0.1479089,-0.27223,0.12771922,0.24191518,0.26621702,-0.2910327,-0.2668377,0.34363255,-0.15198119,-0.47785267,0.0946693,0.098460525,0.31774083,-0.09423561,0.36388227,-0.13385695,0.29240277,-0.14389955,0.38123912,-0.101275206,-0.063297406,-0.11927972,-0.21341063,-0.24621445,-0.13963775,-0.118554816,0.15930097,-0.2090913,0.016597413,-0.008360852,0.16125531,-0.22683775,0.19265991,0.15295787,0.41159964,0.10611602,0.051682852,-0.31182516,0.06540789,-0.33129656,-0.07946491,0.497019,-0.2748411,-0.21701896,0.073947474,0.2894779,-0.28456986,0.026254565,0.35965574,0.0021405874,0.08875873,-0.004979653,-0.28777528,0.21235213,-0.29002997,-0.2520594,-0.008032697,0.20604262,0.5053736,-0.35600665,-0.09652678,-0.053353358,-0.4520172,-0.33596548,0.26443008,-0.045565132,0.3687564,-0.026271226,-0.31215128,-0.47248375,-0.26580876,0.43516254,-0.35219195,0.43078035,0.112195954,-0.41972354,-0.20936115,-0.110464446,-0.12762202,0.43848127,-0.37137255,-0.18359073,0.24277769,-0.1749109,0.122391015,0.26328713,-0.24672756,-0.42087507,0.23127174,0.2375231,0.15429808,0.22795586,0.1504554,0.011887306,0.4498767,0.08647117,0.22744967,0.27984652,0.09396962,-0.1963374,-0.11888747,0.4328315,-0.039160576,-0.461167,0.13628331,0.07426659,0.33890665,0.41055402,-0.42336652,-0.37855875,-0.016422672,-0.17903048,-0.200148,-0.05688326,-0.48039833,-0.40911007,0.2811338,-0.4184664,0.30370966,-0.28853384,-0.10037643,0.44318935,-0.41779596,-0.2794407,0.22009376,0.050125483,-0.46412885,-0.1599956,0.15959433,0.42687088,-0.22958782,-0.43271884,0.022458317,-0.0576724,0.4715073,0.25203755,0.24381493,-0.21784487,-0.19543007,-0.3340903,0.18020724,-0.18734062,-0.34026095,0.47995317,0.3296764,0.115647025,0.27189735,-0.42559212,-0.15474051,0.27104944,0.0059895176,0.0050787404,0.42499295,0.12338458,0.27915,0.0039442223,0.3475977,0.33542305,-0.22810839,0.31235182,-0.17046598,0.04846318,-0.43608057,0.03890323,0.52206224,-0.25667086,-0.04143454,0.012566725,-0.4081975,0.4976759,-0.35986337,0.26723966,0.022602309,-0.2943706,0.25180295,-0.42193434,-0.2960514,-0.23612306,-0.32453296,0.19149582,-0.43006873,0.100094736,-0.26529905,-0.40425718,0.4191546,0.2129743,-0.2658796,-0.2580035,-0.2271788,-0.2671546,0.24766713,-0.39961338,0.040530805,0.21232396,-0.109147646,-0.10913887,0.4982744,-0.016129814,0.23028852,0.14095056,0.2632418,-0.4276476,0.3614073,0.27133593,0.37798107,0.3591673,0.2891837,0.37218374,0.21559545,0.43596154,0.34476572,0.3319861,-0.0865362,-0.19017883,-0.3018112,-0.09998542,-0.0050528664,0.46546894,0.47376534,-0.3072215,0.31753227,0.53700906,-0.08094587,0.49248704,0.312002,-0.43899852,-0.12720065,-0.1017084,-0.2489313,-0.26840708,-0.04090432,-0.1712888,0.46844777,-0.2605749,-0.23679566,-0.46164197,-0.30810606,0.031310905,0.336771,0.45863155,0.3410868,-0.17430966,-0.11144563,0.1736366,0.37822944,-0.06760583,-0.19066772,-0.33658734,-0.33688512,0.2527601,0.3250553,-0.12018949,0.48196697,-0.3385435,-0.04268388,0.38487732,0.36135212,-0.2642247,-0.29033285,0.30904853,0.102071434,-0.43984273,-0.16130765,-0.26614562,0.057570774,0.40112,-0.053336073,0.3300996,0.49918267,-0.09135277,-0.016161293,0.3734093,0.5174601,-0.073393084,0.21063283,0.3453889,-0.08607783,0.38774708,-0.15990433,-0.15780924,0.14934859,0.12163372],"bias":-0.16538392},{"weights":[0.011130353,-0.5487679,0.06332523,0.069380194,0.27624962,0.18642312,-0.06033076,0.39719668,0.3428863,0.1921105,0.38874048,0.40522048,0.017548146,0.33849633,0.15081625,-0.34629494,-0.2827923,0.041442513,-0.45169014,-0.5310999,-0.0142171355,0.36612368,0.20386843,0.014002746,0.061700746,0.07703244,0.006804308,0.17935869,-0.51082915,-0.47014958,-0.55961704,0.016647946,0.1428728,0.0003840905,-0.17445138,0.45609447,-0.10700195,0.16803698,0.1749384,0.17965926,0.03044584,0.4706475,-0.21136601,0.3802909,-0.077010006,-0.20664963,-0.17163274,0.17883123,0.23731372,-0.37618992,0.14945042,-0.24450605,0.19737664,-0.45536312,0.18411703,0.4031924,0.39563772,0.33940804,-0.13300167,-0.33376575,-0.04609438,-0.3140679,0.36304468,-0.31321505,-0.18647331,0.072336875,-0.46226552,0.018352166,0.46697366,0.07219979,-0.35161468,0.058154866,-0.17409414,0.06846451,0.39023975,-0.2851125,-0.42792574,0.040673453,0.23804432,-0.14207286,0.36521247,0.2605951,-0.5259766,-0.32056293,-0.00687626,0.14596644,0.087685354,-0.04735465,0.31296733,-0.39858875,-0.27461594,0.06395479,0.47426224,-0.37766027,-0.29608738,0.20012577,-0.25162232,0.07210792,-0.1352028,0.42775747,-0.22439,0.1721682,0.5171411,-0.36851764,-0.052978396,0.46834224,-0.35322207,0.2761668,-0.23371048,-0.04110477,-0.005470586,-0.05226767,-0.32583857,-0.33701664,-0.41331264,0.06414128,0.45287403,-0.4890978,0.17569663,-0.21041897,-0.14391631,-0.041773774,-0.20544812,0.051378835,0.28955874,0.12920916,-0.3949868,-0.03357925,-0.23969765,0.13212663,0.0017060931,0.10017136,0.15370736,0.06517201,-0.28356716,-0.19913398,-0.10687328,0.2040729,-0.4689888,-0.38854155,-0.5572328,-0.4924978,-0.16899396,-0.09653964,0.36622036,-0.18173885,0.38642153,-0.16302757,-0.46270636,0.287898,-0.25655672,0.4255346,0.006187903,0.22378045,-0.07149733,0.05521726,0.08288813,0.14261122,0.49967998,-0.061025336,0.31998676,-0.21739188,0.5595808,0.0092965085,-0.19672263,-0.16296744,-0.0510454,-0.5673224,-0.08878724,-0.3540839,-0.40438446,0.08374615,-0.34675315,0.1847204,0.24298221,0.48559132,0.054336548,-0.5170151,0.2160736,-0.044006012,0.3240622,0.07721525,-0.27009743,0.24022897,-0.119941145,0.14923276,-0.48437154,0.44315323,0.19878502,0.52097,-0.24802294,0.41263872,0.1566861,-0.42874563,0.08124971,-0.3253412,0.15631928,0.0070961188,-0.4497644,-0.32650837,-0.47916296,-0.2755429,-0.27510136,-0.27542114,-0.10298495,0.021002216,-0.46874347,-0.31475613,0.2356448,0.24631177,-0.2053228,0.16957054,-0.36225075,0.36030257,0.43320924,-0.14430593,-0.42834124,-0.17790656,-0.00059133593,0.16373608,-0.28549573,-0.05092626,-0.42695367,-0.031004028,-0.38149488,0.32385182,0.039868962,-0.3770296,0.37088114,-0.20924012,0.31948817,-0.25181672,0.1488896,-0.50818056,-0.01351565,-0.2692201,0.005236498,-0.2304967,0.22222719,0.40500522,0.37341475,-0.11342758,-0.41070879,-0.32506558,-0.41557676,-0.12843332,0.53402627,-0.002781041,0.17735443,0.12750922,-0.15398575,0.30552503,-0.19271633,-0.34045002,-0.15208665,0.2374731,0.25101197,-0.3571366,-0.27639443,0.39012718,-0.45937386,-0.2516459,-0.26125157,-0.37724146,-0.11568114,-0.50435907,0.42102435,-0.5403856,-0.54203933,0.14278437,-0.024458198,0.3309405,-0.23435624,-0.023712385,-0.22685456,0.33049086,0.11270197,-0.049268052,0.030156456,0.15909041,0.03173651,0.4147802,0.29471314,-0.44592512,0.2677988,-0.463974,0.09297595,-0.04589907,0.16157626,0.3949921,-0.491737,0.38628945,-0.06357409,0.3939208,-0.115224354,-0.28664777,-0.12787227,-0.33294958,-0.44980448,0.043513894,0.54478294,-0.27154478,0.38537553,0.2835361,-0.046015393,-0.54046,-0.046469077,-0.5604794,-0.515158,-0.2505778,0.28445837,-0.1224654,-0.27046925,0.24930792,-0.43884006,0.23100142,0.05574463,0.09781002,-0.43456656,-0.15805112,0.12368795,-0.4815897,-0.34646758,-0.053040296,0.18920472,-0.22864044,0.26696438,0.45659253,0.15058824,-0.09829779,-0.23927838,-0.39637867,-0.065313175,0.027828682,-0.007311727,-0.26996922,0.28188697,-0.2484785,-0.29481575,-0.2646913,-0.13204059,0.2479052,-0.17697619,-0.14431974,-0.4874518,0.3410015,0.092794456,-0.16583203,0.28849626,-0.06961891,-0.44671407,-0.25173885,0.008209099,-0.06072264,-0.32831293,-0.33263007,0.55325705,-0.38428834,0.25129834,0.26860225,0.26177412,0.26333725,0.081918836,-0.13886575,0.071133,0.21814243,0.045059152,-0.24267854,0.25057766,-0.24288294,-0.25666615,0.44283924,0.46567318,0.22563514,-0.29046655,0.1444228,-0.09613681,-0.33829963,-0.02297821,0.095239125,0.049904928,0.46926802,0.4469246,0.03820146,0.20631444,-0.34743792,0.039570514,0.25184554,-0.50976485,-0.086763926,0.056905396,-0.024901351,0.03866886,0.37549427,-0.07830867,-0.47475046,-0.42968678,0.15399328,-0.37675002,-0.47118735,-0.118981175,-0.28942648,-0.4494881,-0.0063098175,-0.42945153,0.11191536,-0.49697345,-0.035842266,0.40112066,-0.28296018,-0.019277161,-0.23669745,-0.44636685,0.4189108,-0.1376051,-0.2762217,-0.22329909,0.30871722,-0.23319134,0.3457473,-0.5352312,0.076275244,-0.29767376,-0.12715407,0.25029787,0.030412031,-0.3089833,-0.24937153,0.42462537,0.054276142,-0.25924236,0.4165623,0.45908323,-0.3380564,0.08304826,0.3300275,0.25609046,-0.051132653,0.14849186,0.4895437,-0.16134337,-0.38158628,0.28044176,-0.21231793,-0.20255013,0.08473329,0.1871875,-0.4753644,-0.506216,0.28974524,0.43676034,0.16707899,-0.101287015,-0.00032831548,0.22982293,0.46994933,0.29064357,-0.27423456,0.30928332,0.43280748,-0.06409671,-0.44993818,0.15687744,0.35756093,0.24991864,-0.17150816,0.24797066,0.18052544,-0.1979735,-0.47321215,-0.029070707,0.04903117,0.36678818,-0.09075716,0.26321283,-0.24413939,-0.26517263,-0.56372875,0.3015325,-0.3309792,-0.1986226,-0.41797003,-0.42699125,0.35835797,0.45781,-0.46233803,-0.28367147,-0.4418209,0.2051161,0.19067211,0.37764344,-0.13636345,-0.13420065,0.27248904,0.015796414,-0.11637245,-0.02503829,0.22611505,0.019179871,-0.31896022,-0.45146817,0.047305588,0.06117067,0.34500492,0.36434165,-0.4309763,-0.09796072,-0.18313807,0.124187924,-0.08093611,0.4388112,0.25650126,0.14812542,0.43905327,-0.037901416,-0.4363038,-0.14102261,-0.35532755,0.39766818,-0.033201203,0.46648347,0.4035376,-0.16750059,0.16195662,0.3029673,0.17477438,0.16092075,0.40332422,0.13240838,-0.077618726,-0.49233544,0.049187806,-0.15688688,-0.27089557,-0.14736886,0.32083142,0.43142992,0.3315179,-0.4033219,0.27250573,0.4185286,0.14564677,0.2032943,-0.12181018,-0.45985973,-0.2908072,-0.051461983,-0.44651037,-0.2971824,-0.038052153,0.1986193,-0.33308607,-0.34196123,0.4363109,-0.37845582,-0.35756332,0.008821373,0.22716372,0.12182545,0.15618892,0.061169576,-0.41892007,0.2740824,-0.5236703,0.21787363,0.13078986,0.39724436,-0.3574223,-0.11834864,-0.41693488,-0.027441617,0.44518793,0.35210127,-0.17831141,0.47005343,0.36180487,-0.15227021,-0.18125887,-0.4900055,0.46089333,0.163655,0.028898379,0.3396923,0.11686299,-0.0065960134,-0.25278568,0.3336609,-0.3748856,-0.017760111,0.07006516,0.39584872,-0.20685679,-0.35276753,0.46331537,0.08532211,0.35946625,-0.03427606,-0.0025069441,0.32248124,-0.29377806,-0.4737631,-0.16717672,0.16804478,-0.5396059,-0.41934556,0.10290578,-0.3805574,0.28438362,0.23409186,0.07631963,0.10322895,0.029890215,-0.09664249,0.04335212,-0.29719356,-0.09405201,-0.18446971,-0.15192927,-0.31798074,-0.21689965,-0.066140726,-0.0688348,0.35538432,0.06710508,0.1659395,-0.049348675,0.2502043,0.30038756,0.22228548,-0.48527563,-0.13257001,-0.17686448,0.43273672,-0.3198708,-0.29267806,-0.33343124,-0.19614398,-0.3167025,-0.23820691,-0.01470866,-0.2477877,0.42355162,-0.4114833,-0.17697746,0.22303198,-0.37691015,0.1865602,0.21772142,-0.42068425,-0.07727992,-0.1016005,0.3415454,-0.38168535,0.35157555,0.29973596,-0.2101069,-0.25144127,0.011179357,-0.36330077,0.17594348,-0.30251944,0.35859486,0.35345536,0.35319504,-0.062295664,0.162272,-0.24735989,0.47758478,0.3312374,-0.31778848,0.4330504,0.1910019,0.3721586,-0.2192718,-0.21686606,0.16034712,0.17416738,0.23905718,0.10961287,-0.14974745,-0.28666833,0.4245936,-0.10733514,-0.42282537,0.42447048,0.39167628,0.24574101,0.46983936,-0.38741794,-0.2243303,-0.20722324,0.2951976,0.36138088,0.0579078,0.11420218,-0.5067846,-0.03426617,-0.09866827,-0.34699902,-0.3633089,0.21925418,-0.166486,-0.049527258,0.421642,-0.38349295,-0.17318994,0.37707677,-0.104724035,-0.03650643,0.24890214,0.39896378,0.09196482,0.4975243,0.18581052,0.08441074,-0.02053785,0.21601763,0.11015338,0.32875,0.05665778,-0.42582583,-0.03876071,0.40754896,-0.3285712,-0.16019587,-0.2485634,-0.091392174,0.078804106,-0.23404029,0.35127658,0.05579953,-0.11929462,-0.32307675,0.32437342,0.034169085,0.41221222,0.24061121,-0.46423945,0.06302149,0.1758597,-0.13669561,0.42672837,0.10624939,0.40112346,-0.35652128,-0.42136696,0.42451483,-0.07880511,-0.12976323,-0.35490727,-0.0048579057,-0.4615664,-0.4825644,0.024832934,0.25920248,-0.4864266,-0.30787465,-0.2344322,-0.17655626,0.10404342,-0.201506,0.04217921,0.39252803,-0.19814868,-0.14573075,0.37624088,0.38563463,-0.25711262,0.19223087,0.024676243,-0.34211344,0.044300735,0.36162254,-0.12748052,-0.45507398,0.31328517,0.3693399,-0.42215484,-0.39195704,-0.0018301202,-0.25819466,-0.3494854,0.21015424,0.32653663],"bias":0.24408339},{"weights":[0.23395807,-0.14235826,-0.12023162,0.036347225,-0.49202743,0.35124436,-0.4566885,0.047563456,0.07615404,-0.11531167,0.26347324,-0.38745967,-0.44486368,-0.1997374,-0.3160953,-0.41748756,0.15523058,-0.42333913,-0.025484659,-0.11822172,0.41804457,-0.4709532,0.07894925,0.15515575,0.22611307,0.3602099,0.03767101,0.006054803,0.24162346,0.389461,-0.37132034,-0.19013532,0.34704354,-0.42439732,0.14164875,-0.5162163,-0.18094124,0.39913014,0.34427783,0.10312824,-0.48139402,0.40658554,0.28459597,-0.2002389,0.07509162,0.48430166,-0.44455582,0.21270552,-0.49187368,0.08041105,-0.23250796,0.4050878,-0.08818323,-0.3535969,-0.040610105,0.3382624,-0.20623389,0.25420007,0.06414367,-0.0956006,0.40284234,0.47053084,0.22740357,0.4263847,-0.14801721,-0.3268468,-0.07088616,-0.4166345,0.12244163,0.11507514,-0.10921937,-0.4170204,-0.011856646,-0.08504612,0.23713018,-0.45903268,-0.06890448,0.48949528,0.09496656,0.22852148,0.3927934,-0.0596225,-0.27013698,0.37554368,-0.106625475,-0.43523943,0.35006306,-0.4218126,-0.42829823,-0.33009568,0.1628004,-0.13727185,0.2796159,0.20720956,0.49687344,-0.3120958,-0.19821908,-0.26244685,-0.32043558,-0.23982002,0.21237358,0.21887864,-0.13377638,0.09858427,0.31408364,-0.16626602,0.47279257,0.33964074,0.23921035,0.4127557,0.22203311,-0.5028114,0.12693483,0.27271247,-0.47809944,0.38149834,-0.38454843,0.36226034,-0.1667588,-0.14857388,0.38456067,0.39892417,-0.25010806,0.3171531,0.09377445,0.49490917,-0.050300233,-0.48498714,-0.322562,0.3448217,0.06567898,0.18925194,0.07873573,0.29763636,0.43663743,0.1529649,0.4245772,0.42850706,-0.12227423,0.12558651,-0.4667831,-0.07900512,-0.23983683,0.029679826,-0.2937505,-0.28119254,0.07548287,-0.40268034,0.039603144,0.23007812,-0.2448766,-0.0241291,-0.37201914,0.3962807,0.0296474,-0.21328805,0.0507275,0.013487984,-0.18609343,0.078614265,0.15942465,0.1362484,0.012281624,-0.15538396,-0.4186916,-0.12025792,-0.02128549,-0.000788794,-0.21776229,-0.078567415,-0.44118696,-0.18379761,0.10771222,0.21694839,0.07487558,0.22139923,-0.33231413,0.2841725,-0.3290922,0.2653289,0.41327432,0.27612627,0.20138322,0.20092012,-0.038002912,-0.2691894,0.09253873,-0.4520364,-0.25301805,0.29501703,-0.12146833,0.3524095,-0.3071814,-0.3622963,0.4223203,-0.030969527,0.43185374,-0.44722658,0.15393175,0.021441573,-0.4328242,-0.47950667,-0.01186126,0.10349295,-0.14679264,0.1321572,0.46666935,-0.36467606,0.45058152,0.30846882,-0.052857127,0.31064597,-0.2444983,0.378404,0.44224587,0.34725693,0.13741793,-0.14729488,-0.4079331,-0.37883762,-0.082004875,-0.20920838,-0.21546134,0.1923231,-0.060434286,0.28746942,0.38093153,0.33209315,0.3198247,-0.07754088,-0.18859378,-0.14594966,-0.3124923,-0.3823676,0.46701655,-0.25647694,0.36141416,-0.2666987,0.029304525,0.11987074,0.47602254,-0.40661484,-0.17311764,0.5146313,-0.41605112,0.41204113,0.40421224,-0.22015817,-0.11384613,-0.5118219,0.092695124,-0.262561,0.020136002,0.22244462,-0.1122295,0.31727937,0.3569232,0.30804437,-0.24227515,0.08288759,-0.5064799,0.2713926,0.24980661,-0.015932795,0.22055104,0.17448457,-0.4871729,-0.23198822,0.12265893,-0.42345366,-0.00827448,-0.3606475,-0.40444243,-0.28429922,-0.37667155,-0.1356891,-0.488144,0.23749302,-0.3388507,0.041487094,-0.20782425,0.21413824,-0.42685324,-0.5084242,0.07383043,-0.4477679,-0.18362258,-0.031234624,0.07216818,0.083291635,-0.07188622,-0.37800643,0.33897343,-0.26209703,0.41144556,0.29737726,0.293183,0.47007602,0.16699247,0.131222,0.2428798,-0.46613094,-0.06963827,-0.28947967,-0.42672455,-0.09093904,-0.23380043,0.26324126,-0.0355865,-0.06731466,0.0491422,-0.05347107,-0.1669766,0.3197294,-0.1583328,-0.0067281546,-0.2651928,0.022270966,0.1583873,0.056784876,0.45551562,0.3313648,-0.29594755,-0.19922014,-0.122056656,-0.27092874,0.18856178,0.075131826,0.3051128,0.14972074,0.17089027,0.02958501,0.43824267,-0.44096798,0.3222627,0.37558436,0.27533907,0.049846057,-0.2576108,-0.40344703,-0.07317237,0.24942437,-0.31258926,-0.030877696,0.33005646,-0.2965037,-0.2652985,0.13179187,0.2263627,-0.47578993,-0.12137875,-0.48366925,0.48667026,0.03970179,0.047466904,-0.4121735,-0.1829481,-0.30701417,0.049379174,0.37884212,0.19487832,0.29228744,0.36424306,0.32963026,-0.087554626,-0.018138943,0.37154087,-0.24292359,-0.43609166,-0.18710972,-0.11119314,0.41852546,-0.3597634,0.47237605,0.22998355,0.22597276,0.32517424,0.22785638,-0.37702522,0.123698026,0.08630102,0.246916,-0.3599272,0.4637447,0.1585317,-0.5237663,0.22242993,-0.025513805,0.32348162,-0.22355986,-0.47490522,0.25961158,0.22605996,-0.11160038,-0.015952023,0.41707352,-0.1408393,0.35188752,0.44282302,-0.43454954,0.39694807,0.35215557,0.110044666,-0.19832958,-0.41108835,0.45879495,-0.48977134,-0.11378028,0.050508767,0.08574159,-0.17614394,-0.3749227,0.18599981,0.45461962,0.09700789,0.17978875,0.32214305,0.24689049,0.40429062,0.04358865,0.3195028,0.12796298,0.05343814,0.17865299,0.20628309,0.008742281,0.4820375,0.32853267,0.05931661,-0.021655444,0.17109352,0.4471248,-0.42385402,0.055727586,0.48486525,-0.21468596,-0.12633552,0.33734435,0.21335842,0.0036356628,-0.33758086,0.36314854,-0.12109846,0.31610152,0.058255192,-0.11149645,-0.09474866,0.34765378,0.3476394,0.0037072676,0.092961855,-0.4201181,-0.2108364,0.037883144,0.24433506,-0.098478764,-0.22989395,-0.46751615,0.43399128,-0.25721225,0.2993316,-0.16740635,-0.15253955,-0.2565128,0.017943975,0.060687996,-0.34750357,-0.17878811,0.41625392,0.039419495,-0.03439751,0.0030727582,-0.26308852,-0.20162663,-0.32406288,-0.47781265,-0.48104724,-0.042800978,0.42375928,0.3935197,0.40580034,0.17397816,-0.317678,0.15907405,0.13200247,-0.10343968,0.15578257,-0.4189022,0.5010052,-0.26197693,0.20200138,-0.32132646,-0.40568414,0.04518184,0.3384667,-0.39461207,-0.42343715,-0.3826328,0.055236354,-0.046834707,0.4006089,0.3442943,0.19191942,-0.13920283,0.058329944,0.119021714,-0.07916626,0.25214022,0.014939489,0.54356176,0.21203917,0.115745194,0.50987536,0.13044126,0.03984747,0.47724065,0.25660115,0.24236499,0.031023437,0.017978853,-0.36551198,0.15610895,0.4145806,0.0271182,0.29479417,-0.50752014,0.29051146,0.22932918,-0.07141658,0.32973278,-0.50598747,0.093329564,-0.5251539,0.25744203,-0.13976988,0.38087702,0.3260586,-0.097181275,0.07853044,0.5132774,0.400693,-0.10609088,0.45554855,0.12272228,-0.10019696,-0.13577026,0.5179856,0.5367246,0.18622474,0.23005413,-0.35125333,-0.013667982,0.4130311,-0.25011742,0.17221932,0.07526247,-0.4870498,-0.4854179,-0.3023518,0.09099048,-0.30454656,-0.052443083,-0.014548724,0.37829578,-0.3839729,-0.37932965,0.39401963,0.33786952,0.27272898,-0.1113162,-0.09086399,0.5180325,0.52346075,-0.31106043,0.4036245,-0.20011364,0.19118924,-0.0015455798,0.2759801,-0.40406117,0.392289,-0.17878398,0.1642331,-0.23879579,-0.19650263,0.18443365,0.37847877,0.09066492,0.44143084,-0.119471714,0.019826172,-0.29487848,-0.49898964,-0.39872953,-0.023675917,-0.1863526,-0.12753104,0.48728526,-0.14976746,-0.4455326,-0.358877,0.072691575,-0.12916927,-0.06971603,-0.41908416,-0.106864,-0.028513111,-0.13702457,-0.42785072,0.21062802,-0.37149948,0.27845272,0.3382951,-0.103730515,0.3984367,0.23720494,-0.011483354,0.12604111,-0.12813771,-0.42386878,0.26338106,-0.18814775,-0.021912143,-0.087476544,0.07473637,0.2527257,-0.41873354,0.2173405,0.47327963,0.07629446,-0.19416064,-0.36845434,-0.09919236,-0.35360476,0.3801164,0.018852793,0.21735683,-0.38485104,0.3060156,-0.1413023,-0.45886824,0.19520767,-0.3468939,0.32183978,0.29043493,-0.3602533,0.41953588,0.25270742,-0.15404071,-0.50843894,-0.1487696,-0.014136872,-0.34491426,-0.12517375,-0.4053439,0.3707585,0.37869474,0.10364681,0.10141422,0.16161464,-0.23083086,-0.34120417,-0.4906347,0.26815373,-0.42948577,-0.47345072,-0.5122175,0.23192827,0.17918925,0.19946857,0.117794454,-0.33418927,0.32484338,0.10687154,-0.52034944,-0.4661663,-0.050636146,-0.3503389,0.14032997,-0.31897986,0.04350396,-0.23077424,0.39982438,0.21505734,-0.5016702,0.37968543,-0.37299657,-0.15347683,-0.059694912,-0.22841649,0.1640924,0.16737334,0.059736054,0.38190955,-0.52174807,-0.4763487,-0.30124873,-0.052030634,-0.019551326,0.16802686,0.33401266,-0.24040787,-0.21868356,0.28784654,-0.012696995,0.33787787,0.27726948,-0.19051015,-0.12693897,0.45419514,-0.2920459,-0.33178282,0.003676842,-0.0028254127,-0.27641076,-0.18950036,0.11099532,0.39750475,0.3734829,0.44101056,0.2736671,-0.3917461,0.02886953,0.0033649665,-0.49191055,-0.2606948,-0.04416128,0.24654968,-0.29392004,0.13155559,-0.5373009,0.09040295,0.2004375,-0.07202395,0.048754748,-0.4186712,-0.34690765,0.3841157,0.34811702,0.35316697,-0.5140083,-0.10728891,0.0012991227,-0.33806178,-0.24719724,0.011925055,-0.53636926,0.17677505,0.3343363,-0.49392086,-0.118512325,-0.059235778,-0.39069867,-0.05809061,0.27367726,-0.5390504,-0.23294815,0.21909499,-0.046869554,0.35686785,-0.47205523,-0.06811451,-0.23969118,0.28114706,-0.45741412,0.33481726,0.32165766,0.45550823,-0.2523826,0.21071881,-0.13394223,-0.13732728,-0.37656078,0.21998626,0.022583824,-0.5093366,0.2453088,-0.513397,0.297111,0.06330517,0.43394366,0.03850043,-0.112925634,-0.49094447],"bias":-0.5209752},{"weights":[0.11292319,0.14759886,-0.49305713,0.46481228,-0.2598702,-0.26966265,0.23681441,-0.13425422,-0.4213071,0.27825105,-0.103411116,0.1553997,0.3519119,-0.21316352,0.026893476,0.11187609,0.4279218,-0.49764496,0.0004958512,0.29222816,0.30223703,0.45806116,0.05012473,0.049386814,-0.03380052,-0.38784027,-0.113532625,0.14236747,-0.26219788,0.2909372,0.23783185,-0.33184436,-0.26095542,0.3886658,-0.35873833,-0.1554546,0.04463794,0.48152593,-0.4799132,0.39821,-0.4277674,-0.18047474,-0.22605647,-0.1623396,-0.4488468,-0.30720708,-0.30833706,-0.5064358,-0.45026517,0.14889131,-0.24033156,0.4034107,-0.0523141,0.074756734,-0.21232289,-0.26194158,-0.41645867,0.3262567,0.25970566,-0.42431167,0.29039213,0.24395528,0.32984662,-0.46835786,0.41724545,0.213269,-0.07316911,-0.13895522,0.1264404,-0.3727402,0.24385999,0.07915773,0.26681715,-0.043412097,-0.41467816,-0.22902697,0.43225205,-0.4729861,0.39323497,-0.050817654,-0.3601505,-0.13920546,-0.13786837,-0.2720237,-0.26567164,-0.085357115,-0.270538,-0.41785723,-0.10512227,0.007398724,-0.3679258,-0.29718083,-0.27239123,0.21918698,-0.0022047025,-0.053219497,-0.22858334,-0.30346394,0.46103454,0.05082481,0.44896892,-0.3089556,-0.3412597,-0.44876888,0.24267235,0.18729259,0.10936198,0.45524094,0.43891063,-0.33789188,-0.12502141,-0.07801441,0.027649729,-0.27320722,0.44210353,0.17246224,-0.40091747,0.49742264,-0.04856469,-0.20525625,0.5045821,0.19309694,-0.37330252,0.22788192,0.15899116,0.2918605,-0.242605,0.25060347,0.22947888,0.013637889,0.28252193,-0.15234977,-0.40360528,0.3595756,-0.36598134,0.22592324,0.3123378,-0.24116243,0.35166964,0.2825914,0.0013248792,-0.20031215,0.41208786,-0.28731135,-0.13279037,-0.05083037,0.14549264,0.054766167,-0.22447008,-0.25852957,0.3852957,-0.25090715,0.045204904,0.106281504,-0.35146424,0.5019433,0.43790784,-0.30271497,-0.12965785,0.20686086,-0.29092544,0.52993596,0.4747403,-0.15909395,-0.0132763,0.013441605,-0.26957962,-0.17227285,-0.09559338,-0.37273553,-0.002935315,-0.18686296,-0.1660532,0.033749055,0.5376777,-0.24752827,0.51768476,-0.07812424,-0.23732267,0.31080082,0.16610903,0.2054775,-0.08820764,0.044116937,0.29273582,0.43789825,-0.26442483,0.39707163,-0.09797221,-0.1450556,0.4177613,0.31734407,0.3054117,-0.17891163,0.10762737,-0.44346708,0.09895177,0.18448901,0.12341029,-0.2313562,-0.30797452,0.092327274,-0.2990659,0.12538499,-0.23476605,0.43296626,-0.49848023,0.20305519,0.18291442,0.12586063,0.15806144,0.18617283,-0.2424628,-0.06030719,0.15967964,-0.36586073,0.25101683,0.4951601,-0.31462651,0.5673461,0.45432952,0.4592036,-0.2038517,0.36035168,0.2526792,-0.1459601,-0.11564743,0.49816695,0.0018481074,0.40254772,-0.24552886,-0.20599592,0.4651867,-0.31912875,-0.19346489,-0.3484054,-0.4655416,0.2739305,0.12230767,-0.43098336,0.4869873,-0.14996368,0.31847396,-0.036978662,0.0879129,0.48584595,-0.23517722,-0.15577209,-0.07325833,0.15252203,0.020368615,-0.25253195,0.47205162,0.2736273,0.2978814,0.40587795,-0.09516036,0.45896572,0.44513577,0.13181394,0.2210035,0.17080277,0.14476727,0.3265787,0.30254206,0.43185046,0.28400227,0.38764167,-0.025352528,-0.28512675,-0.061422814,0.35816014,-0.115033485,-0.3825519,-0.09264484,-0.16761656,0.09625245,0.39986145,-0.0717634,-0.12726918,-0.11207372,-0.034732107,-0.3348362,-0.31319562,-0.2662094,0.37391865,-0.44581887,0.21372244,0.43702388,-0.09932867,-0.32614776,0.045115177,-0.074035764,-0.4867935,0.4452486,-0.3266303,0.24291743,0.43351015,-0.38896415,-0.077550314,-0.010107985,0.37947863,-0.27414858,-0.2431822,0.6249629,0.42932832,-0.20694515,0.44233736,0.17934233,0.13212755,-0.2813558,-0.387674,0.070465356,0.19973709,-0.5197639,-0.50857264,0.16749905,0.2515661,-0.04136725,-0.16351523,0.13862757,0.26699758,-0.3455616,-0.3342936,0.26504284,-0.5016313,-0.3758388,0.21127221,-0.05063862,0.0939592,0.13761324,-0.23857912,-0.251325,-0.002317498,-0.062517524,0.25963363,0.13887632,-0.27611503,0.21635923,-0.18181519,-0.16517729,-0.24112867,-0.38965464,-0.058118857,-0.27373502,0.08375446,-0.33004794,-0.24289304,0.19632222,0.107786685,0.13246273,-0.2828286,0.024121927,0.07031817,0.17350514,-0.048782576,0.0048186383,0.5539268,-0.061057016,-0.018551782,-0.37272593,0.1039265,0.37459874,0.12200485,0.31519422,0.23063633,0.37852612,0.10143966,-0.052248307,-0.0015220365,-0.32402453,-0.024181776,-0.071352765,-0.053385966,-0.43761122,0.27555433,0.37838268,-0.4477512,0.28077585,-0.42796966,-0.3310893,0.4232319,0.23379575,-0.27994263,0.37561262,-0.04970822,0.11114515,0.04802878,-0.20556486,0.097519524,-0.0014690408,-0.18424267,-0.12683058,0.16849881,0.02744779,0.19254257,0.38404053,-0.2886982,-0.320726,-0.1936028,0.061668556,-0.5081214,-0.003705536,0.17783256,-0.40731332,-0.29720828,-0.40682092,-0.34258857,0.03394584,-0.36658305,0.5079626,0.4764754,-0.4523349,0.23863395,0.24786206,-0.24440102,0.47677597,-0.26843524,-0.27917418,-0.07789985,0.02258926,0.052184608,0.1796506,0.0035716975,-0.6027655,-0.4041558,0.35742688,0.12696946,0.3567219,-0.34408137,-0.04382965,-0.14533076,-0.2947172,-0.41430864,0.041962355,0.34857452,0.060930565,0.37643284,0.4401181,-0.002152773,-0.17398909,0.15021405,0.14874502,0.31065202,-0.028527008,0.06257776,0.17516507,0.42077798,0.34930718,-0.28432506,-0.3023744,-0.14788015,-0.48722607,-0.30287746,0.3312837,0.15966985,-0.039009154,-0.10116499,0.20280258,-0.03226561,0.14432792,-0.15589532,0.23949118,0.19103226,0.27013937,0.5217989,-0.24471702,-0.38451338,-0.35688564,-0.1638905,-0.49965233,0.45285475,-0.32393727,-0.19930653,0.32462534,0.058305196,-0.5092583,-0.4324718,0.094630696,-0.38338083,0.34043437,-0.21220197,-0.47354925,-0.050273966,0.14970727,0.20286083,-0.058043677,-0.09493183,-0.2870189,0.5462543,0.014925036,-0.093006276,-0.40948424,0.48199332,0.21117382,-0.27934295,-0.15718411,-0.12088777,0.06099161,-0.29955503,-0.2958388,-0.5193948,0.3572092,-0.44565535,-0.34933388,0.024427256,0.26242828,-0.5371995,-0.29639643,-0.33660352,0.22902806,0.14000723,0.384726,-0.31240252,-0.31951138,0.004773056,0.17551228,0.31035885,-0.43199566,0.5571727,0.2674736,0.24316144,0.23673907,0.2970962,-0.034230813,-0.121081,0.25587487,-0.26069328,0.13520741,0.23816004,-0.27119336,0.44855863,0.2278973,-0.019895878,-0.31606644,-0.22838163,-0.084192045,0.21992426,-0.23829381,-0.22037299,0.02068608,0.35234338,0.018795332,-0.12749861,0.20714465,-0.18195502,-0.25991076,0.15528885,0.4051632,0.13485368,-0.25695786,-0.4521991,-0.43960366,0.17904118,-0.002808567,-0.29917526,0.23539759,0.34354207,-0.5002613,0.39907923,0.29521298,0.3859763,0.36967078,0.37377563,-0.3325883,-0.47205213,-0.029671412,0.021964986,-0.50114465,-0.06825298,0.15459678,-0.17668988,0.3772345,0.304029,-0.27938733,0.13108027,-0.40762624,-0.32759356,-0.13679641,-0.37706894,-0.3170089,-0.30562496,-0.5227425,0.11844112,-0.3593358,0.09562085,0.037046913,-0.38680947,0.41456524,-0.38515204,-0.121801704,0.24755108,-0.46521717,0.29631367,-0.48530233,-0.37667215,0.30366135,0.3066737,-0.112506144,0.22816013,-0.30428857,-0.14043228,0.31145,0.45603848,-0.07015517,0.08809019,-0.39547956,0.19249316,0.35313866,-0.4155292,0.08900025,-0.18539901,-0.4161799,-0.15705462,0.13267468,0.31727284,0.12555231,0.3300641,0.42017347,-0.14521982,-0.28560212,0.354159,-0.4453977,0.28525746,-0.37685135,0.16171303,-0.058631077,0.05542728,-0.40866846,0.32721108,0.25321805,-0.34461716,0.13295577,0.48818776,-0.17414054,0.21614893,0.025712168,0.34230122,0.03389466,-0.3389051,-0.009561543,-0.03737331,0.014577292,0.0119128665,-0.48136902,0.18818097,-0.058307864,-0.040314764,0.22713001,-0.16259392,0.32408667,0.42449233,-0.31066096,-0.062442504,0.21190475,0.25568068,0.2595921,0.010235294,0.10483507,-0.17444816,-0.070956506,-0.1547534,0.26189834,-0.29412827,0.12177817,0.2274533,0.0261205,-0.48362082,0.47197047,0.13884556,0.3332033,0.36954042,-0.049961314,-0.3750243,-0.41422617,-0.47084555,-0.26058123,0.30343634,-0.39716122,0.42954203,-0.18386532,0.024023881,0.17411062,0.1353542,-0.15660928,-0.28378642,-0.31409752,0.2249501,-0.26693043,-0.27192405,-0.39941376,0.17477699,-0.13586308,0.23108526,-0.23090334,0.06528316,0.028511783,-0.18394445,-0.4445501,-0.12753887,0.23969546,0.18589047,0.14423732,-0.35773,0.10400516,0.50778306,0.0047327816,-0.48836765,-0.4595209,0.0059281182,0.029955452,-0.50657856,0.36938906,-0.49195367,-0.056294084,0.033668377,0.37747425,0.49853957,-0.13812059,0.39274713,0.33691677,0.068606086,-0.13800086,0.2255259,0.12749682,0.2617763,0.10638757,0.0939908,0.08394674,-0.45783922,0.415909,0.51819956,-0.024432085,0.38658053,-0.3319328,-0.4625618,0.07468263,-0.13216119,-0.015182223,-0.3151812,0.24815984,-0.13833179,0.47438604,-0.27709472,-0.2136842,0.018551884,0.32455477,0.23207927,-0.117905326,-0.27661243,-0.34252468,0.2552254,-0.3693105,-0.38401374,-0.3075714,-0.17560613,-0.08357799,0.43841985,0.28181013,0.2778286,-0.025149703,0.29389122,0.12028946,0.21181588,-0.06309972,-0.070689134,-0.26066056,-0.0020027303,-0.3389568,0.0628637,0.26048166,0.0474241,0.18729661,-0.4814125,0.26500127,0.010669646,0.15282364,-0.4396109,0.37666154,-0.04199394,-0.13878635,-0.19894356,-0.038408615,0.33421746],"bias":0.25008577},{"weights":[-0.11955881,0.2703485,0.020273933,-0.43779936,0.075003274,0.35502848,0.38036415,0.5230582,0.028124135,-0.17679821,0.26079053,0.5410105,0.09965218,0.43652794,-0.19934031,0.31477356,0.014947982,0.2983662,-0.43347397,-0.029425137,0.3475268,0.32661924,-0.39288497,-0.37335235,-0.09203106,0.4922793,0.40066656,-0.09829227,0.20601751,-0.41602796,0.11119323,-0.062418964,0.15454534,-0.025073245,-0.41585442,0.16970348,-0.04948969,0.45271355,0.35235932,-0.22736013,0.49485192,0.47502157,0.4616342,-0.31216618,-0.116672985,-0.30491972,-0.060116958,-0.145807,-0.33548072,0.43295085,-0.07190441,-0.21157865,0.33136958,0.28995153,0.1938667,-0.41666153,-0.058520727,-0.40402672,-0.011124271,-0.19352311,0.38128725,-0.43849933,0.01287036,-0.02495438,0.47432667,-0.43101925,-0.32716075,-0.21962045,-0.439002,-0.052598767,0.18934096,0.3811674,-0.4386768,-0.40736398,-0.25425947,-0.05363985,-0.34611568,0.37743756,0.023900669,0.12536328,-0.044161655,0.39617148,0.16111441,0.23063041,-0.021296736,0.3723087,-0.18717091,0.39403525,-0.4162527,0.109064944,0.44303915,-0.3924111,-0.42339444,0.14334829,-0.117294416,-0.30179828,-0.32870388,-0.4089436,0.1643564,-0.41895503,-0.41907364,-0.5047853,-0.08226815,-0.21881981,0.30311424,-0.3767465,-0.339315,0.087886125,0.2457445,0.3170355,-0.45471844,0.5358946,-0.03654645,0.39403662,0.44310272,-0.24435113,0.37089488,0.113733284,0.31058165,-0.037021693,-0.26500773,0.13715293,0.39195025,-0.49546644,-0.01567964,0.16621915,0.45545515,0.45128152,-0.21558103,0.023587396,-0.15361679,-0.34536317,-0.5040467,-0.42910582,-0.44467193,-0.45868614,-0.11598948,-0.25877118,-0.15421723,0.04757052,-0.026359778,0.21257588,-0.3040946,-0.20173036,-0.2414666,0.10526172,0.3486011,-0.20141141,0.018656367,0.37414905,0.46664485,0.16576575,0.23735383,0.1844664,-0.24026538,0.46111432,0.28607664,0.2919064,-0.033741355,0.3977705,-0.28754997,-0.008678312,0.092907265,0.14544559,-0.035902128,-0.23887254,0.073597044,0.161098,0.2544691,-0.12564209,-0.10837557,-0.003303842,-0.26479244,0.15051411,-0.3037728,0.111786716,0.30562085,-0.15507446,-0.20616813,-0.35955602,-0.21840899,0.45749423,0.47291437,0.29001412,0.22976919,-0.15712315,0.41268352,0.07718852,-0.020322138,0.24241994,-0.50989455,0.22689494,0.34341642,0.34076622,-0.3868317,-0.011625699,-0.27921543,0.05369004,0.5335933,-0.27947673,0.2860814,0.26017722,0.007594758,-0.12022399,-0.19610462,-0.018801713,-0.43667224,-0.17761248,0.44497705,0.47901186,-0.27978164,-0.44704384,-0.11356333,-0.10555389,-0.008523491,-0.049923632,0.1427559,-0.52676594,0.17971432,0.4600758,0.10936721,-0.34191784,-0.125774,0.04934374,0.06711528,0.15242673,0.08159165,0.16036652,-0.3106408,0.12819102,0.21162747,-0.004386184,-0.1417647,-0.080306485,0.3571793,0.0071657025,-0.21547113,-0.28054407,-0.44155198,0.2936602,-0.35399225,-0.34536988,0.08329528,0.35184172,-0.45117432,0.3016088,-0.28753287,0.42569548,0.40073636,0.31411806,-0.30790594,-0.1597313,0.29740673,0.22527266,-0.17820665,0.37436032,0.2859163,-0.27951625,0.44721118,-0.29406753,-0.31801793,0.39848736,-0.2692182,-0.29429573,0.25453967,0.45800245,-0.37215123,0.49700937,0.29234245,0.42624745,-0.022735626,-0.27568895,0.021769993,-0.22008672,0.31353205,0.28078112,0.38108286,-0.42639446,-0.03642579,0.540065,0.25520653,0.16349678,0.018801166,0.40150157,0.33393916,-0.34845814,0.5011731,-0.13557075,0.16039896,-0.016952196,-0.40024307,0.11201693,-0.15533705,0.024100576,0.33192173,-0.26294675,-0.071859516,0.3732171,-0.35266528,-0.38101006,-0.28151217,-0.3565952,0.29825017,-0.37923935,0.1396475,0.1709695,0.502952,0.25907114,0.34227833,-0.39670056,0.0060649132,0.06260265,-0.35417524,0.46962354,-0.023129094,0.3147298,0.44761422,-0.26136097,-0.48322204,-0.32936603,-0.12391499,-0.20086563,-0.24153452,-0.031154355,0.046279445,0.017408106,-0.30775404,0.26274544,-0.04713323,-0.50480574,-0.3067653,-0.23582682,0.08758799,-0.20133676,-0.20388977,-0.19068764,-0.23076235,-0.089329444,-0.41619065,-0.3193983,0.49436742,-0.43559113,0.356843,-0.2903286,0.36730927,0.24914676,0.0067371204,-0.44575176,0.31014192,0.38621384,0.070258975,0.32023245,0.045330048,-0.23838094,0.28870016,0.32273105,-0.05522295,-0.11302815,-0.33068597,-0.008160278,0.31780538,-0.19346899,-0.17771967,0.004034158,0.0010690803,-0.06295831,-0.18572323,-0.037190925,-0.3350067,-0.46518835,0.34043378,-0.15061842,0.11793196,-0.4580918,-0.42088842,-0.37994954,-0.27039385,-0.05433841,-0.27144536,0.47075525,0.05605907,-0.031300075,0.36830375,-0.40351367,-0.5105311,-0.13639763,-0.32236773,0.0054078116,0.4151977,-0.27690476,-0.06536314,0.49671057,-0.05058492,-0.3080253,-0.33269992,-0.092769615,-0.28982058,0.3460151,-0.47919264,0.00056631316,0.21649581,0.0037544605,-0.40636986,0.43617627,-0.13729995,0.3376184,0.123271145,0.23995519,0.13751307,-0.49686575,-0.3867377,0.096593924,0.06271486,0.033735488,-0.13321553,0.33022842,-0.4003552,0.32198203,-0.18323202,0.36075962,0.46453184,-0.2562197,-0.097392365,-0.37674907,-0.36169398,0.0735231,0.043258235,-0.10747369,0.01819846,0.21727218,0.23422539,0.056831986,-0.1859948,0.44706994,-0.22188386,-0.36209247,0.050367497,0.32945958,-0.14579168,0.44354716,-0.43864775,0.22052924,-0.22275615,0.4999119,-0.045352805,-0.27520558,0.11721597,-0.14604455,0.18694222,-0.16011164,0.52686995,0.11074768,-0.23039818,-0.24011578,0.10202096,0.47831276,-0.4060941,0.21705626,0.04913776,0.22259185,0.44819707,-0.4283135,0.32378882,-0.208554,0.21750163,0.39206102,-0.07665756,-0.03118871,0.45709607,0.15516546,0.47221884,0.4797176,-0.036622707,-0.42016304,0.21053115,-0.30500773,0.09224171,0.43059057,0.48138148,-0.40778995,-0.3328555,0.19119835,0.18701312,0.45834276,0.041162632,-0.46843782,-0.3231732,0.44960934,-0.12048607,0.32890943,0.38197154,0.24502987,-0.48846158,0.118595116,0.39160994,0.07349797,0.19561657,0.085045926,0.17477518,0.11195813,-0.41346204,0.013533711,0.18965323,-0.24851122,-0.1031069,0.12935379,0.09509781,-0.44247627,0.3805485,0.30810925,-0.14525081,0.21998349,-0.023742696,-0.3913125,-0.37061343,-0.050841168,-0.111558296,-0.32841742,0.03325525,0.09438655,0.04600249,-0.3178928,0.36054558,0.24862774,-0.025706993,0.2768618,0.17222947,-0.31732818,-0.45600718,-0.17410389,-0.18984812,0.106529266,-0.104168795,-0.3270894,-0.44478408,0.33743602,-0.09508561,0.11040149,-0.36437702,0.104017496,-0.029653668,0.20803793,-0.44498414,-0.1814438,0.27553153,-0.31531328,0.32282275,-0.22215793,0.47083333,-0.13689499,-0.14122881,0.3099756,0.43995246,0.27607614,-0.2899276,0.29526007,-0.08385683,-0.45925805,0.056132946,-0.32179394,-0.24096976,-0.37010562,0.26687127,0.006843011,-0.21350245,-0.094079904,0.06341997,0.026318574,-0.371405,-0.23487622,0.39945388,-0.003995424,-0.18382381,0.31134352,-0.22929412,-0.15766352,0.25095436,-0.40960246,-0.25169176,-0.25253448,0.033794783,0.15479885,0.45215282,-0.41846758,0.31870103,0.31942132,0.06269343,0.295071,-0.1361544,0.49450117,-0.45601302,-0.15509783,-0.17824136,0.3280286,-0.00015805512,-0.34871027,-0.41716087,-0.26563808,0.07607937,0.35166958,0.17953484,0.21688607,0.0863183,-0.19640976,0.49495998,-0.24358517,-0.26031926,0.2991561,-0.13245021,-0.16312054,0.042426586,-0.039967548,-0.43049794,0.028267024,0.20866501,-0.3217482,-0.26460463,-0.17404503,0.46028113,-0.018166838,-0.23594658,-0.38339946,-0.36680406,-0.0669372,-0.14592111,0.16018999,0.3743841,0.16056633,0.19607164,0.41623384,0.24517927,-0.10170336,-0.17685293,-0.020767916,0.26505563,-0.4237272,-0.30087972,-0.4167225,-0.5032407,-0.36205363,0.4192972,0.5093987,0.17820746,-0.16231827,-0.17634243,0.40168512,0.35530373,0.36631393,0.45883894,0.33472154,0.31669846,-0.1868343,-0.3559685,-0.35092792,0.009449195,0.079830796,0.47862855,-0.4533572,0.38724375,-0.258662,-0.038724173,-0.28894308,-0.07870826,-0.030802928,0.33117053,-0.078709945,-0.40416932,-0.42974228,0.4574708,0.16625947,-0.31523615,-0.389021,0.09870314,-0.2783305,0.13832831,-0.12283509,-0.097840875,-0.34896103,0.2879296,-0.49601543,0.15118979,0.28210512,-0.11520219,-0.30263355,-0.18887478,-0.391321,-0.0093343165,-0.3695557,-0.38079122,-0.12728679,0.05841984,-0.29606107,0.22505148,0.46615878,0.4697588,0.18220216,-0.29244086,-0.39033982,0.5371972,-0.034841005,-0.21337846,0.17288966,-0.38731068,-0.35134295,0.29013756,0.2917251,0.21975899,-0.13224468,-0.26327416,0.39036566,-0.050497532,0.43912685,-0.24652137,0.21515341,0.13288487,-0.12053433,-0.23540206,0.41238007,0.24348651,0.21494281,-0.3313597,0.027347729,0.32730502,-0.41088805,-0.029431514,-0.047852565,0.41163528,0.09872778,0.4129673,-0.30731,-0.1665144,-0.118754186,0.29122618,-0.23269701,-0.247615,-0.2261441,-0.3963461,-0.21076693,-0.42636427,0.17534284,-0.029047323,0.046074852,-0.34491253,-0.3765901,0.1556996,-0.15227024,-0.301878,0.006347977,0.12719168,0.08620686,0.16255957,0.0067038406,0.16599701,-0.2623956,-0.2898475,0.15671904,-0.2235542,0.25464696,0.53543854,0.011593988,-0.3094164,-0.29953685,-0.3482149,-0.39215884,-0.010257426,0.3929862,-0.0006679048,0.2719223,-0.3453365,0.5096884,0.20401289,0.46107325,-0.13311829,0.14642425,-0.45292407,0.47783267,0.4993651,-0.28081352,0.0977872,0.19690387,0.44135264,0.46388298,-0.42066085,-0.02153271],"bias":0.17014919},{"weights":[0.17902055,-0.044990405,-0.004534447,-0.4027127,0.41260722,0.40028802,-0.15672044,-0.27387306,-0.14964667,0.32644868,0.21354887,-0.23494583,0.44658276,0.28177178,0.21817976,0.4692502,0.04291342,-0.30609778,0.046867043,-0.31026646,-0.27487954,0.49552086,-0.14260496,0.43795282,-0.4638007,-0.084042415,0.22836429,-0.3351762,-0.016252238,-0.061051518,0.43396422,-0.24817044,-0.18832794,0.007897951,0.42913088,-0.17170097,0.5648622,0.2998165,0.42227232,-0.36808878,-0.37804753,-0.1261509,-0.40928346,0.41377196,0.012949147,0.16906498,-0.28764045,0.28443137,-0.10105228,-0.33811352,0.14212675,0.18917324,0.394101,0.47256747,0.23954,-0.25223437,0.16183183,-0.43171152,0.5170416,-0.23057595,0.4190004,0.22008356,0.5148665,-0.041199636,-0.0047374405,-0.24155466,0.4128855,-0.04174003,0.5140732,0.34581172,0.45152918,-0.26878998,0.19323635,-0.40972966,-0.31648168,0.24186915,0.25081876,0.015130636,-0.07990809,0.570693,-0.35119262,-0.18037984,0.54512084,0.38019404,0.3984224,-0.33641335,0.43452615,-0.005195885,-0.10848624,-0.13041341,0.30792418,0.16528977,-0.16664289,0.41092402,0.08015088,-0.08834616,0.4894795,0.20706114,-0.40187845,-0.31411412,-0.3009734,-0.29862347,0.23265728,-0.37395528,0.16951561,0.078874566,0.3765946,-0.09757655,0.057286177,0.21070832,0.34840018,-0.18092898,-0.08377351,-0.13873948,0.3075918,-0.13748482,-0.21299165,0.040344615,0.45189148,0.16681466,0.2613021,0.44843328,0.35137445,0.36682165,0.15161957,0.31922632,-0.3843304,0.050403476,0.26019588,0.49449918,0.2465963,-0.39209208,-0.43413568,0.22320256,0.37929553,0.08180725,-0.1553925,0.21070834,-0.14134836,0.22668654,0.14924197,-0.17899676,0.34264183,0.23281798,0.14821011,0.3077531,0.38085243,0.41792306,-0.20403738,-0.21756631,0.4590618,0.2616867,0.3496319,-0.27631888,0.22796723,0.46870872,-0.057048198,-0.07260713,0.34428963,-0.20984694,-0.13449132,0.20290455,0.25969866,-0.44615358,-0.024067298,0.12694965,0.38125187,-0.1998414,0.46948364,-0.28644183,0.374751,-0.45216325,-0.047078207,-0.48918578,-0.0213121,0.12258762,0.33330488,-0.08105064,0.046432775,-0.16684575,-0.3907047,-0.04021869,0.4096848,-0.32755762,0.017831203,-0.24930301,-0.5095816,-0.45097733,0.13193236,0.21259442,0.033149526,-0.4135407,-0.4484104,0.23066117,-0.35105634,-0.48809454,-0.4340422,0.40383333,-0.4706586,0.07526788,-0.36647987,-0.5075639,0.27905425,0.05828033,-0.19038086,0.017217249,0.13894136,-0.112141244,-0.0048069074,-0.14040866,-0.1797409,0.21682379,0.43255422,-0.33731362,-0.055678833,0.4707468,-0.33841303,-0.51013535,0.037249334,-0.18518375,0.23408794,-0.12197107,-0.15535103,0.2331065,0.2030109,0.06435012,0.033024203,0.31791833,0.3287631,0.0855462,-0.26864314,0.44631845,0.011556558,-0.15108271,-0.4959996,-0.035946656,-0.24529119,-0.5294847,0.027132867,-0.0019662438,0.3207314,-0.13533409,0.24467404,-0.09540996,0.42746514,-0.2897161,-0.42337513,-0.2620313,-0.5150048,-0.2844965,-0.052733503,0.304364,-0.10953456,-0.15540065,0.3091483,0.31812054,0.34419972,-0.019998053,0.3728437,0.07984323,0.47717234,-0.43388203,0.16700204,0.26640773,-0.052549597,-0.46681938,0.13399354,0.3034402,-0.40226042,-0.029374616,-0.2259214,0.13925551,-0.26449603,0.1940701,0.38759902,-0.0973406,0.13472266,-0.02262725,-0.16466089,0.2778184,-0.13732202,0.08635904,0.35321867,-0.52751994,-0.20536514,-0.3965935,0.14343764,-0.062271196,-0.46712485,-0.14377472,-0.4606068,0.12357924,0.35814872,-0.34244686,0.0069081294,-0.28737938,0.1967352,0.29097027,0.40797168,0.12571228,0.21941452,-0.061928216,-0.3503335,0.07989621,-0.4444311,0.33191466,-0.29153988,0.41546774,-0.16022141,-0.21370776,0.08959628,-0.2974522,0.3958769,-0.0066045197,0.007413449,-0.51864725,-0.49010435,0.46414477,-0.37091872,-0.20761105,0.4679858,0.49245882,0.15226744,0.31216472,0.33765382,0.048251197,0.48423138,-0.0082370965,0.44058132,0.061727468,-0.1005496,0.11459347,-0.123626396,0.44274127,-0.36335486,0.1976122,-0.31945458,-0.2905057,-0.13589123,-0.5734726,-0.4610545,0.004657021,-0.021146322,0.014098032,-0.217403,0.09688339,0.36717054,-0.016878307,-0.12843499,-0.12681958,-0.08355186,-0.15754093,-0.39737675,0.24717003,0.26989126,0.44123554,0.29899362,-0.20815237,0.18235123,-0.45446458,-0.4732348,-0.09781679,0.30806002,0.43122002,0.14985351,0.22607026,0.17512366,0.09989366,-0.12884521,0.34841514,0.272206,0.08378997,0.070583686,-0.24827981,0.07303766,-0.11709257,0.12530108,-0.18399423,-0.4343155,-0.46373427,0.30481163,0.17921866,0.09332805,0.1698502,-0.021550812,-0.057357736,-0.48427442,-0.20121375,-0.41340864,0.4392982,-0.37349254,0.012729333,-0.07050972,-0.3998307,-0.483142,-0.39797193,-0.12900963,0.29616138,-0.44447765,-0.46423244,-0.27358067,-0.17270768,0.096260406,0.22420478,-0.38837326,-0.076999396,0.18610181,-0.23512012,-0.33995527,-0.41449437,0.034172323,-0.12788439,0.20523208,0.28314006,0.26388732,-0.45653605,-0.11468346,-0.20205979,-0.5224041,0.40150127,0.18498433,-0.071937025,-0.060630105,-0.20855883,-0.38990575,0.351906,0.24751228,-0.40981862,0.16568227,-0.20308946,0.099745795,0.3657418,-0.19347155,-0.39102045,-0.10967695,0.23910153,0.10383453,-0.4329726,0.41108286,0.34046364,-0.33646035,0.08345424,0.1679241,-0.15835313,-0.5315423,-0.0043851044,-0.29620478,0.16727866,0.18105716,0.15043913,-0.05778429,-0.14017163,0.1052646,0.2926202,-0.4317029,-0.4616703,-0.044545405,0.3979944,-0.37389714,-0.3452813,-0.047274634,0.41671208,-0.36042386,0.35559863,-0.19392046,-0.16217445,-0.5029523,0.35784394,0.27654678,-0.25705668,-0.51762164,-0.10666716,-0.068222694,-0.020387284,-0.5142399,0.46332175,-0.012472766,0.3907052,-0.3534537,-0.5188335,-0.094584525,-0.06579731,-0.5355887,0.035824813,-0.49084565,-0.5038282,-0.40168378,0.23717548,-0.3090034,-0.28711793,0.009419656,0.3101769,-0.026468428,0.118126966,-0.45011953,-0.019964734,0.35500458,0.27056503,-0.096443966,0.3215006,-0.3292281,-0.13844144,0.3479126,-0.049760286,0.0019032842,-0.2056473,0.30402845,0.027058154,0.16538242,-0.05642317,-0.033573966,0.26499486,-0.018464964,-0.3490986,0.2829619,0.15280834,0.44898036,0.16816586,-0.098226465,0.42348668,-0.19297728,-0.3977148,-0.46463144,-0.46467704,0.3598944,0.32588756,-0.2496428,0.31510141,0.1681069,0.21187471,-0.23802821,0.25522166,0.33066213,-0.35989797,0.34668708,-0.4429719,-0.27535972,-0.6035495,-0.550464,-0.33309564,0.25535542,0.44186118,0.110301875,-0.22458196,0.11692849,-0.38444436,-0.23063806,0.31452978,-0.13305748,-0.43314695,0.3958733,0.16410308,-0.51427317,0.35730198,-0.10502974,-0.5602865,-0.046782333,-0.49745512,-0.07753446,0.4717239,-0.12044862,-0.48591843,-0.1828264,0.30424157,0.2652664,0.14354548,-0.3148055,0.037861105,0.050894186,-0.43989035,-0.25053334,0.44661298,-0.1033828,0.26646537,0.32471138,-0.14915371,-0.2743423,-0.25357318,0.29227042,-0.016830126,-0.47428113,-0.47632262,0.34989548,0.025642479,0.04161939,-0.06005806,-0.19150962,0.458432,0.16554977,0.04326066,0.28855947,-0.24985312,0.3293787,0.0081960745,-0.3335998,0.21534133,0.24575062,-0.19609174,-0.36296505,0.09469782,0.16198492,0.06810942,-0.34889728,0.21971561,-0.37110075,-0.47566396,-0.45150617,-0.48788905,0.114186674,0.05926561,0.29970634,-0.5157503,0.25548476,-0.38256764,0.47827816,-0.19337556,-0.2728604,-0.21944897,-0.2525977,-0.2486381,0.3769172,-0.12471535,0.31287503,-0.049929015,-0.37973553,-0.1281287,0.036261562,0.10585341,0.14308193,0.011064666,0.2945499,-0.3807765,-0.339071,0.38912323,-0.12620911,-0.11035912,-0.35710362,-0.31585035,0.16435,-0.14555894,-0.11287179,-0.16362812,0.16605262,0.47443175,-0.36291853,-0.24879968,-0.04025872,-0.3058175,-0.48926166,0.20938826,0.41440278,0.34917054,-0.121423505,0.0427646,0.31319198,-0.13659121,-0.18940859,-0.19694307,0.30110392,0.05931301,0.16366972,-0.26253384,0.21177135,0.3556625,0.32305947,-0.19298767,0.32504788,0.10134,0.30133134,-0.007635552,0.03870177,-0.308322,-0.2774252,0.17468221,0.18259212,-0.24000481,0.26619506,0.16921134,0.12519975,0.06116023,-0.42557037,0.3894206,0.4444057,-0.19160354,0.1861341,0.41328552,0.10471253,0.3782503,-0.51453996,0.31309757,0.40482932,-0.045761436,-0.3629893,0.37747708,-0.019937789,0.39539123,-0.4354524,0.031133177,0.45485538,-0.40751556,-0.30946892,-0.38606918,0.24006592,-0.24664398,-0.1382491,0.14896825,0.42302358,0.09969787,0.08980305,-0.21571262,-0.19704156,0.08373418,0.27830747,0.3641107,-0.0054876716,-0.35494122,-0.3749616,0.03563376,0.2882349,-0.37951344,0.24627768,0.07560167,0.16123347,-0.11322691,-0.38984972,-0.27561936,0.092849396,0.45319086,-0.18116622,-0.23360695,-0.0689765,-0.34217942,-0.4401389,-0.27655113,-0.19662267,-0.37737697,0.1674292,-0.37058342,-0.3590875,0.02423324,-0.24550107,-0.3236157,0.08191886,0.17212631,-0.11935641,-0.33991763,0.43099993,0.12050793,0.3662768,0.4762531,-0.43657774,-0.13685298,0.49998003,0.04144278,-0.21917206,0.24833313,-0.25812662,0.0783291,-0.1488828,0.4034756,0.48460415,0.37697673,0.39093485,0.4004004,-0.17230801,0.46242183,0.21188274,0.31507385,-0.45577362,-0.24806537,0.025458362,-0.30438823,0.22699788,-0.2688188,0.28652942,-0.019878557,-0.022427527,0.43780237,0.40741038,0.22636035,-0.22043131,-0.3096127,0.36004132,-0.005926912],"bias":0.2781364},{"weights":[-0.18085892,-0.4843978,0.16599955,0.17022109,0.33322543,0.49628976,0.33985034,0.036348518,-0.3604972,0.007981982,-0.3483015,-0.043691844,-0.36686128,-0.26478758,0.1227071,0.18401508,-0.32509637,0.27412784,-0.16277482,-0.46710783,0.15781106,-0.4506171,0.04154317,0.40812525,0.4036796,-0.007422465,0.24556108,-0.20977712,0.4384384,0.09865635,0.11133841,-0.119013734,-0.003944473,-0.40479776,-0.04113627,0.0020421634,-0.028133806,0.26423955,0.2881296,0.04962515,0.26952773,0.08688044,-0.2978808,-0.40320194,-0.30365288,0.32204923,-0.15228751,0.33464476,0.01238281,0.19902611,0.23071906,-0.03888218,0.2654879,-0.27212456,0.32332528,0.3040016,0.16884024,-0.09815085,-0.20448339,0.46858343,-0.09982766,0.29163596,0.34860492,-0.026130008,-0.06230308,0.2738799,0.24533814,-0.418219,-0.083132125,-0.36007375,0.39381048,-0.14644876,-0.0490298,-0.3758895,-0.042694334,-0.49468732,0.4182197,0.034160875,-0.22508971,0.27435157,0.08213706,0.28133214,0.46389663,-0.15512578,0.081372805,-0.49537805,-0.003505666,0.09175972,0.014169981,0.14001858,-0.18120293,0.32722256,-0.11140352,0.4621243,0.056556284,-0.37365898,-0.26642263,0.34363317,0.12792274,-0.040611494,0.06336351,0.14337532,-0.16151032,-0.4815749,-0.36077228,0.09885716,-0.49560806,0.13208887,0.2636166,-0.4001176,0.14749736,-0.14540376,0.2649811,-0.30385178,0.16035224,0.10982854,0.067420766,0.06763451,-0.27291694,-0.47822472,0.077759884,-0.49790856,-0.48910734,-0.42212337,-0.11292244,-0.31152517,0.18846503,0.47491372,-0.24771895,0.39600623,0.3414251,0.106332034,-0.22385637,0.45518726,-0.0354245,0.09304658,-0.115956746,-0.026199393,-0.09688586,0.31493974,0.13302979,0.09871485,0.1830164,-0.22196549,-0.45352265,-0.30552837,-0.28231493,-0.3949627,0.03393841,-0.2057847,-0.3909624,0.45491654,-0.24614896,-0.30891785,0.16047004,-0.08173442,0.42686304,-0.15287328,0.25061706,0.1820375,-0.3228875,-0.20478167,-0.48485285,0.38621294,0.031230105,-0.009207073,0.26884398,0.1697969,0.48457706,0.039897587,0.2881372,-0.20961569,0.18412226,-0.09472634,0.12142533,-0.11193996,-0.16663185,0.34136793,0.14675613,0.17568783,-0.2140348,-0.21063295,0.046510294,0.25380874,-0.07510443,0.0024232764,-0.36815542,-0.10153871,-0.23216666,0.26378933,0.21108116,0.13744216,0.052062754,0.47656763,0.41900387,0.3033388,-0.27633482,-0.4700573,0.10441108,-0.4890732,0.27462208,0.13601322,-0.28507236,-0.19710477,0.46998605,0.47199515,0.4112024,0.14103241,-0.37852496,-0.08459476,-0.44432935,-0.4534007,-0.062128,0.056637406,0.22433919,0.11215032,0.45859754,-0.11147489,0.36374092,0.32121888,0.37553456,-0.41020903,0.3186169,-0.49876738,0.22138067,-0.20354551,0.26572305,0.23984541,-0.14470553,-0.051531494,0.10044682,0.1276611,0.46634132,-0.24792616,-0.028793938,0.050404873,0.054891717,-0.22386545,0.35089156,-0.042017892,0.2594376,-0.41708744,-0.042805683,0.10489441,0.043947935,-0.27812645,0.46407095,0.06734532,-0.19696078,-0.47924215,0.39374742,0.46606323,-0.30720466,-0.16623291,0.31520838,0.453282,-0.26490697,-0.46390736,0.20187321,0.48274454,0.081850365,0.33529586,-0.17121957,0.3063305,-0.263619,0.35987794,-0.244581,0.3027251,0.33555856,-0.34269598,-0.22753307,-0.43088037,-0.033136826,0.35422558,-0.15320267,-0.01865764,-0.0831759,0.4385999,-0.047776803,-0.21370089,0.18982463,-0.4387084,0.17059377,-0.47350302,-0.13002862,0.090199806,-0.41815054,-0.021882828,0.36114863,-0.23381345,0.043638352,0.44585437,-0.028434573,0.25642252,-0.43964848,0.45452046,0.28793764,-0.03067881,-0.44007355,-0.229101,0.44610682,0.22498794,-0.43935433,0.43182242,0.37711653,-0.1714864,-0.47539988,-0.18814196,-0.432506,0.28858995,0.3996689,-0.087937646,-0.20209663,0.21723828,0.033600017,0.42108318,0.03715571,0.33405796,0.30085227,-0.48078933,-0.47351226,0.29843405,0.10499341,0.2764082,0.10082347,0.03258001,0.28749308,-0.49334383,-0.18947919,0.27399656,0.42263973,-0.48806113,0.19489166,0.3311282,-0.26858062,-0.40115675,-0.09163709,0.07250499,-0.41187528,-0.031866953,0.22676907,-0.43185085,-0.21966542,0.058544822,-0.15107884,0.055786237,-0.2974118,-0.10799429,0.26582858,0.27833703,0.44941372,-0.1411398,-0.26621827,0.38816518,0.17083159,-0.15191698,-0.4500607,-0.23747475,-0.48949492,0.14470191,0.46955758,0.34749886,-0.060988292,0.42412645,-0.1275524,-0.040630076,-0.33913872,-0.35513362,0.13790281,0.48132923,0.41322568,-0.4899004,-0.19944721,-0.16437113,-0.19974774,0.33360544,0.20068525,-0.055646904,-0.160235,0.15813579,0.43643478,0.44512603,0.12838481,-0.4363683,0.29874364,-0.13650198,0.036839448,-0.077500515,-0.093333535,0.39701504,0.35599232,0.32841438,0.122072,-0.15958185,0.4809399,0.16647443,-0.40467075,-0.031161899,0.41229647,0.07981238,-0.44381657,0.14486486,0.46347588,-0.17608865,-0.37414828,-0.17885922,0.3131502,0.21303344,-0.021256223,0.17195028,-0.28759775,0.0181564,-0.3574494,0.32801545,-0.42916605,0.256954,-0.171561,0.28859532,0.3020935,0.37349334,0.4525647,0.10200835,0.0065966193,0.20301253,0.24193728,0.35741663,0.44387364,0.40312824,0.27245006,-0.11885025,0.13470574,0.37906462,0.3308019,0.050294355,-0.2073637,0.1392996,0.17687768,-0.4171048,0.10438863,-0.19468641,0.1784297,-0.33661643,-0.44937629,-0.09908896,0.05610154,0.047864247,-0.14934206,0.10771463,0.42522198,-0.11175276,0.18703625,0.17767352,0.23291574,0.24855752,-0.44722512,-0.071628325,-0.46363443,-0.091180444,0.48486227,-0.484048,-0.3209563,0.06651635,-0.07225093,0.014523515,-0.27835032,0.4175354,0.4949141,0.26848587,0.087641574,-0.3253481,-0.13297077,0.18808506,0.4863561,0.19789144,0.019850004,0.1120211,-0.12731609,0.0039018784,-0.01863686,-0.33292326,0.33324045,0.12342368,0.35639253,0.10812695,0.09818707,-0.38404468,-0.2806372,-0.47238067,-0.05854279,-0.44538584,0.2584584,0.41823688,-0.08462188,0.23298292,-0.19556089,-0.032783546,-0.009059087,0.31549513,0.0000922223,-0.3361169,0.047662973,-0.3564561,0.37986967,-0.3069641,-0.04097154,-0.40663874,0.20135294,-0.0737342,-0.1305229,-0.365323,-0.48319307,0.029255286,0.26522553,-0.34799588,0.22924791,-0.025756342,0.48167148,-0.2993476,0.23562859,0.32142293,-0.29259622,0.12113833,-0.1262822,-0.11196432,-0.18169266,-0.45847583,-0.36248395,0.34317678,0.40989456,-0.02995679,-0.17774817,0.040327895,-0.27293086,-0.48644072,0.28613564,-0.14598717,-0.038446214,-0.009640773,-0.39425555,-0.41581675,0.4686934,0.3618646,-0.09566419,-0.47153533,0.4354023,-0.28163707,-0.2882234,-0.13171662,0.29946315,-0.22870177,-0.20629771,-0.3891656,0.21196376,-0.3472974,-0.21443564,-0.44871873,0.3692082,0.46465075,0.16547798,-0.27092978,-0.10568064,0.4676133,0.008043031,0.45365912,0.48862085,-0.17735001,-0.40674016,-0.45263258,-0.14169677,0.2555126,-0.47689942,-0.22613943,-0.03005849,0.45672092,0.05113137,0.15359248,-0.2714826,-0.380758,-0.18421085,-0.5042452,0.0019623034,0.3209455,-0.27652922,-0.112632744,0.41531962,0.27943164,0.031341396,-0.18546513,0.203801,0.05227661,-0.23266262,0.060030166,-0.11711673,-0.36694494,0.36691827,-0.19088583,-0.042713586,0.03156842,0.10813473,0.34242836,-0.11948666,0.16933256,0.275171,0.13221784,-0.08320604,-0.41085178,-0.044898164,0.39490795,0.3671386,0.106701724,0.39711642,-0.14377224,0.20579475,0.03068962,0.38824907,0.38164982,0.14463866,-0.35046017,0.13259268,0.022247044,0.40979728,-0.37931758,0.32535905,0.30375236,0.31520626,-0.48914754,0.322865,0.28206816,0.22852449,0.3408221,-0.25396997,-0.18719913,-0.3283682,-0.3188502,0.08271937,0.45685712,0.4916995,0.24207594,-0.09007343,0.02680144,-0.05932739,-0.31655088,0.44163013,0.3615648,-0.2689157,-0.0790136,0.036562618,0.2553454,0.15268803,-0.35039553,0.029022573,0.35767955,0.50023216,-0.3148105,0.07299697,-0.27293506,-0.18349595,0.41389766,-0.103955954,0.0014026335,-0.42031422,-0.15535326,0.34931442,0.1858912,0.22398818,-0.21735612,-0.41500592,-0.29086542,-0.14786947,0.43220565,-0.009727093,0.22453427,-0.3904099,0.4093235,-0.47527885,0.22204512,0.02200305,0.21751821,0.27326018,-0.07922077,0.22824073,0.15115483,0.29355556,0.353357,0.26366782,0.093284816,-0.27901983,0.30173302,-0.45931342,-0.029722845,0.08276794,-0.3150002,-0.3719006,0.4009847,-0.17944725,0.16427945,0.21824515,0.09833647,0.35420105,0.45216307,-0.10793027,0.13339919,0.033451118,0.13608995,-0.23527882,-0.4035112,0.17542568,0.341236,-0.02903566,-0.4630822,-0.069919854,0.11310493,0.2498451,0.16390905,0.29645166,-0.18436943,0.28245485,0.35343498,0.239543,-0.46768677,0.001350071,0.096155204,-0.13694087,0.29273146,0.48488903,0.010095167,-0.09293903,0.096737616,-0.34168935,0.14155188,0.40026724,0.074931525,-0.390708,-0.469818,-0.30621436,-0.17622742,0.29659268,-0.44927076,0.22087821,0.36582807,0.42701688,-0.33135042,0.085140064,0.004704316,0.28047732,-0.03869302,-0.065334655,-0.4257632,-0.4842286,-0.30706626,-0.3080953,-0.3458392,0.04431994,0.117611624,-0.2625941,0.32878095,0.15468583,0.25341326,0.14713868,-0.023429869,0.18165226,0.082650155,0.32335213,0.42036244,0.31077656,0.15467957,0.03219646,-0.4741944,0.3769191,0.0886173,-0.08119979,-0.22022407,0.34874102,0.35398903,0.15584487,-0.39946368,0.20301123,-0.008170401,0.06540976,-0.3254282,-0.3714385,-0.29012808,0.18128361,-0.48510465],"bias":-0.37762508},{"weights":[0.3682936,-0.39900997,-0.056782,0.28506458,-0.08429246,0.37720272,-0.19842018,0.3263393,-0.35113385,-0.13964503,0.40311283,0.24208263,-0.30570006,0.44889367,-0.35686216,-0.18469092,-0.3110645,0.13371864,0.006492041,-0.23935749,0.39547527,0.25540233,-0.47644046,0.15920441,-0.07363084,-0.50907594,-0.5052393,-0.27121386,-0.50629425,-0.18745121,0.3601101,-0.015088843,0.37313965,0.14736664,0.35180533,-0.3161728,-0.10483675,-0.09559828,-0.22055154,0.38447595,-0.020581849,-0.19755031,-0.40186787,-0.497803,0.3369289,-0.29255012,0.22670093,0.13717154,-0.44817838,-0.05533205,-0.3867856,-0.3817158,-0.35545722,0.09322272,-0.2809734,0.4165723,0.4405467,0.13229844,0.4096735,-0.06855436,0.42392147,-0.24010664,0.35223573,0.36869764,0.07058916,0.18625127,-0.04629494,-0.031760238,0.14303017,-0.06432088,0.2879817,0.37675384,-0.48395437,-0.005536659,0.3819847,0.13608357,0.4618317,0.16453703,-0.176382,-0.4635958,-0.27330843,0.4957617,-0.101798184,-0.11532048,0.48084307,0.054491613,-0.38318735,0.46949178,0.43970358,-0.1607438,0.14658387,0.21878587,-0.04437695,0.052215423,-0.3712624,-0.022534894,-0.42698646,0.1494765,0.48832723,0.0005466829,0.41182762,-0.44595596,-0.19756037,-0.47680923,-0.15587258,-0.046802275,