[[{"weights":[0.22624613153846201,-0.03756096321489302,0.4689041367320388,-0.14736824584650335,0.14073764420530752,-0.22672047665762987,-0.24757477601301126,0.05603856496139794,0.33932850266234865,0.2029201365878011,-0.2389251134824527,-0.2664011478750076,0.20636362845208503,0.43488225420074716,-0.38792582531609776,-0.12077868627338093,-0.36794342715696443,-0.21845229207253075,-0.33680021598030696,0.07476456768839979,0.0985173326332132,-0.3708079974608367,0.5114412155841032,-0.18500876758644522,0.1037050185140063,-0.22636860782580223,0.15702537174137635,-0.3524556973857761,0.03561322276271564,-0.37900050255747064,0.3681849142247851,0.2099992767173323,-0.3156293351724862,0.3933649446454929,-0.36625266910847654,0.2538699443214181,-0.4020953189794477,-0.13922498764058136,0.07336247099795731,0.3972915321801232,0.24142660536033161,-0.4885295883373036,0.3764468908964457,-0.49849452710847103,-0.2307187459275404,0.21759253025172362,0.23863173675752697,0.07381007616992996,-0.3683678175435481,0.2498650373043584,-0.17087463688714846,0.14726185268458028,0.35145572454726015,0.1769880383392627,-0.010269053347208804,-0.28990481732269335,0.10442894289699631,-0.34646433288421924,0.44138609299437465,-0.01817299381658049,0.13482442935878775,0.20938336239229685,0.012933499310471542,0.40826426453337683,-0.2106218967623282,-0.19150312604804098,0.10955728474508569,-0.2975355329540932,0.402757848174737,-0.18155760497493525,0.289342638672556,0.10184290332477879,-0.04445774069522895,0.29562059855148726,0.16376672299040151,0.204924580812102,0.457535239962752,-0.2698475948842521,0.3455878295653758,0.32364310555523546,-0.017885833721217523,-0.24982967894555008,0.07486345954488645,0.07192335521296686,0.32267273824845033,-0.45676690336913384,-0.29354897517829637,-0.2546108565305537,-0.08445250680487482,-0.5606829624133771,0.030193222855407337,0.20844105082968048,0.13558519949988995,0.003372733159106637,-0.3390748518968098,0.34181352742730436,-0.4229258322848308,0.30837700765845594,0.09668248456084852,-0.14301859414536733,-0.07232305003266905,0.07409391010087965,-0.3706539402157178,-0.3668550838208545,0.44941352328765294,-0.36118845439261654,-0.06583874095946352,0.11868343970204323,0.6200947841885723,-0.19150709164336363,-0.33528653582682444,-0.38701008766715955,0.008976514029685391,0.01648264467622295,-0.2591287125156024,-0.007671195759844416,-0.11436681474278369,0.32842190087581546,-0.4420772572579515,-0.02061255687962947,-0.08480591394423237,0.30887162379802585,-0.09908560647459089,0.13128195266204173,0.37732286987378566,0.10214085497270804,0.02674163399908221,0.08538491083450551,0.20913993848649676,0.23543903482275735,0.03309995058177962,-0.2964763445881935,-0.041516464816493494,0.15007698419707405,0.02041500992110288,0.12889019640665458,0.39378389766646243,-0.023791912381448923,0.20872366095171432,-0.27847930094534884,-0.20369332786638292,-0.4035035626004442,-0.42939875960571244,-0.10958427030955735,-0.3634915929897928,-0.375800542807419,0.3009359200074462,0.5211867462885575,-0.3242987438185157,-0.049571533455992856,0.31730863805266135,0.17901056046127703,-0.02976260226866711,-0.3751396909961812,-0.42498898375922367,-0.134379557880936,-0.21095452973489986,-0.0275433425152265,-0.024638302051909748,-0.062085277723409334,-0.10696100947645369,0.29025896788168576,0.19680402306597827,-0.13401871229328344,-0.007308466957839916,-0.07349146757651717,0.34644357443589946,-0.23673208956623673,0.5224409890696029,0.004566305910094756,-0.3345515629938638,0.42441352118954256,0.13485625106638516,0.18910942719701043,-0.21158617608019423,0.48471419034929136,-0.3078221097159132,0.30387025782765,0.17520108375473858,0.3345001144382531,-0.18113494667024255,0.3670855591405899,-0.19611048661342606,0.06562555604565774,-0.2491426518530578,0.0973698834052163,-0.11394324411393597,-0.10841017467248495,-0.270105251278679,0.1262853921828447,0.3180887046333127,-0.3343285995967014,-0.540739299982886,-0.02322780149126742,0.11613429892267066,-0.008761343656979245,-0.4037268868524958,-0.15247864940547096,-0.43266555970815146,0.5313258523158505,-0.09391707468159471,0.0016329475143311853,-0.3847695124276598,0.05322753152332657,0.11320308596738984,0.051422252841113576,0.22307600532680694,-0.2017768803249476,-0.18356731321831707,-0.08100508789967628,0.44455214251513286,0.36431819316487346,0.05369940005031248,-0.4720859006230621,-0.4705276060264444,-0.05941606400479513,-0.11642384546024193,-0.2899157175632208,-0.3215281961564217,0.18053143586371212,-0.5650816404122516,-0.39590538746797993,-0.5129876158042561,-0.11117422759284594,0.31516585244585565,0.020962337363354126,0.4322804042539808,0.25595311558499295,-0.09466619804435537,0.32216456814069316,0.11906550666701304,0.4246531879407654,0.4215089544407496,-0.15675259205652306,0.04052424407300632,0.5560124803900173,0.5064959262166949,-0.05188561367473229,-0.37296195741893495,0.33114487244265794,-0.3176087628249489,-0.08570300477557903,-0.24649505668352273,0.24106368759000296,0.26414768922936555,-0.26355698209555073,0.0887818285500074,-0.03694396732176733,-0.6651608149234666,-0.5350049874431528,-0.18746688336393846,0.22358592864197024,0.10835900663884733,-0.27210119562047685,-0.07183021152934817,0.4310457285026986,0.4139814904205965,0.5591398431533876,0.11769051278331094,0.25820755176091337,-0.04857461493576926,0.35354423150696634,-0.12534318276073725,-0.34650928322419033,0.01482080360045317,0.09138863202948479,-0.11824672039800638,0.2112904720765723,0.23779691940354658,0.40717559371164075,-0.35724907275598294,-0.2171789462393293,-0.29009422431861365,0.0678995753471511,-0.1749363854809041,-0.39083679877789324,-0.3004229369791765,-0.01871161951228288,-0.21409880488942537,0.4672414002307301,0.01494499268140682,-0.08649186520680367,-0.0994729638121564,-0.04006792813213487,0.06425448411254076,0.37326958462787885,0.4538761482757389,0.035283204596284395,0.6277999964473712,0.47682103229945133,0.36768917745646856,0.4592311271034288,0.2348315773740319,0.0207411787975285,0.35874012147759826,-0.4998089274141105,-0.20632441704643703,-0.07657676028851083,-0.12695244761802207,-0.22727618835116406,-0.003532066272502237,-0.47188217513318403,-0.384121402427769,-0.4704711129072113,-0.14576544986227097,0.0020464159880066277,-0.4068316106467748,0.44395593849827364,-0.3971015634763005,0.15024117689084504,0.36325306910892013,-0.07620632004943999,0.2500238564167418,0.5982933814215141,-0.01136234287536631,-0.11566442794534036,0.09319905171779565,0.36425169541391234,0.17663592348847712,0.3376470965271017,0.36466919276679605,0.1468794102716948,-0.47634473928404697,-0.05698150094236548,-0.247019101512573,-0.4787370248930635,-0.551655764196918,-0.3178650904861072,-0.0010654081109668265,-0.008160014278431505,-0.36361367176853626,-0.03254922825488443,0.29185585974909833,-0.4649406612079067,-0.24235877893140365,0.04662639548977918,-0.13295216823081513,-0.23511425770871144,0.5102097383960802,0.41635835459141896,0.22160832893378984,-0.2892814866730205,0.026658964370617728,0.024901933025046275,-0.1959741237559038,0.14594853790639545,-0.2882460462396976,0.5034024070645658,0.2906943149886706,0.07101858487636725,0.26110410949768253,0.3577259809716339,-0.042169560158564566,-0.6061330283440065,-0.6091177838189962,-0.23692280497941234,-0.6058889128444509,0.09593731446375538,-0.5629571986724601,-0.2687870062263092,-0.3209092975498108,-0.31009227393730415,-0.21814702292471821,0.3961470266256414,0.34937892067425125,0.43431745728378773,-0.2785827816520615,0.25761076706496533,-0.1398782487424307,0.6432322595774446,-0.28141621467799105,-0.20319700975793226,0.35727601740122683,-0.25096951679756335,-0.39432880353056404,0.19130019372459248,-0.41752938619719043,-0.01249868565981866,0.32061133227554933,-0.5772515925503239,-0.10664302918162202,-0.5100609676716127,-0.3739699005418987,-0.2575169233322684,-0.3620931130422529,-0.490529524447358,0.34798231561787524,0.095467442703045,-0.3855250871545315,-0.25134498354094836,0.218061477936157,0.39340817946890083,-0.28220446188417153,-0.0770324927114466,-0.3156517203050926,0.4290692037754121,0.27114081952367014,0.17610243947209053,0.1593664960229975,-0.3543642569470064,-0.09551179900291479,-0.5425111574441969,0.4247461079701036,-0.012509159437952755,-0.500431293178509,0.2819759452277916,-0.21772036737673342,-0.2414252501458654,-0.26487132920422174,-0.5270875632698788,0.2899424072815934,-0.43528159479565315,0.16331218616611914,0.34526556979357165,-0.3405018723881684,-0.3496856131405368,0.22998197623335126,-0.1560872711375754,0.02572996757117351,0.2905634580185461,0.34414435794815523,-0.2920288492864441,-0.3048381497963262,0.5415089179420562,0.5940617757205571,-0.3235146733857929,0.3750299535013983,0.3405696973080002,0.23994728954628253,-0.4418988278605711,-0.1525985657720519,0.22112413006246573,-0.2876611753738913,0.2741938445629651,0.37245574705633616,0.5535842837121413,-0.45106212399452406,0.2726778951402363,0.18286050397464326,0.3916991136592792,0.028109469224719588,0.3651467998330226,-0.2621929270567035,-0.12649393877509563,-0.11853611995174931,-0.18410662986024778,-0.28975713448086043,-0.059776083468364334,-0.2503087199518002,0.49542163352370566,0.3528412058620444,0.23647362290145024,-0.19672656435074995,0.32445677799673706,-0.13905271734334387,-0.12112846333754035,-0.47426824048680477,0.18726312258031855,0.13150617199459,-0.4385142354576251,0.09641343269162791,0.10330286867661387,0.23256794615294438,-0.15572404477824514,0.42619985661462334,-0.21895506266503445,-0.1965663270143137,-0.3413476154806568,-0.31496991892457965,-0.5001033198924367,0.39919873373080733,-0.24712437334174284,0.2794497484267649,-0.28430983413270045,-0.40566131053724325,-0.12574294429600033,-0.23840917251200786,0.3288880324834928,-0.20249206799325722,0.5417576861652891,0.11285357752817066,-0.05078631983707994,-0.12152220427864002,0.011282407278541334,-0.03966837856034401,0.3078830893593923,0.009320244790697641,0.11279913072583958,-0.17431990216728052,-0.2935847846173167,0.2614614884461802,-0.14638358213498798,0.0872205387435195,-0.18849410301192546,0.17922838790200135,0.30922460884763353,0.08452585065944837,0.11475465274764603,-0.37128261759661674,-0.3659474820567565,-0.4992651630337417,-0.2243151258589029,-0.5339825891411505,0.5030935971719798,0.43845046347138045,0.020799831143425353,-0.004538778372248991,-0.05598261026873686,0.1252722696152288,0.15011203056954747,-0.14367105038183112,0.3767846153695581,0.4353375879607322,0.4476124672011293,-0.23112698956719713,0.15901131163624466,-0.19993407498602506,0.04149845138364432,0.39059957914726023,-0.1771316857256979,-0.3282532852690578,0.1923062901411622,-0.15883383317736824,0.22379276448711835,0.198638727343167,0.10093267560877141,-0.11803258504524769,0.24138145806722572,-0.6357079288945887,0.17482552809339014,-0.4996908787149059,-0.1510032004625513,0.14285544142333945,0.02418157190360371,-0.06775050564475416,0.34245491602417183,0.4542317997749539,0.14987976639122133,0.1752657082229804,0.3513071889402911,0.5200515010895176,0.21198166883785244,-0.38542122941078705,0.48569633257327105,-0.06961254185856532,0.4660999425064636,-0.3005262835454557,0.4280545884273413,-0.017693872069671605,0.23804398523170012,0.37732371815542637,-0.2692251818529594,-0.020652277383921114,-0.2289529281221948,0.23567382092888153,-0.06556079344617646,-0.49100354240930344,-0.17330159079974036,-0.43894834559976975,-0.4663899439674685,-0.07557749762294119,0.2842395466913383,0.22685446332972628,-0.40367054904112626,-0.13282018022414013,-0.04915342711894597,0.09499208791310568,0.47140579138006866,0.3476695387083258,0.43999384821675097,-0.022757367224788144,0.09742116216892718,0.1284667633429938,0.10138833337406908,0.3072047569763977,-0.012601057732157828,-0.17084772068123846,-0.01586426491840556,-0.300760692649691,0.012912746857451517,0.19852110037206266,-0.47749635667988966,0.18365248152710534,-0.17535704199538574,-0.5778316375040671,-0.456521456941978,0.09549071781573641,-0.2425836627094792,-0.29387746725481034,-0.15317011189916718,-0.4598140409883797,0.26350787325440406,0.01717938180332376,-0.22462146951374484,-0.3690804692682912,0.47353194185720976,0.4028295851015811,0.33288256694518553,0.13506581292760983,0.570296178330321,-0.31778613513942966,-0.3075639451419631,0.22868198359073236,0.1209319871093544,0.20308361499026484,0.17134138768976928,0.2129489407577189,0.06257585121359087,-0.22174270271584776,-0.2582251423283733,-0.49195207008989533,-0.351639355612277,-0.38146035447889093,-0.35604914214786876,-0.24185657217953743,-0.024923496671021804,0.36589385755527454,0.2622330199075644,-0.268810967571602,0.39273297204563623,-0.10944415480609042,0.18094468675270764,0.3003136587818407,-0.3273350157892062,-0.40773359717822805,0.354625310551536,-0.3288407838080028,-0.11327662271141913,0.18653260984374045,0.2429501308258259,0.4908458643457069,-0.3878077038029258,-0.08982850065881366,0.5123171723345743,0.17514717353476836,0.30453040477114607,0.19194646797895157,0.1810302842270853,-0.4223264683980015,-0.29676659352027074,-0.09671147640000634,0.30083009483015477,-0.2483014070757831,0.4819838663272958,0.4522061248061964,0.2121295906268863,-0.24463852278091272,-0.01890531386310323,-0.15813175156575504,-0.406000969559035,0.310166494895691,0.23258361064305258,-0.0912666414509746,0.3208264387162053,-0.21049611361916312,-0.11248212057122761,0.30153512666852766,-0.4302553682807413,0.21882569936996293,0.3937434696231686,-0.4499435886598675,0.12557099255417623,0.24135613326688204,0.10311767551325846,0.36536228640119983,0.3514378691154585,0.15009429363676385,0.032193777648907074,-0.31417654600356704,0.22946318875908348,0.26947959416321604,-0.10406805531743313,-0.21312910960603437,0.1890884256745941,0.3601832639452988,-0.24130236499291274,0.17113331139886054,0.26698826891822974,0.3298400922654039,0.2912787114236277,-0.24394395584389714,0.03866689849639029,-0.42042717136737506,0.10099975623566458,-0.36952485466448814,0.19402806957985427,0.19852003826077988,-0.18351060555314835,0.1291871964209908,0.26359068356523213,-0.011109473425099962,0.1644865195472273,-0.1838099201061023,-0.22561247280009353,-0.27209130383505753,0.2258533722236539,-0.3306939623617409,0.5804427987230529,-0.1957903619906452,-0.2796811143976885,0.49067801747114037,-0.4913990532868365,-0.1652382665537897,-0.4289618606811771,-0.525720693875637,-0.5721477878468773,-0.4542308210201454,-0.6043761642581041,0.0036706962203381264,-0.05524817056530338,-0.21763952822048876,-0.3885859791620748,0.34001414693794474,-0.47512235035468553,-0.21833953813076365,-0.2341360862857488,0.49675612123281476,0.015243671606129456,0.03335127793625008,0.43159759747622756,0.2248361821264246,0.16651679597207136,-0.2426522221421355,0.4843820560676343,0.3477121629137816,0.31947307021800664,0.3713060128869375,-0.2192532038968864,-0.032946893527147976,-0.07066066331112446,-0.3381157626274185,-0.4358062155118672,0.31432163208003217,0.14121149604430408,-0.39159206283859,-0.575769975334861,0.0004004408032746192,0.1444507012097146,-0.45816276903785247,-0.4291915546152636,-0.23006393431394337,0.23519466856625895,0.2689834837029909,-0.4224798970373341,0.3388038375054304,0.083408036965541,0.5008273823221066,0.29041954286156296,0.5378882706080219,0.5424691726889824,0.3466706903839997,0.23158021470160647,-0.25820811811021344,-0.026418970765827606,-0.26736628396509815,-0.12536205968604172,-0.15438763265217173,-0.366384750331292,-0.3874335495830284,0.2525908842570877,-0.4012103273710806,0.10868832058568219,-0.00621822381206734,-0.2150189427899817,-0.3532833802847956,0.1840355199109063,0.1362021524585152,-0.09016581130886758,0.18735783890355,-0.06635330689809124,-0.16394670151263357,-0.04569691967385457,-0.13742731826533428,-0.19909815914303472,0.1872985108742343,0.5023424287955163,-0.20183147440863233,-0.2127451304012005,-0.03424446295065133,0.4351248201992013,0.5823578289905668,0.27823249615845314,-0.3391137645594543,0.48496420707708393],"bias":-0.2083297446108336},{"weights":[0.4734236645829916,0.1931946569590781,-0.4140478692812263,-0.46783616473326944,-0.19074208811098395,-0.37973554333122134,0.2984891487584238,0.22282757560186456,0.2852691448794429,-0.30337701134255524,0.23429806561077007,0.37451327211965896,0.030678617461466932,0.2510168720776041,0.05577942335273486,-0.46951634972979017,-0.3453077754593205,0.4766160020616456,-0.35698901225705953,0.47120329685685974,0.11260470639579935,0.15957343616849978,0.31728733295551614,0.47431237333850806,-0.2196718927298508,-0.15704205134249066,0.06571108129155218,0.21495496050327664,-0.09395870520788889,-0.28845419289581004,0.11320191194333735,0.10109109003602312,-0.09256460828713634,0.48307439909711364,-0.25530767531982984,-0.37172318262912507,0.15556858403833027,-0.47640499783158696,0.07313850555354288,-0.05861040513601858,0.30556192381254516,-0.24396026117216865,0.1839848322453842,-0.27300402751847896,0.07283212547033834,0.24242360830932716,0.3315518473259857,-0.24418756610962297,-0.4080217580981697,-0.34219772449224345,-0.24075040615912519,0.4661332461089735,0.13509514741580317,-0.42484091641439153,0.07175132606378919,0.039318418599943956,0.17982463371335242,0.4602835172686573,-0.1194594580270999,0.2761110287374383,-0.13859948916216322,0.3590928665590409,0.025329711909754617,-0.12679302082436533,-0.5193254137147038,-0.36624015179668823,0.0059028944843972486,-0.14375065963566871,-0.16821305959972202,-0.12750658773365453,0.03281404663808473,-0.05622309458397736,0.1552544830201229,0.2342994961246527,-0.4097174534304766,-0.22502594209276675,0.22944941809891473,-0.17278723590968073,0.08542339823768691,-0.024077032048787965,-0.35026837719602566,-0.38710963924554176,0.5241090528784723,-0.39981065607647903,-0.29702867745546907,-0.1361196614363377,-0.1745327465835903,-0.296416736771202,-0.13572451568797392,0.09378584625125298,-0.3791753557606897,-0.08321991152907382,-0.013528056480208156,0.45126229824623565,-0.019435015479015702,-0.5090324006053474,-0.4372868229370446,-0.3448861041450707,0.2676282895300698,0.15547922843114795,0.14047712172595186,0.01325830150467,-0.09726520354861705,-0.18573493825830906,0.023296888001137554,0.5045543171877697,0.2598863385676887,0.42889115332244876,-0.173616465340232,0.5710545817416637,-0.36553461838431456,0.25194381397732574,-0.03636874871160697,0.02002150385596237,0.09986421166273023,-0.2870779254396234,-0.3763583188263901,-0.12108934764777654,0.1377925337334961,0.05064547211590357,-0.3838489478667657,-0.40761858911442833,-0.45120838633447136,0.01995150907738889,0.19762003374171552,0.23068653346935666,0.18182951011213497,-0.07079702150478434,0.23148173714676304,-0.20364895381748818,-0.31071321314659744,-0.4894434660366321,0.01685234623822707,0.278894181421335,0.07568016816727208,-0.16290751664859576,0.3453184775074207,0.05872251099656665,-0.14296404512444563,0.33142703710832583,0.3412370925561251,0.08619593245292294,0.08304595381648139,-0.4238728437153888,-0.264053529400018,-0.46193245862499344,0.25222217181263984,0.12188254906206718,0.5001951104653276,0.14518938825867103,0.5197444331924069,0.1785593363448607,0.09730069896771942,0.40256617078009554,0.04068594166267143,0.023499107730538003,-0.31161207342101077,0.0671079903949524,-0.517148281110936,-0.17934791628804495,0.06109413648295487,-0.10431626393964376,0.18750866373234806,-0.21331545404877816,-0.05353954696143322,0.4763053461565147,-0.2531887304500805,-0.2566969587416721,0.17831752551067037,-0.2020348148865793,0.27215176096569865,-0.22319084630941052,0.37425029601316273,0.31265329169940576,0.2866978107744593,0.19641972444096964,-0.122372752440009,-0.04924811364708801,-0.2877248793166256,0.2682415023895626,-0.2338154125189221,0.20209555935751802,-0.3150261063568256,-0.13393242851829823,0.42684669844372414,-0.18264543802845146,0.12235153309953828,0.16999746994901554,-0.13808494202440919,-0.22518836356273791,0.40428262378474183,-0.3080886438138043,-0.2221544196809787,0.24070865212637205,-0.1305849607250518,-0.3397492262818931,-0.18407189281363773,-0.15923380844780255,0.20140277080170238,0.25226688441113176,-0.03542943845907965,-0.44339349576784803,0.04995067625776101,-0.004686750118519392,-0.3557949427108513,0.42324305601152196,-0.3020776307044311,0.46907291811335594,-0.0666574376865265,-0.27676106775792003,0.46155588940166115,-0.09825509861522562,0.30210881406210377,0.39573302164027985,0.4081714653718623,0.16492372952563233,-0.27094976099466855,-0.18640903464604,0.18263917482022002,0.10558821521027423,-0.41995259101682847,0.23192451285750676,0.16071124870616615,-0.271907872500722,-0.4675047361117999,0.3957460646063855,0.10533320195665202,-0.1030303988209517,-0.2226480226321576,0.31435468720428567,0.41623056674084546,-0.31126856184352863,0.0015100338562644075,0.4348588338416871,0.3675560102912531,-0.19139091701661565,-0.11143307324049737,-0.22844196519411072,0.2997024006201797,0.015985605545139704,0.01093272465875137,0.11538941330894263,0.3909891415944875,0.0220459593138896,0.44197937964276174,-0.2480239283138607,-0.08150923540692434,0.22191507525788276,0.03016977830505468,-0.3193107127104719,-0.4098608863481748,-0.4566499134594564,0.512184363846156,0.042793772901961596,-0.2939293356028568,-0.3507401033420237,-0.4235283190623681,-0.34804741280848195,-0.03314827340009565,0.5285108477430578,-0.2389605592963437,0.1785294351916438,0.31807594050971344,0.30613828280438116,0.4527187372159555,0.3681151983181673,-0.46186561771749357,0.421843153564456,0.2528033246016559,-0.3345729176585038,0.2802021722637632,-0.16781201801214504,-0.07691526296332023,-0.13858777498481456,0.18750422976378628,0.3648613270850048,0.0056629869518852885,-0.46566847468290545,0.38409443583879505,0.17059802778805716,-0.062558501639843,0.5039811687645155,-0.07252690680373798,-0.03774145242851327,0.24395045193532644,0.2786982679136357,0.37887375820578684,0.3078172765822257,0.40693833625704523,0.16234153708528076,-0.4340535849484146,0.23877027752905608,0.4321284325790531,-0.1194032324575492,0.05852841976201211,-0.432784819635788,-0.3429121222116109,-0.08616006215292947,0.2877883155508307,-0.2145610858142302,0.1000411044582167,0.26007580265753916,0.22503674800033152,0.0027815944268919993,0.37824277971205317,-0.2543962074840975,-0.28987772090458375,0.5179374464609501,-0.16852725069085311,0.4831253575530144,0.3598483596329038,-0.48330294631927223,-0.4478233010744612,-0.17047952307988815,-0.2415333115150676,0.11050983163527461,0.2375243743676413,0.40369501623231946,0.18482833323889183,-0.44169661290464945,0.23178871775275678,0.37855213368586127,-0.37887699775478156,0.5014008549631803,-0.45969024949995313,0.17004951491346817,0.2474962658212861,0.031771116128449975,0.0734283158814872,-0.3744119417308328,-0.3644105747459349,-0.3032659657645698,-0.41190042173862845,0.18279982479943221,0.43826236203068114,0.31899038373584854,-0.45216026927959413,-0.35747098475960165,-0.10885746870442323,0.022796410820077568,0.44013399596119773,0.349043112078932,0.03006413805527964,-0.36927068037084604,-0.1507744843144617,0.2453898992245273,-0.45419945970493025,0.2855884074757991,-0.4571136797559216,-0.13473988075143975,0.4728974576403892,0.4707099608146985,0.5087000976681993,-0.23816552210238626,-0.45075413838019995,0.1178260637033487,-0.43967058128582504,-0.07719975362016593,0.24352178080916886,0.09173594572144046,-0.15867734938404504,-0.039942416296957384,0.03866467580184972,0.36890195856221447,0.32747260919045185,0.24224473028030277,0.40534434700725275,0.29846645425628665,-0.5297242858780704,-0.1065472522619513,-0.3597103640735026,-0.23349419099771426,-0.09584946493252121,-0.24299168067839516,0.0936182014306859,0.11255444659710585,0.31405413927101944,-0.1953789375064457,0.3225284132740351,-0.1518757126168415,0.2519328645620286,-0.08342039847261666,0.1745238591933142,0.022326594761262846,0.3896478713492032,-0.15691746133104395,0.08629547651485144,0.3352260175901526,0.21346488522584933,0.273471302876154,-0.32666605080399735,-0.23430297664820776,-0.24309173984374918,0.35618730901513923,-0.18031411819477772,-0.07939777612729024,-0.32116627501869,-0.2230174407108002,0.028694543545644005,-0.1593505581141467,0.3142294687592838,-0.3554138010506417,0.24841830475621524,-0.3855254174646678,0.3572318573927549,-0.13409944293721807,0.037292028534975374,0.49553571275437613,-0.19033262983462662,0.018345171661693072,-0.5172251762818343,-0.08962324657991205,0.11483084763954561,-0.0029246314713719137,-0.4459562470086371,-0.5229171027335254,-0.12821839170033142,-0.4135140355125745,0.4384590285140833,-0.45266994006496775,0.14811270956953515,-0.012576275376968772,-0.4364048469658487,0.3919817713977145,0.025899695565542134,-0.36652315394177926,0.04667010391814021,-0.3111001181330443,-0.5059157476809863,-0.04136681916389078,0.04385272591639939,0.3407922460206357,-0.12839930469861519,-0.20789080740407082,-0.2991073473140687,0.08131900107385032,0.1905460480011629,-0.19236756009445904,0.3077784362038631,-0.5366338098182878,0.0072109432096553626,0.11787501921881344,0.4447607538529579,0.3033350689193398,0.037917127909976825,-0.20054902515525283,-0.1306085332516357,-0.2693933515408197,-0.0010790654110843035,0.3609773441344746,-0.11520262414069235,0.0030133968235074838,-0.42440416860005403,-0.2708799666936547,-0.33962885230529216,-0.2889399819471527,-0.11914228791087743,-0.40175254691569295,-0.27192270263063634,-0.46757281992990957,0.42251220730233496,0.12445595358070724,-0.04929767355971619,-0.24696065700628464,-0.4874414999279477,-0.3985357214303119,-0.2192501019271778,0.25907381737300383,-0.4095781834104738,0.2493303533525905,0.4069122025426732,0.3152713316923892,-0.3362310480304723,-0.3695420776197204,-0.18839071911848287,-0.37177779783258086,0.4222160927476373,0.32736289939739743,-0.2166105136021208,-0.3492885777570354,-0.21281535321599887,-0.40451090617007485,0.09769718282649402,-0.4761952243786536,0.366641370713003,-0.18912947926663048,-0.0013106263557954028,-0.4172176298420168,0.45728333942282984,-0.21494737814772485,-0.2587038478898729,-0.34598969210476227,0.15662993728025823,0.1940828058080255,-0.14870663332627926,-0.02910909138371423,0.20220585939238142,0.1409616581973111,-0.48388765232543024,-0.12284918943787651,-0.15454014918999862,0.053457345658561244,-0.33261106948906477,-0.2866833365998743,-0.0352320709962027,-0.28472109230605747,0.11912251111077672,0.3257395927656736,-0.06631687099064916,-0.2352375429901688,0.18718374736925003,0.25497096938138686,-0.19637248856914463,-0.5069025252113838,0.15498655641281478,0.43127427712389815,-0.2018825560120783,0.2566234783244241,-0.35772541061082047,-0.32327127664310185,-0.5057962891617702,-0.13892731290518404,0.31677196056291024,-0.08875320707380804,-0.03969777296041621,-0.4400838340066308,-0.26669160617634435,-0.09160893522746931,-0.13260945744413483,-0.37827954676364356,0.46283382988400434,-0.4397508468863303,-0.019521137680741835,0.40886527300488823,-0.3664193172474427,-0.4833557089730425,0.3784770894793746,0.21472799876354223,-0.3713153420558238,-0.39123430211363164,-0.37070404339108,0.39858888192789604,-0.238567618789616,0.2163524027467948,0.39227112596610075,0.35653235608346007,0.18305794708504586,-0.19150512648063925,-0.4817756298752306,-0.08243050064992682,0.0864753725612604,-0.5256663405621825,-0.13058512829503657,0.2674585288118393,0.2790431092125737,0.27858855993491394,-0.32890618068934485,0.20007828193295762,0.018188010558922427,-0.39658784837083993,-0.06952581508174996,0.29355564787054705,0.37313977187733427,-0.25177493594436623,-0.15371847494020419,-0.32314393611847747,-0.33831791550074314,-0.343905748420276,-0.5090363242333743,0.16654059351639358,0.23026164780939076,-0.2623959765197714,-0.2760884218309996,-0.2630136934976092,0.2936302062071646,0.48845095220117063,-0.1404081579357999,-0.1712064715388977,-0.545909721675733,-0.0933319770916351,-0.5356082571068124,0.13395518340015158,0.05151920789728303,0.3583946913632038,-0.024478132779973825,-0.16033232925877203,0.15401175156733055,0.14477122864504458,-0.3762140174506363,0.2395135128534779,0.39614771963913653,0.08310143891703228,-0.1872432681967873,-0.11130211087169672,0.12255217357926039,0.4873067232336908,0.4729963674064321,-0.4023031095955934,-0.3995497962582482,-0.30434591911152986,0.3684108682109169,-0.044682013295467816,0.08428048679697094,0.20497124731472416,-0.3708759058466808,-0.30261392263572284,0.23266790940781307,-0.1781554861431587,0.3773870282788978,-0.2349949515919825,-0.16229491865176976,0.012597194939277693,0.14857328204157422,0.31156724261373714,-0.05615638759899333,0.43168960339608603,0.05532188950527671,-0.21529826679884953,-0.28984373898841764,-0.3427933421546678,0.3356170252847535,0.454041865811806,0.38286230588484743,-0.10725439018022596,0.24190360406404396,-0.03706906048806977,0.15486360596382726,-0.27344129893836283,-0.13667497894248704,0.2852884938541868,-0.23125079932219916,-0.2827724839130497,0.0463032579227807,-0.27848427066569315,-0.5557420132650893,-0.11834414628042997,-0.28844201898763566,0.11019651435374272,0.37493971677712007,0.22180357971752565,-0.021626410001216997,-0.3471263268091216,0.47051418029557623,0.16281808899240524,0.3444331269619811,0.22510548489754548,0.44136263062331715,0.31851202862333095,-0.32008934959158025,-0.3058063327447304,0.526626447538444,0.1297286062272754,0.23774923911348114,-0.37097080242505914,-0.29198324938433745,0.2834258865144035,0.2877245781470861,0.23257310243323565,-0.3368487959428544,0.059620105932601176,0.33420651873207924,-0.09954311077299802,0.26103188666874017,-0.43331686637745137,0.41287583194562305,0.16998467587376428,-0.07296474212990504,-0.42500895678664113,-0.35866287344324954,0.28479173095275795,-0.04357058236293791,-0.22017937471096577,-0.22029140654894,0.10261471436874904,-0.19790302488467132,0.2878474303578003,-0.4007501590454893,0.34731088667730775,-0.38701594174106146,0.3944363897544874,0.4322195249583915,0.3845250307705568,0.37684182530436644,0.10483976949370842,-0.17077835103259575,-0.26498987458036577,0.17688956247737272,0.3772597122905663,0.4335744459854578,0.3903064221331082,0.36277169629706474,0.37841680326207705,0.2604795620524224,-0.05936986221921032,-0.27905124277104665,0.2103399897243098,0.08185019434456305,0.4900170043166415,0.5037160422773354,0.3075700209952697,-0.45618187143944683,0.1883876586355045,0.48086072170699984,-0.060280034590941056,0.004193107316690712,-0.12641552536432485,0.29016687548090125,0.10412975158118823,-0.20548473494995645,-0.3474996647698066,0.019197786624000897,-0.20666850058887873,0.36987675194793956,0.08475656352801188,0.5543901277343413,0.26651594395425854,-0.006759195386601234,0.15545340042098785,-0.3064364025504852,-0.19677224283970665,-0.10168272963246554,-0.3783977647653869,0.35669915019284115,0.49407758512499717,0.3591879728395418,-0.353781085661284,0.06679453521999598,-0.23527678590037754,-0.1938175496207705,-0.4002426741528442,-0.22971745222734866,0.1110991580249443,0.007918479341676665,-0.2168330038348358,-0.38468763951580875,0.4666263623414222,-0.019553472783861003,0.0027099293838201313,-0.34441080436160465,-0.21543242198214665,-0.02793832974241154,0.2364831882587265,0.35359596787717174,-0.1774013561629758,0.4923180916284713,-0.21729124563792426,0.018009355715652285,0.4769817084766059,-0.23453341439725245,0.2945214978368587,0.22151728585406277,0.15965708312579133,0.5112676183223809,-0.4339755498472997,0.25881570458694,-0.27892169013628637,0.41706827405887087,0.4305109602024187,0.35706501834966453,0.3558720188058331,-0.16449256221606584,0.14287993197416948,-0.09239058349007875,-0.21216505701090063,-0.32728696744334856,0.4869232703543848,-0.26076798715196625,0.5093673206388912,-0.05040920409993111,-0.1351675942221371,-0.3967514002094526,-0.17805452377089803,-0.412608456045256,-0.2495156850056804,0.0017791711644834331,0.11862495409791304,0.49813965688502204,0.44697619689876034,-0.039703475152311415,0.1151057944401715,-0.3447402142049806,-0.13394201382837295,0.16779822916263332,-0.28672076973071065],"bias":0.15026662259828036},{"weights":[-0.016644576820171043,-0.0065531832210095654,0.3883535629732658,-0.09513896474162438,0.02097135239685123,0.2817179595961936,-0.1139249419930359,0.45619472281848844,-0.23906103277653523,0.4428035843683511,-0.25761676683456014,-0.049357762864829985,-0.28352049518735806,-0.12594840351642875,-0.4069265015755583,0.3546502614725497,0.27706482660895143,0.25123658442366475,0.3393732450264371,-0.5239825630702284,0.030449734956455612,-0.14306523783373504,0.0001318878964567547,0.4353750952925205,0.47369843761954616,-0.14868650805266104,-0.30890621687864034,-0.38853542442810685,-0.4639102803483113,-0.057275208975664994,0.3910213134516707,0.2628539942301104,-0.2165112360003345,0.21631941027283783,0.3497179289801,-0.18606695862715938,0.1223823411210867,-0.2365411553401393,-0.10995107203318019,0.20080503487376192,0.020083951147534387,-0.22700003447923958,-0.3812027917560239,0.3971775536088986,-0.21108820227551178,-0.14695290274460682,-0.41955377693730556,-0.4583281541474884,-0.3454449687740254,-0.0986853399848872,0.1866632956287938,-0.442456613947234,0.4372000209028977,-0.21382411203589058,0.09618987770582947,-0.2738680812409924,-0.33665050472706287,0.002288764267631493,0.3054002192310259,0.14117446921954419,0.08390895862126371,-0.0073764156404023,0.538674544057,0.3798048519994847,-0.0010935712263110407,0.12982057135765024,-0.10522730849724671,0.0782469448916496,0.0938472349895075,-0.32089873555049964,0.08681451492188429,0.18343805724266263,-0.36759223205144365,0.1667142931934249,0.13286028446680131,0.0646615402151214,-0.009406633375262376,-0.07119761916451194,-0.10483833057504709,-0.4007286379568732,0.33514689557277516,-0.11225610200836889,-0.40986704947738895,-0.45791030349096895,-0.1966919822949031,0.045469479573563884,-0.2773349533438304,0.16767786478331836,-0.002309926809606442,-0.2954156676486905,-0.13308303284813283,0.06687713756122646,0.19298613918497873,0.3852646241242881,-0.3103752412976696,0.3445087173283672,0.3231789344243415,0.005523429011599984,-0.16337839664652695,0.0570669910615529,-0.3401812039180749,-0.45182883119729766,-0.3458999715520369,-0.046538569159005685,0.1526990766906166,0.43564434764115345,-0.028056243047001283,0.32953066257044944,-0.21585292426103206,-0.06338759857421365,0.42538506112445884,-0.41925722414578503,0.2996707655309693,0.03662864052567711,0.2602119704361221,-0.0019992610313384553,-0.15400640591834103,-0.12409775200803044,-0.31573533859548664,0.36082452632092477,-0.3233913252690496,-0.06787395233582219,-0.03844784458799187,-0.25989111493459455,0.3503716403495182,0.31506114148587544,0.2844589304406172,0.12463335687223655,0.4172108827434952,0.4631883230542704,0.22038673310430043,0.37334404064378923,-0.11011764303913502,0.3551646049411247,-0.0853759508533569,-0.10728582306090322,-0.13247292779833297,-0.2681544897704713,0.4778964361346452,0.20773551230586762,-0.39030109966533577,0.04486413087794794,0.372760286751925,-0.44098807890824643,0.13970228214315808,-0.05857520736508049,0.233937696646685,-0.27104619358826093,0.49141017466358794,-0.3610902652278575,-0.17783301771793575,0.2976681926290406,0.4069535624526338,-0.4067262548046493,0.08123847434118811,0.09618862447304422,0.21635550048927008,-0.32210889051847225,0.2919915048830479,0.339277216264118,0.5454887234452653,0.37195313592959506,0.3454828654682057,0.26946771065797714,0.07316141718312001,-0.2033581365183648,-0.4891468326432737,0.32797834679175536,-0.018028255555304174,0.46375247128793584,-0.22195318217627602,-0.3087186422389801,0.14385680387591143,-0.18243769613355132,0.34811772257306145,-0.46471959300617494,0.2282294561038795,-0.4640723752807794,-0.24495273161016118,-0.09039178916737843,-0.45308094455698616,-0.07165792382629257,-0.31070119229408105,0.1767461843255347,0.4563853480918494,0.1163826189720673,-0.1503826342296225,0.17534693809155563,-0.4292918150914305,0.17290149572371727,-0.25689403703519104,-0.4497712056617341,-0.34897658251726377,0.0030610852034736345,-0.01156834416225918,0.0008613141050545536,-0.520481000104887,-0.19094497194396523,0.025793325691672864,-0.4283179385136949,0.43027984451950024,0.2663401555693015,0.07025217048870089,0.18461583401666884,0.01941530981785855,0.4481604321518283,0.11294063019688919,0.2760269987688654,-0.1088422922456011,0.23693478023389578,0.43143494349019146,-0.10868082067032081,0.06484844631912964,-0.3590595820377106,-0.33136708335963405,-0.2204182108646606,-0.3587514066883877,0.5015833472245343,-0.3617459208432062,-0.2661505150191397,0.2567829533560775,-0.45609273860221694,0.3824936123014857,0.4031963837388181,-0.27987061337471547,0.17469954716921585,-0.06166492202379501,0.27020086046021946,-0.21308080908895666,0.33780228058590894,-0.24033308335926326,-0.48832443156494987,0.1806174879904098,-0.3458955005690751,0.1544855669375989,0.43910687447198127,-0.006380355928642464,0.18741237862449522,0.2858757961645497,0.22388776887878414,0.43867809730450735,-0.2187259689102437,0.25504924842342497,0.33667148596886115,-0.35854942542570667,0.38967132273187793,0.39943406472835186,-0.21521087277379192,-0.22311729421931634,-0.1868890903084258,0.08589188198307471,-0.22106977389862345,0.4588180036793199,0.17423505486219232,-0.33749985590921633,-0.14187496800937657,0.4794622763903646,-0.37033529727199666,-0.22098232329931097,0.4033361165124032,0.39169303862877236,-0.2501124310194312,-0.15721724959319447,-0.2277337347505911,0.05771473608639101,0.2957421336673176,-0.14632601945613555,0.4247880672295238,-0.47777342686812874,0.12892073235506382,-0.2591576506363656,-0.27568339263342984,0.29639579009286887,-0.07831230165670797,-0.08242919503741068,-0.11328127754500746,0.15657359814489222,0.13161766182195495,-0.2928121926323708,-0.04495884690055968,-0.3124221520812877,-0.48320999929147374,0.23347073567362228,-0.010897198304649714,-0.3828534630378332,-0.3665592087252934,-0.43247943867631233,-0.14975128882617184,0.14480885025843301,-0.0368594926783507,0.24275681558255072,-0.44847316909059853,-0.3650466331217922,0.13616018470308988,-0.03523603186471713,0.3820913309173477,0.4998751219264145,0.33745320222396574,0.1555674715822072,0.30094976722891137,0.2592484290564996,0.0011614428605878767,0.22340316336816002,-0.27779630912544534,-0.3205921513183329,0.2693223158251715,-0.009222696981496394,0.16635017122727366,0.2809935810122787,-0.05366239472767411,-0.04651913121405664,-0.2976865908907984,-0.29392579222726334,0.21763678566242606,-0.23594238094933948,-0.2790307111371066,0.33946937492906537,-0.47728340228520016,-0.25455642318200716,-0.363332794923031,0.0013474754903321075,-0.1642229574176122,-0.10560303314356823,-0.07664243355982858,-0.28889787844155285,0.2594051405251567,0.406950941674529,-0.4028699344053588,0.05159036624443353,-0.0008318261097040699,-0.2081119679084821,0.08040675248972567,-0.41984518484976197,-0.13149478619369953,-0.4063801808980411,-0.4987712692102704,-0.4904424486649393,-0.5049888892817561,0.0887327134290749,-0.38726023618503536,-0.002300510789440575,0.4464408314740914,-0.027529357498083235,0.24856437425077108,-0.24256027670752905,-0.140935495389949,-0.5122140433232695,-0.4450713643691585,-0.3337323169192781,0.17727121932007972,-0.5180061136413419,0.20647849762367548,0.1959045146234621,-0.4361502700469851,-0.31442953121107053,-0.10355025383572326,-0.4408164700863788,0.29019157969775894,0.12991178093420774,0.49607258557296185,0.37022805268275766,0.5155189394730496,0.487107001314685,-0.3760424315048759,-0.23872547983181036,0.03044486203123838,-0.3100401169442739,0.22527225229818046,-0.21668704364976724,-0.08426986265968081,-0.27500023492621106,0.16141234731332402,-0.12722116278988882,0.38162150157995733,-0.3473595205500112,-0.2840323045871899,0.005910914221806325,-0.05156471671577169,0.1711163449444389,-0.2578309124438863,-0.09775392825940056,-0.04532307341941078,0.11748848695603901,-0.49740638415875416,0.10971353563479962,-0.12571847438433018,0.29604942493157804,0.271166803452322,0.3163626013651363,0.32999929055785276,0.16085616401011266,0.14919632824212942,-0.22829267581182444,0.47310682887177563,0.07183355244825163,0.4516697381276474,0.196753663869335,0.04993722554375905,-0.1905746722029657,-0.21124860695549225,-0.1260465304496676,-0.4023988193646322,0.42385622693008307,0.2112731944599296,0.40529740485730315,-0.1477738995998894,-0.5319525043033217,0.004568543226423441,0.24293036769128595,-0.11821667466707174,-0.5079784440245477,-0.10354371386331056,-0.044539581715838564,-0.3797198101780382,0.5098902792894549,-0.4563041269298548,-0.2930045984031323,-0.23586438192768214,0.06645926847079747,0.06826853210640264,0.07332482466093354,0.3938789859087633,-0.2510089257593619,-0.058050609396191985,0.31049300067185226,-0.04622219596510858,-0.32787730595092507,-0.09668282195809097,-0.23387759568920644,0.17529068847624676,-0.24349818777774773,-0.14452758800984228,0.0561402375318593,-0.09977340746033253,-0.14505840693282215,-0.4091334281108471,0.47211750055209917,-0.19066619262941592,-0.06610060727799284,0.2854493589761919,0.1998650583409074,0.0871275708877892,0.2212967446936536,-0.35174155884608,0.10467008197467716,0.39466281373533973,-0.39970131803463577,-0.11409320364332351,-0.13040091471788115,0.09911580068935184,-0.34677865266418495,0.22889123127213024,-0.25661217589919577,-0.40877121601277633,-0.3764520048776766,-0.17978880079154644,0.04725054244707514,-0.26261643187886646,-0.23010896811457807,0.1317749161020046,0.23979119118036735,0.12548926892093024,-0.001563133925393879,-0.1950198661354805,0.2531695726432257,0.3155689978885062,-0.01623880309225486,-0.32945036889807394,-0.1071152922079642,0.03877088503810868,-0.12656405559268705,0.3038472661048732,-0.16674523781670503,0.1520494684752106,0.0014154329462054045,0.4130978778037437,0.2949312878678552,0.1364084119462837,-0.18892583665824889,0.3911685412357143,0.027536025402560158,-0.18789066562330362,-0.15716539376606803,-0.49719595146435264,-0.45816237652201885,0.345481827733847,-0.27062353819476953,-0.03945696870273442,-0.0257623142652153,0.006093307711524192,0.09082406051216384,0.3672871334004453,0.25204004111589823,-0.02778366098499302,0.4181015583984023,-0.03425615257314572,-0.2806033570432589,-0.10663725512171615,0.14075531120571622,-0.34928487232098726,-0.37139778824121417,-0.415953466126964,0.2936233905375947,0.32982122055073426,-0.25428275227422376,-0.34385321911530514,-0.11015540836831059,-0.5889857757779348,-0.26950194636567437,-0.3859708552586937,-0.27789660570707947,-0.49415046729458606,-0.21332623576378767,-0.14837191721643933,0.06601081690201063,0.48241331412952226,-0.3642300159773038,0.3859174194223974,0.5097576962857817,-0.11753715892152845,-0.16942216533538249,0.13946169411385112,-0.334595564524279,-0.10006749547187213,0.1642238892719602,0.1796490857639308,0.5006081371155243,-0.4712110460460598,-0.3541028350151263,0.30782678511241846,0.042975893902384286,0.2117357902508676,-0.5261624799733717,0.07614660942825395,0.187016529910958,-0.25851496670819557,-0.45623487634687054,-0.020646487151411826,-0.36754839835202047,-0.032801707865334255,-0.21881452037769888,-0.1825198783650309,0.3006646295222303,-0.2520131113395163,0.20424310073383362,-0.33941834546189126,-0.27405036284078144,-0.19091528055571502,0.48877645398711134,-0.03651561434534921,0.39359543316470885,0.18990576327456413,-0.1794875803301104,0.19010202725552489,0.13498907138269353,0.43899757617457213,0.36549080464477374,-0.308099967741568,0.4213081787523624,-0.46665630680841846,0.06157159437884739,0.06547485787988891,-0.1985730569172602,0.3113899540917041,-0.4254375585201273,-0.2583848151805289,0.2940028160752258,-0.35212621245226655,-0.020382621031119055,-0.4072985519865199,-0.3669699335325809,-0.08316319757962827,-0.15964097711388112,-0.22814579951424804,-0.3098443381105778,0.3077000934441964,0.05328391087519711,-0.13756100622445244,-0.37578095288566266,0.2081209248196067,0.23740708339023459,0.0993836686660042,-0.4696979208315527,0.11934059982587374,-0.239552398620298,0.2105075602311815,-0.2766786712899833,-0.06538942164252864,0.26513579178205626,-0.2594812578763096,-0.3805823115024355,-0.0035902728788561006,0.22524467127412012,-0.43779966574632206,-0.15865495586252634,0.19142552528748588,-0.3320408506171219,0.1733705480260979,-0.032306885743224045,0.3801249328268004,0.3014427158250244,0.5209866516063036,-0.44504190920789843,-0.0769559182477509,0.11348832065167448,-0.06344469868501809,0.2681996149075265,0.21912851496804897,0.48233191705123857,-0.24762959963190256,-0.31322589821035757,-0.3847140148517817,0.40428493856642633,-0.06519384980438742,-0.02791188725538194,0.07023988741836111,0.21605304728020716,-0.18946778164819528,-0.026122836135150745,0.38649166639118193,-0.26984570716585526,-0.33594300578852293,-0.29932093589181774,0.15194208670783477,-0.3913134730652855,-0.06957028654154265,0.14749018350919618,0.07986665468819529,-0.2736472545416933,-0.29266971542660475,0.48009981762319137,0.17683206110144978,0.07611822104392434,0.30134292458345047,0.24980797376137728,-0.3375889401021816,0.34927604378518556,-0.18914827602435277,-0.19431857682498002,-0.3193536427669615,-0.40237406476060933,-0.002410070331288327,-0.48833077759210897,-0.08807004969113015,-0.24802076383633034,-0.45670428712647787,0.3076710370505361,-0.20450335534911887,-0.4055375827693372,-0.05910420944156334,-0.19828128286959315,-0.534781359278345,-0.3034811781083533,0.027748234135038838,0.26620893408858004,-0.19142498367991026,0.4199414514903353,-0.12926335982301584,-0.4465245426716998,-0.09095002684543049,-0.32098614874824866,0.457456181045262,0.4975869290289949,0.11133286224252692,0.36663512944492543,0.2308984007984052,-0.03510434311648473,-0.3626222077574852,-0.2912466873070235,0.46053168971587205,-0.4437848950794604,0.3768578188984924,-0.315203118762695,-0.04510845081397568,-0.4499190330828956,0.4875450179952702,-0.21265777399800181,0.2710102950643745,0.3758749671757382,-0.20242862252007282,0.2354883277731791,-0.2722356219353658,-0.17972257004535194,-0.12832958342204073,-0.3585204308097347,-0.337771858528592,-0.279455374626738,0.24649954725980044,-0.1344998314776285,0.0005330656843521197,-0.3940983465459736,0.29094314043154573,0.0935878641155979,-0.17520815104664403,-0.42103460590398056,-0.21046873145601386,-0.13444277189679968,-0.4699647461659537,0.0503193820150357,-0.3331195896919293,0.24636537105774628,0.4084708777855401,0.16949842981050006,-0.29085099950741444,0.48827567246352915,-0.48801084429164715,-0.11906923306793521,0.3730023258514944,0.4066991830781974,-0.23103771274279516,0.06840390901221925,-0.031475573329752746,0.021981180299471433,0.2324695025441639,-0.16691240734444307,-0.3410977597893473,-0.09700533687872043,-0.14940602367987835,-0.02826487388315766,0.08335000599287705,0.36807392828328234,0.11878351797078426,-0.0949734176299088,-0.46560219063088243,0.5052250067121633,0.44368492026113243,-0.17795653428076064,0.08789138241961707,-0.24116542496785293,0.14820493445654356,-0.3658042599685867,-0.12668039186314387,0.11881897464617631,0.11485440027142152,0.22389695933228726,0.23763908227368108,0.1717960227273039,-0.04887684558042934,-0.22264668742579194,-0.2196430603302629,-0.12237555913800026,0.39289509364118924,-0.4101095872460907,-0.1521101636418886,0.137203761744602,-0.49535103299196837,0.18847008028062626,-0.00824463880081179,0.054951322349604335,0.37050813041613234,-0.4396914949221427,-0.44990740748562824,0.3620573404798404,-0.3460562171621782,-0.4575812809888752,-0.11582926158825851,-0.011230504216770455,-0.4584519307362266,-0.4297197228199494,0.0777322976964262,0.1146720043108967,-0.13523730443263077,0.18828918045695753,-0.41034788460739857,-0.16801638665201515,-0.36435402517918486,-0.14541565862989647,-0.3972879975883386,-0.17413109102565283,-0.11155358912854274,0.4400598543676159,-0.5122843372172639,-0.2299134502434055,0.15160862475865428,0.34974448146590403,0.0601153241281018,-0.019763386541659513,0.15351128796347757,-0.010405248997462584,0.05051412625430541,0.28941654085925034,-0.13684220870337852,0.34684719915373297,0.0460238624153383],"bias":-0.49091096959988595},{"weights":[-0.5468169716646348,-0.28410354586040354,-0.4176075682115973,-0.23668118581526376,-0.1913559452700829,-0.3332656510558377,0.24477472173426415,0.2196173281789835,0.2546579898915392,-0.030406367962224925,0.3335526322794258,-0.5428641557356483,0.22963118405567773,-0.16111111590304808,-0.4215240426053648,-0.1344054512778008,0.3443510822580688,0.3064393136110046,0.2885479214053743,0.3309111659779614,-0.5820290456324994,-0.34776188809145137,0.10706330658085367,0.2766435427042217,0.15701029596404614,-0.43094269578711886,0.28936901042194424,0.07228356582140895,-0.1434728451777961,0.23841031286337652,0.21996058071862326,0.00987419799569501,0.3308975778853922,0.3676408350514286,-0.158480463837512,0.05562685921077387,-0.1698559724815059,-0.4149878115344803,-0.23109368082879977,0.2278592934985032,0.0781532376250807,-0.15191435758860092,-0.32630317911210077,0.12407947721559907,0.2424926058550114,-0.19547432631557143,-0.4192191769456393,0.21814153277615897,-0.561994961028498,-0.31314521369465204,-0.4021478774553495,0.14359570840004857,0.42325137871185203,-0.44623883075092957,-0.2581442948698437,0.21841955591474727,-0.6130083633727805,-0.06971045495685849,0.186350795657911,-0.17508340437901662,0.09608290455240176,-0.2303470684159508,-0.020703756323420603,-0.27884841768962737,0.16140743402352287,0.3241558600765469,-0.2213241637817296,-0.32233267818301586,-0.3653009466028409,0.34171813941256796,0.2544060802968029,0.07366476953937051,-0.4618115972528966,0.24063733513183957,0.3577095054396749,-0.33293145365492377,0.19380055084856673,-0.3909261520600364,-0.2800212220977299,0.4593936654001166,0.322026768712728,0.06786830616820617,0.3897268111288768,-0.0007003431648896396,0.33485014753986647,-0.06661026857232444,0.034021397006698935,-0.21888038533902884,-0.1717858023014591,0.6623020456148321,0.15459098110369485,0.24095424917078997,-0.033789557621987855,0.4424964166272498,-0.042856630056632386,-0.026043554153284607,0.4771486565110369,-0.4569480239618529,0.41309198079862786,0.40968178884535267,0.3663839178368046,0.3033810333028009,0.16396426932551425,-0.0729589744400223,-0.045166575674656644,-0.18357043472799234,0.12238281233554367,0.08914707173914119,-0.4342244236648464,0.24398398695808804,0.29087484356312204,0.07271008084721185,0.05006414948235008,0.4058429127522814,0.3969782212346361,0.38851752000164524,0.15380691988125672,-0.12023764039658791,-0.09094316052317031,0.11987759252659785,-0.38317951496798847,-0.11299914698013364,-0.442010981136978,0.3722225212117856,0.3213261354323739,0.43121181973148476,-0.2964506015024286,-0.14535049526009336,0.43588988581746974,0.09248021836756673,0.31227345761535374,0.283776665704663,-0.003960753734433907,0.3136677956343568,-0.23447846929580976,0.012494363204795347,0.4773026440046406,-0.05860459895674013,-0.052910786535276484,-0.2968412788640163,0.13674007839468844,0.31855980870149564,-0.28091612912981045,0.5327355910092583,-0.01779543690031282,-0.13050457338466184,-0.22910087234585755,-0.3134025182626438,-0.3040133638970055,-0.2876642684158132,0.0053369099890065224,-0.26173575164066337,0.03866560300575216,0.09618742701718981,-0.43933209010384977,-0.22429709532584513,-0.17746600405924987,-0.0678223672134284,0.1746681073452468,-0.10078113417754336,0.3095057626843209,-0.14125844801708373,-0.3258219223644241,0.09327200789664196,-0.30516326773112057,0.37512018574999956,0.1609724217168978,0.036836494407549894,-0.3658233799342094,-0.0967429406120174,0.19826717864139384,-0.27706778357132306,-0.08530993396856759,-0.306290501223547,0.06011591364605319,0.33043320062640025,0.3609747345499299,-0.2667984303662546,-0.20085984574520194,0.12872270345529074,0.22164568318708738,0.06257209582487346,-0.01825399527079093,0.3699052583901003,0.4576810511707446,0.19060642638530792,0.29512758756178414,0.21328705426261765,0.05781743831619737,-0.3415900681636071,0.28969263725204447,0.17679779762140874,0.1384983017226044,0.40063193619491627,0.3388655148037378,0.34295588330124394,-0.43373102263145336,-0.15674597397956616,-0.17982661304148928,0.3675794158665195,-0.23982339474471398,0.4819279625648778,0.527151355837972,-0.4008035803954513,-0.12673230277878497,-0.3160886532366566,-0.30037119958747754,-0.38683537357013453,-0.4489326951982211,-0.1192622986638156,-0.12300239810263451,-0.21246799269146457,0.29208330810202976,0.38268366549708915,-0.28530513226988063,0.454162769477469,-0.05361005357267866,0.1774869506723801,-0.3353670848719154,0.187670740866491,-0.40452073352878887,-0.4783185580976622,-0.09575048720055342,0.08193377265148338,0.18678766117499862,-0.1617487099062213,-0.14384592622058373,-0.08937427686892505,-0.09838256668147247,-0.21265162436936455,0.031096618849259777,-0.36908825827154984,0.041935736496603926,-0.3067116135389024,-0.11879748329926157,-0.38215327434507845,-0.2532549281628833,-0.24666278000259775,-0.12985563342161133,-0.5117887365253513,-0.12298968859867382,-0.4178705518783231,0.13735610581970947,-0.33677835313687676,0.2617495093565108,0.006721823961867018,-0.3059034678020147,-0.21857538794887213,0.16275056028156903,-0.4148964839954673,0.3435483874149961,-0.30858340500642795,-0.20517036051738768,-0.07046814817796525,0.220298019200829,-0.1511239735983426,-0.1665460505071822,0.4603899545511173,-0.211897240721138,0.015398251385973364,-0.3442684661835802,-0.30830134686239524,-0.12246025652653961,0.4450465355612532,-0.054875591550946234,-0.29304487608914226,0.2224800960920479,-0.005068546245820177,-0.23890045844754268,-0.04642801438768232,0.44239343166860884,0.14194886869514098,0.45045225591051014,0.35729583675011506,0.0012705666403839732,-0.09461965248415431,0.09412635074951177,-0.33243230822734593,0.12575398859819042,-0.21757484269089358,-0.3086280898960273,0.23472184779213037,0.4797522069486134,-0.014072720907363655,0.32273438451013603,-0.37290285489281944,0.24250270285315575,0.5865029478845191,0.058508718448954326,-0.29753923925851006,0.43731999634733565,-0.3892782951271787,-0.21353635759944445,0.2128150053157919,0.2893142678122297,-0.34097156512391813,-0.5079875931973192,0.25389323790952106,0.42583997839863796,0.10993113768805725,0.2805187873753652,0.25985105037814055,0.536284793593158,0.47862601767509905,0.1368571853391513,0.1866694914286089,-0.21140363639191173,0.10348458077001252,0.3058219537170405,-0.24890363127716658,0.3237209675815529,0.03317987214924815,-0.09036067171599117,-0.3712006679874508,0.46634000818066595,0.03323396837721253,0.5864673308865049,0.050193022953500976,-0.22158724461363036,-0.3985043611545734,0.10707764479586385,-0.3879389488434157,-0.3119007587258083,0.0017554591030051,0.4241726296959769,0.33933547408011633,-0.4467552689172435,-0.4051263157734018,-0.3235947683993659,-0.026334878130454983,0.27887285013236773,0.4027649772032099,-0.04099215217434638,0.27007285925301494,0.39243780322604616,-0.4845730446169133,0.05608323955305062,-0.04031389702408517,0.25156332767802037,-0.2931096492248411,0.10181724520101058,0.5170211252182547,0.04856279900382526,-0.38034678512948067,-0.029869211757305586,0.06102533530056486,0.09412065688568973,-0.16685086174144348,0.47800556261256677,0.17570584687350993,0.15950543557912544,0.13523807494497428,-0.2206489653951807,0.05728495582391173,0.03012173182775905,0.20844396026266848,0.5243763179503411,0.3377843742187348,-0.4718211129148506,0.3676356442212313,0.31412658496939416,0.091356778440532,-0.194732885214775,-0.4328739344868062,-0.11396539146167871,-0.422166053363661,-0.05505610120425594,-0.2656330776654037,-0.22456207852147075,-0.12757173190148957,0.31165974820398035,0.5624585317564671,-0.09109437620014127,-0.03617796111215242,-0.24516381833713036,-0.13481760178133606,0.5042299214990688,-0.38804859129091324,-0.24994167507461543,0.061327742814099445,0.5290093522148064,0.07298593431088184,0.5492289814230397,-0.26037491600372453,-0.1878885250989119,-0.1266642061596163,0.12600077011904057,-0.24039094149117646,0.40021875078554797,-0.4361990647002041,0.28212812231179396,0.3529428652238614,0.09062381223155916,0.08297442764889788,0.46829928595649745,0.05888768705311093,0.46356602636333466,-0.08881449617573901,0.5174622729292387,0.5574785658223574,0.06554077411700729,0.30235682482369675,0.5998142108371558,0.28894196972736996,0.1763440541896634,0.39960979564966564,0.549321978074438,0.15431461755223583,-0.1177580011928958,0.0803867639406307,0.22627912385525323,0.49929017989092617,-0.43315700675470625,-0.28666603832323184,-0.352832454127872,-0.4645196902959778,-0.35477640612692296,-0.38132945841038407,0.024923708110491237,0.3602405774867871,0.278066081966142,-0.24868175751333146,-0.06572747827343842,0.4378802721298229,-0.10544859402605765,0.5462214012183397,0.5872922228891326,0.06652099329121264,-0.07126758543599944,0.3559072144901124,0.009756305339240427,0.14681974069437967,-0.3477505674761798,0.21924373781552212,0.5320276463298607,-0.15934091192619138,-0.19210083046695856,0.028653532142505028,0.36464853338153497,0.2329693322749249,-0.35838683121908266,-0.195623072349731,-0.3144076188561874,-0.49581835510544237,-0.2617984559632756,-0.4404869381953715,0.07847946089131132,0.0992581991799521,-0.5504553546147601,0.4003171487896137,-0.03357143308136375,-0.149371583647706,0.3118707117186195,0.03948624448304803,0.4724181365877788,-0.29970201629909193,-0.41514654358694814,0.34300560667566804,0.4010088457819377,0.15047132953201858,-0.10602271294141381,-0.42323942265560577,-0.326985503512513,-0.10659754094521459,0.5759321987550321,-0.3150059332506384,-0.25482836707493467,0.18467275042229975,-0.1723260228561045,-0.49129683289843734,-0.006596524846053324,-0.06685541954545575,-0.34173560698376126,0.409739366857622,-0.0746223855088354,-0.28018899721135954,0.22220972432448063,-0.20581913146933978,-0.19021269520628745,0.0208670637543079,0.4848816998487037,-0.1964456461328498,-0.12202019625817971,0.13003141438935076,-0.2681548349657908,0.01669170980495998,0.06341589058867166,-0.1636109783504925,-0.0180046082884796,0.09974275903720231,-0.02925842559283228,0.4716102166132656,-0.006332017363861184,-0.12015229271503801,0.24696040017927767,-0.46935114877681544,0.2667143380260112,0.05326617094898761,-0.13840097172192575,0.08880881253055478,-0.4945940025617026,-0.28111322407469164,0.3429305917352904,0.02764439418900122,-0.24306810334670537,-0.1378266705708169,-0.3935463441241621,-0.09288852848125931,0.5008503537146928,-0.36193084926366464,-0.011910545760860158,0.35706749968727947,-0.10700183605123542,0.21916234970379672,0.3794495344050263,0.29805581908722706,-0.41349168322121665,0.1856262649519436,0.3160816162758744,-0.18232717705494766,-0.13510230487400898,-0.35859177871167125,-0.3211714547616314,-0.42018589499612946,0.18394354575252417,-0.19164377480864836,-0.3946329122208394,-0.361639677104544,-0.2571980676737677,-0.474189394953337,0.29854277668034945,0.10954749091538575,-0.4042605057978465,0.3811827981466974,-0.07445347742174958,-0.10941263601975641,-0.21220439046930442,0.2068362419188768,0.2579289543426032,-0.08519451939115041,0.40816939106096667,-0.3650096588608957,0.25032803612887466,0.46335069576695925,-0.13820347643615652,0.14037308377304236,0.05322532146803975,-0.1908996559942478,0.43882409397861705,-0.01573398779466678,-0.07079193011226849,0.17567149128964726,-0.05997308233269529,0.07009025487643192,0.11516889448665511,-0.49641482298158396,0.21806826242763724,-0.12271310488427237,-0.0339735230946088,-0.2338143912367305,0.17459986231757707,-0.30810541082680704,0.02116909133745328,0.11558224459915367,-0.044586755894573026,0.540992817955649,0.5741781765290104,0.14633812435560867,0.014764318304533404,0.19544310782579496,-0.35547774945398025,0.07460553097193749,0.19580766799200255,-0.11921904477582113,0.2976693430157745,-0.024386554859017813,-0.2495548691368715,0.4401488527322076,0.5263882725690552,-0.1828416183445486,0.4693883178939344,0.2577495421727767,-0.06956238326205892,-0.24454326668206164,-0.14924289645654457,0.35841365869386743,0.23937886788331636,0.27219034912756107,-0.388743211921709,-0.5426811123898733,-0.3523221856846176,0.44716498124408444,0.4696533383297934,0.46237452464497475,0.5559112194243796,0.13951936352148964,0.00576892986695417,-0.3017602711288637,-0.47964618050912183,0.22679419522217267,0.08472628119320204,-0.05831579743135835,0.42736493420599153,0.2838307380637011,-0.4168173467152353,0.33998282758333737,-0.42598396960392054,0.26183544987961793,0.45863433934404296,-0.11126211142277886,0.452866457481146,0.25520643157738326,-0.2122970609224364,0.42266094394926307,0.005914435002757788,-0.020254624628808025,0.3052309123571383,-0.45473318346987596,-0.07084156160750718,-0.3453468392235638,0.27030008742605827,0.19091697137179,-0.43810107654369485,0.2439042690930825,0.14515405323412303,0.3493990783128672,0.3573607383695154,-0.46285642369336205,-0.3127449580739193,0.3853417919909828,0.1691014800267382,0.45208769585968067,-0.14430762083852394,0.12992286917522544,-0.08165808562660962,-0.1165771558365612,-0.02568250219112431,-0.1790606941157324,-0.20997062986188858,-0.35736165264879516,0.07712455331230769,-0.03908119713319492,-0.3863581069132018,0.2363358493188496,-0.08695558067141192,-0.157213404797326,-0.07862332895361691,0.1912192088371193,0.3717510857676153,-0.05529783168305612,0.02738689264648127,-0.08967092221553585,0.42882790284005146,0.40223818965794383,0.38450381106125686,0.23650810975401312,0.06476538698529594,0.0681985969237991,-0.3802066492456674,0.09773159609386715,0.17861183167085481,0.15444330102638615,0.3333442784739631,-0.1616009518506173,0.471670322314726,0.0590530908695465,-0.11399164431027847,0.3966729810184263,0.03565383140900487,0.3028684185112394,-0.5251635440559315,0.08517399121569076,-0.022277214857964578,0.32894409767289573,0.3595463101035268,-0.00883768819379287,0.1820958173669853,0.245064194716727,0.15241532988644027,0.16067246002364918,-0.2782239943990284,0.1389797112843927,-0.4197839883530918,0.2440095311241208,0.22986485877610716,-0.48677090578880766,0.21119633655677283,-0.143898228721699,-0.20978307241424865,-0.03293148061420197,0.4165660076240032,0.24832968185349344,0.17426713590949477,0.04521512413162501,-0.2511620270800164,-0.27454655238122855,-0.022063260938873234,-0.2139350373505689,-0.3831112336187556,-0.1508126621927259,-0.18164407801414686,-0.4901657488511717,0.4710544840009413,0.1761684406124013,0.15235615429663105,0.5347776934994011,-0.30347987409627397,-0.48420421297430716,0.23302797473809156,0.1659265904142878,0.4058270148551648,-0.18893841087449517,-0.08877611604729796,0.01496480861421809,0.1282754777103906,-0.37234568689768405,-0.02048228971384109,-0.04698686683553012,0.2799472324915173,0.18987733826119366,0.33681955328396734,-0.06185500929000612,-0.22668139745383406,-0.13674477825766362,0.5567451852238349,0.31805308489322587,0.34810399097074235,-0.07424970278034196,-0.5225581319965957,-0.2489478145008316,0.1412326613249191,0.4542694563669378,0.2050677352780265,0.007586174625255706,-0.2137461936369343,0.13248758670374608,-0.43050237623317955,-0.47698327343892033,0.03120146195590385,0.034423434778352816,0.08937526343287723,-0.29925948149658843,-0.4813297694711364,0.08538676111475868,0.11735640116415783,-0.17975359510044844,0.2257307619685525,0.10325700829900572,-0.4367482440470039,0.050489771262989744,0.4162107565348484,0.2816526322598883,0.2093608265214944,-0.2369550251024478,0.16600275506050824,0.33161630240241946,-0.20474803798962632,-0.09514703921762173,-0.2609534528531213,-0.12833264206790165,-0.5137167612053725,-0.17865584591902023,0.20397333277391386,-0.19041919923971784,0.08727982447626967,-0.5536111273135574,0.14096554739154007,-0.19588841059142537,-0.44050844993844446,-0.2485667971245638,0.23976090550115123,-0.5433883181999509,0.1526573308073288,-0.30266776100425613,-0.4989902005546298,-0.3440704436480987,-0.5184863504848999,-0.17768042600494258,0.28557777356305636,-0.5259261188733102,-0.5605746187376057,-0.2781045807134019,0.23085948038121282,-0.5410398651189605],"bias":-0.45604199000209256},{"weights":[-0.12638149664082568,0.2639438181460304,0.43593456164239097,0.36946009248540573,-0.20289029751384938,0.24229297712979844,0.4107631862075913,-0.4002835204730151,-0.1615613261327277,0.06400877005014559,-0.4715840170884137,-0.31617993882901596,0.368809887858725,-0.09898938262856156,0.35255871735023353,0.3876542864724133,0.31673424377927867,-0.33836199804898165,-0.14451172149149755,-0.44460152102683426,-0.054485716833847314,-0.4681194879781512,-0.5203932596459812,0.40701314678441414,-0.27711566147866645,-0.23708355910969078,-0.32100435518635634,-0.26550994660557864,0.4468736214190644,0.018535870989814195,0.0852718219175402,0.2625751002830144,0.44657741833774717,-0.3242086276859875,-0.43266678698006616,-0.528168118824348,0.4458002253902816,-0.04126549883192201,0.1271825748939663,-0.00557283521811962,0.31545402996514676,0.47439479342311996,0.46257491292539066,0.129259534652598,0.3618683490211602,-0.38311247426942285,-0.1117970567269598,-0.14861575946972783,0.2559495183932939,-0.07413311444962589,0.07837391412944539,-0.31834371267408174,0.16347749122966468,-0.18281540800671786,-0.41915315039216633,0.25698000827870326,0.26630202179381435,0.11721737754034238,0.17517153486695336,0.34242749087498414,0.17944545964224676,0.14250174578372296,-0.030704579859080892,0.1652815314519477,-0.23144559789888822,0.31222502720930095,0.352827042050882,-0.4109993758800311,-0.23363790251376051,-0.13624019283704078,-0.027929280844829985,0.24716965189629758,-0.40120864849601606,0.4565628690625159,0.033908865954735946,0.43392555149269124,-0.044869897589674704,-0.32201708629559567,0.010352896496144957,-0.2804357667951108,-0.02950396515786683,0.23649871053186447,0.35826221242348943,0.23541756163276428,-0.5151913109469255,-0.525871064080996,-0.446295120516939,-0.028366708283079183,0.22161891121902383,-0.09488759948855653,-0.2969668328646981,-0.10089175349523374,0.12088762813244891,0.48139001396009135,0.05104035494255014,0.4223569277211723,-0.39111208869540426,0.1267690073851243,0.18479514348509998,-0.1139470380265363,-0.17598826345027804,-0.32998566893396186,0.005987306373111994,-0.23593741105670069,0.5219417583165058,-0.18985478417522236,-0.15488869113901332,-0.03708042118548454,-0.19086223992447784,-0.2929213752701568,-0.002674171785999668,0.01866289627345655,-0.2862017831217753,0.36179246249274827,-0.0844306550603797,-0.10256611169828946,-0.3197418062655089,0.21329469213136854,-0.16524320168440512,0.13255337455689295,-0.01667677778217302,-0.3194117735527901,0.48841636838815167,-0.32982152334837683,0.41415231566983224,0.42958320090988816,-0.3282981108953555,-0.18095641967675283,0.08727573774545247,-0.04773728017048568,-0.47914426307477676,-0.30608445555614056,0.3010910316659289,0.01177362837872306,0.3935014089599791,-0.4214734808730655,-0.0675809307139232,-0.2793714468899348,-0.3910953624329817,0.21668456262613095,-0.13652008728417403,-0.510427647389364,0.21668526339569902,-0.252659118899454,-0.4981735395223272,-0.1330015188902442,-0.48325093693156157,0.21561844429321061,-0.3595042525064608,0.32367959771908866,-0.3015472891928639,0.39797974840099043,0.0545401100438161,0.4125174905498511,0.4659109005782752,-0.2909316396516076,0.26765835494546697,0.056071044513962776,0.048460749910889736,0.03785385174977818,-0.0328816332339487,0.1419794070598045,0.08450970991334186,-0.04360723750951005,-0.3461892325112926,0.1816055179972574,0.32996387019767603,0.36051392551960204,0.09057876741789503,0.3197208283964454,0.20076625417220975,0.32742911236863537,0.1544086091732398,-0.20058556277715428,-0.20999011347305913,-0.15117549270071043,-0.16952365843110884,0.31019251775683027,0.07612284297845454,0.013206990985939688,-0.4993297801667603,-0.11834906420527859,0.0034179572706285353,-0.4853617598744111,0.004244382209100064,0.14337707752441645,0.05722969746927212,0.5018239142880038,-0.31424408391288605,0.11817378112707701,-0.17370890161137353,0.012639329819102813,0.39073451098614675,-0.006404300375861367,-0.28069868875673437,0.13619892772132813,-0.3105012385859237,-0.16571999204470642,-0.05671490410550459,-0.3937249140254138,0.24924865134022603,-0.5261578444904972,-0.08332162283915007,0.32683174217226924,-0.3263462647434544,-0.35135721415864873,0.44923494827607907,0.01592717687412221,-0.41450824671550923,-0.08927870649334414,0.42385753943407467,-0.4986044145619864,-0.42418634854579174,0.4717421255055249,0.20466598158402208,-0.3445658722909196,-0.15051673003590643,-0.09806512784703061,-0.08079060666603352,-0.32467785641549896,0.4788974769305044,0.3236765103554382,-0.0430406384675655,-0.1073303567657935,0.11506412264491919,-0.17393582564668048,-0.4848697824441211,0.38717705832911625,0.3491304092118756,-0.49241682056598207,0.36194094317149583,-0.2935346319518871,0.09029580903800745,-0.21930948932504388,-0.1270476743130393,0.14552070776542889,-0.09024008672802686,0.159162363335409,-0.17434606745470022,0.007104651837431837,0.034938402449029765,0.36261123229001907,-0.4902734074578383,-0.29491690123160114,0.20561340124679223,-0.10184772064627277,-0.08703213936075002,0.007712580892908468,-0.28728755022873903,-0.36785496544066687,0.26314433421439226,0.051338065196706605,-0.47154437994521187,-0.4086592530429198,0.3386061809374584,0.06467097119575971,0.07250953563327177,0.3881527135939191,-0.13177322707004746,-0.4441401900261549,-0.4733242690712976,0.2544997149765846,0.30400561873555415,0.4757415985082805,0.01862058085183635,-0.24446834964394934,0.25070396417716906,0.010355120873269159,-0.22214067086827216,-0.011007678083129859,0.07104834848947303,-0.46794191329701856,-0.07150385787425259,0.3643314413524235,0.41874321198848236,-0.20514299118875937,-0.20465559587454765,0.2110385294322728,0.08127384132177333,0.35902776578671663,0.26257866891769527,0.1289042576239414,-0.047599606587276265,-0.48317166702785475,0.16791333150036042,-0.4024751991750335,-0.014845831410388895,-0.4893174925260074,-0.19971854858854438,0.4231234464463352,0.229404661278087,0.18412061368665172,-0.3972354057584017,-0.17624173778777813,0.4022398228370136,-0.4400311593977711,0.3480712526368043,-0.363052141252686,-0.3997874321377267,0.34300013113639366,0.4840140558678308,-0.24260170962105995,-0.2574276870804148,-0.2668894949824232,0.10577238944030702,0.14938756275758241,-0.21637182847006475,0.23786676619161212,0.1645914828555412,-0.46884472323292975,0.1761684058357796,-0.13882903919691847,0.364554111753674,-0.4853717273647084,0.026038320000589886,0.11691897581913087,-0.46442716285008495,0.41261389953888294,0.20074759013114354,0.4061018453725331,0.0013181758380614401,-0.01249072909783432,0.2108983928786124,-0.4184619944190675,-0.24009623978884845,0.026851610473816054,0.48652593873135636,-0.3865942301905977,0.012792881133647127,0.4737075679515861,-0.40042857317284525,0.03454615623401105,0.4238761871341529,-0.32704444808895955,-0.3518068376318622,-0.46316870757914214,0.26859512589427825,-0.24709576275657755,0.053262467546270946,0.07665774233830001,0.11126787580858616,0.13843547837035813,-0.35376090384872355,0.038969954344883914,0.37002819453233887,0.30537955646371906,-0.3820640466255666,-0.21084572649248962,-0.17552331653113679,-0.4307896821423566,-0.04298240072458572,-0.25346962596498224,0.1328684008611013,0.3568905212451353,0.011658760236488269,0.2501302895910116,0.40607702484566344,-0.3593268784174174,-0.3543890011936399,0.4751846062355137,0.23883664798960685,-0.4138485870562032,0.0660532417372712,-0.30490731919890635,0.44687090161534576,0.376201894665671,-0.08128138757581262,-0.37914478307762023,-0.10532653221914093,0.43106959861169303,-0.4566286858513636,-0.33711151471612344,0.4831285851947951,0.021214532472293834,0.2462853073709594,0.11180141420343725,0.3090442936460198,0.04142428935876837,0.2761705225741447,0.3358198771916949,0.25047652801813564,0.08990277910111732,0.015945014557538096,-0.2534097254779623,0.19334864427657295,-0.3513788011703844,-0.2369501329221629,-0.40623119042676253,0.3095753126548116,0.14362403935893323,0.30823376446068734,0.12562318888366616,-0.31071887098086975,-0.07587539301447715,-0.27188939283037405,0.3806149027514226,0.036252256253157235,0.026916409123273578,0.4511422672539123,0.16787274132463717,-0.4006014652382989,0.398744456573827,0.30143148510268064,-0.20666362335096072,-0.41205318966247373,0.4709787995488713,-0.4809639821033187,0.01302884769279751,0.18172854109698464,0.5136137616006974,0.07401319386548486,-0.07102445179289105,-0.41585855843481023,-0.267661888872141,0.12976709452672225,0.3497798536100631,-0.16352626221494054,-0.2545856411096949,-0.3472505993713673,-0.18409656448935838,0.3197999446980813,0.4450560141833478,-0.33997032838679175,-0.13786406405694637,-0.3873287407970022,-0.37496643984914035,0.442219528896478,0.23408601065426163,0.058882557243530476,0.42904868830822407,0.013519544034414736,-0.3977879641636324,-0.1429674192870711,-0.0038428322468520987,0.29862991781852827,-0.2922727688514831,-0.2982469111658688,0.35845923113986267,0.4414529410129456,0.15865909617514987,-0.46449408562734973,0.44468582398110656,-0.1105249058838387,-0.10051806023009882,-0.04762527155943206,0.21989081446971234,0.059042710784495335,0.17934981171556175,0.251263962771429,-0.1721679562875808,-0.01118757589829341,0.12012378407640838,0.16780464183147364,-0.28311837488255764,-0.20194213604641184,-0.23513708601715194,-0.3752642410817342,0.35110573220817354,0.40511636486994024,-0.10492882541002865,0.32911532281556216,-0.3731462138800932,0.4397925712762812,0.30234877547341726,-0.49133985637968425,-0.075251360078125,0.06069362217161005,0.27512405722511296,0.15905264846716724,-0.3374979283618882,-0.3265703740164606,0.10499060300198225,-0.2418261318096693,0.2684214210912869,0.053625979525043194,-0.12287547213516781,0.03488092596132886,0.28801085134321086,0.16764541677513736,0.31348150890510323,0.21169569334460298,-0.07849963654747373,-0.04315855667910836,0.029067751757594355,-0.28673430087131957,0.25185312927733267,0.2621196064662298,0.27553186582476946,0.0030350083947240972,0.38270461301250897,0.08776305661180969,-0.10334776738073977,0.20272152150878056,0.37504466052866636,-0.2566487499754042,-0.17952670505322005,0.04470121988279637,-0.30400226321451307,0.5239941215284287,-0.317163667537222,0.22933225970291504,-0.34817092363506513,0.2882172865498872,0.32162209391453583,0.29643804255943224,-0.23987662105319552,-0.42221335366384743,0.3589094502866369,-0.13425647425853837,0.2496269153234918,-0.17889599126237934,-0.28464305452840305,-0.36066606816781677,-0.4235553726939098,0.4348505001053052,-0.15427444245923122,-0.4530399740177554,0.3788946468993955,-0.02535691498736319,-0.19226116534885043,-0.15250097368305301,-0.06740510606304868,0.38575353005781526,0.1283079992479564,0.30287842198987724,-0.42044874238054764,0.5044097622162125,0.45377363401625664,0.08495110248275817,0.34033369465638486,0.4128347442241775,-0.2478599218788757,-0.48449106630958544,-0.5067922160775682,0.4328667729878664,-0.4308865048920788,0.13110315252064073,0.4429925408750298,0.3788247541666483,-0.10195128983234514,-0.12117366057899459,0.07190475354247991,0.4006900146773498,0.45808608486404895,0.036339244853437314,-0.2840880383727584,-0.3940150974480062,-0.38001620833532634,0.4327332835425558,-0.07617060843731734,-0.1932096595657427,0.06504656379717119,0.1950825123898147,-0.1541034582490438,-0.43901130658480214,-0.3328373629588938,-0.04268598927887278,-0.187067895480209,0.30385040678226466,0.11168044649573555,-0.2245865757069393,0.34493130046836384,0.45470701505881106,0.2443186920435551,0.0045320028997869145,0.3876435671304044,-0.06331408046301473,0.04847501318780501,0.31895795386815534,0.2553915531755508,-0.061365720486143194,-0.07096236934057464,-0.22395076458257676,0.17429915520406264,-0.3567697981039505,0.40711701157340774,0.393185804141394,-0.02147958286086947,-0.25924110625162683,-0.04822037434594757,0.43745123446782097,0.32783622100713883,-0.020720704774585957,-0.23462619173981894,-0.3480181637185341,0.4395874817075237,0.28577306593035684,-0.2739272719283131,-0.4511409664711686,-0.29648682932639464,-0.14819991983619157,-0.130495057926795,0.1780356881786919,0.297439458896768,-0.2824770096059223,-0.12425289711937217,0.08042936311214438,0.26412303415254557,-0.12483927034444237,-0.46131019696353565,-0.4984420089339694,0.2534194083341513,-0.31949860029721466,0.190107618372437,-0.3387067276535991,-0.31020089145849344,-0.19050786016716478,0.35989615062916813,0.429919763437888,-0.07372568422532359,-0.28268641026355856,-0.19397670203640963,-0.2663476859389773,0.0421945621155499,-0.14908667361603886,0.139562579652649,0.29373880596964125,0.012352155800312951,-0.19466109506316853,-0.024064438374693305,-0.272199965152167,-0.4510407719276408,-0.44113976021499296,-0.33334586674222794,0.35727852397414905,0.38116261436039245,0.025561194493194613,0.14229276037547675,-0.4657821686971415,-0.37569002266268997,0.005621918481591824,-0.2968031180616947,-0.3316790755493998,0.30263555269599635,-0.09416906015630377,0.5201788257840566,0.086395042664858,0.12966231802623285,0.1380645526484053,0.38395910678814593,0.3875990932132275,-0.4191831734190306,-0.21480444363171353,0.12879018356607855,-0.224525914738918,-0.19343270420358444,-0.26719622786256414,0.14141400190933384,-0.422084069094662,-0.1868047807314235,-0.341177998559468,0.29388655172465383,0.01769459164919924,-0.2055910925044045,-0.2433075653712987,0.027082947205270453,-0.2640261169351989,-0.34745572602289104,0.019562611982160888,0.19214526112595998,0.2896196287383624,0.4468530256943494,0.41422750293901983,-0.2909244629381999,0.05800218291851034,0.308603746046074,0.2808812350742208,-0.21524041399185223,-0.2016382593117593,-0.0337362172498402,-0.4478898213777311,-0.189345633924006,0.14951747811146743,-0.03263218653839031,-0.03509670649886811,-0.007547902384718,0.48474037525761954,0.22990427096001076,-0.23808504575342568,0.09941000637407854,0.12497709332569648,0.14997135550627502,0.016655245078926326,-0.0500935842099686,0.2619162051019748,-0.06238645868097571,0.4202213569299498,-0.03965505386341685,0.29469495152998587,-0.24343557790561302,-0.12121640120393992,0.5089234354819594,-0.0936782682064713,0.0746150403431594,0.5149573751943706,-0.18181815915721583,-0.4205748151621254,0.41961769473325494,0.11759362085045079,0.15501083427960005,-0.22769537512551544,0.03743038120838368,-0.2625701436906452,0.1489417797619243,0.163097729440486,-0.0603814262475098,0.3288068930110117,0.3914501278498525,-0.2472482156154904,-0.25410456234319306,0.011581092100378984,-0.38862066510389737,-0.08901983435737394,-0.07127245141769283,0.3367931859238394,0.3934294970200884,-0.3272108817760223,-0.12587380294033657,0.25477794767679024,-0.21762396400907033,0.0367306112146395,-0.35973107460458165,-0.33910890837355795,0.13250210493888798,-0.025755345780390522,-0.27743660777474916,-0.2800410934055045,0.2501857605088598,-0.493370273710749,-0.5031416548760055,0.23070020206491315,-0.5171764698080151,-0.10656286105498623,0.336132176564277,0.46878326924794184,-0.434607565402128,-0.14171443797905148,0.288061283154497,-0.06903783533131065,-0.42920171712510063,-0.2642064571177872,0.12965087121731192,-0.10472480835835793,-0.17484152288613905,-0.39321849908780737,-0.31141503946078153,-0.08781143593503386,-0.11332395693249459,0.37506084451652094,-0.06077181631254381,0.29466435042931727,-0.3720393926242449,-0.006095773890592892,-0.16050341725511572,0.4361554087373282,-0.2043475810533228,0.19212371175232146,-0.29238149965421745,0.40854013095719494,-0.44332012759026534,0.07649966940641137,0.16489393429171612,0.3877631458611176,-0.3587854719762302,0.2565896883247318,-0.32034324385908064,0.2426792920813165,-0.253006337778951,0.31742935856617616,0.4185732881520296,-0.40262752461774237,-0.06034701583923787,0.30076817148402235,0.21481001456818297,0.08210389719096207,0.11741243378054876,0.1822471980297316,0.4436754177908833,0.19243441188108043,-0.3533057166566287,-0.08065800291278039,0.37430868156233094,-0.30599723825308817,0.21750500106634457],"bias":-0.10690389559044652},{"weights":[-0.17263205239981508,-0.3782796783950318,0.2664289048344322,-0.43369679312176346,0.2579491217352931,0.45861805264219474,0.36660102327798477,0.27556685246022106,-0.3814868009235268,0.06582569440241756,0.15478781146562587,-0.27578274987958995,0.3032452614297427,0.4310694468205471,0.3258143152703923,0.4011656932880652,0.2129456288055334,-0.08412268527909769,0.22386897796128974,-0.12667902465055048,-0.04890703966400639,-0.24573947845000674,0.20941807777685398,0.28795093167722763,0.25253200419072397,0.139633826734798,0.35450239811815715,0.06767966436159158,-0.3172715248008896,-0.3706401905986033,-0.14301415488342006,0.0843206198494744,0.27021672162543275,-0.3063542989383131,-0.10850610066927172,-0.40260201892519754,-0.47393194483122697,0.40304532450510594,0.5106643999084652,-0.01954228979635074,-0.29203290688920674,-0.41729716051681104,0.4603679856412895,-0.3554805884082992,-0.3816754275471957,-0.3520955819874663,-0.37639409994882617,-0.0936904922891248,-0.3107140265621589,0.2797600658727795,0.462695908448769,0.13581246019802246,0.2648324000550097,0.13628448124416084,0.19049554994576454,-0.2501932395514689,-0.038599897235492696,-0.42813124772521616,-0.35607434983162056,0.2641562028424222,0.5112637242808574,-0.19000440389753492,0.4511642991395759,-0.4170331809414535,-0.4020525423920189,-0.12120276538656222,0.5517305845910266,-0.3794766380131221,0.5555885403016444,-0.1580398785589698,-0.18496239381997628,-0.38719502964821656,0.07203059721960335,0.2835341574087629,0.31199420334456285,0.08419910583225683,0.11108482741457625,0.310021039709989,-0.19184935532500347,-0.015603860492451948,0.11762976713340548,0.036935910778954494,-0.12397844046437298,0.37966288191863523,-0.03557188432014652,-0.4429501295769338,-0.17052044184785725,-0.4065810851815631,-0.2865389687949602,0.18480436704471484,0.5318993397817994,-0.42030615132879423,0.22036308632286358,-0.30542418492942963,0.08197446829464476,0.03578646856403987,0.5573022260479811,0.21376335217058537,-0.1555402526465234,0.4370140824240036,-0.2669487197672905,0.5069204211978888,-0.27898162171443885,-0.05508768598950122,0.5188623305622421,0.021051125965462117,0.2225775514909754,0.46583823209288644,-0.3376904275964643,0.23668748894218003,-0.353446551827593,0.45222817224087397,-0.36293271253801573,0.010298460480184563,0.056160955899648285,0.4756652732393973,0.29350382858708074,0.41688592133652097,-0.43184812165528375,-0.14817079402251676,-0.40374677165143824,0.5358416100806211,-0.3707217155629713,0.5171304368417482,0.047090766323340444,0.009217491685945824,0.07826920088103817,-0.0718530535697557,-0.19151350374015483,0.38755905845419003,-0.40698552380578873,0.5237562857839648,0.5563177309351226,0.3884236888874595,0.4388476163866522,-0.13788610748498747,0.2798062974622564,0.3997956590003045,0.2513695847409932,-0.23638019631280094,-0.4338023933237213,0.17538929796830008,-0.02205200725319582,0.07900689463428329,-0.03655583377289162,0.4237898168538425,-0.4172359618954416,0.1429644331293572,0.05669997249635843,-0.4426597384843607,0.4097750177442074,-0.13302037886994156,-0.2401030184318285,0.11393429171755229,-0.28851010362549856,0.5002147182755389,-0.2183780025611939,0.37282357415553036,-0.026530746059878502,-0.04183264518281669,-0.2686701072565162,0.28831243547105995,0.5148289556525758,0.3239770677707117,0.37938419272532786,0.33826950220672586,0.10264791873519215,0.36118811851899696,0.2947058687930878,-0.13502039726431705,0.09740914111117478,-0.03361402722979872,-0.1659556983242417,0.13843622664346156,0.176828684346655,0.46636653804303946,-0.3994578982190665,0.4354850785863557,0.09183498570128631,-0.3135041325981214,-0.14404121423396188,0.31696791049126904,-0.30860078459844276,-0.14852075792317374,0.2565520240761329,-0.43912325690368453,0.012765219991621703,-0.04163440011421623,-0.3259905987844152,0.14428584526019098,0.5447096137061834,0.25413683938822934,-0.08234153051681586,0.4644061570039348,-0.47377565854223114,-0.12718422238266097,0.25106549777806764,-0.4017474702551554,-0.21813611446498865,0.5078661285380748,0.15199609172419634,-0.4446592497153464,0.5260873618714067,0.49016500361004445,-0.2411950919907527,-0.06659438300475722,-0.04299782146921565,-0.15601737249225092,-0.46122988797047865,0.2752316496286857,-0.04581969581010247,-0.16016301108707282,0.08065460777684236,0.05860022121178752,-0.025437007062755902,-0.14449723883425608,0.5045640213150034,0.34879186479540575,0.09047951869487943,-0.19627568996980407,0.08921700665882303,-0.3699509865619241,0.058440160319932766,0.27367235073188634,-0.06467779910240107,0.34714658871074777,0.19460296668999397,-0.22028459883912133,0.34498165654685403,0.2795096736370303,-0.17503634725098025,-0.32551761283689357,0.07191437336019225,-0.21834756895913754,0.06396461802130886,-0.3940018257835997,-0.05091075659017122,0.07846086524902914,0.2753415185129902,-0.4302787120233136,-0.011458461102595427,0.3252799965015286,-0.1433552528111775,0.39769693957007046,-0.21554445630887434,0.10905621618713043,-0.12078564660392277,0.258072731714592,0.45429829830993673,0.351916393158724,0.12198538663448863,0.1360585014122543,-0.15361421993134827,-0.00921066811653243,0.16120325072558,-0.4283673200962271,0.012922099632024413,-0.10518488098352363,0.30682683180594894,0.27327810353401805,0.25336926263461174,-0.3925840030497991,-0.15751888101231798,0.07579157824554823,-0.2444120429593428,0.0920699810148983,0.05665905621235883,0.2263071263917329,0.24383236571449363,-0.38232642367691705,0.34617869159404857,0.3867502341418066,0.39407200750621235,-0.3379667224558017,-0.3595406438037055,-0.0768465051702352,-0.0496931051640397,0.21767472285095002,-0.06882301366132158,0.14842923076561423,-0.3816764818056501,0.4053154074761136,0.48334032286661754,0.21051230286446068,-0.2860145349500015,0.3088210208842624,0.2222906594921604,0.025332912545709074,-0.1120963832958903,0.05256385494094601,-0.3007027793442602,0.13037783690808835,-0.36138778608952643,-0.40656323093354224,0.4210192776930126,-0.32880228249560384,-0.31565510243108524,-0.012469506379124301,-0.01626002372426011,0.32798583188806174,-0.2120409820927673,-0.3248192246328224,-0.019982172765792366,-0.35953483276532316,0.4752309736164276,0.28538355568375007,0.45975503786313887,-0.2869358641927269,-0.21489358016690568,0.14140635215462255,0.019313493442018076,-0.07878012073964036,0.4924484738299864,0.16213740871260188,-0.010046484294205295,0.42438203925925394,-0.4713041800763438,-0.21939124321146203,-0.08136146289978752,-0.2974807173754505,-0.10292781352956457,-0.15756376223933455,-0.3351664771745,-0.04731282339447835,0.4021714583079728,0.04539930135817404,-0.47425826538678845,0.18055860768523146,0.30391594842833247,0.4117831330567105,0.37220300197024253,0.4368852504073381,0.33599812711727245,-0.21499909214176685,0.3711296012465284,-0.09178126279657271,0.36810334800980155,-0.5191539672394319,-0.34051101932030875,-0.20894671810947213,0.42982198679625744,-0.31593310102495953,0.11915858697896249,0.0935088356982727,-0.28315309216796075,0.3791103542752716,-0.3372652926727854,-0.5314056079247561,0.16599323322492765,-0.14742054787686354,-0.11292009605596481,-0.4205611249786812,-0.38868377180665736,0.2552516180928842,-0.028903360371577473,-0.24894156308631527,-0.35969011971437315,0.19113371667700593,-0.3481035785909556,-0.20237972040777555,-0.2601418961733769,0.30385302795109914,-0.29057426999196784,0.42826349808078934,-0.46767683280304817,0.33313026793515144,-0.3399383748048935,0.3569820587713771,-0.23856568201453565,0.38324781666468427,0.25606683339177005,-0.05713378622082549,-0.2711450016575723,0.11132597227572888,0.057227740843188914,0.37058061665199604,0.3424061189785787,0.23692549401770416,0.17550758132101385,0.44157961671507245,0.053649476430199045,0.2677647382741037,0.3645756474111624,-0.4377055137789059,0.17629374415891583,0.4033737572112222,-0.06688538763627236,0.07762668617568687,-0.06991330506380102,-0.36253105983915884,-0.04630981032050425,-0.05628321142860564,0.21144621071350275,-0.4797384390486559,-0.5109365265595801,-0.10439971797939165,0.0077919646484677805,-0.05862638508557792,-0.4177394657316538,-0.4162010802946693,0.10016549622869154,-0.32023102516300067,-0.527191033341921,0.1672743868661046,0.06255981022961292,0.44987945821024766,-0.45720407334330343,0.11437880941831155,-0.23660511157481154,0.2546260342950844,0.07682072380292518,-0.17462131324167735,0.13520175985464863,-0.44301500302346664,0.1474759172105047,0.25998618356453584,0.20473556479901037,0.5064411991540075,0.36827010264936494,0.2787062175495997,-0.4072884566945281,-0.24582812247236915,0.23892005631148014,0.1271111775981157,-0.26542694411148204,0.18636527053062046,0.3144096031855215,-0.42860321074191704,0.08859782466724246,0.0798063471328698,-0.18216273181945236,-0.4110090760207242,0.18638384490608847,-0.2772365802107258,-0.20372180801070083,0.2505494411838617,-0.35325752026822455,0.46227558179405187,-0.1557261074492564,0.48875514706012557,-0.2970343363526647,-0.14857858170072713,0.4488389683658823,0.06542124919206321,-0.12708100825750357,-0.2757081204996391,-0.15278350896874088,0.36995772643472,0.08220916817453053,0.3009174264360737,0.36774707286010266,-0.4801646848880502,-0.37827073962081875,-0.5300261592048602,0.3391365874689868,-0.037545412095261695,-0.49754584888700837,0.3511652980092451,-0.12010500125107797,-0.0895837255991626,-0.38066675311402204,-0.02441387218140788,-0.3562974484682482,0.007164811055968579,0.04714333627387705,0.48117922742390623,-0.39086224576793127,-0.21275347891224128,0.052637331195652524,-0.21129541513670524,0.11044024360758738,-0.2741324136252097,0.49525261024580897,0.5117630678470697,-0.3546084259652879,-0.47571734978953495,-0.29468145794593104,0.28291323749291514,-0.28116272088810074,-0.3104755293695742,-0.5658647712331298,0.2285752037442376,-0.15027237737907845,-0.236096686029242,-0.10384508897585401,-0.3086313149608433,-0.10083462324640696,0.3176504821001629,0.24863488110121887,-0.31464338832384714,0.23956673899637476,-0.2946337191821607,0.44496999013068955,-0.17187906265434943,-0.17414689721069873,0.14567585090423119,0.17318612060897415,0.22800809296117244,-0.33379610217554084,0.48945450684242137,0.3266945212154615,0.12462321761833697,0.42526461636214724,-0.0004465574734925182,-0.21964351164605198,-0.40655580322139895,-0.10536752294915924,-0.27759195985407714,-0.37845055281554946,-0.3498673980039038,0.139617811031531,-0.5129666959480276,-0.12152474205877083,-0.4447024374257325,-0.428520690951566,0.09937821550942419,0.42790312687367527,-0.3124910236290376,0.4063738656914362,-0.20637884530419867,-0.14151561688178976,-0.019024970069398118,0.23308568456499892,0.3773705776859123,-0.26765378815208235,0.32033620548807745,0.5156655750779654,-0.1941713570464273,-0.04963903702689566,-0.08677307578221434,0.33646075364346467,-0.45023331098673247,0.0018823661392374528,0.059547662100113204,-0.20343253162630093,0.32641909982687156,-0.3316966374305914,-0.55603109577563,0.19368725515778867,-0.48275774182474496,0.14680536361646915,-0.0021912573626713377,-0.27321185646711127,0.0315026337301403,0.09389206137027926,-0.12125138840932109,-0.279069073755822,-0.13678631242823416,-0.36896979602453445,-0.4537269419567343,0.48881677838528786,-0.4241433808852494,-0.09981449991985973,0.17843644175064208,-0.34035750505973555,-0.36641100058901466,-0.08494984895337084,0.19192154344397228,-0.08150891565019339,0.2740683005731832,0.11276534496918421,-0.012620853832866583,0.0019152162638576998,-0.184989428033489,0.42629982945270845,-0.37187041308978797,0.44174285356535237,0.08836561924739221,-0.466482407516204,-0.15521523274199567,-0.17765618096339839,0.1744611459952121,-0.4517722594524102,-0.2578165526923854,0.35472931731239465,0.019769490781283396,0.1392016316273267,0.32528975467783405,0.1078450479219047,0.37999063285866963,0.19110546383161842,-0.03615814526612502,0.07370142489138187,0.4366370611024441,0.03762169245384152,0.16946126489779637,0.07068395007071528,-0.1405349806905401,-0.4553949914499399,0.2792895632038131,-0.5135931267153061,-0.3666416851403669,-0.4060524365002403,-0.22267605422595332,-0.36043665395059654,0.13425482144039905,-0.014856976640230363,0.23085196596099428,-0.09404339580325329,0.2035341130311134,0.11780159796566933,0.40203592327123855,0.3660761293709577,-0.3774098579162845,-0.1652094782968802,0.2641763317520467,-0.3090954226241209,-0.3825727490199675,-0.2793404767824014,-0.19644306515219298,0.088673981671244,-0.44152549129483687,0.0623631619796879,0.013583723366819359,-0.10642451944240457,0.20378635464267805,-0.35007792664798776,-0.45773860337651484,0.17048311665632224,0.41615561756183705,0.2103981661700416,0.2893729053636954,0.44296692112647207,-0.2159194963428218,-0.3261102770690826,-0.3551245369308111,0.29818006347375264,0.4526257217988958,-0.13688384615178556,0.5059801428019544,0.46473401022749716,-0.1453444797491761,0.20681231893390623,-0.275716630165978,-0.20416754468011947,0.20138344730889604,-0.26817335738787085,-0.3357037882005726,-0.11707168382790113,-0.45070616815659253,0.03189728061569128,-0.3765261402759051,-0.2534155502774393,0.10553530419233069,0.39087116473638844,-0.49201765226298816,0.034131178175054774,-0.25791232804574693,-0.10777738232639528,-0.1550858960366343,-0.4823774964089089,-0.4423125426594143,-0.28065298092011143,0.1996448282415158,0.13083618856264811,-0.28672156572892005,0.024891640147832593,0.46826241523013057,-0.2939664289877177,0.5479759359723259,-0.35044672221948403,0.3255367317113433,-0.20703410613733395,-0.1552475385667646,-0.2480131697169378,0.20069213953071638,0.33416463633842647,0.3467674701881292,0.23114121456443026,0.0732105007969387,0.008924330804750684,-0.13873928183325396,0.28114731850896985,-0.3749393852314838,-0.13568622257335547,0.4810042541554795,0.25528885148067293,0.22345739109084078,-0.16357224287594213,0.05632653039953621,0.48863754053946523,-0.3738367078268856,-0.2602046169644266,0.4401694015132384,0.0737960439012261,0.07253561160347263,-0.054725615626048864,-0.05131720442930585,0.2879108380284459,0.20604349479936554,0.5000782365464507,0.37151600861162903,-0.07211752196954264,-0.2556425555714241,-0.4949015390389139,-0.09762281604529469,0.2962396257807947,-0.12326086574740848,0.10845474890486688,0.44306355207410647,0.2988013037639567,-0.14334095893162213,0.3525734310892593,0.22028560774201078,0.15172543580109757,-0.31303967442012953,-0.2613972689243668,-0.34985590008520706,-0.24205399238381484,-0.007427052237323983,0.09232628148515484,-0.09593265535568936,-0.20442743438828162,0.10302562615620432,-0.14038818972331893,0.49504060872903,-0.14445918411485964,-0.14133918976134657,0.15827746910952536,0.3455993402243529,0.27474480203569673,0.33153186736609375,0.11929935436968005,-0.25271200953727524,-0.25699519877897586,0.32829186095867924,0.44308370898659744,0.34447764873656,-0.056808869367452657,0.1746069809188011,-0.44036684355259653,0.3063978658207181,-0.4075629772048635,-0.20340523449475356,0.05421461274287155,0.34265227202015036,0.08847558706017952,0.19921966115025574,-0.38662683880009746,0.14023623901257493,0.04938659593160935,0.052469149696085404,-0.17093952097560586,-0.1412243287761402,0.4350337615163192,-0.23748192130812576,-0.18233957940977397,0.07129870866019465,-0.018824410160565026,0.27591624956980987,-0.47864331815925326,0.18386366815416946,0.24182904597235994,-0.09414244824331484,0.04034588534935946,0.02206740306010641,0.3583544287466449,-0.3384751625431659,-0.2024259866293926,0.4318995414351853,0.37852186034146484,0.33706758276539417,-0.3583457039355401,0.25292568248237407,-0.43526552757572473,-0.10628892432327232,-0.49924435093254116,-0.42010462180943614,-0.35305695754682104,0.44809982051543007,0.32422487024115376,-0.07819824256893797,-0.11829336563867768,-0.07524682879750887,-0.3119654507411575,-0.3082937853650007,-0.04898877271417274,-0.3308981686012745,0.43749050471497003,-0.4628832798631611,-0.48236529755757906,-0.4376916404003649,-0.3069417995031102,-0.37296787544344867],"bias":0.025323337093935534},{"weights":[-0.2907831859550199,-0.35726864482980303,-0.29937270563900825,0.17058348760990494,0.00882259239778466,-0.11158223191457478,-0.4081825765272481,0.14558300408345184,-0.22586523705172606,0.26949780256414585,0.11442617304977604,-0.5145986057897131,0.3371444554733129,0.2167167530527934,-0.23147267160594057,-0.3776831209137222,-0.5606220340028057,0.3170505733469732,-0.531298702177068,0.1717181412746625,-0.41138476209119984,-0.4889000160507174,0.29386862482094195,0.15834803640788075,0.17133983270024383,0.22554498045183072,-0.3910716602756313,0.2442524386531469,-0.44085511980572617,-0.16304278733503058,-0.5054987070559719,-0.4246780123861208,-0.13309801295522058,0.0360602290261887,-0.25048279369403575,-0.05478517687914601,-0.14387011412370615,0.35810822463473496,-0.4533758122004389,-0.308401914537266,0.16819920167061406,-0.006922666566242147,0.3582677769330589,-0.006152269983014395,-0.07066589193815737,-0.14745633424682386,0.25105039780134314,0.011648091628644582,0.13515181864784598,-0.5050854315859853,0.2786436563123299,0.08451561861512094,0.28215350255186816,-0.39382074570312153,0.03225461557048718,-0.2341050724751183,-0.38010347771397063,-0.4325269555204222,-0.44199918946821565,0.11344407639776224,0.21631812898898856,-0.03193040297960651,-0.3856932566307071,-0.1367211417232981,-0.27968019629516294,0.1723542348320276,-0.3266262263709509,0.28068025519526546,-0.09636365236676293,-0.31989697503824743,0.40202437781096395,0.29855199154403794,-0.3641728603037599,0.20247199432982943,-0.25477957315629757,-0.14571167447334782,-0.46447610162347314,0.4519488712572387,-0.2710187479941138,0.2258305591352832,0.07013255351993006,0.03942805958008576,-0.1456110658234592,-0.26504587365582116,-0.42820258040501535,-0.19095070748360266,-0.2374497695390121,-0.2646351703301803,0.17182220000008622,-0.2746764310348344,0.2188933463357709,-0.21909513969473965,-0.18782917692558546,0.3824654998243144,0.25160166984626803,0.3532033740704094,0.10612083871908048,0.11607411261228145,0.0016207743686800803,-0.4764478055240551,-0.07952391301931229,0.07191893770030568,0.03471934261325668,-0.29910645210812525,0.2102805291553981,0.12577580739164002,0.28429327488436346,-0.1952543865041683,-0.38901147273073683,0.2003082435348749,-0.21401943815251476,-0.06132319537218543,0.2960537804979728,-0.2792170966744547,-0.1387361460914307,0.25971542882878673,-0.08182385299627778,-0.1005399031263272,-0.43080535289554506,-0.2400602672812189,-0.14211237926047446,0.3643910115699703,-0.5029484639270968,-0.26755545497274896,0.029497371768915523,-0.12383634402649576,0.3126478477327636,-0.3739225320770887,-0.18477272438108414,0.27144254001468193,-0.0463486849772041,0.26646360196576785,0.2004341468682663,-0.2929275103219471,0.4194396289458787,0.046562063983261355,-0.3468524127605897,-0.1930499335639333,0.29801395263692854,-0.3016367968373555,-0.3324322885637532,-0.5544353220388992,-0.020653088809261054,0.19221278062696942,0.3055160764533064,0.4247177992359624,0.09772243951523932,0.3312315509990241,0.28381229445328293,0.06517172734936377,0.4331764753632558,0.348492882300359,0.38212248302083957,0.3907478681083935,0.47723566975821574,-0.195322769374881,-0.03397818223467258,0.4542717921889809,0.02344210680355236,-0.4839596338172836,-0.22478193549791617,-0.4024193608641636,-0.370332949612613,-0.06933464309980039,0.14723517298382155,0.01928598998688789,-0.40136649472561586,-0.5519175906868815,-0.43028366870684814,-0.3831127161273192,0.0348477404542691,-0.21351855981870527,-0.187193094198387,0.4578029356701104,-0.1806125368887988,-0.061439593167368536,0.15356641017731174,0.2907014877425988,-0.2929472449879413,-0.2294506477031327,-0.22404292742072757,-0.0302860451144375,-0.16232158214196343,0.23895976680071487,0.2902077617583989,0.3933431695194774,-0.0035412053271573524,-0.41381581416735086,0.21739606216317972,0.027780338671173223,-0.09652176507977517,-0.2883781708401046,0.41072896556636546,-0.37480742201053363,0.33357970460874625,-0.09364746695455603,0.2743437751757637,-0.1769099901819999,-0.4488734924020164,-0.0634195164724222,-0.025248609992163374,0.4937748262282155,0.23123747457181001,0.5048963330015354,-0.29533875732470655,-0.3057771595519988,0.10051329372460117,0.351512986789034,0.42618434211343337,-0.3083055058644904,0.08767012692532314,-0.06732637803254435,-0.5229077246480395,-0.15389863039262391,-0.04199997552214692,-0.09917220812371645,-0.12290493027629348,-0.25815735346930135,0.14981797500380975,0.41798461853000113,-0.28734277589224183,-0.44119366966644075,0.27491348460219717,-0.2839686346533656,0.38170973993877333,0.16839222623268843,0.3994103574336906,0.0730676404500513,0.3182522835576747,0.2676048614599174,0.1907612995354169,-0.18904641426849766,0.20130197876788816,-0.01655329865866142,0.004026286343367072,0.0895969721844471,-0.40320633822005003,-0.4368456580369279,0.37926205883887687,-0.4033215767591442,-0.04632144734654185,-0.5127070739057882,0.07842297817210295,0.3873151018460833,